FANN_FLO_2.1
num_layers=3
learning_rate=0.700000
connection_rate=1.000000
network_type=0
learning_momentum=0.000000
training_algorithm=2
train_error_function=1
train_stop_function=0
cascade_output_change_fraction=0.010000
quickprop_decay=-0.000100
quickprop_mu=1.750000
rprop_increase_factor=1.200000
rprop_decrease_factor=0.500000
rprop_delta_min=0.000000
rprop_delta_max=50.000000
rprop_delta_zero=0.100000
cascade_output_stagnation_epochs=12
cascade_candidate_change_fraction=0.010000
cascade_candidate_stagnation_epochs=12
cascade_max_out_epochs=150
cascade_max_cand_epochs=150
cascade_num_candidate_groups=2
bit_fail_limit=3.49999999999999977796e-01
cascade_candidate_limit=1.00000000000000000000e+03
cascade_weight_multiplier=4.00000000000000022204e-01
cascade_activation_functions_count=10
cascade_activation_functions=3 5 7 8 10 11 14 15 16 17 
cascade_activation_steepnesses_count=4
cascade_activation_steepnesses=2.50000000000000000000e-01 5.00000000000000000000e-01 7.50000000000000000000e-01 1.00000000000000000000e+00 
layer_sizes=2 12 2 
scale_included=0
neurons (num_inputs, activation_function, activation_steepness)=(0, 0, 0.00000000000000000000e+00) (0, 0, 0.00000000000000000000e+00) (2, 4, 5.00000000000000000000e-01) (2, 4, 5.00000000000000000000e-01) (2, 4, 5.00000000000000000000e-01) (2, 4, 5.00000000000000000000e-01) (2, 4, 5.00000000000000000000e-01) (2, 4, 5.00000000000000000000e-01) (2, 4, 5.00000000000000000000e-01) (2, 4, 5.00000000000000000000e-01) (2, 4, 5.00000000000000000000e-01) (2, 4, 5.00000000000000000000e-01) (2, 4, 5.00000000000000000000e-01) (0, 0, 0.00000000000000000000e+00) (12, 6, 5.00000000000000000000e-01) (0, 6, 0.00000000000000000000e+00) 
connections (connected_to_neuron, weight)=(0, -1.48967139119008788839e+03) (1, 2.87133325979039284448e+01) (0, 1.50000000000000000000e+03) (1, 4.29902092016826387066e+01) (0, -1.03431134114957558268e+03) (1, 5.97364064270630468201e+00) (0, -1.43197493053810603669e+03) (1, 2.72556619922573375447e+01) (0, 1.81587767136630873210e+02) (1, 1.33092616577632156805e+01) (0, -1.39959153159211177808e+03) (1, 6.51189728666252776179e+00) (0, -9.15868628889589786013e+02) (1, 2.95978653716196637991e-01) (0, -3.37904813043378851489e+02) (1, -4.55942734425857398861e+00) (0, 3.14091538303492029627e+02) (1, -2.12468293650118500437e+00) (0, -1.32306240239274643500e+03) (1, -1.72227459986357245292e+00) (0, -1.49417722345420816055e+03) (1, 3.44760346544407028091e+01) (2, -9.19349838387959650277e+00) (3, 2.04237951649133435694e+01) (4, -1.10526132697122051241e+02) (5, -7.48129211891350820451e+00) (6, 5.00000000000000000000e+01) (7, 7.31441352798465960205e+00) (8, 1.51735143672106005397e+02) (9, 1.50000000000000000000e+03) (10, -4.55838698902575671923e+01) (11, 1.50000000000000000000e+03) (12, -1.50383938101126926057e+01) (13, 1.57412326267676974112e+01) 
