FANN_FLO_2.1
num_layers=3
learning_rate=0.700000
connection_rate=1.000000
network_type=0
learning_momentum=0.000000
training_algorithm=2
train_error_function=1
train_stop_function=0
cascade_output_change_fraction=0.010000
quickprop_decay=-0.000100
quickprop_mu=1.750000
rprop_increase_factor=1.200000
rprop_decrease_factor=0.500000
rprop_delta_min=0.000000
rprop_delta_max=50.000000
rprop_delta_zero=0.100000
cascade_output_stagnation_epochs=12
cascade_candidate_change_fraction=0.010000
cascade_candidate_stagnation_epochs=12
cascade_max_out_epochs=150
cascade_max_cand_epochs=150
cascade_num_candidate_groups=2
bit_fail_limit=3.49999999999999977796e-01
cascade_candidate_limit=1.00000000000000000000e+03
cascade_weight_multiplier=4.00000000000000022204e-01
cascade_activation_functions_count=10
cascade_activation_functions=3 5 7 8 10 11 14 15 16 17 
cascade_activation_steepnesses_count=4
cascade_activation_steepnesses=2.50000000000000000000e-01 5.00000000000000000000e-01 7.50000000000000000000e-01 1.00000000000000000000e+00 
layer_sizes=22 4 2 
scale_included=0
neurons (num_inputs, activation_function, activation_steepness)=(0, 0, 0.00000000000000000000e+00) (0, 0, 0.00000000000000000000e+00) (0, 0, 0.00000000000000000000e+00) (0, 0, 0.00000000000000000000e+00) (0, 0, 0.00000000000000000000e+00) (0, 0, 0.00000000000000000000e+00) (0, 0, 0.00000000000000000000e+00) (0, 0, 0.00000000000000000000e+00) (0, 0, 0.00000000000000000000e+00) (0, 0, 0.00000000000000000000e+00) (0, 0, 0.00000000000000000000e+00) (0, 0, 0.00000000000000000000e+00) (0, 0, 0.00000000000000000000e+00) (0, 0, 0.00000000000000000000e+00) (0, 0, 0.00000000000000000000e+00) (0, 0, 0.00000000000000000000e+00) (0, 0, 0.00000000000000000000e+00) (0, 0, 0.00000000000000000000e+00) (0, 0, 0.00000000000000000000e+00) (0, 0, 0.00000000000000000000e+00) (0, 0, 0.00000000000000000000e+00) (0, 0, 0.00000000000000000000e+00) (22, 4, 5.00000000000000000000e-01) (22, 4, 5.00000000000000000000e-01) (22, 4, 5.00000000000000000000e-01) (0, 0, 0.00000000000000000000e+00) (4, 6, 5.00000000000000000000e-01) (0, 6, 0.00000000000000000000e+00) 
connections (connected_to_neuron, weight)=(0, 1.84787052365583770452e+00) (1, -1.89434298005953749566e+01) (2, -5.09295513479239687626e+01) (3, -5.35478509449952522203e+00) (4, -6.23266118822372572339e+00) (5, -3.44103337351404059419e+00) (6, 3.36084459687796277549e+00) (7, 1.40200045713805332426e+00) (8, 2.91536308557806655983e+00) (9, 3.73448621816632853054e+00) (10, 1.15028146177293955077e+00) (11, 2.96378780699209842808e+00) (12, 9.64818594098991733077e-01) (13, -3.31376753513379229688e+00) (14, -2.67974792599274813654e-01) (15, 8.41818361155071803736e-01) (16, -1.91280401787655429668e-01) (17, 4.45210889947682597612e-01) (18, 5.24591502259810327224e-01) (19, 1.20901788590161540782e+00) (20, 2.90277135044191894053e+01) (21, 3.27664454657600678900e+00) (0, 4.31083628235119054040e+00) (1, -7.18128880958138204882e-01) (2, -5.41567740099126915254e+00) (3, -1.06463759125360257762e+00) (4, 2.18051591439606534673e-02) (5, 1.31347781220061454732e+00) (6, 2.03492824804261296379e+00) (7, 1.99859009716744062679e+00) (8, 1.63476567398186900526e+00) (9, 2.40790482390997073736e+00) (10, 1.91443189513175582306e+00) (11, 2.43550539399425725051e+00) (12, -2.53083272695231065175e-01) (13, -1.09596849129429187997e+01) (14, -2.99478425385861557473e+00) (15, -1.40429536487935324729e+00) (16, -8.19761805033824564326e-01) (17, 4.68184700745371795705e+00) (18, -5.81009878954109271199e-01) (19, -1.06443237502959942020e+00) (20, 4.95472548697249806082e+01) (21, 1.53057001418717875119e+00) (0, 3.09729101884832713765e+00) (1, -1.60348335089640663398e+01) (2, -4.59997667341501426108e+01) (3, -3.13173493875670372333e+00) (4, -1.71521069488217499099e+01) (5, -4.55386871171715590378e+00) (6, 1.34539080847293957000e+00) (7, -6.02500795998634451622e-03) (8, 3.18516562338909814400e+00) (9, 4.58481022599425092068e+00) (10, 1.14526132179277895240e+00) (11, -1.60233481340115990754e+00) (12, -7.06261246439094048100e-01) (13, -8.26083348332082967325e-01) (14, -5.15535038172400428280e-01) (15, 3.39006255459879612957e-01) (16, -5.00685177550865279095e-01) (17, -4.09422997757687423537e-01) (18, -4.37722170526072540397e-02) (19, 2.05070973225073025503e+01) (20, 1.04298282997419732965e+02) (21, 2.64173238993202774694e+00) (22, -8.23677475246266155295e+00) (23, -1.77654728808374784421e+01) (24, -9.27295999096954126628e+00) (25, 1.03999383792022914719e+01) 
