FANN_FLO_2.1
num_layers=3
learning_rate=0.700000
connection_rate=1.000000
network_type=0
learning_momentum=0.000000
training_algorithm=2
train_error_function=1
train_stop_function=0
cascade_output_change_fraction=0.010000
quickprop_decay=-0.000100
quickprop_mu=1.750000
rprop_increase_factor=1.200000
rprop_decrease_factor=0.500000
rprop_delta_min=0.000000
rprop_delta_max=50.000000
rprop_delta_zero=0.100000
cascade_output_stagnation_epochs=12
cascade_candidate_change_fraction=0.010000
cascade_candidate_stagnation_epochs=12
cascade_max_out_epochs=150
cascade_max_cand_epochs=150
cascade_num_candidate_groups=2
bit_fail_limit=3.49999999999999977796e-01
cascade_candidate_limit=1.00000000000000000000e+03
cascade_weight_multiplier=4.00000000000000022204e-01
cascade_activation_functions_count=10
cascade_activation_functions=3 5 7 8 10 11 14 15 16 17 
cascade_activation_steepnesses_count=4
cascade_activation_steepnesses=2.50000000000000000000e-01 5.00000000000000000000e-01 7.50000000000000000000e-01 1.00000000000000000000e+00 
layer_sizes=46 13 2 
scale_included=0
neurons (num_inputs, activation_function, activation_steepness)=(0, 0, 0.00000000000000000000e+00) (0, 0, 0.00000000000000000000e+00) (0, 0, 0.00000000000000000000e+00) (0, 0, 0.00000000000000000000e+00) (0, 0, 0.00000000000000000000e+00) (0, 0, 0.00000000000000000000e+00) (0, 0, 0.00000000000000000000e+00) (0, 0, 0.00000000000000000000e+00) (0, 0, 0.00000000000000000000e+00) (0, 0, 0.00000000000000000000e+00) (0, 0, 0.00000000000000000000e+00) (0, 0, 0.00000000000000000000e+00) (0, 0, 0.00000000000000000000e+00) (0, 0, 0.00000000000000000000e+00) (0, 0, 0.00000000000000000000e+00) (0, 0, 0.00000000000000000000e+00) (0, 0, 0.00000000000000000000e+00) (0, 0, 0.00000000000000000000e+00) (0, 0, 0.00000000000000000000e+00) (0, 0, 0.00000000000000000000e+00) (0, 0, 0.00000000000000000000e+00) (0, 0, 0.00000000000000000000e+00) (0, 0, 0.00000000000000000000e+00) (0, 0, 0.00000000000000000000e+00) (0, 0, 0.00000000000000000000e+00) (0, 0, 0.00000000000000000000e+00) (0, 0, 0.00000000000000000000e+00) (0, 0, 0.00000000000000000000e+00) (0, 0, 0.00000000000000000000e+00) (0, 0, 0.00000000000000000000e+00) (0, 0, 0.00000000000000000000e+00) (0, 0, 0.00000000000000000000e+00) (0, 0, 0.00000000000000000000e+00) (0, 0, 0.00000000000000000000e+00) (0, 0, 0.00000000000000000000e+00) (0, 0, 0.00000000000000000000e+00) (0, 0, 0.00000000000000000000e+00) (0, 0, 0.00000000000000000000e+00) (0, 0, 0.00000000000000000000e+00) (0, 0, 0.00000000000000000000e+00) (0, 0, 0.00000000000000000000e+00) (0, 0, 0.00000000000000000000e+00) (0, 0, 0.00000000000000000000e+00) (0, 0, 0.00000000000000000000e+00) (0, 0, 0.00000000000000000000e+00) (0, 0, 0.00000000000000000000e+00) (46, 4, 5.00000000000000000000e-01) (46, 4, 5.00000000000000000000e-01) (46, 4, 5.00000000000000000000e-01) (46, 4, 5.00000000000000000000e-01) (46, 4, 5.00000000000000000000e-01) (46, 4, 5.00000000000000000000e-01) (46, 4, 5.00000000000000000000e-01) (46, 4, 5.00000000000000000000e-01) (46, 4, 5.00000000000000000000e-01) (46, 4, 5.00000000000000000000e-01) (46, 4, 5.00000000000000000000e-01) (46, 4, 5.00000000000000000000e-01) (0, 0, 0.00000000000000000000e+00) (13, 6, 5.00000000000000000000e-01) (0, 6, 0.00000000000000000000e+00) 
connections (connected_to_neuron, weight)=(0, 2.52595795418671886789e-01) (1, 1.26254562822057242455e-01) (2, -5.02736622438162061854e+00) (3, -2.64756264745696334728e+01) (4, -4.84164877455896469627e+00) (5, -4.75860835999936249152e+00) (6, -2.06028744568803956483e+00) (7, -1.01092237733926704202e+00) (8, -1.08338381104793479714e+00) (9, -2.15983126200133351835e-01) (10, -2.40106165737849180930e-01) (11, -1.72222071769754264681e-01) (12, -1.23770203139627263389e-01) (13, 3.70052151673432139223e-01) (14, 2.36163665293203199613e-02) (15, -1.29867417614242752766e-01) (16, -2.96522071052929617196e-02) (17, 2.59843678465130401012e-01) (18, 8.63935205895648317131e-01) (19, 1.77517049634270418501e+00) (20, 1.59447323249914330034e+00) (21, 1.77985745714085741298e+00) (22, 5.53955363166578007572e-01) (23, 3.79530630355985720836e-01) (24, 1.91186856315321312971e-01) (25, 1.48515118224157555149e-01) (26, -1.16939813996352670600e-01) (27, -3.53362507064962860781e-01) (28, -5.92465286470354013382e-01) (29, -1.80387705974691581190e+00) (30, -1.78846246052012647354e+00) (31, -5.41427259323105203315e-01) (32, -4.95739749416679864602e-01) (33, 1.06028135735189606159e-02) (34, -1.55019394445130825888e-01) (35, -5.95250210737704836539e-03) (36, -1.11967986420664439295e-01) (37, 8.82529328659748812935e-02) (38, -1.15735367498023739019e-01) (39, -4.18321996299736431624e-03) (40, 4.02315277980473881558e-02) (41, 3.00882739607241600499e-01) (42, 2.02354276160978141519e+00) (43, 9.25595159699564407063e-01) (44, 7.84836678273704513309e-01) (45, 5.31220220338166848606e-01) (0, 3.78572457595747147163e-01) (1, 2.05660427201061868363e-01) (2, -4.92383068586098726627e+00) (3, -2.55733423305447047369e+01) (4, -4.78254347015197200932e+00) (5, -4.83769229044968529507e+00) (6, -2.21208900584574363890e+00) (7, -1.96434491299751790017e+00) (8, -1.81206668497849165966e+00) (9, -6.97906317158756617225e-01) (10, -4.51451503721990055062e-01) (11, -1.97734958915547293090e-01) (12, -5.28806761405090711148e-02) (13, -5.21069091437004056067e-02) (14, -7.19734712918761176947e-02) (15, -7.54330495241100351667e-02) (16, -8.65277758288180015578e-02) (17, 4.23143839635037766200e-01) (18, 8.33039327297700804564e-01) (19, 6.76230683424705047990e-01) (20, 1.65355472698249283958e+00) (21, 1.76187477949516124731e+00) (22, 6.34488693283618121477e-01) (23, 2.49213090143666160525e-01) (24, 6.34493143725946839862e-02) (25, 1.98250675226823880326e-01) (26, 1.18709112469245064991e-02) (27, 5.63423377097463262686e-01) (28, -2.67902725073563496849e-01) (29, -2.17211385301848425300e+00) (30, -2.21146367935633758606e+00) (31, -3.96540363588069877387e-01) (32, -3.13950350432115665722e-01) (33, -1.93831602317858592288e-01) (34, -3.16698756944716108830e-01) (35, -1.73241317967969404856e-01) (36, -7.39447310381941558255e-02) (37, -1.86938668411512631806e-02) (38, -1.45775632959193879312e-01) (39, 5.74478035051088423146e-02) (40, 3.52730569269623150941e-01) (41, 5.56197364037676056370e-01) (42, 6.56241979094613014922e+00) (43, 6.58290388812789650785e+00) (44, 1.69519528598403179664e+00) (45, 4.37395845966420726558e-01) (0, 5.26501064073813740407e+00) (1, 4.13187716737400900779e-01) (2, -2.81829809700372564407e+01) (3, -2.47971607453382176800e+01) (4, -2.51768728754518988922e+01) (5, -4.19965941532468889363e+01) (6, -3.21204536587810718373e+00) (7, -6.71113006237301412682e+00) (8, -3.60313127761425011641e+00) (9, -3.92513624038401598426e+00) (10, -3.94339502062502855750e+00) (11, -9.82189111937068259905e-01) (12, 5.47406396313898979678e-01) (13, 1.11693996768238190676e+00) (14, 3.73155621660815572938e+00) (15, 1.64866580767035775246e+00) (16, -3.65908957969787007602e-01) (17, 2.67145015133258389994e+00) (18, 5.40018005740416739968e+00) (19, 4.13352634189165524248e+00) (20, 3.59379673160487822514e+00) (21, 3.61792831107544232694e+00) (22, 2.57456144551340004867e+00) (23, 4.66732514818713251081e-01) (24, 6.02881569913039302988e-02) (25, -4.14311101409513438121e-01) (26, -3.26485286759918114097e-01) (27, -2.60310139230159776069e-01) (28, -1.32276289250070511194e+00) (29, -1.31467112980368661113e+00) (30, -1.31857720541251199897e+00) (31, -1.35808460529251218141e+00) (32, -5.88027176307048371484e-01) (33, -1.70775193747756875995e-01) (34, 5.47906829312609783278e-02) (35, 2.01840401918796791270e-01) (36, 1.53212553942719598155e-01) (37, 5.31799039316873778382e-01) (38, -1.96072316479961400448e-01) (39, -2.17719242530728107621e-01) (40, 3.39592582965929923322e-01) (41, 4.42642513030628625970e-01) (42, 2.21133241138846470264e+00) (43, 2.08657366118819309619e+00) (44, 4.12647321732165739405e+00) (45, 4.71711652617887988725e+00) (0, 5.28363747966063801442e+00) (1, 6.87330120082955908778e-01) (2, -2.73793449910095887390e+01) (3, -1.69367510958509264185e+01) (4, -1.73521381596425250393e+01) (5, -4.20357002391433809407e+01) (6, -1.72166862727948739575e+01) (7, -7.03830713218807524356e+00) (8, -3.79609894328666186425e+00) (9, -3.81106819821727427211e+00) (10, -9.63097530746694796555e-01) (11, -8.05655424383926122012e-01) (12, -1.28769363136459508157e-01) (13, 1.20863092393877624708e+00) (14, 1.25207974018201295685e+00) (15, 5.28569348406503825011e-01) (16, 4.29972581855024138520e+00) (17, 2.38243605301149541376e+00) (18, 5.48348753111255327042e+00) (19, 4.01016254527009508024e+00) (20, 3.73803516493144938337e+00) (21, 3.74222531941148384149e+00) (22, 2.58750702604413529428e+00) (23, 8.60518808156558040467e-02) (24, 2.34429372341813047065e-01) (25, -2.39193159214544925906e-01) (26, -5.09410777809936821114e-01) (27, -2.70305291723526408543e-01) (28, -9.43767698484902606282e-01) (29, -1.19496454553004305410e+00) (30, -1.24718975054514902290e+00) (31, -9.11889720258873937020e-01) (32, -6.90873547625697526087e-01) (33, 1.11381832478332457037e-01) (34, -2.22018520012532659391e-02) (35, 2.22702800891391938798e-01) (36, 1.20236790860215256305e-01) (37, 6.17967794703396910982e-01) (38, -3.21795246845612670228e-01) (39, -6.83971541439194613554e-02) (40, 3.19011326140569262400e-01) (41, 4.02081085512872804522e-01) (42, 1.81437930081718445940e+00) (43, 1.68084825564854623003e+00) (44, 4.11644255530033476020e+00) (45, 4.84096249656249710824e+00) (0, 2.01973268756547807978e-01) (1, 2.39529621689953925445e-01) (2, -2.39129802494920606915e-01) (3, -8.89750464989749900724e+00) (4, -9.16987001455682282369e+00) (5, 1.81048375930764704478e+00) (6, 1.85794187832625290469e+00) (7, 6.76866950712218695685e-01) (8, 8.66936024759979884102e-01) (9, 4.42960448714078414145e-01) (10, 1.12001045221477846248e+00) (11, -3.15913441727019295158e-02) (12, -3.90953134241790664638e-02) (13, 4.15928659696396772760e-03) (14, -7.29834577865491329618e-02) (15, -1.17304808419523121099e-01) (16, -2.05737088419591707122e-01) (17, 2.20138415123849913446e-02) (18, 2.71910214758916024547e-01) (19, 4.44391796659676097114e-01) (20, 5.34066135067847724827e-01) (21, 8.60727030169231799306e-01) (22, 8.89495527202485480878e-01) (23, 5.02779915196037929803e-01) (24, 9.52358275822133837352e-02) (25, -1.89927223554485158363e-01) (26, -4.97556892609792023041e-01) (27, -6.12945028718948048407e+00) (28, -6.25790011197951301369e-01) (29, 2.02722985415214607130e+00) (30, 2.19590700811814443227e+00) (31, -8.37837347103275287274e-01) (32, -7.93486727625890009286e-01) (33, -2.52749348007112739634e-01) (34, -2.72373899270620667412e-01) (35, -2.88749772994249087610e-01) (36, -2.22278934144439416221e-01) (37, -1.85975757013472214885e-01) (38, -1.95367962999881128461e-01) (39, -1.64561302361989680865e-01) (40, 1.08396492680182240931e-01) (41, 1.72035785201915092379e-01) (42, 2.83861677168889936507e-01) (43, 1.33166051580310501601e-01) (44, 1.97589813961154658895e-01) (45, 4.82311767733921425982e-02) (0, 5.12147884967391504862e-03) (1, 1.89972623110608723751e-01) (2, -2.30593987318389626040e+00) (3, -1.05059510941749785218e+01) (4, -1.25571836811519617072e+01) (5, 4.28391270627080533728e+00) (6, 1.85193982368205500855e+00) (7, 2.03046229155619828433e+00) (8, 2.02411701121462472841e+00) (9, 1.09623919760466548290e+00) (10, 1.38536610947854144094e+00) (11, 1.70024680390064381053e-01) (12, -7.14670739600235804811e-02) (13, 1.32529398621308650008e-02) (14, -2.05920111408708257639e-02) (15, -5.22737754295109158242e-01) (16, -1.87439372904551232457e-01) (17, -8.81486470776631780844e-02) (18, 1.36392376312012508777e-01) (19, 1.05538098179121991871e-01) (20, 3.79193551930353867085e-01) (21, 8.56693487400432052148e-01) (22, 8.68257603588310944431e-01) (23, 5.84727902472458094252e-01) (24, -5.69078562408076235601e-02) (25, -1.82354348261679427567e-01) (26, -5.44653892599163191868e-01) (27, -5.88060358003100080992e+00) (28, 2.41023087837512539622e+00) (29, 5.06584866452299120709e+00) (30, 5.12659033495269778058e+00) (31, -4.15518538085483424283e+00) (32, -2.08766887533803169319e+00) (33, -4.49429185912338768905e-01) (34, -2.89857882594444782320e-01) (35, -3.88328816648229269148e-01) (36, -4.09619813430617651928e-01) (37, -3.16681058850460273035e-01) (38, -3.22319322700358235068e-01) (39, -3.83134048533581239582e-01) (40, -1.40541810115967641392e-01) (41, -2.39623661515229319230e-02) (42, -2.71235503728681839886e-02) (43, 3.40206014951196997198e-02) (44, 1.01847044998079949707e-01) (45, -5.51919011291628208715e-02) (0, 7.96317389303412559443e-01) (1, 1.31178100789362028777e+00) (2, -2.29759523316612535027e+00) (3, -4.41300351044352112684e-01) (4, -4.42149821540529786024e-01) (5, -5.48181857348371326388e-01) (6, -5.09692276777042097002e-01) (7, 8.31904607917260396910e-02) (8, 1.96789068272252093417e-01) (9, 6.77597346807908978983e-02) (10, 2.40183802448117045270e-03) (11, -4.70569430523520237930e-01) (12, 3.17656763884143744647e+00) (13, 1.36434863798829209003e+00) (14, 7.29413200764194469272e-01) (15, 7.94545803813472728550e-01) (16, 7.59014984833083383720e-01) (17, 1.74508005229714169282e+00) (18, 1.92948860285990364538e+00) (19, 1.89834959827435634239e+00) (20, 1.80604843156490657563e+00) (21, 1.85850244345287007874e+00) (22, 1.82943280002930075412e+00) (23, 1.22360477599311900931e+00) (24, 1.48779031542995654469e+00) (25, 2.40933976204160210655e-01) (26, -4.80700553079872083817e-01) (27, -9.31318547318199074780e-01) (28, -1.61116245898215670884e+00) (29, -1.69555811521797106245e+00) (30, -1.88326383982935463557e+00) (31, -1.03054906597973272575e+00) (32, -1.78875322495737587580e+00) (33, -1.49575660727778791959e+00) (34, -4.42166003221082970498e+00) (35, -3.76342762025833410533e+00) (36, -4.76870457116594970159e+00) (37, -1.80837599353993527806e+00) (38, -3.74136117609978002818e+00) (39, -1.40571096747788604198e+00) (40, -9.86964687129895490436e-01) (41, -8.70612739941518443132e-01) (42, -4.85838646587045619452e-01) (43, -3.60193875865615020793e-01) (44, 1.86750706440771896411e+00) (45, 1.97863801032866759577e+00) (0, 1.83918289178801552808e+00) (1, 1.22386153410310294376e+00) (2, -3.11579425116878416802e+00) (3, -2.98881650497653561516e+00) (4, -2.39465113030348186740e+00) (5, -3.58794750847496279889e+00) (6, -2.73697828162611100922e+00) (7, -1.05056467508963624624e+00) (8, -4.82105929995128412724e-01) (9, -5.30363795006820182287e-01) (10, -6.28278608471860011697e-01) (11, -1.72844476642602690175e-01) (12, -9.75669254443732758553e-01) (13, 2.34312332105879733701e-01) (14, -4.94828424396281052466e-01) (15, -6.19349592347891553246e-01) (16, -6.34466316497258042695e-01) (17, 6.14500534705562317939e-01) (18, 3.35337391228212089445e+00) (19, 2.99072303379572002058e+00) (20, 2.61755293869222915859e+00) (21, 2.13512634341877394206e+00) (22, 7.09584906787055214039e-01) (23, -5.84888831061814218337e-01) (24, -9.66595228103611092685e-02) (25, -4.12583448046302758705e-01) (26, -3.55164066010570711462e-01) (27, -4.22543110684517553288e-01) (28, -7.21364910980707541022e-01) (29, -9.03334207208443262793e-01) (30, -9.11254878225244535628e-01) (31, -6.95846129955880798867e-01) (32, -6.76157620264590142334e-01) (33, -7.78355641032516976097e-01) (34, -8.95608391175936269235e-01) (35, -1.12396894724077878180e+00) (36, -1.59933857855860339647e+00) (37, -1.01064777003792483079e+00) (38, -9.97852349533029481243e-01) (39, -7.80555869586465500554e-01) (40, -8.56632790594502702142e-01) (41, -7.40389699109493482077e-01) (42, -6.11309802231682700158e-02) (43, 6.88990500862199817256e-01) (44, 2.63585962619830826981e+00) (45, 2.06432488429733451696e+00) (0, 5.03331464362270963875e+00) (1, -2.48384244295504430511e+00) (2, -1.09635870289023831248e+01) (3, -6.92864463443011668886e+00) (4, -8.35453972646492815102e+00) (5, -8.45671074548544865479e+00) (6, -2.51052090087204859969e+00) (7, -6.41907533980153299780e+00) (8, -3.59229308689960236123e+00) (9, -4.02236463793264764632e+00) (10, -3.98205966421114165854e+00) (11, -7.04078056354389580918e-01) (12, 4.81613130101132491667e-01) (13, -7.28483646397890649560e-01) (14, -1.09859916232724952323e+00) (15, -6.82052186766220258640e-01) (16, -1.02910435008766776299e+00) (17, 2.95102863981498408918e+00) (18, 5.38236128900568022715e+00) (19, 4.01990443422320975486e+00) (20, 3.82389524768535249422e+00) (21, 3.69304067720874273917e+00) (22, 1.76544366748597258976e+00) (23, -8.45043728192071075256e-01) (24, 3.76670898030667000711e-01) (25, -5.05360271179052356061e-01) (26, -3.58513743070769663746e-01) (27, -9.18421006202213230374e-01) (28, -1.45696512240414133288e+00) (29, -1.45906202350357450115e+00) (30, -1.28054264563564768054e+00) (31, -1.31514600834199590906e+00) (32, -1.27213915886079176332e+00) (33, -3.02207074126112973378e-01) (34, 3.84311937452218588263e-02) (35, 5.94045883529953772095e-02) (36, -1.86390854178253989604e-01) (37, 6.79284275782021995660e-01) (38, 6.41945773076924797174e-01) (39, 6.76683166316019324427e-01) (40, 6.47974738171564368372e-01) (41, 3.52665748461677974745e+00) (42, 2.41116235804242018403e+00) (43, 1.97470938620703506672e+00) (44, 1.49451843274692830477e+01) (45, 4.29699111869809780018e+00) (0, 1.73409332246572706060e-01) (1, -9.48482337357990125393e-03) (2, -1.18666129322127034129e+00) (3, -2.31375261079291849597e+00) (4, -1.08661726856045337541e+00) (5, -1.09214970637807717857e+00) (6, -6.74270463649739415501e-01) (7, -3.62628619745792191154e-01) (8, -4.16517143737640427315e-01) (9, -8.26381348303988794157e-01) (10, -1.22888531687581348262e-01) (11, -1.66732405309726466891e-01) (12, -5.65554483898739954184e-02) (13, 5.60724600979566542569e-02) (14, -7.64204270283040804079e-02) (15, -2.37363879721308457249e-01) (16, -2.00670172863941120855e-01) (17, -2.83751580843287914968e-02) (18, 3.18804471767394514981e-01) (19, 5.02072078676669364405e-01) (20, 1.41234912360604503156e+00) (21, 1.40183622981714317568e+00) (22, -1.80657660893607102670e-02) (23, 1.41478753163380877034e-01) (24, 4.60091453112598802733e-02) (25, -9.62433535744486451380e-02) (26, -4.63445425859588810980e-01) (27, -8.28950679457325700916e-01) (28, -2.09595950738437331040e+00) (29, -1.37837538687702050311e+01) (30, -9.10468154819294994695e+00) (31, -1.20240501599199034466e+00) (32, -1.09260589310553557496e+00) (33, -3.78751790730783688410e-01) (34, -5.93637559015351645719e-01) (35, -3.59186079098339217097e-01) (36, -3.47445860452873622748e-01) (37, -2.55165706718225027139e-01) (38, -3.45163481252183546033e-01) (39, -2.26555043177261383747e-01) (40, 2.59853957352198239317e-02) (41, 7.84426381916642906367e-02) (42, 4.94363820682977461729e-01) (43, 1.29499623414270814692e+00) (44, 6.52265058903663597079e-01) (45, 2.70487167683028995047e-01) (0, 3.42895076571096912854e-01) (1, -1.28845020319532738151e-01) (2, -1.20260677807094817915e+00) (3, 3.77073639354530243395e+00) (4, 1.74244468045461520234e+00) (5, -2.38943802134429852946e-02) (6, -2.38113833083539783164e-01) (7, 1.49904708376483369880e-01) (8, -7.26783453684292229946e-02) (9, -6.42408158467213524778e-02) (10, -7.29553202357172553283e-02) (11, -1.43532368334181904823e-02) (12, -1.07647537259467351856e-01) (13, -9.27919372148306165204e-02) (14, -9.13842686654575686589e-02) (15, -9.19511985682527621666e-02) (16, -5.47066864203952715751e-02) (17, -8.03009064777173396654e-03) (18, 3.20557571875489610846e-01) (19, 1.82214118982248818313e+00) (20, 1.83538793231410402029e+00) (21, 1.77951238366983544026e+00) (22, 2.54981371354599084533e-01) (23, 4.48135936955796454484e-01) (24, -2.13278728785583800154e-02) (25, -1.72081718688675860962e-01) (26, -2.99337638192327504250e-01) (27, -5.74846310597411092047e-01) (28, -6.88401538900878628979e-01) (29, -4.42367311349092240391e+00) (30, -4.30603305497500965515e+00) (31, -8.36882092238272368157e-01) (32, -7.57768551072713236749e-01) (33, -3.81514292140636479544e-01) (34, -3.34587234934005772757e-01) (35, -3.67264626785430925437e-01) (36, -3.05997638269576932579e-01) (37, -2.39229502501815211035e-01) (38, -2.92873888599292031554e-01) (39, -3.05850261348900531733e-01) (40, 3.27256617881813149928e-01) (41, 3.21174902401713535660e-01) (42, 8.29883354432367381648e-01) (43, 1.06428433451558657197e+00) (44, 9.63690267637319242233e-01) (45, 3.54923309241269080427e-01) (0, 1.98262646824780397470e-01) (1, 2.23872076217929844022e-01) (2, -3.76466404024865031186e-01) (3, -6.00168191817335272553e-01) (4, -5.46580778244863396687e-01) (5, -5.07168644074316832260e-01) (6, -4.51135766214702638166e-01) (7, -2.19685521288186386135e-01) (8, -2.59872499533158995977e-01) (9, -2.94273381737954198289e-02) (10, 1.11676629065953943176e-02) (11, -9.13489165745020453846e-02) (12, -9.16904565332933990662e-02) (13, -4.22158880344154704978e-02) (14, -2.57277826940483823892e-02) (15, 5.11841307170350298672e-02) (16, -4.33515614221841247278e-02) (17, 2.54442281040589801666e-01) (18, 2.96661979181257473570e-01) (19, 1.59571606887086336890e+00) (20, 1.65370561496948265123e+00) (21, 1.58045353196196969314e+00) (22, -1.46090097138546426425e-01) (23, 3.82905682243856182456e-01) (24, 1.29380002288665113541e-01) (25, -1.34075404304969780789e-01) (26, -2.26623282753563248804e-01) (27, -6.25052346199132635718e-01) (28, -7.54180937521866878726e-01) (29, -3.17867155842324056181e+00) (30, -4.21316084795215850534e+00) (31, -7.42828126706168712090e-01) (32, -4.79205040700589002256e-01) (33, -4.04554944159022544792e-01) (34, -1.58552099965302367712e-01) (35, -2.18938645741394766198e-01) (36, -1.85953117310889703973e-01) (37, 7.30613120788885850310e-01) (38, 7.50767784159767415098e-01) (39, 7.58715850778411859956e-01) (40, 9.52452393170183486681e-01) (41, 7.76998322070039204590e+00) (42, 2.75029568821562575565e+00) (43, 5.15199619258039209768e+00) (44, 3.05155767039768610616e+00) (45, 3.12854972668184960760e-01) (46, -1.03316937279838043651e+01) (47, -1.58984950348994225067e+01) (48, -4.78981696524587530206e+00) (49, -5.18758267756709745555e+00) (50, 9.24936441708533152450e+00) (51, 9.82511157397622802989e+00) (52, -2.72832182961622793371e+00) (53, -6.81375543895777147085e-01) (54, -5.96610771641514880947e-01) (55, -1.58810790648760246313e+02) (56, -1.08836828853532754380e+01) (57, -1.04993385148738305190e+01) (58, 4.61551527087646284997e+00) 
