FANN_FLO_2.1
num_layers=3
learning_rate=0.700000
connection_rate=1.000000
network_type=0
learning_momentum=0.000000
training_algorithm=2
train_error_function=1
train_stop_function=0
cascade_output_change_fraction=0.010000
quickprop_decay=-0.000100
quickprop_mu=1.750000
rprop_increase_factor=1.200000
rprop_decrease_factor=0.500000
rprop_delta_min=0.000000
rprop_delta_max=50.000000
rprop_delta_zero=0.100000
cascade_output_stagnation_epochs=12
cascade_candidate_change_fraction=0.010000
cascade_candidate_stagnation_epochs=12
cascade_max_out_epochs=150
cascade_max_cand_epochs=150
cascade_num_candidate_groups=2
bit_fail_limit=3.49999999999999977796e-01
cascade_candidate_limit=1.00000000000000000000e+03
cascade_weight_multiplier=4.00000000000000022204e-01
cascade_activation_functions_count=10
cascade_activation_functions=3 5 7 8 10 11 14 15 16 17 
cascade_activation_steepnesses_count=4
cascade_activation_steepnesses=2.50000000000000000000e-01 5.00000000000000000000e-01 7.50000000000000000000e-01 1.00000000000000000000e+00 
layer_sizes=34 15 2 
scale_included=0
neurons (num_inputs, activation_function, activation_steepness)=(0, 0, 0.00000000000000000000e+00) (0, 0, 0.00000000000000000000e+00) (0, 0, 0.00000000000000000000e+00) (0, 0, 0.00000000000000000000e+00) (0, 0, 0.00000000000000000000e+00) (0, 0, 0.00000000000000000000e+00) (0, 0, 0.00000000000000000000e+00) (0, 0, 0.00000000000000000000e+00) (0, 0, 0.00000000000000000000e+00) (0, 0, 0.00000000000000000000e+00) (0, 0, 0.00000000000000000000e+00) (0, 0, 0.00000000000000000000e+00) (0, 0, 0.00000000000000000000e+00) (0, 0, 0.00000000000000000000e+00) (0, 0, 0.00000000000000000000e+00) (0, 0, 0.00000000000000000000e+00) (0, 0, 0.00000000000000000000e+00) (0, 0, 0.00000000000000000000e+00) (0, 0, 0.00000000000000000000e+00) (0, 0, 0.00000000000000000000e+00) (0, 0, 0.00000000000000000000e+00) (0, 0, 0.00000000000000000000e+00) (0, 0, 0.00000000000000000000e+00) (0, 0, 0.00000000000000000000e+00) (0, 0, 0.00000000000000000000e+00) (0, 0, 0.00000000000000000000e+00) (0, 0, 0.00000000000000000000e+00) (0, 0, 0.00000000000000000000e+00) (0, 0, 0.00000000000000000000e+00) (0, 0, 0.00000000000000000000e+00) (0, 0, 0.00000000000000000000e+00) (0, 0, 0.00000000000000000000e+00) (0, 0, 0.00000000000000000000e+00) (0, 0, 0.00000000000000000000e+00) (34, 4, 5.00000000000000000000e-01) (34, 4, 5.00000000000000000000e-01) (34, 4, 5.00000000000000000000e-01) (34, 4, 5.00000000000000000000e-01) (34, 4, 5.00000000000000000000e-01) (34, 4, 5.00000000000000000000e-01) (34, 4, 5.00000000000000000000e-01) (34, 4, 5.00000000000000000000e-01) (34, 4, 5.00000000000000000000e-01) (34, 4, 5.00000000000000000000e-01) (34, 4, 5.00000000000000000000e-01) (34, 4, 5.00000000000000000000e-01) (34, 4, 5.00000000000000000000e-01) (34, 4, 5.00000000000000000000e-01) (0, 0, 0.00000000000000000000e+00) (15, 6, 5.00000000000000000000e-01) (0, 6, 0.00000000000000000000e+00) 
connections (connected_to_neuron, weight)=(0, 4.44859350697297895039e+00) (1, 1.60421357379213258554e+00) (2, 1.96730716167150561091e+01) (3, 1.11648054392501592247e+01) (4, 2.88446566421498232557e+02) (5, 5.65254686657624233703e+02) (6, 7.83786448820573923513e+02) (7, 1.45287673666641194359e+03) (8, 5.49985469622366053954e+02) (9, 3.82112100180833369478e+00) (10, 1.00983764133308095978e+01) (11, 4.81370228814115108662e+01) (12, 1.13289738751910704195e+02) (13, 7.79555328109848574059e+02) (14, 8.12522197447359815214e+01) (15, 2.06206172575355793697e+02) (16, 1.25409923438038458698e+03) (17, 6.71186452116437237692e+00) (18, 5.55310882221289858762e+00) (19, 5.93574902638777990305e-01) (20, 7.05294008754585988186e+00) (21, 7.82646908067782760554e+02) (22, 7.84432942477620258614e+02) (23, 1.40406620302531823796e+01) (24, 1.98155701554180616597e+01) (25, 4.70335142986226486528e+01) (26, 2.27740914260578506401e+01) (27, 1.41011245491047376710e+00) (28, 5.73223642298465563272e+00) (29, 5.49246904955109638280e-01) (30, 4.33048357813238360414e-01) (31, 7.62375591600119251190e-01) (32, 1.76810071522660772203e+00) (33, 7.62645338617404533466e+00) (0, 1.91677687060202633917e-01) (1, 2.23049167084659227811e+00) (2, -2.99766683514745668759e+00) (3, -7.53654025678319294812e-01) (4, -3.75680361554845854144e-01) (5, -2.51866770745387658081e-01) (6, -2.92231928729707546299e-01) (7, -4.95647685866497322849e-01) (8, -1.39074032228015731505e-01) (9, 1.67284489546647097136e-01) (10, 8.51219319487808434577e-02) (11, -6.50879805281619205903e-02) (12, -2.92803482115394420049e-01) (13, 6.11128904761658930944e-01) (14, 2.81226667446070743850e+00) (15, 8.67144920200836666346e-01) (16, -1.11158394037546748301e+00) (17, 3.32460292222770625870e-01) (18, 6.43586042330439700443e-01) (19, 5.84048944449527596134e-01) (20, -1.73413621957079294722e-01) (21, -5.60354861422619343614e+00) (22, -5.26747490307478649640e+00) (23, -3.05993732536741336325e-01) (24, -1.05343995514642116418e-01) (25, -4.45664652144726392002e-01) (26, -2.04996977000011071368e-01) (27, 7.80471207088810348118e-02) (28, -3.44443185840427212874e-01) (29, 5.15623908101509598190e-01) (30, 3.51869432177627539104e+00) (31, 2.83954697755345708554e-01) (32, 5.19817330669477968286e+01) (33, 1.43416778271274081291e+00) (0, 4.20795127155049963896e-01) (1, -5.58872483052618496124e-01) (2, -1.52786668291897207439e+01) (3, -4.45930429938577344018e+00) (4, -3.28247729646031993767e+00) (5, -3.97760287196425421641e-01) (6, -1.09424786448889754809e+00) (7, -3.91866156653818631384e-01) (8, -2.98905183008514485632e-01) (9, -7.30907217563363520441e-02) (10, 9.00154731984623701635e-02) (11, -5.96141749818628052804e-03) (12, 6.18815944992656130630e-02) (13, 4.04189845324316343600e-01) (14, 2.11101224032617773574e+00) (15, 1.45622352164695434418e+00) (16, -3.33635988455555621002e+00) (17, 5.34569092199073225835e-01) (18, 9.85454710901870756246e-01) (19, 1.99696999657978879750e-01) (20, -2.15406478274767776426e-01) (21, -2.34574948085190770897e+00) (22, -4.64257411936656350093e+00) (23, -2.79226409121229937615e-02) (24, 4.66784717344678398709e-03) (25, -3.42999406611736890049e-01) (26, -7.20479505870126185618e-02) (27, 5.64488409306047010661e-03) (28, 1.66896352239947597801e-03) (29, 1.99730594321646304223e-01) (30, 7.76158972599503615974e-01) (31, 2.94823360059833228242e-01) (32, 1.06055073399440871640e+02) (33, 6.81118676134294553925e-01) (0, 1.56533438790398576890e-01) (1, 3.69429203042759723985e+00) (2, -1.82531700468811641791e+00) (3, -3.14553179053115794517e+00) (4, -1.13611847663596821079e+00) (5, -1.23365260247712127395e+00) (6, -3.66957038836337512411e-01) (7, -2.38428589253850103935e-01) (8, -3.19919196921227416697e-02) (9, -2.21477434228358263657e-02) (10, -1.16230027266957483545e-01) (11, -1.63544821991162436792e-01) (12, 5.87302641891832288845e-02) (13, 3.41871281787660907803e-01) (14, 1.26199315062287809042e+00) (15, 1.19995843943809310517e+00) (16, -6.72541836579624519032e-01) (17, 8.52702753897935039618e-01) (18, 7.60586009273593544044e-01) (19, 3.18306370023973383976e-01) (20, 9.73921731958240222138e-02) (21, -3.93391185888125294312e+00) (22, -3.85470150273720513212e+00) (23, -6.60879251119455224384e-01) (24, -1.17242244645099746858e-01) (25, -2.66781355577123679979e-01) (26, -3.60350141364724430026e-01) (27, -2.64755779958627326942e-02) (28, -3.09082217841655459978e-01) (29, 2.25161762393198905396e-01) (30, 2.69013873591280727737e+00) (31, 2.71296644141654164084e-01) (32, 6.80735587942676829698e+01) (33, 4.37097938223474979935e-01) (0, 3.84190259744127393660e+00) (1, 8.19105527556551571422e+00) (2, 1.93696790385399566503e+01) (3, 1.12220747044460846809e+01) (4, 5.64150845086840035947e+02) (5, 5.64852459687765986018e+02) (6, 7.83441472555331756666e+02) (7, 1.45261171269331407530e+03) (8, 5.49660526642145669030e+02) (9, 3.69848384515251282778e+00) (10, 9.81568353735898391221e+00) (11, 4.78941085583891137389e+01) (12, 1.13036313313694932958e+02) (13, 7.78813005076518720671e+02) (14, 3.45327065310644343299e+01) (15, 2.05569619355086700807e+02) (16, 1.25341782989426792483e+03) (17, 6.39228896155778691934e+00) (18, 5.41812852337544192949e+00) (19, 1.06464997921993731467e+00) (20, 6.76092608076186429855e+00) (21, 7.82490604494124227131e+02) (22, 7.84153736890600271181e+02) (23, 1.39863757698482000791e+01) (24, 8.52927161366477903925e+00) (25, 4.69601580164095153691e+01) (26, 2.27563819396241839854e+01) (27, 1.28327626389553417496e+00) (28, 2.59359911481866189931e+00) (29, 5.24675192742850571292e-01) (30, 5.46785984884620490654e-01) (31, 9.73299990309189677617e-01) (32, 1.61002124694731585386e+00) (33, 6.95183442692896669257e+00) (0, 5.89345740596355138763e+00) (1, 9.10271344780876923153e+00) (2, 2.01642080190269616935e+01) (3, 1.16169807697823745940e+01) (4, 2.88556213916091678584e+02) (5, 5.65718120437820516599e+02) (6, 7.84376008942291946369e+02) (7, 1.45335701259580628175e+03) (8, 5.50572315072889523435e+02) (9, 4.53585718074587340709e+00) (10, 1.06024049054268640901e+01) (11, 4.88468839890022863415e+01) (12, 1.13928457864011875245e+02) (13, 7.80970722656623593139e+02) (14, 8.27019110574345290843e+01) (15, 2.07547938391058863772e+02) (16, 1.25540564319391887693e+03) (17, 7.12956749447351700866e+00) (18, 6.10355064280755499340e+00) (19, 1.54011085025223781741e+00) (20, 7.66224710141811193864e+00) (21, 7.83334975787543271508e+02) (22, 7.85014617567936170417e+02) (23, 1.43100020114044301778e+01) (24, 8.58068022856415701938e+00) (25, 4.71956778790528233003e+01) (26, 2.30638219214934636625e+01) (27, 1.46938632449365091936e+00) (28, 2.68411524985129812393e+00) (29, 6.27623601252802254535e-01) (30, 8.86630568327848034293e-01) (31, 1.98165658826264667880e+00) (32, 3.66405397328980919625e+00) (33, 8.91963235647919283622e+00) (0, 1.37737659250514926645e-01) (1, -1.10200281969995844689e-01) (2, -4.93654847736834412331e+00) (3, -5.92520078013329776212e+00) (4, -1.35247067774822027353e+00) (5, -1.36497779259836571342e+00) (6, -3.01526397463616979699e-01) (7, -1.80505046528617374424e-01) (8, -1.42541401979662696320e-01) (9, -6.00388544403356108625e-02) (10, -7.23510927065173364836e-02) (11, -7.30361668104893401593e-03) (12, -8.33074762944231994588e-01) (13, 1.41640468287828807936e-01) (14, 1.51537698122145569890e+00) (15, 1.35146311610758518285e+00) (16, 1.41074068090211279802e-01) (17, 3.12605938658756077331e-01) (18, 2.36431519716332111392e-01) (19, 1.54303713742296699785e+00) (20, -6.61348604568702258533e-01) (21, -2.90228966083812345289e+00) (22, -2.92343527962930771480e+00) (23, -4.02360340647378633694e-01) (24, -1.40098395687284243971e-01) (25, -2.10007690083642639678e+00) (26, -2.40084021790293339338e-01) (27, 1.10859311987181852199e-01) (28, -1.92981249880952471232e-01) (29, 4.60412068390924122951e+00) (30, 3.93529143533671632582e+00) (31, 8.66727152249904486681e-01) (32, 2.44731252132721337489e+01) (33, 6.00417093774194943201e-01) (0, 4.44249437601466024006e+00) (1, 8.45806067096845559661e+00) (2, 1.96755629642067972895e+01) (3, 2.66256231625711947686e+01) (4, 2.88518434829969578459e+02) (5, 5.65214965585904110412e+02) (6, 7.83809806435448763295e+02) (7, 1.45294124592408616081e+03) (8, 5.49970921097151858703e+02) (9, 3.88241838869302258175e+00) (10, 1.00217095441076917695e+01) (11, 4.82070376711120189839e+01) (12, 1.13325259055905121386e+02) (13, 7.79572905087459162132e+02) (14, 8.12872237942755475615e+01) (15, 2.06280869838894631130e+02) (16, 1.25417726028766264790e+03) (17, 6.68377066161103527975e+00) (18, 5.64503450657554850523e+00) (19, 6.47387410178765554392e-01) (20, 7.05174000762795216701e+00) (21, 7.82626817092915416652e+02) (22, 7.84488902819908275887e+02) (23, 1.40096544870469674748e+01) (24, 1.99616807273389333943e+01) (25, 4.69822590799379753435e+01) (26, 2.27598047775757663658e+01) (27, 1.26109314652224102637e+00) (28, 5.66367698499446703408e+00) (29, 5.20996016965111774510e-01) (30, 5.90584211994927055223e-01) (31, 6.87717033827482615571e-01) (32, 1.77280733639665122325e+00) (33, 7.56980223350366188129e+00) (0, 2.53489638957776430850e-01) (1, -1.21950166685704930458e+00) (2, -4.75175247145680117455e+01) (3, -1.51117219356314063106e+01) (4, -7.36145052598492188878e+00) (5, -1.62980593844683019356e+00) (6, -1.16853893734144842487e-01) (7, -3.15696075786000285301e-01) (8, -1.23199225331369566216e-01) (9, -6.37613720760079882854e-02) (10, 4.19805864764765113151e-01) (11, 2.88887218469230488971e-01) (12, 1.09539705947671622832e-01) (13, 6.31500603183235198479e-01) (14, 1.29247062773570320360e+00) (15, 1.18404998930341598395e+00) (16, 3.56019535378357676603e-01) (17, 3.15946741416266274616e-01) (18, 8.29178562912799121953e-01) (19, 1.19694165177861355787e+00) (20, -1.57081627984767796535e-01) (21, -1.84243618427855415653e+00) (22, -6.23582357448044466430e-01) (23, 3.47631026195094949838e-01) (24, 6.69651947727694429879e-01) (25, 2.88548770859007430722e-01) (26, 2.41488029379898466731e-01) (27, -8.06811534004888038230e-03) (28, -1.16467870381809043834e-01) (29, -5.56685694803536607056e-02) (30, 2.76162336143165931812e-01) (31, 5.09703408368965549258e-01) (32, 3.97819305437830692540e+01) (33, 7.96190559712041223683e-01) (0, 4.55733428002495433162e+00) (1, 8.44537933203236512725e+00) (2, 1.96962006477771822688e+01) (3, 1.13630408258005868305e+01) (4, 5.64229377741879261521e+02) (5, 5.65244851324992168884e+02) (6, 7.83848094268781778737e+02) (7, 1.45278643839374262825e+03) (8, 5.49974689146332366363e+02) (9, 3.98044239190070614498e+00) (10, 9.93752951686121654973e+00) (11, 4.81136084558596195393e+01) (12, 1.13399220362268465578e+02) (13, 7.79453115408855751411e+02) (14, 3.48190410235893352819e+01) (15, 2.06197327022553707820e+02) (16, 1.25407086347844233387e+03) (17, 6.66348529364533703756e+00) (18, 5.54230375553795084898e+00) (19, 1.32745095237583354830e+00) (20, 3.09771199460086865685e+00) (21, 7.82796382532139659816e+02) (22, 7.84484477234638347909e+02) (23, 1.40656774365637406987e+01) (24, 8.60449991276249015471e+00) (25, 4.69918156863499092424e+01) (26, 2.28737709594500415733e+01) (27, 1.29158070253272572181e+00) (28, 2.67714030235984346007e+00) (29, 6.91358778475930413343e-01) (30, 5.67332343210499523423e-01) (31, 1.34294004661177068805e+00) (32, 1.71724780554242650865e+00) (33, 7.56718804828961921771e+00) (0, 3.78343003113468290266e+00) (1, 3.58246294171937718076e+00) (2, 1.93967714879070030065e+01) (3, 1.08937167233603098282e+01) (4, 2.88363382031085961898e+02) (5, 2.89190882864112040807e+02) (6, 7.83595466377965976790e+02) (7, 1.45251278784040641767e+03) (8, 5.49997116660269966815e+02) (9, 3.84963020116970877638e+00) (10, 9.74349165075515166734e+00) (11, 4.78809458374406560210e+01) (12, 1.13215139716568529593e+02) (13, 7.78923473918607896849e+02) (14, 8.07477661529154033815e+01) (15, 2.05495151018087284456e+02) (16, 1.25350751506611049990e+03) (17, 6.30126786336128041910e+00) (18, 5.27027871772234757231e+00) (19, 7.00157489208867667152e-01) (20, 6.79956879269929181930e+00) (21, 7.82529565338402562702e+02) (22, 7.84078944512949533419e+02) (23, 1.39454366250580275022e+01) (24, 1.97127615008625838300e+01) (25, 4.67905834278722991826e+01) (26, 2.28053323584541018931e+01) (27, 1.23218552795340885453e+00) (28, 5.57176320641245048648e+00) (29, 4.62702865212466507572e-01) (30, 6.03982803176761451347e-01) (31, 5.91537730798501804053e-01) (32, 1.66457635758068911436e+00) (33, 6.83612369905850236762e+00) (0, 5.92285754601062475189e+00) (1, 3.86940728533735489592e+00) (2, 8.45014589466218524194e+00) (3, 1.13723746981313933446e+01) (4, 2.88643506907670257533e+02) (5, 5.65674312223454080595e+02) (6, 7.84306307885364503818e+02) (7, 1.45337211369705573816e+03) (8, 5.50719585532572182274e+02) (9, 4.64498252296673985740e+00) (10, 1.05279748346093935396e+01) (11, 4.87451721942682851818e+01) (12, 1.14163114872213554918e+02) (13, 7.80785977754668465423e+02) (14, 8.27091781525830924693e+01) (15, 2.07630504205315531863e+02) (16, 1.25553711302106421499e+03) (17, 7.17547730155950791442e+00) (18, 6.22507730879313925243e+00) (19, 7.10079319292458377433e-01) (20, 7.66721774136218847673e+00) (21, 7.83363844269060109582e+02) (22, 7.84901720432618844825e+02) (23, 1.43639230925301664143e+01) (24, 8.55845797786416007114e+00) (25, 4.72710113923723156404e+01) (26, 2.30557706750888158354e+01) (27, 1.50436089953637552874e+00) (28, 5.88514204607554169968e+00) (29, 6.74127472932108506853e-01) (30, 1.00589441848034044646e+00) (31, 8.10223729289374694496e-01) (32, 3.69677568274982926155e+00) (33, 8.86273938031437857887e+00) (0, 1.73667834061958958891e-01) (1, 9.17421162736411410776e+00) (2, -2.46627293179463658035e+00) (3, -5.64742721482713649905e-01) (4, -4.54645416635230004143e-01) (5, -1.99462858571681195263e-01) (6, -4.10983067744811580990e-01) (7, -5.08729489784382149509e-01) (8, -4.86119808960187860247e-02) (9, 2.30848819668073967915e-01) (10, 1.16066138143384040005e-01) (11, -9.69890346124629293412e-02) (12, -1.86844908595210940083e-01) (13, 2.07968993068860102946e-01) (14, 2.72421880367043867111e+00) (15, 8.81267436588509256445e-01) (16, -9.69146851046355672921e-01) (17, 2.88093109220889098676e-01) (18, 5.89014749036009921390e-01) (19, 5.91640177106960041264e-01) (20, -1.92070860363562662121e-01) (21, -5.67254777430734158372e+00) (22, -5.61941938515923222752e+00) (23, -2.50495937867690365852e-01) (24, -1.79872011664639563921e-01) (25, -3.26601721799191113682e-01) (26, -3.57329610733760405505e-01) (27, -7.93305794702933581020e-02) (28, -1.37751866794452171305e-01) (29, 5.36176353956982709725e-01) (30, 3.46321114627702497657e+00) (31, 1.91120640833574828577e-01) (32, 5.19561319084305210936e+01) (33, 1.43729852485986220323e+00) (0, 9.67259400480105085984e-02) (1, -1.39557416651603638513e+00) (2, -4.74894702339934937640e+01) (3, -1.48535882282507660790e+01) (4, -7.53782599963391763964e+00) (5, -9.24734291760393789517e-01) (6, -1.94191544765364793035e-01) (7, -1.22942365609231496482e-01) (8, -4.81621398421240715093e-02) (9, 1.33383058948027604859e-04) (10, 2.59260989708147482347e-01) (11, 1.63940615108230713926e-01) (12, 1.75510402456556136030e-01) (13, 6.18654812523472763530e-01) (14, 1.28666976384099829289e+00) (15, 1.15351687543773917533e+00) (16, 4.48270417714572211310e-01) (17, 2.92172273175209940010e-01) (18, 6.59012424565677545907e-01) (19, 1.98922479157899623203e+00) (20, 2.49124542818411953693e-01) (21, -1.93361621563882746244e+00) (22, -8.09380480484194864133e-01) (23, 2.84440800069560295604e-01) (24, 5.01322323074729570003e-01) (25, 2.41752404286627448071e-01) (26, 3.98921272339888277614e-01) (27, -8.49408547971298583112e-02) (28, -1.87758114402740372562e-01) (29, 1.16993301231293173048e-01) (30, 2.69155734765300580502e-01) (31, 1.56011539532999088387e+00) (32, 3.86166421621685316268e+01) (33, 7.93907577045242285330e-01) (34, 1.22756939561049205345e+00) (35, -1.16051434190304174621e+01) (36, -4.73892022362634968147e+00) (37, -4.06756150847532360615e+00) (38, 1.21566260785738666783e+00) (39, 1.28991607011238795799e+00) (40, -4.19230491243768366161e+00) (41, 1.24084545851628047508e+00) (42, -6.38032852249425275204e+00) (43, 1.23644346923510295433e+00) (44, 1.20706393749396045934e+00) (45, 1.29406988800446254295e+00) (46, -1.15592355267436364130e+01) (47, -8.37496113754757232073e+00) (48, 1.32357482791821268187e+00) 
