FANN_FLO_2.1
num_layers=3
learning_rate=0.700000
connection_rate=1.000000
network_type=0
learning_momentum=0.000000
training_algorithm=2
train_error_function=1
train_stop_function=0
cascade_output_change_fraction=0.010000
quickprop_decay=-0.000100
quickprop_mu=1.750000
rprop_increase_factor=1.200000
rprop_decrease_factor=0.500000
rprop_delta_min=0.000000
rprop_delta_max=50.000000
rprop_delta_zero=0.100000
cascade_output_stagnation_epochs=12
cascade_candidate_change_fraction=0.010000
cascade_candidate_stagnation_epochs=12
cascade_max_out_epochs=150
cascade_max_cand_epochs=150
cascade_num_candidate_groups=2
bit_fail_limit=3.49999999999999977796e-01
cascade_candidate_limit=1.00000000000000000000e+03
cascade_weight_multiplier=4.00000000000000022204e-01
cascade_activation_functions_count=10
cascade_activation_functions=3 5 7 8 10 11 14 15 16 17 
cascade_activation_steepnesses_count=4
cascade_activation_steepnesses=2.50000000000000000000e-01 5.00000000000000000000e-01 7.50000000000000000000e-01 1.00000000000000000000e+00 
layer_sizes=21 13 2 
scale_included=0
neurons (num_inputs, activation_function, activation_steepness)=(0, 0, 0.00000000000000000000e+00) (0, 0, 0.00000000000000000000e+00) (0, 0, 0.00000000000000000000e+00) (0, 0, 0.00000000000000000000e+00) (0, 0, 0.00000000000000000000e+00) (0, 0, 0.00000000000000000000e+00) (0, 0, 0.00000000000000000000e+00) (0, 0, 0.00000000000000000000e+00) (0, 0, 0.00000000000000000000e+00) (0, 0, 0.00000000000000000000e+00) (0, 0, 0.00000000000000000000e+00) (0, 0, 0.00000000000000000000e+00) (0, 0, 0.00000000000000000000e+00) (0, 0, 0.00000000000000000000e+00) (0, 0, 0.00000000000000000000e+00) (0, 0, 0.00000000000000000000e+00) (0, 0, 0.00000000000000000000e+00) (0, 0, 0.00000000000000000000e+00) (0, 0, 0.00000000000000000000e+00) (0, 0, 0.00000000000000000000e+00) (0, 0, 0.00000000000000000000e+00) (21, 4, 5.00000000000000000000e-01) (21, 4, 5.00000000000000000000e-01) (21, 4, 5.00000000000000000000e-01) (21, 4, 5.00000000000000000000e-01) (21, 4, 5.00000000000000000000e-01) (21, 4, 5.00000000000000000000e-01) (21, 4, 5.00000000000000000000e-01) (21, 4, 5.00000000000000000000e-01) (21, 4, 5.00000000000000000000e-01) (21, 4, 5.00000000000000000000e-01) (21, 4, 5.00000000000000000000e-01) (21, 4, 5.00000000000000000000e-01) (0, 0, 0.00000000000000000000e+00) (13, 6, 5.00000000000000000000e-01) (0, 6, 0.00000000000000000000e+00) 
connections (connected_to_neuron, weight)=(0, -2.97673784465334989591e-01) (1, -1.88358837232515483606e+01) (2, -9.22916926939314485878e+00) (3, -2.85255452816977950192e+00) (4, -5.45982787896901355928e-01) (5, 7.02327966835365580245e-01) (6, 1.35737597122041964148e+00) (7, 1.17276558492019078450e+00) (8, 2.39451595399505334782e+00) (9, -5.21053001296708062640e-01) (10, 5.14692729300820883687e-01) (11, 4.21389473673851044921e-02) (12, -2.95961331207137190447e+00) (13, -2.22642461690280635267e+00) (14, 3.09923469532109030489e-02) (15, 2.32656869367395768844e-01) (16, 4.02000106960749370444e+00) (17, 2.47171664379313948956e+00) (18, -7.92245548858248049839e-01) (19, 2.87493003065435637211e+01) (20, 1.31711449236478395086e+00) (0, -3.39473467552436125594e-01) (1, -1.88291773438975482691e+01) (2, -9.45052817426806335277e+00) (3, -2.91794603144421982321e+00) (4, -9.82994137680286428349e-01) (5, 5.86498955936709864822e-01) (6, 1.44378783851115466419e+00) (7, 1.09116590980585681514e+00) (8, 2.45819853701725543615e+00) (9, -5.12458883238026796647e-01) (10, 5.05768714434468802388e-01) (11, 2.07467562411942280098e-01) (12, -3.03544222791254592053e+00) (13, -2.21408110073817576691e+00) (14, 2.12082545003061340161e-01) (15, 4.05465300456319899247e-01) (16, 3.95050276160454538754e+00) (17, 2.41214283817389185671e+00) (18, -7.61080813302599468173e-01) (19, 3.13947662338796291692e+01) (20, 1.31434321468667603128e+00) (0, -5.14764958468015620952e-01) (1, -1.92519206429614335718e+01) (2, -1.13397365319948857376e+01) (3, -2.90037832294042052794e+00) (4, -7.17301210468719974145e-01) (5, 5.99580682156920841130e-01) (6, 1.16428845066243780160e+00) (7, 6.25682909749194604565e-01) (8, 2.44027152429102045517e+00) (9, -1.32474210712194162554e+00) (10, 7.16641072044816418440e-01) (11, 7.42262541573665141081e-02) (12, -2.92263888204006105909e+00) (13, -2.28150730350184938189e+00) (14, -1.46910747693361487531e-01) (15, -8.35530429318923184567e-01) (16, 1.34178997462467775037e+00) (17, 6.83930568704085639631e-01) (18, 4.53437325400418367316e-01) (19, 2.86656355477062945170e+01) (20, 1.45009148913797614178e+00) (0, -5.83313435392335377649e-01) (1, -2.96432819702297791764e+01) (2, -3.44426810222991193200e+01) (3, -2.91747735294881671564e+00) (4, -1.61487656305588123118e+00) (5, 4.36131432550591169317e-01) (6, 2.86328237919620720575e+00) (7, 1.88254895323397275497e+00) (8, 2.35571348718095441299e+00) (9, 2.15420334704113125568e+00) (10, 7.18214029267315590133e-01) (11, 6.05192772997804695478e+00) (12, -2.97021522966249440501e+00) (13, -2.06174317392526829096e+00) (14, 4.26212846016607582733e-01) (15, 8.59589155140050575898e-02) (16, 3.63117486924774801604e-01) (17, 2.52816092193745733940e-01) (18, 1.69384731970328195061e+00) (19, 7.03555615714096234115e+01) (20, 1.53873461227034202814e+00) (0, -1.63176068424929709977e-01) (1, -1.87249216399592377513e+01) (2, -8.72625690980232882055e+00) (3, -3.45965128846712088873e+00) (4, -6.43947050966251266502e-01) (5, 6.15272500475196881808e-01) (6, 7.68702051805789432493e-01) (7, 3.55888793145705673027e+00) (8, 2.82308184781103488348e+00) (9, 2.14360868080295557947e-01) (10, 5.94457276630482422952e-01) (11, -1.05359925079721361563e+00) (12, -3.27276163809608133803e+00) (13, -3.20613786552273394292e+00) (14, 2.83684994461706418978e-01) (15, 8.86327655064275798935e-01) (16, 5.96935057516216449613e+00) (17, 1.57674799598840587045e+00) (18, -1.77988184286508115406e+01) (19, 1.58126761438642162716e+01) (20, 1.45455975951632932031e+00) (0, -3.96720851037920496651e+00) (1, -5.18729688227096552566e+00) (2, -6.94824669859069388167e+00) (3, -1.23370599570731931394e+00) (4, -7.33021608001530045051e-02) (5, 7.17818813925504728424e-01) (6, 1.20918683636563661921e+00) (7, 8.74358520116246484832e-01) (8, 2.98361152689214526035e+00) (9, 1.52402413555823090796e+00) (10, 4.24882485698178591349e+00) (11, 1.27963524901745984153e+00) (12, -6.06560454139988802780e+00) (13, -8.27893228514299828191e+00) (14, -2.67239421379082242591e-01) (15, 6.22591802520257253661e-01) (16, 3.86569888036566933209e+00) (17, 1.57214371714106015965e+00) (18, -6.83829706728908526259e+00) (19, 4.82785751793677206933e+01) (20, 1.03020290954880078260e+00) (0, -1.78680111052952478312e-01) (1, -2.89777758530835782835e+01) (2, -1.53470790353451054244e+01) (3, -1.48693030479656740361e+00) (4, -2.40106303376931862203e+00) (5, -3.09412326000018222949e-01) (6, -6.02663222592078384743e-01) (7, 1.08283189282477390614e-02) (8, 1.93100700977685679760e+00) (9, -1.09238710824146978418e+00) (10, 3.88032045938876302138e-01) (11, 5.05992086514305938749e-01) (12, -4.35436370829697327878e+00) (13, -4.63095072322903256179e+00) (14, -6.92013039161588516812e-01) (15, -6.74106492067676033031e-01) (16, -4.61050030688416670466e-02) (17, -2.12098778532175791245e-01) (18, 2.69228526427913450458e-01) (19, 3.01733925454902248475e+02) (20, 1.44497032061376273759e+00) (0, -2.68514700007363271705e-01) (1, -1.22882244376569467192e+01) (2, -2.71037366257063006003e+00) (3, -1.43236296690251085906e+00) (4, -2.12022566431590320235e+00) (5, -2.18510847874526875634e-01) (6, -3.50687282907241881791e-01) (7, -1.76344064979620991120e-03) (8, 3.00749208212645002813e-01) (9, -8.25928604855247439076e-01) (10, 2.69262471635293687555e+00) (11, 2.36301011391473370082e+00) (12, -3.86333527309061652844e+00) (13, -6.14582911116131480611e+00) (14, -8.52947983967847433995e-01) (15, -2.03879466596367997511e+00) (16, -1.72672501365924352390e-01) (17, -1.43973046342997512692e-01) (18, 6.82068477959229979568e-01) (19, 1.19870426105526192373e+02) (20, 1.45777636843310176573e+00) (0, 6.16073835055074736644e-01) (1, 8.09637429917477113861e+00) (2, -2.65783092441755774971e+00) (3, -1.06836409325940584480e+00) (4, -4.45476809760986303122e-01) (5, 1.50420637968153569908e+00) (6, -1.03588829112943814348e-01) (7, 5.24537086673566244066e-01) (8, 1.95554598164198312205e+00) (9, 4.35199883987596458645e-01) (10, 1.09843931025725471962e+00) (11, -2.65002152108067684511e-02) (12, -4.56182759606421228682e+00) (13, -4.49050854873737481654e+00) (14, -1.96438570453470551236e+00) (15, -4.77331215575368350557e+00) (16, -1.51864844017427308431e-01) (17, -8.36236765929774139572e-01) (18, -9.22082075503145304207e-02) (19, 5.62314960918133763812e+01) (20, 9.03195337286217814210e-01) (0, -2.69455498074896993010e-01) (1, -5.35772318091315185029e+01) (2, -2.25869547374977521770e+01) (3, -6.77097679501457050399e-01) (4, -5.40079089979359938667e-01) (5, 1.67395830772097298222e-01) (6, 3.63619392933932972234e-01) (7, 5.99460726119760600739e+00) (8, 4.27140437662047389722e+00) (9, 1.14336496875232329629e+00) (10, 4.57121838353723575210e+00) (11, 2.05476633475670533713e+00) (12, -1.48768836316424835076e+00) (13, -3.01303153105752974383e+00) (14, 1.65961430562293038582e-01) (15, -1.31457960363774728485e+00) (16, -1.91427390822360238287e-01) (17, -2.97107308798413516371e-01) (18, 3.64970405230447303424e+00) (19, 5.94880858483153147631e+01) (20, 7.45913549754095184241e-01) (0, 1.83970941340444005263e-01) (1, 3.28514812599233891888e+01) (2, -2.58162468334174999285e+00) (3, -1.11810693776743685923e+00) (4, -4.72623583472257635663e-01) (5, 3.40970558915020469093e-02) (6, -2.35680360490980664312e-02) (7, 1.61369125959707676587e-01) (8, 1.91011851433612389606e+00) (9, -1.09834328924901858393e+00) (10, 1.14582020030081044304e+00) (11, -4.51226241844404685200e-01) (12, -4.74913332947550159702e+00) (13, -6.11398895961443589187e+00) (14, -1.96765501015513355476e+00) (15, -2.13332016149629533075e+00) (16, -1.26151496568076587623e-01) (17, -4.91104517291386932776e-01) (18, -1.51646846797115708583e-01) (19, 1.60201310692403865232e+02) (20, 9.35651492017775643362e-01) (0, 4.48935638540614800895e-01) (1, 1.33840387084973162501e+01) (2, -2.62936175357902168770e+00) (3, -1.04775353556878791927e+00) (4, -4.95301713723013459223e-01) (5, 5.31227269335774909820e-01) (6, -4.02133320664357418739e-01) (7, 5.25655465200782656687e-01) (8, 1.93148247211775636600e+00) (9, -9.12439662041582000285e-02) (10, 8.47494682081342154412e-01) (11, 2.71792032077801004597e-01) (12, -4.80895297250539854872e+00) (13, -6.60500010672605508688e+00) (14, -1.96193809722842793519e+00) (15, -3.16976513477068921887e+00) (16, -1.60906248880657021250e-01) (17, -4.17484177396719113862e-01) (18, -8.07678192843669651158e-02) (19, 6.64069792420618085771e+01) (20, 9.95971130449949115793e-01) (21, -1.41890701478954506243e+00) (22, -1.36816140091654014910e+00) (23, -1.31783527636010955320e+00) (24, -4.73493798978601532212e+00) (25, -1.36654747844537682866e+00) (26, -1.29063932837574597556e+01) (27, -3.68144981389845593611e+00) (28, -1.81091902268308180268e+00) (29, -4.91279509672254821595e+00) (30, -7.65621968954193743429e+00) (31, -4.95566962870715066458e+00) (32, -4.97578092767174773314e+00) (33, 1.18677061628331692589e+01) 
