FANN_FLO_2.1
num_layers=3
learning_rate=0.700000
connection_rate=1.000000
network_type=0
learning_momentum=0.000000
training_algorithm=2
train_error_function=1
train_stop_function=0
cascade_output_change_fraction=0.010000
quickprop_decay=-0.000100
quickprop_mu=1.750000
rprop_increase_factor=1.200000
rprop_decrease_factor=0.500000
rprop_delta_min=0.000000
rprop_delta_max=50.000000
rprop_delta_zero=0.100000
cascade_output_stagnation_epochs=12
cascade_candidate_change_fraction=0.010000
cascade_candidate_stagnation_epochs=12
cascade_max_out_epochs=150
cascade_max_cand_epochs=150
cascade_num_candidate_groups=2
bit_fail_limit=3.49999999999999977796e-01
cascade_candidate_limit=1.00000000000000000000e+03
cascade_weight_multiplier=4.00000000000000022204e-01
cascade_activation_functions_count=10
cascade_activation_functions=3 5 7 8 10 11 14 15 16 17 
cascade_activation_steepnesses_count=4
cascade_activation_steepnesses=2.50000000000000000000e-01 5.00000000000000000000e-01 7.50000000000000000000e-01 1.00000000000000000000e+00 
layer_sizes=46 7 2 
scale_included=0
neurons (num_inputs, activation_function, activation_steepness)=(0, 0, 0.00000000000000000000e+00) (0, 0, 0.00000000000000000000e+00) (0, 0, 0.00000000000000000000e+00) (0, 0, 0.00000000000000000000e+00) (0, 0, 0.00000000000000000000e+00) (0, 0, 0.00000000000000000000e+00) (0, 0, 0.00000000000000000000e+00) (0, 0, 0.00000000000000000000e+00) (0, 0, 0.00000000000000000000e+00) (0, 0, 0.00000000000000000000e+00) (0, 0, 0.00000000000000000000e+00) (0, 0, 0.00000000000000000000e+00) (0, 0, 0.00000000000000000000e+00) (0, 0, 0.00000000000000000000e+00) (0, 0, 0.00000000000000000000e+00) (0, 0, 0.00000000000000000000e+00) (0, 0, 0.00000000000000000000e+00) (0, 0, 0.00000000000000000000e+00) (0, 0, 0.00000000000000000000e+00) (0, 0, 0.00000000000000000000e+00) (0, 0, 0.00000000000000000000e+00) (0, 0, 0.00000000000000000000e+00) (0, 0, 0.00000000000000000000e+00) (0, 0, 0.00000000000000000000e+00) (0, 0, 0.00000000000000000000e+00) (0, 0, 0.00000000000000000000e+00) (0, 0, 0.00000000000000000000e+00) (0, 0, 0.00000000000000000000e+00) (0, 0, 0.00000000000000000000e+00) (0, 0, 0.00000000000000000000e+00) (0, 0, 0.00000000000000000000e+00) (0, 0, 0.00000000000000000000e+00) (0, 0, 0.00000000000000000000e+00) (0, 0, 0.00000000000000000000e+00) (0, 0, 0.00000000000000000000e+00) (0, 0, 0.00000000000000000000e+00) (0, 0, 0.00000000000000000000e+00) (0, 0, 0.00000000000000000000e+00) (0, 0, 0.00000000000000000000e+00) (0, 0, 0.00000000000000000000e+00) (0, 0, 0.00000000000000000000e+00) (0, 0, 0.00000000000000000000e+00) (0, 0, 0.00000000000000000000e+00) (0, 0, 0.00000000000000000000e+00) (0, 0, 0.00000000000000000000e+00) (0, 0, 0.00000000000000000000e+00) (46, 4, 5.00000000000000000000e-01) (46, 4, 5.00000000000000000000e-01) (46, 4, 5.00000000000000000000e-01) (46, 4, 5.00000000000000000000e-01) (46, 4, 5.00000000000000000000e-01) (46, 4, 5.00000000000000000000e-01) (0, 0, 0.00000000000000000000e+00) (7, 6, 5.00000000000000000000e-01) (0, 6, 0.00000000000000000000e+00) 
connections (connected_to_neuron, weight)=(0, 2.17375419896297517042e+00) (1, 4.35358774428750816554e+00) (2, -2.35909974913853703882e+00) (3, -2.72820994210083966891e+00) (4, -2.37566595703560956565e+00) (5, -2.40007062131029602625e+00) (6, -2.94028524967475135554e+00) (7, -2.93882406827524755855e+00) (8, -2.43592348539322589573e+00) (9, -4.24536670778243774294e+00) (10, -3.63025911630704722910e+00) (11, -3.65834594251230083017e+00) (12, 1.71923134084892126339e+00) (13, 1.62427452689678974984e+00) (14, 2.36809317267892982528e+00) (15, 1.69980163452127253088e+00) (16, 2.11773431563606173711e+00) (17, 2.23213046681223481471e+00) (18, 2.18123894821940034205e+00) (19, 1.81587706649473523690e+00) (20, 2.43737535426833007435e+00) (21, 1.56875270067633709736e+00) (22, 1.57115155743037382408e+00) (23, 1.63727531651834135040e+00) (24, 1.56437844182437313378e+00) (25, 2.02147130025797983066e+00) (26, 1.95754084290842067517e+00) (27, -2.85755342740837303683e-01) (28, -2.32513446860579575670e+00) (29, -2.80272569820938821650e+00) (30, -2.79047725740225649460e+00) (31, -2.05091181094014585184e+00) (32, -2.09390899980628431010e+00) (33, 4.27157877700296062518e-01) (34, -1.95172821841451149538e+00) (35, -5.52959057299413636599e-01) (36, -1.54465018499125084084e+00) (37, 3.60749487734422058516e-01) (38, -3.00685150179006877025e+00) (39, -2.49628482376193838732e+00) (40, -2.53242114161085396518e+00) (41, -2.12204918430835609566e-01) (42, 1.58618555432405727856e+00) (43, 2.15251397161430357841e+00) (44, 1.84139431289323574070e+00) (45, 2.17906215422953719596e+00) (0, 1.02078624750141755406e+00) (1, 1.27006922640746200415e-01) (2, -7.44635380522250645008e-01) (3, -1.51108496166569294950e+00) (4, -1.44914923883778179459e+00) (5, -1.74738060113918103333e+00) (6, -1.09112883367913027222e+00) (7, -5.51538269227769273328e-02) (8, -6.96994836634423770017e-02) (9, -1.37678478373280316349e-01) (10, -4.79756880955360731633e-01) (11, -1.26476744911869967009e-02) (12, 3.53157189448990091463e-02) (13, 3.58498643122298482622e-02) (14, 7.57851555842973135385e-04) (15, 4.30664565937534313256e-02) (16, 1.21068973099292528928e-01) (17, 1.66834003159351318413e-01) (18, 7.93726687845974443469e-01) (19, 9.82394745168477245834e-01) (20, 1.40467919365629279049e+00) (21, 1.34342923587489226911e+00) (22, 3.49439087915399348994e-01) (23, 4.08556467961884661744e-01) (24, 6.69318884388289264686e-02) (25, 3.03741244371160123983e-02) (26, 1.13929874985955581490e-01) (27, -7.96244451281238441176e-01) (28, -9.90835822550437561596e-01) (29, -1.34206698572540883418e+00) (30, -2.21353210397878585880e+00) (31, -7.13001318325125144071e-01) (32, -8.49869158575778160802e-01) (33, -5.96577497568527070904e-01) (34, -4.56357025412734151892e-01) (35, -2.01027038188627993343e-01) (36, 1.09145001911897868152e-02) (37, 2.85036963683059252350e-01) (38, 2.51840798390052855726e-01) (39, 3.98634366304976783812e-01) (40, 9.64051587282556354808e-01) (41, 1.43571818376940418815e+00) (42, 4.37694751569736417718e-01) (43, 8.58651620846269447718e-01) (44, 5.86713364794496428090e+00) (45, 1.24016936353962892170e+00) (0, 1.03279213994120766529e+00) (1, -4.41752511019299287653e+00) (2, -1.98328829289028685245e+00) (3, -1.66121689546088102674e+00) (4, -1.63988325818182545390e+00) (5, -1.14496543636245218245e+00) (6, -7.12423668793212505612e-01) (7, -2.37481588389500147818e-01) (8, -3.17665059454046661003e-01) (9, 1.91910423805705110389e+00) (10, 7.41937465838322296463e+00) (11, 2.82728268010678673861e+00) (12, 2.37334680752123022840e-01) (13, 1.43065010206068210508e-01) (14, 2.93236894843942663691e-01) (15, -2.43943520645925421286e-01) (16, 9.69177492956309838412e-01) (17, 9.25663076824167707635e-01) (18, 8.13887695398645916178e-01) (19, 2.28793714055098762472e+00) (20, 2.41490960236121354754e+00) (21, 2.12305721971018357408e+00) (22, 1.91001816734212415128e+00) (23, 1.41310101787452868649e+00) (24, 9.02218728721267293480e-01) (25, -2.88212914764399030787e-01) (26, -2.13862652051585344637e+00) (27, -1.03725597994359719500e+00) (28, 3.66721112935558257728e-01) (29, 1.07698084712585107070e+00) (30, 1.04312226474841707180e+00) (31, 7.18629451969623578300e-01) (32, 7.62781905511379254570e-01) (33, -1.85473378895959539747e+00) (34, -1.74121029996119980332e+00) (35, -1.02747841493233260657e+00) (36, -1.03614753787155389197e+00) (37, -1.49880318923610800219e+00) (38, -2.39760679514330643514e+00) (39, -2.44739131526718622922e+00) (40, -5.23664728282223101985e+00) (41, -6.35059949685926206087e+00) (42, 6.66975593306400105220e-01) (43, 7.28226624938810518373e-01) (44, 1.90170630205800494927e+00) (45, 7.74372011739979160261e-01) (0, 9.19079206552797955965e-01) (1, 1.29278517567797752719e+01) (2, -1.34609179122300282039e+00) (3, -6.80146911907208995274e-01) (4, -1.59004819448050915831e+00) (5, -2.15833718234854998741e+00) (6, -1.74831080273201688868e+00) (7, -1.33125584130451368736e+00) (8, -1.45651340198026113537e-01) (9, -6.75911495523307204181e-01) (10, -7.67736338833711617902e-02) (11, 5.88815936804859219045e-01) (12, 9.01643780145392481629e-01) (13, 9.30509552956487739905e-01) (14, 1.02132844543442957708e+00) (15, 4.46002691768998316135e-01) (16, 9.72197523236597138663e-01) (17, 1.27714168871548627848e+00) (18, 1.18311711119507578793e+00) (19, 1.46214200595846111064e+00) (20, 1.89400846288324475886e+00) (21, 1.30903197395682258097e+00) (22, 1.23254943345514189623e+00) (23, 1.25534442508066979016e+00) (24, 8.86159633438764138269e-01) (25, 1.36189777967306935302e+00) (26, 7.79619808204824391029e-03) (27, 7.10243940721423383522e-01) (28, -6.37959331801746021284e-01) (29, -1.65598063118196026089e+00) (30, -1.65074278065989110686e+00) (31, -1.19107844205943869120e+00) (32, -1.28998380342467333648e+00) (33, -1.31227956318920990775e+00) (34, -1.44699617303817906766e+00) (35, -2.21209434143188143906e+00) (36, -4.81868036040555303146e+00) (37, -1.55521100588052907376e+00) (38, -1.74081624844812110631e+00) (39, -1.65764099940368603292e+00) (40, -1.62611384714076612212e+00) (41, -1.52876394402063908728e+00) (42, 3.67919925861682206580e-01) (43, 5.06980236429927622055e-01) (44, 2.18310616834750570447e+00) (45, 1.53957004650575801641e+00) (0, 1.00852409734868264657e+00) (1, 6.54590848610210884750e-01) (2, -6.14199784745549504095e+00) (3, -2.06198341928514814470e+01) (4, -3.02646646862004402578e+01) (5, -1.57337745669374236002e+01) (6, -6.91980609559432124911e+00) (7, -7.29470032875794427429e-02) (8, -9.22558728195682076212e-02) (9, -4.80398344062645064195e-04) (10, 5.78227503126383726717e-02) (11, -6.15984037957995125834e-02) (12, 1.24652030221945916977e-01) (13, 3.85054699814807555036e-01) (14, 2.97192541150727573829e-01) (15, 3.71413087040851963572e-01) (16, -4.12381355432781850079e-03) (17, 2.70636704765185642785e-01) (18, 8.72567183732037565669e-01) (19, 9.88681057654126060896e-01) (20, 1.62727351475256609703e+00) (21, 1.16588062038690942757e+00) (22, 6.06620032735189163020e-01) (23, 5.88242035421619680058e-01) (24, 1.38903714673580813699e-01) (25, 2.58986561039339507895e-02) (26, -1.50630282783555582288e-02) (27, -3.77614575918354011819e-01) (28, -6.46613810873513994437e-01) (29, -9.63553087168939947915e-01) (30, -1.53758425739688475709e+00) (31, -3.72588045373010323669e-01) (32, -3.65795533314737575381e-01) (33, 4.37860443921288977620e-01) (34, 2.71404086646119917237e-02) (35, -1.57782124044498553439e-02) (36, 1.45080675840159774304e-02) (37, 4.76759118444058216379e-01) (38, 2.29354231340598985200e-01) (39, 2.80728266627545908207e-01) (40, 5.39051502792289305432e-01) (41, 9.17991696716210614504e-01) (42, 9.04909676470291746142e-01) (43, 9.96985799231064451220e-01) (44, 1.94221058319874217979e+00) (45, 1.13475039114884435065e+00) (0, 1.49379198238121024822e+00) (1, 3.63414650869042954451e-01) (2, -3.02959010425080554896e-01) (3, -1.36288317955451654395e-01) (4, -2.41829415985650220122e-01) (5, -7.69524059634077106651e-01) (6, -1.77529206388034294095e-01) (7, 6.34282125793098616739e-02) (8, -6.57504977025390596745e-02) (9, 1.31487521228327602918e-01) (10, -3.47640667605940006935e-02) (11, 3.98513470743093282944e-03) (12, 1.03611591373836769980e-01) (13, 6.41045402425483440423e-02) (14, 4.97580263453677798524e-02) (15, 1.45151670712188388124e-02) (16, 3.83082087773040577683e-02) (17, 1.04453324597312283140e-01) (18, 1.14983541181809689746e+00) (19, 2.41980587354878373674e+00) (20, 1.57910974917108948290e+00) (21, 1.41766256927544453958e+00) (22, 4.70455311823783139946e-01) (23, 5.36555849616098701205e-01) (24, 1.55007698645391017722e-01) (25, 1.00210474397312482298e-01) (26, 1.00129047088397912790e-01) (27, -7.12928551449937497608e-01) (28, -8.36606403777835461177e-01) (29, -5.24221954306487525344e+00) (30, -2.50493220407328509580e+00) (31, -7.89492926007942186217e-01) (32, -8.02491716591842152440e-01) (33, -5.50667423756555196590e-01) (34, -2.62693227564871290003e-01) (35, 1.06563223194970538299e-01) (36, 8.54193246029720382184e-02) (37, 4.76810232648361254082e-01) (38, 4.28231251698424741914e-01) (39, 4.24976927500655576875e-01) (40, 9.85848934736208271090e-01) (41, 1.03644840547080452353e+00) (42, 8.28894627790926041833e-01) (43, 1.14661281443837270722e+00) (44, 8.20411078994582432244e+00) (45, 1.61333529611097370449e+00) (46, -1.25715053121763009614e+01) (47, -4.89129759389875662379e+00) (48, 1.03826711547622352327e+01) (49, -7.29381952704086877759e+00) (50, -1.27071894746699491918e+01) (51, -6.89270073355078327637e+00) (52, 3.63509569787400499408e+00) 
