FANN_FLO_2.1
num_layers=3
learning_rate=0.700000
connection_rate=1.000000
network_type=0
learning_momentum=0.000000
training_algorithm=2
train_error_function=1
train_stop_function=0
cascade_output_change_fraction=0.010000
quickprop_decay=-0.000100
quickprop_mu=1.750000
rprop_increase_factor=1.200000
rprop_decrease_factor=0.500000
rprop_delta_min=0.000000
rprop_delta_max=50.000000
rprop_delta_zero=0.100000
cascade_output_stagnation_epochs=12
cascade_candidate_change_fraction=0.010000
cascade_candidate_stagnation_epochs=12
cascade_max_out_epochs=150
cascade_max_cand_epochs=150
cascade_num_candidate_groups=2
bit_fail_limit=3.49999999999999977796e-01
cascade_candidate_limit=1.00000000000000000000e+03
cascade_weight_multiplier=4.00000000000000022204e-01
cascade_activation_functions_count=10
cascade_activation_functions=3 5 7 8 10 11 14 15 16 17 
cascade_activation_steepnesses_count=4
cascade_activation_steepnesses=2.50000000000000000000e-01 5.00000000000000000000e-01 7.50000000000000000000e-01 1.00000000000000000000e+00 
layer_sizes=41 11 2 
scale_included=0
neurons (num_inputs, activation_function, activation_steepness)=(0, 0, 0.00000000000000000000e+00) (0, 0, 0.00000000000000000000e+00) (0, 0, 0.00000000000000000000e+00) (0, 0, 0.00000000000000000000e+00) (0, 0, 0.00000000000000000000e+00) (0, 0, 0.00000000000000000000e+00) (0, 0, 0.00000000000000000000e+00) (0, 0, 0.00000000000000000000e+00) (0, 0, 0.00000000000000000000e+00) (0, 0, 0.00000000000000000000e+00) (0, 0, 0.00000000000000000000e+00) (0, 0, 0.00000000000000000000e+00) (0, 0, 0.00000000000000000000e+00) (0, 0, 0.00000000000000000000e+00) (0, 0, 0.00000000000000000000e+00) (0, 0, 0.00000000000000000000e+00) (0, 0, 0.00000000000000000000e+00) (0, 0, 0.00000000000000000000e+00) (0, 0, 0.00000000000000000000e+00) (0, 0, 0.00000000000000000000e+00) (0, 0, 0.00000000000000000000e+00) (0, 0, 0.00000000000000000000e+00) (0, 0, 0.00000000000000000000e+00) (0, 0, 0.00000000000000000000e+00) (0, 0, 0.00000000000000000000e+00) (0, 0, 0.00000000000000000000e+00) (0, 0, 0.00000000000000000000e+00) (0, 0, 0.00000000000000000000e+00) (0, 0, 0.00000000000000000000e+00) (0, 0, 0.00000000000000000000e+00) (0, 0, 0.00000000000000000000e+00) (0, 0, 0.00000000000000000000e+00) (0, 0, 0.00000000000000000000e+00) (0, 0, 0.00000000000000000000e+00) (0, 0, 0.00000000000000000000e+00) (0, 0, 0.00000000000000000000e+00) (0, 0, 0.00000000000000000000e+00) (0, 0, 0.00000000000000000000e+00) (0, 0, 0.00000000000000000000e+00) (0, 0, 0.00000000000000000000e+00) (0, 0, 0.00000000000000000000e+00) (41, 4, 5.00000000000000000000e-01) (41, 4, 5.00000000000000000000e-01) (41, 4, 5.00000000000000000000e-01) (41, 4, 5.00000000000000000000e-01) (41, 4, 5.00000000000000000000e-01) (41, 4, 5.00000000000000000000e-01) (41, 4, 5.00000000000000000000e-01) (41, 4, 5.00000000000000000000e-01) (41, 4, 5.00000000000000000000e-01) (41, 4, 5.00000000000000000000e-01) (0, 0, 0.00000000000000000000e+00) (11, 6, 5.00000000000000000000e-01) (0, 6, 0.00000000000000000000e+00) 
connections (connected_to_neuron, weight)=(0, 2.56937037139624013804e-01) (1, 1.09595440637995075739e-01) (2, -1.83899556045860701481e+00) (3, -8.20996512413501466909e-01) (4, -1.28160926936815600108e+00) (5, -1.34197129704554574126e+00) (6, -4.86895925073572766184e-01) (7, -2.57920200238120067571e-01) (8, -3.40222036587410403552e-01) (9, -8.86366986046467908444e-02) (10, -1.10686794183798342672e-01) (11, -8.82290399135246677931e-02) (12, 1.44660118372442636492e-01) (13, 6.21165218260124186826e-04) (14, -3.81090918898035601464e-03) (15, 2.78236238389033829765e-01) (16, 5.95952649082873500697e-02) (17, 2.39942147368206931679e-01) (18, -4.94558228577436503892e-02) (19, 2.22377757399839531827e-01) (20, 2.50449108874629677857e-01) (21, 1.78484609557699486215e-01) (22, 1.74113807983358459541e-01) (23, 8.83079854743684666829e-01) (24, -7.51959114382340310101e-01) (25, -9.44711563358460071349e-01) (26, -2.16942235360386348475e+00) (27, -1.03691682694006837018e+00) (28, -5.75509350425888799307e-01) (29, -1.31393868291872273346e-01) (30, -1.95592747349372569898e-01) (31, -2.90631481946027003804e-01) (32, -2.69078003143112698403e-01) (33, -1.23007535444853169371e-01) (34, -2.28310107700992581670e-01) (35, -1.08106007037429632800e-01) (36, 5.85112617785154132122e+00) (37, 7.46121972206323591514e-01) (38, 7.37442755201624944306e-01) (39, 3.84490734675837089185e+01) (40, 6.19942120427655951609e-01) (0, 3.22239840710210900809e+00) (1, -4.60504442543200387394e-01) (2, -2.47143131426160111985e+00) (3, -2.48440191542194321883e+00) (4, -2.69795302402490078109e+00) (5, -2.16521923996455356587e+00) (6, -2.93161860472794300048e-01) (7, -1.54957240535471596488e+00) (8, -3.82641508419094389382e+00) (9, -3.90636068251890611336e+00) (10, -3.91734829959434938118e+00) (11, -1.15284908521726237041e+00) (12, -1.32385136897658650668e+00) (13, 2.42353205391706849614e-02) (14, -9.03891252710427584027e-02) (15, -1.48807220234929826752e+00) (16, 9.34242115903645320429e+00) (17, 9.66902872495553822318e+00) (18, 2.70116029884226449553e-01) (19, -1.30508177677305892139e+00) (20, 1.06704694114204301503e-01) (21, -1.13281358404710763566e+00) (22, 1.78113961550400504152e-02) (23, -8.27838311064511445103e-01) (24, -7.68514177718423008301e-01) (25, -1.47125897389218485145e+00) (26, 4.00565211799446529994e+00) (27, 6.11634038469071139588e+00) (28, -9.53204406892262268158e-01) (29, -4.93241122385106756099e-01) (30, -5.97932379216211340456e-01) (31, -8.99697356407537340850e-01) (32, -5.01925793952831766909e-01) (33, -3.26155936157438874901e+00) (34, -1.51990589365569395142e+00) (35, -8.81648255168933747683e-01) (36, -8.59010880051513159295e-01) (37, -7.43500840758457792745e-01) (38, -7.78624115304177522034e-01) (39, 2.35435634027363649423e+00) (40, -4.17196281531976020940e-01) (0, 8.54831672473766790432e-01) (1, -1.10281501458027397788e+00) (2, -6.47810403545530011371e+00) (3, -1.37112394340423886518e+01) (4, -7.08190696335832399200e+01) (5, -2.81090695003748471947e+01) (6, -1.13027688433292516912e+00) (7, -6.57093198334689820861e-01) (8, -3.38965827882323877951e-01) (9, -1.70927732618367289597e+00) (10, -9.97372922237645620491e-01) (11, 5.62385833633700649159e-01) (12, 4.35563995849990837073e-01) (13, 2.71543181795342924989e-01) (14, 2.52520055206437221695e-01) (15, 3.41435308722185526520e+00) (16, 5.65835729059064007629e+00) (17, 3.25672685480694390492e+00) (18, 2.29592933863835080288e+00) (19, 1.77905525811557163607e+00) (20, 1.47067398438371976788e+00) (21, 2.42040852689671195930e-02) (22, 2.46508619133925438449e-01) (23, -7.48144455009878250884e-01) (24, -8.62681560361966304207e-01) (25, -8.89666077099270702355e-01) (26, -8.46241782454968505256e-01) (27, -8.33596918322444091487e-01) (28, -7.91110807816111871738e-01) (29, -3.56406163061136871395e-01) (30, -3.60326020108598432667e-01) (31, -5.73741069803874959021e-01) (32, -5.35766257032447179576e-01) (33, -4.50624505769991634541e-01) (34, -7.62743481306954129728e-01) (35, -6.97169974633984335100e-01) (36, 3.37972807933902774646e-01) (37, 2.83736071209417961558e-01) (38, 1.52596338174315633296e+01) (39, 3.48760136769404383017e+01) (40, 4.70814149889693744910e+00) (0, 2.20128131801876819607e-01) (1, 1.59434092877889205253e-01) (2, -1.22165693932237751085e+00) (3, -2.88190108743678852221e+00) (4, -4.52014858134780705967e+00) (5, -3.13945537088396964265e+00) (6, -1.23725851792618013469e+00) (7, -3.66674600978013687236e-01) (8, -2.96007613779206923965e-01) (9, -1.95193108243359614296e-01) (10, 4.56733932396734612635e-02) (11, 4.14363639730137151007e-02) (12, 3.98675990071266223014e-02) (13, -4.70232134199781159900e-02) (14, 4.63812472332740810543e-02) (15, 2.66662893252090325846e-02) (16, 4.90521085848184892897e-02) (17, 1.37108133972905471554e-01) (18, -6.51912932639979292304e-01) (19, 1.20655736757118658975e-01) (20, 1.51744232678252544133e-01) (21, 1.10586328458520433138e+00) (22, 1.03715960419663666414e+00) (23, 4.30922678100113365485e-01) (24, 1.30770256709078991353e-01) (25, -9.34407513091238706160e-01) (26, -1.94757615822472884837e+00) (27, -9.64416248915345275527e-01) (28, -5.22752194658636204494e-01) (29, -1.55463148873526496585e-01) (30, -1.11473156176452800614e-01) (31, -2.34522996506779268788e-01) (32, -2.31041588224442873134e-01) (33, -1.99911865515803276183e-02) (34, -1.44535244238805538064e-01) (35, -2.36019799729118850973e-02) (36, 2.62456218358079862440e+00) (37, 1.70174493373280233399e+00) (38, 3.58791996877317131975e+00) (39, 5.81103832162381905846e+01) (40, 6.43269399530772112428e-01) (0, 2.26968726346388954829e-01) (1, 4.62984907738565945601e-02) (2, -4.82148041175910813116e-01) (3, -1.68104464018177290896e+00) (4, -7.42557267926624131604e-01) (5, -1.48572409713964592726e+00) (6, -2.15361490022747403827e-01) (7, -2.64449390173226328571e-01) (8, -1.80168336782002613816e-01) (9, 2.60376344369113200961e-02) (10, 1.73563133528102479797e-02) (11, -1.70056727339472878169e-02) (12, -1.39169650454841805493e-02) (13, 7.94429120020907486577e-02) (14, -1.76092864021874990522e-03) (15, 4.50762254375978277388e-01) (16, 8.53459736180619099599e-01) (17, 6.57808635579570699647e-01) (18, 1.14610785420559646575e+00) (19, -1.52307921581707916836e-01) (20, 5.01436767733583144135e-01) (21, 1.58702964182344891109e-01) (22, 3.13710788300231024905e-01) (23, 3.42682033611059477796e-01) (24, -9.28162977896434537861e-01) (25, -1.19841556886836286822e+00) (26, -2.54074010308135367353e+00) (27, -2.26404180381124753296e+00) (28, -5.32584508233854836412e-01) (29, 3.05463213020452269142e-02) (30, -1.76721628389499729739e-01) (31, -2.02910204037599406490e-01) (32, -1.80581806544694217775e-01) (33, 6.92350641467811667162e-01) (34, -1.00897749082363916151e-01) (35, 2.20502350321302387215e-01) (36, 4.87637913996051075571e+00) (37, 5.68571374574884158548e-01) (38, 1.03769388876468715566e+00) (39, 3.26180104190895931993e+01) (40, 6.84084823307188005792e-01) (0, 1.55613645304315317830e+00) (1, -1.60042406426126682106e+00) (2, -1.76677787102726604473e+01) (3, -2.43079017071740111078e+01) (4, -3.81456726017244136528e+01) (5, -3.53062452779412225823e+01) (6, -1.10049773257421310002e-01) (7, -7.43280567042476247863e-01) (8, -2.65345582605230834172e-01) (9, -1.60801876245942465538e+00) (10, -4.31572846166202006568e-01) (11, 5.36409140978743814721e-01) (12, 7.70914005442244865129e-01) (13, 6.77998349363184482641e-01) (14, 3.84357027835042053265e-01) (15, 2.15115336179659344396e+00) (16, 4.51132730457878050601e+00) (17, 2.93424531215757689040e+00) (18, 2.48279136237885955651e+00) (19, 1.88423272023584154056e+00) (20, 1.52023611047467266388e+00) (21, 1.60675349671970973953e-01) (22, 3.09022193869543382316e-01) (23, -6.14789946519661567592e-01) (24, -6.65101694691206946075e-01) (25, -6.98709214397348454817e-01) (26, -5.85321312529452519868e-01) (27, -6.34679144007571194308e-01) (28, -7.18485299427346513212e-01) (29, -2.90283308575640164317e-01) (30, -1.83848417585991026624e-02) (31, -2.97561899033960519656e-01) (32, -4.29648715766423050511e-01) (33, -2.12955857071595699992e-01) (34, 5.19123342898689332792e-01) (35, 5.79191801217399770962e-01) (36, 9.80241441619469133784e-01) (37, 1.83221606818352533708e+00) (38, 1.68641385670795465046e+01) (39, 3.25555495185703236416e+01) (40, 3.14823158470359887318e+00) (0, 3.00672826751239574694e-02) (1, -7.36315990011750520772e-01) (2, -2.40667163554635887834e+00) (3, -1.72673470189722144674e+00) (4, -4.08877302566212019741e+00) (5, -5.65410304366745375404e+00) (6, -1.82972157663831391794e+00) (7, -2.79637415152508861382e+00) (8, -3.73642675194468898425e+00) (9, -7.32420956083775642753e+00) (10, -3.68076462340953858288e+00) (11, -1.06922501625455113050e+00) (12, -1.32311327054176974816e-01) (13, -9.42445662742181500260e-02) (14, -4.10098057398967930087e-02) (15, -8.22449072474197961924e-01) (16, 6.67097348219423658122e+00) (17, 1.29937800661904407917e+01) (18, 4.06273113186879863967e-01) (19, -4.94615518793988417912e+00) (20, 8.25155197715789712198e-01) (21, -7.08371202097232255390e-01) (22, -6.41197000059624211410e-01) (23, -7.98827037687161123358e-01) (24, -6.78826013718862975033e-01) (25, -1.32746306001578528999e+00) (26, 7.54989936765206159919e+00) (27, 7.43146176750311138193e+00) (28, -9.69814392537071578992e-01) (29, -6.79091932308565682241e-01) (30, -7.28524823603845850251e-01) (31, -9.12534277712447050579e-03) (32, 2.32822697499583819436e+00) (33, -7.13264079743837209335e-01) (34, -8.93323738901977026927e-01) (35, -6.74362493223866654724e-01) (36, -5.39758619098492431476e-01) (37, -6.36619354951477700588e-01) (38, -6.07776616483934217783e-01) (39, 2.38441563894599095619e+00) (40, 4.97548622877711288481e-01) (0, 2.65036790287199175431e-01) (1, 2.46270507746501915447e-01) (2, 5.37323350013652678570e+00) (3, -4.04420746565692990071e-01) (4, -8.19689331552135636016e-01) (5, -9.84861555128803023429e-01) (6, -7.40440523892891389046e-01) (7, -3.62323685615792645542e-01) (8, -1.37372108630525541217e-01) (9, -6.82805969948707264239e-02) (10, 1.98152698374441833817e-02) (11, 1.34625813900523583211e-01) (12, -6.02856746497463808626e-03) (13, 7.83985740178411022461e-02) (14, 1.30890750135149336320e-01) (15, 3.03193415783823416731e-01) (16, 7.09656391909661676820e-01) (17, 5.47269216041509576343e-01) (18, 4.61754630713060720826e-01) (19, -6.91310694503806666411e-02) (20, 5.02324886069685394574e-01) (21, 1.97368724724946736915e-01) (22, 6.28640348450114766488e-02) (23, -1.60864047377150987117e-01) (24, -9.43443035184151623795e-01) (25, -1.29132350945906471118e+00) (26, -3.12626457190866213764e+00) (27, -1.15140244695354732052e+00) (28, -9.45311992660538891187e-01) (29, -1.55597737076790143540e-01) (30, -3.82149529827793432712e-01) (31, -2.20848971225453244438e-01) (32, -1.19504189205640098947e-01) (33, 3.01983346994846080236e-01) (34, -5.82055443922621928987e-02) (35, 1.91302157058918440025e-02) (36, 5.62434976492612648258e+00) (37, 8.33763771037239198591e-01) (38, 5.89719742135010660533e-01) (39, 1.61853709097642060044e+01) (40, 8.42031603553312302246e-01) (0, 1.49822186609049584627e-01) (1, 4.29764731429970903154e-01) (2, 1.28180208556559338540e+00) (3, -1.14827133328070440932e+00) (4, -7.16433750481621833828e-01) (5, -3.85658643207835660771e-01) (6, -3.48870217986935626797e-01) (7, -2.57250061990714540272e-01) (8, -2.36216414781814043611e-01) (9, -4.74106595993858334626e-02) (10, -2.23096018328922431062e-02) (11, -2.04334779538212635286e-02) (12, -2.01632483355218480869e-02) (13, 2.82303770231526370005e-02) (14, 1.13059832312985192315e-01) (15, 1.69762376804662190599e-01) (16, 7.76522608481650888912e-01) (17, 1.72352970729891996626e+00) (18, 1.62120252077755355735e+00) (19, 2.30218824481612266419e-01) (20, 3.88341418560892381873e-01) (21, 1.02025803250520782917e-01) (22, 3.16986126259540760414e-03) (23, 5.03092425121521961973e-03) (24, -3.81478700416578442312e-01) (25, -2.55654921150891345505e+00) (26, -3.53957896915897096690e+00) (27, -2.22338304697862643167e+00) (28, -2.63816554584595130972e-01) (29, 1.20147276882049000579e-01) (30, -6.60759812483487779522e-02) (31, 2.47074548577622676859e-02) (32, -2.31107989199054141005e-02) (33, 5.36242238047904828946e-01) (34, 2.91198798947003498205e-02) (35, 2.99447726777712808222e-01) (36, 2.50465065843687417768e+00) (37, 5.25840603285388064059e-01) (38, 8.71415056399808984899e-01) (39, 2.06930018662220902570e+01) (40, 9.01868895810163273552e-01) (0, 6.22496203786834012561e-01) (1, -1.71665889714009223255e+00) (2, -1.00875269465025607651e+00) (3, -1.23386229976655581453e+00) (4, -1.33513844944365467349e+00) (5, -1.75130050611776555414e+00) (6, -1.45841846842721767352e+00) (7, -1.00269929107276678515e+00) (8, -5.89055923051941876523e-01) (9, -3.31273881038464598769e-02) (10, -3.63037551277258174753e-01) (11, 4.79190651044413773452e-01) (12, 3.55232050630768791954e-01) (13, 3.01993063088676239047e-01) (14, 1.94344016874579084142e-01) (15, 5.44896517989469586496e-01) (16, 1.28289894588989250579e+00) (17, 1.63854521495361149519e+00) (18, 2.01437514497627967458e+00) (19, 1.52427476807679362913e+00) (20, 2.08139331473309718845e+00) (21, 3.28108645350519145811e-01) (22, -4.90056991218160653556e-01) (23, -4.75556107048597465070e-01) (24, -4.68393452703700419182e-01) (25, -2.81206529831648177620e+00) (26, -4.75167572132367421744e+00) (27, -2.66358429432267618253e+00) (28, -6.24646887769093051013e-01) (29, -4.58088919787511039683e-01) (30, -3.76944950957999791452e-01) (31, -7.33263994582034062120e-01) (32, -5.74520705137599674295e-01) (33, -5.03081920807432636522e-01) (34, -5.80616216266697793280e-01) (35, -5.38668026506071040416e-01) (36, -4.45318032650346640189e-01) (37, -2.94318052793017981283e-01) (38, -2.32326500667341590001e-01) (39, 3.65255697439826505502e+01) (40, 2.00765006969425119365e+00) (41, -4.01892101800419609958e+00) (42, 5.50570654843208018292e+00) (43, -9.13900714946767678271e+00) (44, -1.50648035610954567076e+00) (45, -4.63552264085473098021e+00) (46, -6.87460525167030134241e+00) (47, 1.04693422557506021775e+00) (48, -6.35203047634466066995e+00) (49, -6.83059553897142013312e+00) (50, -3.09802223035163404319e+00) (51, 9.02793624630272262266e+00) 
