FANN_FLO_2.1
num_layers=3
learning_rate=0.700000
connection_rate=1.000000
network_type=0
learning_momentum=0.000000
training_algorithm=2
train_error_function=1
train_stop_function=0
cascade_output_change_fraction=0.010000
quickprop_decay=-0.000100
quickprop_mu=1.750000
rprop_increase_factor=1.200000
rprop_decrease_factor=0.500000
rprop_delta_min=0.000000
rprop_delta_max=50.000000
rprop_delta_zero=0.100000
cascade_output_stagnation_epochs=12
cascade_candidate_change_fraction=0.010000
cascade_candidate_stagnation_epochs=12
cascade_max_out_epochs=150
cascade_max_cand_epochs=150
cascade_num_candidate_groups=2
bit_fail_limit=3.49999999999999977796e-01
cascade_candidate_limit=1.00000000000000000000e+03
cascade_weight_multiplier=4.00000000000000022204e-01
cascade_activation_functions_count=10
cascade_activation_functions=3 5 7 8 10 11 14 15 16 17 
cascade_activation_steepnesses_count=4
cascade_activation_steepnesses=2.50000000000000000000e-01 5.00000000000000000000e-01 7.50000000000000000000e-01 1.00000000000000000000e+00 
layer_sizes=46 4 2 
scale_included=0
neurons (num_inputs, activation_function, activation_steepness)=(0, 0, 0.00000000000000000000e+00) (0, 0, 0.00000000000000000000e+00) (0, 0, 0.00000000000000000000e+00) (0, 0, 0.00000000000000000000e+00) (0, 0, 0.00000000000000000000e+00) (0, 0, 0.00000000000000000000e+00) (0, 0, 0.00000000000000000000e+00) (0, 0, 0.00000000000000000000e+00) (0, 0, 0.00000000000000000000e+00) (0, 0, 0.00000000000000000000e+00) (0, 0, 0.00000000000000000000e+00) (0, 0, 0.00000000000000000000e+00) (0, 0, 0.00000000000000000000e+00) (0, 0, 0.00000000000000000000e+00) (0, 0, 0.00000000000000000000e+00) (0, 0, 0.00000000000000000000e+00) (0, 0, 0.00000000000000000000e+00) (0, 0, 0.00000000000000000000e+00) (0, 0, 0.00000000000000000000e+00) (0, 0, 0.00000000000000000000e+00) (0, 0, 0.00000000000000000000e+00) (0, 0, 0.00000000000000000000e+00) (0, 0, 0.00000000000000000000e+00) (0, 0, 0.00000000000000000000e+00) (0, 0, 0.00000000000000000000e+00) (0, 0, 0.00000000000000000000e+00) (0, 0, 0.00000000000000000000e+00) (0, 0, 0.00000000000000000000e+00) (0, 0, 0.00000000000000000000e+00) (0, 0, 0.00000000000000000000e+00) (0, 0, 0.00000000000000000000e+00) (0, 0, 0.00000000000000000000e+00) (0, 0, 0.00000000000000000000e+00) (0, 0, 0.00000000000000000000e+00) (0, 0, 0.00000000000000000000e+00) (0, 0, 0.00000000000000000000e+00) (0, 0, 0.00000000000000000000e+00) (0, 0, 0.00000000000000000000e+00) (0, 0, 0.00000000000000000000e+00) (0, 0, 0.00000000000000000000e+00) (0, 0, 0.00000000000000000000e+00) (0, 0, 0.00000000000000000000e+00) (0, 0, 0.00000000000000000000e+00) (0, 0, 0.00000000000000000000e+00) (0, 0, 0.00000000000000000000e+00) (0, 0, 0.00000000000000000000e+00) (46, 4, 5.00000000000000000000e-01) (46, 4, 5.00000000000000000000e-01) (46, 4, 5.00000000000000000000e-01) (0, 0, 0.00000000000000000000e+00) (4, 6, 5.00000000000000000000e-01) (0, 6, 0.00000000000000000000e+00) 
connections (connected_to_neuron, weight)=(0, 1.91279094901868318424e+00) (1, 1.55363557699587229166e+00) (2, -2.69829269901243284924e-01) (3, 3.58223104698334315898e+00) (4, 2.15423667914507044330e+00) (5, -1.08814137878089023381e+00) (6, -2.42266924699862018500e+00) (7, -2.28820249129699559987e+00) (8, -2.34436480316233231136e+00) (9, -2.32833002726947668748e+00) (10, -4.14018346949015292324e+00) (11, 6.98783598981225440028e-01) (12, 1.15011850579091978730e+00) (13, 1.13486722251524985161e+00) (14, 9.77864536902543768360e-02) (15, 4.22675479930183298216e-02) (16, -5.88504259260540646403e-02) (17, 1.06673629812062542577e+00) (18, 1.78897961461878152178e+00) (19, 3.37311979456019939150e+00) (20, -6.01172277803026178233e-01) (21, 2.19395331579989250059e+00) (22, -4.68534891896729632776e+00) (23, 1.56199557759911855648e+00) (24, 9.15679699424413295894e-01) (25, 1.52632583635818064316e+00) (26, 1.26074861708237051516e+00) (27, -1.22388580656069145824e+00) (28, -1.25495833061763084615e+00) (29, -7.85609343067601528787e+00) (30, -4.18158914099523926211e+00) (31, -1.69318900891954182697e+00) (32, -1.58428657749327306270e+00) (33, -1.23301210656920234854e+00) (34, -7.77480140303559386084e-01) (35, -9.79600412556265509600e-01) (36, -3.47457308435524747647e-01) (37, 1.48875791834554438431e+00) (38, -1.80712581146372297525e+00) (39, 5.18639050894441400175e-01) (40, 2.65771225954529954905e+00) (41, 6.32077261023939840356e+00) (42, 5.09420854953023383160e+00) (43, 4.60131643254756905748e+00) (44, 4.00247057280057649820e+00) (45, 3.50954922695038451508e+00) (0, 1.22232559772589866043e+00) (1, 1.51233371729239030046e+00) (2, -2.83470647368660255694e+00) (3, -2.45498788360592312685e+00) (4, -3.30738982445768447960e+00) (5, -3.92010653865843217147e+00) (6, -3.99229515680535840261e+00) (7, -3.84322287883522495378e+00) (8, -2.11019613715134113363e+00) (9, -1.29252388943714557890e+00) (10, -5.79531098274422529215e+00) (11, -5.42038634385011097727e-01) (12, 1.27318963497403347951e-01) (13, 2.14906470000697680245e-01) (14, 3.16411834762267252241e-01) (15, -1.10962632476108977175e-01) (16, 3.63964744700367770491e-01) (17, 3.58178934532477899477e-01) (18, 8.29349688957241482079e-01) (19, 1.07926824500012097374e+00) (20, -3.80912266540181754237e+00) (21, 9.49583134615568424941e-01) (22, 3.95702368785046720845e-01) (23, 2.17795071521568495143e+00) (24, 6.62761572889932870645e-01) (25, 1.24945832064670558914e+00) (26, 1.23595465926018155400e+00) (27, -2.92132591375072081519e-01) (28, -9.65547470097059878924e-01) (29, -1.55062367762556574391e+00) (30, -1.15026606923749241673e+00) (31, -7.63427690412099568817e-01) (32, -3.94107141852540920901e-01) (33, -3.44780019297438788950e-01) (34, -4.43719970014172293560e-01) (35, -1.46353368810980093151e-02) (36, -5.53767827046750760189e-01) (37, 2.83455707917581178901e-01) (38, -1.57670915590721494315e-01) (39, 1.84458785340716052703e-01) (40, 9.51606718970173792727e-01) (41, 1.08070354785259770125e+00) (42, 6.33793955075444426228e+00) (43, 3.13887003926631802386e+00) (44, 2.09489718536327167442e+01) (45, 1.19912325073054537583e+00) (0, 8.40258228574994436855e-01) (1, 1.40949145065001446575e-01) (2, -8.36221033324481766158e+00) (3, -2.73065032188893255238e+01) (4, -1.69515905840227283363e+01) (5, -1.91638505539726544669e+01) (6, -6.13470162654128525759e+00) (7, -4.67545462109502807380e+00) (8, -1.02371907367865788707e+00) (9, -1.08223135166367234739e+00) (10, -6.24552151479203510043e-01) (11, -3.94225258528864586083e-01) (12, -5.36475495279192596265e-02) (13, 9.02393949420376095816e-01) (14, 1.32940137607038710854e+00) (15, 1.19475708627466459255e+00) (16, 1.18722309700401518207e+00) (17, 3.35067725486452305805e-01) (18, 7.72586690431941502943e-01) (19, 1.54194971679921910557e+00) (20, 1.42867643530574617294e+00) (21, 1.23353963493153218067e+00) (22, 6.58360912564490252663e-01) (23, 5.90037744776478634279e-01) (24, 2.51843065538089272426e-01) (25, 2.32130671442633496060e-01) (26, 1.16474237050170326135e+00) (27, 1.11314476273736445711e-01) (28, -9.21870684962384001615e-01) (29, -1.10877808109671338599e+00) (30, -1.09835795822515858156e+00) (31, -3.95308763001416818561e-01) (32, -4.28657986977365124126e-01) (33, -2.22129099811311819801e-01) (34, -8.56519867538873436175e-01) (35, -4.00826558770486174321e-01) (36, -3.17724703577001998944e-02) (37, -1.26263523170266511730e-01) (38, -6.50641968219635019599e-02) (39, -2.58900665940304253176e-01) (40, 3.04818029692321468271e-01) (41, 4.14101043307966765195e-01) (42, 8.17851179730911148624e-01) (43, 1.75316990755948332037e+00) (44, 3.04788293040368873932e+00) (45, 1.88799204078100379967e+00) (46, -1.69671747625109610169e+01) (47, -3.77495412115590012192e+00) (48, -1.30960642115446077582e+01) (49, 7.15625612613048289745e+00) 
