FANN_FLO_2.1
num_layers=3
learning_rate=0.700000
connection_rate=1.000000
network_type=0
learning_momentum=0.000000
training_algorithm=2
train_error_function=1
train_stop_function=0
cascade_output_change_fraction=0.010000
quickprop_decay=-0.000100
quickprop_mu=1.750000
rprop_increase_factor=1.200000
rprop_decrease_factor=0.500000
rprop_delta_min=0.000000
rprop_delta_max=50.000000
rprop_delta_zero=0.100000
cascade_output_stagnation_epochs=12
cascade_candidate_change_fraction=0.010000
cascade_candidate_stagnation_epochs=12
cascade_max_out_epochs=150
cascade_max_cand_epochs=150
cascade_num_candidate_groups=2
bit_fail_limit=3.49999999999999977796e-01
cascade_candidate_limit=1.00000000000000000000e+03
cascade_weight_multiplier=4.00000000000000022204e-01
cascade_activation_functions_count=10
cascade_activation_functions=3 5 7 8 10 11 14 15 16 17 
cascade_activation_steepnesses_count=4
cascade_activation_steepnesses=2.50000000000000000000e-01 5.00000000000000000000e-01 7.50000000000000000000e-01 1.00000000000000000000e+00 
layer_sizes=3 13 2 
scale_included=0
neurons (num_inputs, activation_function, activation_steepness)=(0, 0, 0.00000000000000000000e+00) (0, 0, 0.00000000000000000000e+00) (0, 0, 0.00000000000000000000e+00) (3, 4, 5.00000000000000000000e-01) (3, 4, 5.00000000000000000000e-01) (3, 4, 5.00000000000000000000e-01) (3, 4, 5.00000000000000000000e-01) (3, 4, 5.00000000000000000000e-01) (3, 4, 5.00000000000000000000e-01) (3, 4, 5.00000000000000000000e-01) (3, 4, 5.00000000000000000000e-01) (3, 4, 5.00000000000000000000e-01) (3, 4, 5.00000000000000000000e-01) (3, 4, 5.00000000000000000000e-01) (3, 4, 5.00000000000000000000e-01) (0, 0, 0.00000000000000000000e+00) (13, 6, 5.00000000000000000000e-01) (0, 6, 0.00000000000000000000e+00) 
connections (connected_to_neuron, weight)=(0, -3.53279285880513782558e+00) (1, 1.52634611342365985820e+02) (2, -2.72059745731402138347e+01) (0, 1.89009107262683997419e+01) (1, -1.12534069084041607312e+03) (2, 9.12297952609158002701e+00) (0, 4.57633996586590274802e+00) (1, -3.05662352249025161655e+02) (2, -2.91071524172703233191e+00) (0, 9.22826804773026196926e+01) (1, 1.50000000000000000000e+03) (2, -2.44169998844926681159e+01) (0, 7.25199130894175141293e+01) (1, 1.30954584423226265244e+03) (2, -2.07369965132457814150e+01) (0, 6.70369521740383618180e+01) (1, 1.33974358972867577222e+02) (2, -1.78846600232031676114e+01) (0, -6.40424473804287064382e+00) (1, -6.92552653102642238991e+02) (2, -2.26057345325217790011e-01) (0, -2.48820583255534444334e+01) (1, -4.77315420140164462737e+02) (2, 9.17550132753190794688e+00) (0, 7.42506574787218056599e+01) (1, 1.45476459929217730860e+03) (2, -2.20072804143271731903e+01) (0, 1.15669360716592599658e+01) (1, 5.81773144934180322707e+02) (2, -1.87651245134968718276e+01) (0, 6.63126776318787758413e+00) (1, -4.58678405556272764443e+02) (2, 9.32616443310861065186e+00) (0, 1.98955033784276906772e+01) (1, -1.12820651926375012408e+03) (2, 8.92425143149444011215e+00) (3, 0.00000000000000000000e+00) (4, -3.58410053797480046001e+01) (5, 1.01812974417840678143e+02) (6, -1.19103086800688107161e+01) (7, -5.54605655191760327227e+00) (8, 1.49115485605541273628e+01) (9, -9.15313254412616004174e+01) (10, -1.96963903979226664376e+01) (11, -3.51882703755180603622e+00) (12, -6.92498774358581847821e+00) (13, -1.64601598108940656573e+01) (14, 1.73521483149135065105e+01) (15, 2.85570425708676811638e+00) 
