FANN_FLO_2.1
num_layers=3
learning_rate=0.700000
connection_rate=1.000000
network_type=0
learning_momentum=0.000000
training_algorithm=2
train_error_function=1
train_stop_function=0
cascade_output_change_fraction=0.010000
quickprop_decay=-0.000100
quickprop_mu=1.750000
rprop_increase_factor=1.200000
rprop_decrease_factor=0.500000
rprop_delta_min=0.000000
rprop_delta_max=50.000000
rprop_delta_zero=0.100000
cascade_output_stagnation_epochs=12
cascade_candidate_change_fraction=0.010000
cascade_candidate_stagnation_epochs=12
cascade_max_out_epochs=150
cascade_max_cand_epochs=150
cascade_num_candidate_groups=2
bit_fail_limit=3.49999999999999977796e-01
cascade_candidate_limit=1.00000000000000000000e+03
cascade_weight_multiplier=4.00000000000000022204e-01
cascade_activation_functions_count=10
cascade_activation_functions=3 5 7 8 10 11 14 15 16 17 
cascade_activation_steepnesses_count=4
cascade_activation_steepnesses=2.50000000000000000000e-01 5.00000000000000000000e-01 7.50000000000000000000e-01 1.00000000000000000000e+00 
layer_sizes=22 16 2 
scale_included=0
neurons (num_inputs, activation_function, activation_steepness)=(0, 0, 0.00000000000000000000e+00) (0, 0, 0.00000000000000000000e+00) (0, 0, 0.00000000000000000000e+00) (0, 0, 0.00000000000000000000e+00) (0, 0, 0.00000000000000000000e+00) (0, 0, 0.00000000000000000000e+00) (0, 0, 0.00000000000000000000e+00) (0, 0, 0.00000000000000000000e+00) (0, 0, 0.00000000000000000000e+00) (0, 0, 0.00000000000000000000e+00) (0, 0, 0.00000000000000000000e+00) (0, 0, 0.00000000000000000000e+00) (0, 0, 0.00000000000000000000e+00) (0, 0, 0.00000000000000000000e+00) (0, 0, 0.00000000000000000000e+00) (0, 0, 0.00000000000000000000e+00) (0, 0, 0.00000000000000000000e+00) (0, 0, 0.00000000000000000000e+00) (0, 0, 0.00000000000000000000e+00) (0, 0, 0.00000000000000000000e+00) (0, 0, 0.00000000000000000000e+00) (0, 0, 0.00000000000000000000e+00) (22, 4, 5.00000000000000000000e-01) (22, 4, 5.00000000000000000000e-01) (22, 4, 5.00000000000000000000e-01) (22, 4, 5.00000000000000000000e-01) (22, 4, 5.00000000000000000000e-01) (22, 4, 5.00000000000000000000e-01) (22, 4, 5.00000000000000000000e-01) (22, 4, 5.00000000000000000000e-01) (22, 4, 5.00000000000000000000e-01) (22, 4, 5.00000000000000000000e-01) (22, 4, 5.00000000000000000000e-01) (22, 4, 5.00000000000000000000e-01) (22, 4, 5.00000000000000000000e-01) (22, 4, 5.00000000000000000000e-01) (22, 4, 5.00000000000000000000e-01) (0, 0, 0.00000000000000000000e+00) (16, 6, 5.00000000000000000000e-01) (0, 6, 0.00000000000000000000e+00) 
connections (connected_to_neuron, weight)=(0, 4.95380898362523858225e+00) (1, -2.59778676320436368030e+01) (2, -2.50718885901144528106e+00) (3, -6.54701759616294509669e-01) (4, -5.56038354114817501284e-01) (5, 1.10456102829263835829e+00) (6, 1.14828465688243519516e+00) (7, 1.05106816439625849746e+00) (8, 8.28235003872534347735e-01) (9, 1.28668297378426244038e+00) (10, 5.11016030680683908116e-01) (11, 3.22305592926124084840e+00) (12, 1.53057777776796877234e+00) (13, -8.93173116800587685304e+00) (14, -8.27099935790716056516e-01) (15, -3.65514465125817922253e-01) (16, -4.75320175700133795704e-01) (17, 1.56113429273977644129e+00) (18, 1.70680296713239565420e+00) (19, 5.00239527870651290442e-01) (20, 2.94697672191653694540e+01) (21, 8.87625711228286262688e-01) (0, 3.64758559580321495286e-01) (1, 5.09779316965391693373e+00) (2, -6.60885989872263834854e+00) (3, 8.91963695019125091257e-01) (4, -7.40818814495561972500e-01) (5, 1.14365333778669731046e+00) (6, 1.06941377833724549085e+00) (7, 1.07577122003248848436e+00) (8, 2.19903115720516462162e+00) (9, 1.69958481013371254242e+00) (10, 4.19064759263639119435e-01) (11, 1.68343310581640004386e+00) (12, 3.12425053319033585453e-01) (13, -1.02435411612362372580e+01) (14, -2.63564653483541500023e+00) (15, -5.34561188362968620069e-02) (16, -1.40956743063209222200e+00) (17, 2.55804013558717358023e+00) (18, 1.32861190803966588980e+00) (19, -6.38293480539471413948e+00) (20, 1.21017187737552980309e+01) (21, 1.91545537920035346957e+00) (0, 4.19969934216414753081e+00) (1, -2.58011066175974690395e+01) (2, -3.13258854822076537872e+00) (3, 6.16006961056414392708e-01) (4, 3.40979400858961001486e-01) (5, 1.36280911253771641611e+00) (6, 9.04993675070702052743e-01) (7, 1.00605391333965688005e+00) (8, 2.02971829606577358618e+00) (9, 3.06918529926634109373e+00) (10, 2.06475849310101045031e-01) (11, 1.77587612529747174150e+00) (12, 8.72978853195679888044e-02) (13, -1.27369150948924456657e+01) (14, -1.48528542615680270167e+00) (15, -2.81897485533315894646e-01) (16, -4.46218665666186398155e-01) (17, 2.60586210677297724914e+00) (18, 2.30377053070690163139e+00) (19, -7.79840114041184140348e+00) (20, 1.61695851163192969580e+02) (21, 1.73622983416710519045e+00) (0, 8.89382644101795882818e+00) (1, 2.30521163697384423585e+00) (2, -1.30276188682542981567e+00) (3, 7.13171647476754766437e-01) (4, -5.95979155401303750672e-01) (5, 1.10840714347762747671e+00) (6, 1.08772409513214429744e+00) (7, 1.12579858200371463184e+00) (8, 1.76795270709559870781e+00) (9, 2.59866546401252307419e+00) (10, 1.83191034362001126112e+00) (11, 1.79672225292285880904e+00) (12, -9.89397408127473898531e-01) (13, -8.22074998190099037743e+00) (14, -5.13570080608808332556e+00) (15, -3.48515596100470848029e+00) (16, -8.89887705969412223794e+00) (17, -6.65472857572478870836e-01) (18, -1.76719128444871986794e+00) (19, -2.07507971757283060654e+00) (20, 1.85658811988440284324e+01) (21, 1.90712893202549360616e+00) (0, 7.44123470339547576913e+00) (1, 7.19832726440575498827e+00) (2, -1.16752756090729636895e+00) (3, 8.17884340981196555909e-01) (4, -7.91308421051453825257e-01) (5, 1.05902375860645214800e+00) (6, 1.19664833673294856986e+00) (7, 1.07951619140056997992e+00) (8, 8.08305140553848833207e-01) (9, 2.03345747976473578689e+00) (10, 2.02784030988228503034e+00) (11, 1.37501187013453751717e+00) (12, -1.23674780780332449481e+00) (13, -7.24945889238733798265e+00) (14, -5.59355061787298968312e+00) (15, -3.94666299611229254296e+00) (16, -7.95482539266915278375e+00) (17, -4.33557593107254168885e-01) (18, -1.09472539683526459697e+00) (19, -1.63456360849595183637e+00) (20, 1.17668823371683703982e+01) (21, 1.90528098440613380404e+00) (0, 1.55356290333082380783e+01) (1, 4.33401424904457677201e+00) (2, -1.08986846348512589344e+00) (3, 4.42292465976592330534e-01) (4, -2.53095732920460725346e-01) (5, 1.11263503669560881448e+00) (6, 1.17190572074651466750e+00) (7, 5.28510175738303500381e-01) (8, 1.65940509579076400648e+00) (9, 5.02760311846584206918e-01) (10, 2.51454681724375950225e+00) (11, 2.36668935363579757691e+00) (12, 2.90329915124793558334e-01) (13, -7.01177375516542777945e+00) (14, -5.14127938617264224064e+00) (15, -3.12870317186896285122e+00) (16, -8.85396911770516759077e+00) (17, -7.59030242996616477669e-01) (18, -1.74208309210261935718e+00) (19, -1.57676628608880942117e+00) (20, 2.08113644112347095927e+01) (21, 2.15671700699644608434e+00) (0, 8.69530940020069142982e-01) (1, -6.18309552754771729610e+01) (2, -6.27472093365304939283e+00) (3, -1.73224918709180553122e-01) (4, 1.09145795173967538605e-01) (5, -4.51718870964737062579e-01) (6, -4.93997930672082308234e-01) (7, -3.13233901371246847845e-01) (8, 5.30286217166398121670e-01) (9, 2.33413506561560302188e+00) (10, 1.49908847219388019489e+00) (11, 7.39763092270516620097e-01) (12, -1.12232816211055586031e+00) (13, -7.97885824110619878979e+00) (14, -2.63327997560223137086e+00) (15, -6.66272952082530789397e-01) (16, -9.47086445524938591589e-01) (17, -5.84986711223390631886e-01) (18, -4.11303714838132661313e-01) (19, 3.65609287037250596519e-01) (20, 2.79824481857613394098e+00) (21, 1.20703921315653306401e+00) (0, 4.06342117779065414851e+00) (1, -1.07983760907078547575e+01) (2, -3.15961403627337062971e+01) (3, -2.06036740260870798735e+00) (4, -1.19431761662738744612e+00) (5, 1.25147111198446969738e+00) (6, 1.55219048187618691159e+00) (7, 1.23659035663426464247e+00) (8, 6.71291984849758827103e-01) (9, 4.01887040548199514500e-01) (10, 3.52046130975542159725e-01) (11, 1.95391635086933113108e+00) (12, 1.82657121533143818048e+00) (13, -5.99745211585988524661e+00) (14, 1.78190036935844092758e-01) (15, 1.50925337135504178399e+00) (16, -4.34056995632833564347e-01) (17, 1.47215642592911111208e+00) (18, 1.25193430229896840444e+00) (19, 1.73361368707973917402e+00) (20, 2.58532168064554284115e+01) (21, 6.87652784269516037519e-01) (0, 1.62688185628976023089e+00) (1, -7.95867890818772583117e+00) (2, -5.58735807960995423116e-01) (3, 2.37185568402784666131e-02) (4, 2.76339381642755177459e-01) (5, -1.06710076292922811936e-01) (6, -8.14135495635478958348e-05) (7, 4.84111817423151166717e-02) (8, 8.79240351940232867101e-01) (9, 7.28382216874579380139e-01) (10, 2.80188681589625065982e+00) (11, 3.25253204746656143787e-01) (12, -4.85784158777335162149e-01) (13, -1.91792551179123513805e+01) (14, -1.44973980422991548522e+01) (15, -9.71435528834377559626e-01) (16, -3.51439933682733851583e-01) (17, -6.83139832655172307696e-01) (18, -7.74190162058376762921e-01) (19, 1.68964247273044136932e+01) (20, 1.03818163803888599550e-01) (21, 5.46535354343465451521e-01) (0, 3.37860253426900047913e+00) (1, -2.60667070322486686962e+01) (2, -2.35356908289240474019e+00) (3, -5.78249769159719373413e-01) (4, -6.07204508455392200084e-01) (5, 1.29691487144386807806e+00) (6, 1.14221333193468854716e+00) (7, 9.37046330361999912917e-01) (8, 7.23130416962115551982e-01) (9, 1.28943812365714749468e+00) (10, 5.04548485107799815630e-01) (11, 2.44292857102852201123e+00) (12, 1.48854624804174351382e+00) (13, -8.61081839646672975164e+00) (14, -9.10293762568714082128e-01) (15, -2.45489574790244358127e-01) (16, -4.60736946717565765130e-01) (17, 5.54272741791318579452e-01) (18, 6.93438848353199466246e-01) (19, 7.19271746417951107766e-01) (20, 2.52750030407538375243e+01) (21, 9.16612563189337037350e-01) (0, 1.02871063447291799520e+01) (1, -3.93833958133588595274e+01) (2, -5.14690631550119448434e+01) (3, -1.41436969236513898629e+00) (4, -2.12733459461774199184e+00) (5, 1.34917349915575512931e+00) (6, 1.48815570767905280825e+00) (7, 1.88297174762625063593e+00) (8, 2.39793715107432925393e+00) (9, 1.08913845008815690640e+00) (10, 1.88070804984216938260e-01) (11, 1.57795387448444346390e+00) (12, 2.37781378981977864484e+00) (13, -3.85418319774593909344e+00) (14, 1.25049515444567638234e+00) (15, 1.58502490359635017647e+00) (16, -3.61818718753520174314e-01) (17, 1.27663315677798894221e+00) (18, 1.56758856366161003493e+00) (19, 2.13540762501449243871e+00) (20, 1.39106041422688786469e+01) (21, 1.85781172750443190900e+00) (0, 2.54163525902916731525e+00) (1, -7.05122500393447815270e+00) (2, -1.73076779971643768263e+00) (3, -5.07043813825130862405e-01) (4, -6.26220314125117694104e-01) (5, 8.41940149738261478518e-01) (6, 1.67948264655976964299e+00) (7, 3.18691398115942603475e-01) (8, 1.16706325956452472425e+00) (9, 2.54628729005118392692e+00) (10, 6.77848941821634909388e-01) (11, 1.56263033157069730628e+00) (12, -1.66538383362216067807e-02) (13, -1.05164100627282888212e+01) (14, -1.49567347385400228887e+00) (15, -2.79512061601377592712e-01) (16, -2.78788287237746956748e-01) (17, 3.39777805669281374179e+00) (18, 1.87727127643703761706e+00) (19, -2.00041555826858186151e+00) (20, 2.41787655343891181303e+01) (21, 1.00067422253770277329e+00) (0, 6.98763648120197200519e-01) (1, -6.18341282058489909446e+01) (2, -6.17641629388071411455e+00) (3, 3.16810603709015259355e-01) (4, 1.51629652541989901060e-01) (5, -4.40634483095724671653e-01) (6, -3.77470328296275914326e-01) (7, -3.95689826518379195175e-01) (8, 4.88040210445439381903e-01) (9, 2.39539566800886394304e+00) (10, 1.45063969964342942554e+00) (11, 7.24227769107818608596e-01) (12, -1.12310604950439651972e+00) (13, -8.26023888603638312134e+00) (14, -2.64306958237306233173e+00) (15, -6.87993848987696887676e-01) (16, -4.43617087729568981835e-01) (17, -3.36366631242352165376e-01) (18, -4.22958573758514144725e-01) (19, 6.42131148853726463344e-01) (20, 2.87766816556988391795e+00) (21, 1.24855617341504454565e+00) (0, 4.30156524898100744991e+00) (1, -3.48253993693090677652e+01) (2, -3.65593793262608031114e+01) (3, -1.51004827468395741441e+00) (4, -9.61692918012995168198e-01) (5, 4.88731886234920975820e-01) (6, 1.71539759217553156034e+00) (7, 1.43831101765035329620e+00) (8, 6.78444582186698674775e-01) (9, 2.66509971142240331687e+00) (10, 6.13996566790112330292e-02) (11, 1.30463578442659366985e+00) (12, 1.11631821490900673410e+00) (13, -2.77979989167267582673e+00) (14, -1.19064087003821317268e+00) (15, 5.91795458279496533471e-01) (16, -1.11145584907378913719e+00) (17, -3.97054561474643186170e-01) (18, -6.60697575148966986802e-01) (19, -2.73701987892373599376e-01) (20, 1.43739036137797135950e+01) (21, 1.71471622094551801041e+00) (0, 5.07394354960259121867e+01) (1, -1.83007763922395660927e+01) (2, -4.41724282250028252861e+01) (3, 2.20692459515170386064e-01) (4, -9.69548481416672269795e-01) (5, 1.41301332989938455142e+00) (6, 1.63321981320809195282e+00) (7, 1.27711488792807426051e+00) (8, 2.38786884228418205822e+00) (9, 2.35549768505641088367e+00) (10, 9.10187627803019538852e-01) (11, 1.97137411258576777939e+00) (12, 4.15963428581165639564e-01) (13, -4.84479456068181679740e+00) (14, -3.87599573804296604340e-01) (15, 8.43026807526170207652e-01) (16, -6.06067587535423957235e+00) (17, -4.24808824241032445546e-01) (18, 8.16523804146850218366e-01) (19, 1.82097506777039974679e+00) (20, 4.18190835749094205198e+01) (21, 2.87716103815092516527e+00) (22, -4.13042723301042347117e+00) (23, -1.26050147829245018372e+00) (24, -5.53833862576010993450e+00) (25, -3.06903478229390858090e+00) (26, -4.24674068530964010648e+00) (27, -7.35299546472337617331e+00) (28, -2.76701308525595322863e+02) (29, -1.40305712475298705044e+00) (30, 2.00000000000000000000e+02) (31, -4.06246754143334865006e+00) (32, -5.33065410942219131130e+00) (33, -9.14240367714485024919e+00) (34, -1.76672426871452017849e+02) (35, -2.39071890484853399883e+00) (36, -3.96236688688114524481e+00) (37, 8.44592748727160014255e+00) 
