FANN_FLO_2.1
num_layers=3
learning_rate=0.700000
connection_rate=1.000000
network_type=0
learning_momentum=0.000000
training_algorithm=2
train_error_function=1
train_stop_function=0
cascade_output_change_fraction=0.010000
quickprop_decay=-0.000100
quickprop_mu=1.750000
rprop_increase_factor=1.200000
rprop_decrease_factor=0.500000
rprop_delta_min=0.000000
rprop_delta_max=50.000000
rprop_delta_zero=0.100000
cascade_output_stagnation_epochs=12
cascade_candidate_change_fraction=0.010000
cascade_candidate_stagnation_epochs=12
cascade_max_out_epochs=150
cascade_max_cand_epochs=150
cascade_num_candidate_groups=2
bit_fail_limit=3.49999999999999977796e-01
cascade_candidate_limit=1.00000000000000000000e+03
cascade_weight_multiplier=4.00000000000000022204e-01
cascade_activation_functions_count=10
cascade_activation_functions=3 5 7 8 10 11 14 15 16 17 
cascade_activation_steepnesses_count=4
cascade_activation_steepnesses=2.50000000000000000000e-01 5.00000000000000000000e-01 7.50000000000000000000e-01 1.00000000000000000000e+00 
layer_sizes=23 21 2 
scale_included=0
neurons (num_inputs, activation_function, activation_steepness)=(0, 0, 0.00000000000000000000e+00) (0, 0, 0.00000000000000000000e+00) (0, 0, 0.00000000000000000000e+00) (0, 0, 0.00000000000000000000e+00) (0, 0, 0.00000000000000000000e+00) (0, 0, 0.00000000000000000000e+00) (0, 0, 0.00000000000000000000e+00) (0, 0, 0.00000000000000000000e+00) (0, 0, 0.00000000000000000000e+00) (0, 0, 0.00000000000000000000e+00) (0, 0, 0.00000000000000000000e+00) (0, 0, 0.00000000000000000000e+00) (0, 0, 0.00000000000000000000e+00) (0, 0, 0.00000000000000000000e+00) (0, 0, 0.00000000000000000000e+00) (0, 0, 0.00000000000000000000e+00) (0, 0, 0.00000000000000000000e+00) (0, 0, 0.00000000000000000000e+00) (0, 0, 0.00000000000000000000e+00) (0, 0, 0.00000000000000000000e+00) (0, 0, 0.00000000000000000000e+00) (0, 0, 0.00000000000000000000e+00) (0, 0, 0.00000000000000000000e+00) (23, 4, 5.00000000000000000000e-01) (23, 4, 5.00000000000000000000e-01) (23, 4, 5.00000000000000000000e-01) (23, 4, 5.00000000000000000000e-01) (23, 4, 5.00000000000000000000e-01) (23, 4, 5.00000000000000000000e-01) (23, 4, 5.00000000000000000000e-01) (23, 4, 5.00000000000000000000e-01) (23, 4, 5.00000000000000000000e-01) (23, 4, 5.00000000000000000000e-01) (23, 4, 5.00000000000000000000e-01) (23, 4, 5.00000000000000000000e-01) (23, 4, 5.00000000000000000000e-01) (23, 4, 5.00000000000000000000e-01) (23, 4, 5.00000000000000000000e-01) (23, 4, 5.00000000000000000000e-01) (23, 4, 5.00000000000000000000e-01) (23, 4, 5.00000000000000000000e-01) (23, 4, 5.00000000000000000000e-01) (23, 4, 5.00000000000000000000e-01) (0, 0, 0.00000000000000000000e+00) (21, 6, 5.00000000000000000000e-01) (0, 6, 0.00000000000000000000e+00) 
connections (connected_to_neuron, weight)=(0, 1.08489676453690941926e+00) (1, -4.87595811094946718356e+00) (2, -9.06952424310468607871e+00) (3, -1.78615119477654871183e+00) (4, -1.73405355069575550786e+00) (5, -4.37147184185028458980e-01) (6, 8.29466321770412351455e-02) (7, -7.34751691700232245630e-02) (8, 6.14205270053134078090e-01) (9, 4.89227805381946456720e+00) (10, 1.09087199762699982308e+00) (11, 5.47908019936035550757e-01) (12, 1.06716837574080264384e-01) (13, -1.62982237840353083591e+00) (14, -4.04194798698789448110e+00) (15, -1.34165220407587848506e+00) (16, 9.74821008065870131531e-01) (17, -1.74193483481419303383e-01) (18, -2.56375127186248219502e-01) (19, 1.01013071124354625319e+00) (20, 4.82320528761168709764e-01) (21, 3.88588889689441145947e+01) (22, 2.37112334497139354283e+00) (0, -2.81950132886686737066e-02) (1, -5.40027064573355897181e+00) (2, 8.58607729023668753143e+00) (3, 3.65420812144936180133e+00) (4, 2.96341753470593349817e+00) (5, 1.15458860009448494033e+00) (6, -1.34975034633234947101e+00) (7, -4.98515095932138141421e+00) (8, -1.11412335425924968746e+00) (9, 6.45611648703771967561e-01) (10, 2.13936516137549892491e+00) (11, 3.68766434982332969028e-01) (12, -6.08694512055423131436e-01) (13, 5.26421954813971826326e+00) (14, 3.83946488461295043493e+00) (15, -1.07411097574713809699e+00) (16, -4.02160586512483853028e+00) (17, -2.13952335078415156744e+00) (18, -1.42043904432554635164e+00) (19, -1.05576625724845651888e+00) (20, 4.63860102189600187472e+00) (21, 2.30613508092774338598e-01) (22, 6.35450248976613729646e-01) (0, 4.24182846456954198988e-01) (1, -1.08384953343231149603e+01) (2, 6.53495890342193597178e+00) (3, -2.46274455940512115859e+00) (4, -1.63123856060424810011e+00) (5, -6.77264377230941128083e-01) (6, -7.11620162280203194527e-01) (7, -2.79788302690454449007e+00) (8, -4.23109646437150832554e+00) (9, 7.61958389907504973770e-01) (10, 2.16594892127797367110e+00) (11, 2.62036018051653352146e+00) (12, -1.79311263616685978572e-01) (13, 4.75140161243739989061e+00) (14, -2.81885548997076496036e+00) (15, -1.28087204550458011454e+00) (16, -2.51121411489609203116e+00) (17, -2.23831168749761477699e+00) (18, -1.24628690421512189346e+00) (19, 1.79010978396183711991e-01) (20, 2.71117046431447228372e+00) (21, 2.96716807460455866963e-01) (22, 4.06679578361309357337e-01) (0, 2.55226808134812521711e-01) (1, -5.46059392527663955974e+00) (2, 7.95121471918664646239e+00) (3, 3.89749473246958544337e+00) (4, 3.82396912811469569249e+00) (5, 1.39207401988309920071e+00) (6, -1.27697085729501025320e+00) (7, -4.97871467218413599198e+00) (8, -1.11498682459584808058e+00) (9, 7.87668153953847038906e-01) (10, 2.09795122782259690908e+00) (11, 4.29907293258752820631e-01) (12, -4.34921464543331692809e-01) (13, 5.29853461266848579925e+00) (14, 1.55697693477274246021e+00) (15, -1.28262806932886985756e+00) (16, -2.37309134551196354579e+00) (17, -2.15024990402050120153e+00) (18, -1.53427571399600970459e+00) (19, -1.03988087808304552340e+00) (20, 6.33922974130827210359e+00) (21, 3.07748437450584166886e-01) (22, 7.58407962959033898898e-01) (0, 7.55930389985555312160e-02) (1, -7.42354107681105990224e+00) (2, 1.54197961434725012708e+01) (3, -2.30247587890559657353e+00) (4, -1.70069839770378528065e+00) (5, -8.25564205769286352243e-01) (6, -6.37454182014207448859e-01) (7, -2.58418175967029428719e+00) (8, -6.51464599402970367947e+00) (9, 8.22411611916541551714e-01) (10, 2.06785130218914758871e+00) (11, 2.79589126351759320599e+00) (12, -1.69799751079935057341e-01) (13, 4.70216197172214389610e+00) (14, -2.51933558973475468790e+00) (15, -1.21827681240701668486e+00) (16, -2.55740967843647304392e+00) (17, -2.37855664151822532304e+00) (18, -1.26211884359847426040e+00) (19, -2.09656851379806857816e-01) (20, 2.82446760010421105136e+00) (21, 3.69248851948378198351e-01) (22, 4.36098709746420787337e-01) (0, -2.55706932815421117411e-01) (1, 4.01428014318791159809e+00) (2, -1.72631811240858512591e+00) (3, -1.57884787932552295153e+00) (4, 3.90091729922832364252e+00) (5, 2.13214712931951844155e+00) (6, -5.47512838614096786216e+00) (7, -6.67570392480038155014e+00) (8, -1.51144623927404908592e+00) (9, 5.77791870631026327487e-01) (10, 2.28724228209747870721e+00) (11, 4.98337796042213998504e+00) (12, 6.54168524390690819814e+00) (13, 1.03222989841940560041e+01) (14, -1.43490103895061382744e+00) (15, -1.19895618447680374352e+00) (16, -5.97745176088331131581e+00) (17, -8.93699308572722195265e+00) (18, -1.19201589789469331038e+00) (19, 2.58655154462841707641e+01) (20, -2.42958272397857610869e+00) (21, 7.91917789479334999214e-01) (22, -5.11487183112694365761e-01) (0, -3.41987469144958122769e+00) (1, 3.80886223591107686559e+00) (2, -1.47045082838883978127e+00) (3, -1.67273911544932052387e+00) (4, 7.61859815116291283488e+00) (5, 7.42086825153435558633e+00) (6, -2.01946378864384676888e+01) (7, -1.56165682470504076917e+01) (8, -1.56975817981779419696e+00) (9, 4.04525705011529568278e-01) (10, 6.84828287647746325462e+00) (11, 1.46240634746603692662e+00) (12, 3.95635401263202357569e+00) (13, 6.65877859603300947811e+00) (14, -9.96192756319484784555e-01) (15, -6.54328283255464882018e-01) (16, -7.39517347794853829868e+00) (17, -6.47961734210285378310e+00) (18, -1.88162938082400543749e+00) (19, -1.65629099683198083293e-01) (20, 5.74580753826336443346e-01) (21, 7.38260977829039544140e-01) (22, -5.36663922489377109848e-01) (0, 5.44954341626628924189e-02) (1, -5.50217459485852966594e+00) (2, 7.86061890960261955286e+00) (3, 3.97238343867686038990e+00) (4, 3.31665840755848240207e+00) (5, 1.25382661936086670096e+00) (6, -1.24700255771762491541e+00) (7, -5.10490834087744005387e+00) (8, -1.04211479694624453707e+00) (9, 6.54021396904300389430e-01) (10, 2.16481619516878787124e+00) (11, 3.68154117106046285812e-01) (12, -4.60015377621639742767e-01) (13, 5.22489429594370857757e+00) (14, 2.06650139564690471516e+00) (15, -1.21426083396634010292e+00) (16, -2.40877451836147749020e+00) (17, -2.01282933913059336462e+00) (18, -1.39582172377498570093e+00) (19, -9.14308333650403870507e-01) (20, 6.48791342627256462094e+00) (21, 2.94766112311378780664e-01) (22, 7.13745565604192888642e-01) (0, -1.65987466348262689697e-02) (1, -5.17587441158691508036e+00) (2, 1.25498089163210870822e+01) (3, 9.67036634737170963660e+00) (4, 6.54995406116261502660e-01) (5, 1.73364758098616400517e+00) (6, -1.27445184232334418617e+00) (7, -2.29922250741792133510e+00) (8, -3.20312621858523494112e+00) (9, 6.83830524015815677252e-01) (10, 2.23239947150428008626e+00) (11, 7.60894156022368983727e-01) (12, -3.41884694359512408823e-01) (13, 4.15011488209060530608e+00) (14, -2.38944347435153969794e-01) (15, -1.19264660058133298293e+00) (16, -2.30979590105220466967e+00) (17, -2.05981280356701290657e+00) (18, -1.35489204643715011045e+00) (19, -4.07983756334527492005e-01) (20, 5.79404753375013292782e+00) (21, 1.44808087186665435109e-01) (22, 6.64046071408450289120e-01) (0, 3.30534354137161645593e-01) (1, -1.11286555342685868908e+01) (2, 5.78013660348234026287e+00) (3, -4.61833403327810554373e+00) (4, -1.83858106424986789129e+00) (5, 5.14284875015149148259e-02) (6, -5.83876093643961424640e-01) (7, -2.89040491402979560220e+00) (8, -3.15247678812899589929e+00) (9, 6.32936063147904959258e-01) (10, 2.13991260122165360968e+00) (11, 2.24613111378709406907e+00) (12, -1.34341971484844419082e-01) (13, 3.87555244739624749073e+00) (14, -2.93109421161153171909e+00) (15, -1.75497146284003946448e+00) (16, -2.24305350798153924075e+00) (17, -2.16009231512311661305e+00) (18, -3.38057189952625722351e-02) (19, 6.07978531327865501233e-01) (20, 1.06104496575098625755e+01) (21, 4.40428588906954410209e-01) (22, 5.08341384594412803999e-01) (0, 4.46293532426645211952e-01) (1, -7.37426087470728308659e+00) (2, -9.92169516122484651532e+00) (3, -1.94856263045484645602e+00) (4, -1.71660447835920870752e+00) (5, -5.17520340338206596975e-01) (6, -1.28813441121852001459e-01) (7, -1.46521413327783844860e-01) (8, 6.08244375779046664299e-01) (9, 4.85775907933182260479e+00) (10, 2.67991638979901747319e+00) (11, 3.46803419457121120395e-01) (12, 2.06472272198685402600e+00) (13, -1.74223133119988493611e+00) (14, -5.87093546745780958673e+00) (15, -1.28501675539687520988e+00) (16, -1.47596136282230838699e-01) (17, -3.09497121225027815861e-01) (18, -3.42097779025590298385e-01) (19, -3.42608534525299934792e-01) (20, 5.30574418398150227105e-01) (21, 1.28544064651731389404e+02) (22, 1.41964558015918118627e+00) (0, 1.93320491191054588676e+00) (1, -3.89703465505543800163e+00) (2, 6.09963060151820712917e+00) (3, 2.74979010033244675171e+00) (4, -4.36026426234765229761e-01) (5, -4.16477643601265823392e-01) (6, -1.13843818795028584034e+00) (7, -1.40111102764315598179e+00) (8, -1.13162343943780996369e+00) (9, 7.80578852151150637262e-01) (10, 2.26530338979278855760e+00) (11, 3.89791649996639799625e+00) (12, 8.03494138035026228550e-01) (13, 1.21768029013336454014e+00) (14, -9.83948185719818901873e+00) (15, -1.83009729271774701509e+00) (16, -2.84554078057512827016e+00) (17, -1.76800102528395841617e+00) (18, -1.12153368596208835584e+00) (19, -2.81368829175356438554e-01) (20, 5.58288393900847434992e+00) (21, 4.41343964384516396215e-01) (22, 7.11742956956076699981e-01) (0, 7.55577722269104717912e-02) (1, -1.04773663932212386385e+01) (2, 7.49306217263848139964e+00) (3, -2.34303646443320845449e+00) (4, -3.86941505489232229209e+00) (5, -6.83152181004962000266e-01) (6, -1.29252632550331147954e+00) (7, -2.88989674451702693858e+00) (8, -2.70592973158244953780e+00) (9, 5.19956773875234645743e-01) (10, 2.13932236148365007011e+00) (11, 1.16589606101684295503e+00) (12, -2.40642898364373053477e-01) (13, 4.49815695987721309024e+00) (14, -2.67382634502211136152e+00) (15, -1.19487030810709882189e+00) (16, -2.22106240533321308561e+00) (17, -2.20595200094340393449e+00) (18, -4.05898573780322124982e-01) (19, 5.95755262972406662847e-01) (20, 3.52432442635980747170e+00) (21, 3.20764121516498801334e-01) (22, 4.15002124401991190350e-01) (0, 6.13797710201728019541e-01) (1, 4.08091046541338364761e+00) (2, -6.27741355433269365705e+00) (3, -1.71300592277787466777e+00) (4, -6.15631090592411944762e-01) (5, -6.55730229520868235227e-01) (6, -1.82845894926766977528e-01) (7, -1.57694603039073177886e-01) (8, 4.35174821245283449667e-01) (9, 4.74805958137270245345e+00) (10, 2.75724157886620835356e+00) (11, 1.61364260196248832102e-01) (12, 4.87314710563298905677e-02) (13, -3.22036823045786047004e+00) (14, -6.82614499893211501558e+00) (15, -1.35271889976498260744e+00) (16, -6.77113649223831437496e-01) (17, -3.99526433827842530899e-01) (18, -3.52287268687652699306e-01) (19, -2.56675810030680295881e-01) (20, 5.31176525054829595796e-01) (21, 7.85219498010586569592e+00) (22, 1.59994133839260910257e+00) (0, 9.64030514299049345883e-02) (1, -6.99177260611344664198e+00) (2, 4.57155913989046336354e+00) (3, 2.05585812924449395922e+00) (4, -4.36985402410858092548e-01) (5, 8.13752978451333652821e-01) (6, -1.14312694200129327804e+00) (7, -2.29044991506607997778e+00) (8, -2.55998802406295311584e+00) (9, 6.53658924380067896109e-01) (10, 2.29163705342761092609e+00) (11, 1.15112906487982824544e+00) (12, 4.65536631900534333961e-02) (13, 1.62406900752648786224e+00) (14, -2.51824444201220343231e+00) (15, -1.20415191549595812504e+00) (16, -4.04261836626856396748e+00) (17, -2.05021515757771366495e+00) (18, -1.17375606157719447609e+00) (19, -1.94251808741542991710e-01) (20, 4.86343578238954421522e+00) (21, 4.60929473930582256358e-01) (22, 5.14346671142030142931e-01) (0, 1.00437749651415053620e+00) (1, -4.89354509321993624837e+00) (2, -9.25045397840761118857e+00) (3, -1.64172753116036829191e+00) (4, -1.71924137551126721135e+00) (5, -1.85976261245128476896e-01) (6, -5.19048329557189255801e-02) (7, -1.40730833786846309952e-01) (8, 4.83417198218742460991e-01) (9, 4.96859365942828024032e+00) (10, 9.18980434986333638570e-01) (11, 5.74638937330196775122e-01) (12, 1.13430474929892693980e-01) (13, -1.66687636578737330417e+00) (14, -4.11946674755279573787e+00) (15, -1.09907453333001536855e+00) (16, 9.70626033166578139344e-01) (17, -2.29426552379675463555e-01) (18, -2.75356067711537588760e-01) (19, 1.16717762534419344789e+00) (20, 4.42332586176192699146e-01) (21, 3.88544755616481722882e+01) (22, 2.33061262691125126167e+00) (0, 5.00751154258371355965e-01) (1, -4.94660626473787345958e+00) (2, -8.36462281844649524487e+00) (3, -1.68776579424660733153e+00) (4, -1.77270479350227883053e+00) (5, -2.82925108529545436820e-02) (6, -5.38475667962345708184e-02) (7, -1.96840051034476742897e-01) (8, 5.73528944707023757843e-01) (9, 4.99619508069768514247e+00) (10, 9.23080352754723443276e-01) (11, 5.83893270750377779699e-01) (12, 1.50341251310694223875e+00) (13, -2.62262609828902526488e+00) (14, -4.40747933571713890188e+00) (15, -1.06803692689446405595e+00) (16, 9.43047272290742810696e-01) (17, -9.13272843008715723423e-02) (18, -2.16440409432484770491e-01) (19, 7.48868882178673311856e-01) (20, 4.96480665072354332423e-01) (21, 4.67386400738163914070e+01) (22, 2.27450111017962619542e+00) (0, 3.69273136954695824219e-01) (1, -5.26032797854308054042e+00) (2, -8.53749549953596442720e+00) (3, -1.55250286077801158413e+00) (4, -6.98053452157350040608e-01) (5, -4.42407254805909089246e-01) (6, -3.43594127467537480136e-02) (7, -1.51690788777901403028e-01) (8, 1.44897021872945264143e+00) (9, 5.00132437920712469293e+00) (10, 2.76946587248622222432e+00) (11, 2.06089905013699975500e-01) (12, -3.96825619829669740124e-01) (13, -3.14984751880592339646e+00) (14, -6.64508535338000960735e+00) (15, -1.42136040111101280559e+00) (16, 1.96060958228869375297e-01) (17, -3.09819661370683840929e-01) (18, -4.68067457391404484479e-01) (19, -3.80536364104498092686e-01) (20, 5.33508077946412639925e-01) (21, 7.14384135048865420714e+00) (22, 1.34166794228288321911e+00) (0, 9.75213217995411496553e-01) (1, -5.06141158407809399478e+01) (2, -7.72967640964360214184e+00) (3, -1.62108921020510110544e+00) (4, -6.57149695486969220859e-01) (5, -4.62576712022837177596e-01) (6, 5.02615441446194077812e-01) (7, 1.20588526587173741622e-01) (8, 9.11172224134137564988e-01) (9, 5.04656158710408053736e+00) (10, 2.52413187290817697672e+00) (11, 1.35005184799925137540e+00) (12, 6.92011110944948715229e-01) (13, -2.42819973504278951992e+00) (14, -2.71969946436911902410e+00) (15, -1.43330113014454196829e+00) (16, -3.22251196200696643501e-01) (17, -5.74044547341089339554e-01) (18, -3.29525532214324790026e-01) (19, 1.58012165798787213022e-01) (20, 4.77552314803084188011e-01) (21, 1.50048732577884518236e+01) (22, 1.34906913359615687753e+00) (0, -5.58827672357170152084e-02) (1, 3.65949418795147840555e+00) (2, -1.84988637405408229419e+00) (3, -2.65931165714893147367e+00) (4, 5.28229434721471591274e+00) (5, 1.61414410568541444313e+00) (6, -5.00637344559930141941e+00) (7, -6.36547850526080072342e+00) (8, -1.20446840339366412209e+00) (9, 6.52898452435927811877e-01) (10, 1.87037933460019800691e+00) (11, 1.32201631422058363263e+00) (12, 6.61337838465581562275e+00) (13, 1.02364393352569216233e+01) (14, -1.23787520263664729825e+00) (15, -2.14529556063705184599e+00) (16, -6.09735718114593705508e+00) (17, -5.41467805546107161518e+00) (18, -3.00321247043956063294e+00) (19, 1.22861852742197941168e+00) (20, 3.26295409715207263002e-01) (21, 5.19757097269929135841e-01) (22, -3.90884579657374053863e-01) (23, -5.29384291615693136634e+00) (24, 7.75904036182786960296e+00) (25, 1.70501488577519033640e+00) (26, 2.59332818385969376962e+00) (27, 1.84746777315714605372e+00) (28, -4.30478318711502438987e+00) (29, 8.11680885616916825143e+00) (30, 2.58546583169453514373e+00) (31, 2.57332609256846556178e+00) (32, 1.16033935865478299299e+00) (33, -3.28154665244621179809e+00) (34, -1.76379365920538120349e+01) (35, 2.94172080863162488384e+00) (36, -3.59039222817990522074e+00) (37, 3.55398106431579541287e-01) (38, -5.29006784107892080726e+00) (39, -5.28074056324074536661e+00) (40, 1.10070319830383382964e+01) (41, -6.47388146745469494903e+00) (42, -4.24795385789753243699e+00) (43, 4.23189401879690674235e+00) 
