FANN_FLO_2.1
num_layers=3
learning_rate=0.700000
connection_rate=1.000000
network_type=0
learning_momentum=0.000000
training_algorithm=2
train_error_function=1
train_stop_function=0
cascade_output_change_fraction=0.010000
quickprop_decay=-0.000100
quickprop_mu=1.750000
rprop_increase_factor=1.200000
rprop_decrease_factor=0.500000
rprop_delta_min=0.000000
rprop_delta_max=50.000000
rprop_delta_zero=0.100000
cascade_output_stagnation_epochs=12
cascade_candidate_change_fraction=0.010000
cascade_candidate_stagnation_epochs=12
cascade_max_out_epochs=150
cascade_max_cand_epochs=150
cascade_num_candidate_groups=2
bit_fail_limit=3.49999999999999977796e-01
cascade_candidate_limit=1.00000000000000000000e+03
cascade_weight_multiplier=4.00000000000000022204e-01
cascade_activation_functions_count=10
cascade_activation_functions=3 5 7 8 10 11 14 15 16 17 
cascade_activation_steepnesses_count=4
cascade_activation_steepnesses=2.50000000000000000000e-01 5.00000000000000000000e-01 7.50000000000000000000e-01 1.00000000000000000000e+00 
layer_sizes=11 19 2 
scale_included=0
neurons (num_inputs, activation_function, activation_steepness)=(0, 0, 0.00000000000000000000e+00) (0, 0, 0.00000000000000000000e+00) (0, 0, 0.00000000000000000000e+00) (0, 0, 0.00000000000000000000e+00) (0, 0, 0.00000000000000000000e+00) (0, 0, 0.00000000000000000000e+00) (0, 0, 0.00000000000000000000e+00) (0, 0, 0.00000000000000000000e+00) (0, 0, 0.00000000000000000000e+00) (0, 0, 0.00000000000000000000e+00) (0, 0, 0.00000000000000000000e+00) (11, 4, 5.00000000000000000000e-01) (11, 4, 5.00000000000000000000e-01) (11, 4, 5.00000000000000000000e-01) (11, 4, 5.00000000000000000000e-01) (11, 4, 5.00000000000000000000e-01) (11, 4, 5.00000000000000000000e-01) (11, 4, 5.00000000000000000000e-01) (11, 4, 5.00000000000000000000e-01) (11, 4, 5.00000000000000000000e-01) (11, 4, 5.00000000000000000000e-01) (11, 4, 5.00000000000000000000e-01) (11, 4, 5.00000000000000000000e-01) (11, 4, 5.00000000000000000000e-01) (11, 4, 5.00000000000000000000e-01) (11, 4, 5.00000000000000000000e-01) (11, 4, 5.00000000000000000000e-01) (11, 4, 5.00000000000000000000e-01) (11, 4, 5.00000000000000000000e-01) (0, 0, 0.00000000000000000000e+00) (19, 6, 5.00000000000000000000e-01) (0, 6, 0.00000000000000000000e+00) 
connections (connected_to_neuron, weight)=(0, -6.58687924242039479772e-01) (1, 2.08865235870541107732e-02) (2, 4.58803054157070511199e-01) (3, -2.15712768427197859600e-01) (4, 3.78471013709893722154e-01) (5, 5.16952618136481323319e+00) (6, 3.59542058433662106154e+01) (7, -2.49654164145007513298e+01) (8, -1.12246069345603665113e+01) (9, -8.83942821431066394489e-01) (10, 7.11631685879213438106e-01) (0, -9.91531955621686300617e+00) (1, -5.90685981378177782375e+00) (2, 1.99950069000265440167e+00) (3, 1.25945289127363274639e-01) (4, 8.11492373234366581869e+00) (5, -1.64087852029869796233e+00) (6, -4.26392314552407647454e+00) (7, -1.18903188484341058029e+01) (8, -4.25716492492240483614e+00) (9, 6.11488645027936073006e+01) (10, 2.77366160876057721296e+00) (0, -8.23259701068945020097e+01) (1, -7.76268299208462408956e+00) (2, -3.35274950448196795705e+00) (3, -1.22664069309939264940e+02) (4, 3.28866042795176838354e+00) (5, -2.99443909851633449648e+00) (6, -8.19004517721188420865e+01) (7, -3.41128999700376889237e+00) (8, -1.71057509326064369759e+01) (9, -1.40554940365725178708e+03) (10, -4.58084287865213768409e-01) (0, -7.73685546474074072876e+01) (1, -2.17780364792605041213e-01) (2, 3.89246972202109908778e-01) (3, 3.50971922163305860565e+00) (4, 4.80826452155210404271e+00) (5, -3.96370869652036716957e-01) (6, -3.27292630391453043259e+00) (7, 1.14744062383836720187e+00) (8, 6.89720127181383757531e-01) (9, 1.23337330101722727704e+02) (10, 1.02509849333538127780e+00) (0, -1.91860916974844242233e+00) (1, -3.26362775902728774469e-01) (2, 2.03871041088826032706e-01) (3, -3.71122619009259135936e-01) (4, -2.10631700704232184551e-02) (5, 1.62601297360215846233e+00) (6, 3.10252717465377791939e+00) (7, -1.12149992243752616439e+00) (8, -8.25470507390483909660e+00) (9, -3.71328899632975373279e+00) (10, 4.18346840134750597162e-01) (0, -4.82766279662540398476e+01) (1, -4.10454056863149285839e-02) (2, -1.45492443768105350621e+00) (3, -6.50002344565263068255e-01) (4, 3.74420364052511611686e-01) (5, 3.15744306755685633092e+00) (6, 9.23652323807306885328e+00) (7, 1.57158457806992252204e-01) (8, -7.01645671437262974379e-01) (9, -1.03730886867968479237e+02) (10, 1.37245287113596070583e+00) (0, -1.92192209263828339694e+00) (1, -4.76699616838253958928e-01) (2, 7.72499327916069233879e-01) (3, -1.68922274802741578803e-01) (4, 9.79911335390601795359e-02) (5, 1.73342930781924087213e+00) (6, 2.74925285215172676700e+00) (7, -9.47352158187098059017e-01) (8, -8.89944833328837781039e+00) (9, -1.42956533783567940610e+00) (10, 3.71239480539113264612e-01) (0, -8.75057758006197672351e-01) (1, 3.73506604665988853342e-02) (2, -5.40731200897563213381e-01) (3, 1.28224099125575807800e-01) (4, 3.31367488160835665933e-01) (5, 2.29768978292295544819e+00) (6, 7.45118512444224911917e+00) (7, -1.10352190397269442346e-01) (8, -1.59814218029631156526e+01) (9, -5.18018968919050735167e+01) (10, 7.03038529119377586518e-01) (0, -2.11690881880864312237e+00) (1, -3.64519301300971321211e-01) (2, 2.52525338361259066300e-01) (3, -2.67279963087375282971e-01) (4, 2.15882180253206462650e-01) (5, 1.80591333279008381396e+00) (6, 2.37885840797366343580e+00) (7, -8.16331425625044904137e-01) (8, -8.76804566373555260839e+00) (9, -1.38714075659005731112e+00) (10, 3.72884946268894956756e-01) (0, -1.13944135993872670554e+01) (1, -4.93057532353567662398e+00) (2, 3.39433936914812661723e-01) (3, 1.81235261835682198717e-01) (4, 5.20886200968971913028e+00) (5, -2.20913039453154613767e+00) (6, -4.64686570802726617302e+00) (7, -8.40880719950387600647e+00) (8, -4.39644378678309522002e+00) (9, 6.77422874723904158145e+01) (10, 2.57150335155771703199e+00) (0, -1.72673919162620315149e+00) (1, -2.49011039513763715592e-01) (2, -2.55861972503567125514e-01) (3, -6.66729253018654849372e-02) (4, 5.84417661110342767650e-01) (5, 1.60514530744490069303e+00) (6, 2.16751990432371677286e+00) (7, -7.98679746814111357622e-01) (8, -8.34420843144672197411e+00) (9, -1.00884705618924304105e+01) (10, 5.54168351554317761831e-01) (0, -4.07255660110467161417e+01) (1, 1.12966816931817848335e+00) (2, 1.36853708626980374863e-01) (3, 5.80092320071566969197e-01) (4, 3.61603904431098466254e-01) (5, 3.42970076660920497602e+00) (6, 5.74914547241474860328e+00) (7, 5.53447161725477698724e-02) (8, -5.79364943426549228178e+00) (9, -3.00568877407381629396e+00) (10, 7.63096705176401268744e-01) (0, -8.33322851048390411677e+00) (1, -8.71788913764665052142e-01) (2, 5.80671142339936996457e-01) (3, 1.47765386407396892565e+00) (4, 2.30266016603904555282e+00) (5, -8.37786175848127756538e-01) (6, -8.29613721438952289589e+00) (7, 5.85217501912670634567e-01) (8, 8.86574561062884036744e+00) (9, 7.51913364871961817926e+01) (10, 8.18111000912200458934e-01) (0, -1.72208261960007358304e+00) (1, -1.20351282492907676880e-01) (2, -1.70652505816317773268e-01) (3, -2.60574269067817443357e-01) (4, 3.20131661255944721667e-01) (5, 1.66734798847596432658e+00) (6, 2.68754867621254112109e+00) (7, -8.32703821193752857788e-01) (8, -8.59937775723099129266e+00) (9, -1.17821459661666927410e+00) (10, 4.05576810076248350789e-01) (0, -8.54418607527010820490e+00) (1, -7.23191759950567725213e-01) (2, -2.26845290471765839713e-02) (3, -2.24010491060587596523e-01) (4, 3.54618489062757547003e+00) (5, -4.22906533978175958044e-01) (6, -1.54787730495256798946e+01) (7, 2.21830656660460956431e+00) (8, 1.53346476497979367082e+01) (9, 3.52437709898827051802e+01) (10, 2.21967988601307464336e+00) (0, -4.38610601030001774348e+01) (1, 1.44184976035592282706e+00) (2, -2.19952503229492030146e-01) (3, 1.98845629129581280559e+00) (4, 3.58808921895689802994e-01) (5, 3.48008733248279389372e+00) (6, 5.63890124159212824395e+00) (7, 1.89025395794553102702e-01) (8, -5.84475647207796544791e+00) (9, -3.03449580320189093996e+00) (10, 6.63219193730137490661e-01) (0, -1.07588343309774021606e+01) (1, -4.48509264801766960318e+00) (2, 3.63738004425957051069e-01) (3, 1.88965030106921755282e-01) (4, 5.13026468156128334641e+00) (5, -6.75341328083797209914e-01) (6, -3.89074310035123716034e+00) (7, -7.29221474466828833982e+00) (8, -1.10957651206121976628e+01) (9, 6.14800500177295319304e+01) (10, 2.91791720582526092898e+00) (0, -4.15749350955655131656e+02) (1, -7.37772648701228650481e+00) (2, -3.27407085666190411644e+00) (3, -2.75397889272529496907e+01) (4, 3.06177198286253204884e+00) (5, -3.30645451897687925324e+00) (6, -2.22140120137589107685e+01) (7, -2.58966920395983191128e+00) (8, -5.33631039451773681037e+00) (9, -1.50000000000000000000e+03) (10, 7.86328726694818680443e-01) (11, 7.01339448241968366204e-01) (12, -5.74122256629998783950e+00) (13, 6.91876046632947691251e+02) (14, -2.76125440217780635521e+01) (15, 2.14821455692672902416e+00) (16, 9.33079472330093118160e+00) (17, 2.03930259821931736397e+00) (18, 7.14612922223225033314e-01) (19, 2.15645159100914085570e+00) (20, -2.23733106529840908294e+00) (21, 2.69107141873907229623e+00) (22, 8.81599713389377259709e-01) (23, -4.39289635324364713398e+00) (24, 5.58556588662267916590e+00) (25, -4.53988156402843401338e+00) (26, 8.88974618439178132512e-01) (27, -2.68089845592584872236e+01) (28, 6.93721074791066939724e+02) (29, 7.89797766647290844233e-01) 
