FANN_FLO_2.1
num_layers=3
learning_rate=0.700000
connection_rate=1.000000
network_type=0
learning_momentum=0.000000
training_algorithm=2
train_error_function=1
train_stop_function=0
cascade_output_change_fraction=0.010000
quickprop_decay=-0.000100
quickprop_mu=1.750000
rprop_increase_factor=1.200000
rprop_decrease_factor=0.500000
rprop_delta_min=0.000000
rprop_delta_max=50.000000
rprop_delta_zero=0.100000
cascade_output_stagnation_epochs=12
cascade_candidate_change_fraction=0.010000
cascade_candidate_stagnation_epochs=12
cascade_max_out_epochs=150
cascade_max_cand_epochs=150
cascade_num_candidate_groups=2
bit_fail_limit=3.49999999999999977796e-01
cascade_candidate_limit=1.00000000000000000000e+03
cascade_weight_multiplier=4.00000000000000022204e-01
cascade_activation_functions_count=10
cascade_activation_functions=3 5 7 8 10 11 14 15 16 17 
cascade_activation_steepnesses_count=4
cascade_activation_steepnesses=2.50000000000000000000e-01 5.00000000000000000000e-01 7.50000000000000000000e-01 1.00000000000000000000e+00 
layer_sizes=48 5 2 
scale_included=0
neurons (num_inputs, activation_function, activation_steepness)=(0, 0, 0.00000000000000000000e+00) (0, 0, 0.00000000000000000000e+00) (0, 0, 0.00000000000000000000e+00) (0, 0, 0.00000000000000000000e+00) (0, 0, 0.00000000000000000000e+00) (0, 0, 0.00000000000000000000e+00) (0, 0, 0.00000000000000000000e+00) (0, 0, 0.00000000000000000000e+00) (0, 0, 0.00000000000000000000e+00) (0, 0, 0.00000000000000000000e+00) (0, 0, 0.00000000000000000000e+00) (0, 0, 0.00000000000000000000e+00) (0, 0, 0.00000000000000000000e+00) (0, 0, 0.00000000000000000000e+00) (0, 0, 0.00000000000000000000e+00) (0, 0, 0.00000000000000000000e+00) (0, 0, 0.00000000000000000000e+00) (0, 0, 0.00000000000000000000e+00) (0, 0, 0.00000000000000000000e+00) (0, 0, 0.00000000000000000000e+00) (0, 0, 0.00000000000000000000e+00) (0, 0, 0.00000000000000000000e+00) (0, 0, 0.00000000000000000000e+00) (0, 0, 0.00000000000000000000e+00) (0, 0, 0.00000000000000000000e+00) (0, 0, 0.00000000000000000000e+00) (0, 0, 0.00000000000000000000e+00) (0, 0, 0.00000000000000000000e+00) (0, 0, 0.00000000000000000000e+00) (0, 0, 0.00000000000000000000e+00) (0, 0, 0.00000000000000000000e+00) (0, 0, 0.00000000000000000000e+00) (0, 0, 0.00000000000000000000e+00) (0, 0, 0.00000000000000000000e+00) (0, 0, 0.00000000000000000000e+00) (0, 0, 0.00000000000000000000e+00) (0, 0, 0.00000000000000000000e+00) (0, 0, 0.00000000000000000000e+00) (0, 0, 0.00000000000000000000e+00) (0, 0, 0.00000000000000000000e+00) (0, 0, 0.00000000000000000000e+00) (0, 0, 0.00000000000000000000e+00) (0, 0, 0.00000000000000000000e+00) (0, 0, 0.00000000000000000000e+00) (0, 0, 0.00000000000000000000e+00) (0, 0, 0.00000000000000000000e+00) (0, 0, 0.00000000000000000000e+00) (0, 0, 0.00000000000000000000e+00) (48, 4, 5.00000000000000000000e-01) (48, 4, 5.00000000000000000000e-01) (48, 4, 5.00000000000000000000e-01) (48, 4, 5.00000000000000000000e-01) (0, 0, 0.00000000000000000000e+00) (5, 6, 5.00000000000000000000e-01) (0, 6, 0.00000000000000000000e+00) 
connections (connected_to_neuron, weight)=(0, 1.26979950664104812574e+00) (1, 9.38143800917831449659e-01) (2, -1.08083519239161129910e+00) (3, -5.38859531953902646251e+01) (4, -5.51021406926397077086e+01) (5, -2.48675605132447188339e+01) (6, -4.34646487787940483116e+00) (7, -3.21023050881063598538e+00) (8, -1.59563100185782458240e+00) (9, -1.77658927819053635844e+00) (10, -1.56463281869971404525e+00) (11, -2.06623104869605711542e+00) (12, 6.56085428854749075356e-01) (13, 2.52070846964319916772e-01) (14, 3.99172031142421723793e-01) (15, 3.89432763757469324606e-01) (16, 3.12995899741443817099e-01) (17, 2.26736170567176154034e-01) (18, 9.38489479017497352231e-01) (19, 1.69557115524864676637e+00) (20, 2.11844418599967099226e+00) (21, 4.46247233860469494360e-01) (22, 1.95452606574118648020e+00) (23, 1.58793797925349866595e+00) (24, 6.50250878871826420990e-01) (25, 7.12828236784953217509e-01) (26, 1.95310381858771253683e-01) (27, 2.60692568599832918963e-01) (28, -8.96320425860079206259e-01) (29, -1.11708100994346870571e+00) (30, -2.29473776963600117895e+00) (31, -2.34210302628580357975e+00) (32, -1.98106218791542998403e+00) (33, -1.45272874804878648902e+00) (34, 1.32858765264473349665e-01) (35, -6.58233091107973233846e-01) (36, -2.48867268160007648614e-01) (37, 1.68833609491134439828e+00) (38, 2.86192226126670146158e+00) (39, 5.64848767151190234159e+00) (40, 5.17032562296522524292e+00) (41, 5.53803160521068260636e+00) (42, 2.87345128759166579258e+00) (43, 4.15046471314175757783e+00) (44, 2.47651062896887408371e+00) (45, 2.37050038334816237651e+00) (46, 4.03174678468606373372e+00) (47, 2.20560572687689404603e+00) (0, 2.61218279764255978392e+00) (1, 6.91863337070045880672e-01) (2, -4.53383925873865223366e+00) (3, -1.66610142538267460566e+01) (4, -1.64978190363128867091e+01) (5, -3.24318501538631238645e+01) (6, -8.83480187762054036682e+00) (7, -3.19498408079455220587e+00) (8, -4.89807371034095884177e-01) (9, -4.17242024638903863387e-01) (10, -3.10183561570191890233e-01) (11, -1.29542764442868219010e-01) (12, 2.17265393416644608804e-01) (13, 4.32785286626991338998e-01) (14, 4.49810310334638252527e-01) (15, 5.70129081389292746707e-01) (16, 1.91734326733229709649e-01) (17, 4.29042234911240383255e-01) (18, 1.26974746041768771221e+00) (19, 1.59758723525935097953e+00) (20, 2.84786007829407239456e+00) (21, 1.72391970808285077688e+00) (22, 1.57361467670893850901e+00) (23, 1.55479721377802815319e+00) (24, 5.09075152976692257845e-01) (25, 7.70476697250872977207e-01) (26, -1.80910673906307939429e-02) (27, -6.08067125975475259586e-03) (28, -4.81056046174487994538e-01) (29, -1.25724067337419898038e+00) (30, -1.57603025346100023008e+00) (31, -5.39168908850624184481e+00) (32, -9.91639031256207004184e-01) (33, -8.55677765038617144100e-01) (34, -6.10506115496119716735e-02) (35, -4.57770978761493696485e-01) (36, 4.71896364861321276907e-02) (37, -1.35008318623518752677e-01) (38, -1.44168219078629200602e-01) (39, -1.29272465509635781089e-01) (40, -1.35530445770311813725e-01) (41, 8.08883519170153497679e-02) (42, 5.18154398426233342434e-01) (43, 7.02802306794062303652e-01) (44, 1.46700095958367149329e+00) (45, 3.70401376910416324506e+00) (46, 1.16107121387671483603e+02) (47, 3.06070640602221422100e+00) (0, 1.83368865588716167814e+00) (1, 1.23073555500195075396e+00) (2, 2.17242424938919498345e+00) (3, 5.39423166890953975638e+00) (4, 5.49099212070321041068e+00) (5, -1.10858366985119349835e+00) (6, -1.89494501089864514354e-01) (7, 5.69725763395514062104e-01) (8, 3.98604346338345127965e-01) (9, 4.86660665805125736139e-01) (10, 4.17957671948115672134e-01) (11, 4.61908941538481165878e-01) (12, 5.76439259472919740546e-01) (13, 8.71560731567176061318e-01) (14, 8.63080294467242437051e-01) (15, 5.62316463480474371117e-01) (16, 4.26505867366989366296e-01) (17, 4.95578680814928895781e-01) (18, 5.79287497452641297890e-01) (19, 1.37231049331200893882e+00) (20, 2.09552481473743767992e+00) (21, 1.87592198889330785683e+00) (22, 1.72742562927431175801e+00) (23, 1.78528345038495506181e+00) (24, 8.56703599077353272762e-01) (25, 4.07833916580134181462e-01) (26, 2.95928620957614574305e-01) (27, -4.03792802789357363480e-01) (28, -1.23682037245021048122e+00) (29, -1.21604537752942643003e+00) (30, -2.60881252252066531128e+00) (31, -2.52717227685693668349e+00) (32, -2.35974080099775607167e+00) (33, -2.39480366654423004746e+00) (34, -1.63211599452512867714e+00) (35, -2.33474716497929435377e+00) (36, -3.27599369816582886017e+00) (37, -3.14611610641141137279e+00) (38, -4.93131423352228548396e+00) (39, -2.04254421772887306830e+00) (40, -1.91162992551306976097e+00) (41, -1.36839846570181733476e+00) (42, -5.82397115538191845197e-01) (43, -5.74587535573095387065e-01) (44, -4.91013213158924322066e-01) (45, 5.21246434689928594963e-01) (46, 1.42809111045863623701e+01) (47, 2.10610472793990677332e+00) (0, 1.64310566594477536206e+00) (1, 7.13718057394120863890e-01) (2, -2.76003986860973471451e+00) (3, -3.93312041597502481949e+00) (4, -9.73308820914100714106e+00) (5, -7.11486737252451195701e+00) (6, -6.78834731538925328920e+00) (7, -1.98711107849882617771e+00) (8, -4.90163737005491817467e-01) (9, -3.07987052497210755941e-01) (10, -1.56151912172729806505e-01) (11, -3.67326123762124201466e-01) (12, 2.12470575081967011366e-01) (13, 1.23381184340488192497e+00) (14, 1.37809100664080896870e+00) (15, 1.05644099351374132212e+00) (16, 9.73860100906982079083e-02) (17, 7.94294689169769752013e-01) (18, 9.51871129989912190261e-01) (19, 1.08174034475984237602e+00) (20, 2.63469345514956643228e+00) (21, -2.16797270740953518242e+00) (22, 1.30837970128599390129e+00) (23, -5.97109275373764347705e+00) (24, 4.31125966864873033657e-01) (25, 9.16793243169767291256e-01) (26, 1.92901558388682614620e-01) (27, 1.47876864858026112193e-02) (28, -7.03412413311025441764e-01) (29, -1.99966578673620687390e+00) (30, -2.79144054540608044235e+00) (31, -1.06292594070387114158e+01) (32, -2.21445767447452812604e+00) (33, -1.20642767805409945048e+00) (34, -7.30216290308227100603e-02) (35, -1.60034634850785006943e-01) (36, 4.36450045233582120674e-02) (37, -1.08600766098170084528e-01) (38, -9.88208102069922794675e-02) (39, 5.15294174278449257365e-01) (40, 1.22956902993212757735e+00) (41, 3.41429627683383651870e+00) (42, 1.07528180347819208862e+01) (43, 1.04373378558233298463e+01) (44, -8.34817189865107028846e-02) (45, 1.06149128194443242990e+00) (46, 1.38586669712534344967e+01) (47, 2.73157083609919126843e+00) (48, -4.27276038883971231996e+00) (49, -8.20413531233299231360e+00) (50, -1.56753831597769917039e+01) (51, -1.27650078898059913257e+01) (52, 4.60712602530497683517e+00) 
