FANN_FLO_2.1
num_layers=3
learning_rate=0.700000
connection_rate=1.000000
network_type=0
learning_momentum=0.000000
training_algorithm=2
train_error_function=1
train_stop_function=0
cascade_output_change_fraction=0.010000
quickprop_decay=-0.000100
quickprop_mu=1.750000
rprop_increase_factor=1.200000
rprop_decrease_factor=0.500000
rprop_delta_min=0.000000
rprop_delta_max=50.000000
rprop_delta_zero=0.100000
cascade_output_stagnation_epochs=12
cascade_candidate_change_fraction=0.010000
cascade_candidate_stagnation_epochs=12
cascade_max_out_epochs=150
cascade_max_cand_epochs=150
cascade_num_candidate_groups=2
bit_fail_limit=3.49999999999999977796e-01
cascade_candidate_limit=1.00000000000000000000e+03
cascade_weight_multiplier=4.00000000000000022204e-01
cascade_activation_functions_count=10
cascade_activation_functions=3 5 7 8 10 11 14 15 16 17 
cascade_activation_steepnesses_count=4
cascade_activation_steepnesses=2.50000000000000000000e-01 5.00000000000000000000e-01 7.50000000000000000000e-01 1.00000000000000000000e+00 
layer_sizes=41 5 2 
scale_included=0
neurons (num_inputs, activation_function, activation_steepness)=(0, 0, 0.00000000000000000000e+00) (0, 0, 0.00000000000000000000e+00) (0, 0, 0.00000000000000000000e+00) (0, 0, 0.00000000000000000000e+00) (0, 0, 0.00000000000000000000e+00) (0, 0, 0.00000000000000000000e+00) (0, 0, 0.00000000000000000000e+00) (0, 0, 0.00000000000000000000e+00) (0, 0, 0.00000000000000000000e+00) (0, 0, 0.00000000000000000000e+00) (0, 0, 0.00000000000000000000e+00) (0, 0, 0.00000000000000000000e+00) (0, 0, 0.00000000000000000000e+00) (0, 0, 0.00000000000000000000e+00) (0, 0, 0.00000000000000000000e+00) (0, 0, 0.00000000000000000000e+00) (0, 0, 0.00000000000000000000e+00) (0, 0, 0.00000000000000000000e+00) (0, 0, 0.00000000000000000000e+00) (0, 0, 0.00000000000000000000e+00) (0, 0, 0.00000000000000000000e+00) (0, 0, 0.00000000000000000000e+00) (0, 0, 0.00000000000000000000e+00) (0, 0, 0.00000000000000000000e+00) (0, 0, 0.00000000000000000000e+00) (0, 0, 0.00000000000000000000e+00) (0, 0, 0.00000000000000000000e+00) (0, 0, 0.00000000000000000000e+00) (0, 0, 0.00000000000000000000e+00) (0, 0, 0.00000000000000000000e+00) (0, 0, 0.00000000000000000000e+00) (0, 0, 0.00000000000000000000e+00) (0, 0, 0.00000000000000000000e+00) (0, 0, 0.00000000000000000000e+00) (0, 0, 0.00000000000000000000e+00) (0, 0, 0.00000000000000000000e+00) (0, 0, 0.00000000000000000000e+00) (0, 0, 0.00000000000000000000e+00) (0, 0, 0.00000000000000000000e+00) (0, 0, 0.00000000000000000000e+00) (0, 0, 0.00000000000000000000e+00) (41, 4, 5.00000000000000000000e-01) (41, 4, 5.00000000000000000000e-01) (41, 4, 5.00000000000000000000e-01) (41, 4, 5.00000000000000000000e-01) (0, 0, 0.00000000000000000000e+00) (5, 6, 5.00000000000000000000e-01) (0, 6, 0.00000000000000000000e+00) 
connections (connected_to_neuron, weight)=(0, 5.60609153575939211933e-01) (1, -2.82172193202148191560e+00) (2, -7.21847055774327950317e-01) (3, 2.19971537837927444414e+00) (4, -1.10890908094658557914e+00) (5, -1.54553871086784933020e+00) (6, -5.89923906254073648903e-01) (7, -6.38942797523370908941e-01) (8, -6.92911933307451710640e-01) (9, -9.90679978446705855610e-01) (10, -7.82200181880275124957e-02) (11, 8.12474698474617423871e-02) (12, 1.10353307376478332325e-01) (13, 9.19385840545495908183e-02) (14, -2.09297536172727671744e-01) (15, 2.27260651960146109474e-01) (16, 1.79874507780843417848e+00) (17, 1.67638196102931891218e+00) (18, 1.18803743815447093723e+00) (19, -2.04733017607196954302e+00) (20, 1.89051129651763849537e+00) (21, 2.42133721422505970855e-01) (22, -1.22982261540898585306e-01) (23, 3.40392333471601360451e-01) (24, 2.94496442478034026191e-01) (25, -2.94709730491576182843e+00) (26, -5.15551031195548414843e+00) (27, -2.69834739531048528605e+00) (28, -1.66155372417745916813e+00) (29, -8.25859304144873074272e-01) (30, -8.48846103789221761993e-01) (31, -7.99317999908350507177e-01) (32, -4.22276613498230479760e-01) (33, 2.36437960005367077410e-02) (34, -7.28237900025496820433e-02) (35, -5.27991148517388958483e-02) (36, 1.24353668029460457944e+01) (37, -2.14275115372485280840e-01) (38, -1.47292301329866766324e-02) (39, 3.42409685089187689755e+01) (40, 1.76454614319052360827e+00) (0, 1.05063822907704706999e+00) (1, -2.95739814969113146148e+00) (2, -7.31558132551799467080e-01) (3, 2.52270975393977465728e+01) (4, -1.03256551299944643318e+00) (5, -1.53509432697625602948e+00) (6, -6.17889502496200226922e-01) (7, -6.36858991211664227095e-01) (8, -7.61870543750895024004e-01) (9, -8.18106951811925608986e-01) (10, -1.74422834471301108072e-01) (11, 1.72064028294839993505e-01) (12, 1.42314253457227590793e-01) (13, 1.64036405059813261698e-01) (14, -2.76260989888606867115e-01) (15, 1.72949735538682536351e-01) (16, 1.67461560235971784749e+00) (17, 1.48642001068117513007e+00) (18, 7.33385832209356380851e-01) (19, 3.01389843270974788769e-01) (20, 3.81177548841243174493e+00) (21, 3.34482731417564904675e-01) (22, 2.61268467603820386813e-01) (23, 5.11210750458410342900e-02) (24, 2.19403683245675251712e+00) (25, -2.81724859465133548042e+00) (26, -5.63635955677741673497e+00) (27, -2.76197846766279031527e+00) (28, -1.89643503866743423636e+00) (29, -8.79070409858362933342e-01) (30, -1.33764583390123470430e+00) (31, -4.63271736286303692509e+00) (32, -2.81327354785871142084e+00) (33, -4.71948133340448994222e-01) (34, -2.39252545737298261130e+00) (35, -1.14255548155586783565e+00) (36, -1.89769093301195845847e-01) (37, -1.07923487260237010998e-01) (38, -1.87069078229556873261e-01) (39, 1.23556718860854548581e+01) (40, 1.87167391399309379629e+00) (0, -2.46685626880505237679e+00) (1, -4.06996934986008807034e-01) (2, -4.62074094662159495783e+00) (3, -8.44125766370558672236e+00) (4, -1.90915102253288146983e+01) (5, -1.29986332141746565583e+01) (6, -3.80216811081326744315e+00) (7, -9.02432541473528915255e-01) (8, -8.75776378780627973164e-01) (9, -2.34481751052435127836e-01) (10, 9.56268897857523447747e-02) (11, 1.05106519969876618936e-01) (12, 4.51908163832420217698e-01) (13, 5.20949986835574363475e-01) (14, -1.21834236629983008737e-01) (15, 2.17057099841002321128e+00) (16, 1.79864921912878306109e+00) (17, 1.54833936882673262048e+00) (18, 1.02297502836541287508e+00) (19, -2.37746895273374159174e+00) (20, 2.72683554343169820555e+00) (21, 1.05968569418408398164e+00) (22, 9.02634943961122537814e-02) (23, 2.79721150678792218613e-01) (24, -1.56293630173938491446e-01) (25, -2.59892487602210664477e+00) (26, -2.78974927769642722097e+00) (27, -1.53543865834925608027e+00) (28, -7.81947954317825932868e-01) (29, -1.51135794721557470410e-01) (30, 7.98161931039205518879e-01) (31, 1.30527307196335229378e+00) (32, 4.42395304085382301551e-01) (33, 5.91087412351629440388e-02) (34, 3.98370770080674174718e-01) (35, 2.36530333150272886744e-01) (36, 8.58621413824783275004e+00) (37, -9.42329941383850643033e-03) (38, 8.27736171272285492506e-01) (39, 3.34631693850554157166e+01) (40, 2.02791608751328311655e+00) (0, 9.34617032741972195709e+01) (1, 2.17942682397075856215e+02) (2, 3.62925077997385692186e+00) (3, 9.31446474484134867566e+00) (4, 2.33600793036692202520e+01) (5, 2.14376790099396231426e+02) (6, 1.61474486456110099653e+02) (7, 1.02988346438863203502e+02) (8, 1.03052928183236048199e+02) (9, 1.91065504715894093124e+02) (10, 5.15665884346568219598e+01) (11, 4.57507876534564772442e+00) (12, 2.62587649010406609662e+00) (13, 2.67306833764953699628e+00) (14, 4.60450207513400577852e+00) (15, 2.24664137960026533136e+00) (16, 8.76186789609421423641e-01) (17, 9.84530126712022202184e+00) (18, 1.43375821448242071199e+01) (19, 2.70486906900258361475e+02) (20, 4.67196078337587863416e+01) (21, 1.18134856184862280237e+00) (22, -7.67537983447804528225e+00) (23, -8.55232608923256947264e+01) (24, -1.17622509452690149345e+01) (25, 1.02705192309019281538e+02) (26, 2.21556677524444296523e+02) (27, 9.99526807611086525185e+01) (28, 3.56357306461297937972e+01) (29, 5.64187897014939654383e+00) (30, 1.91807238045369388146e+00) (31, 5.09719727112547627002e+00) (32, 2.90802271887935859240e+00) (33, 2.82943409062779760443e-01) (34, 5.53076687253333476590e-01) (35, 6.83946120403545076982e-01) (36, -2.58908895733629025593e-02) (37, 8.38049835959832378762e+00) (38, 4.02900537160422622662e+00) (39, -1.37369120821963064394e+00) (40, 1.23692940073148029967e+01) (41, -5.91631580310631477460e+00) (42, -9.36584879337327969040e+00) (43, -1.36270586629260943567e+01) (44, 2.06311437147118281743e+00) (45, 5.57226629742217482999e+00) 
