FANN_FLO_2.1
num_layers=3
learning_rate=0.700000
connection_rate=1.000000
network_type=0
learning_momentum=0.000000
training_algorithm=2
train_error_function=1
train_stop_function=0
cascade_output_change_fraction=0.010000
quickprop_decay=-0.000100
quickprop_mu=1.750000
rprop_increase_factor=1.200000
rprop_decrease_factor=0.500000
rprop_delta_min=0.000000
rprop_delta_max=50.000000
rprop_delta_zero=0.100000
cascade_output_stagnation_epochs=12
cascade_candidate_change_fraction=0.010000
cascade_candidate_stagnation_epochs=12
cascade_max_out_epochs=150
cascade_max_cand_epochs=150
cascade_num_candidate_groups=2
bit_fail_limit=3.49999999999999977796e-01
cascade_candidate_limit=1.00000000000000000000e+03
cascade_weight_multiplier=4.00000000000000022204e-01
cascade_activation_functions_count=10
cascade_activation_functions=3 5 7 8 10 11 14 15 16 17 
cascade_activation_steepnesses_count=4
cascade_activation_steepnesses=2.50000000000000000000e-01 5.00000000000000000000e-01 7.50000000000000000000e-01 1.00000000000000000000e+00 
layer_sizes=4 13 2 
scale_included=0
neurons (num_inputs, activation_function, activation_steepness)=(0, 0, 0.00000000000000000000e+00) (0, 0, 0.00000000000000000000e+00) (0, 0, 0.00000000000000000000e+00) (0, 0, 0.00000000000000000000e+00) (4, 4, 5.00000000000000000000e-01) (4, 4, 5.00000000000000000000e-01) (4, 4, 5.00000000000000000000e-01) (4, 4, 5.00000000000000000000e-01) (4, 4, 5.00000000000000000000e-01) (4, 4, 5.00000000000000000000e-01) (4, 4, 5.00000000000000000000e-01) (4, 4, 5.00000000000000000000e-01) (4, 4, 5.00000000000000000000e-01) (4, 4, 5.00000000000000000000e-01) (4, 4, 5.00000000000000000000e-01) (4, 4, 5.00000000000000000000e-01) (0, 0, 0.00000000000000000000e+00) (13, 6, 5.00000000000000000000e-01) (0, 6, 0.00000000000000000000e+00) 
connections (connected_to_neuron, weight)=(0, 4.28108083424220620117e+00) (1, -1.19134291822686435580e+01) (2, 3.94046570522927140701e+02) (3, 1.18733486747111505188e+00) (0, 1.17201953590371110714e+00) (1, -1.20813733169162134118e+01) (2, -6.79864367382418635088e+01) (3, 6.26772655771689368720e+00) (0, 5.77920761372725610983e+00) (1, -1.03777923682713897335e+01) (2, 3.24712997669954983593e+00) (3, 3.98805634607670178582e+00) (0, 5.79163578022758773756e+00) (1, -7.46998511598522352273e+00) (2, -3.28736841282720178015e+01) (3, 3.89988261987073503434e+00) (0, 2.32544861894503984701e+00) (1, -7.09944398798395592820e+00) (2, -1.82171203620458669548e+02) (3, 6.09902501250400597144e+00) (0, 4.56602135875863623937e+00) (1, -1.06118150893678411251e+01) (2, -2.39490310111701720786e+00) (3, 4.33736086806586040865e+00) (0, 2.61496578173648641652e+00) (1, -1.11949286948500343897e+01) (2, -2.36508645308337754898e+01) (3, 5.14516340536092098290e+00) (0, 1.49999991599999088976e+03) (1, 1.49399865141762325038e+03) (2, 1.49999991599999088976e+03) (3, 8.92099956715172304200e+00) (0, 5.97301505183078162986e+00) (1, -8.44553534087268786834e+00) (2, -5.86643006805005313709e+01) (3, 4.44568962948021351167e+00) (0, -3.83510453827851378605e+01) (1, 3.21502174412355845590e+00) (2, 1.49999991599999088976e+03) (3, -6.68152513501466760459e-01) (0, 1.03598805508160609179e+02) (1, -2.61542314512389744152e+01) (2, 2.95292302865830492919e+02) (3, -2.43840886588003957769e+00) (0, -5.24266059231156518194e+01) (1, 7.09189190808271163746e+00) (2, 5.28173287855912803934e+02) (3, 4.12049068689105901786e-01) (4, -6.57913379090907479707e+00) (5, -6.39461277892097612607e+00) (6, -3.28309838221871475028e+00) (7, -2.22724172766336980800e+00) (8, -1.07769030177955507099e+01) (9, -2.73592578206115155659e-01) (10, -3.06561467757889616337e-01) (11, 5.80388191936695463369e+00) (12, -1.73942768006866081976e+01) (13, 2.27112031194616115215e+01) (14, -1.16412138306632719775e+01) (15, -2.28363908604480343456e+01) (16, 2.18296172482015613525e+01) 
