FANN_FLO_2.1
num_layers=3
learning_rate=0.700000
connection_rate=1.000000
network_type=0
learning_momentum=0.000000
training_algorithm=2
train_error_function=1
train_stop_function=0
cascade_output_change_fraction=0.010000
quickprop_decay=-0.000100
quickprop_mu=1.750000
rprop_increase_factor=1.200000
rprop_decrease_factor=0.500000
rprop_delta_min=0.000000
rprop_delta_max=50.000000
rprop_delta_zero=0.100000
cascade_output_stagnation_epochs=12
cascade_candidate_change_fraction=0.010000
cascade_candidate_stagnation_epochs=12
cascade_max_out_epochs=150
cascade_max_cand_epochs=150
cascade_num_candidate_groups=2
bit_fail_limit=3.49999999999999977796e-01
cascade_candidate_limit=1.00000000000000000000e+03
cascade_weight_multiplier=4.00000000000000022204e-01
cascade_activation_functions_count=10
cascade_activation_functions=3 5 7 8 10 11 14 15 16 17 
cascade_activation_steepnesses_count=4
cascade_activation_steepnesses=2.50000000000000000000e-01 5.00000000000000000000e-01 7.50000000000000000000e-01 1.00000000000000000000e+00 
layer_sizes=8 15 2 
scale_included=0
neurons (num_inputs, activation_function, activation_steepness)=(0, 0, 0.00000000000000000000e+00) (0, 0, 0.00000000000000000000e+00) (0, 0, 0.00000000000000000000e+00) (0, 0, 0.00000000000000000000e+00) (0, 0, 0.00000000000000000000e+00) (0, 0, 0.00000000000000000000e+00) (0, 0, 0.00000000000000000000e+00) (0, 0, 0.00000000000000000000e+00) (8, 4, 5.00000000000000000000e-01) (8, 4, 5.00000000000000000000e-01) (8, 4, 5.00000000000000000000e-01) (8, 4, 5.00000000000000000000e-01) (8, 4, 5.00000000000000000000e-01) (8, 4, 5.00000000000000000000e-01) (8, 4, 5.00000000000000000000e-01) (8, 4, 5.00000000000000000000e-01) (8, 4, 5.00000000000000000000e-01) (8, 4, 5.00000000000000000000e-01) (8, 4, 5.00000000000000000000e-01) (8, 4, 5.00000000000000000000e-01) (8, 4, 5.00000000000000000000e-01) (8, 4, 5.00000000000000000000e-01) (0, 0, 0.00000000000000000000e+00) (15, 6, 5.00000000000000000000e-01) (0, 6, 0.00000000000000000000e+00) 
connections (connected_to_neuron, weight)=(0, -1.12847372125956968425e+00) (1, -5.14569982734983999428e-01) (2, 3.58992038622972486905e+00) (3, 9.60183998903455071527e-01) (4, -7.70591025382098937513e+00) (5, 3.20367254289470748674e+00) (6, 4.32976198157278915346e+01) (7, 7.75521103161370461976e-01) (0, -1.09716594851864646110e+00) (1, -5.45555670537238523998e-01) (2, 3.61767825623231864540e+00) (3, -1.29788128023108906284e-01) (4, -7.61893392638192867850e+00) (5, 2.59969463940014344772e+00) (6, 4.24720666732540976795e+01) (7, 7.69965201058824155744e-01) (0, -5.27033860932677953315e+01) (1, 6.40948380318799304511e-01) (2, -1.86303597750525495869e+00) (3, 1.55159828845003944231e+00) (4, 3.12215464796921580160e+01) (5, 3.48367950208640572707e-02) (6, -6.50856813287264390766e+00) (7, 4.44215838552581343546e-01) (0, 5.08878274304243021220e+01) (1, 1.10625004726024545043e+00) (2, -4.00825743781995047499e+00) (3, -4.57380166844690005945e+00) (4, -3.94432161223281640972e+00) (5, -8.08659217496847126938e+00) (6, -8.05992713969514937844e+01) (7, 4.13470448039148563701e-01) (0, 3.07210832702182692344e+01) (1, 9.58295686008977831705e+00) (2, -7.06950114501236903664e-01) (3, 1.04201945932450623644e+00) (4, -2.21197002810737997081e+00) (5, -1.33170072064618221219e+01) (6, -1.01369483872607712982e+01) (7, 5.65050284002432734454e-01) (0, 4.85756252809198514342e+01) (1, 1.06224522496430417995e+00) (2, -1.63552615584712279784e+00) (3, 3.98500073488324035864e+00) (4, -3.86033284817546640255e+00) (5, -1.27610951873868856410e+01) (6, 1.35729430071907746225e+01) (7, 2.49523777675740104920e-01) (0, -6.04839563932488530895e+01) (1, -9.73637231350397258645e-01) (2, 1.43119560521601396630e+01) (3, 4.64175396047341648487e-01) (4, -3.12089642171658399050e+00) (5, 1.37877066776745216270e-01) (6, 1.87787776867299016637e+00) (7, 1.60624140655405933664e+00) (0, -2.74330673284433901316e+00) (1, -5.69849447049062263204e-01) (2, 3.80574540683158479837e+00) (3, -8.66585162719285539978e-04) (4, -5.85354680512152647509e+00) (5, 3.79473426626072640744e+00) (6, 8.77434927216622462254e+00) (7, 7.25119097783113786271e-01) (0, 1.16061874397793882707e+01) (1, 2.24733322143968372586e+01) (2, 2.98227981077002324284e+00) (3, -5.40900121165963767567e+01) (4, 2.10880982632245084218e+00) (5, -1.01097826742300653247e-01) (6, -6.78604536426307980435e+00) (7, 7.87802228150637273707e-01) (0, 3.73008836790903686165e+01) (1, 1.08626356494343156989e+00) (2, 7.09765156699196042567e-01) (3, 1.52279229574427499294e+00) (4, -4.02681999096888443290e+00) (5, -1.05875659765550409475e+01) (6, 3.61873810606801527001e+00) (7, 3.27567267401495776369e-01) (0, 2.42933261946929462960e-01) (1, -6.11873116728915644735e-01) (2, 3.75666248197104835072e+00) (3, -6.88867242764162890367e-01) (4, -7.72842521321830755454e+00) (5, 3.30636596883160782667e+00) (6, 4.16970108160829298072e+01) (7, 7.17385410377321619535e-01) (0, -9.14504332380249529422e+00) (1, -9.70830460855440918744e-02) (2, 6.90344766868489934097e+00) (3, -3.98986346244287126694e+00) (4, -8.12634217873637787477e+00) (5, 7.24730121461274201522e+00) (6, 7.38388722828068289061e+00) (7, 1.58549411717243660114e+00) (0, 2.94009976545666980030e+01) (1, 1.79259098983881970391e+00) (2, -1.02832318898756436276e+00) (3, -4.77435406983472958586e+01) (4, -1.52521133668955810592e+00) (5, 1.08561538622055469006e+01) (6, -9.26294047249683671907e+00) (7, 5.05107291525019652667e-01) (0, -1.02630161044781345936e+02) (1, 7.30056171256151520410e-01) (2, -4.66441506906559499868e+00) (3, 1.28245720430601162221e+00) (4, 4.25094343103670269102e+01) (5, -1.14798188264784717383e+00) (6, -1.12581426581493513339e+01) (7, 9.49958723366383761544e-01) (8, -3.27836033335214160900e+00) (9, -3.28581613783473169832e+00) (10, 2.09309526391519717947e+00) (11, 1.88172626450937019449e+00) (12, 1.20502730644689548534e+00) (13, 1.44860894900683345732e+00) (14, -2.82186701696294335306e+01) (15, -3.33705552485214385072e+00) (16, 9.28892318365081770537e+00) (17, 1.21950640573611046591e+00) (18, -4.62096898516055709649e+00) (19, -6.26790352778621073782e+00) (20, 1.03551691500602860430e+00) (21, 8.63120546799978960451e+00) (22, 1.16960692029517776547e+00) 
