FANN_FLO_2.1
num_layers=3
learning_rate=0.700000
connection_rate=1.000000
network_type=0
learning_momentum=0.000000
training_algorithm=2
train_error_function=1
train_stop_function=0
cascade_output_change_fraction=0.010000
quickprop_decay=-0.000100
quickprop_mu=1.750000
rprop_increase_factor=1.200000
rprop_decrease_factor=0.500000
rprop_delta_min=0.000000
rprop_delta_max=50.000000
rprop_delta_zero=0.100000
cascade_output_stagnation_epochs=12
cascade_candidate_change_fraction=0.010000
cascade_candidate_stagnation_epochs=12
cascade_max_out_epochs=150
cascade_max_cand_epochs=150
cascade_num_candidate_groups=2
bit_fail_limit=3.49999999999999977796e-01
cascade_candidate_limit=1.00000000000000000000e+03
cascade_weight_multiplier=4.00000000000000022204e-01
cascade_activation_functions_count=10
cascade_activation_functions=3 5 7 8 10 11 14 15 16 17 
cascade_activation_steepnesses_count=4
cascade_activation_steepnesses=2.50000000000000000000e-01 5.00000000000000000000e-01 7.50000000000000000000e-01 1.00000000000000000000e+00 
layer_sizes=25 21 2 
scale_included=0
neurons (num_inputs, activation_function, activation_steepness)=(0, 0, 0.00000000000000000000e+00) (0, 0, 0.00000000000000000000e+00) (0, 0, 0.00000000000000000000e+00) (0, 0, 0.00000000000000000000e+00) (0, 0, 0.00000000000000000000e+00) (0, 0, 0.00000000000000000000e+00) (0, 0, 0.00000000000000000000e+00) (0, 0, 0.00000000000000000000e+00) (0, 0, 0.00000000000000000000e+00) (0, 0, 0.00000000000000000000e+00) (0, 0, 0.00000000000000000000e+00) (0, 0, 0.00000000000000000000e+00) (0, 0, 0.00000000000000000000e+00) (0, 0, 0.00000000000000000000e+00) (0, 0, 0.00000000000000000000e+00) (0, 0, 0.00000000000000000000e+00) (0, 0, 0.00000000000000000000e+00) (0, 0, 0.00000000000000000000e+00) (0, 0, 0.00000000000000000000e+00) (0, 0, 0.00000000000000000000e+00) (0, 0, 0.00000000000000000000e+00) (0, 0, 0.00000000000000000000e+00) (0, 0, 0.00000000000000000000e+00) (0, 0, 0.00000000000000000000e+00) (0, 0, 0.00000000000000000000e+00) (25, 4, 5.00000000000000000000e-01) (25, 4, 5.00000000000000000000e-01) (25, 4, 5.00000000000000000000e-01) (25, 4, 5.00000000000000000000e-01) (25, 4, 5.00000000000000000000e-01) (25, 4, 5.00000000000000000000e-01) (25, 4, 5.00000000000000000000e-01) (25, 4, 5.00000000000000000000e-01) (25, 4, 5.00000000000000000000e-01) (25, 4, 5.00000000000000000000e-01) (25, 4, 5.00000000000000000000e-01) (25, 4, 5.00000000000000000000e-01) (25, 4, 5.00000000000000000000e-01) (25, 4, 5.00000000000000000000e-01) (25, 4, 5.00000000000000000000e-01) (25, 4, 5.00000000000000000000e-01) (25, 4, 5.00000000000000000000e-01) (25, 4, 5.00000000000000000000e-01) (25, 4, 5.00000000000000000000e-01) (25, 4, 5.00000000000000000000e-01) (0, 0, 0.00000000000000000000e+00) (21, 6, 5.00000000000000000000e-01) (0, 6, 0.00000000000000000000e+00) 
connections (connected_to_neuron, weight)=(0, 4.52487495778522597067e-01) (1, -9.88196418869377168903e+00) (2, -9.44258524694640932751e+00) (3, -8.57429449799167286983e+00) (4, -5.22560296803541923794e+00) (5, -4.17989773709103451527e-01) (6, -2.70781826974341388592e-01) (7, -2.79352839427064569833e-01) (8, -2.51930458317966843307e-01) (9, 4.71254065374337671734e-01) (10, 1.10184949860751313366e+00) (11, 1.09742294197119938381e+00) (12, 3.61047481669577674523e-01) (13, -3.49808642060455643463e-01) (14, -3.96194290235612855966e+00) (15, -1.19489960574489177958e+01) (16, -3.23084596620839636927e+00) (17, -1.15574227232908732788e+00) (18, -1.25470023200339486635e+00) (19, -1.63009206007038853770e+00) (20, -9.68177121928387340866e-01) (21, -4.01237722523749673620e-01) (22, 1.15183152019247975195e-01) (23, 9.76832318628159113061e-02) (24, 7.37564661933550080875e-01) (0, 7.57484400076226423171e-03) (1, -3.05708290125733057607e+01) (2, -1.79952727228196351916e+01) (3, -6.75053056048115784904e+00) (4, -6.45433946150428194954e+00) (5, -6.55061180297576761689e-01) (6, -2.44796668958934982019e-01) (7, -1.67044065570385980024e-01) (8, -2.55301633134712879780e-01) (9, 2.52350237158098567036e+00) (10, 5.92541968239076144442e+00) (11, 2.67494862263559429749e+00) (12, 3.49666350127907721301e+00) (13, -1.49653525201158321689e-01) (14, -1.25145264763014862908e+00) (15, -3.97426642170892030492e+00) (16, -1.22200568810667609121e+00) (17, -5.13045740671670413846e-01) (18, -5.11665014162220543881e-01) (19, -4.16430611084977975178e-01) (20, -5.46232636646263425284e-01) (21, 1.54065331155241502792e+00) (22, 2.12051583333857029956e+00) (23, 4.76058689134182273506e+01) (24, 1.29711689408854669026e+00) (0, 7.78083095035110167137e-02) (1, -8.48825960420240832605e+00) (2, -4.30485592052473986513e+00) (3, -4.36142024655032223279e+00) (4, 9.51621471067023771973e-01) (5, 7.53283874408887776930e-01) (6, -3.02149480203883047391e-01) (7, -2.54935542602606757256e-01) (8, -3.34693048743986310001e-01) (9, 3.70028408940609065958e-01) (10, 4.41985327544279160694e-01) (11, 6.73517117446996049779e-01) (12, 4.98754139661451934007e-01) (13, 8.09612627477141622023e+00) (14, 5.55028451652477059497e+01) (15, 1.24433406387841194451e+00) (16, -6.79602738055225391589e-02) (17, -1.01450400822323616445e+00) (18, -1.63487477914178569449e+01) (19, -1.54798707535279267411e+00) (20, -5.84036323547885327656e+00) (21, -3.31398028185275139723e-01) (22, -3.71069946681791407173e+01) (23, 1.41638374347232010031e+00) (24, 5.83434206325114113056e-01) (0, 7.46535189690056416589e-02) (1, -7.65867107541142644322e+00) (2, -2.78483341960550179195e+00) (3, -2.17584426078129711257e+00) (4, 2.03330246524417868059e+00) (5, 6.54472119587828582432e-01) (6, 6.93963593500723924246e-02) (7, -2.31352804342671108939e-01) (8, -1.92160933012743645465e-01) (9, 4.96408240851600846000e-01) (10, 1.53097911790889695816e+00) (11, 8.17187918650127520515e-01) (12, 2.60762336179574116812e-01) (13, -3.17814077938907646459e-01) (14, -3.64910133819754456397e+00) (15, 5.44283496464326610464e+00) (16, -2.40942828989421459207e-01) (17, -9.20600826018808104934e-01) (18, -1.12337415205636070858e+00) (19, -1.28702052361081653586e+00) (20, -1.06028103557851149930e+00) (21, -3.44299417778742955498e-01) (22, 2.96467856318117339853e-01) (23, 1.19458501191461063939e-01) (24, 5.79440712248763478698e-01) (0, 1.00964174970772507800e-01) (1, -7.62087442905484380162e+00) (2, -2.48198380071231117228e+00) (3, -2.07611935707856121169e+00) (4, 1.95597805248105083287e+00) (5, 2.98229712311097128197e-01) (6, -1.78330315704957942380e-01) (7, -3.06291470122756925853e-01) (8, -2.86784491235989980051e-01) (9, 4.79771865864562885307e-01) (10, 1.66039102708442021239e+00) (11, 1.21907752068413177682e+00) (12, 4.52096986705388892425e-01) (13, -5.14237484758990448519e-01) (14, -3.62393972541864251014e+00) (15, 5.27298823619916845473e+00) (16, -5.07793998069404839413e-01) (17, -1.03437116938209228145e+00) (18, -1.16371823065540791475e+00) (19, -1.21703113293956377561e+00) (20, -1.00763767029581585710e+00) (21, -3.23137243440465848909e-01) (22, 5.48641048563489830414e-01) (23, 7.74119058266529158630e-02) (24, 6.39475663869000010564e-01) (0, 7.47973942307510360206e-03) (1, 9.41253607913654644079e-01) (2, -9.47279017311723592343e+00) (3, -1.91400090375802611753e+00) (4, -1.33077762152647927074e+00) (5, -6.35917677609508680270e-01) (6, -1.21307625080945613583e-01) (7, -1.40361631181914137123e-01) (8, -2.01904373205358422805e-01) (9, 2.46312141433046738470e+00) (10, 3.35796389013757057285e+00) (11, 2.01955522949605192906e+00) (12, 1.65948267267817728410e+00) (13, -1.87449205469448237915e-01) (14, -1.78702807638682581448e+00) (15, -7.26518659484756756939e+00) (16, -2.23343322337801097888e+00) (17, -6.19462461277481279964e-01) (18, -6.45144830788767720264e-01) (19, -4.39930215104257449354e-01) (20, -5.44765529362745692943e-01) (21, 3.99890355570125954898e+00) (22, 1.53634288392746731766e+00) (23, 4.19502849191973155030e+01) (24, 2.51426206062609880476e+00) (0, -8.54760508672235499485e-04) (1, -3.28789117780290212067e+01) (2, -6.41546178549415770931e+01) (3, -7.30662356061644846505e+00) (4, -4.93651567703376947804e+00) (5, -3.88095641436814020597e-01) (6, -1.34826164586431040959e-01) (7, -1.54049388455429980826e-01) (8, -6.63174790617744591703e-02) (9, 2.64514701642093319478e+00) (10, 5.77050140158888336117e+00) (11, 4.03310133561030603744e+00) (12, 1.29305934168799097073e+00) (13, -6.01846579283574906194e-02) (14, -1.41008142888238841017e+00) (15, -1.99875480960144025211e+00) (16, -2.06854155079012214102e+00) (17, -2.31021196208752221946e-01) (18, -5.85879680230484312098e-01) (19, -5.34827832081676945997e-01) (20, -6.71873929955043691642e-01) (21, 7.88533598002976399144e-01) (22, 2.35255187424948575270e+00) (23, 6.25884230014842160017e+01) (24, 3.17930066969719327119e+00) (0, 3.52955261514826312830e-01) (1, -7.52579513371764985408e+00) (2, -2.75288435397650443903e+00) (3, -2.00297110649873078003e+00) (4, 2.08145418928468650677e+00) (5, 7.65070527273585154759e-01) (6, -2.40657407854213745146e-01) (7, -3.75036886401107771860e-01) (8, -1.70724918021405269730e-01) (9, 6.13925414141853753591e-01) (10, 1.61159308866542749783e+00) (11, 1.04123046430150534292e+00) (12, 4.92646561469149146806e-01) (13, -3.42002678419464134496e-01) (14, -3.51481358226116213928e+00) (15, 5.33264943088128884341e+00) (16, -3.59678462779912944125e-01) (17, -9.80609888308998089990e-01) (18, -1.13436672376790137484e+00) (19, -1.24932969785045200339e+00) (20, -1.04784948108222319973e+00) (21, -3.27695843621981786065e-01) (22, 1.67487248195111376736e-01) (23, 2.30813817695032473531e-02) (24, 4.73305297662702073591e-01) (0, 7.44965444662575165813e-02) (1, -3.52646109417144018039e+01) (2, -5.94547210817990148257e+01) (3, -7.25422752783100666107e+00) (4, -2.72833812810690856665e+00) (5, -2.38954312838435795063e-01) (6, -2.17198882038021290342e-01) (7, -4.06288729906208664899e-02) (8, -1.12126271176032257793e-01) (9, 2.63756687832793002002e+00) (10, 5.54497474817171820405e+00) (11, 5.28955607531668370314e+00) (12, 5.82978905541882674868e+00) (13, -2.54558914599870900197e-01) (14, -1.38119149617338909941e+00) (15, -3.90008619720699911682e+00) (16, -1.22533453095749766959e+00) (17, -2.49794413512914786901e-01) (18, -3.97433018181083230758e-01) (19, 1.55373407479984029789e-02) (20, -5.66505196258525356434e-01) (21, 6.57957966453374343274e-01) (22, 1.16203207957574061737e+00) (23, 9.65024576991852001129e+00) (24, 1.99267520218165206103e+00) (0, 6.20601345875076634839e-02) (1, -1.74590939798172262165e+00) (2, -5.52093218368363913839e+00) (3, -3.12100272932705724571e+00) (4, -1.65173687185125039889e+00) (5, -6.72629926916649578672e-01) (6, -1.59212434817924297636e-01) (7, 1.29158411680291407286e+00) (8, -1.58599388141144326259e-01) (9, 1.73531935962496253190e+00) (10, 3.52381127664047832937e+00) (11, 1.63240549914313315405e+00) (12, 6.33296773700240756000e+00) (13, 5.76632961664857585093e-02) (14, -8.18460708705898154491e-01) (15, -8.67419914425799731816e+00) (16, -2.75621298949788018362e+00) (17, -5.59577351378442000573e-01) (18, -5.73496618717899697693e-01) (19, -5.64040370100888033278e-01) (20, -5.39986817700611299031e-01) (21, 1.25653255161716903565e+00) (22, 1.79599936806454985039e+00) (23, 4.52572101657276988362e+01) (24, 1.53659207718129975362e+00) (0, 9.25184154975878109139e-02) (1, -7.52636552438182793168e+00) (2, -1.19981233992694882318e+01) (3, -1.20077205632761430110e+01) (4, -7.14345724535126080923e+00) (5, -1.44314277306364835418e+00) (6, -4.33623859411969181377e-01) (7, -3.47816209344385951496e-01) (8, -4.53834454015108856861e-01) (9, 5.15682166350460269300e-01) (10, 2.25146539915627963424e+00) (11, 1.13025804537755858448e+00) (12, 5.21193255764588414536e-01) (13, -3.08021778816792324296e-01) (14, -3.18678913788674478269e+00) (15, -1.73928311741085295239e+01) (16, -2.17036247578819363468e+00) (17, -1.05683813389700698160e+00) (18, -1.20913591976927325966e+00) (19, -1.09112193644625055100e+00) (20, -1.20682327302087832877e+00) (21, -3.02867833571357158995e-01) (22, -1.44336617397459510137e-01) (23, 2.09428480963394481051e+00) (24, 8.24101922617012316863e-01) (0, 3.12888453052683368494e-01) (1, -7.64336982549010457433e+00) (2, -2.85149743732378846417e+00) (3, -2.66660227376195280158e+00) (4, 2.09529921859144874219e+00) (5, 5.86694519908907308192e-01) (6, -2.52842579377267284713e-01) (7, -3.67978600942594435974e-01) (8, -1.93491746558392574418e-01) (9, 4.58276979907210169074e-01) (10, 1.83430937116486836302e+00) (11, 1.25942231030834572714e+00) (12, 3.75578710963093809205e-01) (13, -2.43143301458422084194e-01) (14, -2.75685437475474692803e+00) (15, 5.40861753250196208853e+00) (16, -1.90129869318400951395e-01) (17, -9.64559339708820795423e-01) (18, -1.14706765606745419994e+00) (19, -1.32805545061728103029e+00) (20, -1.05473530943219340195e+00) (21, -2.80751141755779032305e-01) (22, 2.13650377022903681379e-01) (23, -3.05041321859207195666e-02) (24, 4.40648978223290910261e-01) (0, 3.60553757430683019525e-01) (1, -9.27537311984526269271e+00) (2, -1.06703563491455177825e+01) (3, -1.05011110406994916389e+01) (4, -5.69597249055491250402e+00) (5, -1.12298828414678530940e+00) (6, -3.09304747961642700904e-01) (7, -2.53901759347275601808e-01) (8, -2.90735249860930633492e-01) (9, 4.96814507389149839778e-01) (10, 9.04932671045709957625e-01) (11, 1.06407609340092812467e+00) (12, 4.50828109489897765894e-01) (13, -3.20716466968239910518e-01) (14, -4.41701060966750258530e+00) (15, -1.36892713774615533140e+01) (16, -3.59997310349856114442e+00) (17, -1.29125540712041986247e+00) (18, -1.30557967419027187717e+00) (19, -1.45382506121762400397e+00) (20, -1.42316707363727168456e+00) (21, -2.41788638110654846569e-01) (22, 3.02679249163471941753e-02) (23, 6.01337189624063683802e-01) (24, 7.83506803678468588537e-01) (0, 3.00942896945633309169e-01) (1, -8.27377766502898914780e+00) (2, -3.78254612264902556618e+00) (3, -3.51329494562385136192e+00) (4, 2.02781940957178097307e+00) (5, 6.47541770350312129167e-01) (6, -1.21795447329965333960e-01) (7, -2.28016445128760375516e-01) (8, -2.48222196453752180778e-01) (9, 3.87469296325996970243e-01) (10, 8.94478186129534891258e-01) (11, 9.61464533838748636185e-01) (12, 4.14832680923573948739e-01) (13, 7.39595225463945649125e+00) (14, 2.40574657877781739046e+01) (15, 1.51777756228694449270e+00) (16, -8.42076735703891188223e-01) (17, -1.16700482332377419858e+00) (18, -6.45775751906041151074e+00) (19, -1.42882520591504191820e+00) (20, -5.61057182948967447800e+00) (21, 1.86309249638651475145e-01) (22, -9.36352436584197356240e+00) (23, 1.42558240229811499233e+01) (24, 5.85599584375689485860e-01) (0, 1.86989450961752096125e-01) (1, -1.96814591264218989863e+01) (2, -1.03935108878252862041e+01) (3, -4.35239018958790246927e+00) (4, -5.69530662112982533074e+00) (5, -7.57880546685139266927e-01) (6, -2.17183320724781026012e-01) (7, -1.88079664145826136457e-01) (8, -5.82310951829599132701e-01) (9, 5.60041918266300009499e-01) (10, 2.52334515486047505917e+00) (11, 2.32885463851208962538e+00) (12, 7.33792307761405582234e-01) (13, -5.80768255914480335811e-01) (14, -9.91291307718563996509e-01) (15, -1.48333844651252864111e+01) (16, -1.51676555028085147114e+00) (17, -5.59138242372418936554e-01) (18, -6.00570890711246363480e-01) (19, -6.50365799727356086457e-01) (20, -6.44417227673900083751e-01) (21, -1.15549454063789535513e-02) (22, 2.70418634960109982579e-01) (23, 5.63038336458089005987e+00) (24, 6.65371136746814140217e-01) (0, 2.45375315591480985811e-01) (1, -7.81905158699171565218e+00) (2, -2.77036543462289097661e+00) (3, -2.67371394826294483948e+00) (4, 1.89631529330235282238e+00) (5, 7.61266424733568980443e-01) (6, -3.38682294380629800301e-01) (7, -2.27322722340432659127e-01) (8, -2.95586722668765233824e-01) (9, 5.54752921633103301957e-01) (10, 1.83158169870717335570e+00) (11, 1.52203618018413155966e+00) (12, 5.19138021196943078017e-01) (13, -3.03155959701437549558e-01) (14, -2.83518979585521568865e+00) (15, 5.26363744553724366426e+00) (16, -3.38364285117778773593e-01) (17, -9.67257404043005419858e-01) (18, -1.19616185544688757858e+00) (19, -1.28536446816037708274e+00) (20, -1.30022090861731176581e+00) (21, -2.71980016718358030836e-01) (22, 6.17877932489793724180e-01) (23, -1.12981561914592659734e-01) (24, 6.45696109839778875639e-01) (0, -1.22790188391764543141e+00) (1, -4.35095461658431759133e+00) (2, -3.88085180072942836915e+00) (3, -3.88111424108008495892e+00) (4, -9.39780184650550509673e+00) (5, -4.07067054769249914159e+00) (6, -1.52485636602369201142e+00) (7, -3.77940364939989770221e+00) (8, -3.66862737829411944546e+00) (9, -5.35940713190680040334e-01) (10, 4.88346760714441441298e-01) (11, 1.53141371276286103464e-01) (12, -1.66498638325910963687e+00) (13, -2.25773988471576814163e+00) (14, -3.19162184269168935913e+00) (15, -4.44149421581783698798e+00) (16, -2.22502364736715074756e+00) (17, -2.01800244970740383366e+00) (18, -2.33171072920521815774e+00) (19, -3.13767722719168284939e+00) (20, -3.59297378675211520616e+00) (21, -3.83406790710197764582e+00) (22, -1.20815525132472889602e+00) (23, 2.48735518733286420368e-01) (24, -1.27511910098174885420e+00) (0, 2.47605598178247343633e-01) (1, -1.70662500458510346668e+00) (2, -2.20147353871551709759e+00) (3, -1.48645032218451600414e+00) (4, -5.95453265776055173930e-01) (5, -3.72552675106873010247e-01) (6, -1.42765261000541536507e-02) (7, -1.82754213283735811313e-01) (8, -1.23731354088176370709e-01) (9, 1.80853068047956999642e+00) (10, 4.03149502491289535300e+00) (11, 3.73289378769764201849e+00) (12, 1.05822138655246344996e+00) (13, -1.51027827274704151694e-01) (14, -2.01485057410375079101e+00) (15, -9.40422192892283881349e+00) (16, -2.48914192178492887919e+00) (17, -6.34866781306578698008e-01) (18, -5.74269965230769008357e-01) (19, -3.53658585698737426561e-01) (20, -6.13870802497123224661e-01) (21, 4.19768557205153314271e+00) (22, 1.75111664548989431900e+00) (23, 4.18940691635558550843e+01) (24, 1.76103731449595035663e+00) (0, 6.53282740245187537598e-03) (1, -3.14226215711410752363e+01) (2, -4.05861509387595376097e+01) (3, -7.50808183399191264584e+00) (4, -7.69665501539151986066e+00) (5, -7.49350984776011919131e-01) (6, -2.75241081403598319977e-01) (7, -3.17467894069325573536e-01) (8, -3.21391068877765417877e-01) (9, 2.46086189347259592930e-01) (10, 3.12850806800404956931e+00) (11, 1.47628297022910959235e+00) (12, 7.33629872599705357139e-02) (13, -6.13063736104747403211e-01) (14, -2.87863103895564531598e+00) (15, -9.64001586569741242272e+00) (16, -1.54954316375701739439e+00) (17, -6.21844186846201574248e-01) (18, -6.36579373817065308216e-01) (19, -5.47143508661809496729e-01) (20, -5.07338139835657786492e-01) (21, -1.19975575297884967663e-01) (22, 2.61163565112139617330e-01) (23, 6.24769501414846217813e+00) (24, 7.60174908626198186923e-01) (0, 1.82933729079647250382e-01) (1, -3.09510760516290659439e+01) (2, -3.79327769080451844275e+01) (3, -6.97868447186077300870e+00) (4, -7.18866655857700731502e+00) (5, -7.42341232680982732184e-01) (6, -2.52860347249349914911e-01) (7, -2.42288879853527122643e-01) (8, -4.93470325239567186859e-01) (9, 5.31989632219297958748e-01) (10, 4.01204745411026664215e+00) (11, 1.57763847419133473871e+00) (12, 5.67472549812870652453e-01) (13, -4.71148376729581597200e-01) (14, -2.17939504882592149926e+00) (15, -8.99259821710986528842e+00) (16, -1.45473145570564810214e+00) (17, -5.77600819356942518645e-01) (18, -5.90357221664824738383e-01) (19, -5.11759400420066845605e-01) (20, -6.07481816332117952051e-01) (21, 7.95389580841733612182e-01) (22, 3.72862659645784078055e-01) (23, 5.91168769779514136076e+00) (24, 1.13979920660371969454e+00) (25, 1.40946081814227994755e+02) (26, -6.34464294944040041457e+00) (27, -1.50423453678899976538e+00) (28, 2.60287487191702648914e+00) (29, 2.68711965961005017078e+00) (30, -7.88696961608227464779e+00) (31, -1.17595899922675410920e+01) (32, 2.69105850590016171253e+00) (33, -6.53672897403411479189e+00) (34, -3.79807800094495684462e+00) (35, 2.00167251408557632431e+02) (36, 2.61825945548736749302e+00) (37, 1.96596273230147289723e+02) (38, -6.02277724771905997869e-01) (39, -3.94411749031884482974e+02) (40, 2.62002453528368173252e+00) (41, 1.50000000000000000000e+03) (42, -4.90773073127985082209e+00) (43, 2.82067075204062575722e+02) (44, 1.81258837596199413156e+02) (45, 3.64125211897006195727e+00) 
