FANN_FLO_2.1
num_layers=3
learning_rate=0.700000
connection_rate=1.000000
network_type=0
learning_momentum=0.000000
training_algorithm=2
train_error_function=1
train_stop_function=0
cascade_output_change_fraction=0.010000
quickprop_decay=-0.000100
quickprop_mu=1.750000
rprop_increase_factor=1.200000
rprop_decrease_factor=0.500000
rprop_delta_min=0.000000
rprop_delta_max=50.000000
rprop_delta_zero=0.100000
cascade_output_stagnation_epochs=12
cascade_candidate_change_fraction=0.010000
cascade_candidate_stagnation_epochs=12
cascade_max_out_epochs=150
cascade_max_cand_epochs=150
cascade_num_candidate_groups=2
bit_fail_limit=3.49999999999999977796e-01
cascade_candidate_limit=1.00000000000000000000e+03
cascade_weight_multiplier=4.00000000000000022204e-01
cascade_activation_functions_count=10
cascade_activation_functions=3 5 7 8 10 11 14 15 16 17 
cascade_activation_steepnesses_count=4
cascade_activation_steepnesses=2.50000000000000000000e-01 5.00000000000000000000e-01 7.50000000000000000000e-01 1.00000000000000000000e+00 
layer_sizes=27 17 2 
scale_included=0
neurons (num_inputs, activation_function, activation_steepness)=(0, 0, 0.00000000000000000000e+00) (0, 0, 0.00000000000000000000e+00) (0, 0, 0.00000000000000000000e+00) (0, 0, 0.00000000000000000000e+00) (0, 0, 0.00000000000000000000e+00) (0, 0, 0.00000000000000000000e+00) (0, 0, 0.00000000000000000000e+00) (0, 0, 0.00000000000000000000e+00) (0, 0, 0.00000000000000000000e+00) (0, 0, 0.00000000000000000000e+00) (0, 0, 0.00000000000000000000e+00) (0, 0, 0.00000000000000000000e+00) (0, 0, 0.00000000000000000000e+00) (0, 0, 0.00000000000000000000e+00) (0, 0, 0.00000000000000000000e+00) (0, 0, 0.00000000000000000000e+00) (0, 0, 0.00000000000000000000e+00) (0, 0, 0.00000000000000000000e+00) (0, 0, 0.00000000000000000000e+00) (0, 0, 0.00000000000000000000e+00) (0, 0, 0.00000000000000000000e+00) (0, 0, 0.00000000000000000000e+00) (0, 0, 0.00000000000000000000e+00) (0, 0, 0.00000000000000000000e+00) (0, 0, 0.00000000000000000000e+00) (0, 0, 0.00000000000000000000e+00) (0, 0, 0.00000000000000000000e+00) (27, 4, 5.00000000000000000000e-01) (27, 4, 5.00000000000000000000e-01) (27, 4, 5.00000000000000000000e-01) (27, 4, 5.00000000000000000000e-01) (27, 4, 5.00000000000000000000e-01) (27, 4, 5.00000000000000000000e-01) (27, 4, 5.00000000000000000000e-01) (27, 4, 5.00000000000000000000e-01) (27, 4, 5.00000000000000000000e-01) (27, 4, 5.00000000000000000000e-01) (27, 4, 5.00000000000000000000e-01) (27, 4, 5.00000000000000000000e-01) (27, 4, 5.00000000000000000000e-01) (27, 4, 5.00000000000000000000e-01) (27, 4, 5.00000000000000000000e-01) (27, 4, 5.00000000000000000000e-01) (0, 0, 0.00000000000000000000e+00) (17, 6, 5.00000000000000000000e-01) (0, 6, 0.00000000000000000000e+00) 
connections (connected_to_neuron, weight)=(0, 5.62238834356472080844e-02) (1, -3.95317907108780941527e+00) (2, -3.55807787038519851563e+00) (3, 1.71683848148384066157e+00) (4, 6.52892572341764121369e-01) (5, 2.01534434856857347373e-01) (6, 1.56251792889612522997e-01) (7, 6.33192493055725891260e-02) (8, 3.33837867033501933811e-01) (9, 3.41570756247278062290e-02) (10, 3.87022872379372773199e-01) (11, 1.66890792043369695641e+00) (12, 2.36443724836766344666e+00) (13, 5.66797760771642233912e-01) (14, -7.50441871730042897592e-02) (15, 3.79166272497912082429e+00) (16, 2.77501384571785880695e+00) (17, 3.48030909073056626823e+00) (18, 4.12375953014668183982e+00) (19, -2.02782830151885384851e+00) (20, -1.74777584308035693894e+00) (21, -2.25637441005381605974e-01) (22, -1.38007090234701867981e-01) (23, 1.25657622140523145271e-01) (24, 5.13316271355612308014e-01) (25, 2.72890294023648083410e+00) (26, 1.28475389648430482481e+00) (0, 9.65483693042881840896e-01) (1, -2.70426553845468689019e+01) (2, -2.67959685688835271833e+01) (3, -1.19860002546952060243e+01) (4, -5.13234825362291813278e-01) (5, -2.17892200066147123660e-01) (6, -1.40223607324105076222e-01) (7, 3.70508695447080815821e-01) (8, 4.21274042784333946354e-01) (9, 4.66962754254385103980e-01) (10, 1.25241397604214266259e+00) (11, 4.11812660574362965349e+00) (12, 1.34199781721411848245e+00) (13, 7.99631787953141159875e-01) (14, 5.70074558911796813732e-01) (15, 7.41009637901575424213e-02) (16, -2.05625892272342314371e+00) (17, -2.10110566281997446225e+00) (18, 1.57101735222768573719e-01) (19, 4.52232937227308506856e-01) (20, 2.22917442883204357240e-02) (21, 4.31890070565651484902e-01) (22, 4.96403684993311444806e-01) (23, 8.17420709494255270933e-01) (24, 9.81958819925864756506e-01) (25, 7.20998266094255857439e+00) (26, 9.48050145613280270673e-01) (0, 5.04351511110838091057e-01) (1, -2.03764884087593323159e+01) (2, -2.03929052948350424401e+01) (3, -2.04218652344810962518e+01) (4, -3.33827546611302872215e-01) (5, -1.96539812707245437062e-01) (6, 8.71149957757497706012e-02) (7, 4.14272749345329427406e-01) (8, 6.47829911331045837919e-01) (9, 6.34659518728964866519e-01) (10, 1.46878407150122147762e+00) (11, 3.80692515394680386365e+00) (12, 1.40899880159122115053e+00) (13, 7.78449162409099559845e-01) (14, 4.50184652314688460439e-01) (15, 3.60774137542178630067e-01) (16, -1.61727618135385409204e+00) (17, -1.50447082974313017800e+00) (18, 5.66256820123183235438e-01) (19, 2.72551897163138878710e-01) (20, 1.66460460336035342976e-01) (21, 5.73147135702101628851e-01) (22, 6.75003170875087210590e-01) (23, 8.00469161083831370895e-01) (24, 7.26835538420385174341e-01) (25, 5.76361344233141004167e+00) (26, 8.15281784367054784823e-01) (0, 2.88612057852499770405e-01) (1, -2.29651390461774562723e+00) (2, -8.93546646277814105019e-01) (3, -3.37552576434928752747e+00) (4, -8.08450518511809601563e-01) (5, -4.13396492689529493347e-01) (6, -2.89944165227854933065e-01) (7, 6.63329446591709726011e-02) (8, 1.25949731127351655796e-03) (9, -4.29440568556287080582e-02) (10, 2.55974531364034385561e+00) (11, 4.62202441725616974821e+00) (12, 2.11786193157100388618e+00) (13, 9.27771674716234229230e-01) (14, -4.01106235341816760864e-02) (15, -2.34541918879593547231e+00) (16, -3.83544527361357046047e+00) (17, -5.17576052364293115460e+00) (18, -1.47509854542471852135e+00) (19, -5.36286369227990999953e-01) (20, -8.75145234119143244911e-01) (21, -2.63043807327122014517e-01) (22, -7.86790833146443768786e-02) (23, 1.47807720239031048504e-01) (24, 8.12124841754076176592e-01) (25, 1.48684443604546228102e+01) (26, 2.84956549255259394826e+00) (0, 6.74180846763896113316e-01) (1, -1.58689467671592208120e+01) (2, -1.00299624769656414713e+01) (3, -3.62099679449472766635e+00) (4, -1.25416508943636895168e+00) (5, -1.26230499010877933452e-01) (6, 5.42305507353977624130e-03) (7, 2.96856307908247796234e-01) (8, 2.84047500778082662176e-01) (9, 3.48539872273171458250e-01) (10, 2.30430595380739777767e+00) (11, 4.94990536891632260108e+00) (12, 1.21627501218939504390e+00) (13, 1.49082551427001264166e+00) (14, 5.85960950922102652427e-01) (15, -3.27375029291054775449e-01) (16, -3.44049053818270555993e+00) (17, -3.46118801296405864676e+00) (18, -9.44549304675339707060e-01) (19, 1.28505155298262840891e-01) (20, -2.88046605464053862011e-01) (21, 2.24710618103625803244e+00) (22, 7.18357880506990453817e-01) (23, 1.26645743148672051959e+00) (24, 1.42152539089693741303e+00) (25, 4.18285446500931712421e+00) (26, 1.34691189799051369569e+00) (0, 2.94477075870853532980e-01) (1, -1.51687218639626681949e+01) (2, -1.50229134344911248178e+01) (3, -6.09095265066958102551e+00) (4, -2.20762072543196197216e+00) (5, -1.22052674715456443977e+00) (6, -2.04325677174980513406e-01) (7, 3.05429812056107252705e-01) (8, 4.15430709374937978673e-01) (9, 2.16813020734613115525e-01) (10, 1.21308117760307365707e+00) (11, 5.04657762372789608918e+00) (12, 1.83339991467981433537e+00) (13, 5.13015392636253619862e-01) (14, 2.57059868236500066452e-01) (15, 6.18211906478078748739e-02) (16, -3.04083509871467283503e+00) (17, -2.14360019815454494463e+00) (18, -5.87143652791319081707e-01) (19, -4.03542451652508682436e-01) (20, -2.21045567803641346272e-01) (21, 4.59693085355308672657e-01) (22, 2.93059069941919936308e-01) (23, 3.73814396110848157218e-01) (24, 2.49038901122263656163e+00) (25, 5.68170083126630132142e+00) (26, 4.55416897425507061214e-01) (0, 9.26161430447367650665e-01) (1, -2.68921032593253279686e+01) (2, -2.66429983974192090557e+01) (3, -1.19638027632721968274e+01) (4, -6.00593754543989000183e-01) (5, -2.79256092228750807394e-01) (6, 9.99898612580648882275e-02) (7, 3.78238348695026371793e-01) (8, 5.35240244165437584201e-01) (9, 7.32405742329749864794e-01) (10, 1.22743267213297846396e+00) (11, 2.37893729071260962016e+00) (12, 1.26782103585677674573e+00) (13, 9.18461144758236369690e-01) (14, 6.89294809629580451649e-01) (15, 5.15125202995285330632e-02) (16, -2.21960944739347798560e+00) (17, -2.19552392442650345927e+00) (18, -1.23160222734879656881e-01) (19, 5.76362927404348912575e-01) (20, 5.41392717782154142547e-01) (21, 9.54739324815895296084e-01) (22, 9.74017019402209638379e-01) (23, 7.41677961669767960018e-01) (24, 1.00782977177878740882e+00) (25, 7.38686728341280485211e+00) (26, 9.80513978884401948832e-01) (0, -3.51119564755961177660e-01) (1, -1.55248816027631129089e+01) (2, -1.64817237773545812729e+01) (3, -4.19567804482891393292e+00) (4, -1.72356183287246311764e+00) (5, -3.54441618543555325704e-01) (6, -3.86478425172296968793e-01) (7, -1.46504060417524106796e+00) (8, -7.74440669350114463398e-01) (9, -4.61254591764094612483e-01) (10, 3.15395453468398478947e-01) (11, -5.19638159904781349319e-01) (12, 1.52737839902888872246e+00) (13, 3.19782343775557920118e-01) (14, -2.48125832675569091279e-01) (15, 5.21766307844566679108e+00) (16, -3.69950158061217404537e+00) (17, -5.73879690596449432149e+00) (18, -5.72769629394256085675e+00) (19, -5.53827887926125406182e+00) (20, 6.04058366658720657938e+00) (21, -2.49982022175533169506e-01) (22, -6.31160922656831879785e-01) (23, -3.20951650144463696002e-01) (24, 3.68395085210337203119e-01) (25, -2.00227564919189937598e+00) (26, -1.54022977426217244634e+00) (0, 6.81491063120621021199e-01) (1, -2.70937592688819357534e+01) (2, -2.71892962075185700144e+01) (3, -6.15561727124171653713e+00) (4, -9.82556429570758838032e-01) (5, -3.11748045516643201847e-01) (6, 3.64543266709188573671e-03) (7, 1.51406059969501016749e-01) (8, 2.78908051521820965490e-01) (9, 5.69311378634486109362e-01) (10, 1.24841978926423613494e+00) (11, 3.87681912104586157142e+00) (12, 1.08087937973146019921e+00) (13, 1.19595288303473035185e+00) (14, 5.62157050428863658276e-01) (15, 2.56351307607700862334e-01) (16, -2.56332628952158758651e+00) (17, -2.59577359062117052346e+00) (18, 1.15590978468198490869e-01) (19, 3.57237468737841068478e-01) (20, 1.04658979634349891263e-01) (21, 5.82283699778387009438e-01) (22, 5.83321191612739209376e-01) (23, 6.95966284292228176689e-01) (24, 1.33717301654212028517e+00) (25, 1.50271772947212163274e+01) (26, 8.36330310053381320579e-01) (0, 6.69094847473142961825e-01) (1, -2.71284972924393663618e+01) (2, -2.72072004361709645082e+01) (3, -1.49800242069966902392e+01) (4, -4.42946555579033784955e-01) (5, -3.32218510270096745174e-01) (6, -1.97408950868222764219e-02) (7, 3.34537190598527101049e-01) (8, 4.14783063997952838875e-01) (9, 4.07348639791055733284e-01) (10, 2.35652367419520070158e+00) (11, 4.07842605506424948913e+00) (12, 1.39483627942792720589e+00) (13, 9.03259812860752520081e-01) (14, 3.90750150565479348330e-01) (15, -4.90464906029873304316e-01) (16, -1.53606414645760347426e+00) (17, -1.59224565923064043105e+00) (18, 2.89390793950613289809e-01) (19, 3.49182920043894617912e-01) (20, 7.03378534491418822006e-02) (21, -1.33657342844422849515e-01) (22, -5.51479253350671896894e-02) (23, 5.80353892254165448783e-01) (24, 7.69064648198868883178e-01) (25, 7.18597215169001035662e+00) (26, 9.87123396801081853802e-01) (0, 8.25814963210677932537e-01) (1, -2.06141623013310706369e+01) (2, -2.03758513403213967763e+01) (3, -2.07968861850176445216e+01) (4, -2.53413057831083754490e-01) (5, -1.26102104956262672797e-01) (6, 2.65622811798362834512e-01) (7, 4.38583434728003873637e-01) (8, 4.32734092655077451361e-01) (9, 4.82791964525695727062e-01) (10, 1.10915810348885290892e+00) (11, 3.74933266806128395743e+00) (12, 1.38605737156152253320e+00) (13, 7.84417543702634390002e-01) (14, 4.83324967953891793115e-01) (15, 7.65435271028118424663e-02) (16, -2.08212766749565858504e+00) (17, -9.53391459625509529729e-01) (18, 1.47747474452670113365e-01) (19, 1.33720274110473513751e+00) (20, -2.17033701367612408273e-01) (21, 9.42725891290903006414e-01) (22, 7.15942981407068690380e-01) (23, 6.79877352035764159766e-01) (24, 9.06422249287768266868e-01) (25, 5.27304765668587993588e+00) (26, 8.90710591872937218483e-01) (0, 2.97334069153175201139e-02) (1, -8.46400125772851019690e+00) (2, -8.19198696127024739155e+00) (3, -2.66971542529657102083e-01) (4, -9.59609469889585904590e-03) (5, -5.88293760905328547151e-02) (6, 5.54951650031001858521e-02) (7, -2.09553333939431180033e-01) (8, -6.99972522854425543981e-02) (9, 5.38099528607479948850e-02) (10, 1.27834721438662124449e+00) (11, 1.50530535977036916684e+00) (12, 1.88397221778316348306e+00) (13, 1.07560599969851261593e-01) (14, 9.48093691856279202623e-02) (15, -2.13449458957254067926e+00) (16, 2.85023483641142716394e-01) (17, 1.77350811178103334731e-01) (18, -8.08088325959659181663e-01) (19, -1.49838879884360554051e+00) (20, -1.04287027510818353093e+00) (21, -8.35492528065121642378e-01) (22, -6.48739601081150807360e-01) (23, -1.61464602524699990527e-01) (24, 7.31059638124319510766e-02) (25, -3.02538453599131340610e+00) (26, 6.84964795028506934216e-01) (0, 5.92854601634316691339e-01) (1, -2.72568674709710592197e+01) (2, -2.72611711802965039908e+01) (3, -1.49975264414000317714e+01) (4, -3.73093534332079590499e-01) (5, -1.23482465976933436513e-01) (6, 1.07742745754144025883e-01) (7, 3.97708995703609458072e-01) (8, 2.34834952715785721944e-01) (9, 3.66182767075704906912e-01) (10, 2.19303515716375052591e+00) (11, 3.97181240886179276472e+00) (12, 2.18334581342332167964e+00) (13, 1.35397891890981258989e+00) (14, 2.73369877109615189159e-01) (15, -4.48941055387305221203e-01) (16, -1.60083289858054755861e+00) (17, -1.66687880523908238395e+00) (18, -1.50673567378100470293e+00) (19, 1.38930760998109414928e+00) (20, 2.62887063521992814241e-01) (21, 9.62916544817784270105e-02) (22, 8.36211757311644404700e-02) (23, 7.66222440035862595309e-01) (24, 7.45365565875977353905e-01) (25, 1.49482153310403020896e+01) (26, 8.84500638212374123981e-01) (0, 7.34470377824160025604e-01) (1, -2.37040339358057927654e+00) (2, -3.46921909423533758599e+00) (3, -3.40218160783227219213e+00) (4, -7.03132128758202190610e-01) (5, -1.97533438935245886370e-01) (6, -1.86790012304866748227e-01) (7, -7.39176935558640418877e-02) (8, -1.65884632678870574951e-01) (9, -9.21040309460384974682e-03) (10, 1.84661770442574901807e+00) (11, 2.55394383545306258299e+00) (12, 1.80256254684654892984e+00) (13, 1.38548647742536057414e+00) (14, 1.73077547942621506882e-01) (15, -3.38416806035800821206e-01) (16, -4.90334681910617398160e+00) (17, -6.52147474417927419665e+00) (18, -2.76139008930928753216e+00) (19, -5.11356044524537978191e-01) (20, -4.52631785575456302428e-01) (21, 1.06971548603564114988e-02) (22, -5.40681290965664210213e-02) (23, 4.82744076511032516041e-01) (24, 1.07635543667594224537e+00) (25, 8.46539347914766580061e+01) (26, 1.97285350202736986525e+00) (0, 5.88050957266518375954e-02) (1, -5.36019770549769614121e+00) (2, -5.10855619517619885528e+00) (3, 1.15197068799406086015e+01) (4, 1.17735733449271157136e-01) (5, 3.82159167936263685639e-02) (6, 8.73452087745281297027e-02) (7, -3.08627514536900626752e-01) (8, -7.76691351396314177968e-02) (9, 5.54076237616823522036e-02) (10, 3.44635913767729284984e-01) (11, 1.52518519403475849572e+00) (12, 2.10883812596037056863e+00) (13, 1.92323675311536795851e-01) (14, -3.01142929287625954471e-02) (15, -1.38732683425014435841e+01) (16, 1.17820576113396935369e+00) (17, 4.42885769942482687700e-01) (18, -2.92313581512919917760e-01) (19, -1.22691836110539798099e+00) (20, 7.60590655376165658552e-01) (21, -1.40722245910061771745e-01) (22, -4.93135238913725404419e-01) (23, -3.78860656307850179880e-02) (24, 2.47680597467095114927e-01) (25, -5.33507685179376744955e-01) (26, 4.52908259382813038751e-01) (0, -9.04480495878168255786e-02) (1, -4.44504337368834345767e+00) (2, -4.48308701472123782850e+00) (3, 1.22662406008971824889e+00) (4, 3.00912677433109565506e-01) (5, 1.00507598774285902832e-01) (6, 1.51977467617880307449e-01) (7, -3.38181622777557699955e-01) (8, 2.22456862292131490877e-01) (9, 1.68216891571525056781e-01) (10, 3.01705605801861398430e-01) (11, 1.21713731329335694831e+00) (12, 2.54790472920088184594e+00) (13, 2.65057742269263152401e-01) (14, -3.45864424650462576327e-01) (15, -1.72830945363461951914e+00) (16, 2.23003966444559331705e+00) (17, 2.84571813940723483682e+00) (18, 2.29395388062443439381e+00) (19, -4.20593922232738925970e+00) (20, -1.73660541914218335968e+00) (21, -5.18164143929914500220e-01) (22, -4.51748934527902212821e-01) (23, -1.72626636464295574180e-01) (24, 4.68040539781051034840e-01) (25, -3.95051518069239282482e+00) (26, 9.24133720857578055963e-01) (27, -3.79789476253659641358e+00) (28, -4.46286296040545416020e+00) (29, -1.57002790026476612972e+00) (30, -5.38769348711085171999e+00) (31, -1.64434218061803560929e+00) (32, -1.38125388664889081625e+00) (33, -2.30546832249965483186e+00) (34, 6.00000000000000000000e+02) (35, -1.67178344037046811010e+00) (36, -4.40193970442543935917e+00) (37, -1.40766541018957047626e+00) (38, -1.29406943338940383370e+00) (39, -2.10101490137593893692e+00) (40, -2.22103850838590517469e+01) (41, 1.06960241591306264297e+01) (42, 1.05507601948645923784e+01) (43, 3.30354903821583523182e+00) 
