FANN_FLO_2.1
num_layers=3
learning_rate=0.700000
connection_rate=1.000000
network_type=0
learning_momentum=0.000000
training_algorithm=2
train_error_function=1
train_stop_function=0
cascade_output_change_fraction=0.010000
quickprop_decay=-0.000100
quickprop_mu=1.750000
rprop_increase_factor=1.200000
rprop_decrease_factor=0.500000
rprop_delta_min=0.000000
rprop_delta_max=50.000000
rprop_delta_zero=0.100000
cascade_output_stagnation_epochs=12
cascade_candidate_change_fraction=0.010000
cascade_candidate_stagnation_epochs=12
cascade_max_out_epochs=150
cascade_max_cand_epochs=150
cascade_num_candidate_groups=2
bit_fail_limit=3.49999999999999977796e-01
cascade_candidate_limit=1.00000000000000000000e+03
cascade_weight_multiplier=4.00000000000000022204e-01
cascade_activation_functions_count=10
cascade_activation_functions=3 5 7 8 10 11 14 15 16 17 
cascade_activation_steepnesses_count=4
cascade_activation_steepnesses=2.50000000000000000000e-01 5.00000000000000000000e-01 7.50000000000000000000e-01 1.00000000000000000000e+00 
layer_sizes=7 8 2 
scale_included=0
neurons (num_inputs, activation_function, activation_steepness)=(0, 0, 0.00000000000000000000e+00) (0, 0, 0.00000000000000000000e+00) (0, 0, 0.00000000000000000000e+00) (0, 0, 0.00000000000000000000e+00) (0, 0, 0.00000000000000000000e+00) (0, 0, 0.00000000000000000000e+00) (0, 0, 0.00000000000000000000e+00) (7, 4, 5.00000000000000000000e-01) (7, 4, 5.00000000000000000000e-01) (7, 4, 5.00000000000000000000e-01) (7, 4, 5.00000000000000000000e-01) (7, 4, 5.00000000000000000000e-01) (7, 4, 5.00000000000000000000e-01) (7, 4, 5.00000000000000000000e-01) (0, 0, 0.00000000000000000000e+00) (8, 6, 5.00000000000000000000e-01) (0, 6, 0.00000000000000000000e+00) 
connections (connected_to_neuron, weight)=(0, -3.36112881810779811076e+01) (1, 8.65448806576230467158e+00) (2, 2.45173631503824829281e+00) (3, -4.78642788926260376314e+00) (4, -1.06920502138182618723e-01) (5, 4.76565438083800216873e+01) (6, 1.20238091738644237161e+00) (0, -6.21196342961825553886e+00) (1, 1.90595415147048452553e+00) (2, 1.39039194767922347218e+00) (3, -8.83828107536794682630e+00) (4, 6.22998849119229625160e+00) (5, 8.73347207257785811407e+01) (6, -1.15466155295649364199e+00) (0, -1.70752047778277322720e+01) (1, 7.32816855524321564275e+00) (2, 7.57947168648204083752e+00) (3, -3.89005659007793980209e+00) (4, -1.38334613874966940728e+01) (5, -1.17402994037580810094e-01) (6, 1.82279704193689418013e+00) (0, -6.19963416608132344976e+00) (1, 1.91518689009719267347e+00) (2, 1.34104554379639262507e+00) (3, -9.62891611443625805578e+00) (4, 6.37570909441629485315e+00) (5, 7.74203320092586864121e+01) (6, -9.05233048690830321981e-01) (0, -5.88725689805940444188e+00) (1, 2.66364795932915265908e+00) (2, 1.47231514711098232517e+00) (3, -1.22387877280890684517e+01) (4, 5.98016519502693810750e+00) (5, 5.45533612286854960871e+01) (6, 4.61755385532453266340e-01) (0, -1.29342915881244397980e+01) (1, -3.95451282905020384817e+00) (2, -4.81489279761083732723e+00) (3, -5.28737946641753175925e+00) (4, -1.33684157195069186486e+01) (5, 1.78331463879313534271e+00) (6, 1.12279511151078770226e+00) (0, -6.03895244935990493929e+00) (1, 2.53752603030180967636e+00) (2, 1.37060974024974169261e+00) (3, -1.05030680465445023231e+01) (4, 5.49192759160928112294e+00) (5, 5.59847986897244069837e+01) (6, -1.74171606658081595809e-01) (7, -1.57741136220172766258e+01) (8, -1.12791919029090657034e+01) (9, -2.38983332057229880263e+01) (10, -1.38656989116510125370e+01) (11, -3.72632909941230261452e+00) (12, -2.26174265382189787488e+01) (13, -3.43504023486223664108e+00) (14, 1.23347809429707240270e+01) 
