FANN_FLO_2.1
num_layers=3
learning_rate=0.700000
connection_rate=1.000000
network_type=0
learning_momentum=0.000000
training_algorithm=2
train_error_function=1
train_stop_function=0
cascade_output_change_fraction=0.010000
quickprop_decay=-0.000100
quickprop_mu=1.750000
rprop_increase_factor=1.200000
rprop_decrease_factor=0.500000
rprop_delta_min=0.000000
rprop_delta_max=50.000000
rprop_delta_zero=0.100000
cascade_output_stagnation_epochs=12
cascade_candidate_change_fraction=0.010000
cascade_candidate_stagnation_epochs=12
cascade_max_out_epochs=150
cascade_max_cand_epochs=150
cascade_num_candidate_groups=2
bit_fail_limit=3.49999999999999977796e-01
cascade_candidate_limit=1.00000000000000000000e+03
cascade_weight_multiplier=4.00000000000000022204e-01
cascade_activation_functions_count=10
cascade_activation_functions=3 5 7 8 10 11 14 15 16 17 
cascade_activation_steepnesses_count=4
cascade_activation_steepnesses=2.50000000000000000000e-01 5.00000000000000000000e-01 7.50000000000000000000e-01 1.00000000000000000000e+00 
layer_sizes=11 14 2 
scale_included=0
neurons (num_inputs, activation_function, activation_steepness)=(0, 0, 0.00000000000000000000e+00) (0, 0, 0.00000000000000000000e+00) (0, 0, 0.00000000000000000000e+00) (0, 0, 0.00000000000000000000e+00) (0, 0, 0.00000000000000000000e+00) (0, 0, 0.00000000000000000000e+00) (0, 0, 0.00000000000000000000e+00) (0, 0, 0.00000000000000000000e+00) (0, 0, 0.00000000000000000000e+00) (0, 0, 0.00000000000000000000e+00) (0, 0, 0.00000000000000000000e+00) (11, 4, 5.00000000000000000000e-01) (11, 4, 5.00000000000000000000e-01) (11, 4, 5.00000000000000000000e-01) (11, 4, 5.00000000000000000000e-01) (11, 4, 5.00000000000000000000e-01) (11, 4, 5.00000000000000000000e-01) (11, 4, 5.00000000000000000000e-01) (11, 4, 5.00000000000000000000e-01) (11, 4, 5.00000000000000000000e-01) (11, 4, 5.00000000000000000000e-01) (11, 4, 5.00000000000000000000e-01) (11, 4, 5.00000000000000000000e-01) (11, 4, 5.00000000000000000000e-01) (0, 0, 0.00000000000000000000e+00) (14, 6, 5.00000000000000000000e-01) (0, 6, 0.00000000000000000000e+00) 
connections (connected_to_neuron, weight)=(0, -2.15968996805138147010e+01) (1, -6.47380856301547402687e-01) (2, 2.89705980661083384309e-01) (3, 1.82551430261977887248e+00) (4, 2.32635362856442728940e+00) (5, -2.80296274087943109166e-01) (6, -5.55149169739874448481e+00) (7, 1.88205857541315491055e+00) (8, 5.11504447982321419630e+00) (9, 7.08863295477553236879e+01) (10, 8.78218241145110045665e-01) (0, -2.10391550259331197026e+01) (1, -7.19147346952628940819e-01) (2, 3.26495273820073983462e-01) (3, 1.96583572250082561084e+00) (4, 2.24538955450058663743e+00) (5, -1.77770523739180646983e-01) (6, -6.04036347751058233513e+00) (7, 1.93730118933602990516e+00) (8, 5.44518375559951017806e+00) (9, 8.28984129043848128049e+01) (10, 6.28803362624127393232e-01) (0, -1.82919205989777395871e+01) (1, -1.89594189082723685313e-01) (2, 3.90639575840907582460e-01) (3, 2.13690019886136717275e+00) (4, 3.59205550222728398069e+00) (5, -7.23692500375270997282e-01) (6, -1.41236558498146469454e+00) (7, -3.01410044991951719950e+00) (8, -3.11431752509441999166e+01) (9, 1.05672963091440164085e+00) (10, 4.67429949598677030309e+00) (0, -1.94681647308555021425e+01) (1, -6.04493390920434969793e-01) (2, 2.06081586774378461291e-01) (3, 1.76280641492022116523e+00) (4, 2.21045713856844550094e+00) (5, -5.02839408194801884555e-01) (6, -5.61645374903362792907e+00) (7, 2.00687896786432373730e+00) (8, 4.67798058127640725701e+00) (9, 7.43562345223189851140e+01) (10, 7.98621994105394583663e-01) (0, 1.58030103628567477614e+01) (1, -5.96881975233959805038e-01) (2, 6.27378629353153804971e-01) (3, -3.91571658886236961816e-01) (4, 9.48020673725337381654e-01) (5, 1.69833830115132444760e+00) (6, -8.79153937189575240829e-01) (7, -3.47010652277950049083e+00) (8, -2.87300532535175250359e+01) (9, 7.61176005451164083837e+00) (10, 2.13766769859716498914e+00) (0, -1.83083087615031523399e+01) (1, 1.26047573990414642220e-02) (2, 7.54484076610782206096e-01) (3, 2.62138340404810765705e+00) (4, 2.15297042900988033765e+00) (5, -7.43206675404523675610e-01) (6, -1.56975260062414823103e+00) (7, -2.75500485738863254426e+00) (8, -3.21502138202351943619e+01) (9, -6.57578186685538745859e-02) (10, 4.58235372858412226549e+00) (0, 9.70269036752397617818e+00) (1, -2.34696909500302752782e-01) (2, 4.01775458072079816318e-01) (3, 1.01550920507996123021e+00) (4, 9.45521764511978446421e-01) (5, 1.29963922751792515520e+00) (6, -1.47896513313447708349e+00) (7, -3.05832596462104167045e+00) (8, -3.19957931314598589267e+01) (9, 1.35422694548059330266e+00) (10, 3.05408983321028371094e+00) (0, -2.10168868225642064829e+01) (1, -6.93290657726670533911e-01) (2, 1.00218070396554792545e+00) (3, 1.60855452136729648593e+00) (4, 2.15962499496454407577e+00) (5, -4.22166094338043029754e-01) (6, -5.44184467013101169641e+00) (7, 2.09778242488205846072e+00) (8, 2.30210412384318585666e+00) (9, 1.44255395275349513895e+02) (10, 7.85293863056618079987e-01) (0, 8.49493036246786772381e+01) (1, 2.38480670597604582639e+00) (2, -5.59265012792833449140e+00) (3, -3.79224535081905178568e-01) (4, -9.34426135518436318250e+00) (5, -1.51371033791811870906e+00) (6, -3.53546599702156294498e+00) (7, -3.04905970193689235259e+00) (8, 1.90340349189567503707e+00) (9, -3.80414830569405948424e-01) (10, 1.11475238337959448032e+00) (0, 1.52655693315272600330e+00) (1, 1.05021656034241583910e+00) (2, 5.65033318772839021626e-01) (3, -5.51681961637058182468e-01) (4, 1.80833106063524623464e-01) (5, 9.85605632477962734228e-01) (6, 1.30224713177569428879e+00) (7, 1.74960659768103155010e+00) (8, 1.04103796976752285275e+01) (9, -2.52634733566012803507e+00) (10, 9.46069829607442902564e-01) (0, 6.69701394577763498006e+00) (1, 2.51661908940668288537e+00) (2, 7.21565291629644112170e-01) (3, 9.54357060689221686767e-02) (4, 1.27268685183831914420e-01) (5, 4.40258597295831499707e+00) (6, 1.15071199190210271546e+00) (7, 1.37403061487520172790e+00) (8, -2.02752507408460864724e+01) (9, -2.07378381005678313898e+01) (10, 1.20002846485278324984e+00) (0, -1.68677791133155103864e+01) (1, -6.12465480512133342295e-01) (2, 2.67554197737669807733e-01) (3, 1.90992600602473272531e+00) (4, 2.68772210942892453289e+00) (5, -4.08907180254343194381e-01) (6, -5.38833829234532224461e+00) (7, 2.11743012408334019270e+00) (8, 5.69337566645372294971e+00) (9, 5.13118876559040657526e+01) (10, 9.41342086901705621393e-01) (0, 9.70253357790306480979e+00) (1, 1.37732489833948673619e-02) (2, 3.86008939317091182009e-01) (3, 1.53569263844759573701e+00) (4, 1.20534487611094465187e+00) (5, 1.37964711665622141723e+00) (6, -1.52453545720630767590e+00) (7, -3.46685382000614561449e+00) (8, -2.94413719718664452785e+01) (9, 1.29986056856118215030e+00) (10, 2.06829057424054019165e+00) (11, -4.55629643038922882425e+00) (12, -3.83019327657186314795e+00) (13, -2.23287699192985087393e+01) (14, -6.57275848513421667718e+00) (15, -1.23896143222413073204e+01) (16, -3.80274157844367710624e+00) (17, -4.69599928363496310624e+00) (18, -4.53998309029086755118e+00) (19, 5.17319696292519903835e+00) (20, 1.70973910200596090903e+00) (21, 1.74314030501550476515e+01) (22, -3.66514376575071443298e+00) (23, -3.96057375868274696984e+00) (24, 5.24259995254918997887e+00) 
