FANN_FLO_2.1
num_layers=3
learning_rate=0.700000
connection_rate=1.000000
network_type=0
learning_momentum=0.000000
training_algorithm=2
train_error_function=1
train_stop_function=0
cascade_output_change_fraction=0.010000
quickprop_decay=-0.000100
quickprop_mu=1.750000
rprop_increase_factor=1.200000
rprop_decrease_factor=0.500000
rprop_delta_min=0.000000
rprop_delta_max=50.000000
rprop_delta_zero=0.100000
cascade_output_stagnation_epochs=12
cascade_candidate_change_fraction=0.010000
cascade_candidate_stagnation_epochs=12
cascade_max_out_epochs=150
cascade_max_cand_epochs=150
cascade_num_candidate_groups=2
bit_fail_limit=3.49999999999999977796e-01
cascade_candidate_limit=1.00000000000000000000e+03
cascade_weight_multiplier=4.00000000000000022204e-01
cascade_activation_functions_count=10
cascade_activation_functions=3 5 7 8 10 11 14 15 16 17 
cascade_activation_steepnesses_count=4
cascade_activation_steepnesses=2.50000000000000000000e-01 5.00000000000000000000e-01 7.50000000000000000000e-01 1.00000000000000000000e+00 
layer_sizes=7 20 2 
scale_included=0
neurons (num_inputs, activation_function, activation_steepness)=(0, 0, 0.00000000000000000000e+00) (0, 0, 0.00000000000000000000e+00) (0, 0, 0.00000000000000000000e+00) (0, 0, 0.00000000000000000000e+00) (0, 0, 0.00000000000000000000e+00) (0, 0, 0.00000000000000000000e+00) (0, 0, 0.00000000000000000000e+00) (7, 4, 5.00000000000000000000e-01) (7, 4, 5.00000000000000000000e-01) (7, 4, 5.00000000000000000000e-01) (7, 4, 5.00000000000000000000e-01) (7, 4, 5.00000000000000000000e-01) (7, 4, 5.00000000000000000000e-01) (7, 4, 5.00000000000000000000e-01) (7, 4, 5.00000000000000000000e-01) (7, 4, 5.00000000000000000000e-01) (7, 4, 5.00000000000000000000e-01) (7, 4, 5.00000000000000000000e-01) (7, 4, 5.00000000000000000000e-01) (7, 4, 5.00000000000000000000e-01) (7, 4, 5.00000000000000000000e-01) (7, 4, 5.00000000000000000000e-01) (7, 4, 5.00000000000000000000e-01) (7, 4, 5.00000000000000000000e-01) (7, 4, 5.00000000000000000000e-01) (7, 4, 5.00000000000000000000e-01) (0, 0, 0.00000000000000000000e+00) (20, 6, 5.00000000000000000000e-01) (0, 6, 0.00000000000000000000e+00) 
connections (connected_to_neuron, weight)=(0, 4.85045047901651837918e+00) (1, 2.45197127638713485709e+00) (2, 1.64240912007274642015e+00) (3, -1.30871524124361524599e+01) (4, 5.93993664147465860736e+00) (5, 2.60081252440148809058e+01) (6, 2.37936596096677888124e-01) (0, 5.56528821316225830174e+01) (1, -1.26673529971592255805e+01) (2, -7.70790081545708893884e+00) (3, -6.04304979992576640768e+00) (4, 9.39994132229229251152e+00) (5, -1.06403415619759087463e+02) (6, 5.08002255223434368014e-02) (0, -2.40016784519618440186e+01) (1, 2.72139624602736773795e+00) (2, 1.15747300603908165328e+00) (3, -1.01844270185900631631e+00) (4, -6.76738739115894016862e+00) (5, 1.38786071453697967826e+01) (6, 1.15766107276374013990e-01) (0, -7.85069110870794339974e+00) (1, 4.14700402307985704908e+00) (2, 5.74632673926201209547e-01) (3, -6.49809198519248099046e+00) (4, -1.31861519708462759937e+00) (5, 1.05492700494082058960e+00) (6, -3.33135062997145306452e-02) (0, 8.82662437978817604467e-01) (1, 2.28712060908720049568e+00) (2, 1.52678181192048101344e+00) (3, -8.78617106517597790116e+00) (4, 1.96266442661974038764e+00) (5, 4.09150136938459141334e+01) (6, 5.18286454721554101788e-01) (0, -3.64914664306107994207e+01) (1, 2.71582737811270558126e+00) (2, 7.61798339754353404096e-01) (3, 5.33220465294174439386e-01) (4, -3.88949696037495984413e+00) (5, 1.44257632912420774574e+02) (6, 4.46048263340740047678e-01) (0, -3.30146119288177857243e+01) (1, 5.85556971616479060572e+00) (2, 1.29121473865619007526e+00) (3, 1.70985029393581983159e-01) (4, -7.63301943328680287948e+00) (5, 1.22252927150508284626e+02) (6, 3.14850206167855806161e-01) (0, 5.43475892236541966440e+01) (1, -1.25198566545884713008e+01) (2, -7.86033555102092162947e-01) (3, -3.89584082903267470144e+00) (4, 7.69627868601499010026e+00) (5, -9.63159722860110036891e+01) (6, 1.65118677572088118355e-01) (0, -3.22340600966449812859e+01) (1, 8.19732800906005643071e+00) (2, 4.59722406744229949993e+00) (3, -5.88851270705953666607e+00) (4, -1.48874508687528317452e+00) (5, 1.79723617711957501797e+01) (6, 1.04597416597868275723e+00) (0, -9.01372117713806808581e+00) (1, 1.05217385259707061351e+01) (2, 6.99534513631633103614e-01) (3, -8.40612482609164501923e+00) (4, 4.48544736416752343189e+00) (5, 1.18616180366160550719e+00) (6, -5.34234446438266175061e-02) (0, 5.33869057963286266499e+01) (1, -1.22438217202162498154e+01) (2, -7.51024893449067754148e+00) (3, -5.25614781469153857785e+00) (4, 7.17619163941853166477e+00) (5, -8.55369017095719073041e+01) (6, 2.24576323309480047064e-01) (0, 3.78837307723057037379e+01) (1, -1.19886087744170470870e+01) (2, -1.11289799468590331344e+01) (3, -2.02305823124622108367e+00) (4, 1.18762598849924998490e+01) (5, -8.35911698722195595224e+00) (6, 8.67258875345266327939e-02) (0, -5.79092009323856160563e+00) (1, 5.06601347247927691342e+00) (2, 1.97704312255343972460e+00) (3, -8.86534634573466640006e+00) (4, 2.38987837317524354219e+00) (5, 2.41505225773594816019e+01) (6, 9.28197061804839296251e-01) (0, 5.42869647564159976127e+01) (1, -1.25646509043915060033e+01) (2, -9.39141602320863189135e-01) (3, -3.70141698691537612831e+00) (4, 7.73399356597481180131e+00) (5, -9.62101144890439741175e+01) (6, 8.25021010380080216384e-02) (0, 3.92117827190095411538e+01) (1, -6.94731857506604999486e+00) (2, 3.25192469840462294872e-01) (3, -2.69164599444637753223e+00) (4, 1.12482452928298108930e+01) (5, -1.92613939087163458908e+02) (6, 1.74595158826575391764e-01) (0, 6.89864462348706464212e+00) (1, 5.37012872917146033558e+00) (2, 7.78002995375271400036e-01) (3, -8.59797279609104947440e+00) (4, 3.45359042027267915120e-01) (5, 7.66360947595303532154e+00) (6, 2.35978233936489478761e-01) (0, 3.64007348421834961982e+01) (1, -1.15594709512802396034e+01) (2, -7.49648087723203904176e-01) (3, -1.88955516452008454031e+00) (4, 3.02202769976711449473e+00) (5, 2.48887859242277798000e-01) (6, 2.46433382371950476797e-01) (0, -7.02801234263348728604e+00) (1, 1.11201478656640828646e+00) (2, 1.86901712473832426475e+00) (3, -6.08648777809040453235e+00) (4, 1.76531396083543046238e+00) (5, 4.73381728433608799378e+01) (6, 1.14262445567926196333e+00) (0, 5.56972478745139767398e+01) (1, -1.24383387864835963654e+01) (2, -7.90829787884861090674e+00) (3, -6.05820497700036408872e+00) (4, 9.65878876129904817560e+00) (5, -6.39659993994403706097e+01) (6, -1.05403129764776830324e-02) (7, -8.41805511597560318648e+00) (8, 3.13700597100228772973e+00) (9, -9.34248512508899286999e-01) (10, -3.35815245842124854292e-01) (11, -5.71441034362487521037e+00) (12, -3.12585565143330512683e+00) (13, -1.37984070021592208910e+00) (14, 1.17875541508170211813e+00) (15, -8.33543085558553364933e+00) (16, -3.03610129916015547558e-01) (17, 3.28818916200781963255e+00) (18, 2.11557058259118324628e+00) (19, -8.05887342228618663853e+00) (20, 1.17570951342555130026e+00) (21, 1.54150237807723344829e+00) (22, -5.71054563565478989773e+00) (23, 2.79892065231375042345e+00) (24, -8.08210687988361442535e+00) (25, 2.11379640024149129118e+00) (26, 8.49172778303921460541e-01) 
