FANN_FLO_2.1
num_layers=3
learning_rate=0.700000
connection_rate=1.000000
network_type=0
learning_momentum=0.000000
training_algorithm=2
train_error_function=1
train_stop_function=0
cascade_output_change_fraction=0.010000
quickprop_decay=-0.000100
quickprop_mu=1.750000
rprop_increase_factor=1.200000
rprop_decrease_factor=0.500000
rprop_delta_min=0.000000
rprop_delta_max=50.000000
rprop_delta_zero=0.100000
cascade_output_stagnation_epochs=12
cascade_candidate_change_fraction=0.010000
cascade_candidate_stagnation_epochs=12
cascade_max_out_epochs=150
cascade_max_cand_epochs=150
cascade_num_candidate_groups=2
bit_fail_limit=3.49999999999999977796e-01
cascade_candidate_limit=1.00000000000000000000e+03
cascade_weight_multiplier=4.00000000000000022204e-01
cascade_activation_functions_count=10
cascade_activation_functions=3 5 7 8 10 11 14 15 16 17 
cascade_activation_steepnesses_count=4
cascade_activation_steepnesses=2.50000000000000000000e-01 5.00000000000000000000e-01 7.50000000000000000000e-01 1.00000000000000000000e+00 
layer_sizes=13 20 2 
scale_included=0
neurons (num_inputs, activation_function, activation_steepness)=(0, 0, 0.00000000000000000000e+00) (0, 0, 0.00000000000000000000e+00) (0, 0, 0.00000000000000000000e+00) (0, 0, 0.00000000000000000000e+00) (0, 0, 0.00000000000000000000e+00) (0, 0, 0.00000000000000000000e+00) (0, 0, 0.00000000000000000000e+00) (0, 0, 0.00000000000000000000e+00) (0, 0, 0.00000000000000000000e+00) (0, 0, 0.00000000000000000000e+00) (0, 0, 0.00000000000000000000e+00) (0, 0, 0.00000000000000000000e+00) (0, 0, 0.00000000000000000000e+00) (13, 4, 5.00000000000000000000e-01) (13, 4, 5.00000000000000000000e-01) (13, 4, 5.00000000000000000000e-01) (13, 4, 5.00000000000000000000e-01) (13, 4, 5.00000000000000000000e-01) (13, 4, 5.00000000000000000000e-01) (13, 4, 5.00000000000000000000e-01) (13, 4, 5.00000000000000000000e-01) (13, 4, 5.00000000000000000000e-01) (13, 4, 5.00000000000000000000e-01) (13, 4, 5.00000000000000000000e-01) (13, 4, 5.00000000000000000000e-01) (13, 4, 5.00000000000000000000e-01) (13, 4, 5.00000000000000000000e-01) (13, 4, 5.00000000000000000000e-01) (13, 4, 5.00000000000000000000e-01) (13, 4, 5.00000000000000000000e-01) (13, 4, 5.00000000000000000000e-01) (13, 4, 5.00000000000000000000e-01) (0, 0, 0.00000000000000000000e+00) (20, 6, 5.00000000000000000000e-01) (0, 6, 0.00000000000000000000e+00) 
connections (connected_to_neuron, weight)=(0, -6.03190169118326569020e+00) (1, -1.25044363462805696585e+00) (2, -3.25764204000127621796e-01) (3, -1.96619556340825507590e-01) (4, 5.20135922688690244264e-01) (5, 1.31249610554878803903e+00) (6, -1.67736490655659514770e-01) (7, -4.51394522018896715565e+00) (8, -1.17783092799103750181e+00) (9, -5.42517437728728513235e-01) (10, 2.00174502881468940885e+00) (11, 3.59254263985992778885e+01) (12, 1.63564748420337469081e-01) (0, 4.82212679608708967294e+01) (1, 3.68536880808981592850e+01) (2, 1.13780887875530734021e+00) (3, -5.49490041542191387514e-01) (4, -3.64919144452815435997e+00) (5, 4.92257422382206821787e-02) (6, -4.42482931940355372902e-01) (7, -3.20719937445827874001e+00) (8, -3.35871265371651750442e+00) (9, -2.32508694727874415387e-01) (10, 2.93934501179578910879e+00) (11, 1.10792368491496977245e-02) (12, -1.15992314429459009162e-01) (0, 1.03309759034731794003e+01) (1, -6.47663718724687642592e-01) (2, -3.90947418743362806737e-01) (3, -2.31286139672487206509e-01) (4, 2.24986323258321047058e-01) (5, 1.42668086026681417700e+00) (6, -1.21652967630339212124e-01) (7, -6.24727635616965581988e+00) (8, -1.26792018449521992629e+00) (9, -5.58863316047873426307e-01) (10, 2.09587530561309742794e+00) (11, 5.14816621649137999839e+01) (12, -5.82570274041844041180e-03) (0, -6.54559208166437755949e+00) (1, -1.17549627785293786530e+00) (2, -2.88707038245919977992e-01) (3, -2.24324990370542487472e-01) (4, 1.43369775348450878560e+00) (5, 1.52208982721618002465e+00) (6, -1.62066366042776299761e-01) (7, -7.36761601633202722894e+00) (8, -4.53047777332008572149e-01) (9, -3.15639298400949230849e-01) (10, 6.14647482912772158414e+00) (11, 1.97231466221350864032e+01) (12, 3.28194838545877443092e-01) (0, -5.72847332650619733840e+00) (1, 1.20961507724965944277e-01) (2, 4.83860948588802042281e+00) (3, -1.20018290210795450235e-01) (4, -1.85037335086517790161e-01) (5, 4.27510902802674064294e-01) (6, -3.25686419105694735521e+00) (7, 7.70292999954493939896e+00) (8, -1.34909742256948339545e+00) (9, -1.47297706244093240535e+00) (10, -2.60007108627523697564e+00) (11, -3.85259831158374543847e+00) (12, 2.50575792050676704470e-01) (0, 4.27521081025863693981e+01) (1, 7.61970608309332675390e+01) (2, 1.31980099406022999275e+00) (3, -6.44570930545639964038e-01) (4, -1.17694957913980040587e+01) (5, 3.40692083417831970138e-01) (6, -2.80385666576352399204e+00) (7, -3.90982856411469592572e+00) (8, -4.44878124803913088670e+00) (9, -3.38149352606736841587e-01) (10, 1.40808175480041537497e+01) (11, -1.59572061571208445585e+00) (12, 2.64462305142915965472e-01) (0, 7.71736706954702782468e+01) (1, 5.67275343221379486636e+01) (2, 1.23487009767580202535e+00) (3, -3.20589007421825300526e+00) (4, -7.05955632752927275675e+00) (5, -4.58016163442283552598e+00) (6, -2.75037574634414738739e+00) (7, -7.95484571237704884972e-01) (8, -3.84341646310719298185e+00) (9, -2.54787465665922752134e-01) (10, 2.69627933282698961648e+00) (11, 2.51297551299279775527e-01) (12, 9.01740553578333492446e-02) (0, 2.36823547931330509186e+01) (1, 3.86925688614295859580e+00) (2, -1.22719632527156718993e+00) (3, 4.59608251086776956051e-02) (4, 3.04679185692303400312e-02) (5, 2.71739251535243864222e-01) (6, 1.18838619694682123828e+00) (7, -6.73331677588759358599e+00) (8, -2.67063376541345975923e+00) (9, -1.06866622423293544664e+00) (10, 2.71746401926188330123e+00) (11, 8.52527323657265512225e+00) (12, 5.91834584856527762264e-02) (0, -1.71993954503818446966e+00) (1, -1.27856302504071206450e+00) (2, -3.37267396640663630336e-01) (3, -2.81840121872689031157e-01) (4, 4.54625322028606448921e-01) (5, 1.41536168936142781050e+00) (6, -1.01226961245619015428e-01) (7, -4.97624787603609064490e+00) (8, -1.26735735060072185476e+00) (9, -4.46985436721372253466e-01) (10, 1.90665227516671254016e+00) (11, 3.59821066904903759109e+01) (12, 1.23981237003900554572e-01) (0, -6.63436316486869337439e+00) (1, -7.59866113729873782212e-01) (2, -4.60803190720375732692e-01) (3, -2.35665424867348566318e-01) (4, 1.29452459152445831236e+00) (5, 1.58633763781618464250e+00) (6, 5.28043503042849721174e-02) (7, -5.34550505150650678843e+00) (8, -3.87466884768295605213e-01) (9, -9.18058545199512687773e-01) (10, 8.17722955429272646555e-01) (11, 3.46674200077309251355e+01) (12, 3.38791374915381360289e-01) (0, -6.52010893535452495939e+00) (1, -1.11413519595472543244e+00) (2, -2.45280151386558425974e-01) (3, -1.74871828713685922851e-01) (4, 1.31221011806058163174e+00) (5, 1.65104823033108050190e+00) (6, -1.07136915888471767611e-01) (7, -7.44123410052430322992e+00) (8, -3.57124900672368739141e-01) (9, -3.79540715358327618301e-01) (10, 6.12840377371542910367e+00) (11, 2.02835299561659887502e+01) (12, 3.14174380682069875892e-01) (0, 7.96910049978647236912e+01) (1, 6.45237704436958665610e+01) (2, 2.71850836603067458341e+00) (3, -3.22208144913870730974e+00) (4, -1.14741379125915710091e+01) (5, -6.11943326588681824063e+00) (6, -2.78432150582646986692e+00) (7, 6.56644597093579251990e-01) (8, -3.42690570225830315465e+00) (9, -4.66261978441723623501e-01) (10, 8.05456598947759949692e-02) (11, 2.05772660546584296171e+00) (12, 9.44841925227099810325e-02) (0, 2.01019138351461066350e+01) (1, -7.55314883939528503021e-01) (2, -1.18421604418237880196e+00) (3, -3.54646171665720785424e-03) (4, -3.39306642409243144898e-02) (5, 2.97020033868042321323e-01) (6, 3.22805865321963481041e-01) (7, -6.77725551645239487897e+00) (8, -2.58289940424966335542e+00) (9, -9.57470326186526943246e-01) (10, 1.67448242260142454718e+00) (11, 1.22382204264211686962e+01) (12, 8.36070423931450645849e-02) (0, -1.02591665402603338109e+00) (1, 2.30429558621824837061e+00) (2, 4.69909584821243253572e+00) (3, 4.05512579060728628466e-02) (4, -1.92182222421444420801e-01) (5, 4.59276318032222963250e-01) (6, -5.22940400342700417724e+00) (7, 7.85491112965034066207e+00) (8, -1.34406998276036215856e+00) (9, -2.27349252913363386597e+00) (10, -7.29395932920082934459e+00) (11, -3.87879242371549537438e+00) (12, 5.01338587721581241397e-01) (0, 4.12405644275814395883e+01) (1, 3.03383866596865487963e+01) (2, 1.91458605618105814905e+00) (3, -1.06301737100614062115e+01) (4, -8.49776962891689136015e-01) (5, 5.96101564950499498985e-02) (6, -7.82367436331880394818e+00) (7, 1.23460789088253264367e+00) (8, -3.56660036896701182485e+00) (9, -2.33909126998781946583e+00) (10, -1.51191255806695368236e+00) (11, -3.42019281603256120050e+00) (12, 3.26638138658085566690e-02) (0, 5.77185440498365025519e+01) (1, 1.51850636262816323097e+02) (2, 1.69433811842150294780e+00) (3, -7.35401457081836240626e-01) (4, -1.16000848579743678357e+01) (5, 3.47160191483210089913e-01) (6, -7.53020903165650068445e+00) (7, -3.54149022705968974378e+00) (8, -4.00759322504864989867e+00) (9, 3.57588598411171965097e-01) (10, 2.77927873775535339007e+00) (11, 1.83969103562997948753e-01) (12, -1.36496682703376936985e+00) (0, -7.20258282380688896751e+00) (1, -1.20276802812170435786e+00) (2, -8.88693138511943203639e-01) (3, -2.58241261768266450183e-01) (4, 1.34542331526269953734e+00) (5, 1.42400980607396099309e+00) (6, -6.63327610521488725270e-02) (7, -4.51905195235963397238e+00) (8, -1.03989404974383847780e+00) (9, -6.35801929794641118576e-01) (10, 1.79536589018775893933e+00) (11, 1.92838454056940200587e+01) (12, 1.39161564410405197423e-01) (0, 6.52013277663792791827e+01) (1, 1.11461061177386838494e+02) (2, 2.54278866381577151046e+00) (3, -7.17999046729866030603e-01) (4, -1.28686993305777033214e+01) (5, 3.29163095184111131886e-01) (6, -1.84657257899053606209e+00) (7, -3.69361850244750922201e+00) (8, -4.03454220001843300025e+00) (9, 1.18319083534534727487e-01) (10, 3.53934959474000265800e+00) (11, 2.82075891458248684263e-01) (12, -3.46940761467661729078e-01) (0, 2.80533077554325238623e+01) (1, -2.02018706421054705658e+00) (2, -6.61833846084473087501e+00) (3, 1.02496777149049234090e+00) (4, 7.49793013396188590125e-02) (5, 3.14740950862380686193e-01) (6, 1.16863575809734188127e+00) (7, -4.83293886229551272748e+00) (8, -2.68281517262762125853e+00) (9, -1.05466170557209260039e+00) (10, -3.90913066979884593621e-01) (11, 1.81423613586230523254e+01) (12, 9.72726234784301313496e-02) (13, -4.33693676246101844640e+00) (14, 9.57330739629174254368e-01) (15, -5.27966985754003559350e+00) (16, -1.14139645311409854145e+01) (17, 1.86096489122532349203e-01) (18, 1.20342997188013356435e+00) (19, 1.77186920756029597790e+00) (20, -2.55140554220922011197e+00) (21, -4.56701768516206296766e+00) (22, -8.39987438514338968787e+00) (23, -1.14171962949807070942e+01) (24, 3.47942228917938622956e+00) (25, -3.23514353282400390910e+00) (26, 2.28134482689071604877e-01) (27, 8.91495786350679431109e+00) (28, 9.65593724508672757167e-01) (29, -4.30709444017057041521e+00) (30, 1.03034071376031000078e+00) (31, -2.14081218020451196082e+01) (32, 8.64893734879460973630e-01) 
