FANN_FLO_2.1
num_layers=3
learning_rate=0.700000
connection_rate=1.000000
network_type=0
learning_momentum=0.000000
training_algorithm=2
train_error_function=1
train_stop_function=0
cascade_output_change_fraction=0.010000
quickprop_decay=-0.000100
quickprop_mu=1.750000
rprop_increase_factor=1.200000
rprop_decrease_factor=0.500000
rprop_delta_min=0.000000
rprop_delta_max=50.000000
rprop_delta_zero=0.100000
cascade_output_stagnation_epochs=12
cascade_candidate_change_fraction=0.010000
cascade_candidate_stagnation_epochs=12
cascade_max_out_epochs=150
cascade_max_cand_epochs=150
cascade_num_candidate_groups=2
bit_fail_limit=3.49999999999999977796e-01
cascade_candidate_limit=1.00000000000000000000e+03
cascade_weight_multiplier=4.00000000000000022204e-01
cascade_activation_functions_count=10
cascade_activation_functions=3 5 7 8 10 11 14 15 16 17 
cascade_activation_steepnesses_count=4
cascade_activation_steepnesses=2.50000000000000000000e-01 5.00000000000000000000e-01 7.50000000000000000000e-01 1.00000000000000000000e+00 
layer_sizes=3 6 2 
scale_included=0
neurons (num_inputs, activation_function, activation_steepness)=(0, 0, 0.00000000000000000000e+00) (0, 0, 0.00000000000000000000e+00) (0, 0, 0.00000000000000000000e+00) (3, 4, 5.00000000000000000000e-01) (3, 4, 5.00000000000000000000e-01) (3, 4, 5.00000000000000000000e-01) (3, 4, 5.00000000000000000000e-01) (3, 4, 5.00000000000000000000e-01) (0, 0, 0.00000000000000000000e+00) (6, 6, 5.00000000000000000000e-01) (0, 6, 0.00000000000000000000e+00) 
connections (connected_to_neuron, weight)=(0, 6.59547946308117758463e+01) (1, 1.42379754326898847694e+02) (2, -1.32107469296118598123e+01) (0, 6.24506539748157507574e+01) (1, 7.83822328257873891744e+02) (2, -1.50372293670599788129e+01) (0, -7.98657859883233545162e+00) (1, -1.48368205711066480035e+03) (2, 8.73971965620775570471e+00) (0, -6.79939607238758867425e+01) (1, -1.43858795424339996316e+03) (2, 4.84710410434643890198e+01) (0, 7.91607742419166129366e+02) (1, 5.60029397014378901076e+02) (2, -4.25411600248795650714e+02) (3, 6.76801347604020175908e+00) (4, -1.46709602201630904261e+01) (5, -1.32410354216428540752e+01) (6, 1.33416705366519039444e+00) (7, 1.50000000000000000000e+03) (8, 5.71452504898396718147e+00) 
