FANN_FLO_2.1
num_layers=3
learning_rate=0.700000
connection_rate=1.000000
network_type=0
learning_momentum=0.000000
training_algorithm=2
train_error_function=1
train_stop_function=0
cascade_output_change_fraction=0.010000
quickprop_decay=-0.000100
quickprop_mu=1.750000
rprop_increase_factor=1.200000
rprop_decrease_factor=0.500000
rprop_delta_min=0.000000
rprop_delta_max=50.000000
rprop_delta_zero=0.100000
cascade_output_stagnation_epochs=12
cascade_candidate_change_fraction=0.010000
cascade_candidate_stagnation_epochs=12
cascade_max_out_epochs=150
cascade_max_cand_epochs=150
cascade_num_candidate_groups=2
bit_fail_limit=3.49999999999999977796e-01
cascade_candidate_limit=1.00000000000000000000e+03
cascade_weight_multiplier=4.00000000000000022204e-01
cascade_activation_functions_count=10
cascade_activation_functions=3 5 7 8 10 11 14 15 16 17 
cascade_activation_steepnesses_count=4
cascade_activation_steepnesses=2.50000000000000000000e-01 5.00000000000000000000e-01 7.50000000000000000000e-01 1.00000000000000000000e+00 
layer_sizes=49 20 2 
scale_included=0
neurons (num_inputs, activation_function, activation_steepness)=(0, 0, 0.00000000000000000000e+00) (0, 0, 0.00000000000000000000e+00) (0, 0, 0.00000000000000000000e+00) (0, 0, 0.00000000000000000000e+00) (0, 0, 0.00000000000000000000e+00) (0, 0, 0.00000000000000000000e+00) (0, 0, 0.00000000000000000000e+00) (0, 0, 0.00000000000000000000e+00) (0, 0, 0.00000000000000000000e+00) (0, 0, 0.00000000000000000000e+00) (0, 0, 0.00000000000000000000e+00) (0, 0, 0.00000000000000000000e+00) (0, 0, 0.00000000000000000000e+00) (0, 0, 0.00000000000000000000e+00) (0, 0, 0.00000000000000000000e+00) (0, 0, 0.00000000000000000000e+00) (0, 0, 0.00000000000000000000e+00) (0, 0, 0.00000000000000000000e+00) (0, 0, 0.00000000000000000000e+00) (0, 0, 0.00000000000000000000e+00) (0, 0, 0.00000000000000000000e+00) (0, 0, 0.00000000000000000000e+00) (0, 0, 0.00000000000000000000e+00) (0, 0, 0.00000000000000000000e+00) (0, 0, 0.00000000000000000000e+00) (0, 0, 0.00000000000000000000e+00) (0, 0, 0.00000000000000000000e+00) (0, 0, 0.00000000000000000000e+00) (0, 0, 0.00000000000000000000e+00) (0, 0, 0.00000000000000000000e+00) (0, 0, 0.00000000000000000000e+00) (0, 0, 0.00000000000000000000e+00) (0, 0, 0.00000000000000000000e+00) (0, 0, 0.00000000000000000000e+00) (0, 0, 0.00000000000000000000e+00) (0, 0, 0.00000000000000000000e+00) (0, 0, 0.00000000000000000000e+00) (0, 0, 0.00000000000000000000e+00) (0, 0, 0.00000000000000000000e+00) (0, 0, 0.00000000000000000000e+00) (0, 0, 0.00000000000000000000e+00) (0, 0, 0.00000000000000000000e+00) (0, 0, 0.00000000000000000000e+00) (0, 0, 0.00000000000000000000e+00) (0, 0, 0.00000000000000000000e+00) (0, 0, 0.00000000000000000000e+00) (0, 0, 0.00000000000000000000e+00) (0, 0, 0.00000000000000000000e+00) (0, 0, 0.00000000000000000000e+00) (49, 4, 5.00000000000000000000e-01) (49, 4, 5.00000000000000000000e-01) (49, 4, 5.00000000000000000000e-01) (49, 4, 5.00000000000000000000e-01) (49, 4, 5.00000000000000000000e-01) (49, 4, 5.00000000000000000000e-01) (49, 4, 5.00000000000000000000e-01) (49, 4, 5.00000000000000000000e-01) (49, 4, 5.00000000000000000000e-01) (49, 4, 5.00000000000000000000e-01) (49, 4, 5.00000000000000000000e-01) (49, 4, 5.00000000000000000000e-01) (49, 4, 5.00000000000000000000e-01) (49, 4, 5.00000000000000000000e-01) (49, 4, 5.00000000000000000000e-01) (49, 4, 5.00000000000000000000e-01) (49, 4, 5.00000000000000000000e-01) (49, 4, 5.00000000000000000000e-01) (49, 4, 5.00000000000000000000e-01) (0, 0, 0.00000000000000000000e+00) (20, 6, 5.00000000000000000000e-01) (0, 6, 0.00000000000000000000e+00) 
connections (connected_to_neuron, weight)=(0, 1.04532964449964582698e+00) (1, 3.92020780992844208868e-01) (2, -1.02740576935833518440e-02) (3, -1.14133569538744594762e-01) (4, -1.84392451244805993804e-01) (5, -3.18602669451078712726e+00) (6, -2.61653654186551465344e+00) (7, -1.32412648308723651658e-01) (8, 1.71465601138623552346e-01) (9, 1.93544826074209169731e-01) (10, 3.39277788391229351284e-01) (11, 2.27082533748543369256e-01) (12, 3.51178838389062386582e-01) (13, 2.82727401716483250915e-01) (14, 2.53267868241924265504e-01) (15, 3.18040530868164528222e-01) (16, 2.24768394588431785763e-01) (17, 1.67960284927577724323e-01) (18, 3.09782379539479069130e-01) (19, 3.74340499260647219248e-01) (20, 1.00408872371437896120e+00) (21, 1.46786092381231281223e+00) (22, 1.33047083034600976958e+00) (23, 8.27095587508216767425e-01) (24, 7.27998194269491194497e-01) (25, 5.03093340909480546408e-01) (26, 4.90032663663605705384e-01) (27, 2.71437415740242160567e-01) (28, 4.57411536874762769678e-01) (29, -1.77916928445518984780e+00) (30, -2.69733685301929781986e+00) (31, -4.21471236015589578727e+00) (32, -3.67416652646795593995e+00) (33, -2.23411321613393898389e+00) (34, -3.75968707703962068400e-01) (35, -3.38693471080852348543e-01) (36, -8.19867222009667884208e-01) (37, -3.86974583793546711430e-01) (38, -3.42335865956703511159e-01) (39, 3.46263895620259609665e-01) (40, 2.58559277781378826777e-01) (41, 3.01355143060813679412e-01) (42, 3.91289327967756672688e-01) (43, 6.30665273211852173141e-01) (44, 4.82544349470715427941e+00) (45, 1.77337482694170739395e-01) (46, 3.01327515806209311755e-01) (47, 3.78708815233796656230e+01) (48, 8.73099549860340662377e-01) (0, 7.23571797958928453198e-01) (1, 4.30316000808253884546e-01) (2, -9.64199768594725670212e-02) (3, -7.79576726133275194064e-02) (4, -3.06988595244060968881e+00) (5, -3.21115403931845611041e+00) (6, -3.25191828834463869669e+00) (7, -3.02213596830031017149e-01) (8, 8.92973034654437614055e-02) (9, 7.34692593743209443335e-02) (10, 2.98059130100304436883e-01) (11, 1.58613538656252411885e-01) (12, 1.72358924114496880886e-01) (13, 2.92702525282922898509e-01) (14, 2.66871892015779599294e-01) (15, 1.97276334050267426745e-01) (16, 2.57961157476531255384e-01) (17, 2.44912579662287382964e-01) (18, 3.40670894354024977879e-01) (19, 3.86337314962532374363e-01) (20, 9.07157328324565526145e-01) (21, 1.65847022947220845701e+00) (22, 1.23462607976936289411e+00) (23, 1.03716274850635037375e+00) (24, 8.01500476398980143955e-01) (25, 5.16055164790190312729e-01) (26, 4.67517092413851642618e-01) (27, 3.65182584460672310378e-01) (28, 4.20001694637760270012e-01) (29, -1.77340178307732743157e+00) (30, -2.80033327430030398730e+00) (31, -4.30363341474037675027e+00) (32, -4.25197120418139107301e+00) (33, -1.79848160750755003967e+00) (34, -1.46013343318749244659e+00) (35, -1.30091143538852382910e+00) (36, -1.28240836382455092313e+00) (37, -3.26724788197543192236e-01) (38, -1.72388588710069623477e-01) (39, 2.37917538315692345119e-01) (40, 3.01039202382166082295e-01) (41, -9.14722558974649241348e-02) (42, 2.06657441863514784730e-01) (43, 1.09248136569020193321e+00) (44, 9.79005985287108870807e+00) (45, 1.31632027223429259877e-01) (46, 2.44675445669180008368e-01) (47, 5.26646451060904041697e+01) (48, 1.21098576961971882149e+00) (0, 1.47339514479228039789e+00) (1, 1.08178565803677351198e+00) (2, -2.48173797968605303055e+00) (3, -1.23322023071557023144e+01) (4, -1.47910415026485182466e+01) (5, -2.97456020825808167274e+01) (6, -8.57762313039451917973e+00) (7, -7.87118459351756705189e+00) (8, -1.03534722848582982913e+00) (9, 1.60443120533966754326e-01) (10, 3.03264220688365615519e-01) (11, 3.81292586236692543356e-01) (12, 2.84583451092561889872e-01) (13, 4.88409023354175464426e-01) (14, 5.29339668284694475631e-01) (15, 4.84084376077691669327e-01) (16, 4.76246742112546139758e-01) (17, 3.79114467638007657246e-01) (18, 7.44184672628801058281e-01) (19, 7.31012824804546323954e-01) (20, 1.84856759919895097255e+00) (21, 1.73790197465196172288e+00) (22, 1.10305863741203835637e+00) (23, 1.22762124701790820147e+00) (24, 1.09102959862672799218e+00) (25, 6.02567465027256554677e-01) (26, 5.76180988487391521069e-01) (27, 6.66653225734210153064e-01) (28, 3.24068928190256455579e-01) (29, -9.18751044763092661327e-01) (30, -1.01325371640972372589e+00) (31, -1.21813032653631148072e+00) (32, -1.21426175412239012452e+00) (33, -9.83882233800788430500e-01) (34, -8.89483340075439166128e-01) (35, -6.63216865078502387787e-02) (36, -1.82869384236957949197e-01) (37, 2.67558050471615960220e-01) (38, 1.77505246193522092657e-01) (39, 6.09580461678655538549e-01) (40, 4.37923872338461694920e-01) (41, 1.12582274645467439456e-01) (42, 5.18600163154237625562e-01) (43, 1.63518811661938179292e+00) (44, 1.78521269518706926505e+00) (45, 1.47446709744016990484e+00) (46, 3.09498827338852988689e+00) (47, 6.65252655965174000130e+01) (48, 1.30531653299285088643e+00) (0, 1.28335577403325840073e+00) (1, 9.62761186062762730486e-01) (2, -2.44166868145692950165e+00) (3, -1.48741174363322823382e+01) (4, -1.64487527073870758443e+01) (5, -3.00145438873457486295e+01) (6, -1.24410799032307597400e+01) (7, -4.67977488619471948539e+00) (8, -6.44902618331745447477e-01) (9, 1.37767816327829389911e-01) (10, 1.99716682242651072388e-01) (11, 3.87223757989049011119e-01) (12, 3.51230901392887484569e-01) (13, 3.92723920100568668623e-01) (14, 4.12726108798184665449e-01) (15, 5.58021395686064569652e-01) (16, 4.75936311574829240545e-01) (17, 5.22990173100412625296e-01) (18, 5.93903336256209501975e-01) (19, 7.46836210497643371298e-01) (20, 1.76556209077586756528e+00) (21, 1.60893208135427445704e+00) (22, 1.39840141408650797672e+00) (23, 1.00202406090781104275e+00) (24, 1.18407199847209043675e+00) (25, 6.90345661494264684066e-01) (26, 5.17587147244222389730e-01) (27, 6.55386701608841604205e-01) (28, -1.05449681263185865432e-01) (29, -9.40010473401764579116e-01) (30, -1.13965890784309520356e+00) (31, -1.11741009271925584301e+00) (32, -1.18843190834680445533e+00) (33, -8.91383095723656371234e-01) (34, -9.02451890883068652549e-01) (35, 1.30325751049281624017e-01) (36, -5.13482453541528010947e-04) (37, 2.60708146098713511307e-01) (38, 1.76001704247358253808e-01) (39, 1.88191965686961892867e-01) (40, 1.59045498066978152618e-01) (41, 1.13724079569016714442e-01) (42, 3.00488278945520159713e-01) (43, 1.59584740629022037162e+00) (44, 4.12688838709566763185e+00) (45, 3.23616670474993162188e+00) (46, 3.14378033738543782860e+00) (47, 1.43614663677267657249e+02) (48, 1.43171792652767404519e+00) (0, 2.54423204769471167364e-01) (1, 2.61280381218735979765e-01) (2, 2.37052470433151418749e-01) (3, -3.38431214068903363223e-01) (4, -4.75523255013160561777e-01) (5, -7.60014712538205849945e-01) (6, -7.23728466918295731958e-01) (7, -1.56324754912551211472e-01) (8, -2.25514862198527593629e-01) (9, -3.60719235231702350930e-02) (10, -6.41512081184383020638e-02) (11, 1.14978735850391512729e-02) (12, 5.33141923038956203063e-02) (13, -1.82618661597414272402e-01) (14, -1.95527603124848042837e-01) (15, -1.40565037977173123984e-01) (16, -2.30955899011566351264e-01) (17, -7.64811285626593451159e-02) (18, -7.93906583422028717424e-04) (19, 1.41649205744140416208e-01) (20, 1.60344598833519064174e-01) (21, 5.84161834563610149473e-01) (22, 1.24372710730398849943e-01) (23, 1.85274308392463227246e-01) (24, 1.24586746708212695034e-01) (25, 9.64666434883937329303e-02) (26, -3.51877762944933689636e-04) (27, -1.55437787281251404981e-01) (28, -2.17586919672569578665e+00) (29, -4.29071293915699136789e+00) (30, -2.41974844113955489533e+00) (31, 6.69417389604837520523e+00) (32, 7.40592414709935198402e+00) (33, -3.90552960107897328967e+00) (34, -3.01461543232856321595e+00) (35, 4.17957596672073772304e-01) (36, 5.35029232693211231897e-01) (37, -8.78657121277264474557e-01) (38, -3.38838719879437411109e+00) (39, -5.99641443748260272173e+00) (40, -5.78666046707301173768e+00) (41, -4.10277783249441085900e+00) (42, -5.72885233422401274339e+00) (43, -3.28917726877932969920e-01) (44, -2.31795588784960732154e-01) (45, 2.42844637761730000602e-02) (46, 4.46368268286960814817e-02) (47, -2.44299785385752393774e-01) (48, 1.04185546364244208117e-01) (0, 1.72094686344827052515e-01) (1, 2.92696870448959256539e-01) (2, 1.26004574747138164970e-01) (3, -5.66517033601882102900e-01) (4, -4.21291150688096693866e-01) (5, -7.32791407526531379801e-01) (6, -7.59885372457676622204e-01) (7, -1.61267576985030663961e-01) (8, -9.17924036364281825673e-02) (9, -1.97288510733323180224e-02) (10, 2.55227063726820246892e-01) (11, 2.77702067922987294590e-01) (12, 2.72778962360202603676e-01) (13, -3.50795810458018053613e-02) (14, -1.36766320741799562999e-01) (15, -1.74722980735893790305e-01) (16, -1.11733220460365975657e-01) (17, -1.80522360174725032822e-01) (18, -1.59203475098334712445e-01) (19, 1.31796955360202805441e-01) (20, 3.30597083077706799248e-01) (21, 8.69639258648318591582e-01) (22, 3.90987323115399798557e-01) (23, 8.62946112869179882132e-01) (24, 3.57207218270725490594e-01) (25, 6.28571670342190080838e-02) (26, 1.25700660121549623316e-01) (27, -7.79783871239995568514e-02) (28, 6.18984861264427421723e-01) (29, -4.08765865786649973401e-01) (30, 2.99702909576059806085e+00) (31, 2.54886765850194052518e+00) (32, 2.43669529088828706875e+00) (33, -1.03208677941819337853e+00) (34, -1.02332626009246019372e+00) (35, 6.66552166240485188808e-01) (36, 6.67949789755863165830e-01) (37, -1.15144507943534657457e+00) (38, -3.66199328277051083802e+00) (39, -4.91043722772941126919e+00) (40, -5.07923957125033176396e+00) (41, -4.96438492738303160934e+00) (42, -5.00536436841877918624e+00) (43, -4.90121178905080068233e+00) (44, -2.36024506443790382804e+00) (45, -3.71564326048018034321e-01) (46, -1.62711433015930273527e-01) (47, 1.56911914607306468561e-01) (48, 1.10670797885113803005e-01) (0, 2.60965710426432961899e-01) (1, 3.43466794298548594444e-01) (2, 2.01412378172532685605e-01) (3, -3.50554794961565774347e-01) (4, -5.78478536304061874418e-01) (5, -6.36003531208231276395e-01) (6, -7.60942044284878438276e-01) (7, -1.63817177535146546452e-01) (8, -1.85070923100235928960e-01) (9, -1.14164475536046222670e-01) (10, 2.07324975375790791386e-04) (11, 5.95799843357207731254e-02) (12, 1.30312197892487241502e-01) (13, -7.39115669412298333801e-03) (14, -1.78198004171449791988e-01) (15, -1.10662241539758315900e-01) (16, -5.06087570544334480749e-02) (17, -1.09878448438561204803e-01) (18, 4.88854304115148990961e-02) (19, 2.00855673092335818009e-01) (20, 3.30277799254684423236e-01) (21, 5.94711045643445346265e-01) (22, 5.26686224943944014676e-01) (23, 4.83943979905931631613e-01) (24, 7.92550058618568947777e-02) (25, 5.71631200996795679758e-02) (26, 6.06873593667152169684e-02) (27, -1.50418350523800259388e-01) (28, -1.78988212652009170966e+00) (29, -3.28482741473554495926e+00) (30, -6.36263684723426092837e-01) (31, 3.21624256704156241682e+00) (32, 3.21650339696709952619e+00) (33, -2.49277795669524726563e+00) (34, -1.64262907140518965576e+00) (35, 3.69792005328982653634e-01) (36, 8.79051998291989766798e-02) (37, -8.46058695049073494765e-01) (38, -4.05100859415037994893e+00) (39, -6.13224453401028402055e+00) (40, -6.10135528893819323315e+00) (41, -6.15080133877369039652e+00) (42, -6.04906848208172664982e+00) (43, -6.73483491017674751333e+00) (44, -3.78521602114943123141e+00) (45, -2.46722114580232604331e-01) (46, -1.10627959125674329988e-01) (47, -1.81088797905764348206e-01) (48, 1.18005926852603804100e-01) (0, 4.40302903141747623006e-02) (1, 1.94583884095174269868e-01) (2, 1.47617932866079160092e-01) (3, -4.34336262841615416974e-01) (4, -4.87515752194698559485e-01) (5, -6.55631913501311003323e-01) (6, -8.05095704154652258566e-01) (7, -5.31635958053478865915e-02) (8, -9.21614180686850664737e-02) (9, -5.77424646510251854403e-02) (10, 5.03181338608583383909e-01) (11, 4.85160000257039814020e-01) (12, 4.02117475502038801416e-01) (13, -1.35548237330939375100e-01) (14, -1.57745806090070661565e-01) (15, -1.23557263527309266204e-01) (16, -2.45259344680843177633e-01) (17, -1.83958770682196876001e-01) (18, -1.01080884541188825709e-02) (19, -1.42720679284368684447e-03) (20, 2.67131250730096969637e-01) (21, 4.54648828746264610512e-01) (22, 4.07139516539865520262e-01) (23, 8.33579156517815444971e-01) (24, 2.55726862014772016174e-01) (25, 1.06092343958337470555e-01) (26, 1.05525165787570523318e-02) (27, -8.00843893081330943096e-02) (28, -8.09818710943957631443e-01) (29, -2.87609223070889630236e+00) (30, 1.59416059493391681912e+00) (31, 8.04318488570851641839e+00) (32, 8.48030178757425723290e+00) (33, -2.49116285200144726986e-01) (34, -1.66919289075988352966e-01) (35, -2.84351033411118114813e+00) (36, -2.70016460515324707714e+00) (37, -4.19816116105393355440e+00) (38, -4.23805449232136499660e+00) (39, -7.42615567669196963152e+00) (40, -3.79480022648236570149e+00) (41, -2.95043586383342670842e+00) (42, -5.85108717304844283547e+00) (43, -1.92862985425714272836e+00) (44, -1.25403954834963055065e-01) (45, -1.73504003413828059021e-02) (46, 2.94917929750567672786e-02) (47, -1.47337292861220742202e-01) (48, 1.29932335051388042624e-01) (0, 1.57255268036015194433e-01) (1, 1.81694042399939081900e-01) (2, 1.30952378341973402209e-01) (3, -3.83967783608434476417e-01) (4, -5.29921835931606577397e-01) (5, -5.58222125921934098081e-01) (6, -3.50295995116946701220e-01) (7, -4.35427966585048356607e-02) (8, -2.19511661374379773992e-01) (9, -3.45924269236520809390e-02) (10, 5.12409294950921023748e-01) (11, 4.63622458049638086486e-01) (12, 4.69026728571461826167e-01) (13, -2.73909806534744115769e-01) (14, -1.83613963512563926894e-01) (15, -2.44665196884420094170e-01) (16, -1.38833637165653583923e-01) (17, -1.67923130252996571921e-01) (18, 4.17717288073358918726e-03) (19, 6.36988100388475725344e-02) (20, 2.14086277462930935078e-01) (21, 4.76134600708028155047e-01) (22, 2.71973760324419555623e-01) (23, 4.45553299269620561862e-01) (24, 1.87401602362340852226e-01) (25, 4.24566030936281840757e-02) (26, -1.25626312730034911391e-01) (27, -1.11310677114257419729e-01) (28, -3.45205069354305282836e-01) (29, -3.03941736389109840033e+00) (30, 2.73133346254196673897e+00) (31, 8.01529354614685907165e+00) (32, 7.94381156203817262451e+00) (33, -4.38764966410943979547e-01) (34, -5.35212279722974804130e-01) (35, -2.92420450169126056039e+00) (36, -2.93732945424632063691e+00) (37, -4.27546908849743889647e+00) (38, -4.45463697524042157028e+00) (39, -7.59861382718470590447e+00) (40, -3.74415139411016451021e+00) (41, -3.26434184448120356947e+00) (42, -6.20644389279214347965e+00) (43, -7.62496811962086962211e-01) (44, -4.11007256406411169980e-01) (45, -7.51931883937338590984e-02) (46, 5.30935652512602093700e-02) (47, -1.28251751668517072202e-01) (48, 9.02687024844891772180e-02) (0, 1.01728959013483688523e+00) (1, 8.21477945468783943284e-01) (2, -2.90036628679868346836e+00) (3, -1.73846229895272372801e+01) (4, -2.45935626457043241544e+01) (5, -2.47383253652271477563e+01) (6, -1.04334940155027524611e+01) (7, -5.09600034038748450627e+00) (8, -6.72574859920485268461e-01) (9, 1.37484986040225881654e-01) (10, 1.92387063939915919919e-01) (11, 3.13179239846412216242e-01) (12, 4.12205209649145642992e-01) (13, 4.12090978170630894972e-01) (14, 3.53277317965362103180e-01) (15, 4.10583555484149487214e-01) (16, 4.98478745698960390431e-01) (17, 4.23381339399005851565e-01) (18, 7.14930702770200321439e-01) (19, 7.57990701381848319684e-01) (20, 1.91507860988396849677e+00) (21, 1.28255156920295632084e+00) (22, 1.39596129205363084225e+00) (23, 1.12927630763130459890e+00) (24, 1.06449287239259948734e+00) (25, 7.39414841132741806895e-01) (26, 5.57354325094632896409e-01) (27, 4.45543601334164540706e-01) (28, -1.32465549276599453554e-01) (29, -9.52620005646183209969e-01) (30, -1.12314695103325901115e+00) (31, -1.19372474942845130386e+00) (32, -1.13582289014500403823e+00) (33, -1.00440900446991610018e+00) (34, -7.80165324508777624501e-01) (35, -4.10094378971871606487e-02) (36, 1.03191631891852417247e-01) (37, 2.68671640955127077888e-01) (38, 2.72534966267935996331e-01) (39, 2.38769053406719500288e-01) (40, 1.41322978007923788502e-01) (41, 2.24869820884305404718e-01) (42, 2.07889574167167440200e-01) (43, 9.60108635444484215249e-01) (44, 2.90487887085624096883e+00) (45, 2.20663472750109557197e+00) (46, 2.68972131443841933063e+00) (47, 1.05433768196502946068e+01) (48, 7.94470055645625339302e-01) (0, 2.12223864742037887643e-01) (1, 1.89259436981934175970e-01) (2, 6.34050869722729421030e-02) (3, -5.64600915528592262049e-01) (4, -6.75334321651989699653e-01) (5, -7.32330259581192799523e-01) (6, -4.55126642456349927990e-01) (7, -9.21756185785232162733e-02) (8, -1.34475231935113487269e-01) (9, -6.98850464942055299433e-02) (10, 5.62000679223840782228e-01) (11, 6.37613721855180393128e-01) (12, 6.60723336704270858277e-01) (13, -1.14860140829167872711e-01) (14, -1.77173159746828845496e-01) (15, -2.46955547872385383634e-01) (16, -1.85344038756450668615e-01) (17, -1.70783919248523735623e-01) (18, -1.50868747262626390349e-01) (19, -5.56220277495451920734e-04) (20, 2.24298640762923356951e-01) (21, 5.72262215988703859537e-01) (22, 4.80455030097765634078e-01) (23, 3.78087917827831687667e-01) (24, 1.24354333664647126456e-01) (25, 1.35001784259925275422e-02) (26, -8.42762542175344991913e-02) (27, -1.03734105832566328442e-01) (28, -4.24255513703072018039e-01) (29, -1.53657413174301438197e+00) (30, 5.26771101347097925327e+00) (31, 4.23305733302892672754e+00) (32, 4.25806488831059493094e+00) (33, -1.92586551912203507442e+00) (34, -1.80751781044989678904e+00) (35, -3.32655017346267412037e+00) (36, -2.90767444554684084679e+00) (37, -4.39026859210438580305e+00) (38, -4.77638042394987749617e+00) (39, -6.75835916161531446988e+00) (40, -5.85315874175411199332e+00) (41, -5.92126307592969869376e+00) (42, -5.82048326385603509436e+00) (43, -7.95454740010611005552e-01) (44, -4.22675034751886058437e-01) (45, -1.70542639620131580847e-01) (46, 4.54622812567999183553e-03) (47, 4.59832974290254672955e-02) (48, 8.60405616913628712439e-02) (0, 2.89364016134224577570e-01) (1, 3.59802407310550020902e-01) (2, 2.12204293075264588397e-01) (3, -3.91927567397131360050e-01) (4, -6.03976397954157806502e-01) (5, -7.96406808968269097626e-01) (6, -7.23656851937598100122e-01) (7, -2.23371474323580371246e-01) (8, -2.17855507759163485870e-01) (9, -1.15602567561503499771e-01) (10, 4.51405912480358703642e-02) (11, 2.98012595370186032795e-02) (12, 3.42926756090485146400e-02) (13, 1.78885545380570070220e-03) (14, -1.86439049636593606740e-01) (15, -1.18207760405018111327e-01) (16, -1.73234157776787023320e-01) (17, -9.88694187590418716027e-02) (18, -1.11092718972795906351e-01) (19, 3.36262625223328892599e-02) (20, 1.83385027591186605678e-01) (21, 4.99317170824405576202e-01) (22, 5.10138925929287556649e-01) (23, 1.67483595976291227414e-01) (24, 9.83118122971638891405e-02) (25, 1.31161434328542686467e-01) (26, -1.34714303418071695839e-01) (27, -2.25066456012225551975e-01) (28, -2.11325926713427847403e+00) (29, -4.13421727861355048361e+00) (30, -2.39015462324986449616e+00) (31, 7.43504998657116900063e+00) (32, 7.46094182702908526039e+00) (33, -3.90065801660393285388e+00) (34, -3.10995021163399210096e+00) (35, 6.29622724752930240655e-01) (36, 5.03508717012898010523e-01) (37, -8.34955405509881232184e-01) (38, -3.53012203740872365643e+00) (39, -6.58947368905907637782e+00) (40, -5.62280437050728831849e+00) (41, -4.13428317879262863244e+00) (42, -5.72495556323199306092e+00) (43, -3.83846886459594194285e-01) (44, -1.69184456826893231396e-01) (45, 2.69118514190334126579e-02) (46, 1.07610173875263108456e-02) (47, -4.78153919299517171648e-01) (48, 8.32482861239277893706e-02) (0, 2.17025679045865088623e-01) (1, 3.45227282971052984450e-01) (2, 1.84409873101955196217e-01) (3, -3.41435190646682318327e-01) (4, -2.95168702238537139504e-01) (5, -5.32003220352843531060e-01) (6, -3.03017832435025613602e-01) (7, -5.56087580503511758057e-02) (8, -1.52566845391677391452e-01) (9, 6.09774994606095896432e-02) (10, 2.29858745652129353720e-02) (11, 1.39082686220571571933e-01) (12, 3.51596806622853502722e-02) (13, -2.77245100101988495300e-02) (14, -8.85024108769010553477e-02) (15, -6.82700938824356007295e-02) (16, -5.45761938383675718200e-02) (17, -1.82838651506866400887e-01) (18, -7.05455986220581143797e-02) (19, 1.17779005152247012722e-01) (20, 2.05171058820291546398e-01) (21, 4.95643018360189646643e-01) (22, 6.15592119429646533746e-01) (23, 2.96317549329360552246e-01) (24, 1.49869302407545063049e-01) (25, 1.07549732373443708566e-02) (26, -1.13906466618356239096e-01) (27, -2.01586023412061138282e-01) (28, -4.84041660659420280854e-01) (29, -3.46548278104291274104e+00) (30, -2.04174242703696551260e+00) (31, 7.34901065008742282458e+00) (32, 7.36888878421885440417e+00) (33, -4.44733838763270483696e+00) (34, -3.88478002392485066707e+00) (35, -6.06523431103357713035e-01) (36, -6.92491475412985058036e-01) (37, -1.22361989593605335891e+00) (38, -3.40951315000261789834e+00) (39, -6.17606970025908719180e+00) (40, -5.69850293963082332738e+00) (41, -1.39847225918772988251e+00) (42, -4.74385303092947019366e+00) (43, -6.19527914850410921233e-01) (44, -1.13235068290405660463e+00) (45, -8.01138346468114881382e-02) (46, 1.33955675886936187435e-01) (47, -1.49422907347820543844e-01) (48, 9.47765484787614805040e-03) (0, 1.71137771835575241974e-01) (1, 3.70856073782985129483e-01) (2, -2.09004561589743523276e-02) (3, -3.92466981981768048282e-01) (4, -5.20858085893325162274e-01) (5, -7.76468000258091928245e-01) (6, -7.85372432460612168725e-01) (7, -1.16892721016105094467e-01) (8, -2.52095046896632535294e-01) (9, -2.05748425414388168286e-02) (10, -1.62411490907342255519e-02) (11, 1.04211937408262372839e-01) (12, -4.05444849140624494210e-02) (13, -1.08759953716917379118e-01) (14, -1.72268969213238504201e-01) (15, -1.69403031718208529899e-01) (16, -1.50357798254444341435e-01) (17, -2.04963034470051680414e-01) (18, -6.20238284608062642733e-02) (19, 1.97700974939992273061e-02) (20, 1.48647924903827721721e-01) (21, 5.47800617064830852598e-01) (22, 5.22450600583771573859e-01) (23, 2.17886777989624691454e-01) (24, 1.70720741764365135928e-01) (25, 6.79491364717349777269e-02) (26, -6.78687485596255191123e-02) (27, -1.33898732470250581006e-01) (28, -2.13919144503554647940e+00) (29, -4.15723483408878724532e+00) (30, -2.35705468879113189118e+00) (31, 6.64900475117952272086e+00) (32, 7.44897793802628527260e+00) (33, -3.96243822346304508386e+00) (34, -3.11382035256085920594e+00) (35, 5.00777137380150061396e-01) (36, 5.17714701784149800012e-01) (37, -8.39506011522225592536e-01) (38, -3.35123620485115969458e+00) (39, -6.04030914563918841509e+00) (40, -5.73201226888566051088e+00) (41, -4.21635715787235199059e+00) (42, -5.68003297110679472581e+00) (43, -3.46363351441130840058e-01) (44, -1.61807219745365521435e-01) (45, 9.63624608050005909687e-02) (46, -2.24378222072345381854e-02) (47, -2.04478291015053464941e-01) (48, 4.77816486615503174806e-02) (0, 1.19254059860163108553e+00) (1, 5.48284241061088084557e-01) (2, -4.10118332706140709121e+00) (3, -2.36773934536557852937e+01) (4, -2.37061236432305442179e+01) (5, -1.04998605201437413825e+01) (6, -1.05644235738250529266e+01) (7, -7.45525691752653241196e+00) (8, -5.20226358745208017353e+00) (9, -1.05353619629321687556e-01) (10, 2.58685212264297414997e-01) (11, 4.33533314809351977281e-01) (12, 4.19845161615217565831e-01) (13, 4.85705421827850203353e-01) (14, 4.41341037915116196633e-01) (15, 5.12950390869019279272e-01) (16, 3.56806027626136612607e-01) (17, 4.39181319409234272033e-01) (18, 4.99550717582624648205e-01) (19, 7.16581284316915811949e-01) (20, 1.37962887664271383059e+00) (21, 1.81853498818054060138e+00) (22, 1.31687757286788786892e+00) (23, 1.04126654475208746398e+00) (24, 1.15423488687533071229e+00) (25, 5.25652982682742964116e-01) (26, 5.44181132759292141010e-01) (27, 6.15431126398021222101e-01) (28, -2.39944394329681148781e-01) (29, -9.78245615226141618237e-01) (30, -1.02871351938482535893e+00) (31, -1.17091622433023734295e+00) (32, -1.28375663092689795697e+00) (33, -1.22462650590346555646e+00) (34, -4.24155279796508632995e-01) (35, -2.26912804820897817670e-01) (36, -9.69801591125755008127e-02) (37, 2.11868269317273233421e-01) (38, 3.46376771624460122467e-01) (39, 4.06305938625990681334e-01) (40, 3.79711776981593585045e-01) (41, 2.97507385068999874456e-01) (42, 8.16312213552089382951e-01) (43, 8.98585255983296860016e-01) (44, 1.75030627897021884287e+00) (45, 1.24473460899433563398e+00) (46, 1.30923546535711610161e+00) (47, 6.71068440881040739754e+00) (48, 6.78982814200569606555e-01) (0, 1.02400274230475485382e+00) (1, 1.46615896521589739177e-01) (2, 7.28293921912100128413e-02) (3, -1.69168933661059006646e-01) (4, -2.56250414765878953283e-01) (5, -1.70105734962704979729e+00) (6, -2.68217027608552438522e+00) (7, 1.09610538947747915284e-01) (8, 2.08926236133226028713e-01) (9, 1.49084913585567302441e-01) (10, 1.54048767417562570969e-01) (11, 2.80156993251852448612e-01) (12, 2.63468888744763318766e-01) (13, 2.39649911310473140436e-01) (14, 3.55612489268840370471e-01) (15, 3.20315174825903492550e-01) (16, 2.50916401359339236166e-01) (17, 1.82408616588357025412e-01) (18, 3.91382434747778173989e-01) (19, 4.82457046057565619446e-01) (20, 8.67474931840952256934e-01) (21, 1.48858831630836174753e+00) (22, 1.21060217208011522416e+00) (23, 8.93299614976250100362e-01) (24, 8.78712595241718408268e-01) (25, 3.48297842523350165145e-01) (26, 4.70553329481241677801e-01) (27, 3.50943332528698859196e-01) (28, 2.66123091094579655724e-01) (29, -1.80919042660145912294e+00) (30, -2.82739732076505401182e+00) (31, -3.39196552072568513481e+00) (32, -3.59399446608948602844e+00) (33, -2.23036293848207378687e+00) (34, -5.33715409576332011632e-01) (35, -6.18011190085683503881e-01) (36, -5.04592790312905603578e-01) (37, -8.22608491797134355750e-02) (38, -3.90069674590643677980e-01) (39, 2.59865104160270699030e-01) (40, 2.02643476017302565095e-01) (41, 9.24265353526696475939e-02) (42, 4.60785908932436066854e-02) (43, 6.42134712290871823015e-01) (44, 3.98713422843445286503e+00) (45, 6.51530138411589021530e-02) (46, 2.54011175914100273410e-01) (47, 8.49357254764125357838e+00) (48, 1.01062450747506260562e+00) (0, 7.87492999005348304209e-01) (1, 1.01253967428661972860e+00) (2, -7.44437197154805607724e-01) (3, -1.16986664728275808756e+01) (4, -1.49393859060232969682e+01) (5, -3.45996287785668741321e+01) (6, -8.18326512095892510956e+00) (7, -7.77590722199109762869e+00) (8, -1.39210231745795409708e+00) (9, 7.84910468111767040122e-02) (10, -4.71877231429132307228e-02) (11, 4.27809380245940396037e-01) (12, 3.19713377780101504211e-01) (13, 4.44586412379852968790e-01) (14, 5.23884201767445767395e-01) (15, 4.94285212045688371330e-01) (16, 5.10469244551704837143e-01) (17, 3.25683021571377573355e-01) (18, 4.51615330830538397322e-01) (19, 6.46228742924882526566e-01) (20, 1.31253019159962391882e+00) (21, 1.13135496798461487877e+00) (22, 1.24720170703078214736e+00) (23, 1.22775757334283208699e+00) (24, 9.91869545780173722527e-01) (25, 7.04991896446056642844e-01) (26, 4.37930049263616949506e-01) (27, 5.79953874679306369266e-01) (28, -1.74031372381008769823e-01) (29, -1.03971009567064442969e+00) (30, -1.00205236603412872753e+00) (31, -1.40551777304006364488e+00) (32, -1.30338057848438770847e+00) (33, -1.17187764277010431080e+00) (34, -2.87559690247502663940e-01) (35, -2.67583438722386823816e-01) (36, -1.52824248420835695494e-01) (37, 7.25387217991328658862e-01) (38, 4.19564619314792275340e-01) (39, 1.07425154094875363597e+00) (40, 7.98656612670762156014e-01) (41, 4.96909238080699755535e-01) (42, 2.34154523291770422233e+00) (43, 2.92405197269682348704e+00) (44, 4.20574914564932900163e+00) (45, 2.36664743544111866314e+00) (46, 2.33257600015497912338e+00) (47, 4.62110548287457163497e+01) (48, 9.38196426541720196468e-01) (0, 5.90007389140912788528e-02) (1, 5.26896223829093179880e-01) (2, 2.44490736962785476516e-01) (3, -5.03646399159670687951e-01) (4, -3.50474583096535174942e-01) (5, -4.86968758585670458139e-01) (6, -4.19769698060415530350e-01) (7, -1.17855580378825167132e-01) (8, -4.51473320402221434122e-02) (9, -1.48050192570531480296e-01) (10, 5.02104829492519444401e-01) (11, 3.70560528432003599697e-01) (12, 5.13932998382468975151e-01) (13, -9.71577258373281099635e-02) (14, -1.74229668226339479142e-01) (15, -2.56758976900143820465e-01) (16, -2.26375571811992692961e-01) (17, -1.08833615899922908632e-01) (18, -3.88708187257594782460e-03) (19, -2.00351859280245951644e-02) (20, 2.00679263034071186933e-01) (21, 5.51628234937690753448e-01) (22, 2.55553932672352768218e-01) (23, 6.83530085739025738967e-01) (24, 1.73239086296558181255e-01) (25, 8.90494312549831579240e-02) (26, 3.60693515377593504345e-02) (27, -1.74914071102608620345e-01) (28, -7.49287127794357354915e-01) (29, -2.93641438402741972169e+00) (30, 2.96548204342358934227e+00) (31, 8.53633143487726897547e+00) (32, 8.63986046404764351792e+00) (33, -1.49633710935458991154e-01) (34, -8.77228995878457235014e-02) (35, -2.63340345808983711251e+00) (36, -2.72278321515622234728e+00) (37, -4.26785386642369246601e+00) (38, -4.28775624441387126495e+00) (39, -7.40554625983145431434e+00) (40, -3.83307738476699677577e+00) (41, -3.06273646867308357855e+00) (42, -7.30645000097456609467e+00) (43, -8.59842399615103225585e-01) (44, -3.59253563030587586002e-01) (45, -1.17921321461613701209e-01) (46, -9.71029840257514459401e-02) (47, -7.33408845788904081159e-03) (48, 1.02187177517324256915e-01) (0, 5.62616589554122970007e-01) (1, 3.91746161678248050464e-01) (2, 4.26188765914640582677e-02) (3, -7.24389934918755057369e-02) (4, -1.78324220683268863663e-01) (5, -3.62438956787962340833e-01) (6, -1.09863263386535847665e+00) (7, 1.60541671012191494716e-01) (8, 9.38583692610406583601e-02) (9, 1.87052072042784567341e-01) (10, 1.33199965360156935557e-01) (11, 3.26911636075959799452e-01) (12, 3.30329276677497063464e-01) (13, 1.66276046222135348573e-01) (14, 3.69215704338062555845e-01) (15, 2.78867719577775896589e-01) (16, 2.82664729350191823443e-01) (17, 3.31442231821710842077e-01) (18, 2.53416619839790635549e-01) (19, 4.16904572302838116737e-01) (20, 1.15378190059739149653e+00) (21, 1.26008902997709326677e+00) (22, 1.21914750089722434545e+00) (23, 9.83342518571375445724e-01) (24, 8.33391872622572971174e-01) (25, 4.83890790641494372704e-01) (26, 3.55648683752166738792e-01) (27, 3.72714590036277160223e-01) (28, 2.91599573374537512915e-01) (29, -1.70295634897062231339e+00) (30, -2.81784701607608312202e+00) (31, -8.62491627938329763481e+00) (32, -7.68330259254987257833e+00) (33, -3.34044972329422629187e+00) (34, -1.63807906116643109407e+00) (35, -8.32978383102718766828e-01) (36, -3.89067371792729321811e-01) (37, -3.77852188275815348284e-01) (38, -4.39646867959731846298e-01) (39, 3.39322685269593471435e-01) (40, 3.62201453380099402946e-01) (41, -7.03235964248797966458e-03) (42, -1.35103781967180092138e-01) (43, 6.18943869887161990384e-01) (44, 2.12552179175696238644e+01) (45, 2.55121870658213067973e-01) (46, 1.46262105348966969798e-01) (47, 4.07277536599627154601e+01) (48, 1.84719518860812281780e+00) (49, -3.20644739440616843851e+00) (50, -3.23061342918029081872e+00) (51, -3.87100256665130348921e+00) (52, -3.95528443351291958408e+00) (53, 2.00000000000000000000e+02) (54, -1.38732580119306390998e+02) (55, 7.00000000000000000000e+02) (56, 2.14591447328834616926e+00) (57, 5.26143748109940716517e+01) (58, -1.91083811083141341669e+00) (59, -1.47064407052446426860e+03) (60, 1.97568357184114873348e+01) (61, -6.99813803233415399063e+01) (62, 1.00000000000000000000e+02) (63, -3.87680232029817428696e+00) (64, -3.02832726761731052534e+00) (65, -3.16289393564988197127e+00) (66, 5.09322269581394948545e+01) (67, -3.21534623226519489236e+00) (68, 4.43686388864161962431e+00) 
