FANN_FLO_2.1
num_layers=3
learning_rate=0.700000
connection_rate=1.000000
network_type=0
learning_momentum=0.000000
training_algorithm=2
train_error_function=1
train_stop_function=0
cascade_output_change_fraction=0.010000
quickprop_decay=-0.000100
quickprop_mu=1.750000
rprop_increase_factor=1.200000
rprop_decrease_factor=0.500000
rprop_delta_min=0.000000
rprop_delta_max=50.000000
rprop_delta_zero=0.100000
cascade_output_stagnation_epochs=12
cascade_candidate_change_fraction=0.010000
cascade_candidate_stagnation_epochs=12
cascade_max_out_epochs=150
cascade_max_cand_epochs=150
cascade_num_candidate_groups=2
bit_fail_limit=3.49999999999999977796e-01
cascade_candidate_limit=1.00000000000000000000e+03
cascade_weight_multiplier=4.00000000000000022204e-01
cascade_activation_functions_count=10
cascade_activation_functions=3 5 7 8 10 11 14 15 16 17 
cascade_activation_steepnesses_count=4
cascade_activation_steepnesses=2.50000000000000000000e-01 5.00000000000000000000e-01 7.50000000000000000000e-01 1.00000000000000000000e+00 
layer_sizes=5 12 2 
scale_included=0
neurons (num_inputs, activation_function, activation_steepness)=(0, 0, 0.00000000000000000000e+00) (0, 0, 0.00000000000000000000e+00) (0, 0, 0.00000000000000000000e+00) (0, 0, 0.00000000000000000000e+00) (0, 0, 0.00000000000000000000e+00) (5, 4, 5.00000000000000000000e-01) (5, 4, 5.00000000000000000000e-01) (5, 4, 5.00000000000000000000e-01) (5, 4, 5.00000000000000000000e-01) (5, 4, 5.00000000000000000000e-01) (5, 4, 5.00000000000000000000e-01) (5, 4, 5.00000000000000000000e-01) (5, 4, 5.00000000000000000000e-01) (5, 4, 5.00000000000000000000e-01) (5, 4, 5.00000000000000000000e-01) (5, 4, 5.00000000000000000000e-01) (0, 0, 0.00000000000000000000e+00) (12, 6, 5.00000000000000000000e-01) (0, 6, 0.00000000000000000000e+00) 
connections (connected_to_neuron, weight)=(0, -5.65752302995633655769e+01) (1, 3.76974247567142910498e+01) (2, -5.41220434833446759626e+01) (3, -4.58759715450465961339e+01) (4, 6.58148195781209910393e+00) (0, 1.18011871845031873818e+03) (1, -8.73533862482295262453e+02) (2, -1.54416507873410211005e+02) (3, 1.48629529599902275550e+03) (4, -2.43005452451885233245e+01) (0, -4.49515364797636891581e+02) (1, 3.97829698966419186945e+02) (2, -1.57340392455079012279e+02) (3, -8.95823955471910721826e+02) (4, 8.24226948995819552746e-03) (0, 3.40872426915538540015e+02) (1, -2.71597570738493175213e+02) (2, -7.00909225524858392475e+00) (3, 1.49727956658770335707e+03) (4, 1.87895120282836138870e+01) (0, -1.43538291996018301688e+02) (1, 7.62810878846464834879e+00) (2, -1.65973450610874309064e+01) (3, 1.44765988687892968301e+03) (4, 2.50755681452973666623e+00) (0, 7.29154366521984265148e+00) (1, 1.27461128817342753905e+02) (2, 1.15227974787720981453e+01) (3, -1.19753221078068463612e+03) (4, -1.67523209928085030640e+01) (0, -5.45848136727342847507e+01) (1, -4.35344875873522525467e+01) (2, 1.43009573942106404942e+00) (3, 1.51778065295535014911e+02) (4, 4.52587157709674947625e+00) (0, -3.44528044300010378720e+01) (1, 5.17218902542390992494e+01) (2, -4.11880454098958779241e+01) (3, -1.09264773217460145815e+02) (4, 6.54431105823139169786e+00) (0, -1.35050929079520301457e+02) (1, 3.85016316469880734985e+01) (2, 2.38315728339421362136e+01) (3, -5.75026394636020995677e+02) (4, 9.67876709014574387879e+00) (0, -5.47000144646336110554e+01) (1, 5.66883499781646875704e+01) (2, -8.55757811546653215373e+01) (3, -9.43475959956137558038e+02) (4, 4.27482775701901029919e+00) (0, -5.76878431160082811857e+01) (1, 2.44973697300768797902e+01) (2, -4.82908123494578802593e+01) (3, -3.86705559878036240207e+02) (4, 5.99154115431835254668e+00) (5, -2.05905060423345304343e+02) (6, -9.85056440036313851749e+00) (7, 3.90102650153153929224e+00) (8, -8.72751527809634985999e+00) (9, -1.08642037199872538622e+03) (10, -1.04838705246461270093e+01) (11, 1.50000000000000000000e+03) (12, -9.72774982453380054892e+00) (13, -1.13667171208551387451e+01) (14, 1.35000000000000000000e+03) (15, -2.00000000000000000000e+02) (16, 2.45714977219807089170e+01) 
