FANN_FLO_2.1
num_layers=3
learning_rate=0.700000
connection_rate=1.000000
network_type=0
learning_momentum=0.000000
training_algorithm=2
train_error_function=1
train_stop_function=0
cascade_output_change_fraction=0.010000
quickprop_decay=-0.000100
quickprop_mu=1.750000
rprop_increase_factor=1.200000
rprop_decrease_factor=0.500000
rprop_delta_min=0.000000
rprop_delta_max=50.000000
rprop_delta_zero=0.100000
cascade_output_stagnation_epochs=12
cascade_candidate_change_fraction=0.010000
cascade_candidate_stagnation_epochs=12
cascade_max_out_epochs=150
cascade_max_cand_epochs=150
cascade_num_candidate_groups=2
bit_fail_limit=3.49999999999999977796e-01
cascade_candidate_limit=1.00000000000000000000e+03
cascade_weight_multiplier=4.00000000000000022204e-01
cascade_activation_functions_count=10
cascade_activation_functions=3 5 7 8 10 11 14 15 16 17 
cascade_activation_steepnesses_count=4
cascade_activation_steepnesses=2.50000000000000000000e-01 5.00000000000000000000e-01 7.50000000000000000000e-01 1.00000000000000000000e+00 
layer_sizes=45 5 2 
scale_included=0
neurons (num_inputs, activation_function, activation_steepness)=(0, 0, 0.00000000000000000000e+00) (0, 0, 0.00000000000000000000e+00) (0, 0, 0.00000000000000000000e+00) (0, 0, 0.00000000000000000000e+00) (0, 0, 0.00000000000000000000e+00) (0, 0, 0.00000000000000000000e+00) (0, 0, 0.00000000000000000000e+00) (0, 0, 0.00000000000000000000e+00) (0, 0, 0.00000000000000000000e+00) (0, 0, 0.00000000000000000000e+00) (0, 0, 0.00000000000000000000e+00) (0, 0, 0.00000000000000000000e+00) (0, 0, 0.00000000000000000000e+00) (0, 0, 0.00000000000000000000e+00) (0, 0, 0.00000000000000000000e+00) (0, 0, 0.00000000000000000000e+00) (0, 0, 0.00000000000000000000e+00) (0, 0, 0.00000000000000000000e+00) (0, 0, 0.00000000000000000000e+00) (0, 0, 0.00000000000000000000e+00) (0, 0, 0.00000000000000000000e+00) (0, 0, 0.00000000000000000000e+00) (0, 0, 0.00000000000000000000e+00) (0, 0, 0.00000000000000000000e+00) (0, 0, 0.00000000000000000000e+00) (0, 0, 0.00000000000000000000e+00) (0, 0, 0.00000000000000000000e+00) (0, 0, 0.00000000000000000000e+00) (0, 0, 0.00000000000000000000e+00) (0, 0, 0.00000000000000000000e+00) (0, 0, 0.00000000000000000000e+00) (0, 0, 0.00000000000000000000e+00) (0, 0, 0.00000000000000000000e+00) (0, 0, 0.00000000000000000000e+00) (0, 0, 0.00000000000000000000e+00) (0, 0, 0.00000000000000000000e+00) (0, 0, 0.00000000000000000000e+00) (0, 0, 0.00000000000000000000e+00) (0, 0, 0.00000000000000000000e+00) (0, 0, 0.00000000000000000000e+00) (0, 0, 0.00000000000000000000e+00) (0, 0, 0.00000000000000000000e+00) (0, 0, 0.00000000000000000000e+00) (0, 0, 0.00000000000000000000e+00) (0, 0, 0.00000000000000000000e+00) (45, 4, 5.00000000000000000000e-01) (45, 4, 5.00000000000000000000e-01) (45, 4, 5.00000000000000000000e-01) (45, 4, 5.00000000000000000000e-01) (0, 0, 0.00000000000000000000e+00) (5, 6, 5.00000000000000000000e-01) (0, 6, 0.00000000000000000000e+00) 
connections (connected_to_neuron, weight)=(0, 9.11240768888758156940e-01) (1, 3.15769574080865922383e+00) (2, -1.59497684322335864238e+01) (3, -9.87485806984325265034e+00) (4, -1.51993448320320680978e+01) (5, -1.58161633779440897740e+01) (6, -3.03723511334010742857e+00) (7, -1.15505993425361386251e+00) (8, -5.12212361746943622975e-01) (9, -4.29020868680794587036e-01) (10, -3.31599434915309743133e-01) (11, 1.12766607274805225059e-01) (12, 1.80846379206312191101e-01) (13, 4.64137744829389353729e-01) (14, 8.73879590994059429754e-01) (15, 5.19467472410457431486e-01) (16, 8.39569822110201702259e-01) (17, 9.72654248577497493322e-01) (18, 1.03129487913703332680e+00) (19, 1.04527427438919895408e+00) (20, 8.46214839983860267481e-01) (21, 7.11657379089889796653e-01) (22, 7.34125284099418906614e-01) (23, 3.13143766552136493253e-01) (24, 5.36536741998606347970e-01) (25, 2.40725480865528196350e-02) (26, -2.62753981341257103477e-01) (27, -5.12326887669896091637e-01) (28, -1.30669414894821134254e+00) (29, -1.24790073473230278545e+00) (30, -1.08509802503977881294e+00) (31, -7.43082114497455092916e-01) (32, 4.05558665483301966637e-02) (33, -1.13037553963893949716e-01) (34, -1.69929202431093800962e-01) (35, -9.53456049498428853672e-02) (36, -5.63188676152031678090e-02) (37, -1.30871737121836424766e-02) (38, 2.77340402780201812638e-02) (39, 8.58052308107085104361e-02) (40, 7.51592897809697069178e-01) (41, 4.56210637165716303976e-01) (42, 1.00987829226575120956e-01) (43, 8.31863263316949854698e+01) (44, 9.85469861618142761728e-01) (0, 2.03698429562750166211e-01) (1, 3.74719251165632494249e+00) (2, -4.46493463479255059401e-01) (3, -5.97394661151647188291e-01) (4, -4.50042961632069749012e-01) (5, -4.65946934751703678579e-01) (6, -2.41115361953943563300e-01) (7, -1.82324132424918822215e-01) (8, -2.18739174404161851317e-01) (9, -2.64753622717871395231e-01) (10, -3.16647342524537037112e-02) (11, 1.64153243832149860204e-02) (12, 1.11419977381962381768e-01) (13, 8.61638193783152706029e-02) (14, 2.14566357093134846279e-02) (15, -2.29791658159428396901e-01) (16, -5.22741650550742828485e-02) (17, 4.07404623348576466757e-01) (18, 1.09935268996469726055e+00) (19, 9.36422587593492061764e-01) (20, 7.92255923408567430677e-01) (21, 4.88741522391563099070e-01) (22, 2.50024912848319891268e+00) (23, 5.78145992799960373176e-01) (24, 1.08181337544631273051e-01) (25, -1.45212072889219806493e-01) (26, 2.26132419871250232857e-02) (27, -6.40679314379800413093e-01) (28, -3.04960685339096526647e+00) (29, -4.52152276128400565369e+00) (30, -2.87280233293968256802e+00) (31, -4.22040187080860995650e-01) (32, -2.08635420238774405011e-01) (33, -3.04353278981781549817e-01) (34, -2.63697783753799375184e-01) (35, -1.72676690905328639181e-01) (36, -1.31636822047950484416e-02) (37, -1.10502417698679411551e-01) (38, -1.25115792550564208785e-01) (39, 2.86341114201928204075e-01) (40, 9.35862122017536379737e-01) (41, 1.66077043017318903839e-01) (42, 2.53843338979414800960e-01) (43, 2.84995106155145592197e+01) (44, 9.36193689033239517805e-01) (0, 6.59966846075646651482e-02) (1, 3.34949268937468946916e+00) (2, -1.84602863730101351969e+00) (3, 1.08978569439027705990e+00) (4, 7.40642873917094712866e-01) (5, -2.98011299930764428368e+00) (6, -6.78867089708343418586e-01) (7, -6.73086470159937499957e-01) (8, -1.60465794725303118051e-01) (9, -3.18281702568262436781e-01) (10, 4.01570713631434345059e-02) (11, 6.49533542556602616624e-02) (12, 2.33670177242122245609e-01) (13, 3.34742526234815485076e-01) (14, 2.34626004948230770797e-01) (15, 3.10120666714004289410e-01) (16, 1.80787516052933777688e-01) (17, 4.71711838710368203120e-01) (18, 1.03345757125678239241e+00) (19, 1.00949286240532787318e+00) (20, 8.35059544041552470617e-01) (21, -1.45876900949860055512e-01) (22, 7.81997648904675934922e-01) (23, 3.98257289864455188422e-01) (24, 2.11509374435284169813e-01) (25, 4.35634888186087129713e-02) (26, -1.99115441727091724289e-01) (27, -8.95284201150234104638e-01) (28, -2.03029478920968697864e+00) (29, -9.10485605028707389863e+00) (30, -2.93096432800504214100e+00) (31, -9.13656829834695538572e-01) (32, -1.02104724264285531832e-01) (33, -1.50760415713309364749e-01) (34, 2.09903940542778243150e-02) (35, -1.40567186948332596697e-02) (36, 7.41695771460119113172e-01) (37, 1.11988373092752180327e+00) (38, 3.99856214693616943134e-02) (39, 2.51146265676718494220e+00) (40, 9.66598185856024549878e+00) (41, 1.21569726585080584158e-01) (42, 1.06956132375095630538e-01) (43, 3.76809869586450645329e+01) (44, 8.97515295694798598269e-01) (0, 2.30697686562501672825e+02) (1, 3.55043354820796475124e+00) (2, 9.79964494273622506171e+01) (3, 5.78461702195924942771e+00) (4, 1.32196984154053023275e+01) (5, 6.41003798268038309516e+01) (6, 6.76404612031395515714e+01) (7, 6.98478335176719014044e+01) (8, 7.95701445515634588901e+01) (9, 8.08575598349886206506e+01) (10, 1.37549181327167389099e+02) (11, 8.06321640560101400297e+01) (12, 2.81970602845455573515e+01) (13, 5.34150409763746036873e+00) (14, 3.98820398680302634631e+00) (15, 5.26517040202159147810e+00) (16, 4.38715926436097891639e+00) (17, 2.89147362125439233438e+00) (18, 1.60437194358525703208e+00) (19, 2.76000014199156895600e+00) (20, 1.16280013226953506944e+01) (21, 1.24651905900599876986e+03) (22, 3.11177974412466404885e+01) (23, 8.66756853112521099547e+01) (24, 3.10144859232347300804e+01) (25, 7.19953958559566729036e+01) (26, 7.19727943558031313387e+01) (27, 1.24898833906609894484e+02) (28, 1.50000000000000000000e+03) (29, 1.50000000000000000000e+03) (30, 1.50000000000000000000e+03) (31, 1.27028518231328052934e+03) (32, 1.19638909454913829222e+02) (33, 1.63458256335559219963e+01) (34, 1.86840002453706794938e+01) (35, 1.69901153894478255779e+02) (36, 4.04644541151673120538e+00) (37, 4.22838823419409326476e+00) (38, 8.26792389097300173262e+00) (39, -7.84729726783656378331e+00) (40, -6.98280894443619928325e+01) (41, 1.07888106745999220948e+03) (42, 1.07893532477091912369e+03) (43, 8.53112857304241578582e-01) (44, 3.68786762411914015303e+00) (45, -2.02707088923008207360e+01) (46, -1.03560990682505753568e+01) (47, -9.19652634326196327663e+00) (48, 2.10981044528889150058e+00) (49, 5.07060960268432747711e+00) 
