FANN_FLO_2.1
num_layers=3
learning_rate=0.700000
connection_rate=1.000000
network_type=0
learning_momentum=0.000000
training_algorithm=2
train_error_function=1
train_stop_function=0
cascade_output_change_fraction=0.010000
quickprop_decay=-0.000100
quickprop_mu=1.750000
rprop_increase_factor=1.200000
rprop_decrease_factor=0.500000
rprop_delta_min=0.000000
rprop_delta_max=50.000000
rprop_delta_zero=0.100000
cascade_output_stagnation_epochs=12
cascade_candidate_change_fraction=0.010000
cascade_candidate_stagnation_epochs=12
cascade_max_out_epochs=150
cascade_max_cand_epochs=150
cascade_num_candidate_groups=2
bit_fail_limit=3.49999999999999977796e-01
cascade_candidate_limit=1.00000000000000000000e+03
cascade_weight_multiplier=4.00000000000000022204e-01
cascade_activation_functions_count=10
cascade_activation_functions=3 5 7 8 10 11 14 15 16 17 
cascade_activation_steepnesses_count=4
cascade_activation_steepnesses=2.50000000000000000000e-01 5.00000000000000000000e-01 7.50000000000000000000e-01 1.00000000000000000000e+00 
layer_sizes=51 4 2 
scale_included=0
neurons (num_inputs, activation_function, activation_steepness)=(0, 0, 0.00000000000000000000e+00) (0, 0, 0.00000000000000000000e+00) (0, 0, 0.00000000000000000000e+00) (0, 0, 0.00000000000000000000e+00) (0, 0, 0.00000000000000000000e+00) (0, 0, 0.00000000000000000000e+00) (0, 0, 0.00000000000000000000e+00) (0, 0, 0.00000000000000000000e+00) (0, 0, 0.00000000000000000000e+00) (0, 0, 0.00000000000000000000e+00) (0, 0, 0.00000000000000000000e+00) (0, 0, 0.00000000000000000000e+00) (0, 0, 0.00000000000000000000e+00) (0, 0, 0.00000000000000000000e+00) (0, 0, 0.00000000000000000000e+00) (0, 0, 0.00000000000000000000e+00) (0, 0, 0.00000000000000000000e+00) (0, 0, 0.00000000000000000000e+00) (0, 0, 0.00000000000000000000e+00) (0, 0, 0.00000000000000000000e+00) (0, 0, 0.00000000000000000000e+00) (0, 0, 0.00000000000000000000e+00) (0, 0, 0.00000000000000000000e+00) (0, 0, 0.00000000000000000000e+00) (0, 0, 0.00000000000000000000e+00) (0, 0, 0.00000000000000000000e+00) (0, 0, 0.00000000000000000000e+00) (0, 0, 0.00000000000000000000e+00) (0, 0, 0.00000000000000000000e+00) (0, 0, 0.00000000000000000000e+00) (0, 0, 0.00000000000000000000e+00) (0, 0, 0.00000000000000000000e+00) (0, 0, 0.00000000000000000000e+00) (0, 0, 0.00000000000000000000e+00) (0, 0, 0.00000000000000000000e+00) (0, 0, 0.00000000000000000000e+00) (0, 0, 0.00000000000000000000e+00) (0, 0, 0.00000000000000000000e+00) (0, 0, 0.00000000000000000000e+00) (0, 0, 0.00000000000000000000e+00) (0, 0, 0.00000000000000000000e+00) (0, 0, 0.00000000000000000000e+00) (0, 0, 0.00000000000000000000e+00) (0, 0, 0.00000000000000000000e+00) (0, 0, 0.00000000000000000000e+00) (0, 0, 0.00000000000000000000e+00) (0, 0, 0.00000000000000000000e+00) (0, 0, 0.00000000000000000000e+00) (0, 0, 0.00000000000000000000e+00) (0, 0, 0.00000000000000000000e+00) (0, 0, 0.00000000000000000000e+00) (51, 4, 5.00000000000000000000e-01) (51, 4, 5.00000000000000000000e-01) (51, 4, 5.00000000000000000000e-01) (0, 0, 0.00000000000000000000e+00) (4, 6, 5.00000000000000000000e-01) (0, 6, 0.00000000000000000000e+00) 
connections (connected_to_neuron, weight)=(0, 2.16315159515354027420e+00) (1, 2.42201349612103555842e+00) (2, -1.80196248169028194752e+00) (3, -6.20507821580609952861e+00) (4, -7.65052224737936548138e+00) (5, -1.04252491011305874480e+01) (6, -2.93014256063150320131e+01) (7, -1.19139468231787084562e+01) (8, -1.97006062264473102985e+00) (9, -1.41596318272891363854e+00) (10, -6.74194640074626261317e-01) (11, -1.00349603224607819563e+00) (12, -3.49405614904196248904e-01) (13, 1.81684349975590880844e-01) (14, 5.59821388423104027154e-01) (15, 8.68669539099281129424e-01) (16, 1.02580952710569217601e+00) (17, 2.93362599290205861013e-01) (18, 2.58373213661628853277e-01) (19, 1.75851454131778206502e+00) (20, 4.84030712124885298397e-01) (21, 1.31283345445345078772e+00) (22, 2.61196773828978612286e+00) (23, 9.37678982820184026004e-01) (24, -4.67180359753932503142e-02) (25, 9.03563910902575595507e-01) (26, 6.27434737059586078445e-01) (27, 6.12559059682190931717e-01) (28, 2.41008456291205125366e-01) (29, -1.77949608122511093722e-01) (30, -7.30126191732608953444e-01) (31, -1.17739666461032177480e+00) (32, -1.83402827101614707139e+00) (33, -1.66387602823481839387e+00) (34, -1.16666527058075053525e+00) (35, -9.94294445323702813511e-01) (36, -6.84807222104822810316e-01) (37, -2.58692136405284552059e-02) (38, 5.84188237425160128424e-01) (39, 6.98877721142763114193e-02) (40, 4.21053534266487075599e-02) (41, 1.90653827750936033514e-01) (42, 4.92764255243028637121e-02) (43, -8.14720699149658472704e-02) (44, 5.56705152223552629520e-02) (45, 7.43662087080478872991e-02) (46, 1.13253449722915267017e+01) (47, 1.30247219314565310100e+00) (48, 3.87296472237475031264e+00) (49, 5.17080371669030967041e+01) (50, 2.29327581978973249477e+00) (0, 8.48502252751319185897e-01) (1, 4.71332434808426015138e+00) (2, -1.64418798581387037849e+00) (3, 8.62896108327303235086e-01) (4, -8.15799556310918050350e-01) (5, -2.31252178222013382580e+00) (6, -1.87258346187106949898e+00) (7, -8.30726339534019753152e-01) (8, -7.19289022279231304857e-01) (9, -8.65943746720266971373e-01) (10, -3.73326344644617336144e-01) (11, -3.59161675181112749478e-01) (12, -1.76472631524237782985e-01) (13, 2.27670228655238976456e-01) (14, 3.89878333767149698463e-01) (15, 3.44790159080783309431e-01) (16, 3.64936349457103625937e-01) (17, 2.70654490248200430003e-01) (18, 2.24702835904637521214e-01) (19, 1.43986288258411021523e+00) (20, 6.29587795239957448423e-01) (21, 5.52903318876146632199e-01) (22, 4.05075925915522550014e-01) (23, 1.93228782052496872446e+00) (24, -3.87415268585439842575e-01) (25, 1.23938081556207468914e+00) (26, 9.46215695691004055057e-01) (27, 1.39813694366334084762e+00) (28, 6.54230135097050524706e-01) (29, 2.89070255171550938300e-01) (30, -3.09190172097719373490e-01) (31, -1.69922905325111472941e+00) (32, -3.67846057847395124796e+00) (33, -4.64339371016516633262e+00) (34, -2.01849874355224878641e+00) (35, -8.57846409785118169111e-01) (36, -6.44727173560184607659e-01) (37, -2.61636497571477055768e-01) (38, -2.77065505918254240125e-01) (39, -2.54170485860769485020e-02) (40, -1.46791921855191853652e+00) (41, -3.56370039555299125689e-02) (42, -6.29794218874085015569e-02) (43, -8.56829697881229868095e-01) (44, 1.76807222449788564896e-03) (45, 6.36510858769648968369e-01) (46, 1.11830797237935559707e+01) (47, 1.26833220146257752425e+00) (48, 1.25654315612444911210e+00) (49, 2.38467012910543196824e+00) (50, 1.28469342618888759944e+00) (0, 4.63245919962416419224e+00) (1, 5.54060304789604618492e+00) (2, -3.12371457504841520958e-01) (3, -2.29446056487110361388e+00) (4, -2.53566254698229531783e+00) (5, -4.33722373475548383936e+00) (6, -9.32928988528712821449e+00) (7, -4.18579005711089013886e+00) (8, -1.01044588136121404887e+00) (9, -7.80313015759374062341e-01) (10, -1.23155353966113367825e+00) (11, -1.39693807736437625167e+00) (12, 1.46907679033571186844e-01) (13, 2.51230112830288121462e-01) (14, 2.49135259573481898654e-01) (15, 2.90889497620467174510e-01) (16, 2.53906859183713473627e-02) (17, -3.83912952071798929676e-01) (18, 2.70773945649985317563e-02) (19, 8.61038288808307905597e-01) (20, 4.40230789865600879995e-01) (21, 8.77720739523364157364e-01) (22, 2.42202813157544172284e+00) (23, 5.69861161057410470221e-01) (24, -8.30333381920299373746e-01) (25, 5.60344661057242987567e+00) (26, 8.26272980278521584907e-01) (27, 5.84794620782751350951e-01) (28, -2.42658198480158404653e-01) (29, -2.55009010029330740466e-01) (30, -5.58884057188880900569e-01) (31, -4.08000001526048428069e-01) (32, -9.22347300745367082442e-01) (33, -1.63719478577121324570e+00) (34, -1.06642529320369239265e+00) (35, -1.03109921969156292931e+00) (36, -7.49182144034795882703e-01) (37, -6.92472237971450965688e-01) (38, -9.90438662304043315743e-01) (39, -2.22448584105429691959e+00) (40, -4.72131005000552494977e+00) (41, -7.25294804877428117562e-02) (42, -2.66349255587492317332e+00) (43, -2.28553561868875299012e+00) (44, -2.78309094438007664785e-01) (45, 1.45431384750211514789e-02) (46, 6.25243308176311685109e-01) (47, 9.62367637587190127846e-01) (48, 1.11708632332901491857e+00) (49, 1.64771548943585521840e+01) (50, 4.28251270271957285019e+00) (51, -1.60893328670202357955e+01) (52, -1.72568774478745865508e+01) (53, -2.55134022341830934977e+00) (54, 7.68692748164732542193e+00) 
