FANN_FLO_2.1
num_layers=3
learning_rate=0.700000
connection_rate=1.000000
network_type=0
learning_momentum=0.000000
training_algorithm=2
train_error_function=1
train_stop_function=0
cascade_output_change_fraction=0.010000
quickprop_decay=-0.000100
quickprop_mu=1.750000
rprop_increase_factor=1.200000
rprop_decrease_factor=0.500000
rprop_delta_min=0.000000
rprop_delta_max=50.000000
rprop_delta_zero=0.100000
cascade_output_stagnation_epochs=12
cascade_candidate_change_fraction=0.010000
cascade_candidate_stagnation_epochs=12
cascade_max_out_epochs=150
cascade_max_cand_epochs=150
cascade_num_candidate_groups=2
bit_fail_limit=3.49999999999999977796e-01
cascade_candidate_limit=1.00000000000000000000e+03
cascade_weight_multiplier=4.00000000000000022204e-01
cascade_activation_functions_count=10
cascade_activation_functions=3 5 7 8 10 11 14 15 16 17 
cascade_activation_steepnesses_count=4
cascade_activation_steepnesses=2.50000000000000000000e-01 5.00000000000000000000e-01 7.50000000000000000000e-01 1.00000000000000000000e+00 
layer_sizes=30 8 2 
scale_included=0
neurons (num_inputs, activation_function, activation_steepness)=(0, 0, 0.00000000000000000000e+00) (0, 0, 0.00000000000000000000e+00) (0, 0, 0.00000000000000000000e+00) (0, 0, 0.00000000000000000000e+00) (0, 0, 0.00000000000000000000e+00) (0, 0, 0.00000000000000000000e+00) (0, 0, 0.00000000000000000000e+00) (0, 0, 0.00000000000000000000e+00) (0, 0, 0.00000000000000000000e+00) (0, 0, 0.00000000000000000000e+00) (0, 0, 0.00000000000000000000e+00) (0, 0, 0.00000000000000000000e+00) (0, 0, 0.00000000000000000000e+00) (0, 0, 0.00000000000000000000e+00) (0, 0, 0.00000000000000000000e+00) (0, 0, 0.00000000000000000000e+00) (0, 0, 0.00000000000000000000e+00) (0, 0, 0.00000000000000000000e+00) (0, 0, 0.00000000000000000000e+00) (0, 0, 0.00000000000000000000e+00) (0, 0, 0.00000000000000000000e+00) (0, 0, 0.00000000000000000000e+00) (0, 0, 0.00000000000000000000e+00) (0, 0, 0.00000000000000000000e+00) (0, 0, 0.00000000000000000000e+00) (0, 0, 0.00000000000000000000e+00) (0, 0, 0.00000000000000000000e+00) (0, 0, 0.00000000000000000000e+00) (0, 0, 0.00000000000000000000e+00) (0, 0, 0.00000000000000000000e+00) (30, 4, 5.00000000000000000000e-01) (30, 4, 5.00000000000000000000e-01) (30, 4, 5.00000000000000000000e-01) (30, 4, 5.00000000000000000000e-01) (30, 4, 5.00000000000000000000e-01) (30, 4, 5.00000000000000000000e-01) (30, 4, 5.00000000000000000000e-01) (0, 0, 0.00000000000000000000e+00) (8, 6, 5.00000000000000000000e-01) (0, 6, 0.00000000000000000000e+00) 
connections (connected_to_neuron, weight)=(0, 3.49835138410745871695e+00) (1, -5.11181593685442337005e+00) (2, -7.53921644676177482580e+00) (3, -5.16370331125482362467e+00) (4, -1.03247759220139956327e+00) (5, -2.62696288997581628433e-01) (6, -2.61335273988685568014e+00) (7, -1.61050319154141252653e-01) (8, 1.79166459035848102399e-01) (9, 5.84677344927002184960e-01) (10, -2.37123383752067644348e-02) (11, 1.03293889475352984597e+00) (12, 1.62360315347607353509e+00) (13, 7.85105572399726114874e-01) (14, 5.21292266998491293784e-01) (15, 4.36759013891049457934e-02) (16, -3.64621034159168027830e-03) (17, -3.02004029841608956364e-01) (18, -2.33447518821987598514e+00) (19, -2.43278426542925219067e+00) (20, -2.71618141332773621599e-01) (21, -1.62150945291832937478e-01) (22, 3.29816159216324913950e-02) (23, -1.19418528489238132129e-01) (24, 4.43203802477688882377e-02) (25, 5.59475755235626717732e-02) (26, 7.00495009439274785024e+00) (27, 2.60628607658098976341e-01) (28, 3.39672729388140552942e+01) (29, 7.77742457117228225272e-01) (0, 1.40619447680732512218e+00) (1, -1.95196484829041905229e+00) (2, -1.02570536235951959014e+01) (3, -3.01508780411820431766e+01) (4, -3.46111739172065746573e+00) (5, -3.76999346606713914287e-01) (6, -4.99863427203385723985e-01) (7, 1.11926126335327655315e-01) (8, 8.82337555745344337410e-01) (9, 5.38789005737729898016e+00) (10, 3.18429909527600751851e-01) (11, 2.43025574296180518763e-01) (12, 1.49046056903224521939e+00) (13, -4.13690892373159563311e-02) (14, 1.84882361558985652827e+00) (15, 5.21708392861287006959e-01) (16, 9.29906126834481261412e-01) (17, 1.26475060159159824469e-01) (18, -9.03926859095024015645e-01) (19, -8.90013414058625662584e-01) (20, -1.25098081996219662182e-01) (21, -4.19838496675063344021e-01) (22, -4.88085255501548409551e-01) (23, -4.52622336303518335576e-01) (24, -6.12222202762956690947e-01) (25, -6.14865321784161422691e-01) (26, -1.70874365181473836239e-01) (27, 3.67762765355368870246e+00) (28, 1.45015324502067528556e+01) (29, 3.44322745525148965484e-01) (0, 3.28463331514080536522e+00) (1, 5.35664068466469256435e+00) (2, 5.29853192053696364638e+00) (3, 4.03244819322978855780e+02) (4, 9.61759615307442118137e+02) (5, 1.47651759808757401515e+03) (6, 1.50000000000000000000e+03) (7, 2.82737217072758937775e+02) (8, 1.87533283440608156134e+00) (9, 1.59646085226356815312e+00) (10, 2.21592275453265585838e+00) (11, 2.87871819355320868183e+00) (12, 5.04448355862955732931e+00) (13, 8.14507781073361627477e+01) (14, 1.28164555815092224833e+01) (15, 1.23222807488997609937e+01) (16, 1.03149739181359727525e+01) (17, 2.67066325240969533183e+01) (18, 8.18245378147231150479e+01) (19, 1.78990956554842568949e+02) (20, 7.35613523230051100654e+01) (21, 7.51625023576942385972e-01) (22, 7.56852547934464547907e-01) (23, 1.25495893967741123376e+00) (24, 8.03835260113412664040e-01) (25, 2.93987396149421664759e+00) (26, 7.08094353334261294997e-01) (27, 4.78234525801688405977e+01) (28, 1.21125065005106691274e+00) (29, 4.86429029002059287734e+00) (0, 3.48586549252687705192e+00) (1, -3.30726670193825533772e+00) (2, -7.39843733150212745642e+00) (3, -5.24385306197888212409e+00) (4, -1.02997261512043380982e+00) (5, -7.98840042069340672271e-01) (6, -2.52889909751853858566e+00) (7, -2.33475110907433447416e-01) (8, 2.52511397492860389935e-01) (9, 5.72807358138404110193e-01) (10, 1.01641365715304937689e-02) (11, 1.02790713355006513297e+00) (12, 1.50273371810610489874e+00) (13, 8.27747300674637975781e-01) (14, 6.71713465808021270576e-01) (15, 1.24847779162601701941e-01) (16, 4.47465474318076567029e-02) (17, -4.62511731178946339238e-01) (18, -2.36002133154697535389e+00) (19, -2.40630479767965654858e+00) (20, -2.80143846017984754493e-01) (21, -7.68803467610639224006e-02) (22, 1.73182916232179379135e-01) (23, -1.93905946425563441293e-01) (24, 4.20222647541872024179e-02) (25, 4.32456841608956643608e-02) (26, 6.93488754647061345082e+00) (27, 2.40343849631457384675e-01) (28, 3.28295444057163621210e+01) (29, 7.18818024273304434502e-01) (0, 3.38764610127369136805e+00) (1, 2.07661723622819227586e+00) (2, 1.15738503605365767868e+01) (3, 1.67846747634480010447e+02) (4, 9.61519110447379944162e+02) (5, 1.47620467421740909231e+03) (6, 1.50000000000000000000e+03) (7, 6.47541953745424848421e+02) (8, 2.54260908983361977320e+00) (9, 2.38093980482825129386e+00) (10, 3.79314938671585588637e+00) (11, 2.83225176185877414170e+00) (12, 5.96931307522025100809e+00) (13, 3.50594469918611650883e+01) (14, 2.93582535465967531252e+01) (15, 2.82973123593427295930e+01) (16, 9.98013600758762819964e+00) (17, 2.66135072651943822564e+01) (18, 1.95178400715921469555e+02) (19, 9.99466021462476078341e+02) (20, 7.34605252946313953544e+01) (21, 1.10860170983951067392e+00) (22, 1.13609137561988360332e+00) (23, 2.05450248797384737998e+00) (24, 9.45981561202469678484e-01) (25, 5.75587875758499212253e+00) (26, 5.51598207241586924177e-01) (27, 1.99375622028445853573e+01) (28, 2.19244811901836644807e+00) (29, 8.82212034524581412143e+00) (0, 3.40093210507602847770e+01) (1, 2.80224657852402803115e+00) (2, 3.02314860141694596862e+00) (3, -2.06883707144706135983e-01) (4, 5.18004709071614444227e-01) (5, 6.57838289264067843654e-01) (6, 6.28466172251039512098e-01) (7, 5.30750733707952893070e-01) (8, 7.50809722104135213172e-01) (9, 5.75167281601464353002e-01) (10, 3.43616051645850628660e-01) (11, 6.13440880623430606633e-01) (12, 8.34784648264117135064e-01) (13, 8.72426972621058283153e-01) (14, 8.53103121046377532721e-01) (15, 7.39856304241833684365e-01) (16, 4.63988122509625955381e-01) (17, -1.64589145418838356250e+00) (18, -2.10975370856659960594e+00) (19, -2.54661798502729386229e+00) (20, -2.52718148733949821150e+00) (21, -2.34165818181564056033e+00) (22, -2.73998419707810647594e+00) (23, -7.89854791731180405634e+00) (24, 9.05032658476900980782e-02) (25, -2.67761867314579271593e+00) (26, 3.95657195050680310366e-01) (27, 4.61633486423506933516e-01) (28, 1.11220760901650539410e+00) (29, 1.28553096401381794500e+00) (0, 3.47302561464389691892e+00) (1, -4.99513743027236056804e+00) (2, -8.45663931992174333629e+00) (3, -5.68991350802812512200e+00) (4, -1.07066946907793636434e+00) (5, -4.22344056554553426430e-01) (6, -7.65307336594889875414e+00) (7, -2.49282881157420449503e-01) (8, 1.06311937342486187430e-01) (9, 9.22370942882496380744e-02) (10, 2.66504749752073701041e-02) (11, 4.15126172694495421123e-01) (12, 1.49914679151117291589e+00) (13, 7.88182125262303689972e-01) (14, 6.48625864744258540107e-01) (15, 4.92255994715182637611e-02) (16, -1.08383363803468232844e-01) (17, -3.79725809254795820813e-01) (18, -2.53539455987250228475e+00) (19, -3.16242920713234187957e+00) (20, -1.64789650908542889551e-01) (21, -2.01624518262268820346e-01) (22, -2.39233831465344957967e-02) (23, -1.17359577939084330778e-01) (24, 1.03279285693948300051e-01) (25, -5.00027592436183832003e-02) (26, 1.68678107669726813356e+01) (27, 3.86345449449620459426e-01) (28, 3.77091243465230050447e+01) (29, 8.87750739437975888713e-01) (30, -7.74884619900407756177e+00) (31, -9.37755896803716737509e+00) (32, 3.52219747138178895796e+00) (33, -7.69791829177560771313e+00) (34, 3.47613870483792375410e+00) (35, -1.95168914980853038799e+01) (36, -6.20907419512130953620e+00) (37, 3.47077102345383714521e+00) 
