FANN_FLO_2.1
num_layers=3
learning_rate=0.700000
connection_rate=1.000000
network_type=0
learning_momentum=0.000000
training_algorithm=2
train_error_function=1
train_stop_function=0
cascade_output_change_fraction=0.010000
quickprop_decay=-0.000100
quickprop_mu=1.750000
rprop_increase_factor=1.200000
rprop_decrease_factor=0.500000
rprop_delta_min=0.000000
rprop_delta_max=50.000000
rprop_delta_zero=0.100000
cascade_output_stagnation_epochs=12
cascade_candidate_change_fraction=0.010000
cascade_candidate_stagnation_epochs=12
cascade_max_out_epochs=150
cascade_max_cand_epochs=150
cascade_num_candidate_groups=2
bit_fail_limit=3.49999999999999977796e-01
cascade_candidate_limit=1.00000000000000000000e+03
cascade_weight_multiplier=4.00000000000000022204e-01
cascade_activation_functions_count=10
cascade_activation_functions=3 5 7 8 10 11 14 15 16 17 
cascade_activation_steepnesses_count=4
cascade_activation_steepnesses=2.50000000000000000000e-01 5.00000000000000000000e-01 7.50000000000000000000e-01 1.00000000000000000000e+00 
layer_sizes=15 19 2 
scale_included=0
neurons (num_inputs, activation_function, activation_steepness)=(0, 0, 0.00000000000000000000e+00) (0, 0, 0.00000000000000000000e+00) (0, 0, 0.00000000000000000000e+00) (0, 0, 0.00000000000000000000e+00) (0, 0, 0.00000000000000000000e+00) (0, 0, 0.00000000000000000000e+00) (0, 0, 0.00000000000000000000e+00) (0, 0, 0.00000000000000000000e+00) (0, 0, 0.00000000000000000000e+00) (0, 0, 0.00000000000000000000e+00) (0, 0, 0.00000000000000000000e+00) (0, 0, 0.00000000000000000000e+00) (0, 0, 0.00000000000000000000e+00) (0, 0, 0.00000000000000000000e+00) (0, 0, 0.00000000000000000000e+00) (15, 4, 5.00000000000000000000e-01) (15, 4, 5.00000000000000000000e-01) (15, 4, 5.00000000000000000000e-01) (15, 4, 5.00000000000000000000e-01) (15, 4, 5.00000000000000000000e-01) (15, 4, 5.00000000000000000000e-01) (15, 4, 5.00000000000000000000e-01) (15, 4, 5.00000000000000000000e-01) (15, 4, 5.00000000000000000000e-01) (15, 4, 5.00000000000000000000e-01) (15, 4, 5.00000000000000000000e-01) (15, 4, 5.00000000000000000000e-01) (15, 4, 5.00000000000000000000e-01) (15, 4, 5.00000000000000000000e-01) (15, 4, 5.00000000000000000000e-01) (15, 4, 5.00000000000000000000e-01) (15, 4, 5.00000000000000000000e-01) (15, 4, 5.00000000000000000000e-01) (0, 0, 0.00000000000000000000e+00) (19, 6, 5.00000000000000000000e-01) (0, 6, 0.00000000000000000000e+00) 
connections (connected_to_neuron, weight)=(0, 6.04751564750838497275e+01) (1, 9.03096527845181640259e+00) (2, 3.54363612322543630739e+00) (3, -2.16436197210968028770e+00) (4, -3.04872489678635183452e+00) (5, 3.83235498606555147205e-01) (6, 5.29096096441863950055e-01) (7, -1.29836340606767497441e+00) (8, 8.78719765316124501453e+00) (9, -2.09621111800304760209e+00) (10, -2.59168054798216651591e+00) (11, -1.39215444362987939009e+00) (12, -1.95525629766518638242e+00) (13, -2.50484609694104420896e+01) (14, 4.64948595386569574206e-01) (0, 6.11661915522139887358e-01) (1, -4.95550136353263148692e+00) (2, -3.44740543021845491367e+00) (3, 4.89570035839569234204e-02) (4, -1.01727654120474553245e+00) (5, 2.17257173514026208361e-01) (6, 1.43509278793075789604e-01) (7, -9.21552000663813153380e-01) (8, -1.12031958676882776871e+01) (9, -3.04773266913700311420e+01) (10, -3.67581747285241222656e+00) (11, -1.33003345259117033983e+00) (12, -1.00087107723729218378e+00) (13, 1.84509540750411190402e+02) (14, 2.22610919961185954596e-01) (0, -7.63109343671914963636e+00) (1, -8.16124222087301376405e+00) (2, -1.73393158170565797604e+00) (3, 1.67344697886065464643e-02) (4, 2.58466726649504673075e-02) (5, 2.44503615703636878465e+00) (6, 2.13686903267059413736e+00) (7, 3.42468572666516091196e-01) (8, -4.02363901934453860321e+00) (9, -2.81635297333065270919e+00) (10, 8.81414047978031495179e-02) (11, 1.11846937528097867265e+00) (12, 5.48250608426805197126e+00) (13, 3.57058568591705727258e+00) (14, 8.13568535553517935277e-01) (0, -5.23332043858166215955e+01) (1, 2.75546044087311514659e+01) (2, -6.63847647921296335483e+00) (3, -1.17385286039235148259e+00) (4, -2.32964795716359551747e+00) (5, -8.42596842365722631385e-02) (6, -2.97984260503786124730e-01) (7, -2.58831103463816125654e+00) (8, -1.12977807724436090098e+01) (9, -3.87741953610478296000e+00) (10, -1.53453103936054846557e+00) (11, -1.23192887730348504816e-01) (12, -5.80279700299938597241e-02) (13, -3.89172520137872890444e+00) (14, -1.41610773734936956636e+00) (0, -1.16037640880526247145e+01) (1, -2.36386398239826327483e+01) (2, -7.24316461818805601425e-01) (3, -1.77400860464095666558e+00) (4, -6.62805802743103855690e-01) (5, 7.33046799335013377075e-01) (6, 9.05466542674904562027e-01) (7, -3.14137483395272476550e-01) (8, -2.06470685380615606164e+01) (9, 5.02660352906534235728e+00) (10, -2.08886821404025013749e+00) (11, -1.18943362472675229213e+00) (12, -1.32446881613799649635e+00) (13, 1.96947508434691798129e+01) (14, -1.48584739481191163701e-01) (0, 1.55714233070359853173e+02) (1, 2.45850599869946051967e+02) (2, 2.63282745582444484000e+01) (3, 2.75301089143682187199e+00) (4, 2.41369364770511696250e+00) (5, 4.85045374156299780033e-01) (6, 7.61624343680457949191e-01) (7, 2.46917936461368237033e+00) (8, 1.12391714234853657217e+03) (9, 1.50000000000000000000e+03) (10, 1.34796063241948218092e+02) (11, 1.45511699313058651128e+00) (12, 1.42907903171066652526e+00) (13, 1.50000000000000000000e+03) (14, 3.07106174329356518271e+00) (0, -4.63803064885453508737e+00) (1, 2.00391808084209337437e+01) (2, -2.09897880547225490488e+00) (3, -3.39884028440262397908e+00) (4, -4.35487077722638016297e+00) (5, 4.47897562341279475984e-01) (6, 4.82863261839793056485e-01) (7, -1.96064506688325868033e+00) (8, -1.05497879760219319678e+01) (9, -8.03088096662328254638e+00) (10, -3.24532447486437547468e+00) (11, -3.30959572008244506947e+00) (12, -2.55335010150651875449e+00) (13, 5.10940861556286929357e+00) (14, 3.17515607106091779510e-01) (0, 1.41953189375604779343e+02) (1, -3.09047858152462602277e+01) (2, -2.63316884249248817085e+00) (3, -2.77600900454633192638e+00) (4, -2.88827677252951886544e+00) (5, 9.65343913133565045825e-01) (6, 7.35817325963068258332e-01) (7, -3.12858725321241593065e+00) (8, -5.90931777434888960698e+00) (9, -3.93076124049685438067e+00) (10, 2.19741457645410465105e+00) (11, -2.24012460308244465423e+00) (12, -1.99304654757810562060e+00) (13, -1.45508221817650593266e+02) (14, 4.05076889658099403846e-01) (0, -9.16843607239888314098e+00) (1, -2.78260395630042580706e+01) (2, -2.78037139497572749480e-01) (3, 3.07467238114989757647e-02) (4, 1.00328409864867101886e-01) (5, 2.10596594968428041383e+00) (6, 1.36170971163073106780e+00) (7, 3.70554948990076482573e+00) (8, -6.04155563937817507991e+00) (9, -1.96950481812871736054e+00) (10, -4.99347363846573577550e-01) (11, 2.56497490277263449909e-02) (12, 1.42165886973067756571e-01) (13, 1.21358464187140988599e+01) (14, 3.58819689852824508236e+00) (0, 5.13877643313913594625e+01) (1, -5.02644332059136100810e+00) (2, -3.50874698013681740605e+00) (3, -3.13667326670484455930e-02) (4, -1.09315318943681982766e+00) (5, 2.91457905091152880139e-01) (6, 1.57564805540715446863e-01) (7, -6.72982116074311020881e-01) (8, -1.14645280811073533300e+01) (9, -1.37466524611996785410e+01) (10, -3.49129674067185513664e+00) (11, -1.35435457759394228816e+00) (12, -9.14621295760472907688e-01) (13, 2.92554553169476871943e-01) (14, 2.52748312945648423433e-01) (0, -5.10625796464076628922e+01) (1, 1.32731914617597936967e+01) (2, -7.38413000994561041779e+00) (3, -4.79612292626933334194e-01) (4, -2.28693222113591554390e+00) (5, 4.33892235786093261041e-01) (6, -7.33565619746913255561e-01) (7, -1.86411129985834778111e+00) (8, -1.26132224018737471027e+01) (9, -1.67975314211673021347e+00) (10, -1.25985439920906028277e+00) (11, -3.43241884868483448923e-02) (12, -7.05128362775357814263e-02) (13, -3.70696467751343128327e+00) (14, -7.08640711597265160471e-01) (0, -2.91963455933506477180e+00) (1, 8.77864453826043558138e+01) (2, 8.37074290451341873620e+00) (3, -9.67596976240071238173e-01) (4, -3.94161655327586579745e+00) (5, -2.77126413094332058051e+00) (6, 7.41935757040788956829e-01) (7, -1.91079363314347872027e+00) (8, 1.93121613085420484879e+00) (9, 7.60348213854291898883e+00) (10, -7.51895778909584144856e-01) (11, -7.86937250942999977354e+00) (12, -4.06616963761927792120e+01) (13, -1.93445646994670454433e+02) (14, -2.61767470515371691864e-01) (0, 1.75733727926768175109e+01) (1, 9.97117885554667893189e+00) (2, 3.63209065789662588486e+00) (3, -2.02667711843263953497e+00) (4, -3.02667398207495441653e+00) (5, 3.04582807017479861855e-01) (6, 5.85962459184956263591e-01) (7, -1.70826217814029890363e+00) (8, 8.55368016909667439052e+00) (9, -2.55456651246658372756e+00) (10, -2.67473732461902846680e+00) (11, -3.13663256282918068152e+00) (12, -2.64162997140398214668e+00) (13, -3.37878407178966888580e+00) (14, 4.16404889344181239341e-01) (0, 1.07837482522127707796e+01) (1, 1.64947138089607463485e+01) (2, 1.41497443642688747190e+00) (3, 3.32502197453251102655e-01) (4, 1.95456478904378255779e-01) (5, 5.45509397546943164414e-01) (6, 6.10296737187124072044e-01) (7, 1.58721150553517342807e+00) (8, -7.32060072535186545650e+00) (9, -8.92842721780985293378e+00) (10, -1.62212253130233241549e+00) (11, 1.65647089273804309917e-01) (12, 5.61765190929829660860e+00) (13, 4.20216794567511300329e+01) (14, 6.23971888750072367635e-01) (0, -8.50793532239078764690e+00) (1, -1.75780201369842572490e+01) (2, -2.34162614801383117680e-01) (3, -1.80081851972105966286e-01) (4, 5.22518163619299702560e-01) (5, 2.88596249903837875905e+00) (6, 1.76451519706264536858e+00) (7, 3.23645342035760064103e-01) (8, -3.48284238252374533928e+00) (9, -2.26448513375399640424e+00) (10, -2.90634453152723404301e-01) (11, -5.42787674440618483906e-01) (12, -2.36511709214500154275e-01) (13, 7.70229809840669599197e+00) (14, 1.70794233607179202217e+00) (0, 1.60325191177433978851e+00) (1, 1.68690933915432168533e+01) (2, -1.58408082861263177499e+00) (3, -2.74101691254344403958e+00) (4, -3.07292139433499755796e+00) (5, 3.86187026857277404535e-01) (6, 8.62910340255009122856e-01) (7, -4.72119999019120717421e-01) (8, -1.11206572610740739293e+01) (9, -7.61640761094052187730e+00) (10, -4.83184149653419403592e+00) (11, -4.87223585746384202366e+00) (12, -3.52839000567292648824e+00) (13, 4.70121898463887522013e+00) (14, -4.41437624269318373837e-01) (0, -4.25486707739413638762e+00) (1, -2.87942596913358794808e+00) (2, -1.46811419345431715122e+00) (3, -4.45603089385641415454e-01) (4, -5.05215163354412188923e-01) (5, 1.10104043082331126691e+00) (6, 2.92227515874974530519e+00) (7, -1.56589159788517701122e-01) (8, -2.17964302178071953620e+01) (9, -1.61527916682580325869e+01) (10, -6.87706263033984477318e+00) (11, -7.90811298197704681812e-01) (12, -6.36792709386615474187e-01) (13, -5.84947317351637519067e-01) (14, 2.00466886891975004659e+00) (0, 4.57369219835365381499e+00) (1, -3.10683240985361219799e+00) (2, -2.44436252389698349674e+00) (3, -1.74965883423250168072e+00) (4, -1.95332011730346533085e+00) (5, 6.08293794551618471900e-01) (6, 5.96573232616895432479e-01) (7, -2.08057427159856223042e+00) (8, -1.09056403038983518172e+01) (9, 3.35174286605988847043e+00) (10, -3.27377246835486435117e+00) (11, -3.97209571155439400414e+00) (12, -4.77885832885439754136e+00) (13, -3.32426795751768855425e+00) (14, 5.23751344621821157688e-01) (15, 1.75923098851568204815e+00) (16, 5.50000000000000000000e+02) (17, -7.38477289091096711360e+00) (18, 1.45000000000000000000e+03) (19, 2.82361872977804523543e+02) (20, 1.59973084243905527835e+00) (21, -1.26132212641862543023e+03) (22, 3.60178307110932749424e+01) (23, -7.40853356162675780183e+00) (24, -5.46413463861714717495e+02) (25, 1.00000000000000000000e+03) (26, 2.08072934187245950355e+00) (27, 1.78717840342872791304e+00) (28, -7.11170875037870331425e+00) (29, -1.10330323157583958249e+01) (30, -3.88502638490378217284e+02) (31, 5.68687020932715654453e+02) (32, -3.38837113992048841737e+01) (33, 2.27246283849186792025e+00) 
