FANN_FLO_2.1
num_layers=3
learning_rate=0.700000
connection_rate=1.000000
network_type=0
learning_momentum=0.000000
training_algorithm=2
train_error_function=1
train_stop_function=0
cascade_output_change_fraction=0.010000
quickprop_decay=-0.000100
quickprop_mu=1.750000
rprop_increase_factor=1.200000
rprop_decrease_factor=0.500000
rprop_delta_min=0.000000
rprop_delta_max=50.000000
rprop_delta_zero=0.100000
cascade_output_stagnation_epochs=12
cascade_candidate_change_fraction=0.010000
cascade_candidate_stagnation_epochs=12
cascade_max_out_epochs=150
cascade_max_cand_epochs=150
cascade_num_candidate_groups=2
bit_fail_limit=3.49999999999999977796e-01
cascade_candidate_limit=1.00000000000000000000e+03
cascade_weight_multiplier=4.00000000000000022204e-01
cascade_activation_functions_count=10
cascade_activation_functions=3 5 7 8 10 11 14 15 16 17 
cascade_activation_steepnesses_count=4
cascade_activation_steepnesses=2.50000000000000000000e-01 5.00000000000000000000e-01 7.50000000000000000000e-01 1.00000000000000000000e+00 
layer_sizes=42 20 2 
scale_included=0
neurons (num_inputs, activation_function, activation_steepness)=(0, 0, 0.00000000000000000000e+00) (0, 0, 0.00000000000000000000e+00) (0, 0, 0.00000000000000000000e+00) (0, 0, 0.00000000000000000000e+00) (0, 0, 0.00000000000000000000e+00) (0, 0, 0.00000000000000000000e+00) (0, 0, 0.00000000000000000000e+00) (0, 0, 0.00000000000000000000e+00) (0, 0, 0.00000000000000000000e+00) (0, 0, 0.00000000000000000000e+00) (0, 0, 0.00000000000000000000e+00) (0, 0, 0.00000000000000000000e+00) (0, 0, 0.00000000000000000000e+00) (0, 0, 0.00000000000000000000e+00) (0, 0, 0.00000000000000000000e+00) (0, 0, 0.00000000000000000000e+00) (0, 0, 0.00000000000000000000e+00) (0, 0, 0.00000000000000000000e+00) (0, 0, 0.00000000000000000000e+00) (0, 0, 0.00000000000000000000e+00) (0, 0, 0.00000000000000000000e+00) (0, 0, 0.00000000000000000000e+00) (0, 0, 0.00000000000000000000e+00) (0, 0, 0.00000000000000000000e+00) (0, 0, 0.00000000000000000000e+00) (0, 0, 0.00000000000000000000e+00) (0, 0, 0.00000000000000000000e+00) (0, 0, 0.00000000000000000000e+00) (0, 0, 0.00000000000000000000e+00) (0, 0, 0.00000000000000000000e+00) (0, 0, 0.00000000000000000000e+00) (0, 0, 0.00000000000000000000e+00) (0, 0, 0.00000000000000000000e+00) (0, 0, 0.00000000000000000000e+00) (0, 0, 0.00000000000000000000e+00) (0, 0, 0.00000000000000000000e+00) (0, 0, 0.00000000000000000000e+00) (0, 0, 0.00000000000000000000e+00) (0, 0, 0.00000000000000000000e+00) (0, 0, 0.00000000000000000000e+00) (0, 0, 0.00000000000000000000e+00) (0, 0, 0.00000000000000000000e+00) (42, 4, 5.00000000000000000000e-01) (42, 4, 5.00000000000000000000e-01) (42, 4, 5.00000000000000000000e-01) (42, 4, 5.00000000000000000000e-01) (42, 4, 5.00000000000000000000e-01) (42, 4, 5.00000000000000000000e-01) (42, 4, 5.00000000000000000000e-01) (42, 4, 5.00000000000000000000e-01) (42, 4, 5.00000000000000000000e-01) (42, 4, 5.00000000000000000000e-01) (42, 4, 5.00000000000000000000e-01) (42, 4, 5.00000000000000000000e-01) (42, 4, 5.00000000000000000000e-01) (42, 4, 5.00000000000000000000e-01) (42, 4, 5.00000000000000000000e-01) (42, 4, 5.00000000000000000000e-01) (42, 4, 5.00000000000000000000e-01) (42, 4, 5.00000000000000000000e-01) (42, 4, 5.00000000000000000000e-01) (0, 0, 0.00000000000000000000e+00) (20, 6, 5.00000000000000000000e-01) (0, 6, 0.00000000000000000000e+00) 
connections (connected_to_neuron, weight)=(0, 6.64165013747245902564e-01) (1, 6.24952958173444650392e-01) (2, -1.31007897856612078868e+01) (3, -2.25057635865885288240e+01) (4, -2.47733143379495253100e+01) (5, -4.25810889075128251591e+00) (6, -3.46825806087827581692e+00) (7, -3.49318816280582833400e+00) (8, 3.02435691617160884448e-01) (9, 3.87119779795403573530e-01) (10, 3.94650052199279621767e-01) (11, 3.46252557549030282047e-01) (12, 4.97144337504844491260e-01) (13, 4.57677216102069905901e-01) (14, 4.06781439762690488759e-01) (15, 7.58354477761377876455e-01) (16, 7.01758303653249981835e-01) (17, 7.60392340352538331771e-01) (18, 1.96892213949005889795e+00) (19, 7.11978130248260621116e-01) (20, 3.74298180418385140200e-01) (21, 1.29915598825270373062e+00) (22, 2.84258505752545209688e+00) (23, 1.19511191873886701842e+00) (24, 9.87633637949649090260e-01) (25, -1.59785843411442418649e+00) (26, -2.27110246719198638488e+00) (27, -3.34669577452783872928e+00) (28, -1.27934956943953737074e+00) (29, -1.18078339564674561490e-01) (30, 7.68338394486917430903e-01) (31, 7.52759948435882675355e-01) (32, 5.66506066601355162682e-01) (33, -1.71257363239419913015e+00) (34, 4.86809236880566195693e-02) (35, -7.33130438128068884218e-01) (36, -2.80688495980675023489e-01) (37, 6.52805352961647600285e-02) (38, 1.25702273458001057005e-01) (39, -1.52521569467409756626e+00) (40, 5.33154855112321897082e+01) (41, 1.04891853848947347316e+00) (0, 5.86396462616216251895e-01) (1, 6.01805653254253170026e-01) (2, -1.32415336498841629265e+01) (3, -2.16320544721760512630e+01) (4, -2.29946189912961180823e+01) (5, -4.38216598253969724652e+00) (6, -3.74060516730911540861e+00) (7, -3.09241652648775611212e+00) (8, 1.40351532680040191892e-01) (9, 3.30518288424292039362e-01) (10, 2.91689515778143781954e-01) (11, 4.37020165377479008484e-01) (12, 4.90399969777965683004e-01) (13, 5.42646566963953080887e-01) (14, 3.93284053721730864073e-01) (15, 6.21647578487358742905e-01) (16, 7.72079229679731304792e-01) (17, 7.43121961226325011829e-01) (18, 1.60258674793137090298e+00) (19, 8.07303113772398939219e-01) (20, 6.85604839590948644812e-01) (21, -8.46705893957124117177e-02) (22, 1.38917574464231252662e+00) (23, 1.83378412032216275840e+00) (24, 1.10511323869337307890e+00) (25, -1.41198978608218594921e+00) (26, -2.24867837043626872529e+00) (27, -1.86264595607545291323e+00) (28, -1.33343897372590025618e+00) (29, -9.33989589999639074902e-02) (30, 8.08618404621520348030e-01) (31, 7.00246816185106646380e-01) (32, 5.70125879858818906953e-01) (33, -2.37948893030575359120e+00) (34, -2.80011882811855121467e-02) (35, -2.33808981950333905075e+00) (36, -1.98922786017270736281e+00) (37, -5.42848288857925354023e+00) (38, -8.86684581005232619333e-01) (39, -2.27782700031100926452e+00) (40, 5.74659860461550309196e+01) (41, 1.06863835252870575943e+00) (0, 1.28062285493089267341e+00) (1, 4.92598922156407381667e-01) (2, -2.55947903983520352877e-01) (3, 2.19248539945893217151e-01) (4, -5.81741956901885501341e-02) (5, -9.22664989509555805158e-02) (6, 2.51774786249833404383e-01) (7, 6.99575542215037510241e-02) (8, -6.27078238259428932810e-02) (9, -3.62957907139588309420e-02) (10, 9.65817772586839359827e-03) (11, 3.41590765578961199495e-03) (12, 6.11337414647403036561e-03) (13, -9.09505886602761937088e-02) (14, -5.68590127933740058230e-02) (15, -8.21196015471404305863e-02) (16, 1.24500925519387850571e+00) (17, 1.34632707438297494207e+00) (18, 1.33044987774134759739e+00) (19, 1.19473241503642269024e+00) (20, 9.82685312507705077678e-01) (21, 9.64928734776127283723e-01) (22, 1.02528102446108618229e-01) (23, -3.48378389933325705030e-01) (24, -3.13044878177979724043e+00) (25, -5.99925433106624694801e+00) (26, -5.88271253284579564991e+00) (27, -5.87809904580884268199e+00) (28, -5.87890944358474065723e+00) (29, -4.31587045920722456316e+00) (30, -1.72347815929733161333e+00) (31, -3.64646766536776567591e+00) (32, -1.22365723000122317288e+00) (33, -8.11619194849234837363e-01) (34, -3.09201393409841041038e-01) (35, -3.03047120147001469714e-01) (36, -7.95177868313685531909e-01) (37, -2.97036850283712461351e-01) (38, 4.82813274630196284654e-02) (39, 2.82613058319432564058e-01) (40, 1.87458338219609044195e+00) (41, 1.26198437622555736937e+00) (0, 5.31653312979600611854e-01) (1, 6.43702801791102063866e-01) (2, -1.25966631089633800400e+01) (3, -2.24501447525061124111e+01) (4, -2.27690433949980359785e+01) (5, -5.51588936096389037544e+00) (6, -3.37794083564692115829e+00) (7, -2.82854919563604978450e+00) (8, 5.96345674035753184339e-02) (9, 2.72145189282811006404e-01) (10, 2.99245860237620397992e-01) (11, 4.71058219390777632718e-01) (12, 5.20909206788279344202e-01) (13, 3.60030585827278926114e-01) (14, 3.50777980778126274863e-01) (15, 6.15107000017687033377e-01) (16, 7.17875400569982557997e-01) (17, 6.99510078996621209591e-01) (18, 1.38607659257712367840e+00) (19, 7.81016641419886581410e-01) (20, 2.80620583828087966083e-01) (21, 1.04970210682603970476e+00) (22, 9.20420521773894884099e-01) (23, 7.82396280326830284579e-01) (24, 9.00834306042101906620e-01) (25, -6.56415391037027950993e-01) (26, -2.44638029154822289613e+00) (27, -2.74480179252019018676e+00) (28, -1.34409043038311315499e+00) (29, -9.30936096100004051301e-02) (30, 8.02697777589595928838e-01) (31, 8.15915936962510968122e-01) (32, 4.35297398143991931541e-01) (33, 7.28217917998634847732e-03) (34, 2.06003780117546109185e-01) (35, -1.44662534252075480889e-01) (36, -2.46783547599622482549e-01) (37, -4.97425671903415689279e-01) (38, 4.53936877766123680900e-01) (39, -1.74513124774929795358e+00) (40, 6.27228999326424769833e+01) (41, 1.04456475490975786435e+00) (0, 8.35333850823191004231e-01) (1, 3.04261904803288962817e-01) (2, -5.32969345872126160080e-02) (3, 1.99577557073158176615e-02) (4, -8.14008490414818430825e-02) (5, 4.35997087601892041597e-02) (6, 8.18737948483097416341e-02) (7, -9.29035064551789607767e-02) (8, -2.44967587215999149652e-01) (9, -3.34779232791978631489e-01) (10, -1.14901117489913301428e-01) (11, -1.16292507958547536306e-01) (12, -1.15283709934006523001e-01) (13, -1.18286988530454717505e-01) (14, -2.37775792604365071581e-01) (15, -4.41254313702696687738e-02) (16, 1.56558836403286449901e+00) (17, 1.57974210461132313910e+00) (18, 1.37477793936803704966e+00) (19, 1.10755391931952651419e+00) (20, 8.58995501350692469700e-01) (21, 9.49550383230467032192e-01) (22, -4.23296000368385619272e-03) (23, -2.62482655843478684954e-01) (24, -3.25320965459216449034e+00) (25, -6.30580817399152948610e+00) (26, -6.27284926404630649444e+00) (27, -6.39749388339533187064e+00) (28, -6.25213254945567697973e+00) (29, -4.29418759694310914199e+00) (30, -1.52850643359061955096e+00) (31, -2.27530228153523861323e+00) (32, -7.89129407209288591396e-01) (33, -7.20369568540871196838e-01) (34, -7.59879286651738705682e-02) (35, 2.52719936206680893809e-02) (36, -4.19698827312204536533e-01) (37, -4.64218920313511293485e-02) (38, 1.49881934247178688624e-01) (39, 1.85908651495511362262e-01) (40, 1.98640953006429810124e+00) (41, 1.46513281355645741399e+00) (0, 1.23981697495056697456e+00) (1, 5.36139675580564967206e-01) (2, -3.17987696521209339817e-01) (3, 1.35633199653440478238e-01) (4, 8.05609496402403812976e-02) (5, 5.40446127972634901560e-02) (6, 1.46723582295613080850e-01) (7, 1.60940587401739415574e-01) (8, -7.32363846797401962796e-02) (9, -3.09021548466829110158e-01) (10, -2.42130343556512875325e-03) (11, 3.98645524169248394175e-02) (12, 4.87821935739646550534e-02) (13, -1.51017363147770838916e-01) (14, -2.34391990095737023925e-01) (15, -6.85972298973981653436e-02) (16, 1.31014526315848955917e+00) (17, 1.36022793552704079900e+00) (18, 1.37149153506995324925e+00) (19, 1.22220893438265987285e+00) (20, 9.63559898430903283284e-01) (21, 9.28466144677746241243e-01) (22, 5.82483158415738055957e-02) (23, -3.72260249402740051039e-01) (24, -3.11013145082333819502e+00) (25, -5.97667505599462600685e+00) (26, -5.91019018468028534130e+00) (27, -5.87876322036557485973e+00) (28, -5.96026108887559402660e+00) (29, -4.17401420978538784112e+00) (30, -1.88361655025564056487e+00) (31, -3.56862519138400102747e+00) (32, -1.23826024503661402676e+00) (33, -8.33797364189130085776e-01) (34, -3.14974267169110755393e-01) (35, -1.78914986126675584766e-01) (36, -4.59044876674217339207e-01) (37, -2.85460905562013700365e-01) (38, 6.50534078898588746798e-02) (39, 1.96041599592307519417e-01) (40, 1.84657513353910229803e+00) (41, 1.26484423688420299925e+00) (0, 7.04476734539847937455e-01) (1, 7.51933186209056581006e-01) (2, -1.21429659626598205335e+01) (3, -2.04453033234245253880e+01) (4, -2.10667887439958114726e+01) (5, -4.82527325634393555731e+00) (6, -2.88041802659085410809e+00) (7, -2.83326202934124937727e+00) (8, 2.25543427511407545971e-01) (9, 2.98765886193759711009e-01) (10, 3.64585728134364850384e-01) (11, 5.12003435071835877324e-01) (12, 5.83413664049572067150e-01) (13, 3.98952423125363886403e-01) (14, 3.70551219809134524397e-01) (15, 6.42852997106503676328e-01) (16, 6.37825548068708725324e-01) (17, 7.71728980291295774130e-01) (18, 1.46245264151478981951e+00) (19, 1.01842512835072329658e+00) (20, 4.03147383625165223187e-01) (21, 7.27346423066549951919e-01) (22, 1.04251759176830760545e+00) (23, 1.55139840599361411577e+00) (24, 5.36197576785609864025e-01) (25, -1.56874909954288277447e+00) (26, -4.62322385555509551835e+00) (27, -6.87512702286229071547e+00) (28, -2.05856864402982076001e+00) (29, -1.46457625143572717219e-01) (30, 7.06988491772606586494e-01) (31, 7.00938170073150845774e-01) (32, 5.06881355021646884396e-01) (33, -6.47855167843791712734e-01) (34, 5.40283877571944959328e-01) (35, 5.32178101709777751083e-01) (36, 6.86228604208746539861e-01) (37, 2.22738234363529485904e+01) (38, 5.47681076549073386772e-01) (39, -1.07692599957685919421e+00) (40, 5.67271486414586192382e+01) (41, 9.78758738293352359428e-01) (0, 5.86242516034018890103e-01) (1, 1.74683182446406098931e-01) (2, -1.07830445012482734057e+00) (3, -1.14760020761061376504e+00) (4, -1.09812686038157591994e+00) (5, -1.04831619248654295262e+00) (6, -2.44425873196408238730e-01) (7, -1.40770226518327129517e-01) (8, -2.26529647362819386291e-01) (9, -2.22168853601251367613e-02) (10, 2.36884089687205319497e-02) (11, -6.22480159734142279859e-02) (12, 6.16052776913970784323e-02) (13, -1.65430884469185440766e-01) (14, -2.93613835094586494989e-01) (15, -4.29506803114037966074e-02) (16, 6.07227529887629291494e-01) (17, 6.14188449695860394506e-01) (18, 8.98814653770980354075e-01) (19, 9.74207672807305136153e-01) (20, 9.63108362333927159327e-01) (21, 1.01500048458641267679e+00) (22, 7.56326603572067823755e-02) (23, -2.41442905071400953920e-01) (24, -1.34498759346402319004e-01) (25, -1.08452117800232946537e-02) (26, -5.09206331133362916086e-02) (27, -1.04113025378655462555e-02) (28, -7.86663493871223168385e-02) (29, -4.26009058168552812162e+00) (30, -5.69039208521505734950e+00) (31, -5.68445420344730756312e+00) (32, -7.89272508098274094834e+00) (33, -1.33619519797737806854e+00) (34, -3.69897480983700177593e-01) (35, -4.95045510295908444687e-02) (36, -9.11690420418877378594e-01) (37, -3.36306105036785540907e-01) (38, -1.92524562914211279374e-02) (39, 1.78005769756339832233e-01) (40, 5.87382260596745808812e-01) (41, 6.80994686322868525430e-01) (0, 8.42490838341157122215e-01) (1, 6.63162073909607352462e-01) (2, -9.93222367573891062875e+00) (3, -9.76975419126680577619e+00) (4, -9.90343209954677483609e+00) (5, -6.66043743757077244538e+00) (6, -2.45430005756139246742e+00) (7, -4.68140534022068455222e-01) (8, -1.98890385876640757648e-03) (9, 2.43462282705906390978e-01) (10, 3.74230031764592019350e-01) (11, 5.39231689532029490053e-01) (12, 5.40307793844664430161e-01) (13, 5.81395382270553096049e-01) (14, 5.74849174752148028844e-01) (15, 7.06655993450441721748e-01) (16, 8.63799335053684780306e-01) (17, 1.39195653768437566100e+00) (18, 3.28344017210534211415e+00) (19, 2.56984622018439523572e+00) (20, -4.60208389621615698850e-01) (21, 8.17447433207379892117e-01) (22, 1.49902460138274684631e+00) (23, 1.72140459009128421464e+00) (24, 4.16612701181238609394e+00) (25, -1.57256338927694283569e+00) (26, -6.70216915748650077234e+00) (27, -4.33193484190766220365e+00) (28, -1.42289980245333835818e+00) (29, -2.53574107394009817806e-01) (30, 8.92996910930874188139e-01) (31, 7.54068339955907163130e-01) (32, 1.80017230640488334892e+00) (33, -7.68286890393175259106e+00) (34, 1.15614199644662551947e+00) (35, 1.10257490247282241569e+00) (36, 1.10606961088137656368e+00) (37, 4.24923236627421729850e+00) (38, 7.96399932840931468192e-01) (39, 8.23572987041302106981e-01) (40, 4.93508756188649488905e+00) (41, 1.23542725176947154608e+00) (0, 8.06768083072135100409e-01) (1, 5.08218628709319553138e-01) (2, -2.71614501133238150921e-01) (3, -1.92117146532743005016e-01) (4, -1.35412673259864002606e-01) (5, -2.73310036923360422101e-01) (6, -1.21851296993862653201e-02) (7, -3.29956566681807339503e-01) (8, -2.93710346248184817064e-01) (9, -1.69983524406470409840e-01) (10, -2.00288418834332848650e-01) (11, -4.12371362870215946161e-02) (12, -8.08968521376903122733e-03) (13, -3.47674375252430764571e-02) (14, -6.51373790801764024350e-02) (15, -8.97450816683725838274e-02) (16, 1.46755671149989819213e+00) (17, 1.40083428434689194475e+00) (18, 1.35546063929190241382e+00) (19, 1.18990850190522889918e+00) (20, 6.65493741766142510308e-01) (21, 1.39978166567142903176e+00) (22, 1.12901434431500746758e-01) (23, -1.21688962553054516591e-01) (24, -1.25553449201838929206e+00) (25, -1.42880949889139841069e+00) (26, -2.14497825751091131252e+00) (27, -2.56234744173848616455e+00) (28, -1.86015706448316486821e+00) (29, -1.74721511384751782003e+00) (30, -1.05681603004588331451e+00) (31, -1.51898037846718469979e+00) (32, -2.06746825135347966906e+00) (33, -7.22568462748745199420e-01) (34, -6.14554448918259055290e-01) (35, -7.20186396384522087288e-01) (36, -7.55247789234777644474e-01) (37, -1.47682815630871433488e-01) (38, 5.91350089605361672884e-02) (39, 3.22722599803631493565e-01) (40, 2.72366422445421108023e+00) (41, 1.51835089227484854035e+00) (0, 8.20050083982626465406e-01) (1, 2.20488624384439252379e-01) (2, -2.44890554709866981042e-01) (3, 1.55604851194442478368e-01) (4, -4.56402059035058114966e-03) (5, -9.68171336943810856290e-01) (6, -9.17211440785150156074e-01) (7, -3.30489490026892984709e-01) (8, -3.14770750637736573818e-01) (9, -3.13313922978140035891e-01) (10, -6.79383973698350768222e-02) (11, 4.88950464320203545543e-02) (12, -5.05972645474593307746e-02) (13, -1.60489143930546473982e-01) (14, -2.03612537957473749284e-01) (15, -7.17128099206990748948e-02) (16, 8.05601231956399432832e-01) (17, 1.26217652575356198419e+00) (18, 1.23362122197498935705e+00) (19, 1.28576058732633446979e+00) (20, 9.72577235729710110057e-01) (21, 7.15435520495108501215e-01) (22, 4.75320183350037978043e-02) (23, -2.99658882588787034429e-01) (24, -3.00830910600653078646e+00) (25, -5.30808287562218694688e+00) (26, -5.46209401069386313310e+00) (27, -5.23971881324561206128e+00) (28, -5.35626264792097650513e+00) (29, -4.11022548293739653502e+00) (30, -1.73309684018153009610e+00) (31, -1.69416238618200187815e+00) (32, -1.07412548213775904671e+00) (33, -8.33918818629295843792e-01) (34, -5.85255846061202400499e-01) (35, -1.26991629063982491843e+00) (36, -5.30419313073851039775e-01) (37, -1.18207940757221563466e+00) (38, 1.12278277609440590989e-01) (39, 2.90081033496194851118e-01) (40, 1.74210639368411568384e+00) (41, 1.37704543876702767413e+00) (0, 1.32654341808901410360e+00) (1, 2.62091722365894841396e-01) (2, -2.71906801532523334508e-01) (3, 7.48063136905170733559e-02) (4, 2.33008455656297554237e-02) (5, -1.00634104926167533556e-01) (6, 2.50674276108189597601e-01) (7, 1.71451042832875072408e-01) (8, -1.08290211224324375849e-01) (9, -1.65565505829689207928e-01) (10, -1.01435727119683497324e-03) (11, 5.53816793869835247155e-02) (12, 1.19932413043727856272e-01) (13, -6.20280785503331474895e-02) (14, -1.60420855044067223183e-01) (15, 6.08198221049758153134e-02) (16, 1.34227114599154395691e+00) (17, 1.61923226673575482160e+00) (18, 1.46034023466512663525e+00) (19, 1.04286210069164653191e+00) (20, 8.58268181128943097313e-01) (21, 9.06826414397517543975e-01) (22, 5.77870116592308427639e-02) (23, -2.79808718877416706672e-01) (24, -3.66081774222991418455e+00) (25, -6.89721191837665958957e+00) (26, -6.47079270105000947666e+00) (27, -6.54027234643539934211e+00) (28, -6.42053871927515462659e+00) (29, -4.33495584722136140243e+00) (30, -1.90782742332249100059e+00) (31, -3.74476091319646275934e+00) (32, -1.33434655923960776569e+00) (33, -7.59384397100851704643e-01) (34, -1.86233707815806129315e-02) (35, 1.00804001601322731907e-01) (36, -4.25524745687422489837e-01) (37, -1.90455825912006743161e-01) (38, 6.18029401520505394796e-02) (39, 3.12625855464529756045e-01) (40, 2.08548319141653548670e+00) (41, 1.21317743100132813261e+00) (0, 6.17711918078997168635e-01) (1, 7.04264814612155287676e-01) (2, -3.45040150610376130658e+01) (3, -3.45327295942592371603e+01) (4, -4.57401761053963085146e+01) (5, -2.77470825254464905640e+01) (6, -6.95067019742613467770e+00) (7, -3.71229126601702319466e-01) (8, -1.98709189278946790624e-01) (9, 3.57362066056669480663e-01) (10, 3.81690340962913099432e-01) (11, 5.49144065889142107828e-01) (12, 5.52085039104888153361e-01) (13, 4.37555134688094093942e-01) (14, 5.45824778086176132241e-01) (15, 6.82364524947041584113e-01) (16, 5.97735509472326120850e-01) (17, 1.07763836531570111887e+00) (18, 1.49652323964044042803e+00) (19, 1.02762780850801349608e+00) (20, 6.49416554357493680527e-01) (21, 6.23652010060684713899e-01) (22, 6.97467427792589522717e-01) (23, 5.08506347900377964066e-01) (24, 3.28490441604317728874e-01) (25, -6.02020166853770688498e-01) (26, -3.32209024306933864423e+00) (27, -3.30429729268776917195e+00) (28, -1.23664795217933320970e+00) (29, -4.69583901631904065965e+00) (30, 2.47162372562891807792e-01) (31, 3.91289620476250987746e-01) (32, 2.40257632456781777819e-01) (33, 4.21968549796382541572e-01) (34, 8.75831917664298242876e-01) (35, 8.33543252929483458047e+00) (36, 2.46212543442956288686e+00) (37, 1.75795074016345775902e+00) (38, 3.71815922748851945823e-01) (39, -2.39719306933948885785e+01) (40, 3.74893206122829614202e+00) (41, 1.14103721054154849668e+00) (0, 1.25686122114731380073e+00) (1, 5.24222650729719630291e-01) (2, -1.95032933049132939374e-01) (3, 2.51314929864220770739e-01) (4, -3.96071158495054781445e-02) (5, 7.09221448025732920106e-02) (6, -2.66249488313618359880e-02) (7, 1.19252487898223166751e-01) (8, -7.14257779847258522654e-02) (9, -1.56988803199283842582e-02) (10, -4.86562388316816307743e-02) (11, -3.97924414930499042997e-02) (12, -2.71958322200651636535e-02) (13, -1.21211650745904730986e-01) (14, -1.02665380245331214204e-01) (15, -2.90475364321648443777e-02) (16, 1.34462338420170679498e+00) (17, 1.21072933128900750432e+00) (18, 1.48685039494211146405e+00) (19, 1.23709678883956142315e+00) (20, 9.84104245780066833049e-01) (21, 1.03443705635941674004e+00) (22, -2.38643812651336724440e-02) (23, -4.41021709885814239271e-01) (24, -3.12816209428647296065e+00) (25, -5.87687714405261907302e+00) (26, -5.95329584654933441357e+00) (27, -5.98976159927336926359e+00) (28, -5.93578351762658584789e+00) (29, -4.31155409199826689104e+00) (30, -1.70953406988464240435e+00) (31, -3.52758184548545239423e+00) (32, -1.18771713421894342666e+00) (33, -7.36760108425122517417e-01) (34, -3.57770737393967974693e-01) (35, -2.42907128803981298137e-01) (36, -7.57130144841566821157e-01) (37, -3.01605896483034208178e-01) (38, -4.33109556261191686044e-02) (39, 3.11942820182187385836e-01) (40, 1.89029192308723925642e+00) (41, 1.31310486606129650511e+00) (0, 5.02028410908261446544e-01) (1, 1.14099161566837872805e-01) (2, -1.59426497166708913689e+00) (3, -1.58662471321888598474e+00) (4, -1.35201186213998614249e+00) (5, -9.87826575241154802853e-01) (6, -2.30516977708146358905e-01) (7, -1.95619407693342378662e-01) (8, -1.26349903371377719763e-01) (9, 1.90704857595241222823e-02) (10, 6.79211555495612961941e-02) (11, 9.17863084277054236404e-02) (12, 4.33734040621279043348e-02) (13, -5.53916035451959137825e-02) (14, -1.62874974805470057460e-01) (15, -9.34000878828163128009e-02) (16, 6.34496583637187860916e-01) (17, 5.43195323685512487799e-01) (18, 9.97051575205739060159e-01) (19, 1.44243688440940909246e+00) (20, 1.32426317703379803348e+00) (21, 1.29634848429128002323e+00) (22, 7.37148649245005921360e-02) (23, 5.36484875469863363440e-03) (24, -9.82710810381449695328e-01) (25, 1.52199693120657619794e+00) (26, 1.57040625935220168330e+00) (27, 1.53192197283529685237e+00) (28, 1.67517100407159569286e+00) (29, -8.18974866172917792539e+00) (30, -5.98579737017374569064e+00) (31, -5.98929900141723958740e+00) (32, -9.07699006823724019455e+00) (33, -1.51184927806690216912e+00) (34, -6.33419799384210335802e-01) (35, -1.18349470294055136854e+00) (36, -7.90437664216447899435e-01) (37, -4.73543464836738259294e-01) (38, -1.45657911974091447416e-01) (39, 5.81675263924815444394e-02) (40, 6.04419786157807004123e-01) (41, 5.52043693172049820816e-01) (0, 6.54827397756946205654e-01) (1, 1.35166591910765937490e-01) (2, -1.03039990162026273701e+00) (3, -1.11133805218675174586e+00) (4, -9.83519265143140697383e-01) (5, -1.01107691288854550926e+00) (6, -3.05867007857840322860e-01) (7, -2.46903672615700953141e-01) (8, -2.01963518512836170959e-01) (9, -9.49104344567097135688e-02) (10, -3.39802843949458394102e-02) (11, 4.78303028740834357269e-02) (12, -6.39890636330916334762e-02) (13, -2.38336290901928093966e-01) (14, -1.34536163709488426621e-01) (15, -3.98869866687875246347e-02) (16, 6.12823787633848926504e-01) (17, 6.36459993849056382409e-01) (18, 8.76778749954262748290e-01) (19, 1.18720085712262068967e+00) (20, 9.33969968633804437097e-01) (21, 9.35216553623833601883e-01) (22, 1.34012426118549927284e-02) (23, -1.53801990005399152883e-01) (24, -6.49104718898518284753e-02) (25, -1.55143578982306407088e-01) (26, -2.86921239256378961258e-02) (27, -3.04107811860721659325e-02) (28, -1.77330133950663548781e-01) (29, -4.25594585350178178373e+00) (30, -5.53493248750826261073e+00) (31, -5.71453310628792188197e+00) (32, -7.92809693960934502854e+00) (33, -1.35674069551403730927e+00) (34, -4.08643286604847166821e-01) (35, -4.17057077340491966222e-01) (36, -5.74667501145000536589e-01) (37, -3.34277803609619728054e-01) (38, -2.25336638336362596324e-02) (39, 2.07167351960518067444e-02) (40, 6.68224354918350860189e-01) (41, 7.77765628534019648477e-01) (0, 6.55219297798426580925e-01) (1, 6.93762080735928932107e-01) (2, -5.47651054154329308687e+00) (3, -1.06652720526307938087e+01) (4, -5.35863847191471798226e+00) (5, -2.06820611495278550152e+00) (6, -1.28682123748867915936e+00) (7, -8.74083371978110812428e-01) (8, -4.54181396341472809475e-01) (9, 2.98439742096884952360e-01) (10, 3.25010171860977692404e-01) (11, 4.89570323742410773438e-01) (12, 3.07402450125722037644e-01) (13, 2.75960732530123209472e-01) (14, -4.92978053505981478333e-02) (15, 5.40336243126816939686e-01) (16, 6.79167928107840324081e-01) (17, 7.62659521894842096223e-01) (18, 1.12143687542453229788e+00) (19, 1.43250249511715277428e+00) (20, -5.67436153974503199038e-02) (21, 7.81462247118671293755e-01) (22, 4.12346194051785241985e-01) (23, 1.20864889976063538679e-01) (24, -5.65213077717719336590e-01) (25, -1.06594880359225485655e+00) (26, -3.84690891571007664851e+00) (27, -4.48718692963014653685e+00) (28, -8.17245071741969142387e-01) (29, -7.00521780387588610672e-01) (30, -4.22019330847385132355e-01) (31, -8.06687563592347056662e-02) (32, 5.52373575279574091645e-01) (33, -3.28705352498430558583e+00) (34, 1.03516416300165658981e+00) (35, 9.65966508286004610362e-01) (36, 1.04714654421553410302e+00) (37, 1.24061378376877229357e+01) (38, 7.43505489942875130716e-01) (39, 1.12067208944203100529e+00) (40, 3.93020276039063576334e+00) (41, 7.34763800501502695184e-01) (0, 8.09342387767629567463e-01) (1, 6.11495015032597399873e-01) (2, -1.21055928689808229848e+01) (3, -1.98108361262842933570e+01) (4, -1.55030068093304702614e+01) (5, -1.10696698954130763326e+01) (6, -2.56560359112659641667e+00) (7, -6.67164849416905791912e-01) (8, 1.17143545203425458734e-01) (9, 2.10695328474944987285e-01) (10, 4.22116887478585056659e-01) (11, 4.39472780236713489455e-01) (12, 4.95174359193018664982e-01) (13, 5.01758494137739652352e-01) (14, 4.55770528168032484917e-01) (15, 6.82292930963656507615e-01) (16, 7.02768749747909815540e-01) (17, 1.14751477432585957672e+00) (18, 1.45539214428087038122e+00) (19, 9.25241645645689780864e-01) (20, 2.24388096634897227233e-01) (21, 8.95774954582618354593e-01) (22, 1.49418295326526084921e+00) (23, 5.57836698145204401555e+00) (24, 9.67359594860305871400e-01) (25, -1.40540768883828315339e+00) (26, -5.68889826184050928504e+00) (27, -5.46970825761917822661e+00) (28, -1.64585129668517193835e+00) (29, -3.24167493172967613457e-01) (30, 7.15104758636452841891e-01) (31, 6.75576236772941651765e-01) (32, 4.56594418874853913426e-01) (33, 1.72635289108345107989e-01) (34, 6.94814438503094655708e-01) (35, 4.34121246727195597703e-01) (36, 2.14059831896834001919e-01) (37, 8.94239691163143746166e+00) (38, -3.86124130633004047919e-01) (39, 5.26153813077681609123e-01) (40, 3.89521947465985789449e+01) (41, 1.02907133948130691259e+00) (0, 5.66617002358242638493e-01) (1, 6.25106552985694952085e-01) (2, -1.25311276249777723280e+01) (3, -3.41467544807376839344e+01) (4, -3.01170036018850559856e+01) (5, 2.42449239800945832712e+01) (6, 4.38200779256872365863e+01) (7, 5.24160614078101882995e-02) (8, 2.05814917130852398364e-01) (9, 3.23395566320183902587e-01) (10, 4.05191546955400438979e-01) (11, 4.62057350708670266926e-01) (12, 5.93150912271773966822e-01) (13, 5.38386587359234058958e-01) (14, 5.12560085365141748781e-01) (15, 5.03689208867127202751e-01) (16, 7.44435674633010857626e-01) (17, 1.98365216702098834389e+00) (18, 1.82718564134107941399e+00) (19, 1.99418574299005535444e+00) (20, 9.41573890965372806150e-01) (21, 1.07783551334084881645e+00) (22, 9.50703403551050651998e-01) (23, 2.58918874641538065973e+00) (24, 1.74005844969806844347e+00) (25, -1.05516732991374588835e+01) (26, -3.56403462898795941882e+00) (27, -3.76238781036341762842e+00) (28, -1.76628382362619018586e+00) (29, -3.87119538200665302963e-01) (30, 3.65223576547453854246e-01) (31, 1.87355761440988799471e+00) (32, 1.09342917752331270087e+00) (33, -5.04303307198673067546e+00) (34, 3.36007631352692848203e-01) (35, -2.06076123994321225297e+00) (36, -6.20406065731406719532e-02) (37, -8.67824888100112801226e+00) (38, -6.41574295840850652439e+01) (39, 5.28354574153445213369e+01) (40, 5.86486138979779099145e+01) (41, 1.13426894211254714051e+00) (42, -2.50129101359820937844e+00) (43, -1.12432370970306028113e+01) (44, 6.37622821786706936109e+02) (45, -3.37144179670554278161e+00) (46, 4.27506597196258439908e+02) (47, 6.37608903565710079420e+02) (48, -8.94488089627602001030e+00) (49, -7.30885486179034614906e+02) (50, -1.35514183475808480672e+00) (51, -6.29893813053548790037e+00) (52, 3.16583916623635332144e+02) (53, 5.37573768587117683637e+02) (54, -1.48437832716056334448e+02) (55, 6.37623199277823459852e+02) (56, -9.36319353931789635226e+01) (57, -1.13087774699274768864e+03) (58, -7.12131189803657349557e+00) (59, -1.23057861993588546490e+00) (60, 3.43770684468223635122e+01) (61, 4.44188618058618267526e+00) 
