FANN_FLO_2.1
num_layers=3
learning_rate=0.700000
connection_rate=1.000000
network_type=0
learning_momentum=0.000000
training_algorithm=2
train_error_function=1
train_stop_function=0
cascade_output_change_fraction=0.010000
quickprop_decay=-0.000100
quickprop_mu=1.750000
rprop_increase_factor=1.200000
rprop_decrease_factor=0.500000
rprop_delta_min=0.000000
rprop_delta_max=50.000000
rprop_delta_zero=0.100000
cascade_output_stagnation_epochs=12
cascade_candidate_change_fraction=0.010000
cascade_candidate_stagnation_epochs=12
cascade_max_out_epochs=150
cascade_max_cand_epochs=150
cascade_num_candidate_groups=2
bit_fail_limit=3.49999999999999977796e-01
cascade_candidate_limit=1.00000000000000000000e+03
cascade_weight_multiplier=4.00000000000000022204e-01
cascade_activation_functions_count=10
cascade_activation_functions=3 5 7 8 10 11 14 15 16 17 
cascade_activation_steepnesses_count=4
cascade_activation_steepnesses=2.50000000000000000000e-01 5.00000000000000000000e-01 7.50000000000000000000e-01 1.00000000000000000000e+00 
layer_sizes=40 12 2 
scale_included=0
neurons (num_inputs, activation_function, activation_steepness)=(0, 0, 0.00000000000000000000e+00) (0, 0, 0.00000000000000000000e+00) (0, 0, 0.00000000000000000000e+00) (0, 0, 0.00000000000000000000e+00) (0, 0, 0.00000000000000000000e+00) (0, 0, 0.00000000000000000000e+00) (0, 0, 0.00000000000000000000e+00) (0, 0, 0.00000000000000000000e+00) (0, 0, 0.00000000000000000000e+00) (0, 0, 0.00000000000000000000e+00) (0, 0, 0.00000000000000000000e+00) (0, 0, 0.00000000000000000000e+00) (0, 0, 0.00000000000000000000e+00) (0, 0, 0.00000000000000000000e+00) (0, 0, 0.00000000000000000000e+00) (0, 0, 0.00000000000000000000e+00) (0, 0, 0.00000000000000000000e+00) (0, 0, 0.00000000000000000000e+00) (0, 0, 0.00000000000000000000e+00) (0, 0, 0.00000000000000000000e+00) (0, 0, 0.00000000000000000000e+00) (0, 0, 0.00000000000000000000e+00) (0, 0, 0.00000000000000000000e+00) (0, 0, 0.00000000000000000000e+00) (0, 0, 0.00000000000000000000e+00) (0, 0, 0.00000000000000000000e+00) (0, 0, 0.00000000000000000000e+00) (0, 0, 0.00000000000000000000e+00) (0, 0, 0.00000000000000000000e+00) (0, 0, 0.00000000000000000000e+00) (0, 0, 0.00000000000000000000e+00) (0, 0, 0.00000000000000000000e+00) (0, 0, 0.00000000000000000000e+00) (0, 0, 0.00000000000000000000e+00) (0, 0, 0.00000000000000000000e+00) (0, 0, 0.00000000000000000000e+00) (0, 0, 0.00000000000000000000e+00) (0, 0, 0.00000000000000000000e+00) (0, 0, 0.00000000000000000000e+00) (0, 0, 0.00000000000000000000e+00) (40, 4, 5.00000000000000000000e-01) (40, 4, 5.00000000000000000000e-01) (40, 4, 5.00000000000000000000e-01) (40, 4, 5.00000000000000000000e-01) (40, 4, 5.00000000000000000000e-01) (40, 4, 5.00000000000000000000e-01) (40, 4, 5.00000000000000000000e-01) (40, 4, 5.00000000000000000000e-01) (40, 4, 5.00000000000000000000e-01) (40, 4, 5.00000000000000000000e-01) (40, 4, 5.00000000000000000000e-01) (0, 0, 0.00000000000000000000e+00) (12, 6, 5.00000000000000000000e-01) (0, 6, 0.00000000000000000000e+00) 
connections (connected_to_neuron, weight)=(0, 1.11551156904721215923e+00) (1, -3.31196374613578470303e+00) (2, -3.86634412126189701553e+01) (3, -3.58194361839067454412e+01) (4, -2.36289586921153400567e+01) (5, -4.35626887551470343141e+00) (6, -3.34731517678409806749e+00) (7, -2.66932257403879891200e+00) (8, -1.68302865822475400392e+00) (9, -1.97965650964889139374e+00) (10, -5.44259431337229315773e-01) (11, 1.36345582725816316660e+00) (12, 2.69779318170728421578e+00) (13, 1.14516165294663752050e+00) (14, 1.44196209493971139182e+00) (15, 2.66576621562844051638e+00) (16, 2.59013720011224002349e+00) (17, 2.88770099479341979531e+00) (18, 2.25660650276286922633e+00) (19, 2.49107589922673167138e+00) (20, 1.18145368649216786494e+00) (21, -1.19614549410908918570e-01) (22, -6.25490945879796922391e-02) (23, -3.69834590665013063226e-01) (24, -7.11290292283139446994e-01) (25, -7.57217608569863531720e-01) (26, -8.94663560547819591839e-01) (27, -7.52140377530910342330e-01) (28, 3.86125821987897799303e-01) (29, 1.09325615181572632917e-01) (30, -4.12381102732174653624e-01) (31, -3.02510504255745327207e-01) (32, -2.48934959483019468962e-01) (33, -3.30065209369657774907e-01) (34, -3.87513984731359284464e-01) (35, -3.92730602418030372291e-01) (36, 3.19878920032117874950e-01) (37, 1.76686854746139854200e+00) (38, 3.94161309395147014811e+01) (39, 2.65329736114635439392e+00) (0, -9.96245657557750519118e-02) (1, 2.58039013859059473965e-01) (2, 7.54806789920924758874e-01) (3, 2.58760188699006832280e+00) (4, 1.09516405258270776990e+00) (5, -4.25004291976074310977e-01) (6, -1.62942873416522499008e-01) (7, 2.05208128858502605874e-02) (8, -1.58163136673505649865e-01) (9, -1.32787032019798023619e-01) (10, -4.06352978952137025570e-02) (11, -2.90313468559803269584e-03) (12, -2.98386905633691544570e-02) (13, -9.26665912131604818658e-02) (14, 1.31935906433075563621e-02) (15, 9.57569653541765375415e-01) (16, 6.70327727649519977682e-01) (17, 1.77247133361798292484e+00) (18, 1.96019809415106605055e-01) (19, -5.51651775600458249560e-02) (20, 4.35859845485256025555e-01) (21, 2.20794051147482350839e-01) (22, -6.72660807252674353141e-02) (23, -2.96378317153521142480e-01) (24, -8.34625991106257902885e-01) (25, -7.83988271264071112654e+00) (26, -5.39618695189438835058e+00) (27, -4.91647888624856699291e-01) (28, -3.83533701012170769040e-01) (29, -3.18251098657513109558e-01) (30, -1.93478919890427897288e-01) (31, -2.68593397226217292517e-02) (32, 1.28989098346848729548e+00) (33, 1.03001052982627938626e+00) (34, 9.15334729854613060596e-01) (35, 6.15804897995196220961e+00) (36, 1.00160023978551571133e+00) (37, 3.76394072085505948522e+00) (38, 2.96486736090746134664e+01) (39, 7.54233746920689673843e-01) (0, 1.28325077810290033575e+00) (1, -2.53776085145251961706e+00) (2, -5.94265837823369569293e+00) (3, -2.79607954708425721080e+00) (4, -5.36243102615840250280e+00) (5, -5.41993980398542696264e+00) (6, -7.78250093131796827350e+00) (7, -7.68901056915060809871e+00) (8, -5.49840619443909517372e+00) (9, -7.54082492343839039250e+00) (10, 1.33637585392399921291e-01) (11, -4.25740553577186042755e-01) (12, 1.15170666464271054252e+00) (13, -5.43426641662083237394e-02) (14, -1.62433554437300919915e+00) (15, 1.27090881457642779218e+00) (16, 2.31702343261687282450e+00) (17, 3.14587283339926360171e+00) (18, 2.14279715186172392549e+00) (19, -9.68310266333560543117e-01) (20, 1.27687510134995485522e+00) (21, -1.37986673089852518448e-01) (22, 1.56922059276630193603e-01) (23, -5.53667048888303980902e-01) (24, -1.04181987124616326490e+00) (25, -2.09641657887354648793e+00) (26, -1.36717731291840660646e+00) (27, -1.00093913585704941127e+00) (28, -4.29666272988547204292e-01) (29, -4.84040721943606255806e-01) (30, -2.50019005129198668147e-01) (31, -2.18885301241735913402e-01) (32, -1.18266993358800753811e-01) (33, -5.77302015202348084433e-02) (34, 3.14236310689162759435e-02) (35, 3.90463952423853011275e-01) (36, 9.79013088535442665972e-01) (37, 1.32786449475762413641e+00) (38, 3.57444795433936803875e+01) (39, 1.26465587781445254478e+00) (0, -1.09718471667790043456e-01) (1, -3.48015164289989685151e-03) (2, -6.00727841071885926283e+00) (3, 3.57255897253798915258e-01) (4, 7.55598945077800987491e+00) (5, -6.37532490790407635473e-01) (6, -2.17020236986289360992e-01) (7, -1.89107413137902524713e-01) (8, -1.64540538764153115858e-01) (9, -1.16960423959013570805e-02) (10, -7.10109157086220715849e-02) (11, -1.58711214889491442070e-01) (12, -1.18378042479038797508e-01) (13, -2.51506300646219330130e-02) (14, -1.56207010205317381457e-01) (15, 2.51457100871702754485e-01) (16, 2.89203329926436825126e-01) (17, 1.82579482507216028786e+00) (18, -4.07992067995933849200e-01) (19, -2.12088509930178081841e-01) (20, 2.56619667282358021598e-01) (21, 1.50108962432971958928e-03) (22, -1.55828565089383919151e-01) (23, -4.44095043949710499565e-01) (24, -8.77590609453539727269e-01) (25, -1.53438350811741464064e+00) (26, -5.05360537032400447544e+00) (27, -4.15528524339291271961e-01) (28, -4.54521068878558920368e-01) (29, -4.84045111113153736504e-01) (30, -3.40321504154231124772e-01) (31, -4.63136035053428096742e-01) (32, -4.16744974505272869347e-01) (33, -2.67468718947518557805e-01) (34, -3.43364011029604232483e-01) (35, 4.10603225982621999890e-02) (36, -4.63041510952196311290e-01) (37, 4.68876667344757455669e-02) (38, 3.33135247953879876093e+00) (39, 3.14073212905680687612e-01) (0, 1.17841666914510279085e+00) (1, -3.05030915582549111420e+00) (2, -2.09546615058261398445e+00) (3, -5.15447227402985230782e+00) (4, -1.90681047439537887378e+00) (5, -1.91393761512234217292e+00) (6, -5.44409175046359994354e+00) (7, -2.62306377049303929283e+00) (8, -3.84241330690131999148e+00) (9, -5.72877245698047055100e+00) (10, -3.96714343883439124472e-01) (11, 5.33141822684359278917e-02) (12, 3.02148231445472814638e-01) (13, 2.44493828918658895333e-01) (14, 5.48828551233582540014e-01) (15, 2.06560636446134981981e+00) (16, 2.01280483466028448092e+00) (17, 3.10920345703818368222e+00) (18, 1.74750631973445136325e+00) (19, -1.24754193192461193540e+00) (20, 1.12975648234468306619e+00) (21, -4.55374487586758858182e-01) (22, 2.13402047595700417038e-01) (23, -5.90899252098492255847e-01) (24, -1.82470723075090446308e+00) (25, -2.83310898015510126413e+00) (26, -2.63350954182884056110e+00) (27, -1.66966836546939800812e+00) (28, -7.44320680346934882010e-01) (29, -1.05911393248132612577e+00) (30, -2.73206587511325249551e+00) (31, -2.84482493999624619363e+00) (32, -2.22161254903436827801e-01) (33, -6.29201078766434718226e-01) (34, -2.82143219431997271940e-01) (35, 3.16142726916162464246e-01) (36, 1.79571226630640179422e-01) (37, 3.35732975461647709103e-01) (38, 1.33243830254428026194e+01) (39, 2.16629153429150678178e+00) (0, 1.66935227583971251830e-01) (1, -3.18136030943954456474e-02) (2, -3.46760253290649700375e+00) (3, -3.56815202459265945478e+00) (4, -4.23860890625179198565e+00) (5, -1.69635597073368793453e+00) (6, -3.34192131751238852289e-01) (7, -7.77157399293310485744e-02) (8, -1.88057667072267592490e-01) (9, -9.50266446707544731876e-02) (10, -1.39832240962149745300e-01) (11, -8.70268649001050276226e-02) (12, -2.49192593585052732386e-02) (13, -1.47517023823884929623e-01) (14, -2.85426194984695832946e-02) (15, 1.59750392378662786630e-01) (16, 1.89219558856938391278e-01) (17, 1.65182218050053775116e+00) (18, 5.45817543463619769817e-01) (19, -1.66721627306088859832e+00) (20, 2.77970780436128883650e-01) (21, 2.59816756922180425171e-01) (22, -3.76859882041627458626e-03) (23, -3.81024113367971650757e-01) (24, -6.53782821937587743655e-01) (25, -2.13897023740365321842e+00) (26, -1.93013518606504685948e+00) (27, -3.82470074320850894622e-01) (28, -3.63631608823755503312e-01) (29, -4.93125682397449360828e-01) (30, -5.67916614690289200951e-01) (31, -6.48283069248010268559e-01) (32, -5.39672094274546224058e-02) (33, -2.02743035452751463321e-01) (34, -6.96794259239222613100e-02) (35, 7.90916656974537723990e-01) (36, 9.62182841222176087059e-03) (37, 5.01517140954020779198e-01) (38, 4.74399498400005192877e+00) (39, 2.77612333359596452631e-01) (0, 2.24812142390992647512e-01) (1, 1.68262764976281099794e-02) (2, -7.23682061565776191259e+00) (3, -5.14287553415961085079e+00) (4, -1.50247054137645701388e+01) (5, -7.74274342592300168775e+00) (6, -3.10314187958656839683e+00) (7, -1.65584565547228640403e-01) (8, -1.80641162752359918375e-01) (9, -3.78856688174611586084e-02) (10, -3.01825819550534286961e-02) (11, -3.39559653749365170095e-02) (12, -6.72587120066943551511e-03) (13, -5.57897197324326785117e-02) (14, 4.84765310986691663753e-02) (15, 2.67563336228919701476e-01) (16, 3.41123327234606421587e-01) (17, 1.19211486158383617173e+00) (18, -3.53007703168093489587e-01) (19, -5.87008266233142728119e-01) (20, 3.36365659155719920470e-01) (21, 2.24953182093096171190e-01) (22, -6.10075620222509454327e-02) (23, -3.37618972535790207168e-01) (24, -5.13772778142799091405e-01) (25, -1.49521934710805814994e+00) (26, -1.47128428109361797382e+00) (27, -6.00355014097111228111e-01) (28, -3.07834848496155222275e-01) (29, -3.24351228508190592148e-01) (30, -2.18183744898537368417e-01) (31, -3.34341592441239454647e-01) (32, -1.66046588840120495911e-01) (33, -7.44675226192446360063e-02) (34, -1.66374310389308166513e-01) (35, -1.39196157945655457633e-01) (36, 2.95561648971983059742e-01) (37, 5.77854860724038799091e-01) (38, 5.59399154000063081327e+00) (39, 2.74493746777562830363e-01) (0, 7.95709021294523144441e-01) (1, -2.31090283374705141028e+00) (2, -1.72072437113780196682e+01) (3, -8.59183228798416109839e+00) (4, -1.28722894632668687365e+01) (5, -2.10826450832129941304e+00) (6, -1.43143310552252978063e+00) (7, -3.95872843509971339415e+00) (8, -5.03982734155292888545e+00) (9, -5.55221344473389422092e+00) (10, -7.84952831417690233273e-01) (11, 3.84981867419686429876e-01) (12, 1.30900256178854146327e-02) (13, 7.77375253751460548735e-02) (14, -2.23501746258172456772e-01) (15, 2.23848510889357266151e+00) (16, 2.30593515320564135251e+00) (17, 2.67131578125577062721e+00) (18, 1.37142212470457836027e+00) (19, -3.06256190475026457420e+00) (20, 9.28842077194884763180e-01) (21, 2.78273262608387805805e-01) (22, 4.51336524629070631742e-02) (23, -7.32931414310775353194e-01) (24, -1.24786045295270131561e+00) (25, -2.18812227923590407741e+00) (26, -2.56162016251971591529e+00) (27, -1.20439418475716442103e+00) (28, -6.99400028910765914070e-01) (29, -7.51675943609605101692e-01) (30, -2.79497209185751049887e-01) (31, -2.80704982963191684853e-01) (32, -1.98093405816827689003e-01) (33, -1.09393223080907764366e-01) (34, -6.72179865462537051712e-01) (35, -2.25153256837178072924e-01) (36, 2.17134925808262387037e-02) (37, 2.18631974569765796801e-01) (38, 3.98432940015039562809e+01) (39, 2.39492226397670959770e+00) (0, 1.10237362101944258441e+00) (1, -3.15647280619767567345e+00) (2, -1.05501116074718979121e+01) (3, -7.60981882751924398889e+00) (4, -1.22596141623471854842e+01) (5, -2.83500748319526465480e+01) (6, -1.88795224800152290356e+01) (7, -5.65899387308358559068e+00) (8, -2.70391060975043151515e+00) (9, -2.78775014579773161572e+00) (10, -1.27656679611814594111e-01) (11, 2.10773928127792026244e-01) (12, 1.20626732441484674219e+00) (13, -5.40873890057204376181e-02) (14, 3.52002981511358670197e-01) (15, 2.29773836296675426638e+00) (16, 2.01796537742536097326e+00) (17, 6.18137290224777657954e+00) (18, 2.38260948278180295645e+00) (19, -3.86431153326488308064e-02) (20, 1.08668062551827504514e+00) (21, -3.32844966273961317960e-02) (22, -8.99548467646142602128e-01) (23, -4.20405167406249280493e-01) (24, -1.54222145877628857846e+00) (25, -1.67958283183932577387e+00) (26, -1.68213259933352743403e+00) (27, -5.50911572017082296071e-01) (28, -1.73911002343793835712e-01) (29, -2.43731525812750732252e-01) (30, -2.13530700175134702246e-01) (31, -1.27037717491566226613e-01) (32, -1.54924326352104374527e-01) (33, -1.64532371572479491073e-01) (34, -1.51429524593438669111e-01) (35, 9.05518883067613772342e-02) (36, 1.53536243111987191767e+00) (37, 3.86353844195605944378e+00) (38, 2.30993387726575463148e+02) (39, 2.07980295233822332079e+00) (0, 2.98163607556607757054e-01) (1, -1.59972027198750262056e-02) (2, -3.47621494164505273616e+00) (3, -7.99237902999306859542e-01) (4, -1.85296297121600694879e+00) (5, -1.68640580811471640921e+00) (6, -3.01003740581968548540e-01) (7, -2.67677696050663826988e-01) (8, -2.36098520040424170174e-01) (9, -1.30360900894334413858e-01) (10, -8.77951193783079869570e-02) (11, -1.27760718829941055663e-01) (12, 5.54383566092247204171e-02) (13, -1.36789406887920711453e-01) (14, -3.04282218795967531605e-03) (15, 3.20756664600811536303e-01) (16, 3.47557430198337569127e-01) (17, 7.63152927003902248337e-01) (18, 3.59821491052079445172e-01) (19, -1.43822080701302951189e-01) (20, 2.25798225948643738192e-01) (21, 1.06314678497003121949e-02) (22, -6.80669600954129649928e-02) (23, -1.57146785658510229622e-01) (24, -9.13729863519972873576e-01) (25, -3.11813750743439843660e+00) (26, -1.97467005666234918237e+00) (27, -8.01294121802942127530e-01) (28, -3.85595949212034827536e-01) (29, -3.93670955518206244772e-01) (30, -4.73408157212915570167e-01) (31, -2.27655259797267917055e-01) (32, -3.81452358157087834112e-01) (33, -1.97816624439805660574e-01) (34, -3.87171108537215313827e-01) (35, 2.32837675173691832642e-01) (36, 6.64531301291999693115e-02) (37, 2.95161642461991335917e-01) (38, 3.55231345865185144106e+00) (39, 2.14071350614236544097e-01) (0, 2.31841641418178229239e-01) (1, 3.66897667518526751293e-03) (2, -4.34685692481610974625e+00) (3, -1.87866397515475203051e+00) (4, -3.04327803711085964622e+00) (5, -1.65548940996282656357e+00) (6, -7.06735735197473791125e-01) (7, -2.47566477053747513448e-01) (8, -1.70547715560163598569e-01) (9, -4.48954944216834322956e-02) (10, -1.24278102448489566334e-01) (11, -1.60271183326953017834e-02) (12, -5.81730435181861404992e-02) (13, 4.49948297766836289441e-03) (14, -6.41585906838114533590e-02) (15, 3.18097564842566515875e-01) (16, 1.74781533836276592453e-01) (17, 7.37118172050016839947e-01) (18, 3.49618259441375645036e-01) (19, -1.90171479356848416309e-01) (20, 4.13851610371899603091e-01) (21, -6.62378336482359053594e-02) (22, -8.09523401590428182129e-02) (23, -4.81818669856702130883e-01) (24, -9.16624163564409566440e-01) (25, -3.67755170519657870187e+00) (26, -1.79952292557695336939e+00) (27, -8.29563804713927654966e-01) (28, -3.51531321028193177725e-01) (29, -4.43187607297619468039e-01) (30, -4.22585586292925030616e-01) (31, -5.34399736080741982747e-01) (32, -2.44784938377784949681e-01) (33, -2.97123031896996181445e-01) (34, -3.61465454363125882065e-01) (35, 2.08861662859609165110e-01) (36, 4.63174728891322384783e-01) (37, 3.36721599429822049387e-01) (38, 5.04260214388314409462e+00) (39, 2.83405795805668714316e-01) (40, -1.19360130431549915642e+01) (41, -1.50477985003157535004e+01) (42, 2.46063180694825078820e-01) (43, -3.45838115841498350278e+00) (44, -3.16996624400782023301e-01) (45, -3.26723180710630423107e+00) (46, -1.47102713690802322510e+00) (47, -1.18343354560329835912e-01) (48, -4.12521666855566326859e+00) (49, -3.59704610039596905935e+00) (50, -3.56392837626757152947e+00) (51, 7.46779318753217236093e+00) 
