FANN_FLO_2.1
num_layers=3
learning_rate=0.700000
connection_rate=1.000000
network_type=0
learning_momentum=0.000000
training_algorithm=2
train_error_function=1
train_stop_function=0
cascade_output_change_fraction=0.010000
quickprop_decay=-0.000100
quickprop_mu=1.750000
rprop_increase_factor=1.200000
rprop_decrease_factor=0.500000
rprop_delta_min=0.000000
rprop_delta_max=50.000000
rprop_delta_zero=0.100000
cascade_output_stagnation_epochs=12
cascade_candidate_change_fraction=0.010000
cascade_candidate_stagnation_epochs=12
cascade_max_out_epochs=150
cascade_max_cand_epochs=150
cascade_num_candidate_groups=2
bit_fail_limit=3.49999999999999977796e-01
cascade_candidate_limit=1.00000000000000000000e+03
cascade_weight_multiplier=4.00000000000000022204e-01
cascade_activation_functions_count=10
cascade_activation_functions=3 5 7 8 10 11 14 15 16 17 
cascade_activation_steepnesses_count=4
cascade_activation_steepnesses=2.50000000000000000000e-01 5.00000000000000000000e-01 7.50000000000000000000e-01 1.00000000000000000000e+00 
layer_sizes=20 6 2 
scale_included=0
neurons (num_inputs, activation_function, activation_steepness)=(0, 0, 0.00000000000000000000e+00) (0, 0, 0.00000000000000000000e+00) (0, 0, 0.00000000000000000000e+00) (0, 0, 0.00000000000000000000e+00) (0, 0, 0.00000000000000000000e+00) (0, 0, 0.00000000000000000000e+00) (0, 0, 0.00000000000000000000e+00) (0, 0, 0.00000000000000000000e+00) (0, 0, 0.00000000000000000000e+00) (0, 0, 0.00000000000000000000e+00) (0, 0, 0.00000000000000000000e+00) (0, 0, 0.00000000000000000000e+00) (0, 0, 0.00000000000000000000e+00) (0, 0, 0.00000000000000000000e+00) (0, 0, 0.00000000000000000000e+00) (0, 0, 0.00000000000000000000e+00) (0, 0, 0.00000000000000000000e+00) (0, 0, 0.00000000000000000000e+00) (0, 0, 0.00000000000000000000e+00) (0, 0, 0.00000000000000000000e+00) (20, 4, 5.00000000000000000000e-01) (20, 4, 5.00000000000000000000e-01) (20, 4, 5.00000000000000000000e-01) (20, 4, 5.00000000000000000000e-01) (20, 4, 5.00000000000000000000e-01) (0, 0, 0.00000000000000000000e+00) (6, 6, 5.00000000000000000000e-01) (0, 6, 0.00000000000000000000e+00) 
connections (connected_to_neuron, weight)=(0, 6.90381316264308764197e-01) (1, -3.77965097958970996928e+00) (2, -5.46640116448696811169e-01) (3, -2.44832818520130807149e-01) (4, -9.49372126407343891463e-02) (5, 6.11758369446930072577e-01) (6, -7.44389094272551593567e-02) (7, 1.83104558762309976849e+00) (8, 1.55617073488416268745e+00) (9, 1.12619136537004482790e+00) (10, -4.04755438686985186125e-02) (11, -2.37433518686329669833e+00) (12, -7.97118772569112721271e+00) (13, -4.14837425570337980929e+00) (14, -1.89982743327806780087e+00) (15, -1.37363532087858208897e+00) (16, -1.36863430259417140356e+00) (17, 2.50456369041755770866e+01) (18, 9.20631076869186593115e+00) (19, 1.98319948952170510559e+00) (0, 8.56614332480863716057e-01) (1, 6.12633352523345298124e+00) (2, -9.99721280543586776623e-01) (3, -4.68789938094499036847e-01) (4, 5.53249338871535156770e-01) (5, 2.79611049589720295216e+00) (6, 2.67306200127820026147e-01) (7, 1.24816771588879982247e+00) (8, 3.87161702781084970937e+00) (9, 9.14930140099945221621e-01) (10, 4.00791503113139102599e-01) (11, 1.76937324983481775176e-01) (12, -4.81657707146300229084e+00) (13, -3.67394490805027729152e+00) (14, -8.60784847871026315147e+00) (15, -2.42811115572784430583e+00) (16, -2.37119234056782834941e+00) (17, 5.14658187727831117897e-01) (18, 3.36593984124617495723e+00) (19, 1.29492962205461537017e+00) (0, 4.32798521911693490072e-01) (1, -4.24323068080842968897e+00) (2, -1.94402277719835120395e-01) (3, 2.69331747082457162445e-02) (4, 3.96868439770036218750e-01) (5, 8.40785357988049653066e-01) (6, 4.58678760296803711416e-01) (7, 9.51442111496971110185e-01) (8, 1.15860992532019690948e+00) (9, 1.08523992555926107606e+00) (10, 4.91984439756666891430e-01) (11, -3.33786482719670596353e+00) (12, -8.95662780268766489655e+00) (13, -2.52293999964602333463e+00) (14, -2.19069387016716587979e+00) (15, 2.26126737054160464879e+00) (16, -7.33936684408343642527e-02) (17, 1.55934085180893422518e+01) (18, 2.49843492119049024325e+01) (19, 1.57685256615246371936e+00) (0, -3.21201418481430800433e-01) (1, -5.40510807714818639624e+01) (2, -6.02401383571709025944e+00) (3, -3.13985191125927154410e-01) (4, 9.43981219113489977701e-02) (5, 4.84815441583910711199e-01) (6, 4.84912376141906076299e-02) (7, 4.92897014005481248766e-01) (8, 3.91153332860180791286e+00) (9, 3.96678025120316246621e-01) (10, -7.20551579309870876555e-02) (11, -4.91474781127481330500e-01) (12, -1.77899809039804668309e+00) (13, -1.63320946874532246795e+00) (14, -6.72689814140429054312e-01) (15, 4.74114427014711126152e-01) (16, -5.10216875494987287532e-01) (17, 1.13127788651187799474e+00) (18, 5.66881430699720496591e+01) (19, 1.10400301727071714630e+00) (0, -2.10135490713813127828e-01) (1, -2.32007007063854286955e+00) (2, -5.04124704799713185821e+00) (3, -3.44441260529082915465e-01) (4, 7.73731414911129344869e-02) (5, 1.49441568735495411424e-01) (6, -1.04029452026238353191e-01) (7, 6.95601454840204191932e-01) (8, 2.27167216289255291528e+00) (9, 3.02408643592018799851e-01) (10, 1.11263345602302717724e-02) (11, -2.39901945204574262860e+00) (12, -7.72202907585972653237e+00) (13, -2.03067848461253230852e+00) (14, -1.52027611541384488625e+00) (15, 2.48240725253120131377e-01) (16, -3.88347530694933495976e-01) (17, 1.50338087706131187105e+01) (18, 5.46853012039556745094e+01) (19, 1.87900305325129535206e+00) (20, -5.63812754774700053417e+00) (21, -8.65024549389892349893e+00) (22, -1.25464639918774856220e+00) (23, -3.51707578010422068360e+01) (24, -1.13487040700362662449e+01) (25, 8.76454998477370139653e+00) 
