FANN_FLO_2.1
num_layers=3
learning_rate=0.700000
connection_rate=1.000000
network_type=0
learning_momentum=0.000000
training_algorithm=2
train_error_function=1
train_stop_function=0
cascade_output_change_fraction=0.010000
quickprop_decay=-0.000100
quickprop_mu=1.750000
rprop_increase_factor=1.200000
rprop_decrease_factor=0.500000
rprop_delta_min=0.000000
rprop_delta_max=50.000000
rprop_delta_zero=0.100000
cascade_output_stagnation_epochs=12
cascade_candidate_change_fraction=0.010000
cascade_candidate_stagnation_epochs=12
cascade_max_out_epochs=150
cascade_max_cand_epochs=150
cascade_num_candidate_groups=2
bit_fail_limit=3.49999999999999977796e-01
cascade_candidate_limit=1.00000000000000000000e+03
cascade_weight_multiplier=4.00000000000000022204e-01
cascade_activation_functions_count=10
cascade_activation_functions=3 5 7 8 10 11 14 15 16 17 
cascade_activation_steepnesses_count=4
cascade_activation_steepnesses=2.50000000000000000000e-01 5.00000000000000000000e-01 7.50000000000000000000e-01 1.00000000000000000000e+00 
layer_sizes=34 16 2 
scale_included=0
neurons (num_inputs, activation_function, activation_steepness)=(0, 0, 0.00000000000000000000e+00) (0, 0, 0.00000000000000000000e+00) (0, 0, 0.00000000000000000000e+00) (0, 0, 0.00000000000000000000e+00) (0, 0, 0.00000000000000000000e+00) (0, 0, 0.00000000000000000000e+00) (0, 0, 0.00000000000000000000e+00) (0, 0, 0.00000000000000000000e+00) (0, 0, 0.00000000000000000000e+00) (0, 0, 0.00000000000000000000e+00) (0, 0, 0.00000000000000000000e+00) (0, 0, 0.00000000000000000000e+00) (0, 0, 0.00000000000000000000e+00) (0, 0, 0.00000000000000000000e+00) (0, 0, 0.00000000000000000000e+00) (0, 0, 0.00000000000000000000e+00) (0, 0, 0.00000000000000000000e+00) (0, 0, 0.00000000000000000000e+00) (0, 0, 0.00000000000000000000e+00) (0, 0, 0.00000000000000000000e+00) (0, 0, 0.00000000000000000000e+00) (0, 0, 0.00000000000000000000e+00) (0, 0, 0.00000000000000000000e+00) (0, 0, 0.00000000000000000000e+00) (0, 0, 0.00000000000000000000e+00) (0, 0, 0.00000000000000000000e+00) (0, 0, 0.00000000000000000000e+00) (0, 0, 0.00000000000000000000e+00) (0, 0, 0.00000000000000000000e+00) (0, 0, 0.00000000000000000000e+00) (0, 0, 0.00000000000000000000e+00) (0, 0, 0.00000000000000000000e+00) (0, 0, 0.00000000000000000000e+00) (0, 0, 0.00000000000000000000e+00) (34, 4, 5.00000000000000000000e-01) (34, 4, 5.00000000000000000000e-01) (34, 4, 5.00000000000000000000e-01) (34, 4, 5.00000000000000000000e-01) (34, 4, 5.00000000000000000000e-01) (34, 4, 5.00000000000000000000e-01) (34, 4, 5.00000000000000000000e-01) (34, 4, 5.00000000000000000000e-01) (34, 4, 5.00000000000000000000e-01) (34, 4, 5.00000000000000000000e-01) (34, 4, 5.00000000000000000000e-01) (34, 4, 5.00000000000000000000e-01) (34, 4, 5.00000000000000000000e-01) (34, 4, 5.00000000000000000000e-01) (34, 4, 5.00000000000000000000e-01) (0, 0, 0.00000000000000000000e+00) (16, 6, 5.00000000000000000000e-01) (0, 6, 0.00000000000000000000e+00) 
connections (connected_to_neuron, weight)=(0, 2.70515271735046125556e+00) (1, 1.72902182933004500143e+00) (2, 3.69388410320109805696e+00) (3, -9.73021617371990221734e-01) (4, -6.79596722065363700871e-01) (5, -6.20489164000840531799e-01) (6, -9.38760033555949280348e-02) (7, -1.95180163772341791484e-01) (8, 2.34462339857222923367e-01) (9, 5.65708809343811069859e-01) (10, 1.69804593578489176897e-01) (11, 5.64346438131444749775e-02) (12, 6.91333495787354479489e-01) (13, 7.89627880088306866035e-01) (14, 1.10877956532108945531e+00) (15, 8.51531058140072683038e-01) (16, 2.96812404978746224860e-01) (17, 8.36792938913321515670e-01) (18, 3.37632599080860129614e-01) (19, 4.16834125564907231887e-01) (20, -3.43569065081700930619e-01) (21, -6.87438290140839480813e+00) (22, -6.76772960967632197793e+00) (23, -9.76129716049070061956e-02) (24, -1.51867741181192505984e-01) (25, -5.92460415408863294573e-01) (26, 1.73172727894393280179e-02) (27, 3.44155625374894247326e-01) (28, 4.31071660241199791641e-02) (29, 3.71672101925214548590e-01) (30, 6.17177426072266666068e+00) (31, 5.82950928450773564471e-01) (32, 2.35019090907599341733e+01) (33, 7.41850014514255473586e-01) (0, 7.45210978199930429433e-01) (1, -2.75753620948232636145e-01) (2, -1.46939512540786854089e+01) (3, -8.25792431782703140186e+00) (4, -9.55436837244461578678e+00) (5, -3.94342482112696623986e+00) (6, -6.05111299872545638223e-01) (7, -4.14767528742798041730e-01) (8, -5.37183191910319823847e-01) (9, 4.56140649627140404299e-01) (10, 1.97509884841729210780e-01) (11, 4.36375849894037395882e-02) (12, 7.32433229139889507842e-01) (13, 7.06123621785448740695e-01) (14, 1.45736532206351654395e+00) (15, 1.02857157840402835269e+00) (16, 4.12928821230835463307e-01) (17, 4.33471170948852901894e-01) (18, 3.70271124993714229046e-01) (19, 2.56516921069625647434e+00) (20, -1.29728979038791020217e-01) (21, -3.19924179859805457582e+00) (22, -3.19041510593544286323e+00) (23, -2.89260706293276090295e-02) (24, 5.90710253461665460439e-02) (25, -7.38386257051581673672e-01) (26, -8.56868957447692175533e-02) (27, 1.07431828010268612394e-01) (28, -9.94692164817133767096e-02) (29, 2.13274509011779578316e-01) (30, 1.98749814325011237015e-01) (31, 4.54439181695825256124e-01) (32, 1.14694375670018075652e+02) (33, 7.26341616476504858824e-01) (0, 2.37766614088809280503e+00) (1, 2.01529559920649026239e+00) (2, 1.44897267746305374203e+02) (3, 7.09164930831154407542e+01) (4, 3.65292108170223741581e+01) (5, 2.18461406578471638795e+02) (6, 1.50000000000000000000e+03) (7, 1.50000000000000000000e+03) (8, 2.08767116845643471379e+02) (9, 1.77798454297278918368e+00) (10, 1.46408517325796094788e+00) (11, 1.34254196289127469832e+00) (12, 3.45661878249361542714e+00) (13, 3.85434276933095134154e+02) (14, 1.86237155584101046202e+01) (15, 2.65691286716588628281e+01) (16, 9.64167100518398001441e+02) (17, 3.15245910914070082143e+00) (18, 1.79891831415502356784e+00) (19, 7.45561650854623447771e-01) (20, 1.92829035646807378512e+00) (21, 3.81108111315448923051e+02) (22, 1.59671529117374660700e+02) (23, 2.97884204230037630268e+00) (24, 1.50137116066329023845e+00) (25, 1.02567114781878832019e+00) (26, 1.47907329059230518986e+00) (27, 1.31123493474791485980e+00) (28, 1.82296748613419246077e+00) (29, 7.65077970531088835671e-01) (30, 1.13264369650640420173e-01) (31, 1.60053143439256302827e+02) (32, 3.54927483617176520170e+00) (33, 4.29692255037943393603e+00) (0, 2.14514433951690053348e+00) (1, 1.88851310998747856651e+00) (2, 1.44731977236624629768e+02) (3, 7.07133376052540256751e+01) (4, 3.66340840968534848798e+01) (5, 2.18336732618342381329e+02) (6, 1.50000000000000000000e+03) (7, 1.50000000000000000000e+03) (8, 2.08658871132608339849e+02) (9, 1.54352778276511526379e+00) (10, 1.39899669501077439371e+00) (11, 1.32309184472719132408e+00) (12, 3.30466040878820699334e+00) (13, 3.85031917299273061417e+02) (14, 1.80479616024784377259e+01) (15, 2.62602421370089196273e+01) (16, 9.63853279926154641544e+02) (17, 3.09025209823589097624e+00) (18, 1.67149382318677508508e+00) (19, 7.50141979817127158015e-01) (20, 1.69679788425669220153e+00) (21, 3.80882503214935468350e+02) (22, 1.59554916443307376994e+02) (23, 2.94424043845591132396e+00) (24, 1.45830031794152858993e+00) (25, 8.83275914804859341167e-01) (26, 1.37135357376652033956e+00) (27, 1.44426607461968981028e+00) (28, 1.79933550621302917882e+00) (29, 7.29279103088182001358e-01) (30, 8.46564151696931332935e-02) (31, 1.59912768364116004705e+02) (32, 3.38056013485817619113e+00) (33, 3.97364252219635716301e+00) (0, 2.18801094950749730472e+00) (1, 1.99527308285782867259e+00) (2, 1.44731376421805293830e+02) (3, 7.07570873027604534400e+01) (4, 3.66246688726589582075e+01) (5, 2.18359460554848652691e+02) (6, 1.50000000000000000000e+03) (7, 1.50000000000000000000e+03) (8, 2.08593723408605740133e+02) (9, 1.66401124080726003918e+00) (10, 1.19928538581856969358e+00) (11, 1.36932464938322007164e+00) (12, 3.43203604131269734978e+00) (13, 3.85204365241470384262e+02) (14, 1.79635618389837077302e+01) (15, 2.63917677354753230645e+01) (16, 9.63885130882535008823e+02) (17, 3.10593433359603654509e+00) (18, 1.70898578922571742211e+00) (19, 4.75649090910263971921e-01) (20, 1.73270119652256515685e+00) (21, 3.80931747022728131924e+02) (22, 1.59514156656343914165e+02) (23, 6.38559661722337423839e+00) (24, 1.49539795082650783797e+00) (25, 8.73706828670425594829e-01) (26, 2.75506578527661494249e+00) (27, 1.30757841961781107187e+00) (28, 1.70421404058965042516e+00) (29, 5.57067568549051705951e-01) (30, 1.40467455273128732918e-01) (31, 1.59789596359508379919e+02) (32, 3.23641420280961700229e+00) (33, 4.02885274002987614494e+00) (0, 1.08202615419293191046e+00) (1, -3.44905045090520667728e-01) (2, -5.35967636796791353504e+01) (3, -1.93946740034119429197e+01) (4, -5.26164102263847688334e+00) (5, -4.44970364470694712544e-01) (6, -2.67987787066493787780e-01) (7, -5.05984852619678626695e-01) (8, 5.92764911298362343756e-03) (9, 4.08891512294800585359e-02) (10, 1.20121389154451099768e-01) (11, 4.35222399524383320862e-03) (12, 8.96767598742626570463e-01) (13, 2.01308073157436639988e+00) (14, 1.98740209592557603990e+00) (15, 1.13092116079680593543e+00) (16, 1.01855631865023488203e+00) (17, 2.14942654783263709106e+00) (18, 4.48729498391083558850e-01) (19, 1.62112675569599212766e-01) (20, -6.54908118099566671777e-02) (21, -1.86841992042696847243e+00) (22, -4.03770343841430090492e+00) (23, 3.36751291039849090514e-02) (24, -6.29827899508111077598e-02) (25, -1.32856767386318741497e-01) (26, -1.25708336570646672659e-01) (27, -5.30345070824515679719e-02) (28, -2.11443576830295326685e-01) (29, 3.07575028512969694816e-01) (30, 4.32072063797386329842e-01) (31, 6.34716027127323112467e-01) (32, 1.36905471136680176869e+02) (33, 1.09145845257107998449e+00) (0, 3.45909819884697100623e-01) (1, 7.85974201626722102088e-02) (2, -1.43720245479068853278e+00) (3, -9.77580426877645258799e+00) (4, -1.22724131445157542686e+01) (5, -9.85131586746473608684e-01) (6, -3.28407766239483134285e+00) (7, -1.44308006592045789951e+00) (8, -8.95093238847599503849e-01) (9, -7.52036557489085960571e-02) (10, -6.89211592775259146437e-02) (11, -8.30847616510473896412e-02) (12, 5.75208774448227946885e-02) (13, 1.37719834587513911828e+00) (14, 2.19216680174376232770e+00) (15, 5.71237521850577634197e-01) (16, -1.17661877774418077713e+00) (17, -5.43157822483901070454e-02) (18, -2.85592388224986289125e-02) (19, 1.03771887445784902204e-01) (20, -4.71548725247924793713e-01) (21, -2.20750137626434606020e+00) (22, -2.13054371431034272888e+00) (23, -4.33239312997680592332e-01) (24, -1.73188392503577676118e-01) (25, -8.64708137380092001223e-01) (26, -2.87853919065187036086e-01) (27, -1.62150964456382634671e-01) (28, -3.34703114150887437450e-01) (29, -4.51789108428448105137e-02) (30, -2.67789661620565916378e-02) (31, 8.28242661505976668357e-02) (32, 1.79934831422791177147e+02) (33, 7.60505634258834328776e-01) (0, 1.68230509305316933144e+00) (1, 1.95878070284482941332e+00) (2, 1.44743117542581416046e+02) (3, 7.05504696348972686337e+01) (4, 3.64058355726744906633e+01) (5, 2.18099366460235017939e+02) (6, 1.50000000000000000000e+03) (7, 1.28043800937535615958e+03) (8, 2.08479080602662435240e+02) (9, 1.53861371176210837142e+00) (10, 1.01091903643993719086e+00) (11, 1.11139182663975666365e+00) (12, 3.33120154912658072988e+00) (13, 3.84726265462508308701e+02) (14, 4.03178575184630361150e+01) (15, 2.49939877585194274445e+01) (16, 9.63387326985201980278e+02) (17, 2.86629551743864885438e+00) (18, 1.58660057089409511910e+00) (19, 6.75113051189625723580e-01) (20, 1.61891842972402200118e+00) (21, 3.80778327450276037780e+02) (22, 1.59426502978841256208e+02) (23, 2.81573366374238487353e+00) (24, 1.29498587609180959568e+00) (25, 9.85538886096867794429e-01) (26, 1.23758873061064900156e+00) (27, 1.30363276472893208080e+00) (28, 1.60905412002641878821e+00) (29, 6.37637234924108731171e-01) (30, -8.90318872776362235655e-02) (31, 3.83314084407730547355e+02) (32, 2.02057193902974008282e+00) (33, 3.65583665761195586441e+00) (0, 1.10623969028604540732e+00) (1, -1.22141739959040415697e-01) (2, -1.26493562851166245764e+01) (3, -1.05230924151377513986e+00) (4, -4.50856832327253087556e+00) (5, -2.39372454040388982222e+00) (6, -1.73164075124372218717e+00) (7, -1.51073264523114625391e+00) (8, -1.37862471729335656079e+00) (9, 4.49836221700751159869e-01) (10, 2.11280570916192816933e-01) (11, 8.39533817762109640936e-02) (12, 5.07822158123470535074e-01) (13, 1.09563631422928975390e+00) (14, 1.38807760481308539724e+00) (15, 8.83049138073880190980e-01) (16, -6.98289693872724659407e-01) (17, 4.88537862013340429268e-01) (18, 1.45802319040962108376e-01) (19, 4.38103999336633131989e-01) (20, -1.61392200818281650321e-01) (21, -4.59220256380167501931e+00) (22, -3.21626005689931959708e+00) (23, -7.93985939748709373953e-02) (24, -1.54694727914764157406e-01) (25, -1.23983168922592357220e+00) (26, -5.93927156000082639986e-02) (27, 2.55499703671729742893e-02) (28, -6.15605391850608876791e-02) (29, 2.00828341489635769923e-01) (30, 3.18499031446074054585e-01) (31, 7.09884774929178785641e-01) (32, 9.13871139791907580729e+01) (33, 1.36252714141718511698e+00) (0, 2.15692780525996541385e+00) (1, 4.44375112138722627719e+00) (2, 6.03875128389961304265e+01) (3, 2.97550548923012811997e+01) (4, 8.78681148187562115481e+01) (5, 2.18444040253590088696e+02) (6, 1.50000000000000000000e+03) (7, 1.28036372837031331073e+03) (8, 4.99852569704237112092e+02) (9, 1.58000515109011030468e+00) (10, 1.29840755245217587266e+00) (11, 1.19648476194301522924e+00) (12, 3.46943467765379232048e+00) (13, 1.60510142825389721111e+02) (14, 1.79437541389159491700e+01) (15, 1.15162800110746861293e+01) (16, 9.63303459987952919619e+02) (17, 6.64639027881743071902e+00) (18, 1.82277842845143900341e+00) (19, 1.37302385863226827922e+00) (20, 1.01545680669192428525e+00) (21, 3.81181856763760265494e+02) (22, 1.59544140910733915462e+02) (23, 2.79046016436276067552e+00) (24, 1.54413836759172107271e+00) (25, 1.02382594706289298259e+00) (26, 1.47668960657434777950e+00) (27, 1.55788248080140956375e+00) (28, 1.80395705665381744787e+00) (29, 6.76270487117570318070e-01) (30, 5.16763831643063456522e-02) (31, 3.83496777721129888050e+02) (32, 1.51353877494706523521e+00) (33, 3.37276829629270480382e+00) (0, 1.21267989024274291943e+00) (1, 1.78650359078867659868e+00) (2, 3.47254455781652325186e+02) (3, 7.04401473811429355010e+01) (4, 8.71907134889158186297e+01) (5, 9.09252510312020518768e+01) (6, 1.50000000000000000000e+03) (7, 1.50000000000000000000e+03) (8, 1.04054575862753972615e+03) (9, 2.31836290137339773310e+00) (10, 1.86366569161816109101e+00) (11, 8.08516145121177309818e-01) (12, 3.22415557282731812805e+00) (13, 1.60925487768305146119e+02) (14, 4.24499760105797818710e+01) (15, 2.68935882403985182521e+01) (16, 9.63748273596439389621e+02) (17, 3.08350133577327500944e+00) (18, 6.26419473805188697924e-01) (19, 7.45111363828614536864e-01) (20, 8.91776957834322381302e+00) (21, 1.09928681347320389250e+03) (22, 7.62738322473377365895e+02) (23, 6.31471938556586920299e+00) (24, 2.84873998230130709430e+00) (25, 8.48811504389694326811e-01) (26, 6.50410389679085909620e+00) (27, 6.35114416170848805621e+00) (28, 8.40295980326582103714e+00) (29, 1.84663657038034645375e+00) (30, -4.55778602850130554192e-01) (31, 1.59780691977657738789e+02) (32, 1.65455267345679546409e+00) (33, 1.89154510409226905843e+00) (0, 3.26404474410258327310e-01) (1, -4.81534077700130458410e-01) (2, -1.33330606153803579161e+01) (3, -9.00443091312328824927e+00) (4, -9.09336915737938689119e+00) (5, -4.74969317949878511165e-01) (6, -1.61472820083804657898e+00) (7, -9.25573702109181328801e-01) (8, -6.40311830371572798803e-01) (9, -2.20940350730555665204e-02) (10, -7.08568428193375315916e-02) (11, -1.45490709298125769910e-01) (12, -1.25250136640400161481e-01) (13, 1.41113257380497847393e+00) (14, 2.35097425116421065994e+00) (15, 6.36451779935202965888e-01) (16, -3.25569514096004319903e-01) (17, 8.08832991801949896526e-02) (18, 6.80266132900806258510e-02) (19, 1.88154128124858044391e-01) (20, -4.43832468339846242245e-01) (21, -2.21414365851093863924e+00) (22, -2.09554969300642479624e+00) (23, -5.02498002149836198171e-01) (24, -2.17945569591593724112e-01) (25, -2.09235042068633525503e-01) (26, -1.34160417383954871928e-01) (27, -3.45892982667185024115e-03) (28, -3.50750153647492346476e-01) (29, 2.77455000071283597318e-02) (30, 5.31165694792566298044e-02) (31, 2.39581041550934653594e-01) (32, 1.28882763372529069557e+02) (33, 6.95999003755208178745e-01) (0, 1.02998315266381634814e+00) (1, -6.29177407666409865827e-02) (2, -1.20064419998756690688e+01) (3, -1.06610771840240858843e+00) (4, -3.66031352906909512868e+00) (5, -2.20715915768654902251e+00) (6, -2.92248774546291123499e+00) (7, -1.52231487824286859656e+00) (8, 1.61371273316801511211e-01) (9, 6.02515689618819072493e-01) (10, 1.95856655056392658931e-01) (11, 1.73941032302623199701e-01) (12, 4.73523185833322424187e-01) (13, 8.68243320161249054756e-01) (14, 1.41144088434107728425e+00) (15, 8.24416136710778291175e-01) (16, 3.46008786495001843808e-02) (17, 4.44740709759827046454e-01) (18, 4.03936059682534209792e-01) (19, 9.40304875548274909924e-01) (20, -2.64337454314162889624e-01) (21, -4.52123554106407521402e+00) (22, -3.33761736868267222533e+00) (23, -1.54927744543604473115e-01) (24, 3.01460399353014225909e-02) (25, -1.27614514399506706610e+00) (26, 2.36740645406690874974e-02) (27, 1.30025918736381557173e-01) (28, -1.23498137455244516580e-01) (29, 8.19712612140514884640e-02) (30, 1.52414410433759361929e+00) (31, 6.90158197565686526431e-01) (32, 4.94840895929607214043e+01) (33, 1.39696463238525359074e+00) (0, 4.61427358409000010209e-01) (1, 1.97050114916294469292e-02) (2, -1.25865935617700142046e+01) (3, -9.09635252781644254583e-01) (4, -4.43652338370063148432e+00) (5, -2.18655370801171056172e+00) (6, -2.38168696649692401834e+00) (7, -1.36797017796601672046e+00) (8, -3.35142619794882412609e-01) (9, 6.19415842858919374336e-01) (10, 1.18392443084205808979e-01) (11, 2.02927837631400959095e-01) (12, 4.68564526697549721401e-01) (13, 8.66615227725630599132e-01) (14, 1.47620012871952344113e+00) (15, 7.58147652467324739689e-01) (16, 5.48653787596453321185e-02) (17, 5.62091466891478930279e-01) (18, 7.69022767378758187462e-01) (19, 1.64731394977265921398e+00) (20, -2.50590951893412183793e-01) (21, -4.54987527519871370885e+00) (22, -3.20055496055726607096e+00) (23, -1.30876580583527774015e-01) (24, -6.83974791095153661358e-02) (25, -7.70225325992097364924e-01) (26, -6.93161362712853557078e-02) (27, 4.93413640051126606983e-03) (28, -1.20679919719952052914e-01) (29, 2.16328429271542943546e-01) (30, 5.73016609835590329247e-01) (31, 7.55817121915918654906e-01) (32, 5.14021651588704671099e+01) (33, 1.31669180557096043849e+00) (0, 2.43038679936921386826e+00) (1, 1.99729494433025767108e+00) (2, 1.44881708199655918179e+02) (3, 7.08194208990295948070e+01) (4, 3.66001248396468668034e+01) (5, 2.18457262796511628267e+02) (6, 1.50000000000000000000e+03) (7, 1.50000000000000000000e+03) (8, 2.08750686028099011082e+02) (9, 1.77900181544517077548e+00) (10, 1.43743501884852808992e+00) (11, 1.38685686144178466073e+00) (12, 3.54406252166941193593e+00) (13, 3.85367383780202544585e+02) (14, 1.87064661917690600035e+01) (15, 2.66577730420955312240e+01) (16, 9.64201548195831492194e+02) (17, 3.31322067411071730092e+00) (18, 1.83081250997988509432e+00) (19, 6.54609299901136920674e-01) (20, 1.79369445569407193197e+00) (21, 3.81012893133838815629e+02) (22, 1.59783210992216112345e+02) (23, 6.44155649511159733578e+00) (24, 1.51415700516812368193e+00) (25, 9.83279617792081839234e-01) (26, 2.86826654419062965218e+00) (27, 1.34174751353333432391e+00) (28, 1.75486733173432063460e+00) (29, 6.44279480325416487041e-01) (30, 1.89689393027582170470e-01) (31, 1.59966846794362709261e+02) (32, 3.53178131251444327177e+00) (33, 4.35778804200808078662e+00) (34, -2.40524610491595964845e+01) (35, -2.98852532386114289054e+00) (36, 1.07673660803889026383e+00) (37, 1.03459084172104609500e+00) (38, 1.04550324518536341678e+00) (39, -1.05116688906390916003e+01) (40, -2.72465605685140221937e+00) (41, 1.01747571070049991349e+00) (42, -3.84934765932581957060e+00) (43, 1.05862541262363185623e+00) (44, 1.03977956015919459354e+00) (45, -2.77558295059660631310e+00) (46, -6.30194381162966088539e+00) (47, -3.92978393122345348587e+00) (48, 1.08456295866821950113e+00) (49, 1.19453645635698957328e+00) 
