FANN_FLO_2.1
num_layers=3
learning_rate=0.700000
connection_rate=1.000000
network_type=0
learning_momentum=0.000000
training_algorithm=2
train_error_function=1
train_stop_function=0
cascade_output_change_fraction=0.010000
quickprop_decay=-0.000100
quickprop_mu=1.750000
rprop_increase_factor=1.200000
rprop_decrease_factor=0.500000
rprop_delta_min=0.000000
rprop_delta_max=50.000000
rprop_delta_zero=0.100000
cascade_output_stagnation_epochs=12
cascade_candidate_change_fraction=0.010000
cascade_candidate_stagnation_epochs=12
cascade_max_out_epochs=150
cascade_max_cand_epochs=150
cascade_num_candidate_groups=2
bit_fail_limit=3.49999999999999977796e-01
cascade_candidate_limit=1.00000000000000000000e+03
cascade_weight_multiplier=4.00000000000000022204e-01
cascade_activation_functions_count=10
cascade_activation_functions=3 5 7 8 10 11 14 15 16 17 
cascade_activation_steepnesses_count=4
cascade_activation_steepnesses=2.50000000000000000000e-01 5.00000000000000000000e-01 7.50000000000000000000e-01 1.00000000000000000000e+00 
layer_sizes=14 20 2 
scale_included=0
neurons (num_inputs, activation_function, activation_steepness)=(0, 0, 0.00000000000000000000e+00) (0, 0, 0.00000000000000000000e+00) (0, 0, 0.00000000000000000000e+00) (0, 0, 0.00000000000000000000e+00) (0, 0, 0.00000000000000000000e+00) (0, 0, 0.00000000000000000000e+00) (0, 0, 0.00000000000000000000e+00) (0, 0, 0.00000000000000000000e+00) (0, 0, 0.00000000000000000000e+00) (0, 0, 0.00000000000000000000e+00) (0, 0, 0.00000000000000000000e+00) (0, 0, 0.00000000000000000000e+00) (0, 0, 0.00000000000000000000e+00) (0, 0, 0.00000000000000000000e+00) (14, 4, 5.00000000000000000000e-01) (14, 4, 5.00000000000000000000e-01) (14, 4, 5.00000000000000000000e-01) (14, 4, 5.00000000000000000000e-01) (14, 4, 5.00000000000000000000e-01) (14, 4, 5.00000000000000000000e-01) (14, 4, 5.00000000000000000000e-01) (14, 4, 5.00000000000000000000e-01) (14, 4, 5.00000000000000000000e-01) (14, 4, 5.00000000000000000000e-01) (14, 4, 5.00000000000000000000e-01) (14, 4, 5.00000000000000000000e-01) (14, 4, 5.00000000000000000000e-01) (14, 4, 5.00000000000000000000e-01) (14, 4, 5.00000000000000000000e-01) (14, 4, 5.00000000000000000000e-01) (14, 4, 5.00000000000000000000e-01) (14, 4, 5.00000000000000000000e-01) (14, 4, 5.00000000000000000000e-01) (0, 0, 0.00000000000000000000e+00) (20, 6, 5.00000000000000000000e-01) (0, 6, 0.00000000000000000000e+00) 
connections (connected_to_neuron, weight)=(0, -4.64739701271192107157e+00) (1, -8.46634137239148820697e+00) (2, -7.41410544541761806769e-01) (3, 1.12498122934769781422e-01) (4, -1.83561313273949922031e-01) (5, 5.47621261842427742295e+00) (6, 4.60903765962224709618e-01) (7, -1.78542624707049424337e+00) (8, -4.69454816682224684854e+00) (9, -1.81935362945493817044e+00) (10, -9.61792010348306636303e-01) (11, 2.41625336017771674690e+00) (12, 4.92180000556605605766e+01) (13, 1.13123113935844443745e+00) (0, -6.19639076727124589183e+01) (1, -1.38768734592908735692e+01) (2, -2.60199056026191755109e+00) (3, -2.68800882361277138077e-01) (4, -5.07106154463641156660e-01) (5, 1.00447895782876206461e+00) (6, 7.81076829668828631625e-01) (7, -2.73180288284985062219e+00) (8, -2.04082349855430544849e+00) (9, -1.85476659519903197548e+00) (10, -1.95419579696992729012e+00) (11, 2.51230368738082299185e-01) (12, 2.01126688665766595321e+00) (13, 7.36338159628430632964e-01) (0, -5.76767520456558173692e+01) (1, -2.42546255082352679722e+01) (2, -5.48451230342757867220e+00) (3, -1.98683066432916155541e+00) (4, -7.85143458055204246371e-01) (5, 1.46404471834723581836e+00) (6, 4.55508799740858449923e-01) (7, -4.69387307126483221964e+00) (8, -2.08440733994893073744e-01) (9, -2.93180061395049751383e+00) (10, -1.46344247345630784629e+00) (11, 1.31528827066764442133e-01) (12, 1.25973502839132356357e+00) (13, 4.25238255475525739335e-01) (0, -6.25957082862704154991e+01) (1, -1.46591942554175851399e+01) (2, 4.52935020029950063947e-01) (3, -1.08933828468590496175e-01) (4, -4.41092921338563870304e-01) (5, 2.12282898497542671379e+00) (6, 8.52134752255606642279e-01) (7, -2.51818156923169311767e+00) (8, 5.21251276231640581216e+00) (9, -1.78592598289839399328e+00) (10, -1.93504262099628143723e+00) (11, -2.69666450528656898022e-01) (12, 1.88628151970239898993e+00) (13, 6.79141542253354213443e-01) (0, -4.61601118519724185063e+00) (1, -8.32436525371503677206e+00) (2, -7.87573632812589408125e-01) (3, 2.11138304058973241828e-01) (4, -1.96362021560169186518e-01) (5, 6.25972205080148391687e+00) (6, 4.41185916404968236915e-01) (7, -1.77784531125670319796e+00) (8, -4.93151747117254846131e+00) (9, -2.02343244771068997423e+00) (10, -9.80840981040228654386e-01) (11, 3.34791956707748150635e+00) (12, 5.08265962878513875012e+01) (13, 9.33660841400492991227e-01) (0, -6.16800722970284880375e+01) (1, -2.40536414364930521970e+01) (2, -5.54825683278928227793e+00) (3, -2.04172106415333676210e+00) (4, -7.39072968850933209595e-01) (5, 1.34078104903776029744e+00) (6, 5.31896620178480827867e-01) (7, -5.07474246888504509911e+00) (8, -2.38145823794970012965e-01) (9, -3.03925950447546000532e+00) (10, -1.51308725447312841794e+00) (11, 2.01939026097599783061e-01) (12, 1.00120733043718934674e+00) (13, 5.08471893165964528016e-01) (0, -2.24524028508422048844e+01) (1, -2.80787655212896538615e+01) (2, -1.03102454634490925400e+00) (3, 9.28635448397069906967e-02) (4, -5.53037860754977267375e-02) (5, 5.86496584307799828650e+00) (6, 2.56350282799347295448e-01) (7, -1.54905405795234041300e+00) (8, -5.59031686745033340458e+00) (9, -1.25351302447224810521e+00) (10, -5.94817200977641347137e-01) (11, 1.28154637890164924130e+00) (12, 2.62625529334705504425e+02) (13, 1.73456900428593452368e+00) (0, 1.70478275189755592578e+01) (1, -9.77457891893844799114e-01) (2, -1.54920095857993844746e+00) (3, -5.82478195748954208355e-01) (4, -8.93757046850326419829e-01) (5, 3.96517724675165794679e+00) (6, -1.74434964986470264492e-01) (7, -2.63109649745667972809e+00) (8, -7.26992138538669649961e+01) (9, -7.88105704962608899500e-01) (10, -6.07820971433215895274e-01) (11, -3.61886307316082844743e-01) (12, 6.42682667623616588060e+00) (13, 2.74232896820307048280e-01) (0, -6.78597325669149711302e+01) (1, -1.91979499066854977229e+01) (2, -3.19327372096891926034e+00) (3, -2.31300050599865358869e-01) (4, -5.83549213300613156541e-01) (5, 1.77246726715568359012e+00) (6, 5.24531544111610625869e-01) (7, -2.98824160821128126386e+00) (8, -4.01560335250593780643e+00) (9, -1.80336665917672900328e+00) (10, -2.04982731780463467430e+00) (11, 4.78926334528435249105e-01) (12, 1.77316351585298215277e+00) (13, 6.69691065821989783835e-01) (0, -1.48158937771455647692e+01) (1, -5.96975140600532316881e+00) (2, -2.47434089482579638863e-01) (3, 2.70051383854551907415e-01) (4, 5.16322512352106743894e-02) (5, 6.27825250172016868788e+00) (6, 9.05016323165295899500e-01) (7, -7.21851367413851918720e-01) (8, -7.98802245977432701096e+00) (9, -8.78739053583714735396e-01) (10, -4.38253070652087850512e-01) (11, 5.46000855494616854635e-01) (12, 5.08570347035575451855e+01) (13, 1.76499896807196909876e+00) (0, 6.07322917680755409719e+01) (1, -8.29685627262790248437e+00) (2, -3.26249321684322479697e+00) (3, -1.09242296107253888948e+00) (4, -3.13181580980801665959e+00) (5, 6.29518723999189289131e-01) (6, -2.05966136359878454476e-01) (7, -4.93199313183144472106e+00) (8, -3.66636092550310479510e+01) (9, -4.65867760558642896029e+00) (10, -3.87487627789802857592e+00) (11, -2.56529759322332262528e+00) (12, 1.34830592752535216583e+00) (13, -2.83040766732852944187e-01) (0, -6.72193112358522597560e+01) (1, -1.41751661469290546336e+01) (2, -6.00601251965748428319e+00) (3, -3.46028758576915951295e-01) (4, -7.16583370111135820046e-01) (5, 1.36396638425076766055e+00) (6, 6.10423413550467142130e-01) (7, -2.94306332491307998112e+00) (8, -7.93424249198278896955e+00) (9, -1.71202757428165885933e+00) (10, -1.66783775034107972779e+00) (11, 3.53315364450077495917e-01) (12, 2.19832934834262427870e+00) (13, 3.76890435250707089843e-01) (0, -2.00443572682787767292e+01) (1, -3.00661884790759650343e+01) (2, -2.86629404734700932167e+00) (3, 1.61528089706257693692e+00) (4, 2.13490673056927343643e-01) (5, 6.15557978671405869875e+00) (6, 1.44545140171598451850e+00) (7, -6.87191976358322520468e-01) (8, -2.59087406332491099192e+00) (9, -6.08438185706700052080e-01) (10, -1.68362298439948543383e+00) (11, 1.49189049631867654000e+00) (12, 7.88679347408393027763e+01) (13, 1.49442013670812978710e+00) (0, -6.78545145304421737364e+01) (1, -1.92740967477346920589e+01) (2, -3.26565424882288679598e+00) (3, -3.07421030683781182358e-01) (4, -5.55896770845319632137e-01) (5, 1.75256646835807616824e+00) (6, 4.45056595765097484652e-01) (7, -3.02735724575209852460e+00) (8, -3.95336912961699127322e+00) (9, -1.76953637410440234312e+00) (10, -2.05571531048472921910e+00) (11, 5.20066428927887569600e-01) (12, 1.82253226615696584112e+00) (13, 6.84710363421781598170e-01) (0, -6.31290438356806262732e+01) (1, -2.00312534234073531536e+01) (2, -4.26737037779947492311e+00) (3, -4.34445522557607433090e-01) (4, -5.97415209095927823846e-01) (5, 1.60334502409040569049e+00) (6, 5.41264899668946641853e-01) (7, -3.22785837701168798475e+00) (8, -4.17367242998692855593e+00) (9, -1.71962668558698505983e+00) (10, -1.74839999321530714660e+00) (11, -3.51030224336965512855e-01) (12, 2.06363332390313347631e+00) (13, 4.72090637054033868125e-01) (0, -6.78660146506051376036e+01) (1, -1.92116532752896809200e+01) (2, -3.16691069089289234384e+00) (3, -2.48024726493648928205e-01) (4, -6.66196320842174505295e-01) (5, 1.79367321023348624820e+00) (6, 5.30647785328270171767e-01) (7, -2.98612511433053251508e+00) (8, -3.93633126856781601077e+00) (9, -1.87278194536008579796e+00) (10, -1.95096706143056786154e+00) (11, -7.79817537224431478471e-02) (12, 1.86345501594453488714e+00) (13, 6.80714110408170758326e-01) (0, 5.79554104319089713471e+00) (1, -1.38114711105236143140e+00) (2, -1.67627768298973145455e+00) (3, -5.30702031331347856558e-01) (4, -8.42789257377214440226e-01) (5, 3.99026009376465395917e+00) (6, -1.94270203826699128236e-01) (7, -2.56141301607451099542e+00) (8, -5.72608880766448749000e+01) (9, -9.23957434545003564175e-01) (10, -6.87124086828749702782e-01) (11, -5.66875506784761618029e-01) (12, 1.55972973795484826098e+01) (13, 1.39188991300825792852e-01) (0, -1.13221730668787223806e+01) (1, -1.06314460375435597683e+01) (2, 4.34129827857118044676e+00) (3, -8.63635900401275025118e-01) (4, -7.97380546146227775495e-01) (5, 2.24179482309352273717e+00) (6, 4.69591573350259361419e-01) (7, -3.93271796466268064307e+00) (8, 7.54833440401266209108e+00) (9, -2.56595271074251263244e+00) (10, -1.66280712758314441757e+00) (11, 3.26512083872168568099e-01) (12, 1.14390195257142024410e+00) (13, 5.00108324297014683602e-01) (0, -6.97703248204633581508e+01) (1, -1.46490799696404998542e+01) (2, -5.38094700670498315986e+00) (3, -2.88331093307265251546e-01) (4, -7.08264847304927336324e-01) (5, 1.47763386600763979573e+00) (6, 5.56085434790312582720e-01) (7, -2.94528831420928405294e+00) (8, -6.24363742225964113430e+00) (9, -1.61132144006842348283e+00) (10, -1.72498345463641999942e+00) (11, -6.80222392838350620181e-01) (12, 2.15637317655209415079e+00) (13, 3.61587749695932325622e-01) (14, -3.69203091879189404523e+00) (15, -3.30510556094357184520e+02) (16, 1.69135585290221939658e+02) (17, -1.06699052785464481019e+01) (18, -3.69429142494500073468e+00) (19, 1.03405851262656398148e+02) (20, -4.57953243936810672210e+00) (21, 1.50000000000000000000e+03) (22, 5.49229161469816915542e+01) (23, -1.26439427855456791860e+01) (24, -1.65756626731943981667e+02) (25, 2.43984791719934349885e+02) (26, -1.66786421052416216071e+01) (27, 5.48959783157884828597e+01) (28, 3.54880665584522489553e+02) (29, 5.49668502798855058700e+01) (30, 1.50000000000000000000e+03) (31, 1.20812850794947284072e+01) (32, 2.43899374285361176362e+02) (33, 4.68068201925478621916e+00) 
