FANN_FLO_2.1
num_layers=3
learning_rate=0.700000
connection_rate=1.000000
network_type=0
learning_momentum=0.000000
training_algorithm=2
train_error_function=1
train_stop_function=0
cascade_output_change_fraction=0.010000
quickprop_decay=-0.000100
quickprop_mu=1.750000
rprop_increase_factor=1.200000
rprop_decrease_factor=0.500000
rprop_delta_min=0.000000
rprop_delta_max=50.000000
rprop_delta_zero=0.100000
cascade_output_stagnation_epochs=12
cascade_candidate_change_fraction=0.010000
cascade_candidate_stagnation_epochs=12
cascade_max_out_epochs=150
cascade_max_cand_epochs=150
cascade_num_candidate_groups=2
bit_fail_limit=3.49999999999999977796e-01
cascade_candidate_limit=1.00000000000000000000e+03
cascade_weight_multiplier=4.00000000000000022204e-01
cascade_activation_functions_count=10
cascade_activation_functions=3 5 7 8 10 11 14 15 16 17 
cascade_activation_steepnesses_count=4
cascade_activation_steepnesses=2.50000000000000000000e-01 5.00000000000000000000e-01 7.50000000000000000000e-01 1.00000000000000000000e+00 
layer_sizes=15 7 2 
scale_included=0
neurons (num_inputs, activation_function, activation_steepness)=(0, 0, 0.00000000000000000000e+00) (0, 0, 0.00000000000000000000e+00) (0, 0, 0.00000000000000000000e+00) (0, 0, 0.00000000000000000000e+00) (0, 0, 0.00000000000000000000e+00) (0, 0, 0.00000000000000000000e+00) (0, 0, 0.00000000000000000000e+00) (0, 0, 0.00000000000000000000e+00) (0, 0, 0.00000000000000000000e+00) (0, 0, 0.00000000000000000000e+00) (0, 0, 0.00000000000000000000e+00) (0, 0, 0.00000000000000000000e+00) (0, 0, 0.00000000000000000000e+00) (0, 0, 0.00000000000000000000e+00) (0, 0, 0.00000000000000000000e+00) (15, 4, 5.00000000000000000000e-01) (15, 4, 5.00000000000000000000e-01) (15, 4, 5.00000000000000000000e-01) (15, 4, 5.00000000000000000000e-01) (15, 4, 5.00000000000000000000e-01) (15, 4, 5.00000000000000000000e-01) (0, 0, 0.00000000000000000000e+00) (7, 6, 5.00000000000000000000e-01) (0, 6, 0.00000000000000000000e+00) 
connections (connected_to_neuron, weight)=(0, -1.71196755083983624957e+01) (1, -4.95332137098333347147e-01) (2, -6.95723578405853665396e-02) (3, 2.80389227769342219698e-01) (4, -3.26079124505622486296e-01) (5, 2.28892160992811666276e+00) (6, 1.58375690398939417136e+00) (7, 3.41785690325091429109e-01) (8, -1.09834001829299445774e+01) (9, 1.19235367632225419676e+00) (10, -5.81879390067811419485e-01) (11, 1.88281528750148452467e+00) (12, 4.41673211570946389060e+00) (13, -1.31794740234485202590e-01) (14, 5.29279493625695596215e-01) (0, 9.45900979886640591587e+00) (1, -8.60218447376876227395e+00) (2, 2.09451146584987202282e-01) (3, 5.35675999839332450669e-01) (4, 1.29972201308121082519e+00) (5, 1.98214552717136882620e+00) (6, 1.24756489188181163286e+00) (7, 1.00041307341868490610e+00) (8, -1.04611230246170219260e+01) (9, -4.69037912060007577963e+00) (10, -7.10276446052442556045e-01) (11, 4.01807062667865988459e+00) (12, 8.66213358423698664978e+00) (13, 6.22901844236145141309e+00) (14, 1.81583120542830900312e+00) (0, -1.06782287805806781478e+01) (1, -7.65973964772179938265e-01) (2, 3.46561705895632732322e-02) (3, -1.16335890470238054184e-01) (4, -2.57312658039381991770e+00) (5, 9.85001261804274830247e-01) (6, 6.74370990068345221857e-01) (7, -1.92260877156450993297e+00) (8, -1.48818790553214910233e+01) (9, 6.26892876797625042684e+00) (10, -4.79692797563547435047e-01) (11, -1.13350928360235109205e-01) (12, 4.03329845745101867038e+00) (13, -3.59149886816843399995e-01) (14, 1.61177626180973920800e-01) (0, -8.05104674256142516242e+00) (1, -5.17497412793907241024e+00) (2, -3.43206885844418219111e-01) (3, 2.54807966008475939024e-01) (4, 3.11925901435427567476e-02) (5, 7.30510449498360414644e-01) (6, 9.37080387793805980046e-01) (7, 8.96798239314063189154e-02) (8, -5.15895171958963150161e+00) (9, 4.64227041905902382268e+00) (10, 1.93048077162534448270e+00) (11, -4.02962573261642365008e-01) (12, -4.65896293902244629237e+00) (13, 1.27118257944475998578e+00) (14, 4.44552246114701454793e-01) (0, -2.28083273495600202807e+01) (1, -2.97273348193208981627e+01) (2, -2.27421878829820212076e+00) (3, 5.85220900752999109717e-04) (4, 4.10842411314380839826e+00) (5, 3.51518577762200479242e+00) (6, 3.26012070144602361665e+00) (7, 4.02914285653364512285e+00) (8, -5.46449773354174705986e+00) (9, -3.11210585732495959022e+00) (10, -8.54292506273410978679e+00) (11, -1.04869641376986977299e+00) (12, 5.76401633287640824399e-01) (13, 2.91137142425855657279e+01) (14, 3.67461349506221113259e+00) (0, -2.02125599435568510387e+01) (1, -4.77773354079055394550e+01) (2, -2.15541984238553041564e+00) (3, 9.05950404102554979202e-02) (4, 9.43314070461781617460e-01) (5, 3.23965684154672484141e+00) (6, 3.33892525015971086688e+00) (7, 3.71350868820168900086e+00) (8, -5.21136364050274103477e+00) (9, -2.76902926533882709492e+00) (10, 1.22862436964536225759e+00) (11, -7.57155099740870696223e-01) (12, 8.96921861338134007724e-01) (13, 6.28535370755860043346e+01) (14, 3.44392278572030319239e+00) (15, -7.19903232129942516337e+00) (16, -1.52585523465005366006e+01) (17, 4.71845684149305100163e+01) (18, 3.69578918869785555401e+00) (19, -3.14450638762062304465e+01) (20, -6.10289725586656484069e+00) (21, 6.44174175348377797690e+00) 
