FANN_FLO_2.1
num_layers=3
learning_rate=0.700000
connection_rate=1.000000
network_type=0
learning_momentum=0.000000
training_algorithm=2
train_error_function=1
train_stop_function=0
cascade_output_change_fraction=0.010000
quickprop_decay=-0.000100
quickprop_mu=1.750000
rprop_increase_factor=1.200000
rprop_decrease_factor=0.500000
rprop_delta_min=0.000000
rprop_delta_max=50.000000
rprop_delta_zero=0.100000
cascade_output_stagnation_epochs=12
cascade_candidate_change_fraction=0.010000
cascade_candidate_stagnation_epochs=12
cascade_max_out_epochs=150
cascade_max_cand_epochs=150
cascade_num_candidate_groups=2
bit_fail_limit=3.49999999999999977796e-01
cascade_candidate_limit=1.00000000000000000000e+03
cascade_weight_multiplier=4.00000000000000022204e-01
cascade_activation_functions_count=10
cascade_activation_functions=3 5 7 8 10 11 14 15 16 17 
cascade_activation_steepnesses_count=4
cascade_activation_steepnesses=2.50000000000000000000e-01 5.00000000000000000000e-01 7.50000000000000000000e-01 1.00000000000000000000e+00 
layer_sizes=27 7 2 
scale_included=0
neurons (num_inputs, activation_function, activation_steepness)=(0, 0, 0.00000000000000000000e+00) (0, 0, 0.00000000000000000000e+00) (0, 0, 0.00000000000000000000e+00) (0, 0, 0.00000000000000000000e+00) (0, 0, 0.00000000000000000000e+00) (0, 0, 0.00000000000000000000e+00) (0, 0, 0.00000000000000000000e+00) (0, 0, 0.00000000000000000000e+00) (0, 0, 0.00000000000000000000e+00) (0, 0, 0.00000000000000000000e+00) (0, 0, 0.00000000000000000000e+00) (0, 0, 0.00000000000000000000e+00) (0, 0, 0.00000000000000000000e+00) (0, 0, 0.00000000000000000000e+00) (0, 0, 0.00000000000000000000e+00) (0, 0, 0.00000000000000000000e+00) (0, 0, 0.00000000000000000000e+00) (0, 0, 0.00000000000000000000e+00) (0, 0, 0.00000000000000000000e+00) (0, 0, 0.00000000000000000000e+00) (0, 0, 0.00000000000000000000e+00) (0, 0, 0.00000000000000000000e+00) (0, 0, 0.00000000000000000000e+00) (0, 0, 0.00000000000000000000e+00) (0, 0, 0.00000000000000000000e+00) (0, 0, 0.00000000000000000000e+00) (0, 0, 0.00000000000000000000e+00) (27, 4, 5.00000000000000000000e-01) (27, 4, 5.00000000000000000000e-01) (27, 4, 5.00000000000000000000e-01) (27, 4, 5.00000000000000000000e-01) (27, 4, 5.00000000000000000000e-01) (27, 4, 5.00000000000000000000e-01) (0, 0, 0.00000000000000000000e+00) (7, 6, 5.00000000000000000000e-01) (0, 6, 0.00000000000000000000e+00) 
connections (connected_to_neuron, weight)=(0, 5.88927860554199988918e-01) (1, -3.24352502540951448395e+01) (2, -3.23267744310067257629e+01) (3, -2.34159438107994191114e+01) (4, -1.66673070002532419664e+00) (5, 1.15753875121102037249e-01) (6, 1.50112928939270973139e-01) (7, 3.66334501488680874814e+00) (8, 1.43971515133761474026e+00) (9, 4.26510626817590610127e-01) (10, 1.31661892466327512530e+00) (11, 1.10917954834464893565e+01) (12, 1.58520284178105796968e+00) (13, 3.63730074081594167978e+00) (14, 9.22291524307900068003e-01) (15, -4.83839690335767236284e-01) (16, -1.55725602614810787472e+00) (17, -2.51901520256232602790e+00) (18, -1.17616199184543801515e+00) (19, -1.31943329391335750778e+00) (20, -1.35488760123982343586e+00) (21, -1.33218089766423175568e+00) (22, -1.29455881043437792677e+00) (23, -6.39357083133770931482e-01) (24, 3.70813966960727103839e-01) (25, 2.42463309472479586759e+01) (26, 1.34534185142850049033e+00) (0, 4.99027942741691532547e+00) (1, -2.90841023813146248855e+00) (2, -3.19769456828874121257e+00) (3, -2.21990439462839228568e+00) (4, -6.67503212508834042893e-01) (5, -6.71347375482325037233e-01) (6, -3.13507626363986546814e-01) (7, 4.85600659562967357230e-03) (8, -4.70845111608829636207e-01) (9, -3.27625883555609120901e-01) (10, 1.57091813152192072423e+00) (11, 1.54666693993160242471e+00) (12, -1.04895347130787408574e+00) (13, 2.00555925146817726201e+00) (14, 1.04695818992135403214e+00) (15, -6.38649183485309190900e-01) (16, -3.67822897405096416179e+00) (17, -9.18313807170437534921e+00) (18, -1.28664650951063541662e+00) (19, -5.49710630480157558253e-01) (20, -4.74491706696250792330e-01) (21, 2.78772129539432311773e-01) (22, 3.84923955142970286580e-01) (23, 3.82192901433218468199e+00) (24, 1.26532987181823486367e+00) (25, 7.61111783107896258116e+01) (26, 2.02499117927814475948e+00) (0, 4.00913065146152880480e-02) (1, -2.08894900802551575225e+01) (2, -2.37218550531612351051e+01) (3, -3.29375636548230543710e+00) (4, -4.87986814153383574588e-01) (5, 7.40419096060022430272e-01) (6, -4.16809127220839348293e-01) (7, -1.01068647500417152507e+00) (8, -9.34644831302305356679e-01) (9, -4.16218224396233016371e-01) (10, 8.75181536786747149570e-01) (11, 1.12383150329813674695e+00) (12, 1.64769285583911795356e+00) (13, 5.70153309102729766167e-01) (14, -2.52679158371215795142e-01) (15, -2.29105219317152153380e+00) (16, -4.25686575319208415635e+00) (17, -3.32490381943483592764e+00) (18, -2.21276575812615705630e+00) (19, -1.67154599620346178135e+00) (20, -1.68593919808023762208e+00) (21, -6.93024726073739105736e-01) (22, -4.34282781234920589597e-01) (23, -4.06961060221073922527e-01) (24, 1.52038783675168293064e-01) (25, 1.15934388716670278008e+00) (26, 7.46908291041441518843e-01) (0, 8.07529094378940648369e+00) (1, 8.77370247224229515837e+00) (2, 2.34807914276523419517e+01) (3, 2.44576828636542238371e+01) (4, 1.35837241503953890742e+02) (5, 3.02402747048044659550e+02) (6, 1.35768312055230097712e+02) (7, 1.18342942800023127603e+01) (8, 1.23922323193173369305e+01) (9, 1.66199509046403655077e+01) (10, 5.67264482933082589966e+01) (11, 5.17546996300257617918e+01) (12, 1.23846894722243951037e+03) (13, 8.08316559529422988817e+01) (14, 3.36816907750468530480e+01) (15, 3.31165538098495204622e+01) (16, 8.10049276017785587101e+02) (17, 8.09993707367420711307e+02) (18, 1.91335577783821577214e+02) (19, 2.10439406587629243006e+01) (20, 3.93400790215868099153e+01) (21, 2.28516248556277856707e+00) (22, 2.38788650761357645891e+00) (23, 1.71817354627499008224e+00) (24, 4.92627506001605652841e+01) (25, 1.61793751748049152717e+00) (26, 1.29398266312591054827e+01) (0, 5.16054988942307168998e-01) (1, -3.07216213105742284029e+01) (2, -3.45645654111635849404e+01) (3, -2.29962713121783792758e+01) (4, -1.89691310415798808364e+00) (5, -3.09794841755357597268e-01) (6, -2.31752016787952035137e-02) (7, 8.60128697317332768790e-01) (8, 3.63051343982985974534e+00) (9, 2.57457342432225566586e-01) (10, 1.19191473533088387882e+00) (11, 9.48800174448785860193e+00) (12, 1.34660068218647355209e+00) (13, 1.13095463595975975757e+00) (14, 4.75530734354243755924e-01) (15, -1.04204658448173526075e+00) (16, -2.52767481754707734609e+00) (17, -3.04932957963926876133e+00) (18, -1.48981566431635892300e+00) (19, -1.12030328450813221330e+00) (20, -7.97852518269296512310e-02) (21, 5.25961204176498497986e-01) (22, -4.47621646163386621708e-01) (23, 5.54483524745597700090e-01) (24, 5.14931767729221667729e-01) (25, 2.21791521224996273531e+02) (26, 1.40838990561893684372e+00) (0, 9.01385000126305069301e-01) (1, -9.17556013814945892193e+00) (2, -2.77467241823943311374e+01) (3, -1.84890294514004538406e+00) (4, -1.37548860958142160626e+00) (5, -4.79548043305464144481e+00) (6, -1.06017226797308072861e-01) (7, 2.00288193613998605214e-01) (8, 6.79391992692108537266e-02) (9, 1.31152192146865187450e-01) (10, 2.17604852787072244880e+00) (11, 2.97524601651049414031e+00) (12, -1.25852852305536733191e+00) (13, 1.65326676056850363494e+00) (14, 4.63635652317639312958e-01) (15, -5.03450659169213055044e-01) (16, -5.17507770996203575464e+00) (17, -5.08560893014369774789e+00) (18, -2.38121555887966085407e+00) (19, -8.97127252423642218560e-01) (20, -1.79514025964254003709e-01) (21, 1.80455186232526143542e+00) (22, 2.74941260376600116189e+00) (23, 6.68077632737406901242e+00) (24, 1.30813965583577829221e+00) (25, 1.48626886830577888077e+02) (26, 2.30940852537180552062e+00) (27, -9.71718617842102183602e+00) (28, -2.13887414317417317022e+01) (29, -5.83147930193517254338e+01) (30, 1.09685649041967825390e+00) (31, -7.53133215796121113783e+00) (32, -3.58274419149616640823e+00) (33, 5.77987168078694235618e+00) 
