FANN_FLO_2.1
num_layers=3
learning_rate=0.700000
connection_rate=1.000000
network_type=0
learning_momentum=0.000000
training_algorithm=2
train_error_function=1
train_stop_function=0
cascade_output_change_fraction=0.010000
quickprop_decay=-0.000100
quickprop_mu=1.750000
rprop_increase_factor=1.200000
rprop_decrease_factor=0.500000
rprop_delta_min=0.000000
rprop_delta_max=50.000000
rprop_delta_zero=0.100000
cascade_output_stagnation_epochs=12
cascade_candidate_change_fraction=0.010000
cascade_candidate_stagnation_epochs=12
cascade_max_out_epochs=150
cascade_max_cand_epochs=150
cascade_num_candidate_groups=2
bit_fail_limit=3.49999999999999977796e-01
cascade_candidate_limit=1.00000000000000000000e+03
cascade_weight_multiplier=4.00000000000000022204e-01
cascade_activation_functions_count=10
cascade_activation_functions=3 5 7 8 10 11 14 15 16 17 
cascade_activation_steepnesses_count=4
cascade_activation_steepnesses=2.50000000000000000000e-01 5.00000000000000000000e-01 7.50000000000000000000e-01 1.00000000000000000000e+00 
layer_sizes=26 18 2 
scale_included=0
neurons (num_inputs, activation_function, activation_steepness)=(0, 0, 0.00000000000000000000e+00) (0, 0, 0.00000000000000000000e+00) (0, 0, 0.00000000000000000000e+00) (0, 0, 0.00000000000000000000e+00) (0, 0, 0.00000000000000000000e+00) (0, 0, 0.00000000000000000000e+00) (0, 0, 0.00000000000000000000e+00) (0, 0, 0.00000000000000000000e+00) (0, 0, 0.00000000000000000000e+00) (0, 0, 0.00000000000000000000e+00) (0, 0, 0.00000000000000000000e+00) (0, 0, 0.00000000000000000000e+00) (0, 0, 0.00000000000000000000e+00) (0, 0, 0.00000000000000000000e+00) (0, 0, 0.00000000000000000000e+00) (0, 0, 0.00000000000000000000e+00) (0, 0, 0.00000000000000000000e+00) (0, 0, 0.00000000000000000000e+00) (0, 0, 0.00000000000000000000e+00) (0, 0, 0.00000000000000000000e+00) (0, 0, 0.00000000000000000000e+00) (0, 0, 0.00000000000000000000e+00) (0, 0, 0.00000000000000000000e+00) (0, 0, 0.00000000000000000000e+00) (0, 0, 0.00000000000000000000e+00) (0, 0, 0.00000000000000000000e+00) (26, 4, 5.00000000000000000000e-01) (26, 4, 5.00000000000000000000e-01) (26, 4, 5.00000000000000000000e-01) (26, 4, 5.00000000000000000000e-01) (26, 4, 5.00000000000000000000e-01) (26, 4, 5.00000000000000000000e-01) (26, 4, 5.00000000000000000000e-01) (26, 4, 5.00000000000000000000e-01) (26, 4, 5.00000000000000000000e-01) (26, 4, 5.00000000000000000000e-01) (26, 4, 5.00000000000000000000e-01) (26, 4, 5.00000000000000000000e-01) (26, 4, 5.00000000000000000000e-01) (26, 4, 5.00000000000000000000e-01) (26, 4, 5.00000000000000000000e-01) (26, 4, 5.00000000000000000000e-01) (26, 4, 5.00000000000000000000e-01) (0, 0, 0.00000000000000000000e+00) (18, 6, 5.00000000000000000000e-01) (0, 6, 0.00000000000000000000e+00) 
connections (connected_to_neuron, weight)=(0, 5.95418642746276738364e+00) (1, -8.97518800866868193822e-01) (2, -6.84970728598917388830e-01) (3, -1.70036953053491063370e-01) (4, -1.36001030953370433130e-01) (5, -5.60248196668598708037e-01) (6, 1.92909717576111056081e-01) (7, 4.54789442160668022641e-01) (8, 5.02471769620118857702e-01) (9, 1.62182052670248366688e+00) (10, 1.51714006301910231400e+00) (11, 8.86545836511019591519e-01) (12, 6.63478544595415886675e-01) (13, 1.85001628515432225974e-01) (14, 1.84654176559726740381e-01) (15, -3.10308149560949708690e-01) (16, -7.40299609760573407158e+00) (17, -8.93167227356789217296e-01) (18, -7.62375458015814855273e-01) (19, -8.17583787981986276350e-01) (20, 1.38374230815964227581e+00) (21, -2.22749217931329068776e+00) (22, 4.42633036914579047760e+00) (23, 3.43923562510604630127e-01) (24, 4.50162939901741676607e+00) (25, 6.76028434058180360822e-01) (0, 5.23775848808453958760e-01) (1, 1.81412918164253511577e+00) (2, 1.38622958770311410781e+00) (3, -7.12152321747893668480e-01) (4, -7.36692936136240872358e-01) (5, -1.10087803727354849315e+00) (6, -1.23580667107573705099e-01) (7, -7.29341092845920274668e-02) (8, -3.11650558534069366257e-01) (9, 4.40450573548440971194e-01) (10, 4.52892170547048444895e-01) (11, 3.76539819635625372385e+00) (12, 6.52781401477436906688e-02) (13, 2.54473516534675370249e-01) (14, -1.05669440782150070302e-01) (15, -1.96071647730642073526e+00) (16, -6.32918966953320527580e+00) (17, -1.52006452982425588338e+00) (18, -6.88561391970306746479e-01) (19, -5.36904760306939551895e-02) (20, 9.31689054788904735815e-01) (21, -2.30602704290735094350e-01) (22, 8.54614413884427115420e+00) (23, 5.15416711859931542250e-01) (24, 6.16289689382993000066e+00) (25, 2.84223808851160386624e-01) (0, 2.00657860557342040408e+01) (1, -6.06558649270457550529e+00) (2, -7.56350604503035572890e+00) (3, -1.02552449624750430246e+01) (4, -1.14205536111023442380e+00) (5, -2.74702973972353925447e+00) (6, -1.70096077445081872437e-01) (7, 3.32866032086066090945e-02) (8, -1.49212620191488093413e-01) (9, 9.79497783197328497629e-01) (10, 7.69512300884513500421e-01) (11, 1.03619312028427668082e+00) (12, 4.48266345911438490734e-01) (13, 1.26707127441772038345e-01) (14, -5.00862617813014679435e-02) (15, -1.00350764544851012161e+00) (16, -1.22623145654397203153e+00) (17, -6.52232140590416120673e-01) (18, -4.87478148670483946159e-01) (19, -5.66743556003483917038e-01) (20, 8.50686402918186673761e-02) (21, -5.06198887505793448938e-01) (22, 1.19416632518662058082e+00) (23, 3.26924201643640044423e+00) (24, 2.94842496527541761964e+01) (25, 4.25557446092580837771e-01) (0, 4.69922800778295124413e-01) (1, -1.36193458353573326747e+00) (2, -5.49713283422754717122e-01) (3, -3.05490670532049923835e+00) (4, -4.54625985522993270038e-01) (5, -1.65859466173352521068e+00) (6, -6.96751182764362431143e-02) (7, 3.87182255346528655937e-02) (8, -1.94296778375470990952e-01) (9, 3.77490433166651262464e-01) (10, 7.45672726693513920893e-01) (11, 2.56658603720922995350e+00) (12, 5.33221764638301606865e-02) (13, 2.88564448329415301764e-01) (14, -8.40586912626172105822e-02) (15, -1.66416775468532951443e+00) (16, -5.40074267530069995757e+00) (17, -7.45755335553919040947e-01) (18, -6.74877967482582330483e-01) (19, -6.17411804624069859848e-01) (20, -5.96721009686949424577e-02) (21, -1.18853413319272882553e+00) (22, 1.14078559996064772264e+01) (23, 1.02246318498692723153e+00) (24, 7.49210147961574524089e+00) (25, 2.87919135633420975040e-01) (0, 1.46165686499339697590e+00) (1, -2.00535517967259231398e+01) (2, -2.30100306833324310674e+01) (3, -1.18231984070767714989e+00) (4, -2.72716910330834949594e-01) (5, -1.28513930870582959720e+00) (6, 1.41508642027822650888e-01) (7, 4.08078671056015584995e-01) (8, 1.78718265495201394932e-01) (9, 1.03239587586612402426e+00) (10, 2.39722137236315457898e+00) (11, 1.44676695087269724382e+00) (12, 3.27343451888494896274e-01) (13, 2.97587990117544998192e-01) (14, -2.78344369669857386040e-03) (15, -1.17308189529911133242e+00) (16, -1.75741173342726630935e+00) (17, -9.04344958495270856424e-01) (18, -1.52068409009581656521e-01) (19, -2.11845148675517985781e-01) (20, -1.04815691088973525491e-01) (21, -3.48937528318193024290e-01) (22, 6.02527184928979719913e-01) (23, 1.07987057160284338764e+00) (24, 3.05437436398437363039e+01) (25, 2.87421676152137317573e-01) (0, 1.51136614005281821882e+00) (1, -3.46010619749027137360e+00) (2, -2.21894589920991291976e+00) (3, -5.45139046723660536387e-01) (4, -1.06841590046512516232e-01) (5, -9.36126399497971384278e-01) (6, 2.23346436252168378811e-02) (7, 1.39229139951441771572e+00) (8, 2.81326153785709742738e-01) (9, 2.84688049217722505269e-01) (10, 1.89632961652010401110e+00) (11, 1.92685557226962123067e+00) (12, 2.15125246529046992849e-01) (13, 2.51819129988353485050e-01) (14, 2.59626642107276761617e-01) (15, -1.61875636731537131396e+00) (16, -6.14632337263811656669e+00) (17, -5.93548178679979998584e-01) (18, -3.17665608162978285733e-01) (19, -6.00407938542450114738e-01) (20, -1.46852401234519008844e-01) (21, -5.88223262792190393355e-01) (22, 5.80523159393799748074e+00) (23, 5.89233657070132532674e-01) (24, 3.26729546175498430927e+00) (25, 2.94362300921074293569e-01) (0, 5.41972750039441231173e-01) (1, 2.08653759503823099664e+00) (2, -5.53338922698092469665e-02) (3, -8.75139864532610833869e-01) (4, -3.17455290546682200592e-01) (5, -1.61501074364875929490e+00) (6, -1.11659721681758652978e-01) (7, -2.55203561819663735100e-02) (8, -1.19616046503991088623e-01) (9, 3.44354594197756269658e-01) (10, 7.51850978901346334027e-01) (11, 1.83444783553159829204e+00) (12, 1.20002049749698413983e-01) (13, 2.20380429512603503994e-01) (14, 1.96335694892550149948e-02) (15, -7.80744529132756270862e-01) (16, -3.16032125161460752949e+00) (17, -9.08988488732001997938e-01) (18, -7.19950736744926489408e-01) (19, -3.19992514154544371863e+00) (20, -5.05650634882222407840e-02) (21, -1.95650619067460795897e+00) (22, 8.93606198234926818458e-01) (23, 1.01744549169326004012e+00) (24, 5.11104986445620035340e+00) (25, 4.76926796720374857053e-01) (0, 4.00282575754436598103e-01) (1, -3.18480018200121826055e+01) (2, -1.87284994447516233151e+01) (3, -7.72260681571444340676e-01) (4, -1.23447532002151624808e-01) (5, -8.69820895307604535773e-01) (6, 5.00303228418608678107e-02) (7, 3.61191624444407888284e-01) (8, 3.36951132951750442768e-01) (9, 2.60990159251351228065e+00) (10, 1.84277353453861425514e+00) (11, 8.80035850934434815684e-01) (12, 1.19585054286819580938e+00) (13, 2.48675310512332825574e-01) (14, 2.16828167178418129701e-01) (15, -8.02054549341799094542e-01) (16, -2.91719731084287037248e+00) (17, -7.60277015555472668318e-01) (18, -1.98080131914572965535e-01) (19, -3.33277223488407914331e+00) (20, 1.11022920232690447406e+00) (21, -4.61419766224195804227e+00) (22, 6.86923182573956125907e+00) (23, 2.76757439618956313510e+00) (24, 1.51491827784030785864e+01) (25, 7.87824661039527418538e-01) (0, -9.04525665854560543266e+01) (1, 2.91886370294164194661e+01) (2, 5.52948301676781497349e+01) (3, 1.87480524508124579697e+00) (4, 1.01709003975372769268e+00) (5, 1.02769376185579908167e+00) (6, 4.21253337468879440753e-01) (7, 7.89912805042472243588e-02) (8, 2.51479208242797111494e-02) (9, -9.31766796436146904625e-01) (10, -8.48492355706105372271e-01) (11, 1.19793561952135432791e-01) (12, 9.91693016835246687890e-02) (13, 1.86108139239063025139e-02) (14, 1.62537036186925637482e-01) (15, 6.11841506897958131717e-01) (16, 6.92046924997586199169e+00) (17, -8.44425302855172588146e-01) (18, -3.32634309175562226102e+00) (19, -1.12283898060893783111e+00) (20, -3.98276571198990181344e+00) (21, -1.86124229296156407099e-01) (22, -4.17454816539427220334e+00) (23, -8.57422443384960430990e+00) (24, -6.80745785017673625816e+01) (25, 1.17067730401722094880e-01) (0, 5.05304758764797634640e-01) (1, -1.32496342800632160852e+00) (2, -1.56207321394030096418e-01) (3, -3.11597299771212865593e+00) (4, -9.29438431888444882567e-01) (5, -2.57681587580186199915e+00) (6, -1.68727528866993048418e-01) (7, -5.73480029010560374281e-02) (8, -1.67626942034325071562e-01) (9, 3.56316848867642643750e-01) (10, 5.92538951766404586863e-01) (11, 2.65133695241837763490e+00) (12, 1.82034960971468345869e-01) (13, 7.96408629036953336078e-02) (14, -1.19188636454373289575e-01) (15, -1.88227423266071802743e+00) (16, -6.94201159179860471937e+00) (17, -7.13427660986441058988e-01) (18, -7.14429282785651653676e-01) (19, -4.95993681906994554609e-01) (20, -7.36770794238445492219e-02) (21, -4.13743322688045978008e-01) (22, 1.56259776563254906279e+01) (23, 1.57799375643138084513e+00) (24, 8.25092384861924799111e+00) (25, 3.55754454433113764811e-01) (0, -2.99889327589153475984e+00) (1, 9.12868428029271150592e+00) (2, 7.81084182413269445533e+00) (3, 1.02851737430902723247e+00) (4, 1.10944359237871559287e+00) (5, 3.71228874189757007684e+00) (6, 5.92079321280318704446e-01) (7, 9.89307444754923964725e-02) (8, 4.45877160848048570418e-01) (9, 1.89191449025289476493e-01) (10, 1.17895737870545955217e-01) (11, 4.04710464386120842561e-03) (12, 3.79621278094633196609e-01) (13, 2.31256101664043811628e-01) (14, 6.25263619957161953522e-01) (15, 1.74190260196862323205e+00) (16, 4.04996140135657611836e+00) (17, 1.73019518031215818743e-01) (18, -3.19434216679657434490e-01) (19, -8.87146088120348702555e-02) (20, -5.40418948912790519934e-01) (21, -2.81399499888175308460e-01) (22, -1.87527216947131805114e+01) (23, -2.59796695640087893509e+00) (24, -6.03866252092386357475e+00) (25, 3.96374970785352498392e-01) (0, -1.22152929957327938126e+00) (1, 2.01058940239612873313e+01) (2, 3.71559278317299046535e+01) (3, 2.88250702475138798064e+00) (4, 9.50917714603418340324e-01) (5, 2.04469473112082988919e+00) (6, 3.23378120350110764836e-01) (7, -1.73237854091407683654e-01) (8, 1.88563188627253269791e-01) (9, -2.99928716643725445934e-01) (10, -3.63564317563920713638e-01) (11, -7.09124597824025371118e-01) (12, 3.25911241970728793316e-01) (13, 2.40649813301356346740e-01) (14, 4.26400067963762563483e-01) (15, 2.22751650266512751797e-01) (16, 5.53282601149624353454e-01) (17, -2.92365019291430494608e-01) (18, -2.18200703466067347236e+00) (19, -3.97897495661226230368e-01) (20, -2.84070670247962397958e-01) (21, 2.21043449251457385651e-01) (22, -2.88622875210138163382e+00) (23, -1.12582687770255707171e+00) (24, -1.84456173627429116380e+01) (25, -1.89118403619412539518e-02) (0, -1.48993468249399785286e+00) (1, 1.54332091965537312461e+01) (2, 1.45235754040548883381e+01) (3, 1.32887656513411700487e+00) (4, 1.07444729479059963850e+00) (5, 1.19606773075490391278e+00) (6, 6.08313402370566302935e-01) (7, -1.72982797927252046621e-02) (8, 1.42817504327695327104e-01) (9, -3.11525355994437092022e+00) (10, -1.36151382160692580037e+00) (11, -1.24073463933063093956e-01) (12, 1.59859747517957506702e-01) (13, -5.35109607795206221326e-01) (14, -1.60874977719468059689e+00) (15, 9.92098185443267999162e-01) (16, 2.28926080633541317866e+00) (17, -2.56440306375734949906e-01) (18, -8.48093431253684859605e-01) (19, 3.18071143539107259457e+00) (20, 2.64529470716993264645e+00) (21, 5.75643649125031742209e-01) (22, -1.78631737411473179300e+00) (23, -1.49921378491341683592e-01) (24, -3.90719691384367395770e+00) (25, 4.50779786251318315138e-01) (0, 6.06811673219566971582e-01) (1, 2.13466364980638623194e+00) (2, -5.88136079386484822429e-01) (3, -8.94541122861005844058e-01) (4, -4.51248221674963756467e-01) (5, -1.75041842736679242876e+00) (6, -2.10026462989497036959e-01) (7, 7.24547275077268987387e-02) (8, -5.79003495627705838666e-02) (9, 3.90979443102467572047e-01) (10, 7.52937318332852600911e-01) (11, 1.88662029350522120197e+00) (12, 2.29647141064057508375e-01) (13, 1.25810772409697513297e-01) (14, 3.51491750768366442020e-03) (15, -9.94231079629862013469e-01) (16, -3.31180201131202478493e+00) (17, -7.82521958410024365271e-01) (18, -6.55191445530533433939e-01) (19, -2.20167185613318006077e+00) (20, -1.55881715094046385817e-01) (21, -8.93754569888784433651e-01) (22, 2.15676606981538121488e+00) (23, 1.04929743510518336258e+00) (24, 6.46102404328382817766e+00) (25, 3.72918557588233223754e-01) (0, 2.61892344105788932307e-01) (1, 1.90983690500120806277e+00) (2, 2.35866447887631247582e+00) (3, -1.08969619270456763438e+00) (4, -3.54718774087004806717e-01) (5, -1.73876906936665509562e+00) (6, -2.32063990983493118048e-01) (7, -3.90598387701525731619e-03) (8, -2.45046982438188287734e-01) (9, 4.36109256647286669395e-01) (10, 4.76858632136164861670e-01) (11, 3.23597463430116283334e+00) (12, 6.39417631491375620945e-02) (13, 1.69834736573204247989e-01) (14, -1.13542263239208643388e-01) (15, -1.87756928986990923036e-01) (16, -4.66594720945719920735e+00) (17, -9.78269189990535248391e-01) (18, -7.11927304713807163061e-01) (19, -9.73963453398181910892e-01) (20, -8.65984627690684211077e-02) (21, -8.71566500848242387001e-01) (22, 3.79668577659493067245e+00) (23, 2.31707934583298802433e-01) (24, 7.84763706942722993887e+00) (25, 1.93180384216983497270e-01) (0, -5.73509049571453299876e+00) (1, 3.31615136855890213496e+01) (2, 3.75525072181455144005e+01) (3, 2.17223176022878794456e+00) (4, 1.00853653249513852685e+00) (5, 8.75195375592901947392e-01) (6, 5.72390459743472690413e-01) (7, 1.47420091780297413120e-01) (8, 5.39965851518306033663e-02) (9, -3.25565777686938201407e-02) (10, -1.06806350071125533141e+00) (11, 1.08762003293721334907e-01) (12, 1.58873271051682724009e-01) (13, 7.13374855487594466963e-02) (14, 2.28912064893312117153e-01) (15, 7.90108424574325063361e-01) (16, 1.18678965170613648361e+00) (17, -2.91982543846422915035e-01) (18, -2.24367089602878921895e+00) (19, -6.51546621227046873770e-01) (20, -2.22497978677743235565e+00) (21, 5.86019091555145948957e-02) (22, -1.40515955212486143289e+00) (23, -7.83326608431843851577e+00) (24, -2.01278378046679335966e+01) (25, 1.70336263326986675493e-01) (0, -4.37418485692630421013e-01) (1, 3.22814822501170226587e+01) (2, 2.49092994987360498271e+02) (3, 3.85527585525392169075e+00) (4, 1.45722246000761934681e+00) (5, 1.00381812643774304128e+00) (6, 2.80819510771458225040e-01) (7, -2.33071310356157079813e-01) (8, 4.68574158659098259638e-04) (9, -5.73866885672294024801e+00) (10, -1.82120912866086648307e+00) (11, -8.06599732904431099278e-01) (12, -2.18055918476944998741e-01) (13, 2.22096002941100344186e-02) (14, 3.77418905533740134395e-02) (15, -6.23121107836754672960e-01) (16, 6.62893551989891527398e-02) (17, -5.50489742582111363234e-01) (18, -1.46181728816322320519e+00) (19, 7.95051078541667233246e-01) (20, 1.82651661555008865134e-01) (21, 3.07731483619167800470e-01) (22, 1.87190717496931752217e-01) (23, 2.10169256264463690798e+01) (24, 3.26852425953789627044e+00) (25, 9.28955254648421713259e-02) (26, -2.13608659159770519764e+00) (27, -2.05473983232473278449e+00) (28, -3.11303778619621196455e+00) (29, -2.19005538259317722449e+00) (30, -2.79346197005862872942e+00) (31, -2.63340262578290085216e+00) (32, -9.20805492253232849009e+00) (33, -3.15343854119849886786e+01) (34, 4.00966492207749869436e+00) (35, -8.18718918254767480391e+00) (36, 5.16555371202300994682e-01) (37, 2.79608939480496943020e+00) (38, 2.35329377880463014305e-01) (39, -9.21251881868768585093e+00) (40, -7.15686100341124475932e+00) (41, 1.43237982530622476318e+00) (42, 2.34999706502649985396e+00) (43, 1.37835242668348278983e+00) 
