FANN_FLO_2.1
num_layers=3
learning_rate=0.700000
connection_rate=1.000000
network_type=0
learning_momentum=0.000000
training_algorithm=2
train_error_function=1
train_stop_function=0
cascade_output_change_fraction=0.010000
quickprop_decay=-0.000100
quickprop_mu=1.750000
rprop_increase_factor=1.200000
rprop_decrease_factor=0.500000
rprop_delta_min=0.000000
rprop_delta_max=50.000000
rprop_delta_zero=0.100000
cascade_output_stagnation_epochs=12
cascade_candidate_change_fraction=0.010000
cascade_candidate_stagnation_epochs=12
cascade_max_out_epochs=150
cascade_max_cand_epochs=150
cascade_num_candidate_groups=2
bit_fail_limit=3.49999999999999977796e-01
cascade_candidate_limit=1.00000000000000000000e+03
cascade_weight_multiplier=4.00000000000000022204e-01
cascade_activation_functions_count=10
cascade_activation_functions=3 5 7 8 10 11 14 15 16 17 
cascade_activation_steepnesses_count=4
cascade_activation_steepnesses=2.50000000000000000000e-01 5.00000000000000000000e-01 7.50000000000000000000e-01 1.00000000000000000000e+00 
layer_sizes=10 17 2 
scale_included=0
neurons (num_inputs, activation_function, activation_steepness)=(0, 0, 0.00000000000000000000e+00) (0, 0, 0.00000000000000000000e+00) (0, 0, 0.00000000000000000000e+00) (0, 0, 0.00000000000000000000e+00) (0, 0, 0.00000000000000000000e+00) (0, 0, 0.00000000000000000000e+00) (0, 0, 0.00000000000000000000e+00) (0, 0, 0.00000000000000000000e+00) (0, 0, 0.00000000000000000000e+00) (0, 0, 0.00000000000000000000e+00) (10, 4, 5.00000000000000000000e-01) (10, 4, 5.00000000000000000000e-01) (10, 4, 5.00000000000000000000e-01) (10, 4, 5.00000000000000000000e-01) (10, 4, 5.00000000000000000000e-01) (10, 4, 5.00000000000000000000e-01) (10, 4, 5.00000000000000000000e-01) (10, 4, 5.00000000000000000000e-01) (10, 4, 5.00000000000000000000e-01) (10, 4, 5.00000000000000000000e-01) (10, 4, 5.00000000000000000000e-01) (10, 4, 5.00000000000000000000e-01) (10, 4, 5.00000000000000000000e-01) (10, 4, 5.00000000000000000000e-01) (10, 4, 5.00000000000000000000e-01) (10, 4, 5.00000000000000000000e-01) (0, 0, 0.00000000000000000000e+00) (17, 6, 5.00000000000000000000e-01) (0, 6, 0.00000000000000000000e+00) 
connections (connected_to_neuron, weight)=(0, -1.02043955172856186664e+01) (1, 3.33405222859256422652e+00) (2, -1.20128904309795592198e+00) (3, -2.14011984430649349065e+00) (4, -2.72866931755198205423e+00) (5, 1.39227556225217430352e+01) (6, -1.13118865154491743397e+00) (7, -3.59944898527492052054e+00) (8, -2.43075775804948541747e+01) (9, -1.32301502101772316955e+00) (0, 2.86482868843131965875e+00) (1, 2.14649233217034396404e+00) (2, 4.75627421194575106256e+00) (3, 4.81340292472933681256e-02) (4, 5.35317588183064518859e+00) (5, 1.99099615817195569889e+01) (6, 4.71999522562542050963e+00) (7, 4.75248985698929438115e+00) (8, -5.08959040884088231849e+00) (9, 4.53491038924910550012e-01) (0, -4.79659323259377501358e+00) (1, -6.22664204107312935221e-01) (2, -1.86094656416529502518e-01) (3, 1.09095584312963245210e+00) (4, 2.76632933256815194412e+00) (5, -5.37390381920877402422e+00) (6, -3.48824611799641359777e-01) (7, -2.59633064484817502326e-02) (8, 1.27989483166057112840e+02) (9, 3.51472794653230669049e-01) (0, -1.41138514408612643081e+01) (1, 1.39168047189464250124e+00) (2, 6.91845048896755243639e-01) (3, 5.14703507072240995512e-01) (4, 6.17220812285721676105e-01) (5, 4.05720474692703270136e+00) (6, 1.31746261500561501201e+00) (7, 4.94647044205769270686e-01) (8, 1.37884998375537887183e-01) (9, 2.14682798792107698560e+00) (0, -4.82869918136978171219e+00) (1, -3.46448313262518070577e-01) (2, -3.65905657010179574673e-01) (3, 2.59562086813343739777e+00) (4, 2.62571535823569179868e+00) (5, -5.33651415093159808833e+00) (6, -3.37785208749508125692e-01) (7, 1.25909596466794292818e-02) (8, 3.66237570518306085887e+01) (9, 2.95457150351813302436e-01) (0, -1.00725097167749737537e+01) (1, 2.27393440399399482388e+00) (2, -1.29200088259504530797e+00) (3, -2.08578355292392858544e+00) (4, -2.83393703598631541141e+00) (5, 1.29408298304246045518e+01) (6, -1.21438712269259063703e+00) (7, -2.74891938327676088605e+00) (8, -2.42810944917630884277e+01) (9, -1.00908393825771924845e+00) (0, -1.12264325014444672490e+01) (1, 2.41335715489828084301e+00) (2, -1.97845493535729732848e+00) (3, -2.76656243404988222423e+00) (4, -2.63411172249609748519e+00) (5, 1.25047481927576686900e+01) (6, 6.57674727042035223157e-01) (7, -1.77968207578607628960e+00) (8, -3.91091735944802891822e+01) (9, -1.31680454866656315716e+00) (0, -6.16698103145116238721e+00) (1, -1.46735083284338704152e-02) (2, -9.77155946690367316343e-02) (3, 1.11650962094354344600e+00) (4, 2.76098704529628591331e+00) (5, -5.37326709760642184932e+00) (6, -2.92412722635006061545e-01) (7, -2.34154974057111164853e-01) (8, 1.64821464270086401882e+01) (9, 2.54145307265735642677e-01) (0, -6.27054805428141026624e+00) (1, -5.08171214030771034587e-01) (2, -9.08339239148315963357e-02) (3, 1.06763884882020709810e+00) (4, 2.01695495509376243604e+00) (5, -5.33497049494004382808e+00) (6, -3.50160277383251894445e-01) (7, -2.86632736160191914365e-01) (8, 5.63102076606534254211e+01) (9, 3.28348144532495500592e-01) (0, -6.20714641854518323072e+00) (1, -3.99110617893837948955e-01) (2, -1.74151796636331984702e-01) (3, 9.24311381676671595109e-01) (4, 3.13319861939706312270e+00) (5, -5.42262785021830229226e+00) (6, -3.58957801761241479532e-01) (7, -4.39414314852387799526e-01) (8, 1.55014299086223861224e+01) (9, 2.76737836920238733374e-01) (0, -4.74678094550156615128e+00) (1, -3.01859980186192700113e-01) (2, -2.52967145382726077418e-01) (3, 1.03427643040704464461e+00) (4, 2.09580043099497892456e+00) (5, -5.38579809500193729122e+00) (6, -2.12821273999138665944e-01) (7, 4.36430871271863765615e-02) (8, 1.27942024569529536393e+02) (9, 2.74942829848581316021e-01) (0, -6.26764883965605168470e+00) (1, -3.48587848290650426097e-01) (2, 5.95264676987126373220e-01) (3, 9.34771312883523108894e-01) (4, 2.59092334849462391233e+00) (5, -5.08567686331691515278e+00) (6, -2.50907618212792671297e-01) (7, -5.40312754735354117130e-01) (8, 1.63657020739944094601e+01) (9, 2.32872394644237479255e-01) (0, 2.45756151209956286152e+00) (1, 4.20635312717800502469e+00) (2, 2.14022050513569173091e+00) (3, 2.35969525431011073469e-01) (4, 3.48614026672829702136e+00) (5, 1.92264652026404583296e+01) (6, 2.09238038044658436476e+00) (7, 2.00001626535297249987e+00) (8, -3.14756733127721066712e-01) (9, 2.77821057784892122555e+00) (0, -4.58747940925761454878e+01) (1, -9.81102852449419082781e-01) (2, 2.44469721429591091422e+00) (3, 1.47567777460780580334e+00) (4, 2.22791490051637763870e+00) (5, -1.35196332181473755085e+00) (6, 3.66450244560544424743e-01) (7, 1.00804334433574327434e+00) (8, 6.29692482278450142985e+01) (9, 3.91564314596721696482e-01) (0, -3.99525280487315299638e+01) (1, -9.07211732557762662310e-01) (2, 1.78109281753255110914e+00) (3, 3.66277978730690767506e+00) (4, 3.52873986438813247446e+00) (5, -2.50918441238838729745e+00) (6, 3.20104807078989306302e-01) (7, 1.45800783343226814104e+00) (8, 6.30551779292532685872e+01) (9, 3.34564978219921371760e-01) (0, -6.20258752003663449415e+00) (1, -7.83938359786796323814e-02) (2, -1.06725860175837197752e-01) (3, 9.23039634624002069963e-01) (4, 3.09630982628621609365e+00) (5, -5.50830413996001944099e+00) (6, -3.30756147207827977397e-01) (7, -5.41740796258497914195e-01) (8, 6.88652759527921087823e+00) (9, 3.12451636218048334204e-01) (10, 1.09016264531996753817e+01) (11, 9.48411957441138153690e-01) (12, -3.68334516888899754505e+00) (13, 8.68320304842394752320e-01) (14, -3.62299785790756834203e+00) (15, 6.75781298557899212653e+00) (16, 3.38868527974214517329e+00) (17, -3.57205294586156929526e+00) (18, -3.66991544542626035863e+00) (19, -3.14301891879161576782e+00) (20, -3.70569272345347355824e+00) (21, -3.57651990195326430211e+00) (22, 3.75947080780979048242e-01) (23, -1.91162221950769932732e+01) (24, -6.55175214127886373916e+00) (25, -3.08375706670113780561e+00) (26, 9.34941382227705841679e-01) 
