FANN_FLO_2.1
num_layers=3
learning_rate=0.700000
connection_rate=1.000000
network_type=0
learning_momentum=0.000000
training_algorithm=2
train_error_function=1
train_stop_function=0
cascade_output_change_fraction=0.010000
quickprop_decay=-0.000100
quickprop_mu=1.750000
rprop_increase_factor=1.200000
rprop_decrease_factor=0.500000
rprop_delta_min=0.000000
rprop_delta_max=50.000000
rprop_delta_zero=0.100000
cascade_output_stagnation_epochs=12
cascade_candidate_change_fraction=0.010000
cascade_candidate_stagnation_epochs=12
cascade_max_out_epochs=150
cascade_max_cand_epochs=150
cascade_num_candidate_groups=2
bit_fail_limit=3.49999999999999977796e-01
cascade_candidate_limit=1.00000000000000000000e+03
cascade_weight_multiplier=4.00000000000000022204e-01
cascade_activation_functions_count=10
cascade_activation_functions=3 5 7 8 10 11 14 15 16 17 
cascade_activation_steepnesses_count=4
cascade_activation_steepnesses=2.50000000000000000000e-01 5.00000000000000000000e-01 7.50000000000000000000e-01 1.00000000000000000000e+00 
layer_sizes=24 16 2 
scale_included=0
neurons (num_inputs, activation_function, activation_steepness)=(0, 0, 0.00000000000000000000e+00) (0, 0, 0.00000000000000000000e+00) (0, 0, 0.00000000000000000000e+00) (0, 0, 0.00000000000000000000e+00) (0, 0, 0.00000000000000000000e+00) (0, 0, 0.00000000000000000000e+00) (0, 0, 0.00000000000000000000e+00) (0, 0, 0.00000000000000000000e+00) (0, 0, 0.00000000000000000000e+00) (0, 0, 0.00000000000000000000e+00) (0, 0, 0.00000000000000000000e+00) (0, 0, 0.00000000000000000000e+00) (0, 0, 0.00000000000000000000e+00) (0, 0, 0.00000000000000000000e+00) (0, 0, 0.00000000000000000000e+00) (0, 0, 0.00000000000000000000e+00) (0, 0, 0.00000000000000000000e+00) (0, 0, 0.00000000000000000000e+00) (0, 0, 0.00000000000000000000e+00) (0, 0, 0.00000000000000000000e+00) (0, 0, 0.00000000000000000000e+00) (0, 0, 0.00000000000000000000e+00) (0, 0, 0.00000000000000000000e+00) (0, 0, 0.00000000000000000000e+00) (24, 4, 5.00000000000000000000e-01) (24, 4, 5.00000000000000000000e-01) (24, 4, 5.00000000000000000000e-01) (24, 4, 5.00000000000000000000e-01) (24, 4, 5.00000000000000000000e-01) (24, 4, 5.00000000000000000000e-01) (24, 4, 5.00000000000000000000e-01) (24, 4, 5.00000000000000000000e-01) (24, 4, 5.00000000000000000000e-01) (24, 4, 5.00000000000000000000e-01) (24, 4, 5.00000000000000000000e-01) (24, 4, 5.00000000000000000000e-01) (24, 4, 5.00000000000000000000e-01) (24, 4, 5.00000000000000000000e-01) (24, 4, 5.00000000000000000000e-01) (0, 0, 0.00000000000000000000e+00) (16, 6, 5.00000000000000000000e-01) (0, 6, 0.00000000000000000000e+00) 
connections (connected_to_neuron, weight)=(0, 9.05738727010353406044e-02) (1, -3.73251696540296791227e+01) (2, -1.60412448908313081120e+01) (3, -1.21572967933140341223e+00) (4, -3.57948339581947494459e-01) (5, -3.46471460975999900889e-01) (6, -7.73565827202895711645e-02) (7, -4.88647683631297513607e-02) (8, -1.57890359124296907056e-02) (9, 1.33110550030605256921e+00) (10, 1.34602225011205911542e+00) (11, 1.24108433541005314105e+00) (12, 2.16684588783977893911e-01) (13, -8.32308445860348578016e-02) (14, -3.70969648155705833403e+00) (15, -3.64069853657405406722e+00) (16, -2.63596028194289955238e-01) (17, -1.75969176224955919929e-01) (18, -1.60117554512230614305e-01) (19, -9.31615818000013778954e-02) (20, 6.29608820558709009196e-02) (21, 2.50425010974927142460e-01) (22, 2.07310549994692451037e+02) (23, 1.34512717835772432906e+00) (0, 5.04080989818996849650e-01) (1, -1.63102587023502927366e+01) (2, -3.57515205200412644615e+00) (3, -6.55181333980448976639e-01) (4, -5.46948790867292644613e-01) (5, -3.96086736841171627166e-01) (6, -3.97161867061587639527e-02) (7, -3.02117413368959086828e-01) (8, -5.46420911443667653429e-02) (9, 9.44816307872832217285e-01) (10, 1.33480422280009691782e+00) (11, 1.32523987541857057870e+00) (12, 1.80716118223504598750e-02) (13, -1.84258006534680579547e-01) (14, -4.27315573796797387729e+00) (15, -7.83170056780985657241e+00) (16, -1.12086398363344730278e+00) (17, -1.38464779263989617997e-01) (18, -2.37209706764099526044e-01) (19, -1.95070643190431630698e-01) (20, -1.78495990526287562350e-01) (21, 1.58468758160124553735e-02) (22, 4.65844599727969299607e+00) (23, 8.62002404461026050519e-01) (0, 6.83613226412329161308e-02) (1, -1.12695770599421507541e+01) (2, -2.08966581130553796797e+00) (3, -5.02786924546265057145e-01) (4, -4.01611544582380131096e-01) (5, -2.47941264727944477020e-01) (6, 7.71392112737823570923e-02) (7, -3.51360605057747590885e-02) (8, -6.10962796782902814452e-02) (9, -2.90868848587814768369e-02) (10, 5.72004278429550858109e-02) (11, 1.00889374066105361183e-01) (12, 1.40348852874477847408e-01) (13, -2.27510244178658227465e-01) (14, -3.67438452463552500671e-01) (15, -1.63360339383829233917e+00) (16, -7.85812005801035162733e-01) (17, -7.20320626997333013364e-01) (18, -1.99778960795162829900e-01) (19, -2.04821313683450134668e-01) (20, -1.28802475186064663282e-01) (21, 2.06770353028981335175e-02) (22, -3.88381353036528542688e-01) (23, 7.01698486201897952963e-02) (0, 1.15052529256769520138e+00) (1, -2.35056270413780801221e+01) (2, -2.61948083078399740486e+01) (3, -2.34970309295531887273e+00) (4, -3.44578896178506011161e-01) (5, -3.02512801606623249473e-01) (6, 7.53425608251148570815e-01) (7, 9.94971689988562002505e-01) (8, 1.80023556470532808405e+00) (9, 1.86731312022352313740e+00) (10, 2.98696342400903214198e+00) (11, 1.10390785878226571626e+00) (12, 4.71339660412239180864e-01) (13, 9.96998118641770458837e-01) (14, -2.78099225489820733870e+00) (15, -3.05686875236645105858e+00) (16, 1.61856113773522447552e+00) (17, 1.67313762379362329646e+00) (18, 6.64049975612562515259e-01) (19, 4.61068576782201977604e-01) (20, 5.91074265651210684069e+00) (21, 1.22198765843090018102e+00) (22, 6.37573529167249901661e+01) (23, 1.11441526766493637091e+00) (0, 5.25981322468159206984e-01) (1, -2.65554282908282459630e+01) (2, -2.61818336370299924454e+01) (3, -2.13213836832674275001e+00) (4, -2.79653444740853407424e-01) (5, -2.45698829847599636844e-01) (6, 6.81112440880351166506e-01) (7, 9.52352167239461699921e-01) (8, 1.78869763566757722373e+00) (9, 1.38115066293305077672e+00) (10, 2.89980437311101502118e+00) (11, 1.12830228155181222505e+00) (12, 5.99485628226017364106e-01) (13, 1.06552014969501573916e+00) (14, -2.80300246500893290857e+00) (15, -3.01374282886814937044e+00) (16, 1.64746088796181133773e+00) (17, 1.62351241608845286990e+00) (18, 9.52866980033718280474e-01) (19, 4.01744148667745770709e-01) (20, 7.88043160799223052493e+00) (21, 1.32171071361377734377e+00) (22, 6.09024532938019760309e+01) (23, 1.10319317839988495500e+00) (0, 5.64022057028299328429e-01) (1, -2.35274829853074720631e+01) (2, -2.63172512118166217476e+01) (3, -2.42358069328869607517e+00) (4, -1.96691338433526125007e-01) (5, -3.60627427120176868858e-01) (6, 6.73527350702426974571e-01) (7, 9.69635089148470297182e-01) (8, 1.77856603099341792351e+00) (9, 1.37994422008229356003e+00) (10, 2.88820685736531723720e+00) (11, 9.96577890419219070139e-01) (12, 6.03186214989590019364e-01) (13, 9.83694868567383862157e-01) (14, -2.77930627791609063948e+00) (15, -3.03432580234555482335e+00) (16, 1.57903860908684801068e+00) (17, 1.83022682229901678674e+00) (18, 9.95972853708286143259e-01) (19, 5.43977557537014155820e-01) (20, 5.91991114727958578356e+00) (21, 1.68611627591080859290e+00) (22, 6.37789684964493019947e+01) (23, 1.11262404378130752569e+00) (0, -1.87349104036413888208e-01) (1, -4.27974547435838132969e+01) (2, -3.08189598364160453059e+01) (3, -1.18197919612580704118e+00) (4, -6.27183149150590368848e-01) (5, -2.80753435754229674348e-01) (6, -7.00723909498737473900e-02) (7, -1.93230551630318853062e-01) (8, -6.92001570158396611676e-02) (9, 1.31758125118495983408e+00) (10, 1.38404865835036439137e+00) (11, 1.18433565545338370661e+00) (12, 1.27782945672591768949e-01) (13, -4.12719059990662093251e-02) (14, -3.86529991837872000104e+00) (15, -3.88762149748093444046e+00) (16, -4.20224210383345730957e-01) (17, -1.76264748800453757704e-01) (18, -1.77982780397104661807e-01) (19, 7.09827005485046385463e-03) (20, 4.14226741598977196701e-02) (21, 1.61004238711095537528e-01) (22, 1.66204340372310817031e+01) (23, 1.25401859886968591873e+00) (0, 1.18774730621154719912e-01) (1, -9.52809323847903222315e+00) (2, -4.30191431722899420009e+00) (3, -2.01045191120554272990e-01) (4, -7.25484723411432830265e-02) (5, -8.68588219141910866661e-02) (6, -8.97887459685104277751e-02) (7, -4.32715662450854562926e-02) (8, 4.68703091070405003515e-02) (9, 6.85007460342946239429e-02) (10, 2.66057550217445981655e-01) (11, -2.22524693899426619093e-04) (12, 1.50892155246596909590e-01) (13, -1.98488712911496001379e-01) (14, 7.14737007004680457989e-02) (15, 2.75099701211441161064e+00) (16, -7.73031776680368154508e-01) (17, -7.66318433303217250163e-01) (18, -2.94161521398580601272e-02) (19, -1.16317044816503609161e-01) (20, 1.17032817913695769141e-02) (21, 7.48242437164475804323e-02) (22, -2.15178897424532378224e+00) (23, -2.55907866243415271779e-02) (0, 1.63140666694773694978e+00) (1, -7.19782899423980904174e+00) (2, -8.04372656859717061195e+00) (3, -1.01560686164663449560e+00) (4, -6.60088440365312334457e-01) (5, 5.73248440833698247321e-02) (6, 3.07358709394787377178e-01) (7, 2.68320895935202197169e-01) (8, 5.48716578012335753911e-01) (9, 1.32043230862747718035e+00) (10, 3.61723747541260953753e+00) (11, 4.94497582711723560056e-01) (12, 6.57828070223767213953e-01) (13, -4.24246664315401145195e-01) (14, -3.06271474598722104332e+00) (15, -3.45432221345704792981e+00) (16, -1.43796669416895994686e+00) (17, -1.42199964651393240267e+00) (18, -3.07611413924198828784e-01) (19, -4.15812747082501210638e-01) (20, 4.73394818729463429108e-01) (21, 1.50485085333077761582e+00) (22, 1.59615165581540566109e+02) (23, 1.23293571873659568716e+00) (0, -3.43764493622936706529e-02) (1, 7.48081506540182417098e+00) (2, -1.46147338769738843745e+00) (3, -2.80419882513096907495e-01) (4, -3.40085579499743773102e-01) (5, -4.40952563102787298277e-01) (6, -1.51984527146707071310e-01) (7, -2.45268268591620403063e-01) (8, -1.23325001011546517282e-01) (9, 1.54488677597988788293e+00) (10, 3.43999648922590717248e+00) (11, 1.35236896151101348984e+00) (12, -1.98476272456294504376e-02) (13, -1.56805048812081182508e-01) (14, -5.81542062557516459265e+00) (15, -5.50926282971121850096e+00) (16, -4.87494999861207922720e-01) (17, -2.31126249879105322149e-01) (18, -9.18738661272825579696e-02) (19, -1.54251739158631828719e-01) (20, 1.05406446720179916565e-01) (21, 1.72369924329054929890e-01) (22, 5.91899569559801790319e+01) (23, 1.20205672418545206348e+00) (0, 1.18202640006940029593e+00) (1, -1.59545062125897252336e+00) (2, -7.85758819792826912476e+00) (3, -9.46455093219219056877e-01) (4, -5.68835372490005042323e-01) (5, 3.38064993897821131075e-02) (6, 2.13486692840859165754e-01) (7, 3.00845088991457343397e-01) (8, 5.41897568185883082847e-01) (9, 1.15775615540568055373e+00) (10, 3.69654753447799944155e+00) (11, 5.25545926652020822800e-01) (12, 4.48605406563048869639e-01) (13, -3.64856530696989367346e-01) (14, -3.07572759726761235655e+00) (15, -3.45011349634852759749e+00) (16, -1.52830849810926339138e+00) (17, -1.38241890143011625369e+00) (18, -4.51954630761600639755e-01) (19, -3.71305819978361539846e-01) (20, 3.87346910171291303193e-01) (21, 1.48516779757985073473e+00) (22, 6.42321079349899974886e+01) (23, 1.18440871609339049009e+00) (0, 1.23636405805747173758e+00) (1, -1.42666906506991097991e+00) (2, -7.86217811320384285523e+00) (3, -9.53260230019031262749e-01) (4, -5.52717161293923564536e-01) (5, 1.43839944450035256418e-01) (6, 2.23532720441624394025e-01) (7, 2.55334177074401813545e-01) (8, 4.26986064096050776939e-01) (9, 1.17257170197788895827e+00) (10, 3.69076494760568918352e+00) (11, 5.45741328857011098741e-01) (12, 4.87479493824166498772e-01) (13, -3.90656274528147051672e-01) (14, -3.17459467092274083555e+00) (15, -3.53870751576152198226e+00) (16, -1.43284670486537835110e+00) (17, -1.39282993297432478030e+00) (18, -3.63951208236486578596e-01) (19, -4.48943596622152274467e-01) (20, 4.09994227670213651216e-01) (21, 1.51900825269469219592e+00) (22, 6.43799430629993167940e+01) (23, 1.20086483394835030758e+00) (0, 5.83615928148246032592e-01) (1, -8.32509815747788906037e+00) (2, -7.96885333900924042183e+00) (3, -9.93535651207457459755e-01) (4, -9.67203164549593874533e-01) (5, -3.58351710084329477812e-02) (6, 2.15548932510298302256e-01) (7, 1.57089544841296863131e-01) (8, 1.89341983378838230045e-01) (9, 1.31552487258804973180e+00) (10, 3.46362061025316103624e+00) (11, 6.38181161605542501825e-01) (12, 3.47366328074347141541e-01) (13, -2.83370119301669054490e-01) (14, -2.32382375678621011517e+00) (15, -2.48095932100980842705e+00) (16, -1.99057137638012249248e+00) (17, -2.04801394964676619637e+00) (18, -7.59811343209483180949e-01) (19, -6.26023500494296114560e-01) (20, 1.17751084875648254213e-01) (21, 1.01243057452541962427e+00) (22, 7.64542167142035467009e+00) (23, 1.06500051679456375631e+00) (0, 4.41535699029662331849e-01) (1, -3.71199324582229124303e+01) (2, -1.24582884044576971405e+01) (3, -9.94637129108729700633e-01) (4, -3.39983939615250863042e-01) (5, 4.90095960871524266578e-02) (6, 3.79236440637638727580e-01) (7, 8.89262880681896128454e-02) (8, 5.45476422521938619781e-01) (9, 1.93571063544206523055e+00) (10, 4.42075790949682012609e+00) (11, 1.48703696129590490216e+00) (12, 9.03336321663500196877e-01) (13, -1.04731891080602612654e+00) (14, -2.06855414791602498781e+00) (15, -2.09797192782178409942e+00) (16, -1.18383081062194173150e+00) (17, -1.05581232463942109590e+00) (18, 6.98483679133996560040e-01) (19, -5.17849350312163836385e-01) (20, 7.58975755917459471434e-01) (21, 7.52093810697224363082e-01) (22, 5.19765064435152268629e+00) (23, 1.36117370267514470328e+00) (0, -1.20326653670068776936e-02) (1, -3.73001290391561468596e+01) (2, -2.79864609246871118842e+01) (3, -8.84880553343770692720e-01) (4, -4.32907647664371120211e-01) (5, -4.04347465134253236663e-01) (6, -2.89930328556297980946e-02) (7, -1.47531844855032512331e-01) (8, 1.58014963207867096401e-03) (9, 1.19674513600562848481e+00) (10, 2.11691461617909126858e+00) (11, 1.35674918221967710785e+00) (12, 1.49692052581172657666e-01) (13, 7.58111605313005997020e-03) (14, -3.74903095170772093780e+00) (15, -2.84577030423521737390e+00) (16, -4.00656383228367329874e-01) (17, -7.52822038437578333614e-02) (18, 9.91164774979678003808e-02) (19, -8.24439955854881501018e-02) (20, 1.69599375316956596516e-01) (21, 1.04228111578520007963e-01) (22, 6.17171492177359155562e+01) (23, 1.57388875524655968974e+00) (24, -2.39720141507572996886e+01) (25, -1.40856943031795026400e+02) (26, -9.27566827413580341499e+00) (27, -6.24122768657979443141e-01) (28, -5.88517337131844286979e-01) (29, -6.32322424072809807782e-01) (30, -3.58405378928752497814e+02) (31, 2.91753817735970457647e+01) (32, -1.03630338389890308548e+00) (33, -1.08828150923798467886e+01) (34, -9.43262788138026442297e-01) (35, -9.12719884240507428608e-01) (36, -1.00495076388323356653e+00) (37, -1.39684425285294078201e+00) (38, -1.95785662478630122507e+01) (39, 3.03976055757897967169e+00) 
