FANN_FLO_2.1
num_layers=3
learning_rate=0.700000
connection_rate=1.000000
network_type=0
learning_momentum=0.000000
training_algorithm=2
train_error_function=1
train_stop_function=0
cascade_output_change_fraction=0.010000
quickprop_decay=-0.000100
quickprop_mu=1.750000
rprop_increase_factor=1.200000
rprop_decrease_factor=0.500000
rprop_delta_min=0.000000
rprop_delta_max=50.000000
rprop_delta_zero=0.100000
cascade_output_stagnation_epochs=12
cascade_candidate_change_fraction=0.010000
cascade_candidate_stagnation_epochs=12
cascade_max_out_epochs=150
cascade_max_cand_epochs=150
cascade_num_candidate_groups=2
bit_fail_limit=3.49999999999999977796e-01
cascade_candidate_limit=1.00000000000000000000e+03
cascade_weight_multiplier=4.00000000000000022204e-01
cascade_activation_functions_count=10
cascade_activation_functions=3 5 7 8 10 11 14 15 16 17 
cascade_activation_steepnesses_count=4
cascade_activation_steepnesses=2.50000000000000000000e-01 5.00000000000000000000e-01 7.50000000000000000000e-01 1.00000000000000000000e+00 
layer_sizes=20 8 2 
scale_included=0
neurons (num_inputs, activation_function, activation_steepness)=(0, 0, 0.00000000000000000000e+00) (0, 0, 0.00000000000000000000e+00) (0, 0, 0.00000000000000000000e+00) (0, 0, 0.00000000000000000000e+00) (0, 0, 0.00000000000000000000e+00) (0, 0, 0.00000000000000000000e+00) (0, 0, 0.00000000000000000000e+00) (0, 0, 0.00000000000000000000e+00) (0, 0, 0.00000000000000000000e+00) (0, 0, 0.00000000000000000000e+00) (0, 0, 0.00000000000000000000e+00) (0, 0, 0.00000000000000000000e+00) (0, 0, 0.00000000000000000000e+00) (0, 0, 0.00000000000000000000e+00) (0, 0, 0.00000000000000000000e+00) (0, 0, 0.00000000000000000000e+00) (0, 0, 0.00000000000000000000e+00) (0, 0, 0.00000000000000000000e+00) (0, 0, 0.00000000000000000000e+00) (0, 0, 0.00000000000000000000e+00) (20, 4, 5.00000000000000000000e-01) (20, 4, 5.00000000000000000000e-01) (20, 4, 5.00000000000000000000e-01) (20, 4, 5.00000000000000000000e-01) (20, 4, 5.00000000000000000000e-01) (20, 4, 5.00000000000000000000e-01) (20, 4, 5.00000000000000000000e-01) (0, 0, 0.00000000000000000000e+00) (8, 6, 5.00000000000000000000e-01) (0, 6, 0.00000000000000000000e+00) 
connections (connected_to_neuron, weight)=(0, 9.46591514923016852379e-01) (1, 1.38365175420282326968e+00) (2, 1.89442758808198674636e+00) (3, 3.82447382971024918419e+00) (4, 2.35894158472468751242e+00) (5, 1.55921283806329591393e+00) (6, 2.03635628672975554920e+00) (7, -4.88169776957283474417e+00) (8, -3.20276215139260767018e+00) (9, 1.21838481933082487529e+00) (10, 2.07846593043716110216e+00) (11, 1.35064215381559860063e+00) (12, 3.86251621053988802856e+00) (13, 2.40544682942876164589e+00) (14, 1.09600820029942269684e+00) (15, 6.68717095027729246937e-01) (16, 3.36609397706651103377e-01) (17, -2.34854338133081341766e+01) (18, -2.36034297056957917960e+01) (19, -3.00087775792078459425e-01) (0, -1.18277156950583051120e-01) (1, -9.34606853782900692806e+00) (2, -2.75436512112739695368e+00) (3, -2.30625799989687629843e-01) (4, -5.97850939324714794609e-02) (5, 3.62946317585627009628e-01) (6, -6.34953624624335910553e-02) (7, 2.23791791830561914711e-01) (8, 1.99368445411982952997e+00) (9, 2.26845745726434622203e-01) (10, -3.34618300742950611215e-02) (11, -4.74743840773132960709e-02) (12, -2.33471283865902590193e+00) (13, -1.31786588234642421114e+00) (14, -6.24620535883833705171e-01) (15, -1.53820178083674069525e-01) (16, -6.33716215426835871583e-01) (17, 3.66756872360008367995e-01) (18, 1.11156784818025435868e+01) (19, 3.82427320933231396083e-01) (0, 3.75066554915767458311e-01) (1, 6.14938996960231776256e+00) (2, -4.10387412108751536977e+00) (3, -1.24590622156220950933e-01) (4, -9.95770142672912084159e-02) (5, 1.91222128960278769938e+00) (6, 3.81687397028658392806e-01) (7, 3.50076335818193917770e-01) (8, 3.27973404011992775153e+00) (9, 2.76998846965467115933e-01) (10, -6.04661658499877976980e-02) (11, -1.27163246686062936242e+00) (12, -6.30854247413123392363e+00) (13, -1.74959696634224304290e+00) (14, -6.49597295374084060526e-01) (15, -8.87979114763329246962e-03) (16, -5.94572027683206272286e-01) (17, 4.71248067935531711470e+00) (18, 1.25285359507841835836e+01) (19, 4.45400778685952236646e-01) (0, -1.51095922020364009652e-01) (1, -2.18703794593192526463e+01) (2, -1.89139168739626839510e+01) (3, -9.63635933406019190572e-02) (4, 3.16831404800476459926e-02) (5, 2.84564361055878789486e+00) (6, 2.28484611187942787680e+00) (7, 3.17852403628069879460e-01) (8, 2.46837782208591072219e+00) (9, 1.55686945021626832464e-01) (10, 1.21967942761463263301e-01) (11, 3.06198045866147650074e+00) (12, -1.23513482008012220881e+00) (13, -8.56664747308896856737e-01) (14, -5.52851690851638655211e-01) (15, -1.99311563325392793189e-02) (16, -4.91895418031566611372e-01) (17, 3.82127998835022186785e-01) (18, 2.54790196847097334398e+01) (19, 4.12295783828451001263e-01) (0, -1.76507561464600393197e-01) (1, -9.51549254274002009879e+00) (2, -2.89984830877765586976e+00) (3, -1.73637831162119699036e-01) (4, -8.53693297198631351197e-02) (5, 5.84545985546405022504e-01) (6, -3.52197012919510318851e-02) (7, 1.82339108322165877052e-01) (8, 1.90142655711164976218e+00) (9, 2.03101898809711661764e-01) (10, 7.88617318840563984172e-03) (11, -8.68118847190768039290e-01) (12, -2.36078759832117723860e+00) (13, -1.28140866662353380967e+00) (14, -5.44668017172240781498e-01) (15, 5.87679914887297150106e-03) (16, -4.65532132644726037718e-01) (17, 4.69568470192944342756e-01) (18, 1.20193608415851400650e+01) (19, 3.50776877229936390190e-01) (0, -5.58414341961304197537e-03) (1, -9.24653644770153881893e+00) (2, -2.76327587272222618964e+00) (3, -1.26242847691679621613e-01) (4, 1.02721898806636346979e-01) (5, 5.01140565362269363447e-01) (6, -9.14158886853105867587e-03) (7, 3.50157915387652729500e-01) (8, 2.00162497501364056163e+00) (9, 1.58129174998771437899e-01) (10, -6.44532217104558380338e-02) (11, -8.11975034355551850140e-01) (12, -2.31069381339285540022e+00) (13, -1.50278976709097622511e+00) (14, -7.49699252771465318723e-01) (15, -5.89669831844323658054e-02) (16, -6.05413182551457595970e-01) (17, 3.54009502838708411954e-01) (18, 1.11911037974508609238e+01) (19, 3.22032569940096491390e-01) (0, 2.03080097384466107258e+00) (1, 3.99687241189406172737e+00) (2, 8.88513506504018057974e-01) (3, 3.13320183777491134691e+00) (4, 2.97295968947770461455e+00) (5, -1.95344191596194360905e+00) (6, 1.09306704896648687608e+00) (7, -7.22247161713033714037e-01) (8, 1.48764354999353975995e-01) (9, 1.70960242873352297188e+00) (10, 1.76677249736221009258e+00) (11, 1.04474290495973853865e+00) (12, 1.58323181832971737748e+00) (13, 8.11867174366013633069e-01) (14, 4.38186612955879184472e-01) (15, 9.65279780863946383629e-03) (16, 1.18342809464332648917e-01) (17, -7.08188179994087008140e+00) (18, -1.23251864019092820968e+02) (19, 3.76185556248659139222e-02) (20, 4.12429448875780568784e+00) (21, -4.48474905115913280440e+00) (22, -2.27496986033530994575e+01) (23, -1.37685366461938922811e+01) (24, -4.37372770464158833192e+00) (25, -3.95360317776880831886e+00) (26, 1.05450442865473732468e+01) (27, 4.23833116267800735777e-01) 
