FANN_FLO_2.1
num_layers=3
learning_rate=0.700000
connection_rate=1.000000
network_type=0
learning_momentum=0.000000
training_algorithm=2
train_error_function=1
train_stop_function=0
cascade_output_change_fraction=0.010000
quickprop_decay=-0.000100
quickprop_mu=1.750000
rprop_increase_factor=1.200000
rprop_decrease_factor=0.500000
rprop_delta_min=0.000000
rprop_delta_max=50.000000
rprop_delta_zero=0.100000
cascade_output_stagnation_epochs=12
cascade_candidate_change_fraction=0.010000
cascade_candidate_stagnation_epochs=12
cascade_max_out_epochs=150
cascade_max_cand_epochs=150
cascade_num_candidate_groups=2
bit_fail_limit=3.49999999999999977796e-01
cascade_candidate_limit=1.00000000000000000000e+03
cascade_weight_multiplier=4.00000000000000022204e-01
cascade_activation_functions_count=10
cascade_activation_functions=3 5 7 8 10 11 14 15 16 17 
cascade_activation_steepnesses_count=4
cascade_activation_steepnesses=2.50000000000000000000e-01 5.00000000000000000000e-01 7.50000000000000000000e-01 1.00000000000000000000e+00 
layer_sizes=27 12 2 
scale_included=0
neurons (num_inputs, activation_function, activation_steepness)=(0, 0, 0.00000000000000000000e+00) (0, 0, 0.00000000000000000000e+00) (0, 0, 0.00000000000000000000e+00) (0, 0, 0.00000000000000000000e+00) (0, 0, 0.00000000000000000000e+00) (0, 0, 0.00000000000000000000e+00) (0, 0, 0.00000000000000000000e+00) (0, 0, 0.00000000000000000000e+00) (0, 0, 0.00000000000000000000e+00) (0, 0, 0.00000000000000000000e+00) (0, 0, 0.00000000000000000000e+00) (0, 0, 0.00000000000000000000e+00) (0, 0, 0.00000000000000000000e+00) (0, 0, 0.00000000000000000000e+00) (0, 0, 0.00000000000000000000e+00) (0, 0, 0.00000000000000000000e+00) (0, 0, 0.00000000000000000000e+00) (0, 0, 0.00000000000000000000e+00) (0, 0, 0.00000000000000000000e+00) (0, 0, 0.00000000000000000000e+00) (0, 0, 0.00000000000000000000e+00) (0, 0, 0.00000000000000000000e+00) (0, 0, 0.00000000000000000000e+00) (0, 0, 0.00000000000000000000e+00) (0, 0, 0.00000000000000000000e+00) (0, 0, 0.00000000000000000000e+00) (0, 0, 0.00000000000000000000e+00) (27, 4, 5.00000000000000000000e-01) (27, 4, 5.00000000000000000000e-01) (27, 4, 5.00000000000000000000e-01) (27, 4, 5.00000000000000000000e-01) (27, 4, 5.00000000000000000000e-01) (27, 4, 5.00000000000000000000e-01) (27, 4, 5.00000000000000000000e-01) (27, 4, 5.00000000000000000000e-01) (27, 4, 5.00000000000000000000e-01) (27, 4, 5.00000000000000000000e-01) (27, 4, 5.00000000000000000000e-01) (0, 0, 0.00000000000000000000e+00) (12, 6, 5.00000000000000000000e-01) (0, 6, 0.00000000000000000000e+00) 
connections (connected_to_neuron, weight)=(0, 6.49339936793379138180e+02) (1, 2.58740166179259233559e+02) (2, 9.79881940343270798621e+01) (3, 1.38538005475001091327e+03) (4, 1.01684361222445090789e+03) (5, 1.50000000000000000000e+03) (6, 1.50000000000000000000e+03) (7, 1.31948340357444706683e+01) (8, 2.79111806074453738802e+01) (9, 2.67740234470086804208e+01) (10, 1.04913892681752134450e+01) (11, 4.78001777802337457501e+00) (12, 1.50000000000000000000e+03) (13, 1.72948067173864465929e+01) (14, 7.35480049515324818543e+00) (15, 3.40727101119282167474e+01) (16, 1.50000000000000000000e+03) (17, 1.50000000000000000000e+03) (18, 1.37297478491736546857e+03) (19, 6.84113746544183953802e+00) (20, 1.34516292208403704933e+01) (21, 3.53050426124983474097e+01) (22, 1.93660061334334621108e+00) (23, 5.60879048420077297443e-01) (24, 1.50000000000000000000e+03) (25, 7.41128772273954794514e+00) (26, 7.80421498808061375740e+00) (0, 7.95816686634146094548e+02) (1, 2.58717280262638439581e+02) (2, 9.82424851758665482748e+01) (3, 1.50000000000000000000e+03) (4, 1.50000000000000000000e+03) (5, 1.50000000000000000000e+03) (6, 1.50000000000000000000e+03) (7, 2.91648471687330435032e+01) (8, 1.57857766134604872832e+02) (9, 1.51021926338298698056e+02) (10, 2.12847577924589828058e+01) (11, 3.19333510287211419509e+00) (12, 1.50000000000000000000e+03) (13, 3.91814493753639752072e+01) (14, 1.66056466186982021327e+01) (15, 3.40650989733158482409e+01) (16, 1.44685488337460856201e+03) (17, 1.50000000000000000000e+03) (18, 1.37308467953775380010e+03) (19, 6.99197894197133518190e+00) (20, 5.80828919424137080085e+00) (21, 3.55026849368361752113e+01) (22, 1.97993814271399681815e+00) (23, 8.09993793392904559703e-01) (24, 1.50000000000000000000e+03) (25, 4.01716966412998743863e+00) (26, 1.64428614879003447413e+01) (0, 1.46767570008686654148e+00) (1, -1.88393014993210483610e+00) (2, -6.55714270791865772026e+00) (3, -5.06058278645712000809e+00) (4, -6.97906767953878182098e-01) (5, -1.13751169138100527434e+00) (6, -3.80057488610337279589e-01) (7, 1.49078551785335411406e-01) (8, 6.35247468991436831098e-02) (9, -8.61600401989553593696e-02) (10, 5.60393646861836236539e-01) (11, 2.43844724254273836905e+00) (12, 5.59201169248571758330e-02) (13, 5.96400246684121171370e-01) (14, 3.60519134550655928617e-01) (15, -9.19361862503574545080e-01) (16, -1.68701752452845843422e+00) (17, -1.94555155295688275707e+00) (18, -1.19519990154253741288e+00) (19, -8.46771215526696874321e-01) (20, -9.56854430402716109316e-03) (21, -3.94560901882566983367e-01) (22, -4.00789155678521330506e-02) (23, 8.47807684808135730847e-01) (24, -6.77779989663020998591e-02) (25, 4.80795800263024801779e+01) (26, 1.06376340460662954790e+00) (0, 6.49069189977171618011e+02) (1, 2.58834787466931629751e+02) (2, 9.83228832063254429841e+01) (3, 1.38583493238712549100e+03) (4, 1.50000000000000000000e+03) (5, 1.50000000000000000000e+03) (6, 1.50000000000000000000e+03) (7, 1.29620102500922076416e+01) (8, 3.59027930612395607568e+02) (9, 1.51561552342729953580e+02) (10, 1.03598569117743952717e+01) (11, 3.07122034367574103797e+00) (12, 1.46444816038022463545e+03) (13, 1.71861708855043495703e+01) (14, 1.69203766060589586573e+01) (15, 1.45313740390552492698e+01) (16, 1.44679236588052526713e+03) (17, 1.50000000000000000000e+03) (18, 9.69877926476786569765e+02) (19, 6.90788517905102406047e+00) (20, 3.13153881433172021076e+00) (21, 3.56155784349508408582e+01) (22, 2.23135310350757132269e+00) (23, 1.14503020579552017288e+00) (24, 1.50000000000000000000e+03) (25, 3.83086804133240388381e+00) (26, 7.71039861432554385345e+00) (0, 6.48515137157910658061e+02) (1, 2.58619054463627151108e+02) (2, 9.79804954216198211725e+01) (3, 1.38565602199342447420e+03) (4, 1.50000000000000000000e+03) (5, 1.50000000000000000000e+03) (6, 1.50000000000000000000e+03) (7, 6.41736043036054226718e+00) (8, 1.58221671637647006037e+02) (9, 6.41678026836018773338e+01) (10, 9.78530965380567430145e+00) (11, 3.59594913367330049070e+00) (12, 1.46364655353375201230e+03) (13, 1.67164107537191419794e+01) (14, 7.51829269115843512594e+00) (15, 1.44269640783980133136e+01) (16, 1.44664284223072718305e+03) (17, 1.50000000000000000000e+03) (18, 9.69725912327806327085e+02) (19, 6.74216551569937294630e+00) (20, 5.68815881981495774511e+00) (21, 1.49235311454632011419e+01) (22, 1.03414952102314239291e+00) (23, 1.11432571176208194963e+00) (24, 1.50000000000000000000e+03) (25, 6.09116838469869925632e+00) (26, 7.19806481447764223702e+00) (0, 7.95823522988878607975e+02) (1, 2.58730284327198376104e+02) (2, 9.82470849408096711386e+01) (3, 1.38583593200184213856e+03) (4, 1.50000000000000000000e+03) (5, 1.50000000000000000000e+03) (6, 1.50000000000000000000e+03) (7, 2.92526992220772932285e+01) (8, 3.58463800713814066512e+02) (9, 3.42150070676164773431e+02) (10, 2.13515243450860694452e+01) (11, 4.86973354940046121442e+00) (12, 1.50000000000000000000e+03) (13, 3.91771421872703129452e+01) (14, 3.93258918910123469459e+01) (15, 3.40514944031356705523e+01) (16, 1.44685884843949179412e+03) (17, 1.50000000000000000000e+03) (18, 1.37309865709517453070e+03) (19, 7.08769738524484793629e+00) (20, 5.90343242289047953619e+00) (21, 3.56024188395209435498e+01) (22, 2.09085034518342505194e+00) (23, 6.81977835620172778697e-01) (24, 1.50000000000000000000e+03) (25, 7.29402848109898016560e+00) (26, 1.62906752990535110825e+01) (0, 6.49287446097068141171e+02) (1, 2.58701191491802148903e+02) (2, 9.81842714109311600623e+01) (3, 9.74915720667161394886e+02) (4, 1.50000000000000000000e+03) (5, 1.50000000000000000000e+03) (6, 1.50000000000000000000e+03) (7, 1.32365597234270992999e+01) (8, 3.59113521001279309530e+02) (9, 1.51820684486097832178e+02) (10, 1.04468408125494409688e+01) (11, 3.32286966778443249027e+00) (12, 1.46461592995038608933e+03) (13, 1.73517235279585939622e+01) (14, 1.69081058287944863139e+01) (15, 3.40998145790817659417e+01) (16, 1.44672771406901620139e+03) (17, 1.50000000000000000000e+03) (18, 1.37305883157176867826e+03) (19, 6.81173853455384303857e+00) (20, 3.03498357018227427062e+00) (21, 1.50766222089484607238e+01) (22, 1.19838908197067239847e+00) (23, 4.96410806192045861440e-01) (24, 1.50000000000000000000e+03) (25, 4.00977346532083789299e+00) (26, 7.75798939558660283211e+00) (0, 4.74423888077975508537e+00) (1, -5.58395580104226585405e+00) (2, -5.99599998880804818668e+00) (3, -1.85995729015655131278e+00) (4, -8.02384023428857617866e-01) (5, -2.80848902063682936969e+00) (6, -3.17033230715846214842e-01) (7, 1.43151733383840157332e-01) (8, -3.88679620050221608096e-01) (9, -2.50732980857443776834e-01) (10, 5.05644481374150855935e-01) (11, 2.41664537208565199933e+00) (12, -6.55653705876465126012e-02) (13, 4.93585624729187599780e-01) (14, 1.41124659980354470734e-02) (15, -1.01474138650062251088e+00) (16, -1.95751027242533726103e+00) (17, -3.54758091155531962713e+00) (18, -1.32483515525682782332e+00) (19, -7.71490692236588726516e-01) (20, -5.11142437608836652796e-02) (21, 1.46081645795020104855e-02) (22, 1.54599444005225378218e-01) (23, 3.22338240008489673727e+00) (24, -1.62539431159431424501e-01) (25, 1.05812480588394407732e+02) (26, 9.35032636857611398895e-01) (0, 4.16245893719925419418e+01) (1, -2.56798196782472931687e+00) (2, -2.25253463158611344497e+00) (3, -1.76177619762860704355e+00) (4, -5.29074692550974390315e-01) (5, -9.47091240032075565303e-01) (6, -1.48223166341248824285e-01) (7, 2.18642048003697020420e+00) (8, -2.88059040394035514865e-01) (9, -8.05584064831402074658e-02) (10, 6.55161831139782990796e-01) (11, 2.31501885250275440953e+00) (12, 1.25902083400809855496e-01) (13, 2.15133239631289718830e+00) (14, 2.62541190655295908485e+00) (15, 1.32618260879751304060e+00) (16, -2.01018766089581291112e+00) (17, -1.21282321835559425693e+01) (18, -1.41919298011035643903e+00) (19, -8.88631504508716751900e-01) (20, -2.05321285018689236868e-01) (21, 6.31140805132006876832e-01) (22, 3.93732598679232478900e-02) (23, 1.90015543809037379397e+00) (24, -3.64537477904474521706e-02) (25, 8.93134847102137428010e+01) (26, 7.52845973734472928562e-01) (0, 5.75167738334849421022e+00) (1, -5.47713880054666333308e+01) (2, -6.74583654929176379511e+00) (3, -8.27983509999370426158e+00) (4, -8.70476942345673632140e-01) (5, -8.66588027700851859514e-01) (6, -1.32850041989767575501e-01) (7, 2.16801771514852609224e-01) (8, 2.30090161200775167316e+00) (9, -7.10368655544782595657e-02) (10, 6.78513667634994321887e-01) (11, 2.45686664290201228766e+00) (12, -1.55771449813562907344e-02) (13, 1.02754979176496896720e+00) (14, 9.63813087865972084600e-01) (15, -3.21233030969687582967e-02) (16, -1.37667970368076852949e+00) (17, -1.34317079459921817630e+00) (18, -1.13969329455617329749e+00) (19, 7.00650934933327640408e-01) (20, -3.27682513477073944497e-01) (21, -1.84990166874032413435e-01) (22, -2.07523617175201235963e-01) (23, 3.81680028952511407603e-01) (24, 3.20773451329959768952e-01) (25, 4.69769103730725401391e+00) (26, 7.44522621875443935124e-01) (0, 7.95964834738694548832e+02) (1, 2.58787260161270012304e+02) (2, 9.82199029876179139364e+01) (3, 1.38577205678112613896e+03) (4, 1.50000000000000000000e+03) (5, 1.50000000000000000000e+03) (6, 1.50000000000000000000e+03) (7, 2.91388013024224470371e+01) (8, 3.58600406214988993270e+02) (9, 1.51106284918709178555e+02) (10, 2.14722875351767257257e+01) (11, 4.78262627099384118878e+00) (12, 1.50000000000000000000e+03) (13, 3.91083576150862342047e+01) (14, 3.93264829008676173316e+01) (15, 1.43706466903247420674e+01) (16, 1.44679916388723950149e+03) (17, 1.50000000000000000000e+03) (18, 1.37308273424331400747e+03) (19, 6.82217565508953605047e+00) (20, 5.84793241099935290350e+00) (21, 3.55522141974039200818e+01) (22, 2.10060872076850380097e+00) (23, 7.53492501700647632212e-01) (24, 1.50000000000000000000e+03) (25, 7.29262508973774359333e+00) (26, 1.64260610992065316793e+01) (27, 1.06137870925381005982e+00) (28, 1.08375672179176607557e+00) (29, -1.08850783606422627514e+01) (30, 1.10928832667782040211e+00) (31, 1.04046758937551775404e+00) (32, 1.08542170676305071986e+00) (33, 1.05199342894270220228e+00) (34, -1.08669358415169092780e+01) (35, -1.23392675444382327044e+01) (36, -2.09791127416347791268e+01) (37, 1.09690775650455729640e+00) (38, 2.44722145488460096630e+00) 
