FANN_FLO_2.1
num_layers=3
learning_rate=0.700000
connection_rate=1.000000
network_type=0
learning_momentum=0.000000
training_algorithm=2
train_error_function=1
train_stop_function=0
cascade_output_change_fraction=0.010000
quickprop_decay=-0.000100
quickprop_mu=1.750000
rprop_increase_factor=1.200000
rprop_decrease_factor=0.500000
rprop_delta_min=0.000000
rprop_delta_max=50.000000
rprop_delta_zero=0.100000
cascade_output_stagnation_epochs=12
cascade_candidate_change_fraction=0.010000
cascade_candidate_stagnation_epochs=12
cascade_max_out_epochs=150
cascade_max_cand_epochs=150
cascade_num_candidate_groups=2
bit_fail_limit=3.49999999999999977796e-01
cascade_candidate_limit=1.00000000000000000000e+03
cascade_weight_multiplier=4.00000000000000022204e-01
cascade_activation_functions_count=10
cascade_activation_functions=3 5 7 8 10 11 14 15 16 17 
cascade_activation_steepnesses_count=4
cascade_activation_steepnesses=2.50000000000000000000e-01 5.00000000000000000000e-01 7.50000000000000000000e-01 1.00000000000000000000e+00 
layer_sizes=14 19 2 
scale_included=0
neurons (num_inputs, activation_function, activation_steepness)=(0, 0, 0.00000000000000000000e+00) (0, 0, 0.00000000000000000000e+00) (0, 0, 0.00000000000000000000e+00) (0, 0, 0.00000000000000000000e+00) (0, 0, 0.00000000000000000000e+00) (0, 0, 0.00000000000000000000e+00) (0, 0, 0.00000000000000000000e+00) (0, 0, 0.00000000000000000000e+00) (0, 0, 0.00000000000000000000e+00) (0, 0, 0.00000000000000000000e+00) (0, 0, 0.00000000000000000000e+00) (0, 0, 0.00000000000000000000e+00) (0, 0, 0.00000000000000000000e+00) (0, 0, 0.00000000000000000000e+00) (14, 4, 5.00000000000000000000e-01) (14, 4, 5.00000000000000000000e-01) (14, 4, 5.00000000000000000000e-01) (14, 4, 5.00000000000000000000e-01) (14, 4, 5.00000000000000000000e-01) (14, 4, 5.00000000000000000000e-01) (14, 4, 5.00000000000000000000e-01) (14, 4, 5.00000000000000000000e-01) (14, 4, 5.00000000000000000000e-01) (14, 4, 5.00000000000000000000e-01) (14, 4, 5.00000000000000000000e-01) (14, 4, 5.00000000000000000000e-01) (14, 4, 5.00000000000000000000e-01) (14, 4, 5.00000000000000000000e-01) (14, 4, 5.00000000000000000000e-01) (14, 4, 5.00000000000000000000e-01) (14, 4, 5.00000000000000000000e-01) (14, 4, 5.00000000000000000000e-01) (0, 0, 0.00000000000000000000e+00) (19, 6, 5.00000000000000000000e-01) (0, 6, 0.00000000000000000000e+00) 
connections (connected_to_neuron, weight)=(0, 2.91143390774693644474e+00) (1, 8.97903458566729852919e+01) (2, 8.13142700213339935544e+02) (3, 8.13117968537551916164e-01) (4, 8.72533878455331812773e-01) (5, 1.66594558892412947237e+00) (6, 6.09040028406126587868e-01) (7, 1.65709474487586394531e+00) (8, 1.50000000000000000000e+03) (9, 4.21426221442802007022e-01) (10, 1.63994625591143550203e+00) (11, 7.36399164500198488703e-01) (12, 1.58006247088915063870e+00) (13, 1.33576889576631274714e+00) (0, -2.67571371560548509905e+00) (1, -2.79887770783990452728e+00) (2, -3.51015738596275994610e-01) (3, 3.29144895714803265019e-02) (4, -1.46145019019821603701e-01) (5, 1.99769707604117274791e+00) (6, 5.01050385183542168477e-01) (7, -2.21103032778297681205e-01) (8, -6.96537463267807144263e+00) (9, -5.65597964812929232536e-01) (10, 1.16645470309939783271e-01) (11, 9.90359885302338760482e-01) (12, 6.60784183739059187701e+01) (13, 1.07114000294877520503e+00) (0, 7.87019388346726600503e+00) (1, 3.67657885707082385807e+01) (2, 2.77525518200541254643e+00) (3, -1.37740345271619961665e+01) (4, 2.85364862564837418191e+00) (5, -2.84763405513339140640e+00) (6, -1.82075192871992058707e-01) (7, -2.73218077907443968044e+00) (8, -7.89991846971109246134e-01) (9, -5.66484644552867511180e-01) (10, -3.79537445306658938193e+00) (11, -6.33502757838203423013e-01) (12, 9.26544182288001894054e-02) (13, 5.22333199547616700009e-01) (0, 5.66432026498311280704e+00) (1, 5.32599086623485504788e+01) (2, 2.64346949425712418602e+00) (3, 1.56212310050135860795e-01) (4, -1.71528493638517853803e+00) (5, -3.34127216658746428735e+00) (6, 4.11155775425430969339e-01) (7, -1.68802622308873973012e+00) (8, -3.14706936200439546525e+00) (9, -8.44263414536968515023e-01) (10, -7.91836873098419768979e-01) (11, 4.34421425306935782285e-01) (12, 9.80837361239738081409e-02) (13, 4.62286063663125912360e-01) (0, 4.29273872864266170524e+00) (1, -1.55786771626802456048e+00) (2, -1.02070602963932666185e+00) (3, 4.74362148258428373282e+00) (4, -1.63388049829599119045e-01) (5, 6.98881706533188040709e+00) (6, 6.01214773098984345268e+00) (7, -7.83702790661292780783e-01) (8, -1.09736475619426858685e+01) (9, -1.79649094233815187494e+00) (10, -4.58917789419246546778e-01) (11, 2.30726950627720139853e-01) (12, 1.15360992828217590045e+01) (13, -1.00532274976523894328e-01) (0, 3.62881806343033774809e+00) (1, 5.30107523600159282751e+01) (2, 2.69691293722582026149e+00) (3, -2.79025034155678364201e+00) (4, -3.54168368813974288045e-01) (5, -2.55194780736692372614e+00) (6, 2.98991007960075272365e-01) (7, -1.68656115115000448945e+00) (8, -2.49800279309564654540e+00) (9, -9.21790278830955100986e-01) (10, -2.90690162933767082265e+00) (11, 1.97776398171166406526e-01) (12, -1.36336061057592716761e-01) (13, 1.85944700027942777520e-01) (0, -6.08490705964970768349e+00) (1, -3.11044262712484265165e+00) (2, -3.80517845932425324840e-01) (3, 1.65368061542151639776e-01) (4, -1.61303567669111691529e-01) (5, 1.81144879434413086372e+00) (6, 1.68671654447639846053e-01) (7, -3.79810354171044806115e-01) (8, -5.99438097271730363502e+00) (9, -2.32787558914373832186e-01) (10, -2.58987525277049879247e-02) (11, 1.45387344088898196048e+00) (12, 7.17924399874978576008e+01) (13, 9.88889802286461172542e-01) (0, -9.13378073889175112754e+00) (1, -7.85940611966788171827e+00) (2, -4.99133060265306405245e-01) (3, 1.73374151260978423550e-02) (4, -1.80988672991133831003e-01) (5, 4.29532165663435439029e+00) (6, 1.15165262390920997149e+00) (7, -5.47435180434972079588e-01) (8, -5.10311913555862783909e+00) (9, -1.46440488829419801498e+00) (10, -1.25850234615306727504e-01) (11, 3.62580087115464189118e-01) (12, 4.50911531410463055636e+01) (13, 1.44766647536394299500e+00) (0, -6.20284929601359369400e+00) (1, -3.01615475517464926014e+00) (2, -3.79238941006175889203e-01) (3, 2.65310097515224163622e-01) (4, -1.07951542067686812043e-01) (5, 1.78185353004107183139e+00) (6, 2.72303050513975242186e-01) (7, -3.60586261806733587854e-01) (8, -6.12515788096596658363e+00) (9, -2.30468461395452933749e-01) (10, -7.56444612316997666568e-02) (11, 1.46419462102572284223e+00) (12, 7.02159085556984194909e+01) (13, 1.02138342339737819842e+00) (0, 3.72965714041477669483e+00) (1, -1.54321773545717810805e+00) (2, -9.93498398046497310787e-01) (3, 4.53456269618336360594e+00) (4, -3.10788749176740930480e-01) (5, 7.04621289996130517608e+00) (6, 2.42974142668978737580e-01) (7, -6.17185556716226213503e-01) (8, -1.06069841097779757888e+01) (9, -1.87082482031494401475e+00) (10, -3.42589869723692597159e-01) (11, -2.31879211977848970205e-01) (12, 9.23634660225795123267e+00) (13, -5.77953810455289623826e-02) (0, 5.34411564126738127811e+01) (1, 3.52311479105591640604e+00) (2, -1.02515127692763541312e+00) (3, 2.10913302795242874055e+00) (4, -5.12555711046769224559e-01) (5, 1.22868707289887635348e+00) (6, -7.90839080032726821079e-02) (7, -9.72733658850859606027e-01) (8, -1.14404242667874939343e+02) (9, -2.19685780895561633130e+00) (10, -5.32110105232330599101e-01) (11, -6.74485260973827327469e-01) (12, 7.31160276028324496167e+00) (13, 6.50212535238403332993e-02) (0, 1.13367229777401643531e+01) (1, 3.83591001577111114784e+01) (2, 3.79604743199089300631e+00) (3, -8.49112902127759916482e+00) (4, -1.92483312528354377768e+00) (5, -5.07730501081498264426e+00) (6, -4.25412660114970697656e-01) (7, -3.06461890603170861169e+00) (8, 4.86782677357306792221e-01) (9, -1.25868654510983252193e-01) (10, -1.66377290297355706628e-01) (11, 3.03515510970535883073e-02) (12, 6.73218136076458417705e-01) (13, 7.30804003241023902859e-01) (0, -6.88813166762496731366e+00) (1, -3.03432843471649116296e+00) (2, -7.25550384106161239117e-01) (3, -9.52881766636337751430e-02) (4, -1.48886196980756418951e-01) (5, 4.21456729903350169053e+00) (6, 3.63881424222808169677e-01) (7, -2.68646627012398775403e-01) (8, -7.49275099461920746080e+00) (9, -2.54189338412901866260e-01) (10, -9.28995370394341130060e-02) (11, 8.34748454837950903951e-01) (12, 5.10034720718670371298e+01) (13, 9.37378697531093596496e-01) (0, -6.02411924314804014813e+00) (1, -3.04048464391736006363e+00) (2, -2.47925683531628693324e-01) (3, 3.26493047927805868369e-01) (4, -2.28398360743123585159e-01) (5, 1.72074722619296505144e+00) (6, 4.35541754963046034987e-01) (7, -3.57487752253388635371e-01) (8, -7.12564069613154948968e+00) (9, -5.58493525560795456286e-01) (10, -5.68051267699776554765e-02) (11, 2.03075102749082647691e+00) (12, 8.16356496206572046503e+01) (13, 9.86603902980276115109e-01) (0, 2.17381729499648415072e+01) (1, 1.82994904593610852039e+00) (2, -1.12573176663392038321e+00) (3, 2.64873979841016238268e+00) (4, -3.61727470915106819049e-01) (5, 9.91583946711582675526e-01) (6, 7.16344166388970804427e-02) (7, 1.79300230265055024481e-02) (8, -9.93903691927013532847e+00) (9, -2.06043083734771270699e+00) (10, -2.14920219348505914247e-01) (11, -4.35268421456395604441e-01) (12, 8.40759867833865826015e+00) (13, 7.34817575882452389546e-02) (0, 5.63952393774526150594e+00) (1, 5.22567209357362258970e+01) (2, 2.20016866237440567033e+00) (3, -3.20135517190890661610e+00) (4, -6.40624749087886247167e-01) (5, -2.71005665517711014090e+00) (6, 2.25694571964969947775e-01) (7, -1.60406854117247377189e+00) (8, -3.62633347829645158455e+00) (9, -4.76358733884758078769e-01) (10, -7.98683996536783702425e+00) (11, 3.95180662588058229101e-01) (12, 3.72882031565530291939e-01) (13, 3.28845025434874982384e-01) (0, -2.64132155989860262224e+00) (1, -2.62245966416686604461e+00) (2, -3.59158563173117562073e-01) (3, -6.29642458551542133494e-02) (4, -1.91351872800432670774e-01) (5, 1.90161707926552825398e+00) (6, 6.65398369080274720844e-01) (7, -2.08954878572624264121e-01) (8, -6.96907194604639190771e+00) (9, -7.48333237402088791157e-01) (10, 1.74724940993874311435e-01) (11, 9.40012750831398902207e-01) (12, 6.87774718214635925051e+01) (13, 1.11351003556272076800e+00) (0, 1.21248993516601366593e+01) (1, 3.84594406219800291069e+01) (2, 4.23773927665518090890e+00) (3, -9.60808206562373889881e+00) (4, -1.70960648047192820265e+00) (5, -5.17119679636628504227e+00) (6, -3.03342334140970781853e-01) (7, -3.13690700308124714724e+00) (8, 8.35777704867438075986e-02) (9, -2.68248777346605737915e-01) (10, 2.48320472138780168336e-01) (11, 2.71806943578150772556e-01) (12, 8.05649607291446190338e-01) (13, 6.56698864401691784209e-01) (14, 1.22099325410265246994e+00) (15, -6.06458664333335839558e+00) (16, 1.39918547674805182623e+00) (17, 1.68293873464742471668e+00) (18, -1.44985293321283581491e+00) (19, 1.30271239850196152155e+00) (20, -2.33598152106006518025e+00) (21, -5.10584919317697405461e+00) (22, -2.31672779028613939900e+00) (23, -1.45592909982222473708e+00) (24, -1.79833240573430998666e+02) (25, 2.57456939083049274331e+00) (26, -5.10347036367063289219e+00) (27, -3.26025183669302531797e+00) (28, -3.49677374199973600710e+00) (29, 1.74474610632339288685e+00) (30, -6.20306128655448674181e+00) (31, 2.59473362725684575381e+00) (32, 3.96829516935343684647e-01) 
