FANN_FLO_2.1
num_layers=3
learning_rate=0.700000
connection_rate=1.000000
network_type=0
learning_momentum=0.000000
training_algorithm=2
train_error_function=1
train_stop_function=0
cascade_output_change_fraction=0.010000
quickprop_decay=-0.000100
quickprop_mu=1.750000
rprop_increase_factor=1.200000
rprop_decrease_factor=0.500000
rprop_delta_min=0.000000
rprop_delta_max=50.000000
rprop_delta_zero=0.100000
cascade_output_stagnation_epochs=12
cascade_candidate_change_fraction=0.010000
cascade_candidate_stagnation_epochs=12
cascade_max_out_epochs=150
cascade_max_cand_epochs=150
cascade_num_candidate_groups=2
bit_fail_limit=3.49999999999999977796e-01
cascade_candidate_limit=1.00000000000000000000e+03
cascade_weight_multiplier=4.00000000000000022204e-01
cascade_activation_functions_count=10
cascade_activation_functions=3 5 7 8 10 11 14 15 16 17 
cascade_activation_steepnesses_count=4
cascade_activation_steepnesses=2.50000000000000000000e-01 5.00000000000000000000e-01 7.50000000000000000000e-01 1.00000000000000000000e+00 
layer_sizes=4 6 2 
scale_included=0
neurons (num_inputs, activation_function, activation_steepness)=(0, 0, 0.00000000000000000000e+00) (0, 0, 0.00000000000000000000e+00) (0, 0, 0.00000000000000000000e+00) (0, 0, 0.00000000000000000000e+00) (4, 4, 5.00000000000000000000e-01) (4, 4, 5.00000000000000000000e-01) (4, 4, 5.00000000000000000000e-01) (4, 4, 5.00000000000000000000e-01) (4, 4, 5.00000000000000000000e-01) (0, 0, 0.00000000000000000000e+00) (6, 6, 5.00000000000000000000e-01) (0, 6, 0.00000000000000000000e+00) 
connections (connected_to_neuron, weight)=(0, 1.61683658379276784522e+00) (1, -1.14723553492472465365e+01) (2, -3.90578851964938209562e+01) (3, 5.09575206506143274510e+00) (0, -4.65390869061984417954e+01) (1, 1.13107022709118454351e+00) (2, 5.23463024906179271056e+02) (3, 2.49798632525022457074e+00) (0, 1.02604369305700036108e+01) (1, -1.01304022218581284420e+01) (2, -1.85638590110911195552e+02) (3, 2.05053967566386985411e+00) (0, -2.60268883005526330265e+00) (1, -1.14564410276048977977e+01) (2, -8.37752105764378818265e+00) (3, 2.58544707808565998874e+00) (0, 1.01752860496769415022e+02) (1, -3.94365826384383098002e+01) (2, 1.43842572393118587115e+02) (3, 5.62949428514165362003e+00) (4, -1.69308113020914312585e+01) (5, -1.90545871760519389682e+01) (6, -3.35870152733203397588e+01) (7, 3.28306479534379036522e+01) (8, -7.87315454059557762179e+00) (9, 2.40439470235987649005e+01) 
