FANN_FLO_2.1
num_layers=3
learning_rate=0.700000
connection_rate=1.000000
network_type=0
learning_momentum=0.000000
training_algorithm=2
train_error_function=1
train_stop_function=0
cascade_output_change_fraction=0.010000
quickprop_decay=-0.000100
quickprop_mu=1.750000
rprop_increase_factor=1.200000
rprop_decrease_factor=0.500000
rprop_delta_min=0.000000
rprop_delta_max=50.000000
rprop_delta_zero=0.100000
cascade_output_stagnation_epochs=12
cascade_candidate_change_fraction=0.010000
cascade_candidate_stagnation_epochs=12
cascade_max_out_epochs=150
cascade_max_cand_epochs=150
cascade_num_candidate_groups=2
bit_fail_limit=3.49999999999999977796e-01
cascade_candidate_limit=1.00000000000000000000e+03
cascade_weight_multiplier=4.00000000000000022204e-01
cascade_activation_functions_count=10
cascade_activation_functions=3 5 7 8 10 11 14 15 16 17 
cascade_activation_steepnesses_count=4
cascade_activation_steepnesses=2.50000000000000000000e-01 5.00000000000000000000e-01 7.50000000000000000000e-01 1.00000000000000000000e+00 
layer_sizes=40 17 2 
scale_included=0
neurons (num_inputs, activation_function, activation_steepness)=(0, 0, 0.00000000000000000000e+00) (0, 0, 0.00000000000000000000e+00) (0, 0, 0.00000000000000000000e+00) (0, 0, 0.00000000000000000000e+00) (0, 0, 0.00000000000000000000e+00) (0, 0, 0.00000000000000000000e+00) (0, 0, 0.00000000000000000000e+00) (0, 0, 0.00000000000000000000e+00) (0, 0, 0.00000000000000000000e+00) (0, 0, 0.00000000000000000000e+00) (0, 0, 0.00000000000000000000e+00) (0, 0, 0.00000000000000000000e+00) (0, 0, 0.00000000000000000000e+00) (0, 0, 0.00000000000000000000e+00) (0, 0, 0.00000000000000000000e+00) (0, 0, 0.00000000000000000000e+00) (0, 0, 0.00000000000000000000e+00) (0, 0, 0.00000000000000000000e+00) (0, 0, 0.00000000000000000000e+00) (0, 0, 0.00000000000000000000e+00) (0, 0, 0.00000000000000000000e+00) (0, 0, 0.00000000000000000000e+00) (0, 0, 0.00000000000000000000e+00) (0, 0, 0.00000000000000000000e+00) (0, 0, 0.00000000000000000000e+00) (0, 0, 0.00000000000000000000e+00) (0, 0, 0.00000000000000000000e+00) (0, 0, 0.00000000000000000000e+00) (0, 0, 0.00000000000000000000e+00) (0, 0, 0.00000000000000000000e+00) (0, 0, 0.00000000000000000000e+00) (0, 0, 0.00000000000000000000e+00) (0, 0, 0.00000000000000000000e+00) (0, 0, 0.00000000000000000000e+00) (0, 0, 0.00000000000000000000e+00) (0, 0, 0.00000000000000000000e+00) (0, 0, 0.00000000000000000000e+00) (0, 0, 0.00000000000000000000e+00) (0, 0, 0.00000000000000000000e+00) (0, 0, 0.00000000000000000000e+00) (40, 4, 5.00000000000000000000e-01) (40, 4, 5.00000000000000000000e-01) (40, 4, 5.00000000000000000000e-01) (40, 4, 5.00000000000000000000e-01) (40, 4, 5.00000000000000000000e-01) (40, 4, 5.00000000000000000000e-01) (40, 4, 5.00000000000000000000e-01) (40, 4, 5.00000000000000000000e-01) (40, 4, 5.00000000000000000000e-01) (40, 4, 5.00000000000000000000e-01) (40, 4, 5.00000000000000000000e-01) (40, 4, 5.00000000000000000000e-01) (40, 4, 5.00000000000000000000e-01) (40, 4, 5.00000000000000000000e-01) (40, 4, 5.00000000000000000000e-01) (40, 4, 5.00000000000000000000e-01) (0, 0, 0.00000000000000000000e+00) (17, 6, 5.00000000000000000000e-01) (0, 6, 0.00000000000000000000e+00) 
connections (connected_to_neuron, weight)=(0, 1.83870026928521612675e-01) (1, 1.92929303296443324656e-02) (2, -6.97051835126489827132e+00) (3, -1.58517392353776322977e+01) (4, -1.54236408584232744801e+01) (5, -6.41046030170990910335e+00) (6, -2.64547856955499494092e+00) (7, -5.87557015973938501219e-01) (8, -7.07177624577113306259e-01) (9, -5.19123071117099876837e-01) (10, 5.03015264512477119907e-02) (11, 3.89797003000247957449e-02) (12, -2.04064173710699764408e-01) (13, -2.27554371596617649454e-01) (14, -6.54186323776328459978e-02) (15, 2.64625199706242549003e-02) (16, 8.32154993296740697062e-01) (17, 2.18647472175832469077e-01) (18, 6.14851777894986795125e-01) (19, 5.32934263528551777078e-01) (20, 1.59300082985530805368e-01) (21, -4.07351177543305367768e-02) (22, -9.59566740461533507212e-02) (23, 1.51044876543883405118e-01) (24, -2.11050236345431674323e+00) (25, -6.71083479191611065318e+00) (26, -7.59645337817569554772e+00) (27, -1.63825791830812428351e+00) (28, -1.07848839021047915310e+00) (29, -1.01030476615153763653e+00) (30, -4.80800529697180845101e-01) (31, -3.38124254046906880244e-01) (32, -3.21199859409234733665e-01) (33, -5.02716865145646951696e-01) (34, -4.14316186138459219279e-01) (35, -2.43616352933954394278e-01) (36, -1.93892289008755741575e-01) (37, -2.40408974864730839993e-01) (38, 1.86897021305223454135e-01) (39, 3.31636477693650677523e-01) (0, 6.60544726611066335131e-01) (1, 2.03239758174186047057e-01) (2, -5.62618694067584090845e+00) (3, -4.92149145965165057959e+00) (4, -5.73323338004971816417e+00) (5, -4.64924843434471224413e+00) (6, -3.37998848800719509100e-01) (7, -3.23037321839555746639e-01) (8, -5.69431070204280298519e-01) (9, -3.93252198834981164799e-02) (10, 1.94245335192668400204e-01) (11, 3.84677280882510075344e-01) (12, 4.02352750846459383816e-01) (13, 1.96152701071478335892e-01) (14, 6.37553929602447166936e-01) (15, 7.49387838168455111543e-01) (16, 1.30016355290031060399e+00) (17, 2.86766201746079918422e+00) (18, 2.37634715625487169532e+00) (19, 1.43174934047361901435e+00) (20, 6.91992400039689981028e-01) (21, 8.98118245818919525014e-01) (22, 4.71774497994777997079e-01) (23, -8.21538327720507943752e-01) (24, -2.57043206784236355489e+00) (25, -5.67109732007585609637e+00) (26, -3.48088146951229759907e+00) (27, -2.75322761726258624648e+00) (28, 1.27416755998284697560e-01) (29, 1.00311820376910346142e-01) (30, 6.77484619356145789659e-01) (31, 8.85158647275915755337e-01) (32, 1.15281832337849099446e+00) (33, 9.71896333164388281922e-01) (34, 1.39824448375884125007e+00) (35, 1.15309616873846043639e+00) (36, 5.77421832460124240249e-01) (37, 6.82973345312439250598e-01) (38, 2.63527352519093547301e+01) (39, 1.28633722924054505476e+00) (0, -1.46114282684448645172e-02) (1, 4.22930270559321586088e-02) (2, 5.28644267391731106920e-02) (3, 6.73931959513155209862e-01) (4, -1.37570996691295932557e+00) (5, -3.49298625484747993220e-01) (6, -5.14521207969658500581e-01) (7, -2.25363258104351205091e-01) (8, -2.34913499728954283663e-01) (9, -2.27964850900742754813e-01) (10, 9.50841772648749854191e-03) (11, 5.86062507522193323201e-03) (12, -7.57372032968896269356e-03) (13, -2.36342636017908863666e-01) (14, 9.16166434533769447057e-02) (15, 2.88508205824424338037e-02) (16, 6.46501756200558719279e-01) (17, 5.41115190191867512226e+00) (18, 2.89280781114390306286e+00) (19, 5.86074468392914327275e-01) (20, 1.54232559533612478830e-02) (21, -3.02014094319624157303e-02) (22, -2.57543476547562488754e-01) (23, -8.17164374787001435152e+00) (24, -1.63563512909154233910e+01) (25, -4.44574955641938984741e+00) (26, 1.31537394505568787650e+01) (27, -7.10948120512707859575e+00) (28, -3.39287139533570458738e+00) (29, -3.49842083304297135626e+00) (30, -3.44708888082873032843e+00) (31, -6.25746327959974535382e-02) (32, -8.69189227177759149434e-01) (33, -8.27140423235929400647e-01) (34, -1.87877654360351997731e+00) (35, -6.61711206758267000971e-02) (36, -1.31247410695733174313e-01) (37, 3.12212675311963561153e-01) (38, 3.52058455518390933658e-01) (39, 7.91745848481040237488e-01) (0, 5.81148464109032092395e-01) (1, 2.75813300011606199469e-01) (2, -1.85709673196771447579e+01) (3, -1.45434275952434166612e+01) (4, -2.99473797109249524340e+01) (5, -8.29981178076165271307e+00) (6, -2.98225057169249563316e+00) (7, 1.33741052203500826456e-01) (8, 1.34656233336117564514e-01) (9, 2.52458109380081396900e-01) (10, 4.24527286026746553116e-01) (11, 3.71828629836377044793e-01) (12, 3.90790245696839233513e-01) (13, 4.57495374024556311632e-01) (14, 3.05213966098573818986e-01) (15, 6.32366724023187609660e-01) (16, 1.85433477313463379588e+00) (17, 8.28603285485289831058e+00) (18, 1.03307516549926470262e+00) (19, 7.63505560260575810716e-01) (20, 6.71640085030785316533e-01) (21, 2.54916245345004344180e-01) (22, 4.49596198502906108097e-01) (23, -7.71803396889135906456e-01) (24, -8.68503953465387446009e-01) (25, -1.07526295315048758816e+00) (26, -1.05020904209898335857e+00) (27, -9.90649230453411355768e-01) (28, -5.45773550451368549830e-01) (29, -6.59150661604708032471e-01) (30, -2.24973197489711174146e-01) (31, -1.92180044167936547872e-01) (32, -2.86787008312312907687e-01) (33, -2.27530310277956615561e-01) (34, -1.92367323276536356103e-01) (35, 3.35771658536837713793e-01) (36, 7.63344204651462465705e-01) (37, 9.88120911397318391067e-01) (38, 1.21848543096383892248e+01) (39, 9.64838539552230534113e-01) (0, 9.90495266202399138322e-02) (1, -5.91000412054877317242e-03) (2, -3.71872557040804574413e+00) (3, -1.93769764208423360685e+01) (4, -1.93614911319291955749e+01) (5, -8.41027119662923006160e+00) (6, -3.34383832035972972108e+00) (7, -7.10409567814980436040e-01) (8, -1.48067737694458745334e-01) (9, -9.36926565744161665705e-02) (10, 1.10557036889442437261e-02) (11, -1.67392673601630570523e-01) (12, 1.28749981272488333434e-02) (13, -5.97606595680561722417e-02) (14, 1.11269734771466025092e-01) (15, 7.66616405784308618809e-02) (16, 3.07565268443335981807e-01) (17, 3.94592764702996401383e+00) (18, 1.48418877312220076625e+00) (19, 4.37162806388329272522e-01) (20, 1.28111993176758365287e-01) (21, -2.28772918892711889238e-02) (22, -2.04396360048468228587e-01) (23, -2.87035467737982319392e+00) (24, -3.02224609499853213990e+00) (25, -1.94099308601162134913e+00) (26, -4.91093666523840344240e+00) (27, -1.72790812047231701065e+00) (28, -6.77091585472447077265e-01) (29, -7.53021720477203948541e-01) (30, -8.00998944469551776848e-01) (31, -3.68029813626636670421e-01) (32, -3.17668906613449431031e-01) (33, -4.41781354888842292539e-01) (34, -7.13994550551153239759e-01) (35, -1.25803385342878354392e-01) (36, 4.21370516780516721211e-02) (37, -3.55582050308055550025e-02) (38, -2.81098175615099976632e-01) (39, 1.76501607730866816315e-01) (0, 4.87809378615678468361e-01) (1, 1.21869580744691959062e-02) (2, -5.92023846248318807994e+00) (3, -4.86789192409959703411e+00) (4, -7.35989329105887613025e+00) (5, -4.75095024686858558027e+00) (6, -4.34373496494078970009e-01) (7, -2.92798859783688747438e-01) (8, -4.81607507880232932340e-01) (9, -4.69117659302555112255e-01) (10, 2.73216716442695739531e-01) (11, 3.81835705962778826361e-01) (12, 5.04055946496129170242e-01) (13, 3.41813328482464817704e-01) (14, 3.30090227051667128855e-01) (15, 5.52857408410073136729e-01) (16, 1.95458963243530781106e+00) (17, 4.73261689920228079131e+00) (18, 2.49378243988845804679e+00) (19, 6.31311216425236798599e-01) (20, 5.31863653860211726965e-01) (21, 5.69191579138163650242e-01) (22, 4.50461396542657543929e-01) (23, -6.90492424387864844881e-01) (24, -3.97758675590547206014e+00) (25, -5.72284277716705869210e+00) (26, -5.55431581816646424699e+00) (27, -1.10385047365584409995e+00) (28, -1.19076795164938312177e-01) (29, -6.96511012090926945328e-02) (30, 5.62372199404661876621e-01) (31, 1.40331688753104377732e+00) (32, 1.44738522912681344401e+00) (33, 1.68390845359644214518e+00) (34, 3.99843425024404952595e+00) (35, 2.10516122397951344070e+00) (36, 1.07428809633105304400e+00) (37, 1.18933249582393196775e+00) (38, 2.56148512481775760818e+01) (39, 8.15440898135211367226e-01) (0, 3.74658728012498387638e-01) (1, 2.38982852012426555399e-01) (2, -1.38038350932555786699e+01) (3, -3.46262239857517215569e+01) (4, -3.56532829202574248484e+01) (5, -3.47745351014518533361e+01) (6, -1.40535955806643002575e+01) (7, 4.23339741535972147179e-02) (8, 2.22122205384206877765e-01) (9, 2.57709057971445221202e-01) (10, 4.21063623413459375833e-01) (11, 3.33329675191788410427e-01) (12, 1.89452564351527963371e-01) (13, 3.43709338971472211366e-01) (14, 3.88844223656090670627e-01) (15, 3.69032111613682434204e-01) (16, 6.76568152486410556712e-01) (17, 1.97726028573459644555e+00) (18, 2.12382212601723185941e+00) (19, 1.57834094183268724976e+00) (20, 2.57656548198848589504e-01) (21, 3.93962203410214317767e-01) (22, 3.23430802647667547944e-01) (23, -1.04475637664665388371e+00) (24, -3.57830684772535745353e+00) (25, -1.01721179121374794008e+00) (26, -8.57944961723086652050e-01) (27, -1.42132817711359882296e+00) (28, -7.67324924781619621683e-01) (29, -7.69651319481620799223e-01) (30, -3.09435675664474496571e-01) (31, -4.10213833355839926909e-02) (32, -1.92507636640237622672e-01) (33, -2.12865798444695497604e-01) (34, -2.22608858341795279312e-01) (35, -9.31849526618801909938e-02) (36, 2.62050809481219060260e-01) (37, -2.00250452511307498737e-02) (38, -8.09731786384092977471e+00) (39, 2.22663852744943491224e-01) (0, 1.45252010242941737017e-01) (1, -6.94854538661290599411e-02) (2, -1.63257020363149720765e+01) (3, -1.65723409110973456393e+01) (4, -1.82106598202589218261e+01) (5, -6.47867251718368741820e+00) (6, -2.69205143877134167596e+00) (7, -6.21248179007027778731e-01) (8, -8.83060530098905061003e-01) (9, -8.11599650056061938663e-01) (10, -1.24465530911589850049e-01) (11, -1.62904561355783294996e-01) (12, -1.55416458467539375654e-01) (13, -2.79937296833376481064e-01) (14, -9.74503362364969281939e-03) (15, 3.45222347302729937191e-02) (16, 8.12491268312195646928e-01) (17, 2.39280540175296013716e-01) (18, 6.39601359305092875829e-01) (19, 2.31543552014389836247e-01) (20, 1.97978193061610102665e-01) (21, -2.75182604823341571063e-03) (22, -1.21851864567919312976e-01) (23, 1.03611293663989967317e-01) (24, -1.98872898147189514084e+00) (25, -1.46882438316831134273e+01) (26, -8.46513304456685311550e+00) (27, -1.57812558637069266787e+00) (28, -7.71959734966506050391e-01) (29, -1.16639247925771716297e+00) (30, -4.34182702983281598730e-01) (31, -3.10183651758756617767e-01) (32, -3.81614258692200003509e-01) (33, -4.49058712562583839389e-01) (34, -4.39807934615639384290e-01) (35, -2.09543838590219355655e-01) (36, -4.61304875426316818299e-01) (37, -1.13839246024383178302e+00) (38, 3.37163813892989105980e-01) (39, 3.94742401690711675055e-01) (0, 1.85960379874435463576e-02) (1, 2.43620916529554920604e-01) (2, 1.87219585372209085250e+00) (3, 2.90940463173994467994e+00) (4, 1.91007674527332554915e-01) (5, 3.26559008612155921014e-01) (6, 1.23453451301616848323e-01) (7, -2.27337627309320361446e-01) (8, -2.69978427288261768613e-01) (9, -2.27637999651161854198e-01) (10, -1.38909249972175602439e-01) (11, -6.73869484365955395688e-02) (12, -6.18948245656844794893e-02) (13, -4.28962566388095198344e-02) (14, -1.52238238582182050518e-01) (15, 1.54593321724539878304e-01) (16, 1.93128647391061392113e+00) (17, 6.88762228662271436264e+00) (18, 6.76497318080050291655e+00) (19, 1.77211832437094685133e+00) (20, 4.83806017858712245072e-02) (21, -2.87336912448915918206e-02) (22, -1.76082515527726801707e-01) (23, -2.03569281174328153838e+01) (24, -3.26493687244166537198e+01) (25, -2.14484768044395446296e+00) (26, 3.56864748385793433272e+01) (27, -1.32061218808529030611e+01) (28, -2.79743013984938082572e+00) (29, -5.88041141457784100055e+00) (30, -1.42498573758221858121e+00) (31, 4.38093122960145298084e-01) (32, -5.98422464397916575862e-01) (33, -5.78478183363173914522e-01) (34, -7.78252072055176991050e-01) (35, -1.60693220206818448981e-01) (36, -1.21953406074623571520e+00) (37, -7.60628580627282224746e-01) (38, 6.40606790717452190265e-01) (39, 1.29841464397696748634e+00) (0, 6.06986860236225833631e-01) (1, 4.30347397625173266889e-01) (2, -5.05257405438540363463e+00) (3, -4.47724192486926586554e+00) (4, -5.66525422009575496674e+00) (5, -4.69510330674748832536e+00) (6, -1.90809221356582137119e+00) (7, -3.83388545703190419811e-01) (8, -1.32544675693447050469e-01) (9, 2.11704584718736071869e-01) (10, 4.10081358281902119689e-01) (11, 4.10823202766828876609e-01) (12, 3.30916925408296924704e-01) (13, 2.79853279674343924377e-01) (14, 3.40526858579439040131e-01) (15, 7.10014742489088024335e-01) (16, 1.05587469669816025331e+00) (17, 5.31058615796593969094e+00) (18, 1.12298865165325101323e+00) (19, 6.53711420091751427286e-01) (20, 7.53990477811106396544e-01) (21, 5.43341841228714428347e-01) (22, 4.90043768822239822480e-01) (23, -9.40327798271791470697e-01) (24, -2.36860982999042812835e+00) (25, -3.72975866785248966195e+00) (26, -3.81406017288290977163e+00) (27, -1.18067456986608099179e+00) (28, -3.38947750364456179550e-01) (29, -3.34189959204616637845e-01) (30, 1.37704291323184901952e-01) (31, 1.05022918010938867694e-01) (32, 1.35254938427844972892e-01) (33, 2.64879490136143092016e-01) (34, 2.77331632580343045991e-01) (35, 7.42894044914713780337e-01) (36, 8.97944235169199189706e-01) (37, 2.85110272989698376733e+00) (38, 1.42746610540992069360e+01) (39, 1.45081637964246379369e+00) (0, 6.01513567129053350335e-01) (1, 2.51169589823862504652e-01) (2, -2.08177108054156505546e+01) (3, -1.86079020892008308863e+01) (4, -2.15614225269852433087e+01) (5, -2.08230302598333949504e+01) (6, -3.24952948328864099636e+00) (7, -1.15623845653176557380e-01) (8, 2.27656623789623258070e-01) (9, 2.48899236385077965439e-01) (10, 3.38365885823369683116e-01) (11, 3.33705106896751813039e-01) (12, 3.11119411888202967997e-01) (13, 3.13898848834206434244e-01) (14, 4.75764109975862159452e-01) (15, 6.32917942945596778692e-01) (16, 1.20780003602799590467e+00) (17, 6.68151148841023090341e+00) (18, 2.17336877975968389975e+00) (19, 7.16975713811276116338e-01) (20, 6.65251677416714537472e-01) (21, 3.75697532363068353867e-01) (22, 3.27642173977480744007e-01) (23, -5.49118707097706049147e-01) (24, -9.74345822963548657825e-01) (25, -9.82882951392854975481e-01) (26, -1.08730239887448498770e+00) (27, -6.68741431873498881622e-01) (28, -1.21807130139501382238e-01) (29, -1.50652484678369419369e-01) (30, -3.78711873114391320283e-02) (31, 6.23710054159901730597e-02) (32, -7.10893844973296967771e-02) (33, -1.49738151669664032450e-01) (34, -1.57688500347519189315e-01) (35, 4.34697291628455106949e-01) (36, 9.72540609172230174906e-01) (37, 1.07003450141054257116e+00) (38, 1.56801273189915733042e+01) (39, 1.11726463316493140887e+00) (0, 6.77604705502249937688e-02) (1, 7.99481220057687957947e-01) (2, 2.71299760525998827632e+01) (3, 3.53203495939864637876e+01) (4, 1.40537253362721958894e+01) (5, 2.35756602802350156978e+00) (6, 1.18974905653253526516e+00) (7, 6.02092487189501479605e-01) (8, -4.32546306368899527439e-02) (9, 1.92010470724122722652e-01) (10, 1.08050487484469860677e-02) (11, 1.79696346785643751298e-01) (12, -1.11075207203117587440e-01) (13, -1.65526315612109314879e-01) (14, -9.21198933051716739584e-02) (15, 2.07364505636633000840e-01) (16, 3.79426776683835020876e+00) (17, 3.25328730610794369937e+00) (18, 2.89299978631455800837e+00) (19, 1.01741200075032067751e+00) (20, 1.96400030431776978501e-01) (21, 7.76429930268288936990e-02) (22, -1.62918742220044598934e-01) (23, -5.31009743169099746041e+00) (24, -2.23799256826388273112e+01) (25, -4.34758993918503264808e+01) (26, -4.17881570300786933103e+01) (27, -1.47299449084469404880e+01) (28, -9.63269044474168012471e+00) (29, -1.34157092096616921140e+01) (30, -5.80459344744595018284e+00) (31, -3.27008178949083849751e-01) (32, -5.66805706180881219147e-01) (33, -7.86559403884505625726e-01) (34, -5.48178502227555042303e-01) (35, -9.75724254472624535905e-02) (36, -2.08821682552108062181e-01) (37, -8.52520580882459438898e-02) (38, -3.23052675620089380093e-01) (39, 2.78708325031866355204e+00) (0, 4.90042824703653456808e-01) (1, 6.46301701755751079048e-01) (2, -1.99468880240801282877e-01) (3, 3.67925128712436144696e+00) (4, -5.62430224561377700709e-01) (5, 7.53986875122475280753e-02) (6, 1.49274207312592055441e-01) (7, 1.37689880256950808457e-01) (8, -3.88306620074782671281e-01) (9, -2.23170019094136390381e-01) (10, 3.23864913885564986717e-01) (11, 3.92952852830037169252e-01) (12, 2.84602177371483910928e-01) (13, 1.87611345414928132325e-01) (14, 4.74327702712695586929e-01) (15, 6.78803877129210975205e-01) (16, 1.28904063199496210501e+00) (17, 1.50395490107234985899e+00) (18, 1.08492555409315039050e+00) (19, 9.20004640795873185333e-01) (20, 7.91936420538309926442e-01) (21, 7.77567752339724416188e-01) (22, 6.35975965044360047607e-01) (23, -4.69163238385260972230e-01) (24, -2.32325360883875076112e+00) (25, -6.65569921561334076898e+00) (26, -6.56533925617504543482e+00) (27, -1.59724910422631616314e+00) (28, -1.82924904775725760686e-01) (29, -9.52949956068199904857e-02) (30, -8.75266147694738622098e-03) (31, 4.10820258760111411966e-01) (32, -1.19113487492607819651e-01) (33, -3.30019033296875680117e-02) (34, 1.16012719028943209199e-01) (35, 6.94857785163823904462e-01) (36, 6.86706000443250030862e-01) (37, 7.05919296916276306497e-01) (38, -8.96648481442097633476e+00) (39, 1.41498821617435988074e+00) (0, 5.62450149803984805752e-02) (1, -9.57556556205250430924e-02) (2, -3.06918527841568966608e+00) (3, -4.04994106129319586529e+00) (4, -1.66524211661840944032e+01) (5, -7.09232016657133179649e+00) (6, -1.38425969980992102926e+00) (7, -4.24782377226867013942e-01) (8, -1.69804492615919178089e-01) (9, -1.80621712608256768107e-01) (10, 5.39685610871571685987e-02) (11, -1.57228021391223049541e-02) (12, -5.21860929257494873812e-02) (13, -1.30236983648161996907e-01) (14, -8.71706446380125371531e-02) (15, 7.51549458270908965485e-02) (16, 1.31538207260297079770e+00) (17, 5.06318324764453731035e+00) (18, 6.66332891010648875607e+00) (19, 3.44273113871802216579e+00) (20, 2.47637503959598770376e-02) (21, -1.72424721399282131207e-02) (22, -1.54289073050915437335e-01) (23, -1.19705159224175816668e+00) (24, -6.52406230271561771161e+00) (25, 2.19668109536817590666e+00) (26, 2.33743037477782289457e+00) (27, -1.67648830835291962060e+00) (28, -1.33836013009749654756e+00) (29, -1.59632121968321349925e+00) (30, -1.43022392886929128331e+00) (31, -3.67236680692349382049e-01) (32, -8.90316326925755019417e-01) (33, -5.59764993868677507294e-01) (34, -4.81878674222537384253e-01) (35, -5.47862902942481064250e-02) (36, 7.96559205297173583693e-02) (37, -1.86492582391425076871e-01) (38, -1.08311997971242093830e-01) (39, 2.01584775060062365570e-01) (0, 6.95103017322629579411e-01) (1, 2.42778055277258986155e-01) (2, -9.92851680350500132022e+00) (3, -8.27391763708399885502e+00) (4, -1.04388276056898519073e+01) (5, -1.76533042945210971730e+00) (6, -4.54379040458510075062e-01) (7, -1.36430989744416975018e-01) (8, -3.78217884738185324348e-03) (9, -8.26500295619576330619e-02) (10, 2.58321322375399675675e-01) (11, 2.39285775577103010381e-01) (12, 3.44393214082794052455e-01) (13, 1.94198653400467158292e-01) (14, 3.47566825643130294932e-01) (15, 9.61928439350127506557e-01) (16, 3.38004329940034731194e+00) (17, 1.49561291928695827558e+00) (18, 1.20581037800221091416e+00) (19, 7.36003553370198404515e-01) (20, 1.63582859815750825128e+00) (21, 4.21696730419653720290e-01) (22, 2.86634095551757173137e-01) (23, -5.77547293661077487670e-01) (24, -2.19479519054130856048e+00) (25, -3.92181634760091712977e+00) (26, -3.78215359209039325705e+00) (27, -6.13090782606695472445e-01) (28, -4.70234673863704155661e-01) (29, -3.38591073101813855306e-01) (30, -2.42200546015385292931e-01) (31, 2.18365775076381857245e-01) (32, -2.72594218379700159449e-01) (33, 7.41230506887294721130e-02) (34, -2.05136099611968936163e-01) (35, 1.09829456839435524174e+00) (36, 2.09715468553416872766e+00) (37, 3.41254035904344865671e+00) (38, 2.44529675513105315687e+00) (39, 1.73808381357296015679e+00) (0, 6.13632435563644773602e-01) (1, 2.38086148105170591904e-01) (2, -1.88006977296386708076e+01) (3, -1.72581451442273703378e+01) (4, -2.58988210417666770979e+01) (5, -2.13824622145679370533e+01) (6, -3.39279672979181290415e+00) (7, -1.17572913232581982568e-01) (8, 1.58187391701638979669e-01) (9, 3.04171979447250384609e-01) (10, 3.77376775651574791759e-01) (11, 3.17926319641321619702e-01) (12, 4.22757409045322829488e-01) (13, 2.99327278911058813904e-01) (14, 3.80666435812217263113e-01) (15, 6.99788701035381155435e-01) (16, 1.17030803458151666518e+00) (17, 8.09302300007146868666e+00) (18, 2.15231694535667061885e+00) (19, 6.66234504266879912215e-01) (20, 5.73103462375899486148e-01) (21, 2.65959954558050326590e-01) (22, 3.61451666994772768948e-01) (23, -5.60964628542503507269e-01) (24, -9.12223336431814413316e-01) (25, -1.05352701621856348346e+00) (26, -9.32656790055074957912e-01) (27, -1.04050804351390735469e+00) (28, -1.52557367355035555789e-01) (29, -2.15040743874221451648e-01) (30, -2.13608056008322208519e-02) (31, 2.26442145128026767198e-01) (32, -1.41963594686586536131e-01) (33, -6.48326480436721697131e-02) (34, -1.28001212362559846358e-01) (35, 3.40092982231333218479e-01) (36, 9.79312349441986640386e-01) (37, 9.52896641601239213770e-01) (38, 1.95296509984691013528e+01) (39, 1.07213228535550597620e+00) (40, -1.69351796041869874898e+02) (41, -2.66698197617727394970e+00) (42, -1.83859229488671260810e+01) (43, -4.25052744840419727268e+00) (44, 4.48325868130748176554e+02) (45, -2.69935750025735288204e+00) (46, -2.68837536619440413688e+02) (47, -6.93576099385259112751e+01) (48, 1.20243747469548232232e+01) (49, -2.49524300805751675369e+00) (50, -4.29832156953677735345e+00) (51, -1.34845989939645960476e+01) (52, -3.32809192955842263473e+01) (53, 1.74044129727473317892e+00) (54, -2.50439551684625971717e+00) (55, -4.38940106828958942486e+00) (56, 5.32007097950611917980e+00) 
