FANN_FLO_2.1
num_layers=3
learning_rate=0.700000
connection_rate=1.000000
network_type=0
learning_momentum=0.000000
training_algorithm=2
train_error_function=1
train_stop_function=0
cascade_output_change_fraction=0.010000
quickprop_decay=-0.000100
quickprop_mu=1.750000
rprop_increase_factor=1.200000
rprop_decrease_factor=0.500000
rprop_delta_min=0.000000
rprop_delta_max=50.000000
rprop_delta_zero=0.100000
cascade_output_stagnation_epochs=12
cascade_candidate_change_fraction=0.010000
cascade_candidate_stagnation_epochs=12
cascade_max_out_epochs=150
cascade_max_cand_epochs=150
cascade_num_candidate_groups=2
bit_fail_limit=3.49999999999999977796e-01
cascade_candidate_limit=1.00000000000000000000e+03
cascade_weight_multiplier=4.00000000000000022204e-01
cascade_activation_functions_count=10
cascade_activation_functions=3 5 7 8 10 11 14 15 16 17 
cascade_activation_steepnesses_count=4
cascade_activation_steepnesses=2.50000000000000000000e-01 5.00000000000000000000e-01 7.50000000000000000000e-01 1.00000000000000000000e+00 
layer_sizes=10 15 2 
scale_included=0
neurons (num_inputs, activation_function, activation_steepness)=(0, 0, 0.00000000000000000000e+00) (0, 0, 0.00000000000000000000e+00) (0, 0, 0.00000000000000000000e+00) (0, 0, 0.00000000000000000000e+00) (0, 0, 0.00000000000000000000e+00) (0, 0, 0.00000000000000000000e+00) (0, 0, 0.00000000000000000000e+00) (0, 0, 0.00000000000000000000e+00) (0, 0, 0.00000000000000000000e+00) (0, 0, 0.00000000000000000000e+00) (10, 4, 5.00000000000000000000e-01) (10, 4, 5.00000000000000000000e-01) (10, 4, 5.00000000000000000000e-01) (10, 4, 5.00000000000000000000e-01) (10, 4, 5.00000000000000000000e-01) (10, 4, 5.00000000000000000000e-01) (10, 4, 5.00000000000000000000e-01) (10, 4, 5.00000000000000000000e-01) (10, 4, 5.00000000000000000000e-01) (10, 4, 5.00000000000000000000e-01) (10, 4, 5.00000000000000000000e-01) (10, 4, 5.00000000000000000000e-01) (10, 4, 5.00000000000000000000e-01) (10, 4, 5.00000000000000000000e-01) (0, 0, 0.00000000000000000000e+00) (15, 6, 5.00000000000000000000e-01) (0, 6, 0.00000000000000000000e+00) 
connections (connected_to_neuron, weight)=(0, 1.20754281401037957822e-01) (1, -1.17884626813265960821e-01) (2, 2.45485814800315893525e-01) (3, 6.00583052052762500495e+00) (4, 6.08307371440497401949e-01) (5, -1.08304473992760730283e+01) (6, -2.89419197995919619260e+00) (7, 1.78860615938341749320e+00) (8, 3.75324673973303646335e+01) (9, 1.74859358131677544712e+00) (0, -7.16112481862680425593e+01) (1, -1.42737228474248856180e-01) (2, 2.25262357783021149871e+00) (3, 1.75845130685687744965e+00) (4, 3.73595249591591738181e+00) (5, -5.18137907181090451303e+00) (6, 1.35193971316813477124e+00) (7, 2.22619897863587334896e+00) (8, 3.53524397612260870005e+01) (9, 9.33175418298856862442e-01) (0, -5.09474050341563042821e+01) (1, -7.95649372891805928276e-01) (2, 2.28353371839632002249e+00) (3, 9.45062308349155943965e-01) (4, 4.10008263537322736880e+00) (5, -5.23107734120426748348e+00) (6, 2.44065418807972944748e-01) (7, 2.33033256257597898298e+00) (8, 8.07046891232027405749e+01) (9, 9.65006265713402311412e-01) (0, -5.08339337496475991429e+01) (1, -8.79680403427503865288e-01) (2, 2.15652921419252363577e+00) (3, 8.82412763550151413305e-01) (4, 3.97628777423536039493e+00) (5, -5.21420774083552096556e+00) (6, 1.48561799223545676352e-01) (7, 2.28126927490059827619e+00) (8, 8.08004200090660447131e+01) (9, 1.05157120145721094673e+00) (0, -1.13774910297432363393e+00) (1, -1.43303510090206720484e+00) (2, 1.88759740851814150631e+00) (3, 1.37883653210422485458e+00) (4, 2.93882809579708537129e+00) (5, -1.61076401912996907129e+01) (6, 3.44289850423316834416e-01) (7, 4.43506967242060490264e+00) (8, 1.24501261318965703140e+02) (9, 9.54976338163641136347e-01) (0, 3.92844471079710627626e-02) (1, -9.63639600351782338317e-02) (2, 2.01549465348774076157e-01) (3, 6.34111784829879532310e+00) (4, 7.34490499106985605948e-01) (5, -1.09724549588139606016e+01) (6, -2.99134620238799486813e+00) (7, 6.75564576955873352659e-01) (8, 5.20905201536748023727e+01) (9, 1.77559276169135649148e+00) (0, 1.52347693097541148077e-01) (1, -1.14639347620341405798e-01) (2, 2.07720803608947929275e-01) (3, 6.16970721049811832160e+00) (4, 4.62179601434346165600e-01) (5, -1.08900784861620021360e+01) (6, -2.89629290212649737057e+00) (7, 1.78675900788187913548e+00) (8, 3.74051493056398243198e+01) (9, 1.76213432609826958775e+00) (0, -5.91005202410359018472e+01) (1, -7.05765324276824812522e-01) (2, 2.58108649188946204234e+00) (3, 1.04054364109746400047e+00) (4, 3.91351069952642749428e+00) (5, -5.23688862338849947520e+00) (6, 1.60972537222902944976e+00) (7, 2.44709791755941763469e+00) (8, 1.13084250411968085359e+02) (9, 1.10646456333853682175e+00) (0, -3.00471271199970058063e+00) (1, -2.55122500781640537681e+00) (2, 1.35818562287418231893e-01) (3, 1.46665463485529645737e+00) (4, 3.31120388930144615713e+00) (5, -1.46805070857258002093e+01) (6, -7.40944269160937585283e-01) (7, 1.22383904962274314698e+01) (8, 5.36253030327564133017e+01) (9, 8.42933735762080527110e-01) (0, -1.81014087030322512462e+00) (1, -5.97773366398028693780e-01) (2, 1.07628773845966238532e-01) (3, 1.65232609187254153582e+00) (4, 2.91250546015561528890e+00) (5, -1.18405994011254804832e+01) (6, -5.82466912956743576579e-01) (7, 5.79508953141831550937e+00) (8, 4.59467783204705426670e+01) (9, 8.51340585469514632422e-01) (0, -1.73564986601797133225e+00) (1, -6.29613586491755583552e-01) (2, 1.98701735534007745132e-01) (3, 1.50606459939567005613e+00) (4, 3.19381438482813395652e+00) (5, -1.18832737339826124412e+01) (6, -5.87049869390039780193e-01) (7, 5.45399106318710114039e+00) (8, 4.59453623537759554551e+01) (9, 8.37545209645540023047e-01) (0, -1.32707351224191261174e+00) (1, -3.73475172610379324567e-01) (2, 1.95581035172976175351e-01) (3, 3.50063531276518080659e+00) (4, 3.63827037720024781819e+00) (5, -7.98757483764636422308e+00) (6, -4.52687144034483601729e+00) (7, -2.77817520817233809538e+00) (8, 1.35190384092838975505e+01) (9, 1.84459959665999884137e+00) (0, -6.93641878488760283972e+01) (1, -5.93121683684206590925e-01) (2, 2.38722191401403138755e+00) (3, 1.65433709949669904837e+00) (4, 3.80730038074973009543e+00) (5, -5.15963011723924402929e+00) (6, 1.45480796774541887295e+00) (7, 2.19732597987173994269e+00) (8, 3.53262462020563177134e+01) (9, 9.26987597010843544787e-01) (0, -1.76340015956790052698e+00) (1, -6.40905880159548857478e-01) (2, 9.06675867217138914400e-02) (3, 1.51685657327064715716e+00) (4, 3.23371694524101771506e+00) (5, -1.19069127423854368431e+01) (6, -4.73905441852121245283e-01) (7, 5.55418103465599166668e+00) (8, 4.58838750143389475511e+01) (9, 8.87580090283662359596e-01) (10, -3.16143727999416235264e+00) (11, -2.22022564424617430134e+00) (12, -5.16782605983137788286e+00) (13, -5.22108562699247524819e+00) (14, -1.25180995413638584957e+00) (15, -3.15830719422784689243e+00) (16, -3.13157261859861257847e+00) (17, -5.73466663475392035565e+00) (18, -5.24904545161009927767e+00) (19, -2.56295078048410562843e+00) (20, -2.59478495443167833656e+00) (21, -4.63938584524138430965e+00) (22, -2.22098690661362763166e+00) (23, -2.61289020055833010048e+00) (24, 1.15134026957886277387e+01) 
