FANN_FLO_2.1
num_layers=3
learning_rate=0.700000
connection_rate=1.000000
network_type=0
learning_momentum=0.000000
training_algorithm=2
train_error_function=1
train_stop_function=0
cascade_output_change_fraction=0.010000
quickprop_decay=-0.000100
quickprop_mu=1.750000
rprop_increase_factor=1.200000
rprop_decrease_factor=0.500000
rprop_delta_min=0.000000
rprop_delta_max=50.000000
rprop_delta_zero=0.100000
cascade_output_stagnation_epochs=12
cascade_candidate_change_fraction=0.010000
cascade_candidate_stagnation_epochs=12
cascade_max_out_epochs=150
cascade_max_cand_epochs=150
cascade_num_candidate_groups=2
bit_fail_limit=3.49999999999999977796e-01
cascade_candidate_limit=1.00000000000000000000e+03
cascade_weight_multiplier=4.00000000000000022204e-01
cascade_activation_functions_count=10
cascade_activation_functions=3 5 7 8 10 11 14 15 16 17 
cascade_activation_steepnesses_count=4
cascade_activation_steepnesses=2.50000000000000000000e-01 5.00000000000000000000e-01 7.50000000000000000000e-01 1.00000000000000000000e+00 
layer_sizes=8 5 2 
scale_included=0
neurons (num_inputs, activation_function, activation_steepness)=(0, 0, 0.00000000000000000000e+00) (0, 0, 0.00000000000000000000e+00) (0, 0, 0.00000000000000000000e+00) (0, 0, 0.00000000000000000000e+00) (0, 0, 0.00000000000000000000e+00) (0, 0, 0.00000000000000000000e+00) (0, 0, 0.00000000000000000000e+00) (0, 0, 0.00000000000000000000e+00) (8, 4, 5.00000000000000000000e-01) (8, 4, 5.00000000000000000000e-01) (8, 4, 5.00000000000000000000e-01) (8, 4, 5.00000000000000000000e-01) (0, 0, 0.00000000000000000000e+00) (5, 6, 5.00000000000000000000e-01) (0, 6, 0.00000000000000000000e+00) 
connections (connected_to_neuron, weight)=(0, 1.18774593403831278948e+01) (1, -1.16451478148786549127e+01) (2, -2.05806700784555758332e+01) (3, 1.54643273623261041649e+01) (4, -2.76546223997244622339e+00) (5, 2.71425641827664199113e+00) (6, -5.24831107705234387595e+01) (7, -6.62329187776276029354e-01) (0, -3.06250219206270877237e+01) (1, -2.62107736946097436004e+00) (2, 1.37734597679902104339e+00) (3, -4.51825877631736450013e+00) (4, -4.71931644443486497664e+00) (5, -6.81178321886229198867e+00) (6, 9.33579142743392225157e+01) (7, 2.01793706442787573740e-01) (0, -3.84158121228478890430e+01) (1, -2.16727600235450701405e+00) (2, -1.12264661790757980242e+01) (3, 1.34130411480146278791e+01) (4, -3.25381031424673352603e+01) (5, -8.10826301331396948058e+00) (6, 1.26323803364740044231e+02) (7, -1.29746779129064115921e+00) (0, -1.47865178456617485381e+01) (1, 3.22664975687431909712e-01) (2, 2.00400072036215792792e+00) (3, 1.18269349032894641738e+01) (4, -1.69789382335496732424e+01) (5, 5.62594088983938078741e+00) (6, 3.31241372789020260825e+01) (7, 2.76101787338423232399e+00) (8, 1.90900484338126403827e+01) (9, -4.57555224649232229694e+02) (10, 4.44658905162293194735e+02) (11, -1.99979100128220359522e+01) (12, 8.88512625408697864771e+00) 
