FANN_FLO_2.1
num_layers=3
learning_rate=0.700000
connection_rate=1.000000
network_type=0
learning_momentum=0.000000
training_algorithm=2
train_error_function=1
train_stop_function=0
cascade_output_change_fraction=0.010000
quickprop_decay=-0.000100
quickprop_mu=1.750000
rprop_increase_factor=1.200000
rprop_decrease_factor=0.500000
rprop_delta_min=0.000000
rprop_delta_max=50.000000
rprop_delta_zero=0.100000
cascade_output_stagnation_epochs=12
cascade_candidate_change_fraction=0.010000
cascade_candidate_stagnation_epochs=12
cascade_max_out_epochs=150
cascade_max_cand_epochs=150
cascade_num_candidate_groups=2
bit_fail_limit=3.49999999999999977796e-01
cascade_candidate_limit=1.00000000000000000000e+03
cascade_weight_multiplier=4.00000000000000022204e-01
cascade_activation_functions_count=10
cascade_activation_functions=3 5 7 8 10 11 14 15 16 17 
cascade_activation_steepnesses_count=4
cascade_activation_steepnesses=2.50000000000000000000e-01 5.00000000000000000000e-01 7.50000000000000000000e-01 1.00000000000000000000e+00 
layer_sizes=28 11 2 
scale_included=0
neurons (num_inputs, activation_function, activation_steepness)=(0, 0, 0.00000000000000000000e+00) (0, 0, 0.00000000000000000000e+00) (0, 0, 0.00000000000000000000e+00) (0, 0, 0.00000000000000000000e+00) (0, 0, 0.00000000000000000000e+00) (0, 0, 0.00000000000000000000e+00) (0, 0, 0.00000000000000000000e+00) (0, 0, 0.00000000000000000000e+00) (0, 0, 0.00000000000000000000e+00) (0, 0, 0.00000000000000000000e+00) (0, 0, 0.00000000000000000000e+00) (0, 0, 0.00000000000000000000e+00) (0, 0, 0.00000000000000000000e+00) (0, 0, 0.00000000000000000000e+00) (0, 0, 0.00000000000000000000e+00) (0, 0, 0.00000000000000000000e+00) (0, 0, 0.00000000000000000000e+00) (0, 0, 0.00000000000000000000e+00) (0, 0, 0.00000000000000000000e+00) (0, 0, 0.00000000000000000000e+00) (0, 0, 0.00000000000000000000e+00) (0, 0, 0.00000000000000000000e+00) (0, 0, 0.00000000000000000000e+00) (0, 0, 0.00000000000000000000e+00) (0, 0, 0.00000000000000000000e+00) (0, 0, 0.00000000000000000000e+00) (0, 0, 0.00000000000000000000e+00) (0, 0, 0.00000000000000000000e+00) (28, 4, 5.00000000000000000000e-01) (28, 4, 5.00000000000000000000e-01) (28, 4, 5.00000000000000000000e-01) (28, 4, 5.00000000000000000000e-01) (28, 4, 5.00000000000000000000e-01) (28, 4, 5.00000000000000000000e-01) (28, 4, 5.00000000000000000000e-01) (28, 4, 5.00000000000000000000e-01) (28, 4, 5.00000000000000000000e-01) (28, 4, 5.00000000000000000000e-01) (0, 0, 0.00000000000000000000e+00) (11, 6, 5.00000000000000000000e-01) (0, 6, 0.00000000000000000000e+00) 
connections (connected_to_neuron, weight)=(0, 1.06224297171670389872e+00) (1, 3.75598583518748174725e+00) (2, -2.43521424361941063452e+00) (3, -7.31665890900824233967e-01) (4, -1.15269720964222499582e+00) (5, -4.95766686885915075500e-01) (6, -2.61177171944527053427e-01) (7, 2.90319809962907848799e-01) (8, 8.55027923377702392393e-01) (9, -2.19104248960557718151e-01) (10, 1.25150895742670298372e-01) (11, 1.81535250601819320160e+00) (12, 1.15745631236385482232e+00) (13, 7.14708947085060608551e-01) (14, 2.59321143754188243591e-01) (15, 2.45692407806878565513e-01) (16, -1.65648353454520336214e+00) (17, -8.91414440573329258655e+00) (18, -2.26540921677718332106e+00) (19, -4.33167544866258358294e-01) (20, -1.50309089534023110346e-01) (21, -5.54639959064957555057e-01) (22, -2.25237198077135186702e-01) (23, -2.57715160425114109266e-01) (24, 2.20541008978948482877e+00) (25, 2.48318271828014053293e-01) (26, 1.13810156299263709911e+02) (27, 4.71901161311555406019e-01) (0, 1.42965367244299002003e+00) (1, 3.58691761722597535211e+00) (2, -1.97711401335405501101e+00) (3, -1.07067740329780036745e+00) (4, -1.18192528831162113612e+00) (5, -7.00062708297045754868e-01) (6, -3.43712273897014974899e-01) (7, 8.44973871451500713192e-01) (8, 3.25710999670355993985e+00) (9, -9.61427031992608815969e-02) (10, 1.16236555124663451521e-01) (11, 1.69918469786994386084e+00) (12, 1.03037548704673342925e+00) (13, 4.13407598325810643480e-01) (14, 1.12377998005257784264e+00) (15, 2.44248701836294346279e+00) (16, -7.27134248849911513091e-01) (17, -7.48851239212294483849e+00) (18, -2.34985608544461666014e+00) (19, -6.09793001690283831273e-01) (20, -3.09904287426152114104e-01) (21, -6.21045730843380661135e-01) (22, -1.17554163872834960269e-01) (23, -2.96272360034477044710e-01) (24, 2.92403375580731872407e-01) (25, 4.73753952924771015720e-01) (26, 6.30817240412829534080e+01) (27, 4.03161533386317161298e-01) (0, 1.74766631683985345092e+01) (1, 2.33572056786326754718e+02) (2, 1.78312327222229249912e+01) (3, 6.93851760047800496523e+01) (4, 2.46057469856081382886e+02) (5, 1.50000000000000000000e+03) (6, 1.50000000000000000000e+03) (7, 4.23756874521665505284e+00) (8, 8.50322399163261444244e+00) (9, 4.28854879408728972834e+00) (10, 1.83335365588385116098e+02) (11, 2.18576254281967294446e+02) (12, 1.50000000000000000000e+03) (13, 2.37502060266435023550e+02) (14, 4.57488226065532810338e+00) (15, 6.68878640970703131075e+00) (16, 1.52457255455668665434e+01) (17, 1.50000000000000000000e+03) (18, 1.50000000000000000000e+03) (19, 8.87884277928567939853e+02) (20, 1.05157340616680471612e+02) (21, 9.35638241681604313271e+02) (22, 3.54078936819444622941e+00) (23, 1.77450137200913782287e+00) (24, 1.03375923829347060590e+00) (25, 1.25921010173970460144e+00) (26, 2.78605674314469053954e+00) (27, 6.16900470473187567677e+00) (0, 2.82395416343795346847e+00) (1, -1.24140744081688936262e+00) (2, -5.52560885138184154641e+00) (3, -3.68799504871840699849e+00) (4, -1.40560291908770107483e+00) (5, -1.14972531821598877855e+00) (6, -4.42792991578021544186e-01) (7, -4.25841951171409757726e-02) (8, 3.02676654373196796222e-01) (9, -8.68860443217671502003e-02) (10, 1.12582976407813495356e+00) (11, 2.96467210656228008503e+00) (12, -2.22797875587451299495e+00) (13, 8.65326022013806261945e-01) (14, 9.54477485706884731798e-01) (15, 1.44279941923329824149e+00) (16, 2.55439008588618232665e+00) (17, -3.96628043416194397963e+00) (18, -1.47943842726334517934e+00) (19, -2.49254569949265064599e-01) (20, -7.00366372596952113661e-01) (21, -3.32164139328649410388e+00) (22, -2.36619574690718786902e-01) (23, -1.36351082127120548648e-01) (24, 1.34557447727386925163e-01) (25, 2.76771311922270890626e-01) (26, 1.25457664663119015103e+01) (27, 6.19665955493179265723e-01) (0, 2.19378140043848546270e+00) (1, -1.13838031627992997130e+01) (2, -2.61669261795077012778e+01) (3, -3.29777270093993735145e+01) (4, -9.18107035022848849692e-01) (5, -2.16042318600127236650e-01) (6, 6.19522127063095034982e-02) (7, 8.09960742313421078187e-01) (8, 4.44594750650835912609e+00) (9, 9.99359897329576529756e-01) (10, 1.41871251760651273521e+00) (11, 1.42299963489689096363e+00) (12, 1.38502449732815224870e-01) (13, 7.79407798033115661873e-01) (14, 1.38528185591876540350e+00) (15, 6.86211004870402097033e-01) (16, 6.66666630971639584402e-01) (17, -3.31462647463675708082e+00) (18, -4.30464828704543001070e-01) (19, 8.09754793506470726960e-01) (20, 1.22521023924783101222e+00) (21, 8.95616652342736574433e-01) (22, 1.04027462482693655588e+00) (23, 1.08561768421180637745e+00) (24, 4.87909033005121117732e-01) (25, 1.61863275588081001466e+00) (26, 3.01857498134457458150e+00) (27, 1.47459998524134006104e+00) (0, 2.60053540130068849834e+00) (1, -5.32113857674149937083e+00) (2, -2.58241047931521379155e+01) (3, -2.52128336575859357538e+01) (4, -4.08769384496143584062e-01) (5, 3.15079271735548671618e-01) (6, 1.92956121753226683690e-01) (7, 1.97692328039917430971e+00) (8, 2.31127878273855591473e+00) (9, 1.59526556441471578651e+00) (10, 2.16928028829068653138e+00) (11, 1.25480328488536074794e+00) (12, 1.36933037586527084351e+00) (13, 9.27506153744719785692e-01) (14, 1.03087959278695628917e+00) (15, 5.77052234515523454483e-01) (16, 1.81018654127275402388e+00) (17, -4.36225397777365486718e+00) (18, -1.21676997784357765475e+00) (19, 7.67313088037049451096e-01) (20, 6.43085026332206877164e-01) (21, -1.17007999191820633023e+00) (22, 4.34593514436672545553e-01) (23, 1.34303526169699094517e-01) (24, 7.61793073571964796109e-01) (25, 7.25571627724008516580e-01) (26, 2.83265751868785020662e+00) (27, 1.25709621897125756185e+00) (0, 9.41790488618130305909e-01) (1, 6.93442392888839886922e+00) (2, -2.07766280620513477118e+00) (3, -1.01175439380472842466e+00) (4, -1.09952556173303328535e+00) (5, -4.64192421702968871511e-01) (6, -2.55395202033451007573e-01) (7, -6.35247493570457455458e-02) (8, 1.96694251610239151384e-01) (9, -1.31088300915266159352e-01) (10, 1.35951452753486579095e-01) (11, 1.58839540866506490069e+00) (12, 5.64960388210101638329e-01) (13, 5.13686833372979156920e-01) (14, 1.48987903364526524941e-01) (15, 2.07445977350239951775e-01) (16, -1.78113302300058995442e+00) (17, -8.68064274477153929865e+00) (18, -2.23887697108903394039e+00) (19, -4.68329481746485809524e-01) (20, -2.92729667613628952161e-01) (21, -7.24095607425351395214e-01) (22, -2.42280947142181152243e-01) (23, -9.44996016504032476657e-02) (24, 5.69432314453664201181e+00) (25, 2.12283911032739858182e-01) (26, 1.21884601195351280012e+02) (27, 5.52983007168102558282e-01) (0, 1.29124340925200309371e+00) (1, -8.84197787295498027760e-01) (2, -3.46015170674343774948e+00) (3, -2.19850976086409621857e+00) (4, -1.17740023556987849496e+00) (5, -4.17719753637632251753e-01) (6, -2.26770809677940637927e-01) (7, 1.76012921285747886424e-01) (8, -1.01633959892841935213e-01) (9, -1.76464488443359740488e-01) (10, 5.35742666406987200212e-01) (11, 3.97580010991955257182e+00) (12, 1.29270699875968464454e+00) (13, 2.95213602994916002320e-01) (14, 2.55604793245880979047e-01) (15, 1.20140694445471415963e-01) (16, -8.58881692997792378641e-01) (17, -9.28621391343743596281e+00) (18, -1.94361470753278520185e+00) (19, -4.53900748752018634580e-01) (20, -2.93821902637053211649e-01) (21, -3.50966200798902061564e-01) (22, 6.00645673923891343371e-01) (23, 1.54075644548271895040e+00) (24, 1.05062022211442549491e+01) (25, 7.40182766212348020041e-01) (26, 5.64192548125906867540e+00) (27, 6.10133621178769458560e-01) (0, 1.16458248520041030005e+00) (1, 9.10043718617321806263e-01) (2, 1.34516401000459762116e+01) (3, -1.10722903703418551480e+00) (4, -1.04783674013429051186e+00) (5, -7.29312098460344282458e-01) (6, -3.03786787324564266921e-01) (7, -2.21611836454602750823e-01) (8, 2.73933152061310747349e-01) (9, -1.55099674987135977000e-01) (10, 5.96902734584719013577e-02) (11, 6.90686734475152386281e-01) (12, 1.16849247447451531912e+00) (13, 6.81594601307633718434e-01) (14, 2.94173665899484626518e-01) (15, -1.51627333859882473810e-01) (16, -5.52730944404470680986e-01) (17, -8.31830782269147306351e+00) (18, -2.50620848259788964185e+00) (19, -4.39528224364780728539e-01) (20, -6.47939246146601255383e-01) (21, -1.05714469902711716287e+00) (22, -3.03243093248001027717e-01) (23, -2.38795930522465837953e-01) (24, 2.21643796539369913878e-01) (25, 4.13075485082564197725e-01) (26, 6.50758245329298858906e+01) (27, 5.20463895751550498225e-01) (0, 1.40064617609260233522e+00) (1, -1.27674326523838423952e+01) (2, -2.71788499704989874317e+01) (3, -1.65252218920079947395e+01) (4, -2.20518998938018251366e+00) (5, -4.66835950833148438655e-01) (6, -2.99501157805028173087e-01) (7, -1.89967282192154224285e-01) (8, 7.27609057401627357109e+00) (9, 1.02928946543680099879e+00) (10, 3.25643010824762380029e-01) (11, 4.02254598241345640020e+00) (12, 9.65967429707641267456e-01) (13, 4.42515395753208695684e-01) (14, 1.93814023640541566174e-01) (15, 7.64678103047854551555e-01) (16, -1.03735315061898858424e+00) (17, -2.13038186269798046624e+00) (18, -1.26856844480786135065e+00) (19, -8.81336913921554332418e-02) (20, 2.09107003045827632981e-01) (21, -7.82471063471867789296e-01) (22, -1.51223175297609147005e-01) (23, -5.45553556510738543728e-02) (24, 8.42291599908665644669e-01) (25, 1.43031115771616290644e+00) (26, 3.97302000484954263015e+01) (27, 6.05937715611650107306e-01) (28, -4.69568489540689171235e+00) (29, -4.63061772559338979960e+00) (30, 5.68964266746630720206e+00) (31, -4.46808417201493579540e+00) (32, -6.51625597417459445637e+00) (33, -5.54381066279874379354e-01) (34, -4.93064108088882768755e+00) (35, -1.05418847932811665657e+01) (36, -7.15869472228486003473e+00) (37, -1.36727834956930767163e+01) (38, 5.75665918707242063590e+00) 
