FANN_FLO_2.1
num_layers=3
learning_rate=0.700000
connection_rate=1.000000
network_type=0
learning_momentum=0.000000
training_algorithm=2
train_error_function=1
train_stop_function=0
cascade_output_change_fraction=0.010000
quickprop_decay=-0.000100
quickprop_mu=1.750000
rprop_increase_factor=1.200000
rprop_decrease_factor=0.500000
rprop_delta_min=0.000000
rprop_delta_max=50.000000
rprop_delta_zero=0.100000
cascade_output_stagnation_epochs=12
cascade_candidate_change_fraction=0.010000
cascade_candidate_stagnation_epochs=12
cascade_max_out_epochs=150
cascade_max_cand_epochs=150
cascade_num_candidate_groups=2
bit_fail_limit=3.49999999999999977796e-01
cascade_candidate_limit=1.00000000000000000000e+03
cascade_weight_multiplier=4.00000000000000022204e-01
cascade_activation_functions_count=10
cascade_activation_functions=3 5 7 8 10 11 14 15 16 17 
cascade_activation_steepnesses_count=4
cascade_activation_steepnesses=2.50000000000000000000e-01 5.00000000000000000000e-01 7.50000000000000000000e-01 1.00000000000000000000e+00 
layer_sizes=18 11 2 
scale_included=0
neurons (num_inputs, activation_function, activation_steepness)=(0, 0, 0.00000000000000000000e+00) (0, 0, 0.00000000000000000000e+00) (0, 0, 0.00000000000000000000e+00) (0, 0, 0.00000000000000000000e+00) (0, 0, 0.00000000000000000000e+00) (0, 0, 0.00000000000000000000e+00) (0, 0, 0.00000000000000000000e+00) (0, 0, 0.00000000000000000000e+00) (0, 0, 0.00000000000000000000e+00) (0, 0, 0.00000000000000000000e+00) (0, 0, 0.00000000000000000000e+00) (0, 0, 0.00000000000000000000e+00) (0, 0, 0.00000000000000000000e+00) (0, 0, 0.00000000000000000000e+00) (0, 0, 0.00000000000000000000e+00) (0, 0, 0.00000000000000000000e+00) (0, 0, 0.00000000000000000000e+00) (0, 0, 0.00000000000000000000e+00) (18, 4, 5.00000000000000000000e-01) (18, 4, 5.00000000000000000000e-01) (18, 4, 5.00000000000000000000e-01) (18, 4, 5.00000000000000000000e-01) (18, 4, 5.00000000000000000000e-01) (18, 4, 5.00000000000000000000e-01) (18, 4, 5.00000000000000000000e-01) (18, 4, 5.00000000000000000000e-01) (18, 4, 5.00000000000000000000e-01) (18, 4, 5.00000000000000000000e-01) (0, 0, 0.00000000000000000000e+00) (11, 6, 5.00000000000000000000e-01) (0, 6, 0.00000000000000000000e+00) 
connections (connected_to_neuron, weight)=(0, 2.12778733572280636110e+01) (1, -5.60163903045552480364e+00) (2, -8.54956875654557801880e-01) (3, -3.55195852716798210480e+00) (4, 1.98784678427728261907e-01) (5, -2.11142114258873997423e-01) (6, -1.38251129062495770050e+00) (7, -1.09668942260457713544e+00) (8, 6.66352125131912220724e-01) (9, -2.59240538612940107921e-01) (10, -3.64597122018373376306e+00) (11, -3.57423265729603656382e+00) (12, -8.93623612710567449824e-01) (13, -1.39010935667337065524e+00) (14, -7.73853554592055292716e-01) (15, 4.25459071535172039802e+00) (16, 1.39392530554774680240e+02) (17, 5.88817918430474374070e-01) (0, 2.34402492676650719972e+00) (1, 1.11940318573893922149e+01) (2, -6.59940372554705501074e-01) (3, -5.03819721094809658268e-01) (4, 1.03088181769949160937e-01) (5, 1.03894960561837002011e+00) (6, -5.54183765451796483958e-01) (7, 2.27203843048208620203e+00) (8, 9.05269755206786985724e-01) (9, -2.21986531559350830367e-01) (10, -3.36267957350166390995e+00) (11, -4.52307427398297967613e+00) (12, -4.14682197803773533451e+00) (13, -3.78641124709299559115e+00) (14, -1.02850638495576052200e+00) (15, 9.70051999137132442419e-02) (16, 1.73891576763558752816e+01) (17, 1.06039615055901914609e+00) (0, -7.69629429581245694258e-01) (1, -9.54885914414757230873e+00) (2, -8.34597707042716852044e-01) (3, -8.59441192893495409244e-01) (4, -1.02302107932063846008e-01) (5, -1.18651340523422688111e-01) (6, 1.98681241860679391742e+00) (7, 1.56030269468690496737e+00) (8, 1.21550428147742817231e+00) (9, 3.10901575834263074749e-02) (10, -5.50036435306094695363e+00) (11, -2.92753280703828488996e+00) (12, -2.78511974257154903967e-01) (13, -6.99563017271785936302e-01) (14, 4.76821927849951365808e-01) (15, 1.49290115892702401901e+00) (16, 1.10302501754109094634e+01) (17, 1.74231319933942097045e+00) (0, -6.61753052031563537838e-01) (1, -1.06656796301481779921e+01) (2, -2.33880726177581488301e+00) (3, 3.07853361203361319820e-01) (4, 5.63296242659996893032e-01) (5, 8.51424500639500037025e-01) (6, 1.13423082779709161194e+00) (7, 1.69449602630756213095e+00) (8, 2.64001122242125374484e+00) (9, 2.90563534327664463319e-01) (10, -4.47876036862784587811e+00) (11, -2.71416515721649531656e+00) (12, -9.64520398358514330361e-01) (13, -6.87737966944627565624e+00) (14, -8.85996106843280006871e-01) (15, 4.25275360161653548374e+00) (16, 3.76149831615874585822e+00) (17, 1.67603338253406031200e+00) (0, -8.13438403585632840986e+00) (1, -5.71763494348147176538e+01) (2, -9.32567391770978382226e+00) (3, -1.16391965168479916137e+00) (4, 4.88081558054484943021e-01) (5, 6.80761065241464180531e+00) (6, 1.59434405449371641161e+00) (7, 2.92240657200249520642e+00) (8, 1.04824228275388264819e+00) (9, -1.05078439242899812633e+00) (10, -2.22641596053596302340e+00) (11, -1.79466549255915208683e+00) (12, -2.19012914237857632405e-02) (13, 1.76750771203532469622e-01) (14, -7.38593776148867120490e-01) (15, 3.31907984480876283584e+00) (16, 9.31421291100350998704e+01) (17, 1.79218783651522484135e+00) (0, 2.92224092750199293533e+00) (1, -5.64206159236000726054e+00) (2, -2.22345636201116425568e+00) (3, -1.43035858236411650424e+00) (4, 4.61292891266825932917e-01) (5, 8.08960804619504703084e-01) (6, -4.56146637509409469402e+00) (7, 1.45290929846589844665e+00) (8, 1.17055002483834380556e+00) (9, 7.83967577218253497406e-01) (10, -5.26209793038492090744e+00) (11, -5.06600063729577332339e+00) (12, -4.10618500334866465273e-01) (13, -6.25623274755947900161e+00) (14, 1.40552396772153054272e+00) (15, 2.53418926831359101470e+01) (16, 2.14104851220895220365e+01) (17, 1.51820285479473993107e+00) (0, -7.08467709749664642516e+00) (1, -1.15540459356416818082e+01) (2, -2.45447972241349088307e+00) (3, -7.85695861167289244520e+00) (4, 5.67866346587270642843e-01) (5, 1.52933584879297934656e+00) (6, 9.42524437955728155991e-01) (7, 1.12786273818129001434e+00) (8, 1.41302826923386337654e+00) (9, 3.78144281772635759697e-01) (10, -5.05277480127079670069e+00) (11, -3.15817974367989018347e+00) (12, -1.37344955318797290467e+00) (13, 4.61232731406945706265e-01) (14, 6.78921736034563960693e-02) (15, 8.34647055199331155961e+00) (16, 4.98366315777799542275e+01) (17, 1.32031498819178838566e+00) (0, -6.46819913520289357933e+00) (1, -1.14501525477492620553e+01) (2, -2.49510826340740177187e+00) (3, -9.77919472501949904597e+00) (4, 4.93809886370609185668e-01) (5, 8.67387128642475135898e-01) (6, 8.75150398098907711386e-01) (7, 1.21669183235504863028e+00) (8, 1.43824015436648666721e+00) (9, 2.59855354118921799689e-01) (10, -5.16083585733014427177e+00) (11, -3.03946749439615526711e+00) (12, 5.11786365233980911071e-01) (13, 2.38301789988293016842e-01) (14, 7.02661803873323581593e-02) (15, 3.48780054694192065412e+00) (16, 4.32868975147488797006e+01) (17, 1.62854726616188538735e+00) (0, -2.98172995860283396308e-01) (1, -8.16878770623237748794e+00) (2, -3.12090817133319919918e+00) (3, -1.56850653560055364188e+00) (4, 3.89280562993334522393e-01) (5, 2.73109315332599766890e+00) (6, -1.36818376556098297847e+00) (7, 1.82214995794387490946e+00) (8, 8.12391960119742906343e-01) (9, -1.68439082786781280099e+00) (10, -2.38436931126142370729e+00) (11, -2.22434625019903720045e+00) (12, -2.66449241577808138004e+00) (13, -2.17331329462633515703e+00) (14, -1.88031474308556845187e+00) (15, 1.40453588243368843180e+00) (16, 1.14218609164406839085e+01) (17, 1.47841512755720150274e+00) (0, 9.50753557445090535793e+00) (1, -5.34007458336790818976e+00) (2, -9.16829603012815463892e-01) (3, -5.90168870307501314265e-01) (4, -1.83559641856195721044e-01) (5, 3.22687784824174261900e-01) (6, -4.95957764227003716773e-01) (7, 2.27383956923980390386e+00) (8, 8.30551047711322376621e-01) (9, -6.45548020562090596464e-02) (10, -3.71192438855456563473e+00) (11, -3.70927816621669581565e+00) (12, -1.87606377123851020272e+00) (13, -3.48733292209126366501e+00) (14, -8.70822692662151287557e-01) (15, 2.54193362121316601687e-01) (16, 1.14937052255890179708e+01) (17, 1.28196527025233963926e+00) (18, -2.95881542264974006784e+00) (19, -9.29231921389825821223e+00) (20, -4.44430962646892879775e+00) (21, -1.09183058811572064606e+00) (22, -1.25339644919506802978e+01) (23, -1.34748101970382290204e+01) (24, -2.30882832124827563902e+00) (25, -2.25142918219543464176e+00) (26, -2.98290321359534527090e+00) (27, -2.54889334615705287490e+00) (28, 8.08609571458218212570e+00) 
