FANN_FLO_2.1
num_layers=3
learning_rate=0.700000
connection_rate=1.000000
network_type=0
learning_momentum=0.000000
training_algorithm=2
train_error_function=1
train_stop_function=0
cascade_output_change_fraction=0.010000
quickprop_decay=-0.000100
quickprop_mu=1.750000
rprop_increase_factor=1.200000
rprop_decrease_factor=0.500000
rprop_delta_min=0.000000
rprop_delta_max=50.000000
rprop_delta_zero=0.100000
cascade_output_stagnation_epochs=12
cascade_candidate_change_fraction=0.010000
cascade_candidate_stagnation_epochs=12
cascade_max_out_epochs=150
cascade_max_cand_epochs=150
cascade_num_candidate_groups=2
bit_fail_limit=3.49999999999999977796e-01
cascade_candidate_limit=1.00000000000000000000e+03
cascade_weight_multiplier=4.00000000000000022204e-01
cascade_activation_functions_count=10
cascade_activation_functions=3 5 7 8 10 11 14 15 16 17 
cascade_activation_steepnesses_count=4
cascade_activation_steepnesses=2.50000000000000000000e-01 5.00000000000000000000e-01 7.50000000000000000000e-01 1.00000000000000000000e+00 
layer_sizes=39 16 2 
scale_included=0
neurons (num_inputs, activation_function, activation_steepness)=(0, 0, 0.00000000000000000000e+00) (0, 0, 0.00000000000000000000e+00) (0, 0, 0.00000000000000000000e+00) (0, 0, 0.00000000000000000000e+00) (0, 0, 0.00000000000000000000e+00) (0, 0, 0.00000000000000000000e+00) (0, 0, 0.00000000000000000000e+00) (0, 0, 0.00000000000000000000e+00) (0, 0, 0.00000000000000000000e+00) (0, 0, 0.00000000000000000000e+00) (0, 0, 0.00000000000000000000e+00) (0, 0, 0.00000000000000000000e+00) (0, 0, 0.00000000000000000000e+00) (0, 0, 0.00000000000000000000e+00) (0, 0, 0.00000000000000000000e+00) (0, 0, 0.00000000000000000000e+00) (0, 0, 0.00000000000000000000e+00) (0, 0, 0.00000000000000000000e+00) (0, 0, 0.00000000000000000000e+00) (0, 0, 0.00000000000000000000e+00) (0, 0, 0.00000000000000000000e+00) (0, 0, 0.00000000000000000000e+00) (0, 0, 0.00000000000000000000e+00) (0, 0, 0.00000000000000000000e+00) (0, 0, 0.00000000000000000000e+00) (0, 0, 0.00000000000000000000e+00) (0, 0, 0.00000000000000000000e+00) (0, 0, 0.00000000000000000000e+00) (0, 0, 0.00000000000000000000e+00) (0, 0, 0.00000000000000000000e+00) (0, 0, 0.00000000000000000000e+00) (0, 0, 0.00000000000000000000e+00) (0, 0, 0.00000000000000000000e+00) (0, 0, 0.00000000000000000000e+00) (0, 0, 0.00000000000000000000e+00) (0, 0, 0.00000000000000000000e+00) (0, 0, 0.00000000000000000000e+00) (0, 0, 0.00000000000000000000e+00) (0, 0, 0.00000000000000000000e+00) (39, 4, 5.00000000000000000000e-01) (39, 4, 5.00000000000000000000e-01) (39, 4, 5.00000000000000000000e-01) (39, 4, 5.00000000000000000000e-01) (39, 4, 5.00000000000000000000e-01) (39, 4, 5.00000000000000000000e-01) (39, 4, 5.00000000000000000000e-01) (39, 4, 5.00000000000000000000e-01) (39, 4, 5.00000000000000000000e-01) (39, 4, 5.00000000000000000000e-01) (39, 4, 5.00000000000000000000e-01) (39, 4, 5.00000000000000000000e-01) (39, 4, 5.00000000000000000000e-01) (39, 4, 5.00000000000000000000e-01) (39, 4, 5.00000000000000000000e-01) (0, 0, 0.00000000000000000000e+00) (16, 6, 5.00000000000000000000e-01) (0, 6, 0.00000000000000000000e+00) 
connections (connected_to_neuron, weight)=(0, -6.17469518529237371141e-01) (1, -4.87530750872165852261e-01) (2, -8.11727152303884906814e+01) (3, -9.01437971390670895744e+01) (4, -9.04478632813763283593e+01) (5, -4.84650240525952611392e+01) (6, -2.02002556116344145209e+01) (7, -2.03065341875912395153e+01) (8, -8.46683382700974007662e+00) (9, -4.40660544759260863756e-01) (10, -5.51640283253727325974e-02) (11, 1.85799408806043592213e-01) (12, -7.13264792525734048212e+00) (13, -5.94193493718542131710e-01) (14, -2.63195714815543713172e+00) (15, 2.98764368568554816719e-01) (16, -2.48069661340720282183e+00) (17, -1.72810336193359859180e+00) (18, -1.14183392917109017617e+02) (19, 4.10017486637686001671e-02) (20, 2.95958725545211742691e-02) (21, 3.71700735361866277384e-02) (22, -3.49322370803563791997e-02) (23, -6.81177370857443009733e-01) (24, -1.84847403175052704682e+00) (25, -2.13624688182937116920e+00) (26, -3.99378086284827349406e-01) (27, -4.00264129738364227151e-01) (28, -9.00536300747250106902e-01) (29, -7.90949285907105004156e+00) (30, -3.36228864172107311248e+00) (31, 2.08367705657034774092e-01) (32, -5.20709725220199759477e-01) (33, -6.88389309705537228920e-04) (34, 1.56577059362391218800e-01) (35, 9.72128625271073021352e-01) (36, -1.86832991828127681355e-01) (37, 8.64738803535447786430e+00) (38, 4.81293295682833299765e-01) (0, 2.18142875016641674124e-01) (1, -3.55129766414206071712e-01) (2, -3.15382074960027614097e+00) (3, -6.32732782835036378088e+00) (4, -8.04451363355042481373e+00) (5, -3.46830386366887388760e+00) (6, -1.95400138523367861154e+00) (7, -1.88823414917973497751e+00) (8, -1.90744880910901049020e+00) (9, -3.94484459416670762977e-01) (10, -1.73608788211045528271e-01) (11, -6.94289965778507323080e-02) (12, -3.23167587051514881846e-01) (13, -1.93509268965391639794e-01) (14, -8.10405863732790165965e-02) (15, 1.60014199750123764510e-01) (16, 4.45510097718801012512e-01) (17, 4.40619576111069166657e-01) (18, -1.63033312082492193307e-01) (19, 1.49954771753612436935e-01) (20, 5.80192672551761365329e-03) (21, -4.08708242687800607507e-02) (22, -3.60641317572687858384e-01) (23, -8.88084130164911944583e-01) (24, -8.01386142843479731823e+00) (25, -5.58094344653416207791e+00) (26, -3.44068396302503165529e+00) (27, -3.49202219362372812128e+00) (28, -8.33748005594580732236e-01) (29, -1.03832881958251799226e+00) (30, -1.05520557672744574873e+00) (31, -1.78647602671018146392e-01) (32, -9.57942435063645070237e-02) (33, -4.52432717266919415255e-01) (34, -8.38384124101349409441e-02) (35, 2.47917287262737623399e-02) (36, -1.29305656325028356379e-01) (37, 2.94905756790338036133e-01) (38, 1.74675069624540491020e-01) (0, 4.76684696852551859081e+00) (1, 4.71316142954096939377e+00) (2, 5.37479292109471060712e+01) (3, 5.79727202569035071633e+01) (4, 8.22882431568568222247e+02) (5, 5.48167495060345459024e+02) (6, 5.48147742393991279641e+02) (7, 5.48088418129464912454e+02) (8, 5.48211535717925357858e+02) (9, 5.48202662128588485757e+02) (10, 2.46617967582640718049e+00) (11, 8.99453639091268009054e+00) (12, 1.15267319622689569769e+02) (13, 4.96177250835874374957e+01) (14, 2.14492521893987593273e+01) (15, 2.39827908951412567262e+01) (16, 1.19663960298155416240e+02) (17, 5.48642389514653132210e+02) (18, 8.47057083076697495017e+02) (19, 5.58975880076356020254e+02) (20, 8.69431264841861946024e+01) (21, 3.58648481247962003238e+00) (22, 2.79260421695574345691e+00) (23, 3.19782435851984692121e+00) (24, 5.13193129851159284271e+01) (25, 2.27797495515689547574e+01) (26, 3.36420312362561757524e+00) (27, 5.33950942714756404683e+00) (28, 5.06497321462807459369e+00) (29, 4.99879802614473423006e+00) (30, 5.08919689655326923372e+00) (31, 1.62721340502082290058e+00) (32, 1.40837307406580798386e+01) (33, 8.74178164279140013093e+00) (34, 3.39425024981375011990e+00) (35, 1.31113523227635453416e+00) (36, 3.36391629783923178820e+02) (37, 1.57652696597037089710e+00) (38, 6.25350637033537370968e+00) (0, 5.31356643864420430390e+00) (1, 4.80850604411227955381e+00) (2, 2.27091186034521754777e+01) (3, 2.41097987500347237244e+01) (4, 8.23279907110194812958e+02) (5, 5.48404655732181595340e+02) (6, 5.48292005479302929416e+02) (7, 5.48434604965117500797e+02) (8, 5.48445317380097435489e+02) (9, 8.49036327510754745163e+02) (10, 6.07181921028146032171e+00) (11, 9.15489843745840303768e+00) (12, 1.15413634862393209346e+02) (13, 4.97403317376413482975e+01) (14, 2.15347707845637508228e+01) (15, 5.67179940477808131050e+01) (16, 1.20092526203642151472e+02) (17, 5.49109805667999808065e+02) (18, 1.22926394492322151564e+03) (19, 8.74467445290398813995e+02) (20, 8.75455812927841492410e+01) (21, 3.86125328825650848685e+00) (22, 2.82318877985936378394e+00) (23, 3.36006438350966840645e+00) (24, 5.14661041716333826912e+01) (25, 2.29726541397377914677e+01) (26, 3.50276081136115280401e+00) (27, 5.50550452613178276096e+00) (28, 5.18545438940102965120e+00) (29, 5.26085411269089586739e+00) (30, 2.48226084793120538308e+00) (31, 9.74471613339137565646e-01) (32, 6.20097116209877885495e+00) (33, 3.99691951201487771783e+00) (34, 1.61631596987388204134e+00) (35, 1.42182287217439395910e+00) (36, 3.36469318288267345451e+02) (37, 2.08265226063109887278e+00) (38, 6.58616773927684118206e+00) (0, 1.62868069683058402930e+00) (1, 1.79449364666977376204e-02) (2, -3.52424744530006961440e+00) (3, -3.16692353369313739364e+00) (4, -7.82948259739365948207e+00) (5, -7.41065526765215421001e-01) (6, -5.43525751160868209055e-01) (7, -1.90489882431035956190e-01) (8, -2.93818731669340749146e-01) (9, -3.11641521981168623245e-01) (10, -4.55252413198124275540e-02) (11, 4.41185782956222405371e-02) (12, 8.49011366252456489701e-02) (13, -9.55162826530207009768e-02) (14, 1.52391884314841602466e-01) (15, 1.41135436948096870680e+00) (16, -3.11590651711431476656e+00) (17, 1.19311431483075902626e+00) (18, -5.87981403349526865476e-01) (19, 1.38618394020914648124e+00) (20, 6.75666789662260625082e-02) (21, -9.41899095186800039414e-02) (22, -9.93066678904957478302e-02) (23, -3.51444571238248015810e-02) (24, -2.07509362409809394734e+00) (25, -4.73893929058153329237e+00) (26, -1.17304160295370940581e+00) (27, -7.04959248393307813529e-01) (28, -1.22560072147459439562e-01) (29, -1.87132260989552934305e-01) (30, -1.79654843946229353380e-01) (31, -1.51777183419954719845e-01) (32, -2.70086643388951830325e-01) (33, -2.47435618086492586931e-01) (34, 5.28036642072742812282e-02) (35, 4.36536707096538134643e-01) (36, 1.70050555996261731906e-01) (37, 8.62267658056004826506e+00) (38, 1.79006699418224646259e+00) (0, 1.54100070759763219108e+00) (1, 2.97330385048544210136e+00) (2, 5.17253476961826947900e+01) (3, 2.30473742979260798336e+01) (4, 8.20753819708840751446e+02) (5, 5.47397652483447814120e+02) (6, 5.47377141422494673861e+02) (7, 5.47326215109690451754e+02) (8, 5.47305465309783244265e+02) (9, 5.47427572167381072177e+02) (10, 1.80595765516404904716e+00) (11, 1.71439900187950975408e+01) (12, 1.13478279110199537172e+02) (13, 4.86520121221158348135e+01) (14, 2.03271585817337339108e+01) (15, 2.07902200122498825863e+01) (16, 2.82355965923190296962e+02) (17, 5.45470717134081837685e+02) (18, 5.46991562033955460720e+02) (19, 2.86283076088857171726e+02) (20, 3.52057913162577946764e+01) (21, 1.18463323182775881470e+00) (22, 1.96481597544107033926e+00) (23, 2.41698536541104802566e+00) (24, 5.04880842998198104965e+01) (25, 2.18836238692084954494e+01) (26, 4.94219665297653421021e+00) (27, 1.61246243315679427255e+00) (28, 3.61850352253070361996e+00) (29, 1.36625513045503721443e+00) (30, 3.22760452912217221666e+00) (31, 4.09895517356052230262e-01) (32, 2.35141853420248070350e+00) (33, 2.88545479675266713926e+00) (34, 1.02539722959852985795e+00) (35, 3.93211124477171158897e-01) (36, 1.39903835674665572242e+02) (37, -3.32546821360591327021e+00) (38, 1.62632140505135058817e+00) (0, 2.36027855281258736042e+00) (1, 4.51961309242154829491e+00) (2, 5.32181244517021241336e+01) (3, 5.72806894242146356078e+01) (4, 8.22267834038877936109e+02) (5, 5.48042861881736257601e+02) (6, 5.47974257188919523287e+02) (7, 5.47952497477713563967e+02) (8, 5.47876260998729208040e+02) (9, 5.47924351762119272280e+02) (10, 4.63625028005521766516e+00) (11, 8.78248563956672789743e+00) (12, 1.15112953754818917673e+02) (13, 4.93516260697049631290e+01) (14, 9.24963062045330630667e+00) (15, 2.38170587741045025609e+01) (16, 1.19116625667595656068e+02) (17, 2.82230482846446648182e+02) (18, 8.46900904622818643475e+02) (19, 5.58676537501862640056e+02) (20, 3.62769773412277274360e+01) (21, 1.74910220810579541961e+00) (22, 2.37978617037375084209e+00) (23, 3.07458481101128899837e+00) (24, 5.10858150818706349128e+01) (25, 2.28347403507400841249e+01) (26, 3.03572121796896388091e+00) (27, 5.08560869380817326402e+00) (28, 2.04527044041512873207e+00) (29, 4.86924648086491274057e+00) (30, 4.70237249682608293710e+00) (31, 1.90465846537622462975e+00) (32, 1.37879915215711150722e+01) (33, 8.57081816867904855428e+00) (34, 1.55048373494511704251e+00) (35, 9.46464172829225014461e-01) (36, 1.40469787763517217627e+02) (37, 1.12063006634881801027e+00) (38, 2.99522535145871726669e+00) (0, 4.91005574792014609642e+00) (1, 4.65785791926250603012e+00) (2, 5.37763603582840659101e+01) (3, 5.79128369082597274087e+01) (4, 8.22736999655132763110e+02) (5, 5.48182174507161903421e+02) (6, 5.48149922165653038064e+02) (7, 5.48180982749542522470e+02) (8, 5.48221167217573452035e+02) (9, 5.48161685738345909158e+02) (10, 5.17804484514760865466e+00) (11, 9.02116890103831714498e+00) (12, 1.15189399051719988165e+02) (13, 4.95393523741343315692e+01) (14, 2.13574181807050642590e+01) (15, 2.41132737811278268225e+01) (16, 1.19820155484233964671e+02) (17, 5.48521550380794451485e+02) (18, 8.47123947895032074484e+02) (19, 5.58878864643342581076e+02) (20, 8.69326589437134487071e+01) (21, 3.73782653389513974673e+00) (22, 2.63006845267876210315e+00) (23, 3.19465462076359463239e+00) (24, 5.12742988942798803009e+01) (25, 2.28359310121879275357e+01) (26, 3.37324433612475926836e+00) (27, 5.37638887350505267904e+00) (28, 5.00785597598728848823e+00) (29, 5.02110642790817340853e+00) (30, 5.12149917185329517366e+00) (31, 1.02081447040264716719e+00) (32, 6.17277315076076060762e+00) (33, 8.80251506542838590974e+00) (34, 3.42045845309968266079e+00) (35, 1.33270820958081315233e+00) (36, 3.36267042642945796160e+02) (37, 1.60491494464335215930e+00) (38, 6.16764394983604891110e+00) (0, 8.69386252062177344868e-01) (1, -3.15212721779976501324e-01) (2, -2.10870543481899979099e+01) (3, -2.57195596210302745988e+01) (4, -3.17381102362972633557e+01) (5, -1.97885598308404331291e+00) (6, -8.63724492486385830858e-01) (7, -3.33250778919433665592e-01) (8, -3.23443038616584799261e-01) (9, -1.82321401978044472791e-01) (10, 1.98553587158067507135e-02) (11, 3.70081073303249263873e+00) (12, 1.79570425485591100845e+00) (13, 6.55685367011698216899e-01) (14, 5.07150482456917850449e-01) (15, 2.40086424104283535641e+00) (16, 1.82820154238096632682e+00) (17, 1.37824374145219175070e+00) (18, 1.07571123202233143168e+00) (19, 1.89924823063617731478e+00) (20, 9.74467390488850393471e-02) (21, -1.41889603814123771430e-01) (22, 1.64379430049401385749e-03) (23, -6.96442945055094519979e-01) (24, -7.92759754979991182466e-01) (25, -2.97672069405345363080e+00) (26, -7.88102449378221159293e-01) (27, -4.99443468404767720870e-01) (28, 6.39580524492026764038e-02) (29, -1.72616514271918347623e-01) (30, -3.86025012662897654137e-02) (31, 4.04142744871197223677e-01) (32, -2.14677483585166889446e-01) (33, -1.09183369401026519885e-01) (34, -8.57710633405510750049e-03) (35, 2.93361944015009035169e-01) (36, 1.14408529048056051280e+00) (37, 3.40325600754184875996e+01) (38, 1.98114346222088055782e+00) (0, 4.77806795181056787047e-01) (1, -1.94443381113597796306e-01) (2, -7.50828201166124031829e+00) (3, -1.24658592961091017060e+01) (4, -8.93026739360390564570e+00) (5, -3.40637884006685220939e+00) (6, -1.46074140413716357934e+00) (7, -1.71612726934744386220e+00) (8, -1.34997896111011539411e+00) (9, -1.20297937688111006294e-01) (10, -1.65247680340493072193e-02) (11, 5.20627273113854593944e-01) (12, 6.15240334056649101901e-02) (13, 1.26064716752761398627e-02) (14, -7.25180584910473519100e-02) (15, 6.64836061994061755520e-01) (16, 1.05135268055799779852e+00) (17, 1.17647909656623261831e+00) (18, -1.40353758659010963150e+00) (19, 1.18101287537605112443e-01) (20, 2.71530811534639454630e-02) (21, 1.57015946642722670212e-01) (22, -9.15470398690344522308e-02) (23, 7.26090429762266342806e-01) (24, -2.40791200360779855671e+00) (25, -2.15088730078149614755e+00) (26, -4.90340860213226259479e-01) (27, -4.43025467797625305266e-01) (28, -1.30911301667182233821e-01) (29, -7.33233260473063475082e-02) (30, -1.94764206662368211109e-01) (31, 2.30700556806681333910e-01) (32, -1.08009171416966864854e-01) (33, -7.38771388273300744221e-02) (34, 3.60471722746074571542e-02) (35, 9.59157795744011831829e-01) (36, 2.01691170043026751779e-01) (37, 2.76026837792694301754e+01) (38, 3.97509691749584781473e-01) (0, 1.23633336584987119089e+00) (1, 1.43777407189943084997e-01) (2, -1.91235773179209422867e-02) (3, -2.33656110987737619666e+00) (4, -7.55146788026029636143e-01) (5, -2.88782685654054793734e-01) (6, -2.55228875387269849018e-01) (7, -3.18548668762790920805e-01) (8, -1.36666087392455143368e-01) (9, -1.32687229083297913990e-01) (10, 4.25239928467345887353e-03) (11, 3.48932981074663417509e-01) (12, 4.39268931681576102477e-01) (13, -5.96436475301839186258e-02) (14, -2.49396438479326160165e-01) (15, 2.51480053497815714270e-01) (16, 8.02206503028407569289e-01) (17, 1.90605652527817115427e+00) (18, 4.42041222470586636639e-01) (19, 1.93969261073243415261e-01) (20, 2.31066662470489278536e-02) (21, 1.02386740608706103273e-03) (22, -8.59909887685907925459e-02) (23, -4.31079322025190836420e-01) (24, -1.55860357912559788218e+00) (25, -8.48220432123194534313e+00) (26, -1.45013202918043671019e+00) (27, -1.66806362507987082644e-01) (28, 5.27222620929885033014e-01) (29, -2.77442598282078879690e-02) (30, 1.04565491435109000906e-02) (31, 4.70882458702541639717e-01) (32, -3.43194668946319725311e-02) (33, 1.30176469131925820477e-01) (34, 6.04170983322512400449e-01) (35, 7.86712968128028844461e+00) (36, 5.67617979305858777472e-01) (37, 8.92573881202126528933e+01) (38, 7.02992090167469774187e-01) (0, 7.73422982554259785815e+00) (1, -1.11698203369891835290e-01) (2, -2.69495107030516622970e+00) (3, -2.00667631378331767777e+00) (4, 8.23901754498915117608e+00) (5, -2.28129904768031799289e-01) (6, 5.39413250010516778787e-02) (7, 3.42881153934600710342e-02) (8, 5.40169522973546270550e-02) (9, -6.75108250564930012505e-02) (10, -1.76207389903618671934e-01) (11, -1.27428399850430973395e-01) (12, 2.23365739246917494043e-01) (13, -1.22715577310429882485e-01) (14, 1.26969279147579550138e-01) (15, 1.35492375644913831678e+00) (16, 1.18452352129718740947e+00) (17, 1.40823787756475482524e+00) (18, 5.79163834288569101538e-01) (19, 5.61561102447836635321e+00) (20, 1.17101003368492606604e+00) (21, 1.79148815755358015167e-01) (22, -1.05239424956178120873e-01) (23, -1.31358131077177331392e+00) (24, -2.65669399040654097277e+00) (25, -1.18958197205653490869e+01) (26, -1.33067610340044506501e+00) (27, -2.38333585752482113307e+00) (28, -2.86374837231549439487e-01) (29, -2.88815514357768754472e-01) (30, -1.47189473873079818000e-01) (31, -1.09924334669147055754e-01) (32, -1.33795854702912359047e-01) (33, -2.10998555247181501793e-01) (34, -3.06200561092911383021e-02) (35, 3.67248650294743939071e+00) (36, 2.33266176242836437149e-01) (37, 6.36024112625455551040e+00) (38, 1.39109421550295775383e+00) (0, 3.56085076636617647861e-01) (1, -1.70545612407904167984e-01) (2, -8.72986575211908188976e+00) (3, -1.88590905964007546913e+01) (4, -4.33779234916980058756e+01) (5, -2.00476193068827246435e+00) (6, -4.45606143848138958052e-01) (7, -1.63326571877043219549e-01) (8, -1.68590127114116417051e-01) (9, -1.67754518800806246004e-01) (10, -4.75143664370115403894e-02) (11, 1.43762515875698104750e+00) (12, 3.34272615207722401109e+00) (13, 6.56717617305754952639e-01) (14, 3.37128018509106119893e-01) (15, 2.64607845858198853506e+00) (16, 1.83842794645695439826e+00) (17, 3.03327014057119681567e+00) (18, 1.00579479031153606883e+00) (19, 8.30928718894651252569e-01) (20, -5.78431748695449193809e-02) (21, -4.25799454707432162293e-02) (22, -1.25930513063928967155e-01) (23, -3.60288767809344101511e-01) (24, -8.98866028157959462419e-01) (25, -2.14640622236139178014e+00) (26, -4.43626663207168370207e-01) (27, -5.02514702680560088055e-01) (28, -1.82576783798558239802e-01) (29, -2.14005708042707409877e-01) (30, -1.46564365808452001794e-01) (31, 4.19324910427456634676e-02) (32, -8.53506893998429716497e-02) (33, -1.38689255142483564009e-01) (34, -1.19627785470887634811e-01) (35, 2.38593158682305267471e-01) (36, 5.96683671675695248560e-01) (37, 2.02950773680307747782e+01) (38, 2.08443196235189143195e+00) (0, -2.10001807027028064567e+00) (1, -2.16422366664747789500e+00) (2, -5.58413955432159525571e+00) (3, 2.13302222521137035960e-01) (4, 1.16061879619402095187e+01) (5, 3.06846453097196247839e+00) (6, 4.95006689191280546680e+00) (7, 3.65922718030792015753e+00) (8, 1.76947800705876501226e+00) (9, 6.30994181495672545879e-01) (10, -5.97394763987157961793e-01) (11, -1.25050920580044522268e-01) (12, -1.43555152748242154104e-01) (13, -1.67615957761315381713e-01) (14, -2.25674155686512833974e-01) (15, -2.99079741874267057700e-01) (16, -2.10159189590741840581e-01) (17, -2.51088533905397481849e-01) (18, 2.32505932532246495370e-01) (19, 3.00804783481451565308e-01) (20, -8.18156148897360102623e-01) (21, -3.63169955048083803462e-01) (22, -2.05784309817639954332e+00) (23, -1.02588863929159312960e+00) (24, 2.77931386713244243936e-01) (25, -9.65107877971955463448e-02) (26, -6.10100363819742974592e-01) (27, -8.52764640992810102338e-02) (28, -6.61247264277904145402e-01) (29, 3.85902294462412198683e-01) (30, 6.19471860229689474941e-01) (31, -1.15928103216736588799e+00) (32, 1.00688412406979583835e+01) (33, 1.69061276966216822437e+00) (34, -1.02787513384413742301e+00) (35, -5.17271138847311573450e-01) (36, -2.85976011443757283104e+00) (37, -5.46858586766348331309e+00) (38, -1.71836253098117763827e+00) (0, 1.00201433689925423209e+00) (1, 4.38706068206453991820e+00) (2, 2.17323680855334941953e+01) (3, 2.33757569836156982035e+01) (4, 5.21920776057350394694e+02) (5, 5.47755979261172683437e+02) (6, 5.47598809218777091701e+02) (7, 5.47801525253991826503e+02) (8, 5.47861267410408004253e+02) (9, 5.47938860759328349559e+02) (10, 2.18717775124169033774e+00) (11, 4.21296117802952263531e+00) (12, 4.83356390478291260138e+01) (13, 2.10771242136861332028e+01) (14, 2.11061692888642795651e+01) (15, 9.40511176376070068272e+00) (16, 4.86991300538426941102e+01) (17, 2.81463110966771694166e+02) (18, 8.45424245368956235325e+02) (19, 5.57391535239839640781e+02) (20, 3.65830850339652542402e+01) (21, 1.91645765370096565761e+00) (22, 5.21220043913304231786e-01) (23, 1.13103824389940443851e+00) (24, 2.09482314459921568073e+01) (25, 9.16431420980680400135e+00) (26, 1.14307967724595438419e+00) (27, 2.14672189419499703789e+00) (28, 4.38042267894122883121e+00) (29, 1.87321740017139015677e+00) (30, 1.05311919251872709857e+00) (31, 7.31985847761292496294e-01) (32, 2.64274716348892591000e+00) (33, 1.60842443989336425503e+00) (34, 1.32944920419447054627e+00) (35, 1.85655290814345952377e-01) (36, 2.43821998312357592908e+01) (37, -8.78656358966256600951e-01) (38, 2.74935108097738556410e+00) (39, -4.22588176394772196964e-01) (40, -7.40289561110362797081e+01) (41, 1.00624439996892434124e+00) (42, 1.02702928466016296660e+00) (43, -3.39053114496390373134e+00) (44, 2.18981526844815532762e-01) (45, 9.86483511899056253469e-01) (46, 1.00263185930663567547e+00) (47, -6.92390123120695744063e+00) (48, -6.15771417734996351356e+00) (49, -1.47668071094623876149e+01) (50, -5.36058632671267432102e+00) (51, -1.30601829394644308735e+01) (52, 3.54547120312164576461e+00) (53, 4.19468841879650167215e-01) (54, 1.08126820010358315471e+00) 
