FANN_FLO_2.1
num_layers=3
learning_rate=0.700000
connection_rate=1.000000
network_type=0
learning_momentum=0.000000
training_algorithm=2
train_error_function=1
train_stop_function=0
cascade_output_change_fraction=0.010000
quickprop_decay=-0.000100
quickprop_mu=1.750000
rprop_increase_factor=1.200000
rprop_decrease_factor=0.500000
rprop_delta_min=0.000000
rprop_delta_max=50.000000
rprop_delta_zero=0.100000
cascade_output_stagnation_epochs=12
cascade_candidate_change_fraction=0.010000
cascade_candidate_stagnation_epochs=12
cascade_max_out_epochs=150
cascade_max_cand_epochs=150
cascade_num_candidate_groups=2
bit_fail_limit=3.49999999999999977796e-01
cascade_candidate_limit=1.00000000000000000000e+03
cascade_weight_multiplier=4.00000000000000022204e-01
cascade_activation_functions_count=10
cascade_activation_functions=3 5 7 8 10 11 14 15 16 17 
cascade_activation_steepnesses_count=4
cascade_activation_steepnesses=2.50000000000000000000e-01 5.00000000000000000000e-01 7.50000000000000000000e-01 1.00000000000000000000e+00 
layer_sizes=9 7 2 
scale_included=0
neurons (num_inputs, activation_function, activation_steepness)=(0, 0, 0.00000000000000000000e+00) (0, 0, 0.00000000000000000000e+00) (0, 0, 0.00000000000000000000e+00) (0, 0, 0.00000000000000000000e+00) (0, 0, 0.00000000000000000000e+00) (0, 0, 0.00000000000000000000e+00) (0, 0, 0.00000000000000000000e+00) (0, 0, 0.00000000000000000000e+00) (0, 0, 0.00000000000000000000e+00) (9, 4, 5.00000000000000000000e-01) (9, 4, 5.00000000000000000000e-01) (9, 4, 5.00000000000000000000e-01) (9, 4, 5.00000000000000000000e-01) (9, 4, 5.00000000000000000000e-01) (9, 4, 5.00000000000000000000e-01) (0, 0, 0.00000000000000000000e+00) (7, 6, 5.00000000000000000000e-01) (0, 6, 0.00000000000000000000e+00) 
connections (connected_to_neuron, weight)=(0, -2.79207980642287090234e+01) (1, -9.79565811035589040223e-01) (2, -4.54435327188378646035e-01) (3, 1.82890442548116247679e+01) (4, -2.74783103133155002240e+01) (5, -2.49696716464693890813e+00) (6, 2.26392982074180615371e+01) (7, 7.81648537160049556860e+01) (8, 3.71279238699656444211e+00) (0, 1.51926335018317226755e+00) (1, -1.60712084686080292073e+00) (2, 1.85760640111375465722e+01) (3, 7.38105031098151087576e+00) (4, -5.80757266866107979553e+00) (5, -9.37143759433042866647e+00) (6, -2.06038316423435183822e+01) (7, -1.25531362735014127452e+02) (8, 2.21270212099845320353e+00) (0, -6.80249616868088651245e+01) (1, -4.19920666742797692450e+01) (2, 9.03297064050849307648e+00) (3, -6.69489747761253539693e+00) (4, -1.08224568434448169540e+01) (5, -8.07722262657885603510e-01) (6, 2.72601593461050022427e+01) (7, 5.31657036109160230808e+02) (8, 1.20554838588753621131e+00) (0, -7.75321066261956701737e+01) (1, -2.39248677574416340752e-01) (2, 2.75058049415535101900e+01) (3, 1.49344800147896048514e+01) (4, -3.13412028325575375831e+00) (5, -2.34239843954725035502e+00) (6, -1.16489084796613107109e+00) (7, 1.07982585771906258287e+02) (8, -5.04918657761858646893e+00) (0, -9.80206802583080047953e+01) (1, -4.76677040460590228932e-01) (2, 1.44764675677795189301e+01) (3, 3.29933107041045570185e+00) (4, -5.48462922699128441195e+00) (5, -2.57454787349415026299e+00) (6, -1.30578589535429823165e+00) (7, 6.16928094592896982817e+01) (8, 8.08303266472496617645e-01) (0, -9.38985463874745818202e+01) (1, -9.40764375511650929873e-01) (2, 1.61443506418931477242e+01) (3, 5.36593483275322480353e+00) (4, -5.05525105513238681709e+00) (5, -1.93767202108000402561e+00) (6, -7.08536342616729042376e-01) (7, 1.16115833126553553711e+01) (8, 8.36256450446795751574e-01) (9, -6.34802621767975239209e+00) (10, -1.45146875078991648422e+01) (11, -1.01564720259600900221e+01) (12, -9.01358366885058970297e+00) (13, -3.48820445042873306107e+00) (14, -3.17687332925569743125e+00) (15, 1.10195476677388253250e+01) 
