FANN_FLO_2.1
num_layers=3
learning_rate=0.700000
connection_rate=1.000000
network_type=0
learning_momentum=0.000000
training_algorithm=2
train_error_function=1
train_stop_function=0
cascade_output_change_fraction=0.010000
quickprop_decay=-0.000100
quickprop_mu=1.750000
rprop_increase_factor=1.200000
rprop_decrease_factor=0.500000
rprop_delta_min=0.000000
rprop_delta_max=50.000000
rprop_delta_zero=0.100000
cascade_output_stagnation_epochs=12
cascade_candidate_change_fraction=0.010000
cascade_candidate_stagnation_epochs=12
cascade_max_out_epochs=150
cascade_max_cand_epochs=150
cascade_num_candidate_groups=2
bit_fail_limit=3.49999999999999977796e-01
cascade_candidate_limit=1.00000000000000000000e+03
cascade_weight_multiplier=4.00000000000000022204e-01
cascade_activation_functions_count=10
cascade_activation_functions=3 5 7 8 10 11 14 15 16 17 
cascade_activation_steepnesses_count=4
cascade_activation_steepnesses=2.50000000000000000000e-01 5.00000000000000000000e-01 7.50000000000000000000e-01 1.00000000000000000000e+00 
layer_sizes=39 11 2 
scale_included=0
neurons (num_inputs, activation_function, activation_steepness)=(0, 0, 0.00000000000000000000e+00) (0, 0, 0.00000000000000000000e+00) (0, 0, 0.00000000000000000000e+00) (0, 0, 0.00000000000000000000e+00) (0, 0, 0.00000000000000000000e+00) (0, 0, 0.00000000000000000000e+00) (0, 0, 0.00000000000000000000e+00) (0, 0, 0.00000000000000000000e+00) (0, 0, 0.00000000000000000000e+00) (0, 0, 0.00000000000000000000e+00) (0, 0, 0.00000000000000000000e+00) (0, 0, 0.00000000000000000000e+00) (0, 0, 0.00000000000000000000e+00) (0, 0, 0.00000000000000000000e+00) (0, 0, 0.00000000000000000000e+00) (0, 0, 0.00000000000000000000e+00) (0, 0, 0.00000000000000000000e+00) (0, 0, 0.00000000000000000000e+00) (0, 0, 0.00000000000000000000e+00) (0, 0, 0.00000000000000000000e+00) (0, 0, 0.00000000000000000000e+00) (0, 0, 0.00000000000000000000e+00) (0, 0, 0.00000000000000000000e+00) (0, 0, 0.00000000000000000000e+00) (0, 0, 0.00000000000000000000e+00) (0, 0, 0.00000000000000000000e+00) (0, 0, 0.00000000000000000000e+00) (0, 0, 0.00000000000000000000e+00) (0, 0, 0.00000000000000000000e+00) (0, 0, 0.00000000000000000000e+00) (0, 0, 0.00000000000000000000e+00) (0, 0, 0.00000000000000000000e+00) (0, 0, 0.00000000000000000000e+00) (0, 0, 0.00000000000000000000e+00) (0, 0, 0.00000000000000000000e+00) (0, 0, 0.00000000000000000000e+00) (0, 0, 0.00000000000000000000e+00) (0, 0, 0.00000000000000000000e+00) (0, 0, 0.00000000000000000000e+00) (39, 4, 5.00000000000000000000e-01) (39, 4, 5.00000000000000000000e-01) (39, 4, 5.00000000000000000000e-01) (39, 4, 5.00000000000000000000e-01) (39, 4, 5.00000000000000000000e-01) (39, 4, 5.00000000000000000000e-01) (39, 4, 5.00000000000000000000e-01) (39, 4, 5.00000000000000000000e-01) (39, 4, 5.00000000000000000000e-01) (39, 4, 5.00000000000000000000e-01) (0, 0, 0.00000000000000000000e+00) (11, 6, 5.00000000000000000000e-01) (0, 6, 0.00000000000000000000e+00) 
connections (connected_to_neuron, weight)=(0, 7.18413246443158959309e-01) (1, -2.64827897505346965268e-01) (2, 1.30770075281190201189e+00) (3, 9.66433121907560988006e+00) (4, -1.22809357820746223311e+00) (5, -4.26265503474147211538e-01) (6, -1.00184781535759548365e-01) (7, -1.50709457504414723328e-01) (8, -8.27392772620987038135e-02) (9, -6.06463357307909234351e-02) (10, -1.35711862747368600113e-01) (11, 7.48288160947139114471e-03) (12, -3.63722919618243755238e-03) (13, 3.93179771781210843362e-02) (14, 1.15984381085044940818e-01) (15, 6.51537140951088833418e-01) (16, 1.05807203906751023936e+00) (17, 9.23318960013766454331e-01) (18, -1.02443445636836849566e+00) (19, 3.68932325670898952907e-01) (20, 1.57654265510082970680e-02) (21, -8.35137368899763338215e-02) (22, -2.43886466340639991579e-02) (23, -8.75108510177905363214e-01) (24, -1.54807577457343947813e+00) (25, -4.61025119219728729547e+00) (26, -8.92190213688008548765e-01) (27, -1.13797846910658972952e+00) (28, -5.63586381836711836080e-01) (29, -6.77102551516218453820e-01) (30, -9.68818140379176129251e-01) (31, -9.02694805178627102116e-02) (32, -5.15159080522332793461e-02) (33, -5.73355976431703218132e-01) (34, 7.23777963399880285011e-03) (35, 1.30295466183899777413e+00) (36, 1.98932011864625779562e-01) (37, 9.27796683904618113559e+00) (38, 4.64910247309280932893e-01) (0, 1.03103471588879491705e+00) (1, 1.93402511845194391427e+00) (2, 8.32414310009715441296e-01) (3, 2.05949448756572017771e+00) (4, 4.28325982922134063102e+00) (5, 1.02115478292447470210e+01) (6, 1.53406286415063117801e+01) (7, 2.36077337787158541005e+01) (8, 6.84068888311988132500e+01) (9, 2.03583067838357330004e+01) (10, 4.22391675584281411915e+00) (11, -5.30574374154561614891e-02) (12, 3.20353379490010992114e+00) (13, 4.48224063327676525148e+00) (14, 2.58670465252990888771e+00) (15, 3.29477759368273970253e+00) (16, 2.02711875889701920173e+00) (17, 2.18439122564224152967e+00) (18, 2.52599741540395115180e+01) (19, 5.71081373540176340242e+00) (20, 4.92596449535141900355e+00) (21, 1.00474241579168506178e+01) (22, 8.41522701931814687271e+00) (23, 4.75217460413577086342e+00) (24, 1.35418324787180086588e+01) (25, 1.36208538431684633707e+01) (26, 1.36055645067255159830e+01) (27, 6.01820515730780325470e+00) (28, 1.15112274427244853925e+00) (29, 4.55409245041126720110e+00) (30, 6.52937713694181276480e+00) (31, 4.64318376602292526290e-01) (32, 1.32539838588861913493e+00) (33, 1.37362638752113808138e+00) (34, 4.01021069374024430321e-01) (35, 1.02028637824261370071e+00) (36, 6.32826974949398124437e+00) (37, 1.45814015930590779035e+00) (38, 2.47906640523974797219e+00) (0, 2.14134316339979458022e+00) (1, -1.55789813156616996359e+00) (2, 5.35016291649394393204e+00) (3, 5.15985557521663729119e+00) (4, -5.27709946008608987711e-01) (5, -8.17815983365954290996e-01) (6, -1.31189617203706532234e-01) (7, -7.85393397346497434963e-02) (8, -1.57847408894135898816e-01) (9, 2.01543386683482837751e-02) (10, 1.10452325355365532644e-01) (11, 1.76723657735961492410e-01) (12, 8.81652091329672253639e-03) (13, 9.17000375226850322763e-02) (14, 4.47425083056944353221e-02) (15, 8.33238456246214842515e-01) (16, 6.47893701232684082747e-01) (17, 7.37158408610680715434e-01) (18, 8.11845228514409544829e-01) (19, 3.76535363102316389394e-01) (20, 2.49335029489078041642e-01) (21, 2.11715323598766047564e-01) (22, -5.98044166028262713652e-01) (23, -8.80882364196487577246e-01) (24, -1.68315585099553088888e+00) (25, -6.36578899989655422331e+00) (26, -8.17243867836694559692e-01) (27, -9.84381340136060489776e-01) (28, -6.39731507910712871023e-01) (29, -1.31364898926311823857e+00) (30, -1.34059608676117303361e+00) (31, -5.55719276684809235234e-02) (32, -6.45087727663327670236e-01) (33, -7.63788738982032033853e-01) (34, 1.95016944544674150630e-02) (35, 2.65791776147484781756e-01) (36, 7.83139057446701480902e-02) (37, 4.71836973185148345067e+00) (38, 6.36598106929753937422e-01) (0, 1.93419709533158257209e+00) (1, -9.33119830518339132830e-02) (2, -1.67348049774703144799e+00) (3, -3.25888194390638608056e+00) (4, -9.05225574009542199860e+00) (5, -9.82209464268058551895e-01) (6, -4.83107773809472063054e-01) (7, -4.50401360499079805866e-01) (8, -5.50718774357819573773e-01) (9, -1.90522271804577786325e-01) (10, 2.92516849617632870850e-02) (11, 1.22696791406724028950e-01) (12, 1.37897831070721094138e-01) (13, -6.70082255579564859543e-03) (14, -2.87374129555556856452e-01) (15, 7.35878641715615677832e-01) (16, 9.87772092615182173425e-01) (17, 8.84624881747012592470e-01) (18, 4.72122634475680633126e-02) (19, 3.76190673322262247869e-01) (20, 4.61782076173071660830e-03) (21, -5.86115413649435507137e-02) (22, 1.63247976131811300959e-01) (23, -4.77353092762240749369e-01) (24, -1.48078358320800762549e+00) (25, -1.71490617386766097674e+00) (26, -8.40180834211267435485e-01) (27, -6.60674823570067348832e-01) (28, -8.03466431377185541507e-01) (29, -9.07399667344786164946e-01) (30, -1.37541336731982433150e+00) (31, 1.58694972469485356958e-01) (32, -1.61449512588213967001e-01) (33, -6.42246067940400844343e-01) (34, 1.00932605920745297606e-02) (35, 8.76075745958316276507e-01) (36, 2.26492097290263788567e-01) (37, 6.38864653870999266161e+00) (38, 9.47422144404606036971e-01) (0, 3.00857340458360100754e+00) (1, 2.36839868851609347544e+00) (2, 1.01946737659597674863e+00) (3, 2.38981122942444512702e+00) (4, 4.59876174721417640967e+00) (5, 4.90680694605677736320e+00) (6, 1.57064048128721331921e+01) (7, 2.41858942261737261958e+01) (8, 6.88305279400150453739e+01) (9, 2.07717359150251645872e+01) (10, 4.80819032272407564932e+00) (11, 4.65851776107061577026e-01) (12, 3.58998521193839659205e+00) (13, 5.01517761368265713173e+00) (14, 3.14149828364590488761e+00) (15, 1.53537139815484842131e+01) (16, 2.94172920402875925916e+00) (17, 5.57889946550237425527e+00) (18, 6.00529396603201419680e+01) (19, 1.31437148735849511638e+01) (20, 1.11269665950711473812e+01) (21, 4.48858180716114762987e+00) (22, 4.06139347909691128535e+00) (23, 4.95556180953266700584e+00) (24, 1.37791596044807160837e+01) (25, 1.37614140202312178474e+01) (26, 1.38044654791264260751e+01) (27, 6.15522787320894426699e+00) (28, 1.28615655748556356741e+00) (29, 4.74739571965332007863e+00) (30, 6.72994966200080213525e+00) (31, 9.79354217988407049766e-01) (32, 1.62677739680914879017e+00) (33, 1.54196123381387706353e+00) (34, 1.09032421025310344298e+00) (35, 8.94858468213858726514e-01) (36, 6.53112908372645772914e+00) (37, 1.70443579281073454013e+00) (38, 5.35663700396382402857e+00) (0, 2.63545547544326064227e+00) (1, 2.94194042083689000222e+00) (2, 1.12323046917275082279e+00) (3, 2.57541950120139206959e+00) (4, 4.71017585963238349933e+00) (5, 1.11639192991487856688e+01) (6, 1.56809977941298548387e+01) (7, 2.46114565425413651667e+01) (8, 6.93682909039752360059e+01) (9, 2.12830972623524061760e+01) (10, 5.34569349984000474763e+00) (11, 9.56086584919213833267e-01) (12, 4.10564727653005245855e+00) (13, 5.40330452509395442462e+00) (14, 3.73738678076963326546e+00) (15, 1.49021663162111508427e+01) (16, 2.28484815112359607170e+00) (17, 4.88906367132786101593e+00) (18, 5.85111824143357779349e+01) (19, 1.26927111937634489180e+01) (20, 1.08256304241498106933e+01) (21, 1.08489925237778841449e+01) (22, 9.41955824598397661873e+00) (23, 5.13779268842154479557e+00) (24, 1.40025058939955275861e+01) (25, 1.40180639877817672101e+01) (26, 1.39177922449908297864e+01) (27, 6.49507252127144418807e+00) (28, 1.55050002436281819662e+00) (29, 4.86766760755108229830e+00) (30, 6.84286407175678057513e+00) (31, 1.10916124717540265365e+00) (32, 1.88200953377326407612e+00) (33, 1.77589644493523013402e+00) (34, 6.60520606859750447626e-01) (35, 1.34823056734954566105e-01) (36, 1.46432911798332163755e+01) (37, 1.44123600382129235520e-01) (38, 4.90619796639286231965e+00) (0, 8.40824273497690288792e-01) (1, -1.26825473162469615218e-01) (2, -1.65748221620854496727e+00) (3, -3.28341485573124591824e+00) (4, -8.90563071013261087217e+00) (5, -8.59549688744360551595e-01) (6, -5.36400964705982752356e-01) (7, -3.11231786715205571703e-01) (8, -5.54940102199320883791e-01) (9, -1.52315985076195675729e-01) (10, -4.49132665797828678489e-02) (11, 1.88490254266322765364e-01) (12, 1.52889582723220868177e-01) (13, 1.85945096038879591205e-02) (14, 6.85103622417219670915e-02) (15, 5.06258408541202409303e-01) (16, 9.31054916624838635464e-01) (17, 8.62744583237271434051e-01) (18, 1.38595143691261746266e-01) (19, 2.11873683840813259449e-01) (20, 1.56690946444489831446e-01) (21, 6.96878061900579603982e-02) (22, 1.93652832554049511571e-02) (23, -6.98593243782783202001e-01) (24, -1.30746810081032882600e+00) (25, -2.68086279973694496803e+00) (26, -7.30939019529116440488e-01) (27, -6.05085263906944614831e-01) (28, -4.98077961059667173593e-01) (29, -6.00339882277094338825e-01) (30, -5.76182428769202448215e-01) (31, 8.99399675403612930413e-02) (32, -5.00444595396622379790e-02) (33, -2.68206788253708583447e-01) (34, 9.39730152632955173519e-02) (35, 8.43521266103807065839e-01) (36, 2.21772404598978317702e-01) (37, 2.43350983270914298373e+01) (38, 8.14840053609565906356e-01) (0, 8.43287826804286599902e-01) (1, -3.03986666436348515474e-02) (2, -3.61224324606071478527e+00) (3, -1.19363445224315025683e+01) (4, -3.35841178474456825143e+01) (5, -2.43163927013164649082e+00) (6, -9.77371867243015945981e-01) (7, -5.22241029632071196431e-01) (8, -4.67699288848867744672e-01) (9, -2.15871638478549815465e-01) (10, -9.39711029219816307290e-02) (11, 9.44208524981103747287e-01) (12, 4.87137854089704502858e-01) (13, 2.92719338520320615515e-01) (14, 3.75957206964863788201e-01) (15, 8.65813678332084557532e-01) (16, 1.26438689247167435070e+00) (17, 8.68892122213074102888e-01) (18, 1.77356296379887590220e-01) (19, 5.07821611727931054858e-01) (20, 3.62062157549088381447e-01) (21, 4.92540095406582723037e-01) (22, 3.93280223322547306530e-01) (23, 5.34440339167489342209e-01) (24, -1.08334425102841591659e+00) (25, -7.81853288081680086741e-01) (26, -6.16193774235872959721e-01) (27, -5.45137004102923095061e-01) (28, 5.61092412465249545939e-01) (29, -4.25316560357118567115e-01) (30, -2.49493733048391286289e-01) (31, 4.84782770363157922144e-01) (32, -1.03056558807155529411e-01) (33, -3.26506781581837324246e-01) (34, 2.37741756489830147192e-01) (35, 1.27733733988528541659e+00) (36, 3.91354203011184009764e-01) (37, 9.99870236981022202372e+01) (38, 1.05285458702376688578e+00) (0, 2.97896427202549363145e+00) (1, 2.40047856398530079503e+00) (2, 1.06007155073309200510e+00) (3, 2.37033988209244439460e+00) (4, 4.58865567538438057227e+00) (5, 1.06764458692209505131e+01) (6, 1.57238404902217006054e+01) (7, 2.42694894200962458797e+01) (8, 6.89264508571426546268e+01) (9, 2.08530848557552594968e+01) (10, 4.74912746181795153433e+00) (11, 4.12170029981839936006e-01) (12, 3.54998281002022331165e+00) (13, 5.05312161017170513588e+00) (14, 3.16482740750054203360e+00) (15, 1.53913475309705098937e+01) (16, 2.95228031393877232702e+00) (17, 5.68105690926419981679e+00) (18, 5.99957130024527103274e+01) (19, 1.31756428764192712322e+01) (20, 1.12411562273081049312e+01) (21, 1.05525172904519148886e+01) (22, 3.84505555168272117328e+00) (23, 4.97333364217760642845e+00) (24, 1.38706068907885278207e+01) (25, 1.37632950832156844001e+01) (26, 1.38074219812659944040e+01) (27, 6.17208390283865160342e+00) (28, 1.36360602079342085879e+00) (29, 4.84664374149436927297e+00) (30, 6.64844729146447477319e+00) (31, 1.02719453011170491763e+00) (32, 1.55810529113917350941e+00) (33, 1.50106302996408458306e+00) (34, 9.21701130910256738460e-01) (35, 1.98756202178006424752e+00) (36, 1.49408896254370748835e+01) (37, 1.55024044687252882113e+00) (38, 5.36145401293599199732e+00) (0, 5.59022637829100332851e+00) (1, 4.92378724037319040474e-02) (2, -2.44221033969715617395e-01) (3, -2.97914733615890003904e+00) (4, -2.08994591191317846679e+00) (5, -8.43578535494325931765e-01) (6, -2.57568567105292689501e-01) (7, -3.73960761835589738933e-01) (8, -3.23060118084949721151e-01) (9, -3.93443083685551114881e-02) (10, -5.37197461235977488658e-02) (11, 1.16746426663231997467e-01) (12, 9.96585331334857646435e-03) (13, 1.10325993696169716296e-01) (14, 2.15989387532057097729e-01) (15, 7.45365155104414700560e-01) (16, 1.12089302348036401469e+00) (17, 8.32637108778076506788e-01) (18, -5.85539577866491911529e-01) (19, 7.34895399556292461263e-01) (20, 6.63750048599506259350e-01) (21, 2.97380193356497103674e-02) (22, 8.98728911567219235224e-02) (23, -8.86210258258715133373e-01) (24, -2.83603704830548641880e+00) (25, -5.07399526564576497378e+00) (26, -9.21860030475253000581e-01) (27, -5.94338539378593599949e-01) (28, -2.07698570931493992076e-01) (29, -3.59135379800627818625e-01) (30, -7.93069507900387160593e-02) (31, 2.19006809866495538719e-01) (32, 1.54656115996780502142e-01) (33, -1.05687668824403391277e-01) (34, 2.12226447269808798923e-01) (35, 1.15567913235260490978e+01) (36, 1.09448596837063938381e+00) (37, 9.14682848964809913639e+00) (38, 8.20507904928578057913e-01) (39, -7.10300880084062313813e+00) (40, 1.86118076828404199752e+00) (41, -4.34387160774732361546e+00) (42, -5.47847506003069284475e+00) (43, 1.88105379131718408736e+00) (44, 1.94686598417444955977e+00) (45, -5.52564231192827737260e+00) (46, -1.27566231944995731595e+01) (47, 1.91047609311624300155e+00) (48, -1.65071895726986817010e+01) (49, 1.87854883161469232711e+00) 
