FANN_FLO_2.1
num_layers=3
learning_rate=0.700000
connection_rate=1.000000
network_type=0
learning_momentum=0.000000
training_algorithm=2
train_error_function=1
train_stop_function=0
cascade_output_change_fraction=0.010000
quickprop_decay=-0.000100
quickprop_mu=1.750000
rprop_increase_factor=1.200000
rprop_decrease_factor=0.500000
rprop_delta_min=0.000000
rprop_delta_max=50.000000
rprop_delta_zero=0.100000
cascade_output_stagnation_epochs=12
cascade_candidate_change_fraction=0.010000
cascade_candidate_stagnation_epochs=12
cascade_max_out_epochs=150
cascade_max_cand_epochs=150
cascade_num_candidate_groups=2
bit_fail_limit=3.49999999999999977796e-01
cascade_candidate_limit=1.00000000000000000000e+03
cascade_weight_multiplier=4.00000000000000022204e-01
cascade_activation_functions_count=10
cascade_activation_functions=3 5 7 8 10 11 14 15 16 17 
cascade_activation_steepnesses_count=4
cascade_activation_steepnesses=2.50000000000000000000e-01 5.00000000000000000000e-01 7.50000000000000000000e-01 1.00000000000000000000e+00 
layer_sizes=48 19 2 
scale_included=0
neurons (num_inputs, activation_function, activation_steepness)=(0, 0, 0.00000000000000000000e+00) (0, 0, 0.00000000000000000000e+00) (0, 0, 0.00000000000000000000e+00) (0, 0, 0.00000000000000000000e+00) (0, 0, 0.00000000000000000000e+00) (0, 0, 0.00000000000000000000e+00) (0, 0, 0.00000000000000000000e+00) (0, 0, 0.00000000000000000000e+00) (0, 0, 0.00000000000000000000e+00) (0, 0, 0.00000000000000000000e+00) (0, 0, 0.00000000000000000000e+00) (0, 0, 0.00000000000000000000e+00) (0, 0, 0.00000000000000000000e+00) (0, 0, 0.00000000000000000000e+00) (0, 0, 0.00000000000000000000e+00) (0, 0, 0.00000000000000000000e+00) (0, 0, 0.00000000000000000000e+00) (0, 0, 0.00000000000000000000e+00) (0, 0, 0.00000000000000000000e+00) (0, 0, 0.00000000000000000000e+00) (0, 0, 0.00000000000000000000e+00) (0, 0, 0.00000000000000000000e+00) (0, 0, 0.00000000000000000000e+00) (0, 0, 0.00000000000000000000e+00) (0, 0, 0.00000000000000000000e+00) (0, 0, 0.00000000000000000000e+00) (0, 0, 0.00000000000000000000e+00) (0, 0, 0.00000000000000000000e+00) (0, 0, 0.00000000000000000000e+00) (0, 0, 0.00000000000000000000e+00) (0, 0, 0.00000000000000000000e+00) (0, 0, 0.00000000000000000000e+00) (0, 0, 0.00000000000000000000e+00) (0, 0, 0.00000000000000000000e+00) (0, 0, 0.00000000000000000000e+00) (0, 0, 0.00000000000000000000e+00) (0, 0, 0.00000000000000000000e+00) (0, 0, 0.00000000000000000000e+00) (0, 0, 0.00000000000000000000e+00) (0, 0, 0.00000000000000000000e+00) (0, 0, 0.00000000000000000000e+00) (0, 0, 0.00000000000000000000e+00) (0, 0, 0.00000000000000000000e+00) (0, 0, 0.00000000000000000000e+00) (0, 0, 0.00000000000000000000e+00) (0, 0, 0.00000000000000000000e+00) (0, 0, 0.00000000000000000000e+00) (0, 0, 0.00000000000000000000e+00) (48, 4, 5.00000000000000000000e-01) (48, 4, 5.00000000000000000000e-01) (48, 4, 5.00000000000000000000e-01) (48, 4, 5.00000000000000000000e-01) (48, 4, 5.00000000000000000000e-01) (48, 4, 5.00000000000000000000e-01) (48, 4, 5.00000000000000000000e-01) (48, 4, 5.00000000000000000000e-01) (48, 4, 5.00000000000000000000e-01) (48, 4, 5.00000000000000000000e-01) (48, 4, 5.00000000000000000000e-01) (48, 4, 5.00000000000000000000e-01) (48, 4, 5.00000000000000000000e-01) (48, 4, 5.00000000000000000000e-01) (48, 4, 5.00000000000000000000e-01) (48, 4, 5.00000000000000000000e-01) (48, 4, 5.00000000000000000000e-01) (48, 4, 5.00000000000000000000e-01) (0, 0, 0.00000000000000000000e+00) (19, 6, 5.00000000000000000000e-01) (0, 6, 0.00000000000000000000e+00) 
connections (connected_to_neuron, weight)=(0, 9.65164990556327984095e-01) (1, 1.61200095448457538794e+01) (2, -9.34248355415674525126e-01) (3, -1.78809629840806016965e+00) (4, -3.86044133992554217016e+00) (5, -2.11433430960109847163e+00) (6, -1.83139744648823155071e-01) (7, -3.30685848912283697487e-01) (8, -2.80402715833662219413e-01) (9, -1.68386870582164116517e-01) (10, -2.22537031830752796147e-01) (11, -2.74432328243124412648e-01) (12, -4.73262548129341834025e-02) (13, 2.46194705287968440555e-01) (14, 1.44177249578060495683e-01) (15, 2.00673543405893717306e-01) (16, 1.45658375893932739986e-01) (17, 2.99113811964799025667e-01) (18, 4.45792981651078723537e-01) (19, 9.09207625178623857209e-01) (20, 8.38947852204517618979e-01) (21, -1.50356832602247791897e+00) (22, 4.51534394373624470287e-01) (23, -1.00378247568807896922e-02) (24, 5.76382607270599200966e-01) (25, 3.32804278999331626387e-01) (26, 2.68920978761855056227e-01) (27, 1.54548343358242301626e-01) (28, -1.47651853891544782016e-01) (29, -6.70420004005959357940e-01) (30, -3.26238975910964290605e+00) (31, -5.15826864040245514076e+00) (32, -1.24283474670193716527e+00) (33, -3.21190483000080684306e-01) (34, 1.39876686125111865389e-01) (35, -3.11521869747843460630e-01) (36, -3.52356897335693447504e-02) (37, -2.18388006257699412993e-01) (38, -3.47079796808690832499e-02) (39, -3.39917085233492691221e-02) (40, -1.09306552587736166560e-01) (41, -4.38854774543199280257e-02) (42, 4.29887324513763213751e-01) (43, 2.76191593260164069967e-01) (44, 3.73495160102963130733e-01) (45, 3.52260818772500483576e-01) (46, 1.81685603850285715133e+00) (47, 9.10717185293882236508e-01) (0, 3.79003929194015709569e+00) (1, -4.99333562324456692316e-01) (2, 2.50343371144085580227e+00) (3, 3.88074930865467682128e-01) (4, 1.18955964981703377070e+00) (5, 1.67723294793793686885e+00) (6, 1.95042205377219635132e+00) (7, 2.89092353503479326804e+00) (8, 6.64453608954136054621e+00) (9, 6.65001629852834241774e+00) (10, 1.84570682202333635757e+01) (11, 4.02961863374268673965e+01) (12, 1.84078489546531862686e+01) (13, 2.15144945254493613618e+00) (14, 1.93618779556527642605e+00) (15, 7.01305340444703828595e-01) (16, 8.98588490030998721103e-01) (17, 1.07112357497366295078e+00) (18, 3.96055497949281321013e+00) (19, 2.01232834405476923578e+00) (20, 9.05199517546918457356e+01) (21, 1.47859118824909444356e+02) (22, 2.07454039423039127144e+01) (23, 4.56356751702684988459e+01) (24, 4.08582999984859807086e+00) (25, 3.67635004302169843271e+00) (26, 1.65354795784234864797e+00) (27, 1.56316828334825919100e+00) (28, 1.50721990301903963072e+00) (29, 1.57665744470898849805e+00) (30, 2.95321473415948432262e+00) (31, 2.63412856674508155663e+01) (32, 1.22202836483359522646e+01) (33, 6.59489451054146780251e+00) (34, 1.68151899245834490770e+00) (35, 2.21173351816151697591e+00) (36, 8.14749038275695447453e-01) (37, 2.02233809108141793232e+00) (38, 2.95340070824167000296e+00) (39, 5.18111862361560415735e+00) (40, 5.18864401212220016646e+00) (41, 1.68966893838649090398e+00) (42, 9.04958722504457413471e-01) (43, 2.16999212397131824304e+00) (44, 2.23667473576828879089e+00) (45, 2.08011210086523545826e+00) (46, 5.08312386010686539928e-02) (47, 3.51065806607911090609e+00) (0, 7.18130985226031914870e-01) (1, 5.57364046642879351623e+00) (2, -2.93002837010122474393e-01) (3, 1.63026267561684790053e+00) (4, -4.22721750727503398082e+00) (5, -2.57435316276168579819e+00) (6, -9.13185697449324984554e-01) (7, -4.80091291376428641602e-01) (8, -4.24448995739585166476e-01) (9, -3.05428418103115550952e-01) (10, -1.79782246644049320539e-01) (11, -4.19938757775376980685e-01) (12, 3.31167460608542060796e-02) (13, 1.35269508937526289349e-01) (14, 4.34607640072794287889e-01) (15, 2.80001997647031486416e-01) (16, 4.16004485914202803976e-01) (17, 2.92577141026147902192e-01) (18, 3.98182170937256052490e-01) (19, 6.77183026087048611785e-01) (20, 7.40582978272144254461e-01) (21, -1.62130994690476315512e+00) (22, 6.43548716397627340591e-01) (23, 1.57418074159939913592e-01) (24, 7.39118471132770959997e-01) (25, 3.48191802729173716102e-01) (26, 2.53882616375834369027e-01) (27, 2.83503466418672078753e-01) (28, 1.72485182983569740323e-01) (29, -5.27334673318483937443e-01) (30, -5.01717272176717887788e+00) (31, -4.23952145710226435682e+00) (32, -8.68215109037186794083e-01) (33, -3.10539323224593488693e-01) (34, 1.39197652004415167726e-01) (35, 1.04076394977039146661e-01) (36, 4.84839806032491341115e-02) (37, 4.97483269900230867799e-02) (38, -5.07099508121422237750e-01) (39, 1.00629939466375772916e-01) (40, -1.34014572349349991853e-01) (41, 2.29516743451017801725e-01) (42, 1.03361972780931710147e+00) (43, 5.11334179704182045789e-01) (44, 2.50035286929274402912e-01) (45, 3.17770479422634810618e-01) (46, 7.89655915867152469190e+00) (47, 1.22534415138145869051e+00) (0, 3.57009753875232238585e+00) (1, 2.01476521642728001460e-01) (2, 5.15483088783755061257e+00) (3, 2.57328717512713633919e-01) (4, 1.03909277035376379494e+00) (5, 1.59959477998437260560e+00) (6, 1.71580131350150799641e+00) (7, 6.13388858431834815832e+00) (8, 6.02877788687009452673e+00) (9, 6.06977376931565260065e+00) (10, 1.78789740547599187437e+01) (11, 3.96888884962661236955e+01) (12, 7.89705786779933038844e+00) (13, 1.55600004619005427564e+00) (14, 1.22485099317281731501e+00) (15, 1.23933192907631184454e+00) (16, 1.17362527862259002909e+00) (17, 1.55280716048972800003e+00) (18, 1.35164378631962267541e+00) (19, 1.75343821140993783025e+00) (20, 3.80816469858207398147e+01) (21, 1.47954500323248481664e+02) (22, 9.02616925368901412696e+00) (23, 4.55503806078925066458e+01) (24, 2.01334849172278174123e+00) (25, 1.29085354927267470515e+00) (26, 1.28618208199612737985e+00) (27, 1.38112469737255638691e+00) (28, 1.26892653687883871783e+00) (29, 1.24516478450831891145e+00) (30, 2.70524237464517325336e+00) (31, 2.62254497050002370884e+01) (32, 1.20810891322373787915e+01) (33, 6.62709012698932031782e+00) (34, 1.48321471404878990619e+00) (35, 1.97035003489461302273e+00) (36, 5.61584324439905802073e-01) (37, 1.83769097650047452674e+00) (38, 2.72109038556350713023e+00) (39, 4.90806267752769276314e+00) (40, 5.01962133502242213723e+00) (41, 1.47513141692874527600e+00) (42, 6.20471901949650961328e-01) (43, 1.81502507739285512400e+00) (44, 1.78709620835772486913e+00) (45, 1.88015546249321685579e+00) (46, 4.12732470137229856544e-01) (47, 1.87980929099608928823e+00) (0, 1.02454988513177114307e+00) (1, 8.49527451048574633319e+00) (2, -6.79337941310819926066e-01) (3, -4.74611494005733014490e+00) (4, -4.70318824942347379903e+00) (5, -7.39355477644191871889e+00) (6, -2.97853567646934136448e+00) (7, -1.38265741783058970782e+00) (8, -2.06253398197575099626e-01) (9, -2.11079322466829338856e-01) (10, -7.83990286315477846735e-01) (11, -1.53665697263138545381e+00) (12, -6.47151529207262710131e-01) (13, 1.88480503198132059994e-01) (14, 2.66870047539234656053e-01) (15, 7.01272905567893178880e-02) (16, 9.85957443399519684046e-02) (17, 2.49018154562909904692e-01) (18, 3.12953640215074768705e-01) (19, 9.43206440263211209896e-01) (20, 4.99809678345161323421e-01) (21, -6.71866518442835136682e+00) (22, 3.72235890901567223477e-01) (23, -2.76286724131538652394e-01) (24, 1.22631614052020734840e-01) (25, 1.64125679155857295832e-01) (26, 1.92351013632144102194e-01) (27, 1.59898482928475138554e-01) (28, 2.40621807609126929506e-02) (29, -1.25667699899141038777e+00) (30, -1.46665262491968517722e+00) (31, -2.99829987278233289771e+00) (32, -5.17532786636463737473e-01) (33, 1.88598055348264013673e-03) (34, 3.77972072543848458537e-01) (35, -2.15352544594859585114e-01) (36, 3.31461071805389390077e-02) (37, -3.19324139919668417709e-02) (38, -1.82273851692113832146e-02) (39, 2.16791924525007423386e-01) (40, 6.30254883936828477764e-03) (41, -8.92715686388546869612e-02) (42, 5.70548439561563980327e-01) (43, 5.13271474033804797621e-01) (44, 2.60171557534919495325e-01) (45, 6.17023311344457980887e-01) (46, 2.90032261429417914655e+00) (47, 1.12456888086477158062e+00) (0, 3.52269030671049332426e+00) (1, -7.63975304588421999519e-01) (2, 2.31017780726826416071e+00) (3, 2.86284321053990375994e-01) (4, 1.04295197232281311450e+00) (5, 1.49431248916939773963e+00) (6, 1.79449619589572417766e+00) (7, 2.70183957601686852712e+00) (8, 6.37265815152219250450e+00) (9, 6.26448512164642146161e+00) (10, 1.81470220642273680767e+01) (11, 3.99647447589026185710e+01) (12, 1.81547969089930312236e+01) (13, 1.84537429953491205481e+00) (14, 1.52753908386708991962e+00) (15, 6.50027327598062809599e-01) (16, 7.54667871879639684529e-01) (17, 8.14220881160882981042e-01) (18, 3.56071277210380454648e+00) (19, 1.80279561093749429723e+00) (20, 9.01269448068000116336e+01) (21, 1.47970041756563233548e+02) (22, 2.04018317456842730451e+01) (23, 4.53511564263613564663e+01) (24, 3.81826132679945340342e+00) (25, 3.24439414942873494141e+00) (26, 1.42679652318364991181e+00) (27, 1.38440674984479428211e+00) (28, 1.34616066961709313077e+00) (29, 1.48234379054974829693e+00) (30, 2.83305835376962278360e+00) (31, 2.62629355155198354055e+01) (32, 1.20113863379848861968e+01) (33, 6.43154028969941116145e+00) (34, 1.45143629145605257413e+00) (35, 2.00628659403662812366e+00) (36, 6.18532426110788513540e-01) (37, 1.98638760262857361205e+00) (38, 2.90892788434890503524e+00) (39, 5.07316344067113522698e+00) (40, 5.12730170285116937379e+00) (41, 1.49528932274711023886e+00) (42, 6.61159910958420304894e-01) (43, 2.01573714075009347013e+00) (44, 2.09635933435849208806e+00) (45, 1.95234537707871069756e+00) (46, -4.14724985344680940891e-01) (47, 3.16639880671914264454e+00) (0, 3.34861443174561212999e+00) (1, 1.06439549205601682869e-01) (2, 2.04758349827487906580e+00) (3, 3.62754935609180317879e-01) (4, 8.68264715412902288172e-01) (5, 1.20567155245945278885e+00) (6, 1.61200799483631929121e+00) (7, 5.84949239114609831347e+00) (8, 5.88440786818352812304e+00) (9, 5.80498057150926083381e+00) (10, 1.76843195833369755121e+01) (11, 3.93323840939607194400e+01) (12, 1.75579463817283247806e+01) (13, 1.41275296410989459339e+00) (14, 1.03552991556205298274e+00) (15, 8.43528195165479832696e-01) (16, 3.97686585227249811414e-01) (17, 1.37639895233239295536e+00) (18, 1.27696473080700445557e+00) (19, 2.36016023704241773018e+00) (20, 3.79976840095377426110e+01) (21, 1.47790344684289749466e+02) (22, 8.86639177695493074793e+00) (23, 4.54061824292970328543e+01) (24, 1.84614215844250639798e+00) (25, 1.57704844936929777788e+00) (26, 1.28716802542662844822e+00) (27, 1.12707054654665617122e+00) (28, 1.12265100230250003399e+00) (29, 1.28006450794260584480e+00) (30, 2.46539516599013275311e+00) (31, 2.59755548519684396069e+01) (32, 1.19174846685049757866e+01) (33, 6.48082501950052680684e+00) (34, 1.40090521904063725067e+00) (35, 1.75378128987143955264e+00) (36, 5.67259827210883749160e-01) (37, 1.76945195510367669911e+00) (38, 2.70299857720849123766e+00) (39, 4.85224128549204802852e+00) (40, 4.76946224714975564041e+00) (41, 1.34525827965717970081e+00) (42, 4.91019245644653601346e-01) (43, 1.74418929769003083763e+00) (44, 1.79684910469030434399e+00) (45, 1.64425485245739633200e+00) (46, 4.28966078913399939676e-01) (47, 1.84805317743096031435e+00) (0, 7.41619634623167733878e+00) (1, -8.58880838243210181782e-02) (2, 2.35797938380031402161e+00) (3, 2.97562063715152591570e-01) (4, 1.14413916792896963592e+00) (5, 1.50959794756241927338e+00) (6, 1.87615473285718681318e+00) (7, 2.83097028591049637569e+00) (8, 2.84275957800758805050e+00) (9, 2.78457744409493956894e+00) (10, 7.78689440002550448128e+00) (11, 1.68737601944541317778e+01) (12, 1.82940009166808827956e+01) (13, 8.47562679108965766339e-01) (14, 9.03603963421212963425e-01) (15, 6.54673848636996291717e-01) (16, 7.76319687479959497090e-01) (17, 1.02032297668249594125e+00) (18, 3.70928622761899440263e+00) (19, 3.15732711186983427964e+00) (20, 2.15129784083868230482e+02) (21, 3.53103183236416384716e+02) (22, 4.76310562637992802593e+01) (23, 1.07925553896448249702e+02) (24, 8.39747234011730192549e+00) (25, 1.40621507823383540270e+00) (26, 1.48689617333530388343e+00) (27, 1.59547592393295856183e+00) (28, 1.45065124031837822116e+00) (29, 1.43938759103003843798e+00) (30, 2.90947628789640111435e+00) (31, 2.62713923007289373857e+01) (32, 1.20817620449626552670e+01) (33, 6.47390994221617788185e+00) (34, 1.58932097906564973044e+00) (35, 1.86799962575289879574e+00) (36, 7.94337693034617320365e-01) (37, 2.08862239457014053912e+00) (38, 2.84592178501268211477e+00) (39, 5.05689780247578379857e+00) (40, 5.09584250170115371503e+00) (41, 1.48309230877999742582e+00) (42, 7.01286946166093438926e-01) (43, 2.12704226951035568760e+00) (44, 2.01347299982710925548e+00) (45, 1.91791955590067475512e+00) (46, -6.60333755421517176742e-02) (47, 3.33790423289025062203e+00) (0, 7.93101263365608710743e-01) (1, 6.92256160471943360335e+00) (2, -1.06771049388966199345e+00) (3, -1.64320002956345634360e+00) (4, -3.96664245489985045623e+00) (5, -2.01482566645076843770e+00) (6, -2.29735864492078611931e-01) (7, -2.77877780219599301859e-01) (8, -2.02772515749976955934e-01) (9, -3.02639283919405421841e-01) (10, -1.40444981816225583637e-01) (11, -5.18988310563937363384e-02) (12, -3.68775098054791444779e-02) (13, 1.51026287359491279139e-01) (14, 9.85513950336946303876e-02) (15, 1.53887516555947512220e-01) (16, 1.40957193105942180100e-01) (17, 2.46469749393293496853e-01) (18, 4.75489225911606805397e-01) (19, 9.03134004635473996991e-01) (20, 8.05401825408415872332e-01) (21, -1.61830153026804524075e+00) (22, 4.85544138693018378916e-01) (23, -1.62112999134751273322e-02) (24, 5.29030308176399066689e-01) (25, 3.66892242401602897139e-01) (26, 2.42932981110754953047e-01) (27, 5.18751692850089596298e-02) (28, -6.68595807080226700592e-02) (29, -8.02976709182647740981e-01) (30, -3.44882449226799936426e+00) (31, -5.03624972945799598278e+00) (32, -1.32289185361407324315e+00) (33, -3.94482223989239211281e-01) (34, 2.10543443187204887268e-01) (35, -1.58395200416386536246e-02) (36, -1.90212641048512834385e-02) (37, -1.97228655812377973167e-01) (38, 6.42373041494603974622e-02) (39, 7.47358198529360917561e-02) (40, -2.17448996857687398832e-01) (41, -9.85076576324582647848e-02) (42, 4.90366041415166042938e-01) (43, 5.40642109086166944287e-01) (44, 2.98823213906654450156e-01) (45, 3.98389444999923791890e-01) (46, 3.16346102721889144149e+00) (47, 9.47988621988490764991e-01) (0, 8.11476116178564188530e-01) (1, 7.05432380009797466158e+00) (2, -7.14897021808413857258e-01) (3, 1.45375532237283829756e-02) (4, -4.12575783000045248627e+00) (5, -2.78383392419988417998e+00) (6, -5.12165990416404093288e-01) (7, -1.45999770039781401332e-01) (8, -1.31259478617608699169e-01) (9, -2.55963142576577817877e-01) (10, -1.88939507780363530332e-01) (11, -1.40274481620244334534e-01) (12, -1.57213716210446302624e-01) (13, 1.07478433611392490410e-01) (14, 3.10631760029217107721e-01) (15, 6.95783392809203038443e-02) (16, 1.21170598953822677979e-02) (17, 3.00697541016374469969e-01) (18, 4.36188173222054498268e-01) (19, 9.93910470468661211285e-01) (20, 9.32023179779724264549e-01) (21, -1.56002692216262395242e+00) (22, 4.63430188795058817242e-01) (23, -1.00840612071106214276e-01) (24, 6.19235411335349761330e-01) (25, 2.89961760659406986296e-01) (26, 3.12890268593757625570e-01) (27, -6.16640623062447504332e-02) (28, -1.15804701585771704919e-01) (29, -5.08791134585810489455e-01) (30, -2.35448161612894013572e+00) (31, -4.99532540387263068737e+00) (32, -1.94120763300606835600e+00) (33, -2.62603332682267154308e-01) (34, -4.00724224508567927749e-02) (35, -1.72224551305988710093e-01) (36, -1.00490281494533109652e-01) (37, -1.00286872000593853954e-02) (38, 2.89863370282593835886e-03) (39, 3.00013561084893243258e-01) (40, -4.00423514342280462142e-02) (41, 1.58681978030374148947e-02) (42, 4.48118306451272097046e-01) (43, 2.75187158138150977926e-01) (44, 1.79004438170703938926e-01) (45, 3.85341146342983331685e-01) (46, 1.82987801425854867965e+00) (47, 9.54235144009226377015e-01) (0, 7.80186084828251913414e-01) (1, 7.21777220839380451167e+00) (2, -7.07679524323996389512e-01) (3, -4.53710479721835913125e+00) (4, -4.52848383961139244747e+00) (5, -4.94415967844923898156e+00) (6, -2.57241985057172595219e+00) (7, -1.49896687028523434293e+00) (8, -6.18426835058844326376e-01) (9, -2.03173620859327191956e-01) (10, -4.72708175070874814239e-01) (11, -1.06398705542700033888e+00) (12, 1.54593953611028046835e-02) (13, 7.10333997810564943265e-02) (14, 1.71985141634804661326e-01) (15, 1.50634674196080509123e-01) (16, 1.09849039045090149380e-01) (17, 2.65559188791039013644e-01) (18, 8.32064897901738792507e-02) (19, 9.03117113655084624568e-01) (20, 6.58408047903435766912e-01) (21, -1.07531789499223577877e+01) (22, 4.26287871295461640031e-01) (23, -2.31664114975683621545e-01) (24, 2.24575941406451984328e-01) (25, 3.27605066916019871393e-01) (26, 1.86044052453364472388e-01) (27, 2.64647476585234686652e-01) (28, -1.00443427718042085917e-01) (29, -1.34516134209983739822e+00) (30, -1.55294762789592710739e+00) (31, -3.05367198607305256886e+00) (32, -5.41112739760455707660e-01) (33, -1.75003045102773341357e-01) (34, 2.15348807823433852082e-01) (35, -1.74525984316861032530e-01) (36, 4.31285394870501645470e-02) (37, -3.28004453289634165247e-02) (38, 9.54956762219183463714e-02) (39, 2.78273096880021275634e-01) (40, -1.25806952156527727948e-02) (41, 7.14221294311601917482e-02) (42, 4.58065683206255847004e-01) (43, 4.04988759365658368417e-01) (44, 3.47525709546790073645e-01) (45, 6.63624338109322531309e-01) (46, 3.11230794228860796480e+00) (47, 8.84816745286195804887e-01) (0, 7.52072606971127477493e+00) (1, -6.65721096013030866345e+00) (2, 2.51435419133454018947e+00) (3, 5.04473719854057978118e-01) (4, 1.29153172313360764534e+00) (5, 1.57356808035800010970e+00) (6, 1.87185402590200045125e+00) (7, 2.85236365865244190232e+00) (8, 2.79571559797300661643e+00) (9, 2.87201391808801087535e+00) (10, 7.71006580390801588010e+00) (11, 4.02912062352454327652e+01) (12, 1.85119010289067453812e+01) (13, 2.26265645345617283368e+00) (14, 9.23174529268379506775e-01) (15, 7.67431172942777406476e-01) (16, 8.51274725339645876865e-01) (17, 9.24374145568927274574e-01) (18, 3.95574890797296152556e+00) (19, 3.06404222481449428628e+00) (20, 2.14891844929309286272e+02) (21, 3.53545053994955196686e+02) (22, 4.74152847695362851255e+01) (23, 1.07931051962947336165e+02) (24, 4.31472309982361323932e+00) (25, 1.62001665505445568982e+00) (26, 1.56210278004884539627e+00) (27, 1.57169679159420416781e+00) (28, 1.60657879694995164854e+00) (29, 1.50965452613775474866e+00) (30, 2.89207991149283927257e+00) (31, 2.63681498720065654595e+01) (32, 1.22161233111858553713e+01) (33, 6.54468017521908773659e+00) (34, 1.62478199047303317748e+00) (35, 1.88154524234746012290e+00) (36, 8.60869842078900937565e-01) (37, 2.05157450089458359699e+00) (38, 3.01265257547637688162e+00) (39, 5.20817776888738226404e+00) (40, 5.27802286824469391036e+00) (41, 1.70478630052810009587e+00) (42, 7.62496348277869384624e-01) (43, 2.16342304391655826379e+00) (44, 2.16299909584090199743e+00) (45, 2.13049132498680604542e+00) (46, 1.10388020846704570932e-01) (47, 6.64727138201661116312e+00) (0, 7.00437494015034900485e+00) (1, -7.95646997255271148930e+00) (2, 2.23018940722487446493e+00) (3, 1.80437541110144983314e-01) (4, 9.24905771897047257468e-01) (5, 1.42369092179955725186e+00) (6, 1.72262885275043386990e+00) (7, 2.53724107141262633647e+00) (8, 2.62451954180962232499e+00) (9, 2.53984464831159284515e+00) (10, 7.53619116343719852580e+00) (11, 3.96650255830152005387e+01) (12, 1.78606188714565625730e+01) (13, 1.52886687940004573072e+00) (14, 6.29603357352774728461e-01) (15, 6.05886353015488432483e-01) (16, 5.11872994438569817177e-01) (17, 8.04057463552004025864e-01) (18, 3.39802343030803832846e+00) (19, 2.76825117351092497842e+00) (20, 2.13362505997787081924e+02) (21, 3.52130398527602437753e+02) (22, 4.60168792717852142005e+01) (23, 1.07315590587681739976e+02) (24, 3.82693196286753734014e+00) (25, 1.32890835451155120417e+00) (26, 1.34666392460338713022e+00) (27, 1.23775902965555872903e+00) (28, 1.29343928604413549444e+00) (29, 1.30453403564033032502e+00) (30, 2.60375556509345784661e+00) (31, 2.61345262094095502903e+01) (32, 1.19418245859026352917e+01) (33, 6.42046893316311972910e+00) (34, 1.51540003013460533587e+00) (35, 1.68889845055546916619e+00) (36, 6.35059331407688443250e-01) (37, 1.84124527597423703895e+00) (38, 2.75316108936799963658e+00) (39, 4.85944909944656178169e+00) (40, 4.98380226647135859963e+00) (41, 1.31969806761739327783e+00) (42, 5.83453988830317182845e-01) (43, 1.81378725138690199969e+00) (44, 1.83998827344931736860e+00) (45, 1.90615567909649596956e+00) (46, -5.00103794808980484099e-01) (47, 5.25133384811006997950e+00) (0, 9.20945484289682148038e-01) (1, 7.80114026176338981600e+00) (2, -6.89372106649188798322e-01) (3, -4.58666886062420786629e+00) (4, -4.61996309215079214994e+00) (5, -5.40862623297497613351e+00) (6, -3.33670645675443733325e+00) (7, -1.40534540295506671370e+00) (8, -7.85911711444231664281e-01) (9, -3.51208542171090820627e-01) (10, -3.44597462109784202777e-01) (11, -7.83279135038588480988e-01) (12, 4.36236844144237620458e-02) (13, 5.96951270021009935962e-02) (14, 2.40389295585454965121e-01) (15, 7.29656858285950282728e-02) (16, 1.71078749020203785269e-01) (17, 1.52517427025973817400e-01) (18, 1.88066231906399039531e-01) (19, 8.93434733340449649397e-01) (20, 6.18919690903579677865e-01) (21, -8.93606265867324545127e+00) (22, 5.24332978543712191488e-01) (23, -1.10300766254380944176e+00) (24, 1.80673733452297924362e-01) (25, 2.05970921791837124903e-01) (26, 1.26230176599898297196e-01) (27, 2.35784407766737924561e-01) (28, -1.00179741797190580144e-01) (29, -1.19683642435225401357e+00) (30, -1.44371720380157242403e+00) (31, -2.98930292523038954045e+00) (32, -5.36595722658946505668e-01) (33, -3.31398624134807695540e-01) (34, 2.68556147871132355753e-01) (35, -2.31377080116373617935e-01) (36, 7.29928190208059407551e-02) (37, -5.68008777489797528348e-02) (38, -9.74477363741166197064e-02) (39, 2.47210887169220044912e-01) (40, -6.77001466902413112647e-02) (41, 1.94308068117108434514e-01) (42, 4.70979641601514842364e-01) (43, 5.93668791875314738604e-01) (44, 2.34940561793295032977e-01) (45, 3.19483872442633820565e-01) (46, 1.70217085939157608543e+00) (47, 8.92019390528854705380e-01) (0, 8.06393354486442781592e-01) (1, 7.04356092978623760104e+00) (2, -5.09405739986313443879e-01) (3, -1.87465799494268603453e+00) (4, -4.28895850644164511323e+00) (5, -2.58573243203016023273e+00) (6, -6.26846572526990719609e-01) (7, -3.38819203381901967731e-01) (8, -1.77814651366584419723e-01) (9, -2.63957038470636506933e-01) (10, -2.62520258022583830027e-01) (11, -2.28022988474934545922e-01) (12, -7.91812079773844962327e-02) (13, 7.25639604889064399051e-02) (14, 2.87875208794245607269e-01) (15, 2.51722283518751643872e-01) (16, 6.27558529124878777816e-02) (17, 3.03212387017389173316e-01) (18, 3.15848831760395520885e-01) (19, 8.08699968352782794234e-01) (20, 7.37680644844722066544e-01) (21, -2.62886333213718881296e+00) (22, 5.47724337512789594129e-01) (23, -1.74953932879953838464e-01) (24, 5.27334883858085468056e-01) (25, 2.08430347759912704131e-01) (26, 2.36211678243819195311e-01) (27, 1.56308619472704801723e-01) (28, -1.14797446475603165394e-01) (29, -7.68646326343923269597e-01) (30, -2.77703894539327800217e+00) (31, -4.01952777731093391367e+00) (32, -1.35777627125802879959e+00) (33, -1.89890056850068822403e-01) (34, 2.66037235523460424691e-01) (35, -1.18179981283555987637e-01) (36, -8.53706795446844413089e-02) (37, -5.34471963112542261531e-02) (38, 1.09052937441284747422e-01) (39, 8.73037407407872417808e-02) (40, -2.43467154459043960690e-01) (41, 5.29733643815193180893e-02) (42, 3.94932035545910053997e-01) (43, 3.14351194650525744834e-01) (44, 1.70310710644927504331e-01) (45, 3.80970967060993315201e-01) (46, 2.27543676672595074351e+00) (47, 9.66435709671207621163e-01) (0, 1.41036946572280430523e+00) (1, 3.78367511381314480801e+00) (2, -5.94177210428565166778e-02) (3, 2.40148827702303196974e-01) (4, 4.41354224160542374378e-01) (5, -1.93151312981857475881e-01) (6, 3.88861728972970777107e-01) (7, 3.06839181866190080505e-01) (8, 2.80778151988057722566e-01) (9, 1.90999789074300513336e-01) (10, 1.50914122840448555740e-01) (11, -2.74697899937442618912e-02) (12, 3.25917917346231211795e-01) (13, 2.04072860339035044852e-01) (14, 4.11071484295451872182e-01) (15, 3.97575413790307419237e-01) (16, 2.43240688329987714278e-01) (17, 2.55940034326161858225e-01) (18, 5.66520181506350750666e-01) (19, 1.34716352756182145001e+00) (20, -4.27145004690239105116e+00) (21, 1.26391537594510205977e+00) (22, 2.37088120814471947639e+00) (23, -5.87124989287071041844e+00) (24, 1.02890751042088379741e+00) (25, 6.14716242783324484655e-01) (26, 4.74486727653999684762e-01) (27, 3.07487757346920520529e-01) (28, 6.73770682696542277945e-02) (29, -2.27827955325666042796e+00) (30, -5.92448058963921653230e+00) (31, -7.07816022593121196849e+00) (32, -3.58602153298490389233e+00) (33, -2.93872789267616785214e-01) (34, 3.03025593293832162800e-01) (35, -2.41044605537657774530e-01) (36, -2.16312650737694622816e-01) (37, -4.43074220766406456917e-01) (38, -1.13546030498183769808e+00) (39, 1.03517871202942157716e+00) (40, 2.60171096420944603089e-01) (41, 1.37845386966012894980e-01) (42, 5.58269225492930409871e+00) (43, 1.07733269737982251257e+01) (44, 7.91127540227317460619e-01) (45, 7.88086988980159941498e-01) (46, 7.44709572123185381542e+01) (47, 1.74746225738783622639e+00) (0, 3.76016261275810492748e+00) (1, -2.14688568937602042297e+00) (2, 2.45700673720389062282e+00) (3, 4.86052114624680176025e-01) (4, 1.16530619575767113716e+00) (5, 1.63479001521298439314e+00) (6, 1.85090069848462679403e+00) (7, 2.82955951015724460618e+00) (8, 6.64387004861418883905e+00) (9, 6.72583771311822431471e+00) (10, 1.84868366946334070633e+01) (11, 4.02664909271454476425e+01) (12, 1.84418257106894678543e+01) (13, 2.14977235665489097016e+00) (14, 1.89999962525144128200e+00) (15, 7.68875609552522432111e-01) (16, 7.47844610653156771640e-01) (17, 1.10368350625189193259e+00) (18, 3.94808026378312693083e+00) (19, 1.95847057051236483893e+00) (20, 9.03918817429568832722e+01) (21, 3.52986504187988657577e+02) (22, 2.06671094639470744880e+01) (23, 4.56134233258623709162e+01) (24, 3.96512128840326560919e+00) (25, 3.59151161541845409531e+00) (26, 1.58980445594072183901e+00) (27, 1.61808470243709989767e+00) (28, 1.47460541113909959776e+00) (29, 1.51761498349253876050e+00) (30, 2.87066052045680564220e+00) (31, 2.64787944993690551598e+01) (32, 1.22228324174523539369e+01) (33, 6.66591332558205618142e+00) (34, 1.71700502750730654711e+00) (35, 2.19002883694384609115e+00) (36, 8.43324924316621427067e-01) (37, 2.12284419933561219196e+00) (38, 3.07033200512668358328e+00) (39, 5.20902846127877783289e+00) (40, 5.16497153571133438277e+00) (41, 1.63636870669131573308e+00) (42, 9.38631731824221993143e-01) (43, 2.18029638869557285119e+00) (44, 2.18169742308423009192e+00) (45, 2.04213837655960572803e+00) (46, -2.16468716807118122247e+00) (47, 3.50493686954686145540e+00) (0, 1.03017515928525904556e+00) (1, 4.73967359810769561790e+00) (2, -2.75361807546743553310e-01) (3, -1.05454570011954107400e+01) (4, -9.88503033398853325764e+00) (5, -3.99760267329731320274e+01) (6, -2.01848084883146450252e+00) (7, -7.03290084803539494729e-01) (8, -3.93672158734206356634e-01) (9, -1.34422450316101060874e-01) (10, -2.59012157469115156250e-01) (11, -1.96938718213470614904e-01) (12, -1.15412379962344574524e-01) (13, 8.47095093999244985739e-02) (14, 1.42064287965322610940e-01) (15, 1.08434976138201699669e+00) (16, 1.64588928745540735710e-01) (17, 1.41786677588487730617e+00) (18, 1.37705813121646314379e+00) (19, 1.77773689129431167188e+00) (20, 1.39470426252775747678e+00) (21, 8.13262997219588168463e-01) (22, 7.85804642120656815507e-01) (23, 8.61153907711290522720e-01) (24, 7.37147981798427998079e-01) (25, 2.70834739647510369664e-01) (26, 3.51608240160066032320e-01) (27, 1.58553633198971755114e-01) (28, 6.97935185190176193837e-02) (29, 6.76175631573911695149e-01) (30, -1.49879742804258042632e+00) (31, -1.30844383221538862472e+00) (32, -1.27501901805236239618e+00) (33, -3.40556076670093105241e-02) (34, 2.25994346611536833791e-01) (35, 6.88670940935954319778e-03) (36, -3.92287935008467716913e-02) (37, -1.17207721409978829485e-01) (38, -1.88278126367732612234e-01) (39, -5.95775207054452570279e-04) (40, -1.59775357455718608479e-01) (41, -1.70636007479803841758e-01) (42, 5.83930503305771009259e-01) (43, 5.26998456296302930646e-01) (44, 1.17008431540448776254e+00) (45, 2.49314411522538881272e+00) (46, 7.89504467864616188422e+00) (47, 1.14831240842147996872e+00) (48, -2.79856222141630173184e+00) (49, 8.27017051020784488280e-01) (50, -4.88199785692282528515e+00) (51, 7.70014528969450107176e-01) (52, -2.06716413060406400959e+00) (53, 7.78133303711338153441e-01) (54, 7.37818834224863273619e-01) (55, 8.10995903650446048339e-01) (56, -2.68523430911450278202e+00) (57, -2.70418455538897450907e+00) (58, -1.97432033174227261618e+00) (59, 8.23371832111997714598e-01) (60, 7.46465896109266502378e-01) (61, -1.92530210715500404994e+00) (62, -2.65978986289396690523e+00) (63, -1.32673169660987859686e+01) (64, 8.25103496054334750731e-01) (65, -1.66162410050999191924e+01) (66, 4.12038664799378784309e-01) 
