FANN_FLO_2.1
num_layers=3
learning_rate=0.700000
connection_rate=1.000000
network_type=0
learning_momentum=0.000000
training_algorithm=2
train_error_function=1
train_stop_function=0
cascade_output_change_fraction=0.010000
quickprop_decay=-0.000100
quickprop_mu=1.750000
rprop_increase_factor=1.200000
rprop_decrease_factor=0.500000
rprop_delta_min=0.000000
rprop_delta_max=50.000000
rprop_delta_zero=0.100000
cascade_output_stagnation_epochs=12
cascade_candidate_change_fraction=0.010000
cascade_candidate_stagnation_epochs=12
cascade_max_out_epochs=150
cascade_max_cand_epochs=150
cascade_num_candidate_groups=2
bit_fail_limit=3.49999999999999977796e-01
cascade_candidate_limit=1.00000000000000000000e+03
cascade_weight_multiplier=4.00000000000000022204e-01
cascade_activation_functions_count=10
cascade_activation_functions=3 5 7 8 10 11 14 15 16 17 
cascade_activation_steepnesses_count=4
cascade_activation_steepnesses=2.50000000000000000000e-01 5.00000000000000000000e-01 7.50000000000000000000e-01 1.00000000000000000000e+00 
layer_sizes=29 12 2 
scale_included=0
neurons (num_inputs, activation_function, activation_steepness)=(0, 0, 0.00000000000000000000e+00) (0, 0, 0.00000000000000000000e+00) (0, 0, 0.00000000000000000000e+00) (0, 0, 0.00000000000000000000e+00) (0, 0, 0.00000000000000000000e+00) (0, 0, 0.00000000000000000000e+00) (0, 0, 0.00000000000000000000e+00) (0, 0, 0.00000000000000000000e+00) (0, 0, 0.00000000000000000000e+00) (0, 0, 0.00000000000000000000e+00) (0, 0, 0.00000000000000000000e+00) (0, 0, 0.00000000000000000000e+00) (0, 0, 0.00000000000000000000e+00) (0, 0, 0.00000000000000000000e+00) (0, 0, 0.00000000000000000000e+00) (0, 0, 0.00000000000000000000e+00) (0, 0, 0.00000000000000000000e+00) (0, 0, 0.00000000000000000000e+00) (0, 0, 0.00000000000000000000e+00) (0, 0, 0.00000000000000000000e+00) (0, 0, 0.00000000000000000000e+00) (0, 0, 0.00000000000000000000e+00) (0, 0, 0.00000000000000000000e+00) (0, 0, 0.00000000000000000000e+00) (0, 0, 0.00000000000000000000e+00) (0, 0, 0.00000000000000000000e+00) (0, 0, 0.00000000000000000000e+00) (0, 0, 0.00000000000000000000e+00) (0, 0, 0.00000000000000000000e+00) (29, 4, 5.00000000000000000000e-01) (29, 4, 5.00000000000000000000e-01) (29, 4, 5.00000000000000000000e-01) (29, 4, 5.00000000000000000000e-01) (29, 4, 5.00000000000000000000e-01) (29, 4, 5.00000000000000000000e-01) (29, 4, 5.00000000000000000000e-01) (29, 4, 5.00000000000000000000e-01) (29, 4, 5.00000000000000000000e-01) (29, 4, 5.00000000000000000000e-01) (29, 4, 5.00000000000000000000e-01) (0, 0, 0.00000000000000000000e+00) (12, 6, 5.00000000000000000000e-01) (0, 6, 0.00000000000000000000e+00) 
connections (connected_to_neuron, weight)=(0, 5.85788493195941057934e+01) (1, 4.35304518883109068383e+01) (2, 5.34191704335639094836e+00) (3, 1.50000000000000000000e+03) (4, 1.29310548821275597220e+03) (5, 1.49849551725509331845e+03) (6, 1.50000000000000000000e+03) (7, 7.87374032783709498773e+00) (8, 2.26412325064344699399e+00) (9, 4.70099241715842524059e+01) (10, 6.61259268152507502236e+01) (11, 1.63280533627233296556e+02) (12, 3.52839782467349927231e+00) (13, 1.50000000000000000000e+03) (14, 1.50000000000000000000e+03) (15, 9.52071679725500757741e+02) (16, 6.02621680721107679801e+01) (17, 1.50000000000000000000e+03) (18, 1.50000000000000000000e+03) (19, 1.49977702382443567330e+03) (20, 1.50000000000000000000e+03) (21, 1.50000000000000000000e+03) (22, 4.74544097676081335635e+01) (23, 3.42769228542872905763e+00) (24, 2.78459900684449280561e+02) (25, 1.75845156430066773545e+00) (26, 1.50000000000000000000e+03) (27, 8.76852737260137757858e+01) (28, 3.82068232184964839959e+00) (0, 5.89311058064468014095e+01) (1, 4.34309545933681562246e+01) (2, 5.52991901733050195134e+00) (3, 1.50000000000000000000e+03) (4, 1.50000000000000000000e+03) (5, 1.49849551725509331845e+03) (6, 1.50000000000000000000e+03) (7, 8.13849642129912353994e+00) (8, 2.47754323446726543168e+00) (9, 4.71681271573054843316e+01) (10, 6.63953436194051960229e+01) (11, 3.89729725050336355707e+02) (12, 6.41470248599350689744e+00) (13, 1.50000000000000000000e+03) (14, 1.50000000000000000000e+03) (15, 9.52304019818000483610e+02) (16, 6.04437282475715065289e+01) (17, 1.50000000000000000000e+03) (18, 1.50000000000000000000e+03) (19, 1.49977702382443567330e+03) (20, 1.50000000000000000000e+03) (21, 1.50000000000000000000e+03) (22, 4.73609382228802786585e+01) (23, 3.44345580017081376312e+00) (24, 2.78598790746974998456e+02) (25, 1.77087712336183988882e+00) (26, 1.50000000000000000000e+03) (27, 8.93809292695469537193e+01) (28, 6.90656532707727066622e+00) (0, -5.42298940394551109989e+01) (1, -6.75339895853067684328e+00) (2, -1.38244891864926220393e+01) (3, -1.14106836418757975338e+01) (4, -2.57387156907371927872e+00) (5, -2.05734046272220272300e+00) (6, -1.95936071789182655323e+01) (7, -4.06729876786082134021e-01) (8, -1.73984018697335984793e-01) (9, 2.70816666598236110985e-01) (10, 3.24554879431725806782e+00) (11, 2.72038158406146912682e+00) (12, 3.13494439145041781103e+00) (13, 9.63174264794212087182e-01) (14, 6.69321583048804957805e-01) (15, 1.47087762857876969136e+00) (16, 7.01997769098712143254e-01) (17, -2.24024294118397193643e+00) (18, -5.87657942281394074513e+00) (19, -1.52493779972975285197e+00) (20, 5.60816834618125972887e-05) (21, 5.21008242642867713812e+00) (22, -2.18941109622195106965e+00) (23, 1.16820986751401151293e-01) (24, 1.73090860720887307345e-01) (25, 1.60667316217776026122e+01) (26, 3.29642534347465598898e-01) (27, 6.65518694077354098226e+01) (28, 2.62405064404245447207e+00) (0, 1.39757578725696134825e+02) (1, 7.43637681927327065523e+01) (2, 5.61930239050125202027e+00) (3, 1.50000000000000000000e+03) (4, 1.50000000000000000000e+03) (5, 1.49849551725509331845e+03) (6, 1.50000000000000000000e+03) (7, 1.78452885376284733354e+01) (8, 4.18681268192881272938e+00) (9, 1.12337564868523003270e+02) (10, 1.57507886843379623087e+02) (11, 7.93860061139782601458e+02) (12, 1.31329898806649776333e+01) (13, 1.50000000000000000000e+03) (14, 1.50000000000000000000e+03) (15, 1.41295431115374458386e+03) (16, 3.45757149151789235475e+02) (17, 1.50000000000000000000e+03) (18, 1.50000000000000000000e+03) (19, 1.49977702382443567330e+03) (20, 1.50000000000000000000e+03) (21, 1.50000000000000000000e+03) (22, 4.75012962968212590908e+01) (23, 4.08607392208050690385e+00) (24, 2.78686654406765228487e+02) (25, 3.66083086558524506415e+00) (26, 1.50000000000000000000e+03) (27, 9.29911945057946667248e+01) (28, 1.38085686225535173577e+01) (0, 7.66631651128527469297e+00) (1, -4.76066103069237112067e+00) (2, -1.57509683118439980376e+00) (3, -2.24098104041068024728e+00) (4, -1.56828857389045484005e+00) (5, -9.67197088583655051330e-01) (6, -5.36341794046632980297e+00) (7, -4.70710995769576978631e-01) (8, -7.56839955736784628093e-03) (9, 2.40380824149893819464e-02) (10, 2.96718219468793575899e+00) (11, 2.64815824044267156268e+00) (12, 3.00933460858433488028e+00) (13, 6.38660189357851626468e-01) (14, -9.52495862487359040705e-02) (15, 1.47709135201527974601e+00) (16, 6.86602658450582126193e+00) (17, -2.77568725365529100912e+00) (18, -7.79108026342594772728e+00) (19, -2.39719292954883389513e+00) (20, -7.23506087515023432744e-01) (21, -6.81944329102504354090e-01) (22, -7.00617793188978765784e-01) (23, -2.05468055970328911108e-01) (24, -4.03115163164187784162e+00) (25, 8.54779113101255094698e-01) (26, -4.24108946807499354037e+00) (27, 2.06788984070402248605e+00) (28, 2.49603119229510550525e+00) (0, 5.90888774912417957808e+01) (1, 4.34904632811427092065e+01) (2, 5.35956081914732074267e+00) (3, 1.50000000000000000000e+03) (4, 1.29319530277138119345e+03) (5, 1.49849551725509331845e+03) (6, 1.50000000000000000000e+03) (7, 7.98579673218928309808e+00) (8, 2.26312472383184726255e+00) (9, 4.71123622116619387157e+01) (10, 6.61310671496185022988e+01) (11, 1.63157953940889626665e+02) (12, 3.40624316415056149765e+00) (13, 1.50000000000000000000e+03) (14, 1.50000000000000000000e+03) (15, 4.87560174581091132495e+02) (16, 6.03958362311459353577e+01) (17, 1.50000000000000000000e+03) (18, 1.50000000000000000000e+03) (19, 1.49977702382443567330e+03) (20, 1.50000000000000000000e+03) (21, 1.50000000000000000000e+03) (22, 4.74570880278153097720e+01) (23, 3.44280626873203754457e+00) (24, 2.78459085911306942762e+02) (25, 1.71429681598008820664e+00) (26, 1.50000000000000000000e+03) (27, 8.76958293807779512008e+01) (28, 3.87011333293038983783e+00) (0, 1.39908580972840439927e+02) (1, 4.32297872512096219566e+01) (2, 5.30070283436188294246e+00) (3, 1.50000000000000000000e+03) (4, 1.29321072244311267241e+03) (5, 1.49849551725509331845e+03) (6, 1.50000000000000000000e+03) (7, 8.26838934423699356557e+00) (8, 2.43761159443831187943e+00) (9, 4.71452093651044421563e+01) (10, 2.77261617507953772588e+01) (11, 3.89592231454855436823e+02) (12, 1.30848533558088870876e+01) (13, 1.50000000000000000000e+03) (14, 1.50000000000000000000e+03) (15, 4.87773452668366758189e+02) (16, 1.43860665795740544581e+02) (17, 1.50000000000000000000e+03) (18, 1.50000000000000000000e+03) (19, 1.49977702382443567330e+03) (20, 1.50000000000000000000e+03) (21, 1.50000000000000000000e+03) (22, 4.76269802742333894230e+01) (23, 3.31989398457579021340e+00) (24, 2.78814709218666223478e+02) (25, 7.31158037577242070348e-01) (26, 1.50000000000000000000e+03) (27, 8.94182651943511643822e+01) (28, 6.89032456639325729952e+00) (0, 5.86160943324138727917e+01) (1, 4.33056241205835164010e+01) (2, 5.57034303185174195505e+00) (3, 1.50000000000000000000e+03) (4, 1.50000000000000000000e+03) (5, 1.49849551725509331845e+03) (6, 1.50000000000000000000e+03) (7, 8.03420664864979627851e+00) (8, 2.11965037594242433627e+00) (9, 1.12861975243076074094e+02) (10, 6.60013932588490206399e+01) (11, 1.63223643534443169756e+02) (12, 3.48901686450704495712e+00) (13, 1.50000000000000000000e+03) (14, 1.50000000000000000000e+03) (15, 9.51966499059650118397e+02) (16, 1.44400651689262446098e+02) (17, 1.50000000000000000000e+03) (18, 1.50000000000000000000e+03) (19, 1.49977702382443567330e+03) (20, 1.50000000000000000000e+03) (21, 1.50000000000000000000e+03) (22, 4.76979027148044778528e+01) (23, 4.00623023563746638587e+00) (24, 2.78693339721330630709e+02) (25, 1.69039793132604287962e+00) (26, 1.50000000000000000000e+03) (27, 8.71313127960944058259e+01) (28, 3.78024805820304576898e+00) (0, 5.87578954663448413953e+01) (1, 4.28899166770741686605e+01) (2, 1.19085833132752743069e+01) (3, 1.50000000000000000000e+03) (4, 1.29264009464665195992e+03) (5, 1.49849551725509331845e+03) (6, 1.50000000000000000000e+03) (7, 7.65888181160212599963e+00) (8, 7.75272225734276232423e-01) (9, 1.98100537015024045218e+01) (10, 2.75108876554416355020e+01) (11, 1.62792139047267625074e+02) (12, 3.67902238407667869780e+00) (13, 1.50000000000000000000e+03) (14, 1.50000000000000000000e+03) (15, 4.87507105781794280119e+02) (16, 3.44292030354464486663e+02) (17, 1.50000000000000000000e+03) (18, 1.50000000000000000000e+03) (19, 1.49977702382443567330e+03) (20, 1.50000000000000000000e+03) (21, 1.50000000000000000000e+03) (22, 4.73200279916285566628e+01) (23, 3.76314491528679662125e+00) (24, 2.78615284285205632386e+02) (25, 1.12739805133853709940e+00) (26, 1.50000000000000000000e+03) (27, 8.74175478568163129012e+01) (28, 3.50956994114753584313e+00) (0, 1.11180278592656028858e-01) (1, 1.28202035328566132932e+00) (2, -7.02952588237502395963e-01) (3, -1.82890769517277473888e+00) (4, -1.47789633796884811723e+00) (5, -2.03523146796671694503e+00) (6, -1.74668019317556955095e+00) (7, -4.00621176415203894550e-01) (8, 2.35059866624877759900e-02) (9, 4.86526928022809612706e-02) (10, 1.35117629131210748028e+00) (11, 2.46437631776615173607e+00) (12, 2.68982708390321745284e+00) (13, 1.52737898036564567761e+00) (14, -1.15103182459643342550e-02) (15, 3.78178529763140203190e-01) (16, 1.89692241306629716391e+00) (17, -2.51340798078252136705e+00) (18, -9.70209833445612801484e+00) (19, -6.67095767356427948869e-01) (20, -3.54386315341168392501e-02) (21, 5.99020803254088907153e-01) (22, -2.96002298652135431567e+00) (23, 1.28477151059936474560e-03) (24, -1.32069393366811921320e-01) (25, 2.90495723079199086314e+00) (26, 6.40107062059452669445e-01) (27, 1.02406794762603556848e+01) (28, 2.68070600580410189906e+00) (0, 5.82683284367603064879e+01) (1, 4.31361872026130725999e+01) (2, 5.21042425226015915030e+00) (3, 1.50000000000000000000e+03) (4, 1.50000000000000000000e+03) (5, 1.49849551725509331845e+03) (6, 1.50000000000000000000e+03) (7, 7.60681186820388877123e+00) (8, 1.94025034995994660747e+00) (9, 4.69199456653968027808e+01) (10, 6.57390485267842166195e+01) (11, 1.62945669674756715040e+02) (12, 3.05925240082525373708e+00) (13, 1.50000000000000000000e+03) (14, 1.50000000000000000000e+03) (15, 9.51674821354522237016e+02) (16, 1.44090016899875195122e+02) (17, 1.50000000000000000000e+03) (18, 1.50000000000000000000e+03) (19, 1.49977702382443567330e+03) (20, 1.50000000000000000000e+03) (21, 1.50000000000000000000e+03) (22, 4.76835232532987660647e+01) (23, 3.50634892046609047966e+00) (24, 2.78393130662435794420e+02) (25, 1.51247748799001202613e+00) (26, 1.50000000000000000000e+03) (27, 8.73767505412783833663e+01) (28, 3.54863899765846113610e+00) (29, 1.01886844328759562650e+00) (30, 1.02379886127231989335e+00) (31, -1.15231112537143118857e+01) (32, 1.05671375311134774222e+00) (33, -8.01031247137940916048e+00) (34, 1.00139313257454287687e+00) (35, 1.04406460440872561612e+00) (36, 1.00224824316023242154e+00) (37, 9.86930512554630046118e-01) (38, -9.18099295325397157796e+00) (39, 9.85754118032439952124e-01) (40, 1.07351342654941928068e+00) 
