FANN_FLO_2.1
num_layers=3
learning_rate=0.700000
connection_rate=1.000000
network_type=0
learning_momentum=0.000000
training_algorithm=2
train_error_function=1
train_stop_function=0
cascade_output_change_fraction=0.010000
quickprop_decay=-0.000100
quickprop_mu=1.750000
rprop_increase_factor=1.200000
rprop_decrease_factor=0.500000
rprop_delta_min=0.000000
rprop_delta_max=50.000000
rprop_delta_zero=0.100000
cascade_output_stagnation_epochs=12
cascade_candidate_change_fraction=0.010000
cascade_candidate_stagnation_epochs=12
cascade_max_out_epochs=150
cascade_max_cand_epochs=150
cascade_num_candidate_groups=2
bit_fail_limit=3.49999999999999977796e-01
cascade_candidate_limit=1.00000000000000000000e+03
cascade_weight_multiplier=4.00000000000000022204e-01
cascade_activation_functions_count=10
cascade_activation_functions=3 5 7 8 10 11 14 15 16 17 
cascade_activation_steepnesses_count=4
cascade_activation_steepnesses=2.50000000000000000000e-01 5.00000000000000000000e-01 7.50000000000000000000e-01 1.00000000000000000000e+00 
layer_sizes=13 8 2 
scale_included=0
neurons (num_inputs, activation_function, activation_steepness)=(0, 0, 0.00000000000000000000e+00) (0, 0, 0.00000000000000000000e+00) (0, 0, 0.00000000000000000000e+00) (0, 0, 0.00000000000000000000e+00) (0, 0, 0.00000000000000000000e+00) (0, 0, 0.00000000000000000000e+00) (0, 0, 0.00000000000000000000e+00) (0, 0, 0.00000000000000000000e+00) (0, 0, 0.00000000000000000000e+00) (0, 0, 0.00000000000000000000e+00) (0, 0, 0.00000000000000000000e+00) (0, 0, 0.00000000000000000000e+00) (0, 0, 0.00000000000000000000e+00) (13, 4, 5.00000000000000000000e-01) (13, 4, 5.00000000000000000000e-01) (13, 4, 5.00000000000000000000e-01) (13, 4, 5.00000000000000000000e-01) (13, 4, 5.00000000000000000000e-01) (13, 4, 5.00000000000000000000e-01) (13, 4, 5.00000000000000000000e-01) (0, 0, 0.00000000000000000000e+00) (8, 6, 5.00000000000000000000e-01) (0, 6, 0.00000000000000000000e+00) 
connections (connected_to_neuron, weight)=(0, -7.04404678616523369783e+01) (1, -2.32056855697391455351e+01) (2, 4.87752372134510392421e-01) (3, 5.75008214285261720633e-01) (4, 3.34550907395272467681e+00) (5, 1.88356335545959296951e+00) (6, 2.10638933924433846556e+00) (7, -3.17021472055613395824e+00) (8, 8.05694325549390799601e-01) (9, 8.11255247539522383882e-02) (10, 1.28653126490990388220e+00) (11, 3.22314296869447058924e+00) (12, 1.85142766244324064040e+00) (0, -5.19254552977112870948e-01) (1, -4.74709053350249554626e+00) (2, -2.47858842771764842361e-01) (3, 7.98156003707066852293e-01) (4, 7.08721228913563927598e-01) (5, 1.42602045296783774830e+00) (6, 1.62532958663189375237e+00) (7, -1.44732187165228918246e+01) (8, -1.16877109373495824407e+00) (9, -2.71348848619463423049e+00) (10, 1.03307189573297506513e+01) (11, 5.43265303899282514521e+01) (12, 3.12865863638112973177e+00) (0, 4.78226000772678183637e+00) (1, -4.84054341127017107027e+00) (2, -5.96554030567650439565e-01) (3, 7.34653822765932162930e-01) (4, 7.80270553859738758007e-01) (5, 1.76689979586159529035e+00) (6, 1.73176857919644477946e+00) (7, -1.43115481438506648715e+01) (8, -8.67897652902373861750e-01) (9, -1.55510787699055685884e+00) (10, 4.64415166481170427204e+00) (11, 6.59656492273863506171e+01) (12, 3.09712010859658848361e+00) (0, -2.63430320388929288811e+01) (1, -1.02790717634377539724e+01) (2, -1.96132743017937105634e+00) (3, 1.97534750835127836943e+00) (4, 2.49783552248826268283e+00) (5, 6.59153890907704265167e-01) (6, 3.32736288282694880891e+00) (7, -1.09572991071442320532e+01) (8, -2.08780609896061231101e-01) (9, 1.42043785245643920667e-02) (10, 1.04833418855303506234e+01) (11, 1.03976613171634213018e+02) (12, 1.78071076759811597334e+00) (0, -9.34851480736785873660e+01) (1, -2.30900309019120015819e+01) (2, 3.75995865560759645607e-01) (3, 5.04625207915371021272e-01) (4, 3.25198928625675520721e+00) (5, 2.01513638087330315685e+00) (6, 1.91975372060351934245e+00) (7, -3.77851660559851598720e+00) (8, 7.05735546630046450822e-01) (9, -7.43165077151249492404e-02) (10, 1.02873434033900235107e+00) (11, 3.14390565392559873104e+00) (12, 1.88049867234734024990e+00) (0, -2.59219872264026491848e+01) (1, -1.02394232831768157155e+01) (2, -6.09878208116986675336e-01) (3, 2.00432604522615998022e+00) (4, 3.10974663118310123977e+00) (5, 3.61316918086633964702e-01) (6, 2.10873525290779362251e+00) (7, -8.32780852643888991338e+00) (8, -1.48816556956718870630e+00) (9, -8.05127505840990131958e-01) (10, 1.14129732338786187285e+01) (11, 5.26267444519292624250e+01) (12, 1.73764369870054524725e+00) (0, -7.21057276879348876264e+01) (1, -1.96343343521414652741e+01) (2, 2.22112311761256425724e-01) (3, 2.65046896810202081696e+00) (4, 5.76091322332325983524e+00) (5, 2.64209944675461638752e+00) (6, 2.85766698553584008735e+00) (7, -3.77281649534288199277e+00) (8, 5.52757997230199249472e-01) (9, 9.84176891861790137384e-01) (10, 1.36993194594327349911e+00) (11, 1.90091370873198002300e+01) (12, 2.01210278692918898003e+00) (13, -5.40584203370821914092e+00) (14, -1.00169099701017358939e+01) (15, -8.46305558762039922271e+00) (16, -2.32019044900219295613e+00) (17, -9.48608610631319848494e+00) (18, -2.51701016069537031328e+00) (19, -4.15832426530674670317e+00) (20, 1.05584487916268319196e+01) 
