FANN_FLO_2.1
num_layers=3
learning_rate=0.700000
connection_rate=1.000000
network_type=0
learning_momentum=0.000000
training_algorithm=2
train_error_function=1
train_stop_function=0
cascade_output_change_fraction=0.010000
quickprop_decay=-0.000100
quickprop_mu=1.750000
rprop_increase_factor=1.200000
rprop_decrease_factor=0.500000
rprop_delta_min=0.000000
rprop_delta_max=50.000000
rprop_delta_zero=0.100000
cascade_output_stagnation_epochs=12
cascade_candidate_change_fraction=0.010000
cascade_candidate_stagnation_epochs=12
cascade_max_out_epochs=150
cascade_max_cand_epochs=150
cascade_num_candidate_groups=2
bit_fail_limit=3.49999999999999977796e-01
cascade_candidate_limit=1.00000000000000000000e+03
cascade_weight_multiplier=4.00000000000000022204e-01
cascade_activation_functions_count=10
cascade_activation_functions=3 5 7 8 10 11 14 15 16 17 
cascade_activation_steepnesses_count=4
cascade_activation_steepnesses=2.50000000000000000000e-01 5.00000000000000000000e-01 7.50000000000000000000e-01 1.00000000000000000000e+00 
layer_sizes=19 5 2 
scale_included=0
neurons (num_inputs, activation_function, activation_steepness)=(0, 0, 0.00000000000000000000e+00) (0, 0, 0.00000000000000000000e+00) (0, 0, 0.00000000000000000000e+00) (0, 0, 0.00000000000000000000e+00) (0, 0, 0.00000000000000000000e+00) (0, 0, 0.00000000000000000000e+00) (0, 0, 0.00000000000000000000e+00) (0, 0, 0.00000000000000000000e+00) (0, 0, 0.00000000000000000000e+00) (0, 0, 0.00000000000000000000e+00) (0, 0, 0.00000000000000000000e+00) (0, 0, 0.00000000000000000000e+00) (0, 0, 0.00000000000000000000e+00) (0, 0, 0.00000000000000000000e+00) (0, 0, 0.00000000000000000000e+00) (0, 0, 0.00000000000000000000e+00) (0, 0, 0.00000000000000000000e+00) (0, 0, 0.00000000000000000000e+00) (0, 0, 0.00000000000000000000e+00) (19, 4, 5.00000000000000000000e-01) (19, 4, 5.00000000000000000000e-01) (19, 4, 5.00000000000000000000e-01) (19, 4, 5.00000000000000000000e-01) (0, 0, 0.00000000000000000000e+00) (5, 6, 5.00000000000000000000e-01) (0, 6, 0.00000000000000000000e+00) 
connections (connected_to_neuron, weight)=(0, 3.22131688229768731180e-01) (1, -6.10432383572914545766e+02) (2, -8.97804350823744243826e+01) (3, 1.25888808920862561536e+03) (4, 1.50000000000000000000e+03) (5, 3.26358485956236791026e+02) (6, 4.06628021954009568617e+02) (7, 4.60374648787433038422e+00) (8, 1.49357734831880907223e+03) (9, 1.11827790869217869840e+03) (10, 3.33335121197898676115e+00) (11, 1.49891757065824367601e+03) (12, 1.36152079702376045134e+03) (13, 1.21340887251973231287e+03) (14, 8.21625275286493206295e+00) (15, 1.50000000000000000000e+03) (16, 9.24582561671514202573e-01) (17, 4.41070287046556330779e+00) (18, 9.85892074916880822855e+00) (0, 2.28269742626291893828e+00) (1, -2.58212034792106104319e+00) (2, -8.88310367922094812343e+00) (3, -1.05662023472649657663e+00) (4, -8.02921198232402044681e-01) (5, 4.32185213592052364096e-01) (6, 5.31587790236075163897e-01) (7, 4.48641915256707068949e+00) (8, -3.40158922705276978160e-01) (9, 1.43530628470564036725e+00) (10, 1.98747062350158554267e+00) (11, -8.88273303521947354966e+00) (12, -1.12454144740213868303e+00) (13, 3.86566336420835821031e-01) (14, 2.47127337308778199931e-01) (15, -1.13359505002976090893e+00) (16, 4.16827522187367183193e+00) (17, 1.77008625435836748352e+01) (18, 2.45911145870657188439e+00) (0, -3.94265412084690347605e-01) (1, -1.55624898075601358904e+00) (2, -9.28691753838986855385e+00) (3, -1.15643411890940739362e+00) (4, -4.57145538236208714977e+00) (5, 1.22963666013470729332e+00) (6, 8.34664524927217765793e-01) (7, 4.47078973125989520554e+00) (8, -1.41731973564555358003e+00) (9, 2.91984323957465807808e+00) (10, 2.16452034825035966037e+00) (11, -6.93966252544381134726e+00) (12, -9.36421942049452282752e-01) (13, -9.01964909139472692523e-01) (14, -3.32573383776166631165e-01) (15, -6.17140125477624867933e-01) (16, 7.06991793484081920695e-01) (17, 5.40186609504150361261e+00) (18, 2.47880953124856118208e+00) (0, 1.29650916922597692071e+00) (1, -1.02160155340672997859e+00) (2, -1.09110486084628952597e+01) (3, -1.14816556382316270479e+00) (4, -7.76726833613464839878e-01) (5, 6.91726867069012985034e-01) (6, -4.22895061560948692936e-01) (7, 4.45783147062795759297e+00) (8, -2.76021444638497248647e+00) (9, 1.89274641636699714198e+00) (10, 6.07176346722641913090e+00) (11, -8.20882921036909607437e+00) (12, -1.40777108342683554554e+00) (13, -5.67308654817256896585e-01) (14, 2.70738527301224718435e-01) (15, -8.67087373870940258946e-01) (16, 1.59006323358492318576e+00) (17, 4.83366044977495512569e+00) (18, 2.57039482977124311702e+00) (19, 7.84536702603498792286e+00) (20, -1.52762784307011862950e+01) (21, -1.11791243427823303591e+01) (22, -1.03173708265310590804e+01) (23, 7.94981845885912274952e+00) 
