FANN_FLO_2.1
num_layers=3
learning_rate=0.700000
connection_rate=1.000000
network_type=0
learning_momentum=0.000000
training_algorithm=2
train_error_function=1
train_stop_function=0
cascade_output_change_fraction=0.010000
quickprop_decay=-0.000100
quickprop_mu=1.750000
rprop_increase_factor=1.200000
rprop_decrease_factor=0.500000
rprop_delta_min=0.000000
rprop_delta_max=50.000000
rprop_delta_zero=0.100000
cascade_output_stagnation_epochs=12
cascade_candidate_change_fraction=0.010000
cascade_candidate_stagnation_epochs=12
cascade_max_out_epochs=150
cascade_max_cand_epochs=150
cascade_num_candidate_groups=2
bit_fail_limit=3.49999999999999977796e-01
cascade_candidate_limit=1.00000000000000000000e+03
cascade_weight_multiplier=4.00000000000000022204e-01
cascade_activation_functions_count=10
cascade_activation_functions=3 5 7 8 10 11 14 15 16 17 
cascade_activation_steepnesses_count=4
cascade_activation_steepnesses=2.50000000000000000000e-01 5.00000000000000000000e-01 7.50000000000000000000e-01 1.00000000000000000000e+00 
layer_sizes=32 6 2 
scale_included=0
neurons (num_inputs, activation_function, activation_steepness)=(0, 0, 0.00000000000000000000e+00) (0, 0, 0.00000000000000000000e+00) (0, 0, 0.00000000000000000000e+00) (0, 0, 0.00000000000000000000e+00) (0, 0, 0.00000000000000000000e+00) (0, 0, 0.00000000000000000000e+00) (0, 0, 0.00000000000000000000e+00) (0, 0, 0.00000000000000000000e+00) (0, 0, 0.00000000000000000000e+00) (0, 0, 0.00000000000000000000e+00) (0, 0, 0.00000000000000000000e+00) (0, 0, 0.00000000000000000000e+00) (0, 0, 0.00000000000000000000e+00) (0, 0, 0.00000000000000000000e+00) (0, 0, 0.00000000000000000000e+00) (0, 0, 0.00000000000000000000e+00) (0, 0, 0.00000000000000000000e+00) (0, 0, 0.00000000000000000000e+00) (0, 0, 0.00000000000000000000e+00) (0, 0, 0.00000000000000000000e+00) (0, 0, 0.00000000000000000000e+00) (0, 0, 0.00000000000000000000e+00) (0, 0, 0.00000000000000000000e+00) (0, 0, 0.00000000000000000000e+00) (0, 0, 0.00000000000000000000e+00) (0, 0, 0.00000000000000000000e+00) (0, 0, 0.00000000000000000000e+00) (0, 0, 0.00000000000000000000e+00) (0, 0, 0.00000000000000000000e+00) (0, 0, 0.00000000000000000000e+00) (0, 0, 0.00000000000000000000e+00) (0, 0, 0.00000000000000000000e+00) (32, 4, 5.00000000000000000000e-01) (32, 4, 5.00000000000000000000e-01) (32, 4, 5.00000000000000000000e-01) (32, 4, 5.00000000000000000000e-01) (32, 4, 5.00000000000000000000e-01) (0, 0, 0.00000000000000000000e+00) (6, 6, 5.00000000000000000000e-01) (0, 6, 0.00000000000000000000e+00) 
connections (connected_to_neuron, weight)=(0, 1.14050362788890313759e+00) (1, -3.89787016781829454004e+00) (2, 4.12888499204388992325e+00) (3, -1.18499335343858369640e+00) (4, -1.54953819904035161592e+00) (5, -3.08218385834589991834e-01) (6, -1.93886443942709263411e-01) (7, 1.88987719103826390388e-01) (8, 2.95669053630717888759e-02) (9, 2.17607307189091131461e-01) (10, -1.82829954645971598515e-01) (11, -1.08687262103694004534e-01) (12, 6.27127442504287424541e-01) (13, 1.89455934833677286377e+00) (14, 8.53144949422210530088e-01) (15, 3.77574573318992134929e-01) (16, 4.73500117230671535573e-01) (17, 1.83344888572805997384e+00) (18, 1.38109100212103852456e+00) (19, -1.37395680971230338407e+00) (20, -8.59910190746713531951e+00) (21, -1.73662731848357920761e+00) (22, -6.87597339259597206684e-01) (23, -5.98126875726038842451e-01) (24, -7.13688301250485546134e-01) (25, -3.97292704672156216095e-01) (26, -3.47276433618735058673e-01) (27, -3.53523637246220767683e-01) (28, 9.77267454236620025654e+00) (29, 5.56278909546547239984e-01) (30, 6.90019418862315436769e+00) (31, 3.87413144450305779731e-01) (0, 2.44198014553290576600e+00) (1, -3.63640859662720501433e+01) (2, -7.82893942121276964485e+00) (3, -1.84484732364809644878e+01) (4, -5.15496753427039244855e+00) (5, -2.60119521000365505614e+00) (6, -2.87252426482932676777e+00) (7, -2.96073140771780263236e+00) (8, -2.95280069240767417682e+00) (9, 2.38555123941995905756e-01) (10, 1.84772162729504862977e-01) (11, 9.61074772487612166705e-02) (12, 2.47878418393136223941e+00) (13, 4.21770692121548052000e+00) (14, 2.13325348822601457144e+00) (15, 4.71210448672024106997e-01) (16, 1.84749897285603509323e-01) (17, -1.30278527919406683644e+00) (18, -8.83400660762955869387e-01) (19, -1.98773151525679403484e+00) (20, -8.23628119268970237954e+00) (21, -2.93449719505261263919e+00) (22, -1.48684350279931043470e-01) (23, 2.76674594719460931191e-01) (24, 2.12653241655351293860e-01) (25, 1.31613489736402655694e+00) (26, 3.86468840969553695253e-01) (27, 1.37849351255030572183e+00) (28, 1.86050644942114011826e+01) (29, 8.57589997924402780427e+00) (30, 1.73337318916570986005e+01) (31, 2.28041760611708177464e+00) (0, 2.34371557825711862577e+00) (1, -1.53014621555366883143e+01) (2, -5.32909918657255055052e+00) (3, -3.04742081248561476059e+01) (4, -1.39016536224571822800e+01) (5, -3.42109585826121298524e+00) (6, -2.69311519432895751791e+00) (7, -3.18050757142847917436e+00) (8, -7.58873377529642345607e-01) (9, 1.33541361031687388916e+00) (10, 9.08565665660045818086e-01) (11, -1.19183712523320238519e-02) (12, 2.15456152361216624058e+00) (13, 2.45448851829576497607e+00) (14, 1.93684640661087303926e+00) (15, 1.19744825388234188424e+00) (16, 6.00229134950298837126e-01) (17, -8.04833213871797403804e-01) (18, -3.75013538007296420851e-01) (19, -1.17343638484630230501e+00) (20, -1.40487113106206717994e+00) (21, -8.43576974464923412533e-01) (22, 2.09480447526668028813e-01) (23, 1.16693207920008854006e-01) (24, 9.18370488062498907533e-02) (25, 1.04334723047297361909e+00) (26, -1.21189333974393700921e-01) (27, 3.58837986218622728707e-01) (28, 6.76641884255225534162e-01) (29, 4.67367905327243970959e+00) (30, 5.57928958819955553849e+01) (31, 2.14842121294143151289e+00) (0, 1.09768594558808474382e+00) (1, -8.28242975606849185510e+00) (2, -3.87160684731548876414e+00) (3, -3.95423483861116586979e+00) (4, -2.63452054087243459080e+00) (5, -8.78445731703845922311e+00) (6, -1.02203241992895943469e+01) (7, -1.35136773454133618522e+00) (8, 8.64600674734145924205e-01) (9, 9.44665356305151693306e-01) (10, -6.16444947690515054894e-01) (11, -6.17180556132228663735e-01) (12, 1.69829634479368052347e+00) (13, 2.56897784431698594787e+00) (14, 2.52886298867451575489e+00) (15, 8.94550583459002179865e-01) (16, 9.45733256119293375086e-01) (17, -7.45743994840815993541e-01) (18, -1.01801522345041273176e+00) (19, -1.15357564209898999508e+00) (20, -8.99911410435136183139e+00) (21, -5.16962723128792212002e-01) (22, -2.17034167455425280879e-01) (23, -5.31039146946301679475e-02) (24, -2.41926767303988765612e-01) (25, -3.15725929839017274703e-02) (26, -1.42562344644114324943e-01) (27, -8.50670808990374172076e-01) (28, 1.72067625227106368868e+00) (29, 2.75784507380293746337e+01) (30, 3.00722754581815578945e+01) (31, 2.25426781014349186805e+00) (0, 2.76904700829850636268e+00) (1, -1.25458396208404856509e+01) (2, -1.61175302400047613105e+01) (3, -5.16251825857029658096e+01) (4, -2.36121196950339085063e+00) (5, -2.36805402308501289355e+00) (6, -2.79748231545972414480e+00) (7, -2.68358716465672042517e+00) (8, -3.23339391980651358338e+00) (9, 1.57049651635409043271e-01) (10, 7.06956448368369350099e-02) (11, 1.84822275179868311668e+00) (12, 2.36280221922159494596e+00) (13, 2.28238407123026476597e+00) (14, 2.25958000813931425554e+00) (15, 1.88306200332698381317e+00) (16, 6.44215578041972936063e-01) (17, -1.15838169325353335104e+00) (18, -2.44747786143025169991e-01) (19, -9.06983670031374811238e-01) (20, -9.60240273629978213776e-01) (21, -8.14210987549275122532e-01) (22, -2.95831198872254452770e-01) (23, 2.52041341479695812922e-01) (24, -2.34074860102522624983e-01) (25, 1.16425798726234042135e+00) (26, 8.87767607131483726945e-01) (27, 5.89437957250419697353e-01) (28, 2.01661789132745683517e+00) (29, 1.10111063375545921161e+01) (30, 1.74939020242428568963e+01) (31, 2.65607593182713141999e+00) (32, -2.54569249949925868748e+01) (33, -4.69519290533968902679e+00) (34, -3.73499057512323595631e+00) (35, -2.13914044909836675856e+00) (36, -1.10718011324761747005e+01) (37, 7.86345384712207806643e+00) 
