FANN_FLO_2.1
num_layers=3
learning_rate=0.700000
connection_rate=1.000000
network_type=0
learning_momentum=0.000000
training_algorithm=2
train_error_function=1
train_stop_function=0
cascade_output_change_fraction=0.010000
quickprop_decay=-0.000100
quickprop_mu=1.750000
rprop_increase_factor=1.200000
rprop_decrease_factor=0.500000
rprop_delta_min=0.000000
rprop_delta_max=50.000000
rprop_delta_zero=0.100000
cascade_output_stagnation_epochs=12
cascade_candidate_change_fraction=0.010000
cascade_candidate_stagnation_epochs=12
cascade_max_out_epochs=150
cascade_max_cand_epochs=150
cascade_num_candidate_groups=2
bit_fail_limit=3.49999999999999977796e-01
cascade_candidate_limit=1.00000000000000000000e+03
cascade_weight_multiplier=4.00000000000000022204e-01
cascade_activation_functions_count=10
cascade_activation_functions=3 5 7 8 10 11 14 15 16 17 
cascade_activation_steepnesses_count=4
cascade_activation_steepnesses=2.50000000000000000000e-01 5.00000000000000000000e-01 7.50000000000000000000e-01 1.00000000000000000000e+00 
layer_sizes=24 4 2 
scale_included=0
neurons (num_inputs, activation_function, activation_steepness)=(0, 0, 0.00000000000000000000e+00) (0, 0, 0.00000000000000000000e+00) (0, 0, 0.00000000000000000000e+00) (0, 0, 0.00000000000000000000e+00) (0, 0, 0.00000000000000000000e+00) (0, 0, 0.00000000000000000000e+00) (0, 0, 0.00000000000000000000e+00) (0, 0, 0.00000000000000000000e+00) (0, 0, 0.00000000000000000000e+00) (0, 0, 0.00000000000000000000e+00) (0, 0, 0.00000000000000000000e+00) (0, 0, 0.00000000000000000000e+00) (0, 0, 0.00000000000000000000e+00) (0, 0, 0.00000000000000000000e+00) (0, 0, 0.00000000000000000000e+00) (0, 0, 0.00000000000000000000e+00) (0, 0, 0.00000000000000000000e+00) (0, 0, 0.00000000000000000000e+00) (0, 0, 0.00000000000000000000e+00) (0, 0, 0.00000000000000000000e+00) (0, 0, 0.00000000000000000000e+00) (0, 0, 0.00000000000000000000e+00) (0, 0, 0.00000000000000000000e+00) (0, 0, 0.00000000000000000000e+00) (24, 4, 5.00000000000000000000e-01) (24, 4, 5.00000000000000000000e-01) (24, 4, 5.00000000000000000000e-01) (0, 0, 0.00000000000000000000e+00) (4, 6, 5.00000000000000000000e-01) (0, 6, 0.00000000000000000000e+00) 
connections (connected_to_neuron, weight)=(0, 6.86079853406851380981e+00) (1, -7.69883261600080270881e+00) (2, -7.22952867603213444880e+00) (3, -6.45779561479436714500e-01) (4, -4.16402593988575209227e-01) (5, 1.94590641583293311179e-01) (6, 2.47276688621559737058e+00) (7, 4.12192546042113139304e-01) (8, 1.28671290642127278403e+00) (9, 1.06052661152284422030e+00) (10, 1.14795571753554148664e+00) (11, 6.68326534769926094981e-01) (12, 1.98968717987771959166e+00) (13, 7.28585053950309480264e-01) (14, -5.71630390398508581029e+00) (15, -5.46706668109859617033e+00) (16, -1.01454799815215324088e+00) (17, -6.88574950820936892981e-01) (18, 1.45260418283566195008e+00) (19, 1.37793309298641108995e+00) (20, 8.16079336735907046041e-01) (21, -2.38462541269911676434e-01) (22, 7.19309334050253852411e+01) (23, 9.87560707063761977764e-01) (0, 6.75266671364060311333e+00) (1, -1.64084240320101137911e+01) (2, -3.22692898993092427418e+01) (3, -1.04717420757064405556e+00) (4, -4.66507884976499198615e-01) (5, 9.04804658741577338965e-01) (6, 1.42019014115781172514e+00) (7, 2.90731741251218256394e-01) (8, 2.11651308418727390759e+00) (9, 1.36598956761690693007e+00) (10, 9.40339108942069290542e-01) (11, 8.34368344562391395236e-01) (12, 1.56635501369035545771e+00) (13, -1.18791165241586976764e-01) (14, -3.37892212374391709417e+00) (15, -3.27715981285818802604e+00) (16, -8.24345189137874800878e-01) (17, -5.82248186487790087007e-01) (18, -3.06773133898497696315e-01) (19, -3.48080312348413467571e-01) (20, -1.86671234434095112409e-01) (21, 6.54475118590038373867e-01) (22, 9.17030385081534689107e+01) (23, 1.54340600084579726570e+00) (0, 2.63051164818748759444e+01) (1, 9.53287722423552352780e+00) (2, -2.48276457924980498149e+00) (3, -2.73192294983150629761e+00) (4, -4.10592228375032419763e+00) (5, -5.52674147181583030886e-01) (6, -5.88147221519468188511e-01) (7, -1.76427157811437029800e+00) (8, -1.72410000055059731139e+00) (9, 3.12616339036479118363e+00) (10, 5.34206306611951475816e+00) (11, -1.34292435261317816275e-01) (12, -5.18953675593272212296e-01) (13, 6.42604207246960323907e-01) (14, -3.59233302954199062995e+00) (15, -4.85879705921638915811e+00) (16, -2.08318862537889470943e+00) (17, -1.48935193308000934920e+00) (18, -9.97690223306230805633e+00) (19, -5.54994685157736089565e+00) (20, -3.67746330173810020980e+00) (21, -2.16327864914365832760e+01) (22, 5.82680081740839028726e+01) (23, 5.26714172405637093277e+00) (24, -1.75404741375236916667e+01) (25, -1.97272814455379901233e+01) (26, -7.20200258822949912485e+00) (27, 8.51658905064807036922e+00) 
