FANN_FLO_2.1
num_layers=3
learning_rate=0.700000
connection_rate=1.000000
network_type=0
learning_momentum=0.000000
training_algorithm=2
train_error_function=1
train_stop_function=0
cascade_output_change_fraction=0.010000
quickprop_decay=-0.000100
quickprop_mu=1.750000
rprop_increase_factor=1.200000
rprop_decrease_factor=0.500000
rprop_delta_min=0.000000
rprop_delta_max=50.000000
rprop_delta_zero=0.100000
cascade_output_stagnation_epochs=12
cascade_candidate_change_fraction=0.010000
cascade_candidate_stagnation_epochs=12
cascade_max_out_epochs=150
cascade_max_cand_epochs=150
cascade_num_candidate_groups=2
bit_fail_limit=3.49999999999999977796e-01
cascade_candidate_limit=1.00000000000000000000e+03
cascade_weight_multiplier=4.00000000000000022204e-01
cascade_activation_functions_count=10
cascade_activation_functions=3 5 7 8 10 11 14 15 16 17 
cascade_activation_steepnesses_count=4
cascade_activation_steepnesses=2.50000000000000000000e-01 5.00000000000000000000e-01 7.50000000000000000000e-01 1.00000000000000000000e+00 
layer_sizes=16 4 2 
scale_included=0
neurons (num_inputs, activation_function, activation_steepness)=(0, 0, 0.00000000000000000000e+00) (0, 0, 0.00000000000000000000e+00) (0, 0, 0.00000000000000000000e+00) (0, 0, 0.00000000000000000000e+00) (0, 0, 0.00000000000000000000e+00) (0, 0, 0.00000000000000000000e+00) (0, 0, 0.00000000000000000000e+00) (0, 0, 0.00000000000000000000e+00) (0, 0, 0.00000000000000000000e+00) (0, 0, 0.00000000000000000000e+00) (0, 0, 0.00000000000000000000e+00) (0, 0, 0.00000000000000000000e+00) (0, 0, 0.00000000000000000000e+00) (0, 0, 0.00000000000000000000e+00) (0, 0, 0.00000000000000000000e+00) (0, 0, 0.00000000000000000000e+00) (16, 4, 5.00000000000000000000e-01) (16, 4, 5.00000000000000000000e-01) (16, 4, 5.00000000000000000000e-01) (0, 0, 0.00000000000000000000e+00) (4, 6, 5.00000000000000000000e-01) (0, 6, 0.00000000000000000000e+00) 
connections (connected_to_neuron, weight)=(0, -3.77400858594775501231e+00) (1, -6.17357867651181368984e+00) (2, -9.38416721797677766403e-01) (3, 4.47544782466160750989e-01) (4, 2.55031846803933093248e-01) (5, 2.35083848397534156405e+00) (6, 1.66857551941838289089e+00) (7, 1.74304991879986270753e+00) (8, -2.73909590599632046803e-01) (9, -8.81311127459953880248e+00) (10, -2.87708215096028974145e+00) (11, -3.23352779040538343414e-02) (12, 1.91180596705826011394e+00) (13, 2.93658336662481334045e+00) (14, 3.14268275874653184587e+01) (15, 1.60192483413048991636e+00) (0, 6.42403598513270157611e+00) (1, -6.05543320444948474091e+00) (2, -9.23162801315668857249e-01) (3, -4.43412769315619070820e-01) (4, 1.85390989060536237609e+00) (5, 2.69158810195431108525e+00) (6, -4.40766341018039309319e+00) (7, 5.46233917861419104867e+00) (8, -3.15182169670414069618e-01) (9, -7.67160436938015788400e+00) (10, -3.51641327130802627821e+00) (11, 1.10833939487181024064e-01) (12, 3.28678406236106168681e-01) (13, 6.28795803932993901952e+00) (14, 4.79971134785433193315e+01) (15, 1.62739947204120216639e+00) (0, -1.10212624025626606539e+01) (1, -3.26110444009424185197e+01) (2, -4.06577223422661546692e+01) (3, -5.30222709321354912504e+00) (4, 2.67434199503144665044e+00) (5, 9.15785436533932362124e+00) (6, 3.09031464913722864196e+00) (7, 7.45486313163637337453e+00) (8, -4.19599802804864974171e-01) (9, -5.03280038450290234664e+00) (10, -1.08343308470315546899e+00) (11, -5.69270303124813970008e-01) (12, -2.96860076670849615255e+00) (13, -1.73529336634987307875e+00) (14, 1.00242211988315034432e+02) (15, 4.55624297910026676561e+00) (16, -1.35909849577869454862e+01) (17, -1.01297972566731662170e+01) (18, -1.55650187998115363541e+01) (19, 1.03149857400998055112e+01) 
