FANN_FLO_2.1
num_layers=3
learning_rate=0.700000
connection_rate=1.000000
network_type=0
learning_momentum=0.000000
training_algorithm=2
train_error_function=1
train_stop_function=0
cascade_output_change_fraction=0.010000
quickprop_decay=-0.000100
quickprop_mu=1.750000
rprop_increase_factor=1.200000
rprop_decrease_factor=0.500000
rprop_delta_min=0.000000
rprop_delta_max=50.000000
rprop_delta_zero=0.100000
cascade_output_stagnation_epochs=12
cascade_candidate_change_fraction=0.010000
cascade_candidate_stagnation_epochs=12
cascade_max_out_epochs=150
cascade_max_cand_epochs=150
cascade_num_candidate_groups=2
bit_fail_limit=3.49999999999999977796e-01
cascade_candidate_limit=1.00000000000000000000e+03
cascade_weight_multiplier=4.00000000000000022204e-01
cascade_activation_functions_count=10
cascade_activation_functions=3 5 7 8 10 11 14 15 16 17 
cascade_activation_steepnesses_count=4
cascade_activation_steepnesses=2.50000000000000000000e-01 5.00000000000000000000e-01 7.50000000000000000000e-01 1.00000000000000000000e+00 
layer_sizes=3 18 2 
scale_included=0
neurons (num_inputs, activation_function, activation_steepness)=(0, 0, 0.00000000000000000000e+00) (0, 0, 0.00000000000000000000e+00) (0, 0, 0.00000000000000000000e+00) (3, 4, 5.00000000000000000000e-01) (3, 4, 5.00000000000000000000e-01) (3, 4, 5.00000000000000000000e-01) (3, 4, 5.00000000000000000000e-01) (3, 4, 5.00000000000000000000e-01) (3, 4, 5.00000000000000000000e-01) (3, 4, 5.00000000000000000000e-01) (3, 4, 5.00000000000000000000e-01) (3, 4, 5.00000000000000000000e-01) (3, 4, 5.00000000000000000000e-01) (3, 4, 5.00000000000000000000e-01) (3, 4, 5.00000000000000000000e-01) (3, 4, 5.00000000000000000000e-01) (3, 4, 5.00000000000000000000e-01) (3, 4, 5.00000000000000000000e-01) (3, 4, 5.00000000000000000000e-01) (3, 4, 5.00000000000000000000e-01) (0, 0, 0.00000000000000000000e+00) (18, 6, 5.00000000000000000000e-01) (0, 6, 0.00000000000000000000e+00) 
connections (connected_to_neuron, weight)=(0, 4.90887753577345620215e+00) (1, 7.66419345392812147111e+02) (2, -1.95303351932924584844e+01) (0, 3.69574400092725312561e+01) (1, -1.14293667281302941774e+03) (2, 1.23985660273832429823e+01) (0, 6.55833327429552213061e+01) (1, 1.50000000000000000000e+03) (2, -2.16574182866152291638e+01) (0, 6.81457782968482561614e+00) (1, -6.84946055145177865597e+02) (2, 1.31806316938491785429e+00) (0, -1.06996174787471414191e+01) (1, -1.50000000000000000000e+03) (2, 8.51436137764173572862e+00) (0, 9.18251318231068012210e+01) (1, 1.12007591083961915501e+03) (2, -2.08305606557843567828e+01) (0, 9.35355697980009637149e+01) (1, 1.04274293452726192299e+03) (2, -2.05643936268497888875e+01) (0, 7.85207088424628096845e+01) (1, 1.50000000000000000000e+03) (2, -2.36863800859603514937e+01) (0, 2.10034637628834168765e+01) (1, -3.55551847545441205511e+02) (2, 4.24592434592840350938e-01) (0, 1.50686564072756965516e+01) (1, -9.37062365605412082914e+02) (2, 3.99595195619270926457e+00) (0, -1.15804310040363258594e+01) (1, -1.16393218966044787521e+03) (2, 2.26220836199977846093e+01) (0, 2.76550017582704654728e+01) (1, -1.49978689035628963211e+03) (2, 2.38294642681468626932e+00) (0, 1.50000000000000000000e+03) (1, 1.50000000000000000000e+03) (2, -1.23954025435256678378e+01) (0, 4.17689475377800931710e+01) (1, 1.62598167619464220479e+02) (2, -1.55386356520433732697e+01) (0, 8.09173858602575108989e+01) (1, 1.50000000000000000000e+03) (2, -2.40614390418350794221e+01) (0, 1.50000000000000000000e+03) (1, 1.50000000000000000000e+03) (2, 3.25754470823303137195e+01) (0, 5.32630854705322107634e+01) (1, 2.27515881731066883731e+02) (2, -2.38777528823857352336e+01) (3, -4.14545751690612007678e+01) (4, -1.56292399253743763410e+01) (5, -6.58386047844202959567e+00) (6, -1.88948404101897551755e+02) (7, -1.73044619088545132968e+01) (8, -1.95429603548700980831e+00) (9, -2.66111875574237144448e+00) (10, -1.51822613671378814360e+01) (11, 5.08511736860961960360e+01) (12, -1.24196510291000734583e+01) (13, -2.98811369710091057073e+01) (14, 7.91222485765249388123e+01) (15, 5.29660136506851308980e+00) (16, -7.07984050758876577447e+01) (17, -4.10802504575288907063e+00) (18, 1.66567249185807355616e+01) (19, 4.15194448403902711675e+01) (20, 2.16392426640797239656e+01) 
