FANN_FLO_2.1
num_layers=3
learning_rate=0.700000
connection_rate=1.000000
network_type=0
learning_momentum=0.000000
training_algorithm=2
train_error_function=1
train_stop_function=0
cascade_output_change_fraction=0.010000
quickprop_decay=-0.000100
quickprop_mu=1.750000
rprop_increase_factor=1.200000
rprop_decrease_factor=0.500000
rprop_delta_min=0.000000
rprop_delta_max=50.000000
rprop_delta_zero=0.100000
cascade_output_stagnation_epochs=12
cascade_candidate_change_fraction=0.010000
cascade_candidate_stagnation_epochs=12
cascade_max_out_epochs=150
cascade_max_cand_epochs=150
cascade_num_candidate_groups=2
bit_fail_limit=3.49999999999999977796e-01
cascade_candidate_limit=1.00000000000000000000e+03
cascade_weight_multiplier=4.00000000000000022204e-01
cascade_activation_functions_count=10
cascade_activation_functions=3 5 7 8 10 11 14 15 16 17 
cascade_activation_steepnesses_count=4
cascade_activation_steepnesses=2.50000000000000000000e-01 5.00000000000000000000e-01 7.50000000000000000000e-01 1.00000000000000000000e+00 
layer_sizes=44 18 2 
scale_included=0
neurons (num_inputs, activation_function, activation_steepness)=(0, 0, 0.00000000000000000000e+00) (0, 0, 0.00000000000000000000e+00) (0, 0, 0.00000000000000000000e+00) (0, 0, 0.00000000000000000000e+00) (0, 0, 0.00000000000000000000e+00) (0, 0, 0.00000000000000000000e+00) (0, 0, 0.00000000000000000000e+00) (0, 0, 0.00000000000000000000e+00) (0, 0, 0.00000000000000000000e+00) (0, 0, 0.00000000000000000000e+00) (0, 0, 0.00000000000000000000e+00) (0, 0, 0.00000000000000000000e+00) (0, 0, 0.00000000000000000000e+00) (0, 0, 0.00000000000000000000e+00) (0, 0, 0.00000000000000000000e+00) (0, 0, 0.00000000000000000000e+00) (0, 0, 0.00000000000000000000e+00) (0, 0, 0.00000000000000000000e+00) (0, 0, 0.00000000000000000000e+00) (0, 0, 0.00000000000000000000e+00) (0, 0, 0.00000000000000000000e+00) (0, 0, 0.00000000000000000000e+00) (0, 0, 0.00000000000000000000e+00) (0, 0, 0.00000000000000000000e+00) (0, 0, 0.00000000000000000000e+00) (0, 0, 0.00000000000000000000e+00) (0, 0, 0.00000000000000000000e+00) (0, 0, 0.00000000000000000000e+00) (0, 0, 0.00000000000000000000e+00) (0, 0, 0.00000000000000000000e+00) (0, 0, 0.00000000000000000000e+00) (0, 0, 0.00000000000000000000e+00) (0, 0, 0.00000000000000000000e+00) (0, 0, 0.00000000000000000000e+00) (0, 0, 0.00000000000000000000e+00) (0, 0, 0.00000000000000000000e+00) (0, 0, 0.00000000000000000000e+00) (0, 0, 0.00000000000000000000e+00) (0, 0, 0.00000000000000000000e+00) (0, 0, 0.00000000000000000000e+00) (0, 0, 0.00000000000000000000e+00) (0, 0, 0.00000000000000000000e+00) (0, 0, 0.00000000000000000000e+00) (0, 0, 0.00000000000000000000e+00) (44, 4, 5.00000000000000000000e-01) (44, 4, 5.00000000000000000000e-01) (44, 4, 5.00000000000000000000e-01) (44, 4, 5.00000000000000000000e-01) (44, 4, 5.00000000000000000000e-01) (44, 4, 5.00000000000000000000e-01) (44, 4, 5.00000000000000000000e-01) (44, 4, 5.00000000000000000000e-01) (44, 4, 5.00000000000000000000e-01) (44, 4, 5.00000000000000000000e-01) (44, 4, 5.00000000000000000000e-01) (44, 4, 5.00000000000000000000e-01) (44, 4, 5.00000000000000000000e-01) (44, 4, 5.00000000000000000000e-01) (44, 4, 5.00000000000000000000e-01) (44, 4, 5.00000000000000000000e-01) (44, 4, 5.00000000000000000000e-01) (0, 0, 0.00000000000000000000e+00) (18, 6, 5.00000000000000000000e-01) (0, 6, 0.00000000000000000000e+00) 
connections (connected_to_neuron, weight)=(0, 9.37327797359412850930e-01) (1, 1.08207011573656197712e+00) (2, -1.33490135201886905847e+00) (3, 2.88664073676779153743e+00) (4, -4.97137647697560025595e-02) (5, -1.36585148897705699333e+00) (6, -9.94552769626473209819e-01) (7, -8.64638301263086828108e-01) (8, -9.09050013364994913267e-01) (9, -4.10987843754150150577e-01) (10, -9.57379917015225082033e-03) (11, 2.07099330478828745628e-02) (12, 1.64527939233772041439e-01) (13, 1.49303090623484374655e-01) (14, -3.25616286626286000061e-02) (15, 4.06273641110144884125e-02) (16, 6.64347653539829940961e-01) (17, 1.58464487046758550903e+00) (18, 1.34055654580075178650e+00) (19, 4.87100905594344268934e-01) (20, 6.64125718815521404181e-01) (21, 5.03382122930999043042e-01) (22, 1.46419959575982017164e+00) (23, 4.02591136300292862238e-01) (24, 5.01701202858703676490e-02) (25, 1.51375616556015113456e-01) (26, -6.96018758942137383272e-01) (27, -1.71897504291715308433e+00) (28, -5.10743411141610970105e+00) (29, -9.29207085302194180088e+00) (30, -1.01204137060111332147e+00) (31, -6.34356781602947727983e-01) (32, -5.25891066944143226181e-01) (33, -7.61678659152422388168e-01) (34, -1.15193508374761521829e+00) (35, 4.50974129334630463584e-02) (36, -6.24478212191714038282e-02) (37, -4.68471718376750778656e-01) (38, -4.26457895066171210896e-01) (39, 1.63117549501690706215e+00) (40, 8.38114807911108039562e-01) (41, 3.90181842489305896748e+00) (42, 6.05279590353742946718e+00) (43, 1.54006934268650130804e+00) (0, -1.26975639896926018046e+00) (1, 6.88086104306470414116e+00) (2, -1.28568330437838301838e-01) (3, 1.56414099366808514446e+01) (4, 1.04035076335969254302e+01) (5, -1.46795262993286912412e+00) (6, -7.66024738905895064001e-01) (7, -6.96743732186471009804e-01) (8, -3.46682824737632955259e-01) (9, -3.02746320010758629415e-01) (10, -1.27664684754552171242e-01) (11, 1.58930718174099053219e-02) (12, 4.40189231211769241292e-02) (13, 6.55293629561096019343e-02) (14, -3.70899823082348895076e-02) (15, -3.44165419237192141133e-02) (16, 1.74083571227939298831e-01) (17, 1.91229898603689907333e+00) (18, 1.59700906456686153589e+00) (19, 2.90105541428830882023e-01) (20, 1.10417784519855466385e+00) (21, -5.50324189653498968555e-02) (22, 2.61420317621910180961e+00) (23, 2.68320452316138768900e-01) (24, 1.28738318265213924629e-01) (25, 1.75048633065795455899e+00) (26, 1.11700030710272213419e+00) (27, -1.67357058273092329514e+00) (28, -4.48443970900272415037e+00) (29, -8.03625749811280876145e+00) (30, -1.00048093497314427580e+00) (31, -6.32924692830612700689e-01) (32, -6.41797055236075886242e-01) (33, -1.42336833924373640237e+00) (34, -2.01729532922459853239e+00) (35, -2.52335938999982301034e-01) (36, -1.56626376043154380557e-01) (37, -5.45742272377112702664e-01) (38, -5.29089864418590405393e-01) (39, 1.70168404582896970467e+00) (40, 2.51755582479511241800e-01) (41, 3.02420843960501128933e+00) (42, 2.88372432236190245902e+00) (43, 1.59574874697959678826e+00) (0, 9.27630281285937163815e-01) (1, 2.55883167646564224640e+00) (2, -6.00864219034369728689e+00) (3, -4.26326100405640939783e+00) (4, -4.27064826353497828393e+00) (5, -3.02319505890726709652e+01) (6, -5.70867839003034838186e+00) (7, -2.20197490421605612809e+00) (8, -5.06843638552336384073e-01) (9, -5.22834227600696310745e-01) (10, -3.97755734282324246998e-01) (11, 3.52773661190387333164e-01) (12, 3.97136080389415002667e-01) (13, 8.68202032456530159443e-01) (14, 1.26922207140298198835e-01) (15, 3.99488096853915397588e-01) (16, 8.25117542241096679767e-01) (17, 1.27584766191028498028e+00) (18, 9.12634087997589937835e-01) (19, 9.70610647800276948871e-01) (20, 8.27656801375031392354e-01) (21, 7.05580219665755903335e-01) (22, 9.99035994044058517360e-01) (23, 5.49289691370263066794e-01) (24, 9.12469782181160482537e-01) (25, 2.28515025321469750219e-01) (26, 5.25885531241659376356e-02) (27, -1.32848741156159100285e+00) (28, -1.31599761699573103435e+00) (29, -1.08346837456850120240e+00) (30, -4.94954582191091119192e-01) (31, 6.03407726563548241216e-01) (32, 2.55593039384270526160e-01) (33, 2.81573693695882087962e-01) (34, 3.89930058148439812049e-02) (35, 2.12991085946672015217e-01) (36, 2.45978349279011410111e-01) (37, 4.33113568858170150389e-01) (38, 2.75493056386970802674e-01) (39, 5.35592986507083645975e-01) (40, 3.45427373440194740439e+00) (41, 1.46716086610253837463e+00) (42, 6.55736271632286982225e+00) (43, 9.84193265263158756362e-01) (0, 8.60751295412651162842e-01) (1, 2.72665161251251753072e+00) (2, -1.46440523956418342522e+01) (3, -1.51274293635901244670e+01) (4, -2.36812295564519281754e+01) (5, -2.29130243907789576951e+01) (6, -7.40307803648852758016e+00) (7, -1.21245652438886408753e+00) (8, -1.00867354577170997842e+00) (9, -2.75638272412413343204e-01) (10, 2.40959638832861033908e-01) (11, 2.31068628833386635613e-01) (12, 4.05407340361986834321e-01) (13, 3.30256987086323172687e-01) (14, 5.08050320049915557497e-02) (15, 8.02541260508136677920e-02) (16, 1.11636274187183026640e+00) (17, 9.08181043041597413357e-01) (18, 1.01830640420757090325e+00) (19, 7.58199801587870259034e-01) (20, 7.27664474516401260651e-01) (21, 3.98467448960500292277e-01) (22, 7.32092077403059260376e-01) (23, 1.27596552879049696116e+00) (24, 2.08640001947681757999e-01) (25, 1.53209455544750461353e-01) (26, -4.81130371350551755416e-01) (27, -1.58625523730537154599e+00) (28, -1.23259984258674704094e+00) (29, -8.80061890792642853576e-01) (30, -4.82736284780801300220e-02) (31, 4.06728347638890985749e-01) (32, 4.40478471914575397950e-01) (33, 1.48868065171777197442e+00) (34, 1.14321272911274451900e+00) (35, 1.43336053803868224144e+00) (36, 1.39660261211101666134e+00) (37, 1.33474735389040377598e+00) (38, 8.59682096720991273386e-01) (39, 1.44978835766379554606e+00) (40, 1.68990642549724245924e+00) (41, 8.12136289783687348454e-01) (42, 5.64330799005357786058e+00) (43, 1.01444020341861373957e+00) (0, 7.06010013776380174200e-01) (1, 5.81032069241083082289e+00) (2, -6.74903379505370493163e-01) (3, 6.66454437286154099951e+00) (4, -1.11527024405793073747e+00) (5, -1.52586841436054698740e+00) (6, -9.79359533489243094806e-01) (7, -7.98354682762754008785e-01) (8, -9.34120227953342041616e-01) (9, -4.38786304179290542749e-01) (10, -3.13837551118529622940e-01) (11, -5.40209254259929692182e-03) (12, 1.27107385552561319431e-01) (13, 1.15599091783916321785e-01) (14, 8.36551772760371487037e-02) (15, -3.40398117511744424668e-01) (16, 6.64654169649934734032e-01) (17, 1.74685986282451488627e+00) (18, 1.46423923309176284846e+00) (19, 9.66619237059515135080e-01) (20, 9.14811275103622367766e-01) (21, -7.67968596996956187617e-01) (22, 2.01216866202227295801e+00) (23, 4.18913718164299009317e-01) (24, -2.57979393712205011535e-02) (25, 2.61029164122956247596e+00) (26, 5.97900979571785118338e-01) (27, -1.86549663356816575188e+00) (28, -3.20157241661897540297e+00) (29, -4.05665577432351298626e+00) (30, -9.33908090181026384613e-01) (31, -6.61985286582330578753e-01) (32, -6.19376428154791103253e-01) (33, -1.02169899462285029834e+00) (34, -5.10508160949443556831e+00) (35, -1.61955712738638124559e-01) (36, -3.05898083020943123422e-01) (37, -5.77583902885720368303e-01) (38, -4.76102891417038875943e-01) (39, 9.24522994049152724294e-01) (40, 7.74375781391558715150e-01) (41, 3.00330722720942722148e+00) (42, 1.96048475360555252145e+00) (43, 1.57655351885954964075e+00) (0, 4.07527573306016299703e-01) (1, 4.60198336551572606545e-01) (2, -5.85156915355583162608e+00) (3, -4.11122018452912207920e+00) (4, -4.39217953407140804245e+00) (5, -6.31620707112679724560e+00) (6, -2.73989522453214062736e+00) (7, -9.98159747116940332390e-01) (8, -6.16487322207682764130e-01) (9, -6.79088030630905947760e-01) (10, -2.78134804096811683038e-01) (11, 2.76163428617890838179e-01) (12, 3.18207417596901909196e-01) (13, -2.00981855239983686623e-01) (14, -2.20610049207931063764e-01) (15, -2.46534901793906552347e-01) (16, 9.39156770681027985859e-01) (17, 9.73364831412848907632e-01) (18, 8.73250153206934887073e-01) (19, 1.38389071546562258952e+00) (20, 7.67967104282950674410e-01) (21, -1.89070283422290819075e+00) (22, 6.53605177184761632070e-01) (23, 5.40693526763551091108e-01) (24, -2.46442202346977889960e-01) (25, -2.51571135449261074069e-01) (26, -6.20430197570844388366e-01) (27, -2.18450605464360769759e+00) (28, -2.26307676472259799993e+00) (29, -2.15392049140812291697e+00) (30, -5.86934238537673125258e-01) (31, 4.34067732011326701258e-01) (32, 4.08406931241828363710e-01) (33, 1.46738361613614587409e-01) (34, 2.37318694847489936040e-01) (35, 1.09793590703998544811e+00) (36, 1.06175458296852842643e+00) (37, 3.91727865927502638677e-01) (38, 1.16151296568076167759e+00) (39, 7.27775928613010325563e+00) (40, 1.04668065847246061217e+00) (41, 6.13301016035148083283e-01) (42, 1.57040697582440436086e+00) (43, 9.60343813460063144838e-01) (0, 3.83639514345578525045e-01) (1, 4.16250311934515171419e-01) (2, -5.94527132727601248519e+00) (3, -3.58738052959681752441e+00) (4, -4.95674010948746346372e+00) (5, -6.70545411978769045902e+00) (6, -2.81087826933528361906e+00) (7, -1.04635475981592529493e+00) (8, -1.00967914135857772528e+00) (9, -1.09461742942855488891e+00) (10, -5.64290074658229778848e-01) (11, 2.87517158484103363403e-01) (12, 3.53666947181275215933e-03) (13, -2.44664455627615545774e-01) (14, -1.48825505190137541423e-01) (15, -1.27443286713073200556e-01) (16, 1.26802806442448834368e+00) (17, 8.95096087361392789283e-01) (18, 1.60420684680742930972e+00) (19, 1.21764906243292791999e+00) (20, 1.29774819036925248561e+00) (21, -2.11931742275139844978e+00) (22, 6.05298585375965703115e-01) (23, 3.57232007814433427662e-01) (24, -1.10823611284326245530e-01) (25, -1.00479500320003217739e-01) (26, -1.08483696486524272551e+00) (27, -2.24264582586667593489e+00) (28, -1.34780785065309349768e+00) (29, -1.31472595751150667098e+00) (30, -9.68261538786162834214e-01) (31, -1.08766712524518430194e-01) (32, -2.31729130197054655760e-01) (33, 2.00652103917462965033e-01) (34, 2.19525695103074708348e-01) (35, 1.08116292903219179955e+00) (36, 1.04747421160059706047e+00) (37, 1.24217990570993519484e+00) (38, 1.16170532046873198340e+00) (39, 7.19270794074051256217e+00) (40, 9.56013887537400908201e-01) (41, 6.81117261472886093010e-01) (42, 2.33727397747320919663e+00) (43, 8.25517242099326753468e-01) (0, -4.28472845103937149958e+00) (1, 1.45781302536536716552e+00) (2, -1.57975391864735104086e+00) (3, -8.75496599908477057816e-01) (4, -1.23730078207465843398e+00) (5, -1.72761860462963512397e+00) (6, -7.56567523013618514760e-01) (7, -8.24175568146891079913e-01) (8, -1.20120726606936600867e+00) (9, -1.58881195087699689239e+00) (10, -3.19474908630607234983e-01) (11, -2.04729697518742870255e-01) (12, 4.99052879738013863142e-02) (13, 4.53196688674004574682e-02) (14, 8.24635424634891263385e-03) (15, -1.29051922533593793618e-01) (16, 1.68110036342218160943e-01) (17, 1.01424468628531405656e+00) (18, 1.54972993553906324138e+00) (19, 5.95314539829062683296e-01) (20, 1.14293047191337082680e+00) (21, -8.04154928708682881222e+00) (22, 1.07286336809546511972e+00) (23, 6.78139460592810272566e-01) (24, -1.83718291991534221630e-01) (25, -1.68616843480451666926e-01) (26, 1.65104417404827175098e-01) (27, -2.35371689216401103195e+00) (28, -5.14516526407020879930e+00) (29, -2.46474883344213324676e+00) (30, -1.00102608096516076941e+00) (31, -4.16465206198723347786e-01) (32, -6.06434754274707277233e-01) (33, -3.73817107205543786019e-01) (34, -4.66967898442497086897e-01) (35, 5.30672271494706304651e-01) (36, 3.06805732230372441016e-01) (37, 6.01114610892297340783e-01) (38, 5.47702186273123281524e-01) (39, 1.76984990592574042978e+01) (40, 1.40811560829264248440e+00) (41, 3.80281014489938762324e+00) (42, 2.01675496257500475039e+00) (43, 1.50480115717645146489e+00) (0, 1.18811064898373519583e+00) (1, 2.38006532357188795856e+01) (2, -7.97791411679667561430e+00) (3, -1.39149822409340884199e+00) (4, -6.92514177848564749240e+00) (5, -4.24571474437124223300e+01) (6, -5.30997461252054492320e-01) (7, -1.30759993677339547702e+00) (8, -1.07614443444145324591e+00) (9, -1.06650879979486212790e+00) (10, -1.76380746630484280812e-01) (11, 4.40623524749821152136e-02) (12, 1.83018713945774069707e-01) (13, 2.08552165976765319089e-01) (14, 3.68449607593245131998e-01) (15, 2.16451312548326590957e+00) (16, 9.93168115741949186770e-01) (17, 1.86390448812301467996e+00) (18, 1.46703348039364622757e+00) (19, 1.52038594065907783914e+00) (20, 1.29006111285739577532e+00) (21, 5.39750611913328404157e-01) (22, 1.71274602516165752597e+00) (23, 3.92251574206643138787e-01) (24, 3.02400573795034599556e-01) (25, 8.91345420712400970942e-01) (26, -3.24125010955068904028e-01) (27, -1.48568096527605142398e+00) (28, -1.65575524480464597588e+00) (29, -1.64516151004930533119e+00) (30, -3.62683928763061935729e-01) (31, 4.15802031202179844804e-01) (32, 7.06313106646698912749e-02) (33, 2.39479430653771724335e-01) (34, 1.06565576262646385941e-01) (35, 4.28531248754920546240e-01) (36, 9.53220465859654364493e-02) (37, 4.29556746015564872021e-01) (38, 1.69112123853295437392e-01) (39, 6.17066880960999597505e-01) (40, 1.79135411622408269317e+00) (41, 8.16366587521155828711e+00) (42, 1.74104259095520816913e+01) (43, 1.39678793552931534983e+00) (0, 3.05242195770979440894e-01) (1, 4.68024224951892275914e-01) (2, -6.52648893056566592463e+00) (3, -4.37486852165153194960e+00) (4, -4.75041179622872444810e+00) (5, -5.49898591115075596747e+00) (6, -2.55146001214511697341e+00) (7, -7.00726013024489668979e-01) (8, -7.41365201411172236590e-01) (9, -7.69993817420068227264e-01) (10, -4.10465551051587385079e-01) (11, 2.92454434464313184350e-01) (12, 7.82798721224795129858e-02) (13, 1.42019876727930045857e-02) (14, -2.47614940304570346763e-01) (15, -2.10399799189506450658e-02) (16, 1.13039104068188689389e+00) (17, 8.48168245190122571664e-01) (18, 1.64451397356484330103e+00) (19, 1.38240710576960212919e+00) (20, 1.37283383583726781296e+00) (21, -1.18430832806012631409e+01) (22, 7.06496622753657432803e-01) (23, 4.19397312163127811147e-01) (24, -1.48101867842895196237e-01) (25, -2.36138770451747165291e-01) (26, -8.49192253362678783901e-01) (27, -2.47192075750400519496e+00) (28, -2.80860074834163286894e+00) (29, -2.02336777482261531702e+00) (30, -6.60616255179913069995e-01) (31, 1.75617140635148966110e-01) (32, 3.16050772950376090975e-01) (33, 1.82030532090147856294e-01) (34, 2.39457213474254998475e-01) (35, 1.25111570467409149998e+00) (36, 1.22599632594985918921e+00) (37, 1.34847940860013748576e+00) (38, 1.33387613112045833041e+00) (39, 1.39975872712652371632e+01) (40, 9.49623040156237108178e-01) (41, 1.59676879755444800502e+00) (42, 1.24725245115239857796e+00) (43, 7.98150285679568360919e-01) (0, 8.15519104181304244072e-01) (1, 1.28611558617329335696e+00) (2, -1.52133491654753019162e+01) (3, -6.33703118878811899606e+00) (4, -6.47297692238556798827e+00) (5, -1.89867242224974219766e+01) (6, -3.56389573567382678121e+00) (7, -9.61832466951373588060e-01) (8, -9.60737488662923744265e-01) (9, -9.96830724725240924222e-01) (10, -1.70508142306095789031e+00) (11, 3.59111552576917736346e-01) (12, 3.42030265047286341495e-01) (13, 4.24557397821092585843e-01) (14, -4.34302870458282280763e-02) (15, -4.10883550966300165053e-02) (16, 5.32045032030628917141e-01) (17, 9.25003653605936171367e-01) (18, 9.65773455718897055888e-01) (19, 1.30572462778097286851e+00) (20, 6.11772364473574414845e-01) (21, 3.02793766858500346117e-01) (22, 8.41248881576169726948e-01) (23, 6.56491146391940949556e-01) (24, 1.30244647824853898577e-01) (25, 6.41158257388395602661e-01) (26, -5.35453193695911267014e-01) (27, -1.43234307241963576551e+00) (28, -1.62137317017548210352e+00) (29, -1.59490512815127871704e+00) (30, -7.82147938629481287443e-01) (31, 6.95829032150493187459e-01) (32, 7.96783403796970102206e-02) (33, 1.78393326204027147242e-01) (34, -1.74041383759217030414e-02) (35, 1.16921427163481284062e+00) (36, 2.94291992930212853441e-01) (37, 5.56708740969716231461e-01) (38, 3.92065627308618713798e-01) (39, 3.36527230390275766680e+00) (40, 1.94759133686301599830e+00) (41, 1.30377850620092150535e+00) (42, 3.38954922758670704752e+01) (43, 8.19576943295462490013e-01) (0, 9.28750171034833482686e-01) (1, 2.52723588011897781769e+00) (2, -8.82865844878181782462e+00) (3, -1.74284067080474684985e+01) (4, -1.78012495055596744464e+01) (5, -2.43369489933471143672e+01) (6, -7.91346001524707798325e+00) (7, -2.00267404899996304124e+00) (8, -5.48913709631343671447e-01) (9, -6.57504966210415431327e-01) (10, 1.00403443316303478405e-02) (11, 2.43704161034252658746e-01) (12, 3.17831928099732985427e-01) (13, 4.91532350992565869596e-01) (14, -4.22985672551457331236e-02) (15, 4.67548837670425432300e-01) (16, 6.27379549330594254997e-01) (17, 9.45213990359581313072e-01) (18, 9.38057543069496513333e-01) (19, 8.27940763309123806124e-01) (20, 7.21606753235345288466e-01) (21, 5.55869570976367355364e-01) (22, 8.41090971399334086378e-01) (23, 5.12035595842905810748e-01) (24, 5.52532807072650511415e-01) (25, 3.66801163523668372068e-01) (26, -3.75222592697476153845e-01) (27, -1.33773621471743586753e+00) (28, -9.29105408867071491663e-01) (29, -9.29174304632119030245e-01) (30, -8.48052614416277966702e-02) (31, 3.13862411333209911923e-01) (32, 3.30487529328565843301e-01) (33, 2.29861775801934675734e-01) (34, 2.51917697337581902861e-01) (35, 3.54780380059530831005e-01) (36, 1.66703026188777109207e-01) (37, 4.14069064115305696117e-01) (38, 3.13615062550511469741e-01) (39, 2.04238720188161160252e+00) (40, 1.89421613254766207923e+00) (41, 9.44897837963825870666e-01) (42, 2.40483107596356049385e+00) (43, 9.19226395169660981388e-01) (0, 6.88303019158279183465e-01) (1, 6.56270822563564326657e+00) (2, -3.24529093719481909197e-01) (3, 1.15805748932956635855e+01) (4, 6.96809150883686334588e-01) (5, -1.54625339111940474091e+00) (6, -8.63846720304304982463e-01) (7, -8.82101081457116742435e-01) (8, -8.33330349173362017190e-01) (9, -2.66470663409094477014e-01) (10, -9.03746044782452323529e-02) (11, -6.56732886260228271302e-02) (12, 1.12831387731994275958e-01) (13, 9.66673234326626551471e-02) (14, -5.65860163270503948446e-04) (15, 4.92250625607349792667e-02) (16, 2.69671545054295802579e-01) (17, 1.51638554303310746363e+00) (18, 1.54315210002484981544e+00) (19, 7.55702076528366850638e-01) (20, 1.11682486315872164795e+00) (21, -9.18619777464218967289e-01) (22, 3.34691180646808428278e+00) (23, 2.68798619357039192401e-01) (24, 3.68309145029708379093e-02) (25, 1.32797489778973742958e+00) (26, 2.78666760537824753641e+00) (27, -2.12848201859691599225e+00) (28, -4.28498591953065410820e+00) (29, -4.12579537922203964939e+00) (30, -1.31109522816366697029e+00) (31, -6.56432362858460627386e-01) (32, -6.46605353222492351684e-01) (33, -7.28351732518354277879e-01) (34, -5.00489564957161636727e+00) (35, -2.58283761032122194390e-01) (36, -1.19623421365497459301e-01) (37, -5.69615952668345082444e-01) (38, -5.73554534267128657277e-01) (39, 1.71586961406696381083e+00) (40, 7.09610923403029336676e-01) (41, 3.20463554331623745597e+00) (42, -2.98130342015323535065e+00) (43, 1.70688765976520850920e+00) (0, 7.77400438286751205297e-01) (1, 2.43375291637815216461e+00) (2, -1.51695695391500695592e+01) (3, -4.75949422662442778176e+00) (4, -6.25636249697867530273e+00) (5, -1.70222525643981121846e+01) (6, -3.49983928008454769909e+00) (7, -8.37436345016666194851e-01) (8, -9.59702210282896039928e-01) (9, -9.41361401743959103072e-01) (10, -2.30969879404962741276e+00) (11, 3.45597553481937658226e-01) (12, 2.57150795732780046432e-01) (13, 5.09993290301830937139e-01) (14, -1.78666694770775291712e-01) (15, 2.69470066587022161197e-01) (16, 5.17908934572348100822e-01) (17, 1.03973814190115620981e+00) (18, 9.14850430738527009566e-01) (19, 1.41764501118037111738e+00) (20, 6.43318922985610441856e-01) (21, 2.45756298176761006635e-01) (22, 1.03968208496910885508e+00) (23, 6.81287333440569797816e-01) (24, 1.91299849982152547767e+00) (25, -1.61555400367730250810e-01) (26, -7.03557819022096908590e-01) (27, -1.53263663880043798926e+00) (28, -1.67081644432540366019e+00) (29, -1.58610373984074448650e+00) (30, -6.96741940947880666890e-01) (31, 3.22644011862953106196e-01) (32, 1.25142905953491340165e-01) (33, 9.92486573266112420688e-02) (34, 1.95087136831641819179e-02) (35, 1.18520163124671329413e+00) (36, 2.17594630412850320589e-01) (37, 5.40396732747964514409e-01) (38, 2.33938301727728947821e-01) (39, 2.93266055405930181621e+00) (40, 2.15734962103984617698e+00) (41, 1.33990527361127598205e+00) (42, 2.89008421122149599114e+01) (43, 8.86342816204362726751e-01) (0, 8.70935052961629874169e-01) (1, 2.39075229279435852447e+00) (2, -5.78346288263940699892e+00) (3, -1.11254248046099704084e+01) (4, -8.79037154301397549716e+00) (5, -2.90090580555140711283e+01) (6, -5.25279995254585596598e+00) (7, -2.05765697923970725114e+00) (8, -5.37496724249998725220e-01) (9, -6.02230627518464789460e-01) (10, 2.36690260792726564487e-01) (11, 2.21627469486471773141e-01) (12, 4.68904528437241452377e-01) (13, 1.00525442516171259477e+00) (14, 1.91670432096599563376e-01) (15, 5.69583200768268738123e-01) (16, 9.48366588234466512120e-01) (17, 1.04827038347660295159e+00) (18, 9.46297281325016892417e-01) (19, 9.82625244592690738621e-01) (20, 8.29702640945595648603e-01) (21, 8.24888911725318640933e-01) (22, 9.50264500436992065602e-01) (23, 5.68963915541617848426e-01) (24, 5.89829963986598482251e-01) (25, 8.83791089907996242625e-03) (26, -2.98849426612600610476e-01) (27, -1.30573634355323897616e+00) (28, -1.07064393768625709669e+00) (29, -1.04404992145361386058e+00) (30, -5.76672615047383763098e-01) (31, 1.05424960250174581944e+00) (32, 2.89401119968365705404e-01) (33, 3.30730603421620195093e-01) (34, -3.47921501967376409215e-02) (35, 3.04328801425851669382e-01) (36, 3.10778632910963192870e-01) (37, 4.82636560054544305753e-01) (38, 2.74077528952624882574e-01) (39, 1.78401145840042341106e+00) (40, 3.37168154508996620322e+00) (41, 1.20968395969771891352e+00) (42, 1.02201295940671705864e+01) (43, 1.04768064431712004669e+00) (0, -1.14161330438073349569e+00) (1, 1.46769756713826482475e+00) (2, -2.26620438279754488065e+00) (3, 4.45609767940764012195e+00) (4, 4.40011160911632792647e+00) (5, -1.63641437077935303357e+00) (6, -8.56474622991383771620e-01) (7, -6.67772201384297825477e-01) (8, -1.24269514916768808455e+00) (9, -1.60697754656212166147e+00) (10, -6.70728383856189602774e-01) (11, -2.30353558203049632591e-02) (12, 7.22064783582648944682e-02) (13, 1.37878569068857537161e-01) (14, -7.71706147064717823403e-02) (15, 5.20250510255049966601e-02) (16, 3.57554582398954989841e-01) (17, 1.49797235580415066813e+00) (18, 1.58134453206445413365e+00) (19, 8.66579925127025640919e-01) (20, 1.26669741088524090422e+00) (21, -2.48335246301244971789e+00) (22, 7.38150936052316741787e-01) (23, 2.53029469196387080121e-01) (24, -1.62757227197418530285e-01) (25, -7.69207857499233926823e-02) (26, -4.55878527180884229875e-01) (27, -2.11033700290561521129e+00) (28, -3.44099737421314566532e+00) (29, -3.26934086052534711442e+00) (30, -9.06740565436542578226e-01) (31, -5.75660398111251692121e-01) (32, -5.09434969657027947321e-01) (33, -5.94242488529458379176e-01) (34, -5.72224901505667515877e-01) (35, 8.31522382490730155302e-02) (36, 2.17897059320534998428e-02) (37, 5.95457865579385181576e-02) (38, -1.76332275270405826328e-02) (39, 6.65200340181281202234e+00) (40, 8.47296287561436489710e-01) (41, 3.96640489269523754956e+00) (42, 3.61169965547625348989e+00) (43, 1.50472270603441504733e+00) (0, 1.78534915001285321434e-01) (1, 2.91330119773433482422e-01) (2, -5.74518788051711126741e+00) (3, -2.81131690528183009192e+00) (4, -3.13852208823037415186e+00) (5, -2.55269707913098553576e+00) (6, -1.77208734624068542374e+00) (7, -7.11823925154800418724e-01) (8, -6.39442961630808937024e-01) (9, -1.23738801815558741026e+00) (10, -5.73151182174286510929e-01) (11, -2.04022657281173136479e-01) (12, -1.32788274922528454214e-01) (13, -3.81459416183155597402e-01) (14, -3.38045107359294716431e-01) (15, -3.58249343956374588505e-01) (16, 1.05164303167102612946e+00) (17, 8.70024350388841183346e-01) (18, 1.59049967963027594209e+00) (19, 1.32900038913980478306e+00) (20, 1.33939221035079869537e+00) (21, -6.58959174676752734712e+00) (22, 6.08739088865357880209e-01) (23, 4.10132743343502303990e-01) (24, -3.99115602703582039723e-01) (25, -3.47303987482896425742e-01) (26, -1.11124060832146720479e+00) (27, -2.74961307666487586587e+00) (28, -1.65824324156964397758e+00) (29, -1.58115937557388064327e+00) (30, -1.03765915674517472667e+00) (31, -1.46053781825695144780e-01) (32, -2.38024557270858833080e-01) (33, 3.56215492139408222705e-03) (34, -2.87217249170273469794e-02) (35, 1.57748210493115803565e+00) (36, 1.36389892353634123445e+00) (37, 1.17778704787795285291e+00) (38, 1.29971165387614973064e+00) (39, 7.83549189997803186003e+00) (40, 1.16009704161880655704e+00) (41, 3.27492200345780481996e+00) (42, 1.23828510463724472679e+00) (43, 9.00705327793984711349e-01) (44, -4.37709717718088509031e+00) (45, -4.17463070722763340825e+00) (46, -2.15308594208362347189e+00) (47, -2.80697121246502945269e+00) (48, -3.34122659904258734187e+00) (49, -1.20897949296653428597e+00) (50, -1.13771203423634337248e+00) (51, -4.28818920951501603156e+00) (52, -4.25947746381847736075e+00) (53, -5.17492851187862346052e+00) (54, -1.19227893077016600110e+00) (55, -1.40288093916306655373e+00) (56, -3.30097213070267647694e+00) (57, -1.19679991493693083093e+00) (58, -2.31958683181109659444e+00) (59, -2.75521810416635171137e+00) (60, -1.61357939718221099490e+00) (61, 9.82887360177575430953e+00) 
