FANN_FLO_2.1
num_layers=3
learning_rate=0.700000
connection_rate=1.000000
network_type=0
learning_momentum=0.000000
training_algorithm=2
train_error_function=1
train_stop_function=0
cascade_output_change_fraction=0.010000
quickprop_decay=-0.000100
quickprop_mu=1.750000
rprop_increase_factor=1.200000
rprop_decrease_factor=0.500000
rprop_delta_min=0.000000
rprop_delta_max=50.000000
rprop_delta_zero=0.100000
cascade_output_stagnation_epochs=12
cascade_candidate_change_fraction=0.010000
cascade_candidate_stagnation_epochs=12
cascade_max_out_epochs=150
cascade_max_cand_epochs=150
cascade_num_candidate_groups=2
bit_fail_limit=3.49999999999999977796e-01
cascade_candidate_limit=1.00000000000000000000e+03
cascade_weight_multiplier=4.00000000000000022204e-01
cascade_activation_functions_count=10
cascade_activation_functions=3 5 7 8 10 11 14 15 16 17 
cascade_activation_steepnesses_count=4
cascade_activation_steepnesses=2.50000000000000000000e-01 5.00000000000000000000e-01 7.50000000000000000000e-01 1.00000000000000000000e+00 
layer_sizes=40 7 2 
scale_included=0
neurons (num_inputs, activation_function, activation_steepness)=(0, 0, 0.00000000000000000000e+00) (0, 0, 0.00000000000000000000e+00) (0, 0, 0.00000000000000000000e+00) (0, 0, 0.00000000000000000000e+00) (0, 0, 0.00000000000000000000e+00) (0, 0, 0.00000000000000000000e+00) (0, 0, 0.00000000000000000000e+00) (0, 0, 0.00000000000000000000e+00) (0, 0, 0.00000000000000000000e+00) (0, 0, 0.00000000000000000000e+00) (0, 0, 0.00000000000000000000e+00) (0, 0, 0.00000000000000000000e+00) (0, 0, 0.00000000000000000000e+00) (0, 0, 0.00000000000000000000e+00) (0, 0, 0.00000000000000000000e+00) (0, 0, 0.00000000000000000000e+00) (0, 0, 0.00000000000000000000e+00) (0, 0, 0.00000000000000000000e+00) (0, 0, 0.00000000000000000000e+00) (0, 0, 0.00000000000000000000e+00) (0, 0, 0.00000000000000000000e+00) (0, 0, 0.00000000000000000000e+00) (0, 0, 0.00000000000000000000e+00) (0, 0, 0.00000000000000000000e+00) (0, 0, 0.00000000000000000000e+00) (0, 0, 0.00000000000000000000e+00) (0, 0, 0.00000000000000000000e+00) (0, 0, 0.00000000000000000000e+00) (0, 0, 0.00000000000000000000e+00) (0, 0, 0.00000000000000000000e+00) (0, 0, 0.00000000000000000000e+00) (0, 0, 0.00000000000000000000e+00) (0, 0, 0.00000000000000000000e+00) (0, 0, 0.00000000000000000000e+00) (0, 0, 0.00000000000000000000e+00) (0, 0, 0.00000000000000000000e+00) (0, 0, 0.00000000000000000000e+00) (0, 0, 0.00000000000000000000e+00) (0, 0, 0.00000000000000000000e+00) (0, 0, 0.00000000000000000000e+00) (40, 4, 5.00000000000000000000e-01) (40, 4, 5.00000000000000000000e-01) (40, 4, 5.00000000000000000000e-01) (40, 4, 5.00000000000000000000e-01) (40, 4, 5.00000000000000000000e-01) (40, 4, 5.00000000000000000000e-01) (0, 0, 0.00000000000000000000e+00) (7, 6, 5.00000000000000000000e-01) (0, 6, 0.00000000000000000000e+00) 
connections (connected_to_neuron, weight)=(0, 4.59513562939412589792e-01) (1, 1.25253461266828902687e+00) (2, -6.44707238252385517185e-02) (3, 3.21313933916816743541e-02) (4, -3.66652251102052642584e-02) (5, 6.66525001962071317330e-01) (6, 7.16244712547175699235e-01) (7, 7.02096260867320687282e-01) (8, 5.78747735877086277867e-01) (9, 3.64622761535770334440e-01) (10, -1.12974337263209538562e-02) (11, 1.02182868155205899829e-01) (12, 2.42643367826236994178e-02) (13, 1.37662072424367926127e-01) (14, 3.21436701337527025446e-02) (15, 8.81265412009325843634e-01) (16, 1.53350560304475935780e+00) (17, 1.95869942993432633038e+00) (18, 1.36536362893220486470e+00) (19, 3.70307726600717812548e-01) (20, 1.78310198547395981628e+00) (21, 1.03346636324792662265e+00) (22, 4.88839139634376085297e-01) (23, -2.89112187413063437269e-01) (24, -6.33734681224138118871e-01) (25, -9.82000066660214887548e-01) (26, -9.36661532841492783241e-01) (27, -1.30979799496794990787e+00) (28, -1.64111716869601775848e+00) (29, -2.02267807466797622240e+00) (30, -6.51542658503218596877e+00) (31, -3.63387872006657230983e+00) (32, -3.01911114403843772180e+00) (33, -3.25598658166059706787e+00) (34, -2.96364542693428756337e+00) (35, -2.22498505684223080170e-01) (36, -5.28742975063562514748e+00) (37, -2.07281532492009334945e+00) (38, -2.01791625949883046687e+00) (39, 2.33712100199896477548e+00) (0, -6.24975964167744590938e-01) (1, 7.65553434421200140747e+00) (2, -1.18810793104207768067e+00) (3, 3.32466958296559056407e+00) (4, 8.79865933997232008146e-01) (5, 1.39551482873670562590e+00) (6, 1.17508529677542439273e+00) (7, 1.27765989854487171939e+00) (8, 4.35206990329351062208e-01) (9, 3.27932364427143241414e-01) (10, -3.31526943313548927428e-01) (11, -2.96790890309834354266e-01) (12, 5.27981387019574643915e-01) (13, 5.94281231583827229681e-02) (14, -2.32802109101579141059e-01) (15, 3.45566030197753393249e-01) (16, 1.09074795503013644016e+00) (17, 1.71741844277464350554e+00) (18, 1.32095906600545309750e+00) (19, 1.01015169473246579912e+00) (20, 2.18342773555715341516e+00) (21, 1.90029036988044741641e+00) (22, 1.97607937353985319007e+00) (23, 2.17780789665981189263e-01) (24, -1.72753130869239823753e+00) (25, -2.05858279493357887446e+00) (26, -2.03803698447253411885e+00) (27, -2.07295885410811653315e+00) (28, -2.05317982759978479024e+00) (29, -2.22206315195165027276e+00) (30, -2.15291308296344841011e+00) (31, -8.08258051752498829501e+00) (32, -3.91184499794636275638e+00) (33, -2.27533556625238997384e+00) (34, -1.24579550020055496162e+00) (35, 4.75219776544206884417e-01) (36, -3.16685859778653711061e+00) (37, -1.31009286300293270600e+00) (38, 8.87313364463255815906e-02) (39, 1.41278129599093071889e+00) (0, 3.45938856760448443239e-01) (1, -1.35238588332722686758e+00) (2, -1.88153828584596354290e+01) (3, -5.21626952867072457565e+00) (4, -1.80405969166981208218e+01) (5, -8.61247092262100721882e+00) (6, -1.00484041670215029640e+00) (7, -3.06551957331429092424e-01) (8, -3.37904338548592753089e-01) (9, -1.96214881180787337200e-01) (10, 1.00994856473827346321e-01) (11, 3.72818537456330478808e-01) (12, 1.05058292151252552493e+00) (13, 3.76785950817374759581e-01) (14, 1.17093570807716296223e+00) (15, 1.95797983663180863445e+00) (16, 1.68092421109535528068e+00) (17, 1.83665765097094801916e+00) (18, 1.35444252650515850611e+00) (19, -1.08075527217956146586e+00) (20, 8.57151404307347264400e-01) (21, 3.34002545140842155291e-01) (22, 4.78050911210759266190e-01) (23, 2.10053784907150126182e-01) (24, -6.53066335833225153351e-01) (25, -2.45004207436697640787e+00) (26, -5.42368967969360848969e+00) (27, -3.30443282246916048006e-01) (28, -3.56338938584438991164e-02) (29, 3.09861944872832119346e-02) (30, 7.06066669125651635852e-01) (31, 7.06590710899039464721e-01) (32, 6.56658992521265028053e-01) (33, 6.91572356796425480319e-01) (34, 5.86613506562685960155e-01) (35, 7.47953255128121430317e+00) (36, -8.71569285195989973403e-02) (37, 4.50669821869151332461e-01) (38, 4.86566599499176106747e+01) (39, 1.69097119588733924012e+00) (0, 3.13431030768566543099e-01) (1, -1.64737043227661272837e+00) (2, -1.12269435361029437104e+01) (3, -5.00314847290067366004e+00) (4, -8.01296701919385156998e+00) (5, -3.91409742926260051377e+00) (6, -1.11138192411468805787e+00) (7, -2.89393463787363136586e-01) (8, -3.94005723718299394331e-01) (9, -1.81483105325582400047e-01) (10, 6.94439714406001190605e-02) (11, 2.17070619263560499190e-01) (12, 6.03332969185069178941e-01) (13, 3.73574206247243134627e-01) (14, 7.78660640382379809488e-01) (15, 7.64854873897395481919e-01) (16, 1.66812835389243385720e+00) (17, 1.86796016257564945207e+00) (18, 1.21640109882441516120e+00) (19, -2.12726423499071781720e+00) (20, 8.86164668682536738054e-01) (21, 2.61978816919352874848e-01) (22, 3.05416062520911191225e-01) (23, 1.95566918312093579457e-01) (24, -9.20684031474287345453e-01) (25, -2.53411172867899159300e+00) (26, -5.24037271645932101194e+00) (27, -3.67835836759908552107e-01) (28, -9.28986513137648739491e-02) (29, -2.58948281406293057127e-01) (30, 3.38641262704194256905e-01) (31, 5.86648051652906565856e-01) (32, 4.04658824750343815158e-01) (33, 3.99199759557742284155e-01) (34, 3.96289305530413027423e-01) (35, 6.09292442892290964096e+00) (36, 1.59782634288031660796e-01) (37, 4.38242365083354568078e-01) (38, 5.00501006991463199824e+01) (39, 1.60176340884020884658e+00) (0, 8.30466261637625052572e+02) (1, 9.69500877739107409070e+02) (2, 1.47729811133424232139e+03) (3, 3.73877201224791633649e+02) (4, 1.50000000000000000000e+03) (5, 1.50000000000000000000e+03) (6, 1.50000000000000000000e+03) (7, 1.37698881259510221753e+03) (8, 1.50000000000000000000e+03) (9, 1.50000000000000000000e+03) (10, 1.19277268835417700643e+02) (11, 3.49419455559721692239e+00) (12, 2.04706624964584360526e+00) (13, 1.58994652106540579339e+00) (14, 1.36735088512423152984e+00) (15, 1.05864968951318072499e+00) (16, 2.59394935216710242898e+00) (17, 3.20577134715098788220e+00) (18, 1.75358265763728411457e+01) (19, 2.17948780598149369325e+02) (20, -2.51565630995143223458e+01) (21, -2.43646012470677533202e+01) (22, -2.37320753426539674535e+01) (23, -3.26213643068582737072e+00) (24, 5.76220094265766835662e+00) (25, 5.22475798363462899943e+02) (26, 2.19677074376480476303e+02) (27, 4.08398580797413846000e+00) (28, 9.48690409552367164281e-01) (29, 1.73843281388903903029e+00) (30, 2.41873173981777833674e+00) (31, 2.51427086792341514254e+00) (32, 1.42564392142449147816e-01) (33, 2.78704618936005443786e+00) (34, 1.78437255367850267085e-01) (35, -6.22220627987977348283e+00) (36, 2.91712391894840664008e+02) (37, 2.51828556212060021835e+01) (38, 6.03789958101076162933e-01) (39, 4.56961549981987769087e+00) (0, 3.67620783563088650681e+02) (1, 9.70310183367456943415e+02) (2, 1.47784913021316583581e+03) (3, 3.73747097279059516950e+02) (4, 1.50000000000000000000e+03) (5, 1.50000000000000000000e+03) (6, 1.50000000000000000000e+03) (7, 1.37715357512930336270e+03) (8, 1.21237774921012396590e+03) (9, 1.50000000000000000000e+03) (10, 5.02212239670568152405e+01) (11, 2.05746348296300851644e+00) (12, 1.46888669490181689170e+00) (13, 1.51564845963495153924e+00) (14, 1.19076229842636127643e+00) (15, 1.94086432057733526690e+00) (16, 2.59308328922793540627e+00) (17, 3.22729022578973223645e+00) (18, 1.74324232390730173847e+01) (19, 2.17980357313559125032e+02) (20, -2.51481276192177105600e+01) (21, -9.56212882737692027035e+00) (22, -2.36864447386252727767e+01) (23, -3.30908232668549739941e+00) (24, 5.75043577554054952117e+00) (25, 5.22588612298146699686e+02) (26, 2.19664638597504989548e+02) (27, 4.06653802343110104545e+00) (28, 1.05538437772920912217e+00) (29, 1.65217750192309709156e+00) (30, 2.45537816554180743367e+00) (31, 2.58522755257240577365e+00) (32, 1.29707677714977986927e-01) (33, 2.77035942202034801696e+00) (34, 3.19289982363795299403e-01) (35, -1.59993513573665975258e+01) (36, 1.21797396609508552956e+02) (37, 1.07357531128083980576e+01) (38, 7.21870869528070446819e-01) (39, 4.05222672334009459405e+00) (40, -2.02875885930309829419e+00) (41, -1.20987092731793683953e+01) (42, -1.14215612838736646495e+01) (43, -6.92671394207197366200e+00) (44, 2.72776837390614579348e+00) (45, 2.72690839809132645755e+00) (46, 2.66590018314076493411e+00) 
