FANN_FLO_2.1
num_layers=3
learning_rate=0.700000
connection_rate=1.000000
network_type=0
learning_momentum=0.000000
training_algorithm=2
train_error_function=1
train_stop_function=0
cascade_output_change_fraction=0.010000
quickprop_decay=-0.000100
quickprop_mu=1.750000
rprop_increase_factor=1.200000
rprop_decrease_factor=0.500000
rprop_delta_min=0.000000
rprop_delta_max=50.000000
rprop_delta_zero=0.100000
cascade_output_stagnation_epochs=12
cascade_candidate_change_fraction=0.010000
cascade_candidate_stagnation_epochs=12
cascade_max_out_epochs=150
cascade_max_cand_epochs=150
cascade_num_candidate_groups=2
bit_fail_limit=3.49999999999999977796e-01
cascade_candidate_limit=1.00000000000000000000e+03
cascade_weight_multiplier=4.00000000000000022204e-01
cascade_activation_functions_count=10
cascade_activation_functions=3 5 7 8 10 11 14 15 16 17 
cascade_activation_steepnesses_count=4
cascade_activation_steepnesses=2.50000000000000000000e-01 5.00000000000000000000e-01 7.50000000000000000000e-01 1.00000000000000000000e+00 
layer_sizes=10 19 2 
scale_included=0
neurons (num_inputs, activation_function, activation_steepness)=(0, 0, 0.00000000000000000000e+00) (0, 0, 0.00000000000000000000e+00) (0, 0, 0.00000000000000000000e+00) (0, 0, 0.00000000000000000000e+00) (0, 0, 0.00000000000000000000e+00) (0, 0, 0.00000000000000000000e+00) (0, 0, 0.00000000000000000000e+00) (0, 0, 0.00000000000000000000e+00) (0, 0, 0.00000000000000000000e+00) (0, 0, 0.00000000000000000000e+00) (10, 4, 5.00000000000000000000e-01) (10, 4, 5.00000000000000000000e-01) (10, 4, 5.00000000000000000000e-01) (10, 4, 5.00000000000000000000e-01) (10, 4, 5.00000000000000000000e-01) (10, 4, 5.00000000000000000000e-01) (10, 4, 5.00000000000000000000e-01) (10, 4, 5.00000000000000000000e-01) (10, 4, 5.00000000000000000000e-01) (10, 4, 5.00000000000000000000e-01) (10, 4, 5.00000000000000000000e-01) (10, 4, 5.00000000000000000000e-01) (10, 4, 5.00000000000000000000e-01) (10, 4, 5.00000000000000000000e-01) (10, 4, 5.00000000000000000000e-01) (10, 4, 5.00000000000000000000e-01) (10, 4, 5.00000000000000000000e-01) (10, 4, 5.00000000000000000000e-01) (0, 0, 0.00000000000000000000e+00) (19, 6, 5.00000000000000000000e-01) (0, 6, 0.00000000000000000000e+00) 
connections (connected_to_neuron, weight)=(0, -9.91679911608714981242e+00) (1, -1.32224420203176706856e+00) (2, -4.39864641142573287169e-03) (3, 4.88485447029526032026e+00) (4, 4.77514846429472339384e-01) (5, -6.93900131591853952528e+00) (6, 3.44682845318583785943e-01) (7, -5.23233008181020364802e-01) (8, 4.87242493814267305652e+01) (9, 1.26059995570087091110e+00) (0, -4.25750272666187825621e+01) (1, 2.34580006914753447234e+00) (2, -3.07259811395578619209e-01) (3, 1.34825278779256696460e+00) (4, 3.16057449348890948104e-02) (5, 9.89153445765370875620e+00) (6, 2.27499686689538993534e+00) (7, -5.95832586739178005075e+00) (8, -8.86008446651193382060e-01) (9, 9.09863030328661115398e-01) (0, -5.19637555633157504076e+01) (1, -1.72834464439724477813e+00) (2, 8.12382894914837550004e+00) (3, 8.39488115686778502145e-01) (4, 7.66535092004831142276e+00) (5, -3.12173150871938620554e+00) (6, -5.46867007717136588418e-01) (7, 2.15725334154336756409e-01) (8, 5.55103108902166741956e+00) (9, 2.14790090069864936240e-01) (0, 1.91517744773335185648e+00) (1, -4.46523354810392347769e-01) (2, -2.29491507544551803788e-01) (3, 2.75183001254241110800e+00) (4, 4.53465959140335272970e-01) (5, -7.48118857021722138967e+00) (6, -1.43052315631205373414e+00) (7, -2.34914070018782811244e-01) (8, 6.05686856705137373069e+01) (9, 1.06930034306681753797e+00) (0, -3.24678990207983133587e+01) (1, -1.65155723557672517998e+00) (2, 6.89173411019542991873e-01) (3, 7.91543911086118878728e-01) (4, 6.17647553248892666744e+00) (5, -3.06816835355307970801e+00) (6, 1.62798461836104024769e+00) (7, 1.34398924852610734959e-01) (8, 7.92951652086404568109e+00) (9, 1.39034609747070769803e-01) (0, -5.09508682454618764268e+01) (1, -2.83641243098620421392e+00) (2, 1.06028916179949095344e+00) (3, 1.68472069709015870309e+00) (4, 4.58168394452432625741e+00) (5, -2.96871654245048688381e+00) (6, 2.17302923309105500138e+00) (7, 2.32925657488856296951e-01) (8, 9.49449259801476443954e+01) (9, 1.82094371350775607876e-01) (0, 3.01608462191008790398e+01) (1, 3.22189758634375436941e+02) (2, 7.78597990368671610817e-01) (3, 1.67741380053410193973e+00) (4, 1.42327414512458028106e+00) (5, 7.93673897247714705827e+01) (6, 2.06244679379937112529e+00) (7, 1.39746147573890877602e+00) (8, 8.51351082691153115967e-01) (9, 2.36398529100275212045e+00) (0, 1.43163970960147075573e+01) (1, 8.63071457738375968916e+00) (2, -2.49064393144637152844e+00) (3, 8.05732389558780681682e-01) (4, -1.36302622777300896928e+01) (5, 2.86573733045795986385e+00) (6, -5.90392953511442608594e-01) (7, -5.65879070287557017771e-01) (8, -8.35502881294313937133e+00) (9, 7.07657794337849033184e-01) (0, 1.42803247010973475284e+01) (1, 8.61236083949304109808e+00) (2, -2.69276632527786841109e+00) (3, 8.29515853670617531179e-01) (4, -1.36053334918695512101e+01) (5, 2.78048331711524543408e+00) (6, 1.99202677428313612573e+00) (7, -7.84279771522347401991e-01) (8, -5.93948137022869460111e+00) (9, 7.56037900601484680330e-01) (0, -4.53919763607905508707e+01) (1, 3.38409060155493834898e+00) (2, -6.47632592842806054101e-01) (3, 9.83811698563092473790e-01) (4, -1.51855002997776189488e+00) (5, 1.15110937622188380658e+01) (6, 9.44408750087811443841e-01) (7, -2.44167625851248537572e+00) (8, -7.15616155368803186221e-01) (9, 8.93093690644829463210e-01) (0, 1.42937870622746867610e+01) (1, 7.24412573887866706457e+00) (2, -2.05699021943719806416e+00) (3, 7.93926723919364141224e-01) (4, -1.50785098181469012779e+00) (5, 2.77894762113559057326e+00) (6, -6.53921773799766992141e+00) (7, 4.66150952525896056233e-01) (8, -4.37156686545769090912e+00) (9, 7.52488590441049320923e-01) (0, -1.00968362991003566265e+01) (1, -1.36432105047909013606e+00) (2, 1.00043019084861909557e-02) (3, 4.97884255359823590936e+00) (4, 4.82881751580648665989e-01) (5, -6.90213039418670426528e+00) (6, 5.04876378023891292379e-01) (7, -4.96102378313704517332e-01) (8, 4.88013018405474809924e+01) (9, 1.16774357856641364251e+00) (0, 1.58273606398489903313e+01) (1, 5.05342657448421483934e+00) (2, -2.07515812303053870380e+00) (3, 8.00087470939944145343e-01) (4, -3.35786138523624444474e+00) (5, 2.82233180484101175978e+00) (6, -4.65480008497529063050e+00) (7, 1.47960661274274180021e-01) (8, -3.21189033406145574290e+00) (9, 7.25883454666198857375e-01) (0, -6.45059899489654409166e+00) (1, -1.06404128607165282538e+00) (2, -1.50829194723745840800e-01) (3, 2.07592762744041259282e+00) (4, 1.24078287243122509231e+00) (5, -5.30753561977758092638e+00) (6, -4.94208205972896275071e-01) (7, -6.87580854618000558709e-01) (8, 1.58720552176093647745e+01) (9, 1.03244064757182529846e+00) (0, -3.32718959155536566641e+01) (1, -2.84351068344682644806e+00) (2, 1.14262561150303687540e+00) (3, 9.45089024629012453005e-01) (4, 5.01127586031397953548e+00) (5, -2.56527419644064469395e+00) (6, 1.77891229128804928550e+00) (7, 6.10640465867529000366e-02) (8, 1.35875566954185540425e+01) (9, 1.27137739765005197690e-01) (0, -5.72083690302927578841e+01) (1, -1.99234821889711222198e+00) (2, 1.18353175068415916726e+00) (3, 8.13403903511540127269e-01) (4, 4.38873957799953373637e+00) (5, -2.04084689196235569142e+00) (6, 2.61000515924694376224e+00) (7, -5.28922217498612345921e-01) (8, 1.10636483408086601088e+01) (9, 1.73925575222721756630e-01) (0, -4.17132991088422357961e+01) (1, -1.25611688092492235214e+00) (2, -1.30258453712378624578e-01) (3, 4.44068209181932438412e+00) (4, 3.57521641156284764040e-01) (5, -4.77470672911704419050e+00) (6, 2.67321065083776565618e-01) (7, -6.59086167405958822663e-01) (8, 1.55105779596952658039e+02) (9, 9.21997970781462172774e-01) (0, -4.30438423936211904675e+01) (1, 3.45945689821408475240e+00) (2, -3.13324290323408638503e-01) (3, 1.16667572901043969935e+00) (4, -4.69254408671663236774e-01) (5, 9.65398437742669557338e+00) (6, 1.61658613109446425149e+00) (7, -4.00339793787980369189e+00) (8, -1.06011966836377105605e-01) (9, 9.33321862779862509996e-01) (10, -7.06665576114395488361e+00) (11, 3.57392312641858689304e+00) (12, -2.79061864175471097127e+00) (13, -3.13777456458603243306e+00) (14, -2.33497671910295601094e+00) (15, -5.33313665034904893503e+00) (16, 9.29139802016311522337e-01) (17, 1.59391720510723766679e+00) (18, 1.66805209775385132609e+00) (19, 5.73045442331181131834e+00) (20, 1.16562730594284236219e+00) (21, -7.07761610164383281329e+00) (22, 1.25095725250547329388e+00) (23, -6.47163415010282516704e+00) (24, -2.19838409162280656872e+00) (25, -2.55708540799953576439e+00) (26, -1.14363294078246564567e+01) (27, 3.99742606431146896284e+00) (28, 2.63525992215624726978e-01) 
