FANN_FLO_2.1
num_layers=3
learning_rate=0.700000
connection_rate=1.000000
network_type=0
learning_momentum=0.000000
training_algorithm=2
train_error_function=1
train_stop_function=0
cascade_output_change_fraction=0.010000
quickprop_decay=-0.000100
quickprop_mu=1.750000
rprop_increase_factor=1.200000
rprop_decrease_factor=0.500000
rprop_delta_min=0.000000
rprop_delta_max=50.000000
rprop_delta_zero=0.100000
cascade_output_stagnation_epochs=12
cascade_candidate_change_fraction=0.010000
cascade_candidate_stagnation_epochs=12
cascade_max_out_epochs=150
cascade_max_cand_epochs=150
cascade_num_candidate_groups=2
bit_fail_limit=3.49999999999999977796e-01
cascade_candidate_limit=1.00000000000000000000e+03
cascade_weight_multiplier=4.00000000000000022204e-01
cascade_activation_functions_count=10
cascade_activation_functions=3 5 7 8 10 11 14 15 16 17 
cascade_activation_steepnesses_count=4
cascade_activation_steepnesses=2.50000000000000000000e-01 5.00000000000000000000e-01 7.50000000000000000000e-01 1.00000000000000000000e+00 
layer_sizes=20 21 2 
scale_included=0
neurons (num_inputs, activation_function, activation_steepness)=(0, 0, 0.00000000000000000000e+00) (0, 0, 0.00000000000000000000e+00) (0, 0, 0.00000000000000000000e+00) (0, 0, 0.00000000000000000000e+00) (0, 0, 0.00000000000000000000e+00) (0, 0, 0.00000000000000000000e+00) (0, 0, 0.00000000000000000000e+00) (0, 0, 0.00000000000000000000e+00) (0, 0, 0.00000000000000000000e+00) (0, 0, 0.00000000000000000000e+00) (0, 0, 0.00000000000000000000e+00) (0, 0, 0.00000000000000000000e+00) (0, 0, 0.00000000000000000000e+00) (0, 0, 0.00000000000000000000e+00) (0, 0, 0.00000000000000000000e+00) (0, 0, 0.00000000000000000000e+00) (0, 0, 0.00000000000000000000e+00) (0, 0, 0.00000000000000000000e+00) (0, 0, 0.00000000000000000000e+00) (0, 0, 0.00000000000000000000e+00) (20, 4, 5.00000000000000000000e-01) (20, 4, 5.00000000000000000000e-01) (20, 4, 5.00000000000000000000e-01) (20, 4, 5.00000000000000000000e-01) (20, 4, 5.00000000000000000000e-01) (20, 4, 5.00000000000000000000e-01) (20, 4, 5.00000000000000000000e-01) (20, 4, 5.00000000000000000000e-01) (20, 4, 5.00000000000000000000e-01) (20, 4, 5.00000000000000000000e-01) (20, 4, 5.00000000000000000000e-01) (20, 4, 5.00000000000000000000e-01) (20, 4, 5.00000000000000000000e-01) (20, 4, 5.00000000000000000000e-01) (20, 4, 5.00000000000000000000e-01) (20, 4, 5.00000000000000000000e-01) (20, 4, 5.00000000000000000000e-01) (20, 4, 5.00000000000000000000e-01) (20, 4, 5.00000000000000000000e-01) (20, 4, 5.00000000000000000000e-01) (0, 0, 0.00000000000000000000e+00) (21, 6, 5.00000000000000000000e-01) (0, 6, 0.00000000000000000000e+00) 
connections (connected_to_neuron, weight)=(0, -3.43067875118919507482e-01) (1, -4.97436279404888548328e+00) (2, -3.39313889609004082359e+00) (3, -1.17444175787835614067e+00) (4, -3.43593379677253563109e-01) (5, 7.85539742170107690988e-01) (6, 9.30225776658063358004e-03) (7, 7.85026856450995347281e-01) (8, 1.15890397952578694252e+00) (9, 5.85511304476417193676e-01) (10, -3.32104403515481039211e-02) (11, -1.92123665945155219781e+00) (12, -4.67155742539969232041e+00) (13, -2.56734053785263816039e+00) (14, -1.16268228589498767711e+00) (15, -5.74021723992520637066e-04) (16, 1.63929167601922914921e-01) (17, 2.63267045153311372019e+01) (18, 7.61608707814887875287e+00) (19, 5.42549699442093746882e-01) (0, -9.78385450623768360146e-01) (1, -4.67351895098620673252e+00) (2, -5.70060716885200768900e+00) (3, -1.78350730315530681125e+00) (4, -2.84332713235942780017e-01) (5, 8.23192698527587113366e-02) (6, -4.79993702063688354453e-01) (7, 7.86893465402159764110e-01) (8, 9.80532297379074435639e-01) (9, 5.00381432680331417195e-01) (10, -2.72537368034618143753e-01) (11, -3.38101840785150642432e+00) (12, -4.10146538320142717282e+00) (13, -1.32294371882460204404e+00) (14, -1.59747151281009691637e+00) (15, 1.42596972727244697410e-01) (16, -4.18227892703363135496e-01) (17, 2.29396085622854783992e+00) (18, 2.17866473844510988300e+00) (19, 5.27463729639049194731e-01) (0, -1.00643982885565708152e+00) (1, -4.60141505283163532170e+00) (2, -3.74121741998812984420e+00) (3, -8.74673159421698209748e-01) (4, -1.87606901126662922730e-01) (5, 2.82834191984170035816e-01) (6, 2.01745385391928655494e-01) (7, 8.02036953671193875159e-01) (8, 2.60046503801047590443e+00) (9, 4.31946439382703939458e-01) (10, -2.01695564725030279662e-01) (11, -1.53308149248167824297e+00) (12, -7.77748792987307702163e+00) (13, -1.17954551287922382308e+00) (14, -1.04272811485393690489e+00) (15, 1.89461181405305933989e-01) (16, -1.69072180618975859145e-02) (17, 8.32479984964225572242e+00) (18, 4.26364172569771398003e+01) (19, 1.22234441627854995005e+00) (0, -1.28552772306627494103e+00) (1, -2.27962684367908030580e+00) (2, -2.14982128004595773874e+00) (3, -1.25613480532559673719e+00) (4, -3.52928329279260988294e-01) (5, 2.94898512950488678186e+00) (6, 4.17942261396064274059e-02) (7, 8.43547336585268481279e-01) (8, 1.15415166603261210021e+00) (9, 7.39082360389683112878e-01) (10, 1.24957077458517584745e-01) (11, -1.40329101538827960560e+00) (12, -4.95350741510493719488e+00) (13, -1.68089185031722276875e+00) (14, -1.69816024437790180635e+00) (15, 1.24888968868446512128e-01) (16, -3.71010779755860664597e-01) (17, 6.01943302379599209928e+00) (18, 5.10430470184193563199e+00) (19, 6.74645064138515215824e-01) (0, -2.98409959374723143810e+00) (1, 2.21660505469441559967e+00) (2, -3.16148217143342291635e+00) (3, -1.09098857661947223896e+00) (4, -3.47154363638934315706e-01) (5, 4.40335568535063393014e-01) (6, 2.29680564751614697816e-02) (7, 6.22632261170021350516e-01) (8, 1.45241103929452020083e+00) (9, 6.41187569217187336434e-01) (10, 2.63859749685244372730e-02) (11, -1.91804949516497402762e+00) (12, -4.21317730778668586566e+00) (13, -2.62940595927585762936e+00) (14, -2.70433860321824859341e+00) (15, -1.41790088757571958178e-01) (16, -3.58910284304899018792e-01) (17, 1.56544017604323837389e+01) (18, 6.03667167884743882666e+00) (19, 7.07802615300618387373e-01) (0, 1.55483814583864704550e-01) (1, -4.42360520567336923392e+00) (2, -2.09571631306377259563e+00) (3, -4.64221273719336835484e+00) (4, -8.61599816812949753642e-02) (5, -2.20158054936904212795e+00) (6, -2.84480898738584553342e+00) (7, 4.20151901965223950608e-01) (8, 1.67489052097953239340e+00) (9, 1.81349198456111526667e-01) (10, -2.41255397510950198026e+00) (11, -3.81759851858352794451e+00) (12, 7.83593996013725813121e-01) (13, -8.03654774061345333891e-02) (14, -2.53087252225366832192e+00) (15, 1.21326091235684074832e+00) (16, -2.42288870157459390597e+00) (17, -5.50467303091991766451e-01) (18, 1.29590715513785581514e+00) (19, 1.51317270225359262747e-01) (0, -1.21164959044432607449e+00) (1, 6.67167521998573498365e+00) (2, 6.20579161989641647779e+00) (3, -1.05038877964175991764e+00) (4, -2.15064419990332600374e-01) (5, 9.80028323981445570467e-01) (6, 1.11803302834488471618e-01) (7, 6.71865619708829742152e-01) (8, 1.06959301666727224500e+00) (9, 3.43904361990792939441e-01) (10, 8.29033203735529411471e-02) (11, -2.34145561547702740768e+00) (12, -6.02174707520362240132e+00) (13, -1.85860560760809634395e+00) (14, -1.68751336043381394703e+00) (15, -1.11126730063254464120e-01) (16, -1.48579624139525323656e+00) (17, 9.89596426769422699010e+00) (18, 9.05402064252929683619e+00) (19, 5.98642786552730399308e-01) (0, -8.22384579852733921257e+00) (1, -7.19438585557096832446e-01) (2, -1.52119685754880618056e+00) (3, -1.55560427678227708448e+00) (4, -1.18036192265933248535e+00) (5, -6.22673894074101674789e-01) (6, -1.05859830388872311335e-01) (7, 3.78869695946109530382e-01) (8, 7.85842400089767023630e-01) (9, 1.00502681569973578712e-01) (10, -2.60740480403602337134e+00) (11, -6.88297758263869141615e+00) (12, -4.16046983897604931713e+01) (13, -1.78778431688626433527e+01) (14, -6.31326376518967524731e+00) (15, 5.39819739613010329826e-01) (16, -2.76571714558411319018e+00) (17, -5.14680205680900337839e-01) (18, 1.41299772737521545096e+00) (19, 2.16181387778771105790e-01) (0, -4.21907244420582749900e-01) (1, -1.32514614061634254938e+01) (2, -1.95125344731182224223e+01) (3, -9.95653039247536120193e-01) (4, -2.02762143855942447712e-02) (5, 7.41221077803004696483e-02) (6, 1.20094700622544084401e-01) (7, 1.21808466861726505392e+00) (8, -2.74410419190170770665e-02) (9, 1.81162979174479404909e-01) (10, 1.10340683280266263488e-01) (11, -2.56663423923761158107e+00) (12, -2.86478640318704558254e+00) (13, -1.19430598443573332545e+00) (14, 3.52072154188473249170e-02) (15, 5.24806296400274874259e-01) (16, 9.34528731137386325933e-01) (17, 6.04957782889814765781e+00) (18, 9.57078261575938995520e+01) (19, 9.76252935134384491889e-01) (0, -3.03515124766883559460e+00) (1, 2.14425212379098084625e+00) (2, -3.07507895978637346701e+00) (3, -1.13683002462848636860e+00) (4, -2.54104633529414092319e-01) (5, 6.17950555431578396615e-01) (6, -4.71002379002193830720e-03) (7, 6.11880654062020856720e-01) (8, 1.54989702862671929751e+00) (9, 7.36799953596097179087e-01) (10, -2.56045823244625131432e-04) (11, -1.85049516009222547730e+00) (12, -4.45987913722260653770e+00) (13, -2.68752622487892312009e+00) (14, -2.77161160906141113003e+00) (15, 1.75775234376265687697e-01) (16, -2.37904985261104567895e-01) (17, 1.56450592026669728085e+01) (18, 6.28120174965655397870e+00) (19, 5.53524910644494161360e-01) (0, -1.29202569476883222244e+00) (1, -6.26491470452253018664e+00) (2, -3.79138299650929200268e+00) (3, -7.96039007867678560793e-01) (4, -1.48138837506102433172e-01) (5, 2.83297566168522374497e+00) (6, 4.03876537020643675002e-02) (7, 8.81135313651411289371e-01) (8, 5.34531118289899787044e+00) (9, 4.45111696103222986842e-01) (10, -4.37434192229152057907e-02) (11, -1.52698910573977797434e+00) (12, -9.19490358149468711702e+00) (13, -1.19870744241357485294e+00) (14, -1.03184983601733137881e+00) (15, 5.45202632556606725522e-01) (16, -1.06785706136516789222e+00) (17, 6.29744909124870755335e+00) (18, 2.15942271941344365871e+01) (19, 1.21510116677137158803e+00) (0, -1.00056919964922319544e+00) (1, -2.69787120419081318801e+01) (2, -2.55641579163382637319e+01) (3, -1.03966657856674338234e+00) (4, -2.07083118125460624581e-01) (5, 2.51718600140268522480e+00) (6, 3.75809332826725750465e+00) (7, 2.26538964796580799543e+00) (8, 3.86894456623243820914e+00) (9, 4.06412680526680947235e-01) (10, 1.50549701971010391199e-01) (11, -1.34364833161056318467e+00) (12, -2.38916478409619559287e+00) (13, -1.06522482265726803341e+00) (14, -1.08508781772289752965e+00) (15, 5.83494181692350899482e-01) (16, -9.71374729547453630296e-01) (17, 7.81389130518328478558e+00) (18, 7.99401642614839715861e+01) (19, 1.04811756549243795256e+00) (0, 3.48187549976372556770e+00) (1, -1.75016989468649919459e+00) (2, -2.00906990043976874105e+00) (3, -5.78823034752489995469e+00) (4, -2.28864171074836830755e+00) (5, -1.97375576551123610436e+00) (6, -2.72616477779876742460e+00) (7, 3.29075976241629153396e-01) (8, 1.34192527614101719813e+00) (9, 5.02824660523006672364e-01) (10, -2.12285443819045260838e+00) (11, -7.64771892173276679472e+00) (12, 5.05777856437481698748e+00) (13, 1.55135168655110278202e+00) (14, -3.08940965200994099860e+00) (15, -1.73777925036474989451e-01) (16, -2.45975021618218603336e+00) (17, -6.96993857313822351429e-01) (18, 1.24244849642385291055e+00) (19, -3.55954201260751890157e-01) (0, -2.78480855532465687574e+00) (1, 8.92452455379756814935e-01) (2, -1.92129593557852396124e+00) (3, -8.55833016415769143315e-01) (4, -1.17775822635667645755e-01) (5, 1.25053023657552508929e+00) (6, -1.14962724422251832967e-01) (7, 8.60539971399381653505e-01) (8, 4.68203382682184798824e+00) (9, 3.64468149155366516467e-01) (10, -1.62751895689850656357e-01) (11, 1.45931294792821297790e-01) (12, -9.44394835191027404164e+00) (13, -1.51869350785454404473e+00) (14, -1.20619041570708551703e+00) (15, 1.87492553532489752977e-01) (16, -8.99401412452098036887e-01) (17, 5.87115476546104630984e+00) (18, 2.15619818460453096520e+01) (19, 1.26599145711375005163e+00) (0, -5.44610047076306780234e-01) (1, 5.50677292460618961201e+00) (2, -2.40872037190626242520e+00) (3, -9.25886196276140549521e-01) (4, 3.62675886022551588472e-02) (5, 1.81245643529693217788e-01) (6, -3.59541983200540649079e-01) (7, 8.05947446162399216973e-01) (8, 3.84005270732980363846e+00) (9, 1.41007897913057700379e+00) (10, -4.49052061662047530266e-01) (11, 3.78160154874850676365e-02) (12, -8.11987273257333086462e+00) (13, -2.78274845969239681409e+00) (14, -1.62263446044531955970e+00) (15, -4.95012758382742945606e-01) (16, -8.20546129084870901060e-01) (17, 2.02095676632951137819e+00) (18, 2.62266275714250696183e+01) (19, 1.21718859910349386233e+00) (0, -1.44464896605851556011e+00) (1, 3.82593584171323586318e+00) (2, -3.23078493935169985818e+00) (3, -9.20831973437668982463e-01) (4, -4.40426270859481605591e-01) (5, 4.05259449224035783743e-01) (6, -6.40523970155641719781e-02) (7, 6.64286804527790319952e-01) (8, 9.85762839138510260639e-01) (9, 5.95348926600466676895e-01) (10, -7.38513401257217053097e-03) (11, -2.46912483020533990441e+00) (12, -3.37683599468291584245e+00) (13, -2.61105278369815474449e+00) (14, -1.67013099401166531521e+00) (15, -4.77285161839849456783e-03) (16, -6.01110494257397487416e-01) (17, 1.56026266510574949109e+01) (18, 2.42313497548436984630e+00) (19, 6.94765736388848420546e-01) (0, -1.13946300590279081533e+00) (1, -2.30801047170256161678e+01) (2, -3.56306688365732000534e+01) (3, -9.50532109338774522378e-01) (4, -1.67540880641593864508e-01) (5, 1.74574220315221428912e+00) (6, 6.22719410373968385031e-01) (7, 2.25422664401119110522e+00) (8, 3.37343761904840144794e+00) (9, 4.34280975176698891271e-01) (10, -1.52948275040356240773e-01) (11, -1.40649691938083787335e+00) (12, -2.46208479415059100504e+00) (13, -1.24897782036018734075e+00) (14, -1.06569306899647786580e+00) (15, 6.15744350885093161274e-01) (16, -1.44094704989099015036e-01) (17, 5.92014973075911310474e+00) (18, 7.32057913977803593752e+01) (19, 1.13037878479763143069e+00) (0, -3.32526535654587229729e-01) (1, 6.41379989909855474650e+00) (2, -3.17792457867905575597e+00) (3, -1.13700434944175632346e+00) (4, -3.37854834429218653380e-01) (5, 5.61867890676821191143e-01) (6, 2.33887728798011403086e-02) (7, 8.17433111084204133689e-01) (8, 1.03879524165079906162e+00) (9, 7.76135691057433962925e-01) (10, 1.65090434808510932996e-01) (11, -2.35658292119355383676e+00) (12, -4.15096869519626743283e+00) (13, -2.58309500267373071125e+00) (14, -8.08074452792650888000e-01) (15, 1.09566066335592113279e-01) (16, -2.77013079546714502399e-01) (17, 8.79467762649067807956e+00) (18, 4.68306484343594764397e+00) (19, 6.36960740243894818491e-01) (0, -2.04695317311631885815e+00) (1, 3.26296823297646065853e+00) (2, -3.28538960328858253845e+00) (3, -8.04318827851374429372e-01) (4, -2.50377537723275173098e-02) (5, 7.12104323625385116081e-01) (6, -2.63259504024692614355e-01) (7, 8.20907889527079381864e-01) (8, 9.60200199564675838104e-01) (9, 6.49087726957641941716e-01) (10, -6.75477785250996345078e-05) (11, -1.92188156648566588203e+00) (12, -4.07538646377444102598e+00) (13, -2.54620348536100182812e+00) (14, -1.30626832978667817287e+00) (15, 8.06302437158805257456e-02) (16, -9.54770516694253945644e-01) (17, 1.12096814256365888696e+01) (18, 5.90844118437949461509e+00) (19, 6.96638584471268362819e-01) (0, -1.33982198887294989831e+00) (1, -1.92520994789049870732e+00) (2, -2.00738700445221596169e+00) (3, -1.36391479919723535019e+00) (4, -4.04654614937147660836e-01) (5, 3.00991288563558212488e+00) (6, 3.58173887002157964599e-01) (7, 7.03097931185384883435e-01) (8, 1.18962356262700130749e+00) (9, 6.77220582559644568299e-01) (10, 2.59126710160200668387e-01) (11, -1.49466419198902156218e+00) (12, -4.95350208902805988487e+00) (13, -1.61727299084203690605e+00) (14, -1.65917807495918911975e+00) (15, -4.70908093697276486367e-02) (16, -3.15590938656856723199e-01) (17, 7.82133676710239811314e+00) (18, 8.51793484667825673284e+00) (19, 7.03832276306747606220e-01) (20, -4.86403120273923350592e-01) (21, 1.05945149844679287199e+00) (22, -3.02059503711352972388e+00) (23, -1.02327889267735661072e+00) (24, -1.83736888582026636207e+00) (25, -1.30454084334302216064e+01) (26, -1.23356472077094636575e+00) (27, 1.33184246539976334134e+03) (28, -5.32537476592953584742e+00) (29, -1.80910925117388732275e+00) (30, -3.04453766430743266724e+00) (31, -1.04228229366495490638e+01) (32, 3.52265224528355318512e+01) (33, -3.49731974150485847019e+00) (34, -7.86221169037513423206e+00) (35, -1.83257929108100792170e+00) (36, -9.06595016453313640170e+00) (37, -1.77997586438324040259e+00) (38, -7.09739705376653540192e-01) (39, -1.04011254896101434930e+00) (40, 9.25081478724002970182e+00) 
