FANN_FLO_2.1
num_layers=3
learning_rate=0.700000
connection_rate=1.000000
network_type=0
learning_momentum=0.000000
training_algorithm=2
train_error_function=1
train_stop_function=0
cascade_output_change_fraction=0.010000
quickprop_decay=-0.000100
quickprop_mu=1.750000
rprop_increase_factor=1.200000
rprop_decrease_factor=0.500000
rprop_delta_min=0.000000
rprop_delta_max=50.000000
rprop_delta_zero=0.100000
cascade_output_stagnation_epochs=12
cascade_candidate_change_fraction=0.010000
cascade_candidate_stagnation_epochs=12
cascade_max_out_epochs=150
cascade_max_cand_epochs=150
cascade_num_candidate_groups=2
bit_fail_limit=3.49999999999999977796e-01
cascade_candidate_limit=1.00000000000000000000e+03
cascade_weight_multiplier=4.00000000000000022204e-01
cascade_activation_functions_count=10
cascade_activation_functions=3 5 7 8 10 11 14 15 16 17 
cascade_activation_steepnesses_count=4
cascade_activation_steepnesses=2.50000000000000000000e-01 5.00000000000000000000e-01 7.50000000000000000000e-01 1.00000000000000000000e+00 
layer_sizes=16 16 2 
scale_included=0
neurons (num_inputs, activation_function, activation_steepness)=(0, 0, 0.00000000000000000000e+00) (0, 0, 0.00000000000000000000e+00) (0, 0, 0.00000000000000000000e+00) (0, 0, 0.00000000000000000000e+00) (0, 0, 0.00000000000000000000e+00) (0, 0, 0.00000000000000000000e+00) (0, 0, 0.00000000000000000000e+00) (0, 0, 0.00000000000000000000e+00) (0, 0, 0.00000000000000000000e+00) (0, 0, 0.00000000000000000000e+00) (0, 0, 0.00000000000000000000e+00) (0, 0, 0.00000000000000000000e+00) (0, 0, 0.00000000000000000000e+00) (0, 0, 0.00000000000000000000e+00) (0, 0, 0.00000000000000000000e+00) (0, 0, 0.00000000000000000000e+00) (16, 4, 5.00000000000000000000e-01) (16, 4, 5.00000000000000000000e-01) (16, 4, 5.00000000000000000000e-01) (16, 4, 5.00000000000000000000e-01) (16, 4, 5.00000000000000000000e-01) (16, 4, 5.00000000000000000000e-01) (16, 4, 5.00000000000000000000e-01) (16, 4, 5.00000000000000000000e-01) (16, 4, 5.00000000000000000000e-01) (16, 4, 5.00000000000000000000e-01) (16, 4, 5.00000000000000000000e-01) (16, 4, 5.00000000000000000000e-01) (16, 4, 5.00000000000000000000e-01) (16, 4, 5.00000000000000000000e-01) (16, 4, 5.00000000000000000000e-01) (0, 0, 0.00000000000000000000e+00) (16, 6, 5.00000000000000000000e-01) (0, 6, 0.00000000000000000000e+00) 
connections (connected_to_neuron, weight)=(0, -1.61561761727463846228e+01) (1, -3.26031229834659574962e+00) (2, -6.23863210572882076477e-01) (3, -7.29585316886049994878e-01) (4, -2.88818351741210177508e+00) (5, -2.34069473106055109257e-01) (6, 8.81662335963161569730e-01) (7, 2.57613086656832690480e-01) (8, -8.62327783210338760789e-01) (9, -7.59784898834002309087e+00) (10, -1.00126532668232837153e+01) (11, -4.44282092350444113293e+00) (12, -5.03666643995921781141e+00) (13, -1.82177735474086688328e+00) (14, 5.96805946891148297873e-01) (15, -1.25481894505593410960e-01) (0, -3.49935403487030605163e+00) (1, -4.32621962389904890500e+00) (2, -2.42180990678556362639e-01) (3, -5.55907580066814399622e-01) (4, -2.86555023704498523784e+00) (5, -1.29775004786321646044e-01) (6, 8.51929493713921126563e-01) (7, 1.55084326974934461063e-01) (8, 7.90229435441458738509e-01) (9, 9.36955093015907358733e+00) (10, -8.93044549352778460616e+00) (11, -2.35206229387864373948e+00) (12, -2.96332999559127951983e+00) (13, -6.38700041782813698887e-01) (14, 6.90785076015815846517e-01) (15, 4.83755884045948408856e-02) (0, -2.04818759147663307374e+01) (1, -5.00035595438351236908e+01) (2, -3.58025678068047659153e+00) (3, -1.30001603631228618285e-01) (4, 7.49008903744789389378e+00) (5, 3.92254539974800664481e+00) (6, 5.94127499359962918390e+00) (7, 1.29577879690236619226e+00) (8, 6.00680671601269811077e-01) (9, -2.11530835585344112459e+00) (10, -1.48518533722986156853e+00) (11, -7.38697443429204569920e-02) (12, -2.12357628085599492440e-01) (13, 5.29641421517584531919e-01) (14, 1.01374886250510365393e+00) (15, 1.06274502801853820699e+00) (0, -6.08124110499272951813e+00) (1, -5.33739429185959046720e+00) (2, -2.38130435812857033095e-01) (3, -4.30696532546781418738e-01) (4, -2.77929991026434120016e+00) (5, -1.50119946868056353129e-01) (6, 6.93332073885975064265e-01) (7, 3.47777049239071434084e-01) (8, 6.71975055809262644679e-01) (9, 1.04077227317056131284e+01) (10, -9.80184782158773693084e+00) (11, -3.41857389628530716763e+00) (12, -4.27621122450717994212e+00) (13, -7.82210578949237733681e-01) (14, 5.73980214251339160292e-01) (15, -7.88774569894835769768e-02) (0, -5.16094433812179964605e+00) (1, -8.11432227838270492271e+00) (2, -1.66679446720921320413e+00) (3, -3.28450352240271581383e-01) (4, -1.35725242033590626223e-01) (5, 2.44713716518836166269e-01) (6, -5.71033616879769057029e-01) (7, 1.42563726380928312842e+00) (8, 1.88825839060274169867e-01) (9, -9.93688463432391344554e+00) (10, -1.50334650130061797668e+00) (11, -1.46720001270200933741e-01) (12, 4.36904889395681950148e-01) (13, 5.72958377922103423430e+00) (14, 9.32693361180964615187e+01) (15, 1.02146505118792063627e+00) (0, -5.99543891131666928374e+00) (1, -3.58005180280479429200e+00) (2, -3.23630432707093684819e-01) (3, -4.01670165469622475474e-01) (4, -2.18369166734210207181e+00) (5, 7.85872334526233930208e-03) (6, 6.30955522943489777177e-01) (7, 3.13775208190139209830e-01) (8, 2.53736399077863294949e+00) (9, -7.84129199544338906236e+00) (10, -1.00771885997620938014e+01) (11, -3.02214206011391617324e+00) (12, -3.60810499061591238856e+00) (13, -3.98701131461400182232e-01) (14, 2.75478744525605112603e-01) (15, 6.24235065797630814255e-02) (0, 1.44308656036163718284e-01) (1, -2.81755945308875199729e+00) (2, -7.65838820038680756497e-01) (3, -2.08397265502715672847e-01) (4, -1.80967258259716934354e-01) (5, 5.19706165792725216512e-01) (6, 3.33822034224600860952e+00) (7, 3.90230571087424182863e+00) (8, 3.14204732859046764748e-01) (9, -1.17094389748916629657e+01) (10, -1.85771368359476585219e+00) (11, -5.39277835866742938364e-01) (12, 4.26730867911081057642e-01) (13, 5.47833911595455091970e+00) (14, 6.84705736030467306819e+01) (15, 1.14831764377128120458e+00) (0, -3.49115276357475856628e+00) (1, -4.28300069830376539670e+00) (2, -4.18549757600075789110e-01) (3, -5.42207325805320716761e-01) (4, -2.86438968245714420391e+00) (5, -1.70044863921472555468e-01) (6, 8.15363202709501799781e-01) (7, 2.24396422617024166035e-01) (8, 7.48043711659873045150e-01) (9, 9.39147278560633402833e+00) (10, -8.95890854032987427047e+00) (11, -2.36773778646334909226e+00) (12, -2.88669423254215340435e+00) (13, -7.06656079602199116430e-01) (14, 6.11372917437181584432e-01) (15, 9.22688362473834955413e-02) (0, -2.55455849250601509937e+01) (1, -4.76867570069988957471e+01) (2, -3.43548615868760176539e+00) (3, 1.78651215394365070477e-02) (4, 7.51908450666042593724e+00) (5, 4.02402878962442489552e+00) (6, 5.99944854575512387385e+00) (7, 1.31604539988855862021e+00) (8, 5.61443372768101078840e-01) (9, -2.15157652980143909716e+00) (10, -1.64897159448077013089e+00) (11, -2.15350049589590475385e-01) (12, -3.30888587326631289365e-01) (13, 6.07159871060988565183e-01) (14, 9.48442812782330446630e-01) (15, 1.17176577385393287933e+00) (0, 9.02344784466002458601e+00) (1, 5.49144318155190180875e+00) (2, -3.26275508579452822033e+00) (3, -3.51656905673037811777e-01) (4, -1.62299163409428737204e-01) (5, -1.19819711642186882417e-02) (6, -1.73346209850422710019e+01) (7, 8.52317961482080832525e-01) (8, -5.00509548391819686364e-02) (9, -8.36363315316562250246e+00) (10, -1.84011715570447575985e+00) (11, -1.11451997731241281286e+00) (12, -1.13815371592503433718e+00) (13, 2.23344535954778239395e-01) (14, -1.55334379344970763270e+00) (15, 1.08341458117450595289e+00) (0, -3.91888559998151961850e+01) (1, -1.27983599354110744173e+01) (2, -2.95312653863765650630e-01) (3, -2.83743300205403281566e-01) (4, -2.71793066284738982219e+00) (5, -1.80692846908518722771e-01) (6, 9.09438832943310071499e-01) (7, 3.69369238108933128917e-01) (8, -7.76302050469446447423e-01) (9, 1.62818525784769647657e+01) (10, -8.46455381560700992338e+00) (11, -1.89980918566913170586e+00) (12, -2.37106627529948266186e+00) (13, -7.01768586414272754759e-01) (14, 4.85215921767073066206e-01) (15, 1.11869826181274292787e-02) (0, -3.50045734641672812160e+00) (1, -4.26120964682781622201e+00) (2, -2.52795207006223043855e-01) (3, -5.59492369959092683551e-01) (4, -2.50628901489054056739e+00) (5, -4.95217444175920437632e-02) (6, 6.27911131939264288704e-01) (7, 2.73446581140114552966e-01) (8, 6.15010852905719662687e-01) (9, 9.32481051404951166717e+00) (10, -8.80706534492724379959e+00) (11, -2.35142947136506341721e+00) (12, -2.95169437171899895489e+00) (13, -7.86163119022363909849e-01) (14, 4.06761756315116129734e-01) (15, 2.79717119376484447957e-02) (0, -6.25165814906462991019e+00) (1, -5.10768049433687387761e+00) (2, -3.22260445515034910091e-01) (3, -4.76558328777685447086e-01) (4, -2.84249074471981577616e+00) (5, -2.17134132457521250581e-01) (6, 7.95891896195535575309e-01) (7, 2.88667978444501260871e-01) (8, -7.98064460533208341886e-01) (9, 3.77443166499688720350e+00) (10, -8.98704333707589242408e+00) (11, -3.03419999661081041253e+00) (12, -3.40898635616054157538e+00) (13, -7.01679932500574810028e-01) (14, 5.27645095891332127636e-01) (15, -1.22863466993050854392e-01) (0, 9.29466868058047701595e+00) (1, -9.10506535961504992471e-01) (2, -3.24696492893262855794e-01) (3, -3.59570385037642603621e-01) (4, -2.84042496960759072167e+00) (5, -1.72242058184898211293e-01) (6, 1.18727028607846718522e+00) (7, 2.53064427220763110693e-01) (8, 6.28905207174799851799e+00) (9, -2.88345331653252472393e+01) (10, -1.07760586682615731036e+01) (11, -3.29828146430352076024e+00) (12, -3.78256750386175388812e+00) (13, -2.58683602471979856574e+00) (14, 8.56788923946892544414e-01) (15, 2.48971543770208608715e-01) (0, -5.16686913021713678518e+00) (1, -8.21581531138557430438e+00) (2, -1.79309552824292306461e+00) (3, -2.04102973302062673522e-01) (4, -1.50541405513947235129e-01) (5, 3.24571822218208072552e-01) (6, 8.89632840724435269841e-01) (7, 1.16076101669598830135e+00) (8, 1.33070901251113427044e-01) (9, -1.06675286410118150826e+01) (10, -1.66701395176481903526e+00) (11, -1.95978441073663828265e-01) (12, 1.27908020475729189425e-01) (13, 1.58246567446665475920e+00) (14, 1.36263422598162946997e+02) (15, 9.78065132656072311335e-01) (16, 4.31207818641987614683e+01) (17, 6.30118318092932341301e+01) (18, -9.91826934985825836577e+00) (19, -1.66185353308492580027e+02) (20, -2.14960958159954307334e+00) (21, -6.76444649310093154781e+02) (22, -2.08848065837082970120e+01) (23, 5.99964901916586015318e+01) (24, -1.20718445128959253054e+01) (25, -2.14289885677601361635e+01) (26, -1.73581994827583798724e+01) (27, 6.39150956002843599890e+01) (28, -3.50815732553510713387e+02) (29, 1.78739844571443200039e+02) (30, -3.74131657652738036646e+00) (31, 6.08448909107965807408e+00) 
