FANN_FLO_2.1
num_layers=3
learning_rate=0.700000
connection_rate=1.000000
network_type=0
learning_momentum=0.000000
training_algorithm=2
train_error_function=1
train_stop_function=0
cascade_output_change_fraction=0.010000
quickprop_decay=-0.000100
quickprop_mu=1.750000
rprop_increase_factor=1.200000
rprop_decrease_factor=0.500000
rprop_delta_min=0.000000
rprop_delta_max=50.000000
rprop_delta_zero=0.100000
cascade_output_stagnation_epochs=12
cascade_candidate_change_fraction=0.010000
cascade_candidate_stagnation_epochs=12
cascade_max_out_epochs=150
cascade_max_cand_epochs=150
cascade_num_candidate_groups=2
bit_fail_limit=3.49999999999999977796e-01
cascade_candidate_limit=1.00000000000000000000e+03
cascade_weight_multiplier=4.00000000000000022204e-01
cascade_activation_functions_count=10
cascade_activation_functions=3 5 7 8 10 11 14 15 16 17 
cascade_activation_steepnesses_count=4
cascade_activation_steepnesses=2.50000000000000000000e-01 5.00000000000000000000e-01 7.50000000000000000000e-01 1.00000000000000000000e+00 
layer_sizes=4 9 2 
scale_included=0
neurons (num_inputs, activation_function, activation_steepness)=(0, 0, 0.00000000000000000000e+00) (0, 0, 0.00000000000000000000e+00) (0, 0, 0.00000000000000000000e+00) (0, 0, 0.00000000000000000000e+00) (4, 4, 5.00000000000000000000e-01) (4, 4, 5.00000000000000000000e-01) (4, 4, 5.00000000000000000000e-01) (4, 4, 5.00000000000000000000e-01) (4, 4, 5.00000000000000000000e-01) (4, 4, 5.00000000000000000000e-01) (4, 4, 5.00000000000000000000e-01) (4, 4, 5.00000000000000000000e-01) (0, 0, 0.00000000000000000000e+00) (9, 6, 5.00000000000000000000e-01) (0, 6, 0.00000000000000000000e+00) 
connections (connected_to_neuron, weight)=(0, 6.94157382332003347614e+00) (1, -6.18771522559389453022e+00) (2, -1.19933611773012955837e+01) (3, 1.48581962856364668824e+00) (0, -6.30296260347859984563e+01) (1, 9.18463667637322700443e+00) (2, 7.43954438802782988205e+02) (3, -8.76130261473228588720e-01) (0, -1.27043171851165599406e+01) (1, -2.75116652162778194679e+01) (2, 3.24090740264626219869e+02) (3, 3.92594739297023798130e+00) (0, -9.27442566319842143230e+00) (1, -1.69418336497313397615e+01) (2, -4.78755699737950290995e+00) (3, 5.87909900287396869345e+00) (0, -9.43260303689890555745e+00) (1, -2.57890184300029687847e+01) (2, 4.53211930825676319046e+01) (3, -1.58550414558792374109e-01) (0, 4.45295745569590977198e+01) (1, -1.75234944363988525140e+01) (2, -1.49222571498850106764e+03) (3, 5.93149827978892130176e+00) (0, 2.96753197786860134499e+01) (1, -6.49377661458528354643e+00) (2, -1.32695313254174891426e+02) (3, -2.83501101762109009030e+00) (0, 9.50641748038347422778e+00) (1, -9.61212313240408811055e+00) (2, -8.72470101377502658124e+01) (3, 1.16952232290594571040e+00) (4, -4.43833969599245889981e+01) (5, -1.36003316958848827767e+01) (6, -8.32366092365703913458e+00) (7, 4.39259985173030003125e+01) (8, -1.40000000000000000000e+03) (9, -1.62328040312278609747e+01) (10, 3.25637504291441644000e+01) (11, -7.46493123344478846093e+01) (12, 2.46442976908702107153e+01) 
