FANN_FLO_2.1
num_layers=3
learning_rate=0.700000
connection_rate=1.000000
network_type=0
learning_momentum=0.000000
training_algorithm=2
train_error_function=1
train_stop_function=0
cascade_output_change_fraction=0.010000
quickprop_decay=-0.000100
quickprop_mu=1.750000
rprop_increase_factor=1.200000
rprop_decrease_factor=0.500000
rprop_delta_min=0.000000
rprop_delta_max=50.000000
rprop_delta_zero=0.100000
cascade_output_stagnation_epochs=12
cascade_candidate_change_fraction=0.010000
cascade_candidate_stagnation_epochs=12
cascade_max_out_epochs=150
cascade_max_cand_epochs=150
cascade_num_candidate_groups=2
bit_fail_limit=3.49999999999999977796e-01
cascade_candidate_limit=1.00000000000000000000e+03
cascade_weight_multiplier=4.00000000000000022204e-01
cascade_activation_functions_count=10
cascade_activation_functions=3 5 7 8 10 11 14 15 16 17 
cascade_activation_steepnesses_count=4
cascade_activation_steepnesses=2.50000000000000000000e-01 5.00000000000000000000e-01 7.50000000000000000000e-01 1.00000000000000000000e+00 
layer_sizes=49 17 2 
scale_included=0
neurons (num_inputs, activation_function, activation_steepness)=(0, 0, 0.00000000000000000000e+00) (0, 0, 0.00000000000000000000e+00) (0, 0, 0.00000000000000000000e+00) (0, 0, 0.00000000000000000000e+00) (0, 0, 0.00000000000000000000e+00) (0, 0, 0.00000000000000000000e+00) (0, 0, 0.00000000000000000000e+00) (0, 0, 0.00000000000000000000e+00) (0, 0, 0.00000000000000000000e+00) (0, 0, 0.00000000000000000000e+00) (0, 0, 0.00000000000000000000e+00) (0, 0, 0.00000000000000000000e+00) (0, 0, 0.00000000000000000000e+00) (0, 0, 0.00000000000000000000e+00) (0, 0, 0.00000000000000000000e+00) (0, 0, 0.00000000000000000000e+00) (0, 0, 0.00000000000000000000e+00) (0, 0, 0.00000000000000000000e+00) (0, 0, 0.00000000000000000000e+00) (0, 0, 0.00000000000000000000e+00) (0, 0, 0.00000000000000000000e+00) (0, 0, 0.00000000000000000000e+00) (0, 0, 0.00000000000000000000e+00) (0, 0, 0.00000000000000000000e+00) (0, 0, 0.00000000000000000000e+00) (0, 0, 0.00000000000000000000e+00) (0, 0, 0.00000000000000000000e+00) (0, 0, 0.00000000000000000000e+00) (0, 0, 0.00000000000000000000e+00) (0, 0, 0.00000000000000000000e+00) (0, 0, 0.00000000000000000000e+00) (0, 0, 0.00000000000000000000e+00) (0, 0, 0.00000000000000000000e+00) (0, 0, 0.00000000000000000000e+00) (0, 0, 0.00000000000000000000e+00) (0, 0, 0.00000000000000000000e+00) (0, 0, 0.00000000000000000000e+00) (0, 0, 0.00000000000000000000e+00) (0, 0, 0.00000000000000000000e+00) (0, 0, 0.00000000000000000000e+00) (0, 0, 0.00000000000000000000e+00) (0, 0, 0.00000000000000000000e+00) (0, 0, 0.00000000000000000000e+00) (0, 0, 0.00000000000000000000e+00) (0, 0, 0.00000000000000000000e+00) (0, 0, 0.00000000000000000000e+00) (0, 0, 0.00000000000000000000e+00) (0, 0, 0.00000000000000000000e+00) (0, 0, 0.00000000000000000000e+00) (49, 4, 5.00000000000000000000e-01) (49, 4, 5.00000000000000000000e-01) (49, 4, 5.00000000000000000000e-01) (49, 4, 5.00000000000000000000e-01) (49, 4, 5.00000000000000000000e-01) (49, 4, 5.00000000000000000000e-01) (49, 4, 5.00000000000000000000e-01) (49, 4, 5.00000000000000000000e-01) (49, 4, 5.00000000000000000000e-01) (49, 4, 5.00000000000000000000e-01) (49, 4, 5.00000000000000000000e-01) (49, 4, 5.00000000000000000000e-01) (49, 4, 5.00000000000000000000e-01) (49, 4, 5.00000000000000000000e-01) (49, 4, 5.00000000000000000000e-01) (49, 4, 5.00000000000000000000e-01) (0, 0, 0.00000000000000000000e+00) (17, 6, 5.00000000000000000000e-01) (0, 6, 0.00000000000000000000e+00) 
connections (connected_to_neuron, weight)=(0, 1.64008583030227117483e+00) (1, 9.43829043718503291061e-01) (2, -1.20003178336558957717e+00) (3, -2.15417714363224410690e+00) (4, -1.21287998535204373241e+01) (5, -7.16717144499228275834e+00) (6, -7.05291455915944620614e+00) (7, -3.41937704193103986228e+00) (8, -5.10255608508532687573e-01) (9, -4.13427401134913552472e-01) (10, -3.96922057869728062141e-01) (11, -4.69876912911788735538e-01) (12, -2.23431516265451657333e-01) (13, -1.00860075400561952086e-01) (14, 1.88752526392392455667e-01) (15, 3.56843873234501229863e-01) (16, -1.47994717806427505957e-01) (17, -4.48986463083814013597e-01) (18, 2.92083262053512704437e-02) (19, 2.60438668948145823911e-01) (20, 2.91700916608761462445e-01) (21, -1.70936570473741056286e-01) (22, 1.49840359026773894957e-01) (23, -3.41632091681082128432e+00) (24, 2.08253533606460505823e+00) (25, 7.79279584093933164191e-01) (26, 1.69760343046793438226e+00) (27, 6.87380853992377138795e-01) (28, 6.03298597659767787960e-01) (29, 2.98708869537232912794e-01) (30, -8.61952781755584762635e-01) (31, -1.01775825874943448568e+00) (32, -2.69072911551941063024e+00) (33, -5.24659709752782088543e-01) (34, -3.61083969342022637061e-01) (35, 4.59074924873018930249e-01) (36, 4.33203363027841958921e-01) (37, -1.28499767347242499493e-01) (38, -1.04665277955748925454e-01) (39, 6.02278737244183903776e-01) (40, -1.82346718888698848537e-02) (41, -1.73857708372967878496e-01) (42, -2.77462856554384906804e-01) (43, 3.71970520832835757630e-02) (44, 1.05800900073679149394e+00) (45, 1.50714097274090796930e-01) (46, 2.18613421922726813840e-01) (47, 3.87701553663007274508e+01) (48, 1.03033957882539528583e+00) (0, 1.49412813363792551513e+00) (1, 5.06667579426831604650e+00) (2, -9.89384207191804643244e-01) (3, -6.47547061742592244826e-01) (4, -1.80504208967184753831e+00) (5, -1.32903614275256543031e+00) (6, -1.01017660313698987018e+00) (7, -4.36051323058343265338e-01) (8, -3.51535215999640549001e-01) (9, -2.46719147482991035814e-01) (10, -2.14685364785467652782e-01) (11, -2.51183137582561055723e-01) (12, -1.90895612461254082781e-01) (13, 1.59381306220801127749e-01) (14, 3.02586591246518321618e-01) (15, 4.48364684373927180339e-01) (16, 1.62990848307320246313e-01) (17, -1.35379762419363058878e-01) (18, 2.90006437571405983888e-01) (19, 9.27475171120617364329e-02) (20, 9.95931466591548741896e-01) (21, 1.13204223934373970906e+00) (22, 1.04720565125965170417e+00) (23, -5.98642126251713202478e-01) (24, 1.86785506457323124962e+00) (25, 2.97258412521429593589e-01) (26, 1.77853218815559876997e-01) (27, 1.96959542435317824793e-01) (28, -7.65444976751851746677e-02) (29, -1.79573348622060008362e-01) (30, -1.07154518674804211109e+00) (31, -5.13581955782176891034e+00) (32, -4.58286642972690749787e+00) (33, -5.80730500854984010850e-01) (34, -3.42306926792107113489e-01) (35, 1.64721600385061943406e-02) (36, -1.96223973053691103097e-01) (37, -1.24154513596495930106e-01) (38, -2.29841987143675430261e-01) (39, 2.94833035173871049750e-01) (40, -4.01072748863587902335e-02) (41, -3.18492559071962888506e-01) (42, -1.42877570217142008113e-01) (43, 3.93120689933677824879e-01) (44, 7.08319572374843708928e+00) (45, 1.87285983943793560291e-01) (46, 1.44431443143523019490e-01) (47, 3.98187349438684492497e+01) (48, 1.24161535326497962650e+00) (0, 1.34335340514550249935e+00) (1, 4.51273377794794650075e-01) (2, 1.32992076494677857745e+00) (3, 1.45431162452297702004e+00) (4, 1.78615355448339774291e+00) (5, 3.62225357821581006590e+00) (6, 4.54749978295789691884e+00) (7, 4.50488377505778014864e+00) (8, 5.03436304140939760998e+00) (9, 5.81505502250288586197e+00) (10, 1.97262577846880517995e+01) (11, 7.38014571223689301860e+01) (12, 1.98482979968424402273e+01) (13, 1.28788133349203426370e+00) (14, 1.01868581808978508896e+00) (15, 9.79074926911058129875e-01) (16, 1.09393419442216299764e+00) (17, 1.03016534531868906299e+01) (18, 4.66740123079272262174e+00) (19, 4.83392637356096166457e+00) (20, 3.29467609629031477070e+00) (21, 5.52833124100190076433e+00) (22, 2.38445423579870574571e+00) (23, 2.21811767717969203773e+01) (24, 6.29486635647291414841e+00) (25, 1.68324090695373529414e+00) (26, 1.15198762647748109700e+00) (27, 1.06726742175123168188e+00) (28, 9.83591890803400592524e-01) (29, 6.14271070303825106329e-01) (30, 9.09747793907654700440e-01) (31, 1.94529909112851804309e+01) (32, 1.91573884429435885579e+01) (33, 1.21293580392434297011e+00) (34, 1.26013059029414398182e+00) (35, 5.60736927454793532277e-01) (36, 4.46595187220826916885e-01) (37, 1.27571809635200805744e+00) (38, 2.25704151614849601870e+00) (39, 5.65389978429639561419e-01) (40, 5.03985547176595938268e-01) (41, 6.51063074416424636404e-01) (42, 5.82970334979800552944e-01) (43, 1.11901349666718674669e+00) (44, 7.80018389839608361491e-01) (45, 1.47332790784574019227e+00) (46, 1.78335667450273671619e+00) (47, 8.50030513590871228402e-01) (48, 1.76224772159047438080e+00) (0, 9.85691418874023894681e-01) (1, 3.88715874213747314414e-01) (2, 1.34563060098274545062e+00) (3, 1.56494651770191683937e+00) (4, 1.77035202787731482665e+00) (5, 3.57578899717328146934e+00) (6, 4.48017360977159473379e+00) (7, 4.61031176665662467684e+00) (8, 4.97107770244017910244e+00) (9, 5.97045270281410012103e+00) (10, 1.98338873520727716482e+01) (11, 7.38522410694791062724e+01) (12, 1.97337648816640935934e+01) (13, 1.24309269722484905252e+00) (14, 8.71069081498922703766e-01) (15, 1.10340214693373628307e+00) (16, 1.03412913340847656407e+00) (17, 1.04778286644662941285e+01) (18, 4.67386083201619140226e+00) (19, 4.82925015075975316847e+00) (20, 3.31675315007563886738e+00) (21, 2.63943045203746029514e+00) (22, 1.41823479019139919721e+00) (23, 9.62979858097300045472e+00) (24, 3.07158076323800299789e+00) (25, 1.75689282423250192622e+00) (26, 1.28068541668295976521e+00) (27, 1.18832922804139373696e+00) (28, 1.14180893348795575726e+00) (29, 1.29910499532773759945e+00) (30, 9.27458211416733679933e-01) (31, 1.94333683395188039356e+01) (32, 1.93407697075407689624e+01) (33, 1.24635607609584075917e+00) (34, 1.15114288637473327626e+00) (35, 7.03464352948502513740e-01) (36, 3.77539342055852156221e-01) (37, 7.29322431997726061681e-01) (38, 9.96039032101830201782e-01) (39, 4.66966124032595519822e-01) (40, 1.22874647063433850569e+00) (41, 8.03700336313750374195e-01) (42, 6.72324067744521580714e-01) (43, 7.80738994529275420753e-01) (44, 5.52106992417440767262e-01) (45, 1.61506490699983107362e+00) (46, 1.13231383144130681728e+00) (47, 7.84548367888235675949e-01) (48, 9.06030259742003130086e-01) (0, 1.61770770633709615183e+00) (1, 4.83399053974935599687e-01) (2, 1.53693570761785558432e+00) (3, 1.67950420688707580119e+00) (4, 2.02617353729343196989e+00) (5, 3.82802738826989008558e+00) (6, 4.57831819144237250896e+00) (7, 4.73978519782185969689e+00) (8, 5.06691330755130575625e+00) (9, 6.01945794435358294550e+00) (10, 1.99215778154917479981e+01) (11, 7.38511159853721892432e+01) (12, 1.98855811250992537964e+01) (13, 1.31116057397628837933e+00) (14, 1.02532523734267422277e+00) (15, 1.08863864838429158510e+00) (16, 1.10810873973529933068e+00) (17, 1.04865639649142377010e+01) (18, 4.84605301640007812836e+00) (19, 5.01201646734769479252e+00) (20, 3.37602046807543887397e+00) (21, 1.13162822863143190943e+01) (22, 3.74095308283635974433e+00) (23, 5.25820519957089587137e+01) (24, 6.29899267253294148361e+00) (25, 1.81309251468890852976e+00) (26, 1.28001485152007932200e+00) (27, 1.14508135827802393081e+00) (28, 1.30178598039015214205e+00) (29, 7.14906001082765918397e-01) (30, 9.22546295209857314390e-01) (31, 8.12366840790482314105e+00) (32, 1.92333088702910295353e+01) (33, 1.29633283301566137879e+00) (34, 1.31992192252848683509e+00) (35, 5.38881977323137251190e-01) (36, 3.43338083385959391691e-01) (37, 8.59829631215005552036e-01) (38, 1.14946409802595828076e+00) (39, 4.77284617626725471418e-01) (40, 7.26165382962422278901e-01) (41, 7.08399421717629818041e-01) (42, 7.45101061604726777610e-01) (43, 8.03911654458090763065e-01) (44, 6.68033796567800153277e-01) (45, 1.58525788156249269889e+00) (46, 1.20430656974307748186e+00) (47, 7.31912512322446362489e-01) (48, 1.92267178097674396042e+00) (0, 1.32000416601231851388e+00) (1, 5.01333856298989477551e+00) (2, -9.34464613113523023813e-01) (3, -6.57999192582220615577e-01) (4, -2.01649078120249347634e+00) (5, -1.66607168065613397978e+00) (6, -1.84405853382477813440e+00) (7, -1.28771388023719390858e+00) (8, -2.87920323388129728581e-01) (9, -2.96979769602249754623e-01) (10, -3.84428406045270232294e-01) (11, -2.90650240620212996223e-01) (12, -1.67238134145577171941e-01) (13, -7.65381098815571675464e-02) (14, 6.09079925014228418245e-02) (15, -5.60573662619093110449e-02) (16, -1.85796763499334827152e-01) (17, -7.14995995279141677292e-02) (18, -4.70358351412378417056e-01) (19, -5.18400570571128205266e-01) (20, 2.44908260607040684231e-01) (21, 6.66078689325277251143e-01) (22, 9.53270722925325664221e-01) (23, -2.29095369044886004728e-01) (24, 3.91700155107753911210e-01) (25, 1.95775357271322308916e-01) (26, 2.11948116506227551836e-01) (27, -8.04878684846630915173e-02) (28, -1.41859716496210486181e-01) (29, -7.80249913734642142060e-01) (30, -8.51823021255347145875e-01) (31, -3.04681243838337501018e+00) (32, -5.21831329726888260012e+00) (33, -7.29577536693772898957e-01) (34, -3.25487927646730568210e-01) (35, -1.69104166499914276844e-01) (36, -6.55926568680317984006e-02) (37, -1.10769956152246662473e-01) (38, -1.40522964953963103163e-01) (39, 2.05625754512057112855e-01) (40, 3.90019065360933862938e-05) (41, -1.44650601808340856236e-01) (42, -1.80974294488713355333e-01) (43, 3.81354900888831449546e-01) (44, 9.33612560305666860927e+00) (45, 1.82678447867669374594e-01) (46, 6.23744935150344695374e-02) (47, 1.11503331097218435275e+02) (48, 1.06379945490989902268e+00) (0, 1.84378842224053762777e+00) (1, 6.70602595620144459332e-01) (2, 1.55354951539422736495e+00) (3, 1.68858504554628297001e+00) (4, 8.56869014613641732936e-01) (5, 3.86925656205812007471e+00) (6, 4.67568969167498948991e+00) (7, 4.71978336567322820372e+00) (8, 5.22011685852464157875e+00) (9, 5.98063366573945920379e+00) (10, 1.99853295945811062495e+01) (11, 7.40814110588603540464e+01) (12, 1.99345687039470575996e+01) (13, 1.51045614343469369878e+00) (14, 1.13950265087461399816e+00) (15, 1.18884935188637852477e+00) (16, 1.18168641967615895005e+00) (17, 1.05928859891789723946e+01) (18, 4.83219747365965446306e+00) (19, 5.13100131213044452494e+00) (20, 7.26523346795519664454e+00) (21, 1.18887414340433270610e+01) (22, 4.34722884754758798209e+00) (23, 5.25595334021381646039e+01) (24, 6.43264565305574720355e+00) (25, 1.91641772172246160899e+00) (26, 1.43246366240423705918e+00) (27, 1.34133548152747561488e+00) (28, 1.32655955972814676436e+00) (29, 7.76609976478618513340e-01) (30, 1.13130113560023648489e+00) (31, 8.19452883392991004996e+00) (32, 8.21662213743151781387e+00) (33, 1.40802112940970625132e+00) (34, 1.28618283544007505625e+00) (35, 4.10926476438777332767e-01) (36, 3.82575205520818140137e-01) (37, 8.09781700037086382693e-01) (38, 1.08782643110165500033e+00) (39, 5.56044953863375490677e-01) (40, 7.23612824377905305973e-01) (41, 8.81933773202101867206e-01) (42, 7.40476138928336635736e-01) (43, 1.00297988435074247882e+00) (44, 7.93496910003704480907e-01) (45, 1.84744354851979197818e+00) (46, 1.27500571414502417156e+00) (47, 7.86827752477227582162e-01) (48, 1.97749913979757963034e+00) (0, 1.52286493821434443241e+00) (1, 2.16300358130902647957e+00) (2, -9.38012343985635155263e-01) (3, -3.69354142331913770647e+00) (4, -3.92495358037621810965e+00) (5, -2.44904852339622181034e+00) (6, -2.47631883974987809793e+00) (7, -1.48339572072432290817e+00) (8, -5.89110520938298631854e-01) (9, -6.19971131055803814647e-01) (10, -5.76508053659649299938e-01) (11, -3.64845904512514696005e-01) (12, -3.55945604844202623251e-01) (13, 6.65151202990618565028e-04) (14, 2.46736440622486258301e-01) (15, 1.61826346260636300123e-01) (16, -1.97885874069000711195e-01) (17, -4.46768749288970090650e-01) (18, -2.86033473477174204902e+00) (19, 5.26530133231067967725e-02) (20, -6.43994959886228568458e-01) (21, -6.34532738037263066566e-01) (22, -4.07839880338403015791e-01) (23, 5.47454238169614929022e-02) (24, 4.55635871333029907060e-01) (25, 8.57436175919205734175e-01) (26, 1.85841603191504001202e+00) (27, 6.81430671943330734663e-01) (28, 4.21172432194083345980e-01) (29, -6.77474237637996523631e-01) (30, -8.40867566789875953148e-01) (31, -1.43175298147068841281e+00) (32, -4.26823381521879596789e+00) (33, -7.14242470102574800173e-01) (34, -3.83898170174887087835e-01) (35, 3.62400349250580233740e-01) (36, -5.63053447937518561361e-02) (37, -1.79550739529474506773e-01) (38, -2.62674723326829506753e-01) (39, 1.79624185378894463128e-01) (40, 3.34961064863034257977e-02) (41, -1.53147188788157501138e-01) (42, -1.76340141652793852556e-01) (43, 2.21688217018308153516e-01) (44, 6.03485638576121719012e+00) (45, -1.79129989811082322715e-02) (46, 2.59562478711834410117e-01) (47, 3.86925201227656856418e+01) (48, 1.09502446862533120431e+00) (0, 1.36422737473133426356e+00) (1, 2.28205170127391765433e+00) (2, -9.60495067261396551217e-01) (3, -2.71420249732570306733e+00) (4, -2.67784273641543135724e+00) (5, -1.66663855395791293823e+00) (6, -1.14100416643419655394e+00) (7, -1.26532039969230680754e+00) (8, -2.71825835194076215195e-01) (9, -3.69799683208659746292e-01) (10, -5.21980629596705658635e-01) (11, -3.41064755642831340943e-01) (12, -2.23370458477491956595e-01) (13, 9.99785629074209231115e-02) (14, 3.94916731464710346611e-01) (15, 6.87997397491393769542e-01) (16, 8.48731147401992069845e-02) (17, 2.26472679732292458965e-01) (18, 5.00966310958515514962e-01) (19, 3.02021105618262231118e-01) (20, 9.70855316393840261924e-01) (21, 8.61507922348874077834e-01) (22, 1.21612449444154546718e+00) (23, -7.18421527244591406891e-01) (24, 7.67919379689209091744e-01) (25, 1.55377156422254358858e-01) (26, 1.21839896597765590114e-01) (27, 1.05482236600595719045e-02) (28, 4.98963217457686833423e-02) (29, -2.79371791525933832467e-01) (30, -1.15856880292544439648e+00) (31, -5.05787987777763348163e+00) (32, -3.61657245223131207368e+00) (33, -5.94374938801707330960e-01) (34, -2.28951704788395188350e-01) (35, 1.85843648966231067554e-01) (36, 3.86547907602966089868e-01) (37, -1.15382626502770357924e+00) (38, -1.10571187533840298300e+00) (39, 1.16854273645899775502e+00) (40, 6.46005037024159484149e-02) (41, -2.32777351815379424105e-01) (42, -6.44441800366511025056e-02) (43, 3.75967165799664604364e-01) (44, 2.27705763176683140259e+00) (45, 7.80948731261466022602e-02) (46, 1.12578834693775262088e-01) (47, 4.47821178831126260889e+01) (48, 1.90935552692658472296e+00) (0, 6.03971712630881119033e-01) (1, 5.04523622110668767959e+00) (2, -9.02168686767006788862e-01) (3, -2.25564846389766415768e+00) (4, -2.56967749091224417768e+00) (5, -1.15188570052985594927e+00) (6, -1.15742696367241948430e+00) (7, -1.13325626155609215928e+00) (8, -3.03205309567262604187e-01) (9, -2.39745574202381378504e-01) (10, -4.44317323449845480443e-01) (11, -1.66570317769467846070e-01) (12, -9.58163243441012418833e-02) (13, 5.69586046362035788859e-02) (14, 3.29760845351066533837e-01) (15, 7.17167693719576004874e-01) (16, 1.70260276131978249836e-02) (17, -1.98427650131903166031e-01) (18, 3.39090615279273643878e-01) (19, 3.13225798045953685023e-01) (20, 1.15002818934334949397e+00) (21, 1.15351753343658147699e+00) (22, 1.22195429063657567959e+00) (23, -9.48682144667649329683e-01) (24, 3.02709549356149409949e-01) (25, 4.85859304016210025168e-01) (26, 3.92093010959986165709e-01) (27, 2.69727494341982343418e-01) (28, 1.27683893879986798403e-01) (29, -3.82157272341213327671e-01) (30, -1.28931797957969518365e+00) (31, -5.07501175770336132587e+00) (32, -3.56593008850421933076e+00) (33, -2.73445087880271053837e-01) (34, -2.00642583060451795696e-01) (35, 1.43285832687284342413e-01) (36, 1.01203794910575767263e-01) (37, -1.17896366714495592909e+00) (38, -1.20959988035663723593e+00) (39, 1.16047255067847276955e+00) (40, 2.31229389708185600893e-02) (41, -1.70812250861184955486e-01) (42, -9.80199309240450816771e-02) (43, 3.55209907861279594599e-01) (44, 2.02628258267282879146e+00) (45, 1.82847743856431294018e-01) (46, 1.28693504149159893002e-01) (47, 3.89617800499873325748e+01) (48, 1.82939185379313928870e+00) (0, 7.81028733250792139842e-01) (1, 5.07380780443731893570e+00) (2, -1.01588147439518139414e+00) (3, -9.38387007632711767080e-01) (4, -2.11640488280488137107e+00) (5, -1.07142084222079514433e+00) (6, -1.11005607362768521362e+00) (7, -1.21810966386214913904e+00) (8, -3.19175213296721049794e-01) (9, -3.05529217530342178666e-01) (10, -2.48451794365200373527e-01) (11, -2.49614396703860319526e-01) (12, -1.12350909328239753626e-01) (13, 1.63721806245620021825e-01) (14, 3.10685823842474173606e-01) (15, 4.97464279763806915824e-01) (16, 1.19701403122409746893e-01) (17, 4.23707967191330400758e-02) (18, 8.85176728556489877953e-02) (19, 1.64152686445243112257e-01) (20, 1.07433104705549919977e+00) (21, 1.26696704236852086822e+00) (22, 1.12246404920455655763e+00) (23, -5.04790125527800004335e-01) (24, 2.81513480668708016008e-01) (25, 4.33477536557081710722e-01) (26, 2.91126386084459787273e-01) (27, 1.61333496685004164350e-02) (28, 6.64333999496752591885e-02) (29, -3.80724622436602766484e-01) (30, -1.28952624902547596797e+00) (31, -4.12709967423375978512e+00) (32, -4.28645526072231142223e+00) (33, -5.53991622909826619825e-01) (34, -3.50190433382853605337e-01) (35, 2.49717296874202715484e-01) (36, 5.32530708837456567828e-01) (37, -9.90890798237750947131e-01) (38, -2.10151176743118828227e+00) (39, 1.20520932162872318472e+00) (40, 1.70324533331365463029e-01) (41, -5.13387982704908776843e-02) (42, -1.06994937347844112918e-01) (43, 6.12195806351949145530e-01) (44, 2.23722617224458497631e+00) (45, -3.51897544200750270194e-02) (46, 1.95844889287695139712e-01) (47, 2.53069397640295363772e+01) (48, 1.99463002523041454950e+00) (0, 1.14190358596409735625e+00) (1, 7.23232409172047452373e-01) (2, 1.59936892458583579391e+00) (3, 1.80710311493276520878e+00) (4, 2.00833583803788862099e+00) (5, 3.96746946356096819031e+00) (6, 4.83563098497418764055e+00) (7, 4.91377597734850191102e+00) (8, 5.29638718242582928752e+00) (9, 6.05310047569649967159e+00) (10, 2.00146088235354326912e+01) (11, 7.39881450597518011136e+01) (12, 2.00196923695778750130e+01) (13, 1.57681543987577188481e+00) (14, 1.15701155998086857579e+00) (15, 1.35833102861273191664e+00) (16, 1.33006674084983922413e+00) (17, 1.06122585573678893667e+01) (18, 4.89706352473749628729e+00) (19, 5.05557273685311603373e+00) (20, 3.38337792674289072892e+00) (21, 5.25021250624477708868e+00) (22, 9.67745552789538665550e-01) (23, 2.23071463575639867827e+01) (24, 6.43863322274549787494e+00) (25, 1.93111504993233862315e+00) (26, 1.54337309457701232773e+00) (27, 1.46877266767803815739e+00) (28, 1.27893700944924471052e+00) (29, 1.51784444754477720885e+00) (30, 1.14154002147975308645e+00) (31, 8.40427417168439916395e+00) (32, 1.96439289466878932444e+01) (33, 1.26407942895118008408e+00) (34, 1.38644622985545362681e+00) (35, 9.94510639326823486783e-01) (36, 5.36846390918920390867e-01) (37, 8.69986362419688630254e-01) (38, 1.10946242914209269870e+00) (39, 9.87517039570105947810e-01) (40, 1.54785120395641939695e+00) (41, 8.47748423260848205096e-01) (42, 7.92651079633636013178e-01) (43, 9.35674453580821796628e-01) (44, 8.25670849052947963820e-01) (45, 1.71712739535111369449e+00) (46, 1.29208139061601912090e+00) (47, 9.00126455138348435803e-01) (48, 1.23652262501650378468e+00) (0, 1.43142881328395166207e+00) (1, 5.01034827991789999402e+00) (2, -1.04461508856145068869e+00) (3, -1.59599221726517082054e+00) (4, -1.67539100944318253283e+00) (5, -1.66242294628613107577e+00) (6, -1.11552772941564293241e+00) (7, -5.85414647291548240204e-01) (8, -3.28960339694293724122e-01) (9, -2.33616341043861225346e-01) (10, -3.91939363543106711330e-01) (11, -1.51076390994437481652e-01) (12, -5.42567473852150622404e-02) (13, -5.19276923910487742120e-02) (14, 2.79760875769969108440e-01) (15, 3.56973534898541222660e-01) (16, -2.29331789841687554155e-02) (17, 1.39402967019485124478e-01) (18, 2.01799219637418508766e-01) (19, 9.71256260532580850686e-02) (20, -2.85672397333539052067e-01) (21, 7.07278064777412729391e-01) (22, 1.00646196348680772026e+00) (23, -4.65866426381441767202e-01) (24, 1.19683542290727848445e-01) (25, 5.01514340264011093673e-01) (26, 1.67965635214183423018e-01) (27, 8.15148857063601878226e-02) (28, -8.67899295681720667206e-02) (29, -4.18441394970503421913e-01) (30, -5.69541483013301985672e-01) (31, -5.81529913944478860088e+00) (32, -4.20836083235378666245e+00) (33, -5.99069657263896493404e-01) (34, -4.36482234686695724779e-01) (35, 4.05254776058953658513e-02) (36, -2.25864744733903534402e-02) (37, -2.71319797973440079986e-01) (38, -8.87022929476837113105e-02) (39, 8.08143834610276834418e-01) (40, 1.01022158512842255562e-01) (41, -2.95766468052276354506e-01) (42, -1.91930139525270909706e-01) (43, 4.20142761955194898871e-01) (44, 8.94401319022898633193e+00) (45, 1.02859398665853279953e-01) (46, 1.23514046334111518566e-01) (47, 5.25627699349571457788e+01) (48, 1.84565483326113666251e+00) (0, 2.45984291554540712710e+00) (1, 4.41777463812403292653e-01) (2, 1.38776419305189446796e+00) (3, 5.40559654374286546741e-01) (4, 7.45204025374769041257e-01) (5, 3.61250983929631352964e+00) (6, 4.51699174902664157827e+00) (7, 4.65158139685033500399e+00) (8, 4.91636544723167467907e+00) (9, 5.70862713691090206680e+00) (10, 1.97656754911180101431e+01) (11, 7.37977887396050675761e+01) (12, 1.96943564474816881216e+01) (13, 1.28057340171121913919e+00) (14, 8.73019159211458561920e-01) (15, 9.70625461874665917961e-01) (16, 1.06282785651723266085e+00) (17, 1.02621608982242555896e+01) (18, 1.04135539659704292603e+01) (19, 4.85159292205148595656e+00) (20, 6.99322852237501546568e+00) (21, 1.20817259642145149456e+01) (22, 1.49684498899607620892e+00) (23, 5.23326810462367504329e+01) (24, 6.31128813646311037644e+00) (25, 1.64754569685451501826e+00) (26, 1.24243528328776475789e+00) (27, 1.03691836830875372399e+00) (28, 1.12078044461352011041e+00) (29, 5.80124210061935152716e-01) (30, 1.04002885484172180597e+00) (31, 8.08921702182126090008e+00) (32, 8.04140800958704993207e+00) (33, 1.20106029370858369276e+00) (34, 1.20376758882834611342e+00) (35, 5.50057041709745009328e-01) (36, 4.24975926909700207901e-01) (37, 1.18884706095495551459e+00) (38, 2.19305926784222160464e+00) (39, 4.25773138841951226397e-01) (40, 5.10686621717211353122e-01) (41, 6.26498521364237670461e-01) (42, 6.39685123059062443751e-01) (43, 4.50900671881950321218e-01) (44, 4.09238169805163198856e-01) (45, 1.58437604002690779481e+00) (46, 1.82766674507702031605e+00) (47, 7.03816566606542126650e-01) (48, 1.83380329880900694306e+00) (0, 2.53089661420435030337e+00) (1, 3.43403614867500539543e-01) (2, 1.30626599484070138324e+00) (3, 5.51079833198949708972e-01) (4, 7.79307962821840227718e-01) (5, 3.63946753001210332457e+00) (6, 4.60355391315446826894e+00) (7, 4.65748490908979118075e+00) (8, 4.84010330844774294690e+00) (9, 5.77838337656353573379e+00) (10, 1.97331484721250980385e+01) (11, 7.37722203884555085551e+01) (12, 1.97570771932836137807e+01) (13, 1.16401818033241588601e+00) (14, 9.47405636681856511139e-01) (15, 1.02973837885205932174e+00) (16, 1.01359103736916900118e+00) (17, 1.02583847614385099689e+01) (18, 1.04058726483429992982e+01) (19, 4.80694159253412145461e+00) (20, 7.12790018065252706236e+00) (21, 5.79257149623327372012e+00) (22, 2.67612030917535248520e+00) (23, 5.24676810553264587611e+01) (24, 6.18536872736686937913e+00) (25, 1.79404489105932207771e+00) (26, 1.22592281483054277302e+00) (27, 1.12119228777191137780e+00) (28, 1.02327105673295615240e+00) (29, 5.14468397440818736577e-01) (30, 1.01697741412593223309e+00) (31, 8.06276132887435004193e+00) (32, 8.07737835100126311261e+00) (33, 1.29651065776183305189e+00) (34, 1.18783208588196931288e+00) (35, 4.20131306414926075643e-01) (36, 3.47383978698507234206e-01) (37, 1.25947373703756637653e+00) (38, 2.06903702988569770937e+00) (39, 4.71919058552348946733e-01) (40, 6.51069544903036478978e-01) (41, 7.55049862957503425953e-01) (42, 6.60262680444030247706e-01) (43, 4.54004322988307895681e-01) (44, 4.21234275118464285281e-01) (45, 1.47934006817675101075e+00) (46, 1.77498388339126744739e+00) (47, 6.45604000330373128946e-01) (48, 1.72499119017310409419e+00) (0, 1.74202575344495791398e+00) (1, 1.80894815822870563826e-01) (2, -1.06991974974230230622e+00) (3, -1.66086951571457248633e+01) (4, -5.01508921374944023341e+01) (5, -1.82520843089138935511e+01) (6, -5.62780931904485992590e+00) (7, -1.76765832687336743589e+00) (8, -2.56848864552515210313e-01) (9, -3.33416771314737903076e-01) (10, -9.63389690641897611378e-02) (11, -6.81656768769388354823e-02) (12, -2.06356251036712456948e-01) (13, 1.69191856769764781276e-02) (14, -9.79709742289056467746e-02) (15, -8.81231132723157839504e-02) (16, -5.16022284713880188822e-02) (17, -9.79747971333673889349e-02) (18, 1.50450784504783308115e+00) (19, 7.34851372958326476414e-01) (20, 1.61185456941618832083e+00) (21, 1.78137929906496372823e+00) (22, 8.91681033581013027245e-01) (23, 8.42065754639800267967e-01) (24, 8.24750837513728241035e-01) (25, 1.39635505437526952210e-01) (26, 1.56282791322386815924e-01) (27, -6.90623757569435031689e-02) (28, 1.01891361527090129613e+00) (29, 2.86528590488136769565e+00) (30, 2.22438528238573574036e-01) (31, -3.15993573975730801529e-01) (32, -1.43601232879114149021e+00) (33, -2.16406864876084903404e-01) (34, -8.14000993174506248806e-02) (35, -1.88006026161781469863e-01) (36, -1.17969853843174821151e-01) (37, -1.30219873955172371627e-01) (38, -3.53460296023505482488e-01) (39, -5.74686119033131631584e-02) (40, -1.56884317357211644506e-01) (41, -3.57402617559211155385e-01) (42, -2.24498819456227821645e-01) (43, -1.26759659123952869025e-02) (44, 1.97771926287718224913e-01) (45, 2.07106380828043779019e-01) (46, 1.18872990172201140058e-01) (47, 4.18803175023621605533e+01) (48, 2.07660845289070161712e+00) (49, -3.61927135465006211135e+00) (50, -3.82642880234599847000e+00) (51, 1.05942525048756230888e+00) (52, 1.06432532598280515934e+00) (53, 1.08165235896610845145e+00) (54, -3.95191483512302133008e+00) (55, 1.11664272178911794242e+00) (56, -3.61681505504082290159e+00) (57, -3.66484023268568215315e+00) (58, -3.89160127120113985555e+00) (59, -4.40093513141532710620e+00) (60, 1.12938629915022481498e+00) (61, -3.67754493384967107161e+00) (62, 1.05695667197012532768e+00) (63, 1.06464867373013105656e+00) (64, -9.69288896566584057268e+00) (65, 1.17667249669336881901e+00) 
