FANN_FLO_2.1
num_layers=3
learning_rate=0.700000
connection_rate=1.000000
network_type=0
learning_momentum=0.000000
training_algorithm=2
train_error_function=1
train_stop_function=0
cascade_output_change_fraction=0.010000
quickprop_decay=-0.000100
quickprop_mu=1.750000
rprop_increase_factor=1.200000
rprop_decrease_factor=0.500000
rprop_delta_min=0.000000
rprop_delta_max=50.000000
rprop_delta_zero=0.100000
cascade_output_stagnation_epochs=12
cascade_candidate_change_fraction=0.010000
cascade_candidate_stagnation_epochs=12
cascade_max_out_epochs=150
cascade_max_cand_epochs=150
cascade_num_candidate_groups=2
bit_fail_limit=3.49999999999999977796e-01
cascade_candidate_limit=1.00000000000000000000e+03
cascade_weight_multiplier=4.00000000000000022204e-01
cascade_activation_functions_count=10
cascade_activation_functions=3 5 7 8 10 11 14 15 16 17 
cascade_activation_steepnesses_count=4
cascade_activation_steepnesses=2.50000000000000000000e-01 5.00000000000000000000e-01 7.50000000000000000000e-01 1.00000000000000000000e+00 
layer_sizes=13 19 2 
scale_included=0
neurons (num_inputs, activation_function, activation_steepness)=(0, 0, 0.00000000000000000000e+00) (0, 0, 0.00000000000000000000e+00) (0, 0, 0.00000000000000000000e+00) (0, 0, 0.00000000000000000000e+00) (0, 0, 0.00000000000000000000e+00) (0, 0, 0.00000000000000000000e+00) (0, 0, 0.00000000000000000000e+00) (0, 0, 0.00000000000000000000e+00) (0, 0, 0.00000000000000000000e+00) (0, 0, 0.00000000000000000000e+00) (0, 0, 0.00000000000000000000e+00) (0, 0, 0.00000000000000000000e+00) (0, 0, 0.00000000000000000000e+00) (13, 4, 5.00000000000000000000e-01) (13, 4, 5.00000000000000000000e-01) (13, 4, 5.00000000000000000000e-01) (13, 4, 5.00000000000000000000e-01) (13, 4, 5.00000000000000000000e-01) (13, 4, 5.00000000000000000000e-01) (13, 4, 5.00000000000000000000e-01) (13, 4, 5.00000000000000000000e-01) (13, 4, 5.00000000000000000000e-01) (13, 4, 5.00000000000000000000e-01) (13, 4, 5.00000000000000000000e-01) (13, 4, 5.00000000000000000000e-01) (13, 4, 5.00000000000000000000e-01) (13, 4, 5.00000000000000000000e-01) (13, 4, 5.00000000000000000000e-01) (13, 4, 5.00000000000000000000e-01) (13, 4, 5.00000000000000000000e-01) (13, 4, 5.00000000000000000000e-01) (0, 0, 0.00000000000000000000e+00) (19, 6, 5.00000000000000000000e-01) (0, 6, 0.00000000000000000000e+00) 
connections (connected_to_neuron, weight)=(0, 8.24417095277679479182e-01) (1, -1.48969505133072344094e+00) (2, -2.40909436868318627134e+00) (3, -6.00353427627841940151e-01) (4, 1.40279261631909429875e-01) (5, -1.19701618255697006532e+00) (6, 1.77447600034549313186e+00) (7, -8.76818366705384200088e+00) (8, -1.85732714817060262646e+00) (9, -8.87620586805118239049e-01) (10, 2.98185431394952171757e+00) (11, 2.59524995486626380625e+02) (12, 2.80187610073554693724e-01) (0, 3.14381139264763243002e-01) (1, 1.67618901494072005676e+01) (2, 1.34729258254061323719e+00) (3, -6.36342161767968939046e+00) (4, -1.51149578675225576552e-01) (5, 1.13319985325105654361e+00) (6, -7.57617570351217661795e+00) (7, 3.38449940452910125188e+00) (8, 2.76044164557426252582e-01) (9, -3.85636888721860748852e-01) (10, -3.53476208834373251122e+00) (11, -4.08811127790281503280e+00) (12, 8.85931249041387092191e-01) (0, 5.95574543258942767920e-01) (1, -2.58974716857662201619e+00) (2, -7.59370636468594595314e-01) (3, -1.57550372015586193086e-01) (4, 1.08351107559007853176e+00) (5, 1.14215542284859350453e+00) (6, -1.47380321000528113906e-01) (7, -7.66224762579323837031e+00) (8, -5.89871176429465293722e-01) (9, 3.04987058507666330964e-01) (10, 2.68255555699424519389e+00) (11, 3.14865446569269096244e+01) (12, 1.31398710573817734115e+00) (0, -6.17955999576579095844e-01) (1, -2.57999613253351567366e+00) (2, -3.36050530068875943357e+01) (3, -4.43888570789051639665e-01) (4, 5.84768845643318657679e-02) (5, -4.24243881446625970000e+00) (6, -9.13123879082210043734e-01) (7, 3.35524397751065306394e+00) (8, -2.01684023882698193475e+00) (9, -4.11541350326757704448e-01) (10, 8.66371594679533174599e-01) (11, 2.07918746953531119459e+00) (12, 1.48258467439682628530e-01) (0, 8.99586676260637485569e-01) (1, 9.38381170779094553325e+00) (2, 3.05839153494880058304e+01) (3, 1.06282261399989574890e+00) (4, 9.82621052071217082613e-01) (5, 4.97492000533246923055e+01) (6, 1.11217153511337185634e+00) (7, 1.50000000000000000000e+03) (8, 1.08647360535029591233e+00) (9, 1.50314909534795426715e+00) (10, -1.68035428812027887169e+00) (11, 5.90681546668095580621e-01) (12, 2.46165727294683422954e+00) (0, -7.77094648548255833020e+01) (1, -6.08593474206573681329e+00) (2, -2.38466211473094352735e-01) (3, -1.25551594211616379670e-01) (4, 2.11106526220429602247e+00) (5, 2.30756148833212826332e+00) (6, 1.00390845399231844887e-02) (7, -3.74031437335568206493e+00) (8, 1.44142603354835086016e+00) (9, -1.81673391529098982033e+00) (10, -2.07600513723846885616e-01) (11, 4.03847922044988862922e+01) (12, 1.28751994670138958377e+00) (0, -2.02434123238718205462e-02) (1, -1.48358873076206831954e+00) (2, -2.25511575200451241940e+00) (3, -1.27111190070213431191e-01) (4, 1.05701366655761552771e+00) (5, 5.63682042307887654076e-01) (6, -1.34744252442586309737e-01) (7, -5.41249989064336922695e+00) (8, 3.23275502662737301840e-01) (9, 1.93233144019339581066e-01) (10, 1.70550350258822436267e+00) (11, 1.30069697694840353819e+01) (12, 4.26282782638424950772e-01) (0, 9.64065659609702856059e-03) (1, -2.53571907074129665460e+00) (2, -5.75574378631903549319e+00) (3, -5.79261426858383332572e-01) (4, -4.33332495493809033427e-01) (5, 1.87293124657449683301e-01) (6, 6.38444250173993665953e+00) (7, -7.81727519708560958378e+00) (8, -2.24858680484466155747e+00) (9, -1.01134363778983238369e+00) (10, 7.63618901807554895100e+00) (11, 1.33151840309194028578e+02) (12, 2.20058838015659397058e-01) (0, 5.25751620964118981938e-01) (1, -2.80466104188105758155e+00) (2, -7.77369343327310113878e-01) (3, -1.82571480351512382967e-01) (4, 1.06707890568065244530e+00) (5, 1.22558239717993733287e+00) (6, 1.02888047028736565047e-01) (7, -8.03556216586138738478e+00) (8, -5.27337860454921814046e-01) (9, 4.14296450226208978762e-01) (10, 2.68828910206805637984e+00) (11, 3.15947813324027535486e+01) (12, 1.32550421658098649402e+00) (0, 1.97044294768656924610e+00) (1, 1.76462928008597685903e+01) (2, 9.93765480189909622410e-01) (3, -3.99795816982208496171e+00) (4, -3.56028841956829433801e-01) (5, 9.99731229274722354994e-01) (6, -5.29274061480648505551e+00) (7, 1.15306550720689093836e+00) (8, 1.25369290967778934665e-01) (9, 3.61730304879924247086e-01) (10, -3.25391535919488883444e-01) (11, -1.10225776353508759797e+01) (12, -1.81918252895584053874e-01) (0, 7.76320351859735358069e-01) (1, 9.37400796562061522366e+00) (2, 1.32660931986512888869e+01) (3, 9.96179157710468721199e-01) (4, 9.83202316567066691988e-01) (5, 4.98160289747619557943e+01) (6, 1.07951133392146969570e+00) (7, 1.50000000000000000000e+03) (8, 9.88456446999348758986e-01) (9, 1.42759238498552032404e+00) (10, -1.60553139661670685179e+00) (11, 6.60321698824448577447e-01) (12, 3.00330015371534431168e+00) (0, 8.36470286764847692496e-01) (1, -1.20653088861721080605e+00) (2, -6.02682066261893290005e+00) (3, 3.92512053731715049310e+00) (4, 4.19652127771328667394e-02) (5, 5.89382029828085185486e-01) (6, 8.23556200156643214427e+00) (7, -8.54611571653722101871e+00) (8, -1.82485955962183377110e+00) (9, -7.74108381494209574214e-01) (10, 1.70802122924232357981e-01) (11, 2.40853959278630362917e+01) (12, 2.87077881507901311320e-01) (0, 6.19276285910788648614e-01) (1, -2.57270273014729866645e+00) (2, -4.51481287514312934483e-01) (3, 2.78181246563678720093e-04) (4, 1.15480828942090307798e+00) (5, 1.31064773094814013277e+00) (6, 1.10793069936401866737e-01) (7, -7.57589030770638949264e+00) (8, -5.09687029884114073397e-01) (9, -2.05363234934696575751e-01) (10, 9.62186422645435524004e-01) (11, 2.88877997026060029384e+01) (12, 1.25817756487898591011e+00) (0, -1.10211908670646607789e+00) (1, -3.29917226412517061718e+00) (2, -1.23547317233708486839e+01) (3, -5.96029788787146519446e-01) (4, -5.60758134198455476110e-03) (5, -1.97234715430721774254e+00) (6, -8.55452290073319132624e-01) (7, -6.47544562101746645766e+00) (8, -1.94280219549476007579e+00) (9, -8.70205193064915838441e-01) (10, -2.22064645233865598506e-01) (11, 2.23221567526105468815e+00) (12, 2.13565550794196007400e-01) (0, -5.86112760703203838908e-01) (1, -1.62649828304511534505e+00) (2, -5.15358411374507863201e+00) (3, 1.33839383010435097887e+00) (4, -1.02598344153350170410e-02) (5, 3.92284511725421725092e-01) (6, -9.96797650795972378646e-01) (7, 1.16969369176691664336e+01) (8, -1.81303504531772197161e+00) (9, -9.09116909919524318617e-01) (10, -5.78757226844679006916e+00) (11, 7.73340960401327404128e+00) (12, 1.91777030687977079193e-01) (0, 3.08427965637471821481e+01) (1, 1.66334103358001108575e+01) (2, 1.20909237228599586444e+00) (3, -2.82294253843307263452e+00) (4, -6.29193421337603475685e-01) (5, 7.03741869752114057590e-01) (6, -1.99256840799513446072e+00) (7, 1.38188787700758308752e+00) (8, -7.84445970895398581035e-01) (9, 4.13681238646619375832e-01) (10, -1.65379996925691363785e+00) (11, -1.05033082527902497105e+01) (12, 1.65772926668017517304e-01) (0, 3.76858152155582937226e-01) (1, 1.79033688114089741816e+01) (2, 1.91551913264786510815e+00) (3, -1.26083810290941372712e-01) (4, -1.74109414847158916473e-01) (5, 2.90546759186060654656e+00) (6, -2.99352036727584147613e+00) (7, 2.74789749379667691542e+00) (8, -2.60472676235688149760e-01) (9, 8.28516200271807723432e-01) (10, -2.19594559825445116985e+01) (11, -5.57719216930452788006e+00) (12, 8.43117990817189633113e-01) (0, 2.16624363077076331763e+00) (1, 1.77457805623003537221e+01) (2, 2.05206185982076183549e+00) (3, -7.43120984730134370722e+00) (4, -1.30555946552152385420e-01) (5, 6.96713003140971176563e-01) (6, -4.59632534359743516461e+00) (7, 3.05367012543537130753e+00) (8, 9.19380253012926640377e-02) (9, 3.45676961617797762205e-01) (10, -4.47296400458375487119e+00) (11, -2.31003656685502134494e+00) (12, 6.63891595368308329306e-01) (13, -2.01008739306780892520e+00) (14, 9.38017761794124882435e-01) (15, -5.01651469763857349449e+00) (16, 1.02463774996036232068e+01) (17, 2.35659912896862921983e+00) (18, -2.11413172903856079188e+01) (19, -5.63475799530032972484e+00) (20, -1.22370393891167728029e+00) (21, -6.44765232785596875686e+00) (22, 9.84272113529239933705e-01) (23, 9.87943971632652129244e-01) (24, -1.34940977117412703734e+01) (25, -6.19061959361016533876e+00) (26, 2.37052097161631536437e+00) (27, 5.01858109532924157037e+00) (28, 9.82794149027357177850e-01) (29, 2.37512749997876593255e+00) (30, 9.48845228639637383594e-01) (31, 1.77988811124899753979e-01) 
