FANN_FLO_2.1
num_layers=3
learning_rate=0.700000
connection_rate=1.000000
network_type=0
learning_momentum=0.000000
training_algorithm=2
train_error_function=1
train_stop_function=0
cascade_output_change_fraction=0.010000
quickprop_decay=-0.000100
quickprop_mu=1.750000
rprop_increase_factor=1.200000
rprop_decrease_factor=0.500000
rprop_delta_min=0.000000
rprop_delta_max=50.000000
rprop_delta_zero=0.100000
cascade_output_stagnation_epochs=12
cascade_candidate_change_fraction=0.010000
cascade_candidate_stagnation_epochs=12
cascade_max_out_epochs=150
cascade_max_cand_epochs=150
cascade_num_candidate_groups=2
bit_fail_limit=3.49999999999999977796e-01
cascade_candidate_limit=1.00000000000000000000e+03
cascade_weight_multiplier=4.00000000000000022204e-01
cascade_activation_functions_count=10
cascade_activation_functions=3 5 7 8 10 11 14 15 16 17 
cascade_activation_steepnesses_count=4
cascade_activation_steepnesses=2.50000000000000000000e-01 5.00000000000000000000e-01 7.50000000000000000000e-01 1.00000000000000000000e+00 
layer_sizes=5 11 2 
scale_included=0
neurons (num_inputs, activation_function, activation_steepness)=(0, 0, 0.00000000000000000000e+00) (0, 0, 0.00000000000000000000e+00) (0, 0, 0.00000000000000000000e+00) (0, 0, 0.00000000000000000000e+00) (0, 0, 0.00000000000000000000e+00) (5, 4, 5.00000000000000000000e-01) (5, 4, 5.00000000000000000000e-01) (5, 4, 5.00000000000000000000e-01) (5, 4, 5.00000000000000000000e-01) (5, 4, 5.00000000000000000000e-01) (5, 4, 5.00000000000000000000e-01) (5, 4, 5.00000000000000000000e-01) (5, 4, 5.00000000000000000000e-01) (5, 4, 5.00000000000000000000e-01) (5, 4, 5.00000000000000000000e-01) (0, 0, 0.00000000000000000000e+00) (11, 6, 5.00000000000000000000e-01) (0, 6, 0.00000000000000000000e+00) 
connections (connected_to_neuron, weight)=(0, -6.95327710081074457094e+01) (1, 4.17511694988830495134e+00) (2, -1.83731886798016197382e+00) (3, 4.83609069124302152431e+02) (4, 2.21315158190618621603e+00) (0, -1.80979360437220648805e+01) (1, 4.39575052312525416109e-01) (2, -6.51531446222115473432e+00) (3, 6.44574036749610996822e+01) (4, 3.07329206306820923444e+00) (0, -7.79369871802721370102e+00) (1, 6.68388909384956519943e+01) (2, -4.62850485423773250204e+00) (3, -2.97637741907281167641e+02) (4, -7.12287571305639577446e+00) (0, 2.18783150115045943451e+00) (1, -6.61888492134895756180e+01) (2, -4.76992824274161275611e+00) (3, 6.10633198183242029700e+02) (4, 2.20364092711603909436e+01) (0, -2.42113918935458869441e+01) (1, -1.59149981114854199404e+02) (2, 5.60808608528635161861e+01) (3, -1.34271049942238983022e+03) (4, 6.75063808808292442620e+00) (0, -1.99694112357834647753e+01) (1, 8.35276438461515002842e-01) (2, -6.45553860935540946286e+00) (3, 7.65892024943085800714e+01) (4, 3.20816425483394818130e+00) (0, 3.79144129900591195792e+01) (1, 8.21066761235990156820e+01) (2, -4.12597129387687644453e+01) (3, -5.67970212636475480394e+02) (4, -5.07536620407994298887e+00) (0, -2.75831590183631583102e+01) (1, 9.16919511592013805057e+01) (2, -5.53587372062011269236e+01) (3, -2.38090816331650103166e+02) (4, 1.05555382880352266461e+00) (0, -4.19107724475794096719e+00) (1, 3.56478526447965634816e+02) (2, -1.00662643260626600750e+03) (3, -1.47150073793354681584e+03) (4, 3.03781251706398158774e+01) (0, 6.02093346779821114723e+00) (1, -1.12654766564903940917e+01) (2, 1.36361873195968854589e+01) (3, -1.13905513386896041084e+03) (4, -3.14419452995819392882e+00) (5, -1.30210759888512672688e+01) (6, -1.03664397358316335840e+01) (7, -2.07517566625642082556e+01) (8, -9.81733327625679663697e+00) (9, 3.22053094158050683404e+01) (10, -2.29347067973687188669e+01) (11, 2.16577673696402399628e+01) (12, -1.21118867231048064070e+01) (13, 3.16118644413729725784e+01) (14, 9.05510185494982238197e+01) (15, 2.10381663941594787559e+01) 
