FANN_FLO_2.1
num_layers=3
learning_rate=0.700000
connection_rate=1.000000
network_type=0
learning_momentum=0.000000
training_algorithm=2
train_error_function=1
train_stop_function=0
cascade_output_change_fraction=0.010000
quickprop_decay=-0.000100
quickprop_mu=1.750000
rprop_increase_factor=1.200000
rprop_decrease_factor=0.500000
rprop_delta_min=0.000000
rprop_delta_max=50.000000
rprop_delta_zero=0.100000
cascade_output_stagnation_epochs=12
cascade_candidate_change_fraction=0.010000
cascade_candidate_stagnation_epochs=12
cascade_max_out_epochs=150
cascade_max_cand_epochs=150
cascade_num_candidate_groups=2
bit_fail_limit=3.49999999999999977796e-01
cascade_candidate_limit=1.00000000000000000000e+03
cascade_weight_multiplier=4.00000000000000022204e-01
cascade_activation_functions_count=10
cascade_activation_functions=3 5 7 8 10 11 14 15 16 17 
cascade_activation_steepnesses_count=4
cascade_activation_steepnesses=2.50000000000000000000e-01 5.00000000000000000000e-01 7.50000000000000000000e-01 1.00000000000000000000e+00 
layer_sizes=20 17 2 
scale_included=0
neurons (num_inputs, activation_function, activation_steepness)=(0, 0, 0.00000000000000000000e+00) (0, 0, 0.00000000000000000000e+00) (0, 0, 0.00000000000000000000e+00) (0, 0, 0.00000000000000000000e+00) (0, 0, 0.00000000000000000000e+00) (0, 0, 0.00000000000000000000e+00) (0, 0, 0.00000000000000000000e+00) (0, 0, 0.00000000000000000000e+00) (0, 0, 0.00000000000000000000e+00) (0, 0, 0.00000000000000000000e+00) (0, 0, 0.00000000000000000000e+00) (0, 0, 0.00000000000000000000e+00) (0, 0, 0.00000000000000000000e+00) (0, 0, 0.00000000000000000000e+00) (0, 0, 0.00000000000000000000e+00) (0, 0, 0.00000000000000000000e+00) (0, 0, 0.00000000000000000000e+00) (0, 0, 0.00000000000000000000e+00) (0, 0, 0.00000000000000000000e+00) (0, 0, 0.00000000000000000000e+00) (20, 4, 5.00000000000000000000e-01) (20, 4, 5.00000000000000000000e-01) (20, 4, 5.00000000000000000000e-01) (20, 4, 5.00000000000000000000e-01) (20, 4, 5.00000000000000000000e-01) (20, 4, 5.00000000000000000000e-01) (20, 4, 5.00000000000000000000e-01) (20, 4, 5.00000000000000000000e-01) (20, 4, 5.00000000000000000000e-01) (20, 4, 5.00000000000000000000e-01) (20, 4, 5.00000000000000000000e-01) (20, 4, 5.00000000000000000000e-01) (20, 4, 5.00000000000000000000e-01) (20, 4, 5.00000000000000000000e-01) (20, 4, 5.00000000000000000000e-01) (20, 4, 5.00000000000000000000e-01) (0, 0, 0.00000000000000000000e+00) (17, 6, 5.00000000000000000000e-01) (0, 6, 0.00000000000000000000e+00) 
connections (connected_to_neuron, weight)=(0, 4.96321558819862562739e-01) (1, -1.21695935985612173347e-02) (2, -2.55695033173958563566e+00) (3, 3.89671673138853646989e-01) (4, 9.11411794644600536941e-01) (5, 1.42313450375993544306e+00) (6, 9.91594284416712268282e-01) (7, 1.84521901903389995425e+00) (8, 3.23387024549785540017e+00) (9, 1.38382259071955182606e+00) (10, 1.37922883999700074398e+00) (11, -9.99373530197665838060e-01) (12, -4.99912281713653960935e+00) (13, -4.15225092729331457519e+00) (14, -5.69126319893660070903e+00) (15, -6.34375079139947034568e-02) (16, -7.33826071855923633969e-01) (17, 4.66583161396231194118e+00) (18, 2.30123520644725694240e+01) (19, 1.65398948446238991394e+00) (0, -2.37161483910829051780e+00) (1, -2.29907879793544402958e+01) (2, -2.32308128872577590585e+01) (3, -1.97682270485243249958e+00) (4, -6.19324354583049463407e-01) (5, 1.77546138723425994677e+00) (6, 1.59421248499400158849e+00) (7, 7.81078324087869702019e-01) (8, 1.01004184081795878036e+00) (9, 1.96914925181354533157e-01) (10, 2.06253272046660385275e-01) (11, -1.71311956444695723256e+00) (12, -1.05424790360659290656e+01) (13, 1.62690435826295637378e-01) (14, 6.29512380465544252317e-01) (15, 5.90372746205541965026e+00) (16, 2.18792572435933241337e+00) (17, 1.24681920943306998595e+01) (18, 8.94135265199302864403e+01) (19, 1.62918312996268888071e+00) (0, 1.06906834736877520697e+00) (1, 5.03278277051130551456e+00) (2, 3.23692349595520223460e+00) (3, 1.42999661075970596613e+00) (4, 8.61915353796951277943e-01) (5, 2.81375656418305553075e+00) (6, 2.83919541320919277538e+00) (7, 1.03729889743015069037e+00) (8, 5.04647188829116633002e+00) (9, 8.61849373653652550686e-01) (10, 6.55516259177182258888e-01) (11, 3.05667502143829050709e+00) (12, -6.28036128896010303890e+00) (13, -4.23137521787523240846e+00) (14, -5.08553439781929839114e+00) (15, -6.40826807475007509396e+00) (16, -4.20322095367866577220e+00) (17, -2.82729990368095318587e+00) (18, -5.86800867221445372479e+01) (19, 9.58526165276435748730e-01) (0, 1.58373469632271945962e-01) (1, -1.88059469118212829741e+00) (2, -6.55045939180560754522e-01) (3, 6.05416984703541993795e-01) (4, 8.94512674794013307178e-01) (5, 9.70486564451707112156e-01) (6, 7.83629990685471011780e-01) (7, 2.39797778893339907924e+00) (8, 3.64348685553713824703e+00) (9, 1.17296816806683690260e+00) (10, 1.09913307159108963873e+00) (11, -8.36866787678195334088e-01) (12, -4.69949018007707142175e+00) (13, -4.31149255926799579441e+00) (14, -7.78895017526164856747e+00) (15, 1.06753225326859380040e+00) (16, -1.39567752344949863597e-01) (17, 3.73698831837276390644e+00) (18, 2.87853374791023668422e+01) (19, 1.72784746946486933439e+00) (0, -3.19536214255647621485e+00) (1, -1.50956954397145217683e+01) (2, -6.45456629244117596755e+00) (3, -4.39182335360861664242e+00) (4, 9.68727752185193080603e-02) (5, 1.88668426066716216072e-01) (6, 4.47581652576688082679e-01) (7, 6.05328395781710937307e-01) (8, 9.58902791344207527935e-01) (9, 2.15517022160884447191e-01) (10, -4.26166506982224996269e-02) (11, -2.42654085387515339178e+00) (12, -4.47421786641729912759e+00) (13, -1.81238765237930143925e+00) (14, 4.08165053725838722354e-01) (15, 2.17116479142564555715e+00) (16, 7.46976504403493390960e-01) (17, 1.26142126563581573606e+01) (18, -7.05434434323343495521e+00) (19, 3.19529659391275588920e-01) (0, -3.11588387407553657482e+00) (1, -1.65016576005779143088e+01) (2, -7.27297092713124548879e+00) (3, -1.84129375119131122318e+00) (4, -1.45111057156497441634e-01) (5, 5.19787139586311841555e-01) (6, 8.32424007145152855536e-01) (7, 6.58395432663062885048e-01) (8, 9.21470791205259875944e-01) (9, 2.58169181851054252430e-01) (10, 3.48013575823508836127e-01) (11, -3.21564984584497004505e+00) (12, -4.82810095486135093523e+00) (13, -1.62307147999714240783e-01) (14, 6.45886529552863741799e-01) (15, 3.38259074767356449076e-01) (16, 8.03508881698757115863e-01) (17, 6.47147406713004968992e+00) (18, -2.46157504589420028651e+01) (19, 3.62295887143321004853e-01) (0, -6.88543009595968857894e+00) (1, -4.39041870231111701628e+01) (2, -1.02284858694631051179e+01) (3, -1.91849306229694649417e+00) (4, -2.66068288378580541931e-01) (5, 5.89473999122325675870e-01) (6, 1.72360076406454698628e+00) (7, 7.78226220800283363666e-01) (8, 2.60295075758936311772e+00) (9, 2.87024908779552279103e-01) (10, 5.36005486077923753996e-01) (11, -1.46399526660509948783e+00) (12, -5.11910470938753192627e+00) (13, 3.44855859011447163365e-01) (14, -3.52536506461305354510e-01) (15, 2.11764415299625108347e+00) (16, 1.14212024754562246898e+00) (17, 3.10123737432977319983e+00) (18, -6.07017121916203095111e+01) (19, 3.06600559295774510726e-01) (0, -7.43966274990868381423e+00) (1, -1.78200282749579734798e+01) (2, -6.37828511854113866519e+00) (3, -1.96859852124986911548e+00) (4, -2.44064007212469985530e-01) (5, 1.08250116259630199678e-01) (6, 3.51624119934846157687e-01) (7, 6.55597521239777214497e-01) (8, 7.16898475016261582660e-01) (9, 1.83780312137808765627e-01) (10, 2.62091771254173322436e-01) (11, -2.38201529556276314636e+00) (12, -4.25532528326956072107e+00) (13, -2.00229270338670950480e+00) (14, -3.57760271653436573436e-02) (15, 6.25080238373124652540e-01) (16, 7.38431151301986665736e-01) (17, 1.10319217325083105408e+01) (18, -9.56802860544513045227e+00) (19, 3.19459389070346932993e-01) (0, -2.74642937410949672383e+00) (1, -2.36202158475678629657e+01) (2, -5.93189848879722791963e+00) (3, -6.10480201772545694183e-01) (4, -2.33202464805169623618e-01) (5, 1.75527117066353222086e+00) (6, 6.40195105244604212302e-02) (7, 7.48816999462993515557e-01) (8, 7.83960897982511117910e-01) (9, 3.13247437759090197051e-01) (10, 3.33494851450366669443e-01) (11, -2.04048465995027106246e+00) (12, -3.88173141670952892568e+00) (13, -1.23426938209935221913e+00) (14, 1.94598029236045078072e-01) (15, 1.81360115839050473063e+00) (16, 2.04650929829302974383e+00) (17, 6.77510854320088995451e+00) (18, -3.27964996475932792919e+01) (19, 1.71884080969677222051e+00) (0, -3.10778220959198936413e+00) (1, -1.64812994292639132254e+01) (2, -7.12178388912277871015e+00) (3, -1.79143374387701537209e+00) (4, -3.08021483097271231433e-01) (5, 5.33615476778847241945e-01) (6, 9.77043441319819128132e-01) (7, 5.97842891851980584583e-01) (8, 8.97573758020404510738e-01) (9, 2.22062878996528711983e-01) (10, 4.35801737047451009932e-01) (11, -3.14597464557186023981e+00) (12, -4.70588135540730512218e+00) (13, -2.58592491213280262219e-01) (14, 5.34894887893487047670e-01) (15, 3.65566294571553596082e-01) (16, 8.43503583442031135142e-01) (17, 6.58985377923484705320e+00) (18, -2.78309060751070127537e+01) (19, 3.49424532325000425370e-01) (0, -8.99779954359600564473e-01) (1, -2.01736385181029920233e+00) (2, -5.58993244114824094915e-01) (3, 6.93847139577763005747e-01) (4, 8.26247856768519195469e-01) (5, 1.36636368254539997125e+00) (6, 9.54379267086805427311e-01) (7, 2.40491244662631675766e+00) (8, 3.66278891077681567623e+00) (9, 6.60021170530910583629e-01) (10, 1.13225558385346181112e+00) (11, -6.83895931561595227244e-01) (12, -4.05380152075192778938e+00) (13, -4.25057601241514415591e+00) (14, -8.05135783229662216343e+00) (15, 7.83582979116994260416e-01) (16, -1.27552037507580884323e+00) (17, 2.21715482401956265335e+00) (18, 1.75165943880607990479e+01) (19, 1.97183075494400594785e+00) (0, 5.57721172351938632161e-01) (1, -3.34663765280894693888e+01) (2, -1.03279968247052984509e+01) (3, -1.51977619062044905229e-01) (4, 9.97791598718189121087e-01) (5, 1.43298263426776784080e+00) (6, 1.23512992621125583526e+00) (7, 2.14847756341869544627e+00) (8, 2.49717357145967966403e+00) (9, 1.59269750086781325393e+00) (10, -3.18186320424331869905e-01) (11, -1.35182182161048158875e+00) (12, -2.17892211033313332180e+00) (13, -1.54499195535011124569e+00) (14, -8.48762325203290757258e-01) (15, 1.92664806364370311265e+00) (16, -1.70129984617555085613e+00) (17, 2.74142729490285674832e-01) (18, -7.27943100984536606290e+00) (19, 1.80089960943851479236e+00) (0, -3.62605054840210172529e+00) (1, -1.67022160281999916265e+01) (2, -6.97252147299209301679e+00) (3, -1.82619101591669963369e+00) (4, -1.24305521032688326422e-01) (5, 5.10879406537433800040e-01) (6, 1.40211144917001950816e+00) (7, 6.59273490968946607182e-01) (8, 1.00177149112501218120e+00) (9, 2.61010190812685449746e-01) (10, 4.82876642147867352062e-01) (11, -2.16103072588921474306e+00) (12, -4.86068610124288547070e+00) (13, -1.48444626832216530765e+00) (14, 3.94211406888826998429e-01) (15, 7.61606326856152260341e-01) (16, 4.55846358301244924949e-01) (17, 6.60025535599227808348e+00) (18, -2.55283747908108757940e+01) (19, 3.60566737392611635915e-01) (0, -1.54763440687488418313e+00) (1, -1.81505000647547980464e+01) (2, -5.98649554700377617422e+00) (3, -1.10426357157423238320e+00) (4, -3.67320031391189238956e-01) (5, 4.43911253145998496716e-01) (6, -2.50850948857530786640e-01) (7, 5.93622137943823235950e-01) (8, 1.69157689854887838266e+00) (9, 2.58438518170730213708e-01) (10, -1.14856540647274185662e-01) (11, -2.12431654848908069155e+00) (12, -4.61546983540743482877e+00) (13, -2.11961208903930309333e+00) (14, 4.09786230289224617795e-01) (15, 7.31496351955472134954e-01) (16, 6.87355867771281991985e-01) (17, 6.27844937077995268737e+00) (18, 1.15611922410256813265e+01) (19, 4.16220558987955235875e-01) (0, -7.43734310849736779403e+00) (1, -1.73503107050533600386e+01) (2, -7.22000135289524980209e+00) (3, -2.28909840478346415793e+00) (4, -1.32946441071298770975e-01) (5, 1.59219547044556708482e-01) (6, -2.40333504753926174846e-01) (7, -1.64018334678936950066e-01) (8, 7.75057971764525954761e-01) (9, 1.66020281212559517314e-01) (10, -4.05619247268155028174e-02) (11, -1.99503197494201489626e+00) (12, -4.50156378311056482033e+00) (13, -1.54472317336646236541e+00) (14, 4.95236679922999745163e-01) (15, 6.68098688462723466763e-01) (16, 6.57279747352367604840e-01) (17, 2.06275988739277238437e+01) (18, -2.47145706254344972308e+01) (19, 4.20286997740415835256e-01) (0, 4.36167879169501171432e-01) (1, 8.72994941228223098051e+00) (2, 2.36502642758140773083e+01) (3, 1.04496589606427185970e+01) (4, 1.72268683753844142892e+00) (5, 1.43404630647729319781e-01) (6, 1.54165670500596174719e+00) (7, 1.10782037280719536376e+00) (8, 3.02896053799931230799e+00) (9, -4.08650255215419200283e-01) (10, -6.80277974645048577607e-01) (11, -4.99369572740127498633e+00) (12, -2.38727134871123816140e+01) (13, -6.32172408467906787877e+00) (14, -5.10222160285504955368e+00) (15, -8.03239253100413819197e+00) (16, -7.97003280308455774872e+00) (17, -4.38305992338976324607e-01) (18, 1.80111123754021669185e+01) (19, -4.59286588717132293613e-01) (20, -1.98536406317393399057e+00) (21, -1.47502594217911049412e+01) (22, -3.13299926140959854592e+01) (23, -3.56558103530553260896e+00) (24, -2.40063292659821891917e+00) (25, -9.73986095208228541686e-01) (26, -5.53570490782611912550e+01) (27, -2.34239454883702213905e+00) (28, -2.02722622740172742084e+00) (29, -9.98360432463182623231e-01) (30, -3.54355823664811486751e+00) (31, -2.16643326051720697123e+00) (32, -1.03099435872325662089e+00) (33, -6.55868861097621769218e-01) (34, -3.34685791668125620646e+00) (35, 6.03158794943972225155e+01) (36, 9.59080491398588641516e+00) 
