FANN_FLO_2.1
num_layers=3
learning_rate=0.700000
connection_rate=1.000000
network_type=0
learning_momentum=0.000000
training_algorithm=2
train_error_function=1
train_stop_function=0
cascade_output_change_fraction=0.010000
quickprop_decay=-0.000100
quickprop_mu=1.750000
rprop_increase_factor=1.200000
rprop_decrease_factor=0.500000
rprop_delta_min=0.000000
rprop_delta_max=50.000000
rprop_delta_zero=0.100000
cascade_output_stagnation_epochs=12
cascade_candidate_change_fraction=0.010000
cascade_candidate_stagnation_epochs=12
cascade_max_out_epochs=150
cascade_max_cand_epochs=150
cascade_num_candidate_groups=2
bit_fail_limit=3.49999999999999977796e-01
cascade_candidate_limit=1.00000000000000000000e+03
cascade_weight_multiplier=4.00000000000000022204e-01
cascade_activation_functions_count=10
cascade_activation_functions=3 5 7 8 10 11 14 15 16 17 
cascade_activation_steepnesses_count=4
cascade_activation_steepnesses=2.50000000000000000000e-01 5.00000000000000000000e-01 7.50000000000000000000e-01 1.00000000000000000000e+00 
layer_sizes=8 17 2 
scale_included=0
neurons (num_inputs, activation_function, activation_steepness)=(0, 0, 0.00000000000000000000e+00) (0, 0, 0.00000000000000000000e+00) (0, 0, 0.00000000000000000000e+00) (0, 0, 0.00000000000000000000e+00) (0, 0, 0.00000000000000000000e+00) (0, 0, 0.00000000000000000000e+00) (0, 0, 0.00000000000000000000e+00) (0, 0, 0.00000000000000000000e+00) (8, 4, 5.00000000000000000000e-01) (8, 4, 5.00000000000000000000e-01) (8, 4, 5.00000000000000000000e-01) (8, 4, 5.00000000000000000000e-01) (8, 4, 5.00000000000000000000e-01) (8, 4, 5.00000000000000000000e-01) (8, 4, 5.00000000000000000000e-01) (8, 4, 5.00000000000000000000e-01) (8, 4, 5.00000000000000000000e-01) (8, 4, 5.00000000000000000000e-01) (8, 4, 5.00000000000000000000e-01) (8, 4, 5.00000000000000000000e-01) (8, 4, 5.00000000000000000000e-01) (8, 4, 5.00000000000000000000e-01) (8, 4, 5.00000000000000000000e-01) (8, 4, 5.00000000000000000000e-01) (0, 0, 0.00000000000000000000e+00) (17, 6, 5.00000000000000000000e-01) (0, 6, 0.00000000000000000000e+00) 
connections (connected_to_neuron, weight)=(0, -8.82021995041711903696e+00) (1, -3.77525355078939361952e-01) (2, 8.14326433796961168810e+00) (3, 8.09509094774022996965e-02) (4, -5.11027746306690122680e+00) (5, -1.47638309265937586190e+01) (6, 5.12745908474348066619e+00) (7, 1.12362948050326938443e+00) (0, -4.13587307647542701261e+01) (1, -7.61098814914064725201e-01) (2, 1.22070168921560409103e+01) (3, 1.88479829922464259262e+00) (4, -4.25312790378244276468e+00) (5, 2.69463302528602710595e+00) (6, 1.05121254645211568146e+01) (7, 8.06687473268147936523e-01) (0, 3.48664431112482802178e+01) (1, 1.08304547191132016337e+02) (2, 6.70877772878665790124e-01) (3, 1.50000000000000000000e+03) (4, 1.49844991653560100531e+03) (5, 5.50473495112714417132e+01) (6, 2.34185702623812055378e+01) (7, 1.30873405577531753963e+00) (0, 3.48800146269276396538e+01) (1, 1.08274296846706576503e+02) (2, 6.32190647280448159151e-01) (3, 1.47315811013297684440e+03) (4, 1.49842605697511135077e+03) (5, 5.52109794603643067035e+01) (6, 9.81548565144513851521e+00) (7, 1.35529209317556320613e+00) (0, -1.79226891984612741737e+01) (1, -1.02367971692077386336e+00) (2, 5.11105335651571124345e+00) (3, 4.10752024868877407826e-01) (4, -5.71709459684366372301e+00) (5, 6.06732230286860652058e+00) (6, 1.45222313758109287107e+01) (7, 3.21381798363282566999e-01) (0, 7.03418965136321077125e+01) (1, 1.04899894869874415804e+02) (2, 8.77838967941159786790e-01) (3, 1.47043671066519254964e+03) (4, 1.49333658793648919527e+03) (5, 4.74889261545464265168e+01) (6, 9.87474454419527170046e+00) (7, 2.41259968563327564794e+00) (0, -9.37647770231144050967e+00) (1, -6.84459003223311879260e-01) (2, 5.18343453886675042952e+00) (3, -1.97749138819359382424e+00) (4, -5.22610401271434898973e+00) (5, -7.49102643754655628250e-01) (6, 6.85364308965475466096e+00) (7, 4.71773874109810309463e-01) (0, 3.04419624280782095127e+01) (1, 1.05921874397598671180e+02) (2, 1.81935501141132299763e-01) (3, 1.47162962489611777528e+03) (4, 1.24118685499285174956e+03) (5, 2.19641792520855396731e+01) (6, 4.35438503390044573393e+00) (7, 5.06845064718978921547e+00) (0, -1.01813107316599182894e+01) (1, -6.36775443550295361383e-01) (2, 4.79207607382080347236e+00) (3, -5.79419443624006991200e+00) (4, -5.19957355696511758225e+00) (5, -4.80515705718132790647e-02) (6, 6.99541623852170957321e+00) (7, 9.77307035716727390273e-01) (0, 3.48818998473360792900e+01) (1, 1.08247199725825495875e+02) (2, 6.89780573992179624199e-01) (3, 1.50000000000000000000e+03) (4, 1.49834093687830863928e+03) (5, 5.51023327844199783954e+01) (6, 2.34775853054610585957e+01) (7, 1.36664196493020950740e+00) (0, -2.87855979318355288399e+01) (1, -8.41937729272641655065e-01) (2, 5.55462235017394778680e+00) (3, -6.23960687622038198685e-02) (4, -5.15823140552613867982e+00) (5, 1.07461827113299381864e+01) (6, 1.98605334082018529784e+01) (7, -3.04932982231997440348e-01) (0, 3.01942771413336086272e-01) (1, -4.76335538351587484129e-01) (2, 6.39088495425376112991e+00) (3, 9.91506748916434532681e-01) (4, -5.23694366223379326186e+00) (5, -1.77946398341800993137e+01) (6, 2.08902856599345154720e-01) (7, 8.04823485491906409628e-01) (0, 5.36400394795667878611e+00) (1, -2.84029791690976085583e-01) (2, 5.61936805271852435339e+00) (3, -8.09279920610843639395e-01) (4, -5.22706219978395036918e+00) (5, -1.77991485370033650781e+01) (6, 4.21102297123433633175e+00) (7, 6.75589295888259999678e-01) (0, 1.84534346259949444402e+01) (1, 1.08355210710782714045e+02) (2, 5.76781826770537686677e-01) (3, 1.47317603073881514320e+03) (4, 1.49845715751646457647e+03) (5, 5.51085245670733101520e+01) (6, 2.34594420911756849080e+01) (7, 1.18396114401217000811e+00) (0, -9.68129334231246119202e+00) (1, -8.42011474447883934147e-01) (2, 8.62985681482839872558e+00) (3, 5.25721618953972513744e-01) (4, -4.69275187204050148182e+00) (5, -1.47492738241900731566e+01) (6, 1.23420779264458504998e-01) (7, 8.69365131509078015171e-01) (0, 3.09682756892786237302e+01) (1, 2.53756615107411391818e+02) (2, 6.96172093869379282616e-01) (3, 1.50000000000000000000e+03) (4, 1.24190711295411438186e+03) (5, 2.25920683386493479361e+01) (6, 1.01346657949659491038e+01) (7, 1.11142551035823942129e+01) (8, -3.19461525056243971221e+01) (9, -3.24189601362839940890e+00) (10, 1.96354250824573073331e+00) (11, 1.94422641611220869962e+00) (12, -6.54704146788407115309e+00) (13, 7.11079895518861304637e-01) (14, -1.18270729166999122306e+00) (15, 1.90086250966908965054e+00) (16, 2.75103878454440398116e+01) (17, 1.94161224579932722989e+00) (18, -2.87525324906958701376e+01) (19, -8.41882492800699111513e+00) (20, -1.65736855347653708748e+01) (21, 1.95095335906865630093e+00) (22, -9.77990021323936709052e+00) (23, 1.91470027184608015958e+00) (24, 1.77562939026238586493e+00) 
