FANN_FLO_2.1
num_layers=3
learning_rate=0.700000
connection_rate=1.000000
network_type=0
learning_momentum=0.000000
training_algorithm=2
train_error_function=1
train_stop_function=0
cascade_output_change_fraction=0.010000
quickprop_decay=-0.000100
quickprop_mu=1.750000
rprop_increase_factor=1.200000
rprop_decrease_factor=0.500000
rprop_delta_min=0.000000
rprop_delta_max=50.000000
rprop_delta_zero=0.100000
cascade_output_stagnation_epochs=12
cascade_candidate_change_fraction=0.010000
cascade_candidate_stagnation_epochs=12
cascade_max_out_epochs=150
cascade_max_cand_epochs=150
cascade_num_candidate_groups=2
bit_fail_limit=3.49999999999999977796e-01
cascade_candidate_limit=1.00000000000000000000e+03
cascade_weight_multiplier=4.00000000000000022204e-01
cascade_activation_functions_count=10
cascade_activation_functions=3 5 7 8 10 11 14 15 16 17 
cascade_activation_steepnesses_count=4
cascade_activation_steepnesses=2.50000000000000000000e-01 5.00000000000000000000e-01 7.50000000000000000000e-01 1.00000000000000000000e+00 
layer_sizes=17 5 2 
scale_included=0
neurons (num_inputs, activation_function, activation_steepness)=(0, 0, 0.00000000000000000000e+00) (0, 0, 0.00000000000000000000e+00) (0, 0, 0.00000000000000000000e+00) (0, 0, 0.00000000000000000000e+00) (0, 0, 0.00000000000000000000e+00) (0, 0, 0.00000000000000000000e+00) (0, 0, 0.00000000000000000000e+00) (0, 0, 0.00000000000000000000e+00) (0, 0, 0.00000000000000000000e+00) (0, 0, 0.00000000000000000000e+00) (0, 0, 0.00000000000000000000e+00) (0, 0, 0.00000000000000000000e+00) (0, 0, 0.00000000000000000000e+00) (0, 0, 0.00000000000000000000e+00) (0, 0, 0.00000000000000000000e+00) (0, 0, 0.00000000000000000000e+00) (0, 0, 0.00000000000000000000e+00) (17, 4, 5.00000000000000000000e-01) (17, 4, 5.00000000000000000000e-01) (17, 4, 5.00000000000000000000e-01) (17, 4, 5.00000000000000000000e-01) (0, 0, 0.00000000000000000000e+00) (5, 6, 5.00000000000000000000e-01) (0, 6, 0.00000000000000000000e+00) 
connections (connected_to_neuron, weight)=(0, -5.44743105793927373526e+00) (1, -4.24205254333841139669e+01) (2, -2.15514456722204750250e+00) (3, -4.78690152575840077720e-01) (4, 3.53441888604601572865e-01) (5, 8.08850462137649883765e-01) (6, 2.30154780002939318706e+00) (7, 1.66986945598023472925e+00) (8, 5.92569110184443026412e-01) (9, 1.74179672298229082372e+00) (10, -2.45586877206189679868e+00) (11, -1.02390525036697654926e+00) (12, -9.46260906941175372609e-01) (13, -1.30824454225147723818e+00) (14, 8.11700217554663788766e-02) (15, 1.81051897677707529510e+01) (16, 1.42200135827085327733e+00) (0, 2.61901335575987825877e-01) (1, -6.44588937157907526654e+00) (2, -8.10266950496011384431e-01) (3, -1.97137584473948490604e+00) (4, 1.38875135348038925009e+00) (5, 5.77883009035281003385e-01) (6, 2.22119634161958012797e+00) (7, 1.82748599384490861830e+00) (8, 1.07865092366769999011e+00) (9, -1.19890815391858995831e+00) (10, -1.20244975433227097028e+01) (11, -6.93884633767488767653e-01) (12, -6.47173317470489117831e-01) (13, -1.37885455443896576266e-01) (14, 7.75641526538118419865e+00) (15, 8.14832151954493042467e+01) (16, 2.05788696974542695273e+00) (0, -4.59256753509406934199e+00) (1, -6.85475610977353788655e+00) (2, -2.56610268858043966134e+00) (3, -6.41728081034394914894e+00) (4, 5.56782031606696814485e-01) (5, -2.25531178305582363786e-01) (6, 5.21736533908269795035e+00) (7, 3.96089655921710948050e+00) (8, 1.08905026456382225675e+00) (9, -5.27785624326857583100e+00) (10, -1.48194693254681251204e+01) (11, -8.89247308595546792631e-01) (12, 7.10730718275064510259e-01) (13, 6.78670757514442613001e-01) (14, 9.10761399808728455696e+00) (15, 2.05344292322554586860e+01) (16, 5.33682473940308366167e+00) (0, -5.44137083018754097452e+00) (1, -4.24590891244637305135e+01) (2, -2.37460361824735466385e+00) (3, -3.52912520577777888420e-01) (4, 3.65450710923594324075e-01) (5, 8.83820938466976513403e-01) (6, 2.24428508135187287920e+00) (7, 1.61827889114655842917e+00) (8, 5.38188477247488639144e-01) (9, 1.71905972657001360204e+00) (10, -2.45767000207526731259e+00) (11, -1.08486875438337571076e+00) (12, -8.35183754748582640737e-01) (13, -1.35542074687326907778e+00) (14, 8.34029905626868517388e-02) (15, 1.80111838924813127960e+01) (16, 1.48456231892129730809e+00) (17, -1.02638825197573826387e+01) (18, -1.67477927920711948673e+01) (19, -3.52770697576064895529e+00) (20, -1.02594922502394840791e+01) (21, 9.54750470203164347538e+00) 
