FANN_FLO_2.1
num_layers=3
learning_rate=0.700000
connection_rate=1.000000
network_type=0
learning_momentum=0.000000
training_algorithm=2
train_error_function=1
train_stop_function=0
cascade_output_change_fraction=0.010000
quickprop_decay=-0.000100
quickprop_mu=1.750000
rprop_increase_factor=1.200000
rprop_decrease_factor=0.500000
rprop_delta_min=0.000000
rprop_delta_max=50.000000
rprop_delta_zero=0.100000
cascade_output_stagnation_epochs=12
cascade_candidate_change_fraction=0.010000
cascade_candidate_stagnation_epochs=12
cascade_max_out_epochs=150
cascade_max_cand_epochs=150
cascade_num_candidate_groups=2
bit_fail_limit=3.49999999999999977796e-01
cascade_candidate_limit=1.00000000000000000000e+03
cascade_weight_multiplier=4.00000000000000022204e-01
cascade_activation_functions_count=10
cascade_activation_functions=3 5 7 8 10 11 14 15 16 17 
cascade_activation_steepnesses_count=4
cascade_activation_steepnesses=2.50000000000000000000e-01 5.00000000000000000000e-01 7.50000000000000000000e-01 1.00000000000000000000e+00 
layer_sizes=2 21 2 
scale_included=0
neurons (num_inputs, activation_function, activation_steepness)=(0, 0, 0.00000000000000000000e+00) (0, 0, 0.00000000000000000000e+00) (2, 4, 5.00000000000000000000e-01) (2, 4, 5.00000000000000000000e-01) (2, 4, 5.00000000000000000000e-01) (2, 4, 5.00000000000000000000e-01) (2, 4, 5.00000000000000000000e-01) (2, 4, 5.00000000000000000000e-01) (2, 4, 5.00000000000000000000e-01) (2, 4, 5.00000000000000000000e-01) (2, 4, 5.00000000000000000000e-01) (2, 4, 5.00000000000000000000e-01) (2, 4, 5.00000000000000000000e-01) (2, 4, 5.00000000000000000000e-01) (2, 4, 5.00000000000000000000e-01) (2, 4, 5.00000000000000000000e-01) (2, 4, 5.00000000000000000000e-01) (2, 4, 5.00000000000000000000e-01) (2, 4, 5.00000000000000000000e-01) (2, 4, 5.00000000000000000000e-01) (2, 4, 5.00000000000000000000e-01) (2, 4, 5.00000000000000000000e-01) (0, 0, 0.00000000000000000000e+00) (21, 6, 5.00000000000000000000e-01) (0, 6, 0.00000000000000000000e+00) 
connections (connected_to_neuron, weight)=(0, -2.61071054868058524789e+02) (1, 2.99349330135088909088e+00) (0, 3.02002023160870692209e+02) (1, -8.04271883643720286727e+00) (0, -2.69463606854927434142e+02) (1, 3.18348337566297834300e+00) (0, -2.54316726169978892358e+02) (1, 3.25179939012244823004e+00) (0, -1.06655658618096799728e+03) (1, 3.36432053644403428194e+00) (0, -4.31026348385607491309e+02) (1, 2.65950509713458371763e+00) (0, -4.23441392323856348412e+02) (1, 6.44790458751163431117e+00) (0, -4.26042196779751122904e+02) (1, 3.39217554220007544430e+00) (0, 8.12392698644092448035e+00) (1, 3.89624415165703119612e+00) (0, -9.43054808883386840535e+02) (1, 2.62926941560228399908e+00) (0, -9.79114728315364573064e+02) (1, 1.90863598984450391072e+01) (0, -2.51952509228124569063e+02) (1, 2.78803612764207864316e+00) (0, -7.58187457958172672079e+02) (1, -4.33071586390602059069e-01) (0, -1.21899852671796315917e+03) (1, 4.30018355992576406521e+00) (0, -1.36227658868695607453e+03) (1, 5.38423548220464986969e+00) (0, -2.52142872900868212582e+02) (1, 2.79460434715591876653e+00) (0, -1.49999977190395884463e+03) (1, 1.11522373793480475967e+01) (0, -2.89605449748509613528e+02) (1, 2.36738895095850621075e+00) (0, -2.67699621727620183265e+02) (1, 1.17082866354789572050e+00) (0, -1.50000000000000000000e+03) (1, 1.92774147258823056461e+01) (2, -1.69896212170645410922e+00) (3, -9.18357463048787110438e+01) (4, -1.44614603591488632972e+00) (5, 1.63456029873452118872e-01) (6, -5.69551286034700368077e+01) (7, 2.45529655134504309899e+00) (8, -1.79326176325871315953e+01) (9, -2.98073918422350603308e+00) (10, 6.68524113130136266037e-01) (11, -5.60215257771110444196e+01) (12, -1.21443696479370242258e+01) (13, -4.34257108943222336350e-01) (14, -7.50000000000000000000e+02) (15, -1.78915426622383684219e+01) (16, -2.95088681491153401737e+01) (17, -5.50292668271713414363e-01) (18, 1.66627219256505725298e+01) (19, -4.47782205702567637218e+00) (20, -1.65308027395894754363e+01) (21, 1.03333703840432331589e+01) (22, 2.31072832730615083108e+01) 
