FANN_FLO_2.1
num_layers=3
learning_rate=0.700000
connection_rate=1.000000
network_type=0
learning_momentum=0.000000
training_algorithm=2
train_error_function=1
train_stop_function=0
cascade_output_change_fraction=0.010000
quickprop_decay=-0.000100
quickprop_mu=1.750000
rprop_increase_factor=1.200000
rprop_decrease_factor=0.500000
rprop_delta_min=0.000000
rprop_delta_max=50.000000
rprop_delta_zero=0.100000
cascade_output_stagnation_epochs=12
cascade_candidate_change_fraction=0.010000
cascade_candidate_stagnation_epochs=12
cascade_max_out_epochs=150
cascade_max_cand_epochs=150
cascade_num_candidate_groups=2
bit_fail_limit=3.49999999999999977796e-01
cascade_candidate_limit=1.00000000000000000000e+03
cascade_weight_multiplier=4.00000000000000022204e-01
cascade_activation_functions_count=10
cascade_activation_functions=3 5 7 8 10 11 14 15 16 17 
cascade_activation_steepnesses_count=4
cascade_activation_steepnesses=2.50000000000000000000e-01 5.00000000000000000000e-01 7.50000000000000000000e-01 1.00000000000000000000e+00 
layer_sizes=21 16 2 
scale_included=0
neurons (num_inputs, activation_function, activation_steepness)=(0, 0, 0.00000000000000000000e+00) (0, 0, 0.00000000000000000000e+00) (0, 0, 0.00000000000000000000e+00) (0, 0, 0.00000000000000000000e+00) (0, 0, 0.00000000000000000000e+00) (0, 0, 0.00000000000000000000e+00) (0, 0, 0.00000000000000000000e+00) (0, 0, 0.00000000000000000000e+00) (0, 0, 0.00000000000000000000e+00) (0, 0, 0.00000000000000000000e+00) (0, 0, 0.00000000000000000000e+00) (0, 0, 0.00000000000000000000e+00) (0, 0, 0.00000000000000000000e+00) (0, 0, 0.00000000000000000000e+00) (0, 0, 0.00000000000000000000e+00) (0, 0, 0.00000000000000000000e+00) (0, 0, 0.00000000000000000000e+00) (0, 0, 0.00000000000000000000e+00) (0, 0, 0.00000000000000000000e+00) (0, 0, 0.00000000000000000000e+00) (0, 0, 0.00000000000000000000e+00) (21, 4, 5.00000000000000000000e-01) (21, 4, 5.00000000000000000000e-01) (21, 4, 5.00000000000000000000e-01) (21, 4, 5.00000000000000000000e-01) (21, 4, 5.00000000000000000000e-01) (21, 4, 5.00000000000000000000e-01) (21, 4, 5.00000000000000000000e-01) (21, 4, 5.00000000000000000000e-01) (21, 4, 5.00000000000000000000e-01) (21, 4, 5.00000000000000000000e-01) (21, 4, 5.00000000000000000000e-01) (21, 4, 5.00000000000000000000e-01) (21, 4, 5.00000000000000000000e-01) (21, 4, 5.00000000000000000000e-01) (21, 4, 5.00000000000000000000e-01) (0, 0, 0.00000000000000000000e+00) (16, 6, 5.00000000000000000000e-01) (0, 6, 0.00000000000000000000e+00) 
connections (connected_to_neuron, weight)=(0, 1.77573992044969353188e+00) (1, 6.73385728096078217675e+00) (2, 5.21200964142198941431e+00) (3, 1.67807028226837040563e+00) (4, 4.84222156363032840698e-01) (5, 2.43106350235059442966e+00) (6, -5.32638723766338584298e-01) (7, -3.48500405688784764546e-01) (8, 3.99607403045913622819e+00) (9, 1.44841839249323967032e+00) (10, 1.26739212707819270953e+00) (11, 1.25053825400686324798e+00) (12, -4.79594537424344835586e+00) (13, -7.98918668649350394162e+00) (14, -2.83018562542531881832e+00) (15, -9.26082814651907071379e+00) (16, -2.41710862822436567399e+00) (17, -2.41258427119239948766e+00) (18, -8.50937080479132190725e-01) (19, 2.28936396962697275015e+00) (20, 1.03261186983439134934e+00) (0, 5.14819073683622008275e-01) (1, -2.40661136058805169569e+01) (2, -2.61104800357439401637e+01) (3, -4.73994143671009560137e+00) (4, -1.14271746592266021381e+00) (5, 6.36029354248902389912e-01) (6, 3.95457539273015912240e-01) (7, 1.11138786332855188377e+00) (8, 2.25041380274389224425e+00) (9, 1.28100254688374404211e+00) (10, 8.03733484211165860600e-01) (11, -1.30309653914346318393e-01) (12, -4.17126944489030293539e+00) (13, -3.34234332792060717665e+00) (14, -5.55927161937028180283e-01) (15, 3.60039220945636062599e-01) (16, 1.89853286324512637862e+00) (17, 1.36361808114483462617e+00) (18, 2.07358717988922727216e+01) (19, 7.81096166510044866982e+01) (20, 1.28823439396481154162e+00) (0, 8.29553545124355473650e-02) (1, -2.83459949577224135098e+00) (2, -2.24454517237372996874e+00) (3, -4.08302240297733487484e-01) (4, -3.12187858539460683094e-01) (5, 1.95348947408365697376e-01) (6, 1.48031530982882852943e-01) (7, 7.21223452046303864504e-02) (8, 4.24619697871947288093e+00) (9, -1.54094397136672123239e+00) (10, 1.25211511382998241793e-01) (11, 2.60287842281859360671e-01) (12, -9.22450688621948877710e+00) (13, -3.64141017620738116634e+00) (14, -4.65761051656924496278e-01) (15, -1.31098440528269272187e-01) (16, 4.53882175878716598305e+00) (17, 5.52609282300880355621e-01) (18, 1.96296758261992776440e-01) (19, 3.16120486334502253101e+01) (20, 1.87235711750506506057e+00) (0, -2.29857118938424864751e+00) (1, -8.97189772797625550993e+00) (2, -1.47067121053784131135e+01) (3, -3.24291971910505116838e+00) (4, -4.13133378553559527102e-01) (5, 1.76683436754088440956e+00) (6, 2.11972063721079878595e-01) (7, 1.72833941466828000522e+00) (8, 1.57261975879121740363e+00) (9, 9.66008080637144161962e-01) (10, 7.02791314615142770350e-01) (11, -3.93917245209297828268e-01) (12, -7.72906351345368580752e+00) (13, -3.09389938420767718341e+00) (14, 4.34273183467589585227e-01) (15, 1.06442374869333744591e+00) (16, 4.93979109142614181138e+00) (17, 7.99125801994899997993e+00) (18, -2.41788763580011334398e+00) (19, 1.01214345115580055534e+01) (20, 1.15382579503693127876e+00) (0, 6.15362851789548123693e-02) (1, -2.26237289530675660387e+01) (2, -3.29934259789906505489e+01) (3, -9.93056690867369473708e-01) (4, -4.02797203908390466509e-01) (5, 5.67873401498460994574e-01) (6, 4.31535007435738859893e-01) (7, 3.00570055903830068988e-01) (8, 5.14691800637566299059e+00) (9, 1.26781191434019535613e+00) (10, 4.67325642163720245126e-01) (11, -5.09445420851346808533e-01) (12, -3.01735424944204178033e+00) (13, -2.89267037772900748038e+00) (14, -9.15632852456176982159e-01) (15, -9.82946513920645137397e-01) (16, -4.45408098722574918860e-01) (17, -7.75228991039678794195e-01) (18, 4.26640238182436459802e-01) (19, 1.86230136506900294080e+02) (20, 2.35167231555867184412e+00) (0, 9.52476103665860551750e-01) (1, -2.50974079548844493104e+01) (2, -2.59143760188093459362e+01) (3, -2.91245091946982059827e-01) (4, -2.06750722052919222449e-01) (5, 8.66185875210629063758e-01) (6, 9.28518760458932002066e-01) (7, 5.27577143946843296618e-01) (8, 9.72172719216124647801e+00) (9, 1.95020793188530272566e+00) (10, 1.90801037611781199033e+00) (11, 2.44990249143666155573e-01) (12, -3.03627522325255494451e+00) (13, -3.16544185383078735541e+00) (14, -9.28815418370558365524e-01) (15, -2.06434492565478899806e+00) (16, -7.47965204653851190031e-01) (17, -9.60844577652410714030e-01) (18, 2.80810041563681389576e-01) (19, 1.04804280664515765409e+01) (20, 1.55012859582261741664e+00) (0, 6.72581334613708836656e-01) (1, -3.60564952919415171451e+00) (2, -1.05065498729812194512e+01) (3, -6.86282180318106727057e-01) (4, -8.42284191742456611607e-01) (5, -3.61405831720932591011e+00) (6, -2.21560046271775812343e+00) (7, 3.60084077995895590618e-01) (8, 1.97070183746141758263e+00) (9, 3.23179201604378230073e+00) (10, -2.60048479511979013790e-01) (11, -7.58210756929260654147e+00) (12, -1.32855771320066118335e+00) (13, 1.56167745357654896843e+00) (14, -1.90301420536226201241e-01) (15, 1.52705650386283781073e-01) (16, 1.55020806245814102287e-01) (17, -1.46376755145162518179e-01) (18, 1.32977007196611296536e+00) (19, -1.56724573680999212932e+00) (20, 1.51376216847178768354e+00) (0, 8.42463032642773446135e-01) (1, -2.38713564162884566144e+01) (2, -2.40896407481683461071e+01) (3, -4.72974895876637368985e+00) (4, -3.40599367660140484038e-01) (5, 2.29606807753704386665e-02) (6, 1.18192107659172943035e-01) (7, 1.16826674553910914156e+00) (8, 1.35413467464391468198e+00) (9, 1.32674645212833164365e+00) (10, 9.13198165497452252204e-01) (11, -3.35082684723800261484e-01) (12, -4.67645603430232714715e+00) (13, -1.80784459849426326628e+00) (14, -1.02133693466384167792e+00) (15, -8.04488339040792532764e-02) (16, 1.75047757401763881546e+00) (17, 2.55447557505353017859e+00) (18, 2.12474922546936042522e+01) (19, 3.81634101022868250652e+01) (20, 1.21185709682267828136e+00) (0, 3.66187198518799883473e-01) (1, -2.77859627756155944667e+01) (2, -3.13529489950307613810e+01) (3, -2.63401715349121667842e+00) (4, -1.03756699529763096734e+00) (5, 1.34964104273255092181e+00) (6, 4.77311063886809439083e-02) (7, 5.98592497206345552918e-01) (8, 2.24160902937306749649e+00) (9, 1.37090738296358560788e+00) (10, 1.28361040362366551904e+00) (11, 1.99906419625850317878e+00) (12, -3.28557758673748478984e+00) (13, -2.67065317301072679967e+00) (14, -2.05456894330174555385e-01) (15, -2.54402692902698845945e-01) (16, 1.31862302092760241834e+00) (17, 1.42169812404688356011e+00) (18, 2.12941777264821308080e+00) (19, 2.04574938328615132832e+02) (20, 1.09903530055156051226e+00) (0, -8.48223994480202803103e-01) (1, -1.12297113142219959769e+01) (2, -1.68571155126396341473e+01) (3, -3.09598325804231544467e+00) (4, -1.88314950960334404062e-01) (5, 1.27833963731289612653e+00) (6, 1.37546563053848381643e-03) (7, 1.74926474286069266739e+00) (8, 1.56593773274809233698e+00) (9, -1.75485631276935127865e+00) (10, 6.74339457982259249391e-01) (11, -4.29714261045307577280e-01) (12, -6.02021035649062152828e+00) (13, -2.64832376597660879014e+00) (14, 1.70687114746507495600e-01) (15, 5.37566425742721842873e-01) (16, 4.75550566493236459564e+00) (17, 9.37135377059465746186e+00) (18, -5.98328461217208662504e+00) (19, 4.70976424316602546583e+01) (20, 1.25138204526587482057e+00) (0, 3.85682442092988519988e-01) (1, -1.99108340138372330586e+00) (2, -7.39101983077258495314e+00) (3, -4.42527450938146849069e+00) (4, -1.07334000676471652547e+00) (5, 4.17565269635536084891e-01) (6, -7.38854651306621201812e-01) (7, 4.29763138241820052965e-01) (8, 1.10022705875858495261e+00) (9, 8.82818449819365969056e-01) (10, 3.22931880376137236954e-01) (11, -1.03123824850817413790e+00) (12, -1.02740558335784157862e+01) (13, -9.91676963666393618269e+00) (14, -1.28033350961941416735e+00) (15, -1.24243893945567163151e+00) (16, 1.05502528583649501925e+00) (17, -6.96506322154438306526e-01) (18, -1.95304337726275423215e+00) (19, 2.39077254140480954803e+00) (20, 6.83483430955760362657e-01) (0, -7.97580552815661814048e-03) (1, -2.27146853379842426079e+01) (2, -3.37216381371081013185e+01) (3, -4.68910646175866807628e-01) (4, -1.52992695050020777181e-01) (5, 1.71459036900580685803e+00) (6, 1.95337130954519255788e+00) (7, 5.17153868087079415794e-01) (8, 5.19725104714099028769e+00) (9, 2.15540195789523147951e+00) (10, 3.67089684074036692873e-01) (11, -6.34052288555180476592e-01) (12, -1.26688823820173146473e+00) (13, -2.84819335761306868804e+00) (14, -9.74211907076627303681e-01) (15, -1.06859723829731767530e+00) (16, -4.46422288572783154681e-01) (17, -8.62169841880474518980e-01) (18, 4.37360021173583191079e-01) (19, 6.70868708403119171635e+01) (20, 2.31872558949286666774e+00) (0, -5.00348974745290142607e+00) (1, 1.59347455600327130298e+01) (2, 4.53971415162089386719e-01) (3, -3.03777923749098455186e-01) (4, -7.71157051573609142459e-01) (5, 6.69656672895479365692e-01) (6, -2.76438815530762216355e-01) (7, 5.70802866847778367365e-01) (8, 1.67091297199724198030e+00) (9, 1.11287447017592355802e-01) (10, 5.22752865742039385388e-01) (11, -5.27632149551198526005e-01) (12, -6.13122651358591319593e+00) (13, -7.50028230728027622831e+00) (14, -8.32609909974925233023e-01) (15, -9.05991427299408624840e-01) (16, 1.88102252213048815044e+00) (17, -2.56555403961804817659e-01) (18, 3.16580390864830474307e-01) (19, 9.70649338670718151434e+01) (20, 1.70854985502065703784e+00) (0, -4.52459347906464748323e-01) (1, 3.65972207496833989993e+00) (2, 2.90931673353309938612e-01) (3, -2.26698201742507571277e-01) (4, -4.48069656037834829210e-01) (5, 3.18730067825078067223e-01) (6, -4.90479463914727409346e-01) (7, 5.91856804984805751069e-01) (8, 1.90202763625297777139e+00) (9, 1.60954965661152549217e+00) (10, 1.71879567659930709844e+00) (11, 5.23274336624032887499e+00) (12, -5.61177172721722783422e+00) (13, -1.00545168311987573873e+01) (14, -9.62394272549223162017e-01) (15, -1.18341453713333644160e+00) (16, -8.69475746627560885926e-01) (17, -7.67107589294196645646e-01) (18, 1.49622167727530208658e+00) (19, 9.43793036699436242998e+01) (20, 1.69557825904913328507e+00) (0, -3.25201069247790852668e-01) (1, -1.67650396573744835393e+01) (2, -1.68222070507889007729e+01) (3, -1.54526954635113522585e+00) (4, -4.85689066515900547127e-01) (5, -1.51968528370778399594e-01) (6, -2.74269202472499251666e-01) (7, 4.86702469723772290777e-01) (8, 1.12978370504937442043e+00) (9, 1.49860495316459418902e+00) (10, 3.31630559054389040252e-01) (11, -2.97575066205588045776e+00) (12, 8.92201593302147433207e-01) (13, -3.12552624659705591270e+00) (14, -2.18179551481900296794e-01) (15, -1.11855287120082066976e-01) (16, 1.92793418668112281900e-01) (17, 1.18223256159928416520e-01) (18, 1.57770264758618639078e+00) (19, 1.35818855871425836490e+00) (20, 1.35486482422790177615e+00) (21, -9.49057239137344765822e+00) (22, -3.23163842252307276226e+00) (23, -9.63252939852414868938e+00) (24, -1.72330058827388832299e+00) (25, -3.75352942066599437609e+00) (26, -1.77667786898066424328e+01) (27, 1.80559542015276583982e+01) (28, -8.44610995631966843256e-01) (29, -5.78378101201528549424e-01) (30, -1.23720223386797512077e+00) (31, 6.49353519093515956229e+01) (32, -3.77767501746241762817e+00) (33, -1.24061019725566046290e+00) (34, -4.70663649213400203664e-01) (35, 9.69564807535307604525e-01) (36, 5.99496530194014365378e+00) 
