FANN_FLO_2.1
num_layers=3
learning_rate=0.700000
connection_rate=1.000000
network_type=0
learning_momentum=0.000000
training_algorithm=2
train_error_function=1
train_stop_function=0
cascade_output_change_fraction=0.010000
quickprop_decay=-0.000100
quickprop_mu=1.750000
rprop_increase_factor=1.200000
rprop_decrease_factor=0.500000
rprop_delta_min=0.000000
rprop_delta_max=50.000000
rprop_delta_zero=0.100000
cascade_output_stagnation_epochs=12
cascade_candidate_change_fraction=0.010000
cascade_candidate_stagnation_epochs=12
cascade_max_out_epochs=150
cascade_max_cand_epochs=150
cascade_num_candidate_groups=2
bit_fail_limit=3.49999999999999977796e-01
cascade_candidate_limit=1.00000000000000000000e+03
cascade_weight_multiplier=4.00000000000000022204e-01
cascade_activation_functions_count=10
cascade_activation_functions=3 5 7 8 10 11 14 15 16 17 
cascade_activation_steepnesses_count=4
cascade_activation_steepnesses=2.50000000000000000000e-01 5.00000000000000000000e-01 7.50000000000000000000e-01 1.00000000000000000000e+00 
layer_sizes=50 19 2 
scale_included=0
neurons (num_inputs, activation_function, activation_steepness)=(0, 0, 0.00000000000000000000e+00) (0, 0, 0.00000000000000000000e+00) (0, 0, 0.00000000000000000000e+00) (0, 0, 0.00000000000000000000e+00) (0, 0, 0.00000000000000000000e+00) (0, 0, 0.00000000000000000000e+00) (0, 0, 0.00000000000000000000e+00) (0, 0, 0.00000000000000000000e+00) (0, 0, 0.00000000000000000000e+00) (0, 0, 0.00000000000000000000e+00) (0, 0, 0.00000000000000000000e+00) (0, 0, 0.00000000000000000000e+00) (0, 0, 0.00000000000000000000e+00) (0, 0, 0.00000000000000000000e+00) (0, 0, 0.00000000000000000000e+00) (0, 0, 0.00000000000000000000e+00) (0, 0, 0.00000000000000000000e+00) (0, 0, 0.00000000000000000000e+00) (0, 0, 0.00000000000000000000e+00) (0, 0, 0.00000000000000000000e+00) (0, 0, 0.00000000000000000000e+00) (0, 0, 0.00000000000000000000e+00) (0, 0, 0.00000000000000000000e+00) (0, 0, 0.00000000000000000000e+00) (0, 0, 0.00000000000000000000e+00) (0, 0, 0.00000000000000000000e+00) (0, 0, 0.00000000000000000000e+00) (0, 0, 0.00000000000000000000e+00) (0, 0, 0.00000000000000000000e+00) (0, 0, 0.00000000000000000000e+00) (0, 0, 0.00000000000000000000e+00) (0, 0, 0.00000000000000000000e+00) (0, 0, 0.00000000000000000000e+00) (0, 0, 0.00000000000000000000e+00) (0, 0, 0.00000000000000000000e+00) (0, 0, 0.00000000000000000000e+00) (0, 0, 0.00000000000000000000e+00) (0, 0, 0.00000000000000000000e+00) (0, 0, 0.00000000000000000000e+00) (0, 0, 0.00000000000000000000e+00) (0, 0, 0.00000000000000000000e+00) (0, 0, 0.00000000000000000000e+00) (0, 0, 0.00000000000000000000e+00) (0, 0, 0.00000000000000000000e+00) (0, 0, 0.00000000000000000000e+00) (0, 0, 0.00000000000000000000e+00) (0, 0, 0.00000000000000000000e+00) (0, 0, 0.00000000000000000000e+00) (0, 0, 0.00000000000000000000e+00) (0, 0, 0.00000000000000000000e+00) (50, 4, 5.00000000000000000000e-01) (50, 4, 5.00000000000000000000e-01) (50, 4, 5.00000000000000000000e-01) (50, 4, 5.00000000000000000000e-01) (50, 4, 5.00000000000000000000e-01) (50, 4, 5.00000000000000000000e-01) (50, 4, 5.00000000000000000000e-01) (50, 4, 5.00000000000000000000e-01) (50, 4, 5.00000000000000000000e-01) (50, 4, 5.00000000000000000000e-01) (50, 4, 5.00000000000000000000e-01) (50, 4, 5.00000000000000000000e-01) (50, 4, 5.00000000000000000000e-01) (50, 4, 5.00000000000000000000e-01) (50, 4, 5.00000000000000000000e-01) (50, 4, 5.00000000000000000000e-01) (50, 4, 5.00000000000000000000e-01) (50, 4, 5.00000000000000000000e-01) (0, 0, 0.00000000000000000000e+00) (19, 6, 5.00000000000000000000e-01) (0, 6, 0.00000000000000000000e+00) 
connections (connected_to_neuron, weight)=(0, 5.91666043701064015004e-01) (1, 2.09304468108743119137e-01) (2, -1.58106931406104722626e+00) (3, -2.19066288655340324354e+00) (4, -4.03878911437722809552e+00) (5, -3.60429145438716902472e-01) (6, -2.53384896442982254783e+00) (7, -2.27392703242632032712e+00) (8, -3.51077338944302264068e+00) (9, 3.31382457089357887470e-02) (10, 6.41614313699495952825e-01) (11, 2.48526213564582099114e-01) (12, 4.09821105994887524560e-01) (13, -2.93084497819620405645e-02) (14, 3.52342181079561209134e-02) (15, 8.45608149199600506174e-02) (16, -2.68639565898006804634e-01) (17, -2.92740095641203734722e-01) (18, -1.83892671952482905651e-01) (19, 1.99485969285836173270e-01) (20, 9.09698402266514771775e-01) (21, 9.25800358634007447556e-01) (22, 7.86951770589394583588e-01) (23, 7.67299414956397307641e-01) (24, 4.40767527000390735292e-01) (25, 1.68010231170413221191e-01) (26, 1.69087885357306233480e-01) (27, -4.46906358203422449105e-01) (28, -7.54289348775434520533e-01) (29, -2.38988667234533647132e+00) (30, -1.94965305750402251306e+00) (31, -1.06172916617821999630e+00) (32, 6.96048288649578211773e-02) (33, 5.67695429007197382987e-01) (34, 1.57348368228103607791e-01) (35, 1.65508577180474336643e+00) (36, -3.89819130842439742768e-01) (37, 5.59915741695239735365e-02) (38, -3.10603017197775554958e-02) (39, 1.20670234222948549729e-02) (40, -7.21425140203290488072e-02) (41, 3.52609554025061153193e-02) (42, -2.17602702815256232594e-01) (43, -3.21851873953982903220e-01) (44, -2.46650927396134256320e-02) (45, 1.33751548171018641575e-01) (46, 4.03535363190715534731e-01) (47, 1.66332151194948507644e+00) (48, 1.27694561883737756069e+00) (49, 3.09952707749364009260e-01) (0, 1.59329819259460148118e+00) (1, 7.85630666092459684080e-01) (2, -1.27294578032155625280e+00) (3, -3.22355829665314743693e+01) (4, -3.22550871632876052786e+01) (5, -3.24498331670279753780e+01) (6, -1.44417339571244482954e+01) (7, -8.44947933534753170548e-01) (8, -9.07496327095301702492e-01) (9, -2.30821612045801066726e-01) (10, 3.30519516238764743399e-01) (11, 2.02206503212149335535e-01) (12, 3.28278365370117619637e-01) (13, 2.70844912319703035042e-01) (14, 4.30545395243950357322e-01) (15, 3.52314567647320664445e-01) (16, 1.24408744756011446081e-03) (17, -3.86462800689162389034e-02) (18, 6.96310623009465334832e-01) (19, 9.20573421653489987193e-01) (20, 8.22785439046454403211e-01) (21, 1.42516124524347587155e+00) (22, 1.35997893009076320503e+00) (23, 1.24151625002436793999e+00) (24, 7.14468319600531920344e-01) (25, 6.33408886667331749720e-01) (26, 6.24557466221995372102e-01) (27, 6.08091358992390307314e-01) (28, -2.00066935614394758591e-01) (29, -2.01483360124332849805e-01) (30, -4.17357823846306763560e-01) (31, -5.75223485602534889694e-01) (32, -5.69187740458644508834e-01) (33, -5.32108152879871010299e-01) (34, -1.00367692215934709021e-01) (35, -8.93158399670857389152e-02) (36, 3.71821547142262454066e-01) (37, 5.09130226046386691330e-01) (38, 7.95578702107456070536e-01) (39, 7.94679588392761093729e-01) (40, 1.01325627437347765003e+00) (41, 8.25860230071731260537e-01) (42, 7.34537019554446724001e-01) (43, 6.28740926685708578781e-01) (44, 7.48714272004857739340e-01) (45, 1.09670730892276213631e+00) (46, 8.39837094170100328938e-01) (47, 7.81198984964823428534e-01) (48, 2.97296721273586461720e+00) (49, 7.56549828339583951831e-01) (0, 1.09062533327709387798e+00) (1, 2.89525554993471156973e-01) (2, 2.56897330033117043957e-01) (3, 1.28796762481785220800e+00) (4, 8.34195427019415802761e+00) (5, 2.92475291640675705285e-01) (6, -9.41621032909291999502e-01) (7, -3.63508099942840057217e-01) (8, -2.55198737771267003538e-01) (9, -3.71764984278321886091e-02) (10, -1.25702738089354226769e-01) (11, -1.30793716556952321906e-01) (12, -5.65829535417767832267e-03) (13, -8.36307913408497749508e-02) (14, -1.59663028242900753573e-02) (15, -7.51939784977637276642e-02) (16, 3.69448345459223517762e-02) (17, -1.64529395700975328287e-01) (18, 3.43460232168531784738e-03) (19, 6.38659172908943584268e-02) (20, 1.12929343227398781835e+00) (21, 1.06289511023158289582e+00) (22, 9.38622262348740687976e-01) (23, 9.55442191740495050389e-01) (24, 1.06901384292510259755e+00) (25, 1.93215030331601089753e-01) (26, 2.41178519494353982289e-01) (27, -1.99900203723418525004e-02) (28, -3.93856699495433171254e-01) (29, -1.29292180936536466040e-01) (30, -1.60600282914910574839e+00) (31, -2.86969203104142822625e+00) (32, -3.06699869194930485605e+00) (33, -2.94236166933482579111e+00) (34, -9.10363320118244723211e-01) (35, -1.35373817366613335977e+00) (36, -4.42038656282875752623e-01) (37, -4.71710484780395455928e-01) (38, -4.21977163616644390665e-01) (39, -3.98005129162298687540e-01) (40, -4.31474231266606444990e-01) (41, -2.69507994213187329624e-01) (42, -5.08784191263497165281e-01) (43, -4.12587548072742393845e-01) (44, 1.60786838867561454602e-01) (45, 3.20599434101906988204e+00) (46, 2.08904652310872240850e-01) (47, 9.95587581870854609889e-01) (48, 5.48633084123418512945e+01) (49, 4.70336914901026581504e-01) (0, 2.00007899415360723694e+00) (1, 4.48269109514357166901e-01) (2, -1.77670623365505386815e+00) (3, -3.22402655481644728752e+01) (4, -3.22567459639233078406e+01) (5, -1.37141492003233231856e+01) (6, -1.35761570117108156808e+01) (7, -1.74420344635439272807e+00) (8, -1.63285425874352951858e+00) (9, -9.21619595155795501285e-01) (10, -1.84305480935208099158e-01) (11, 2.67255069106608178497e-01) (12, 2.47845233699386269244e-01) (13, 2.57805483768471344064e-01) (14, 4.65983845966410459294e-01) (15, 6.15993053393911971227e-01) (16, 1.73275874060872608906e-01) (17, 3.79826923311907649339e-01) (18, 4.77155691922862668086e-01) (19, 1.08636518906107926163e+00) (20, 1.76496604715281879550e+00) (21, 1.72144932557636654025e+00) (22, 1.48580462986065153785e+00) (23, 1.25397997947508277328e+00) (24, 1.05237776738702759616e+00) (25, 4.70898934438431560068e-01) (26, 5.24155104307892472093e-01) (27, 3.44198332365228343299e-01) (28, -2.27745492747518402110e-01) (29, -1.33224241964633144386e-01) (30, -7.03790874006358979642e-01) (31, -6.61683027591300376713e-01) (32, -5.89457277347736230411e-01) (33, -7.03579469903139465004e-01) (34, -2.65719933789794138246e-01) (35, -1.48151575010840669266e-01) (36, 1.40028622050040411212e-03) (37, 1.54075627642109164173e-01) (38, 2.19069117896472237428e-02) (39, 7.63853122366712322666e-01) (40, 4.53795318921680013169e-01) (41, 4.73241883035696420112e-01) (42, -3.36355177434687971361e-02) (43, -7.94140928357562753126e-02) (44, 8.74994558403753619480e-01) (45, 9.90883939456728368711e-01) (46, 7.53574277792655511377e-01) (47, 1.37645804356437451155e+00) (48, 1.37966130480910331713e+00) (49, 1.22361914861883147587e+00) (0, 1.36714765662095660836e+00) (1, 3.39276794702187745045e-01) (2, -1.75896929501024201770e+00) (3, -1.38397399249849915037e+01) (4, -3.25311360794623993797e+01) (5, -1.74640651530910666622e+01) (6, -9.11503662258938618379e+00) (7, -1.76835887730612406621e+00) (8, -1.65973184180704258495e+00) (9, -5.89035408314993014223e-01) (10, -1.72153245262775200786e-01) (11, 2.09641539847424202003e-01) (12, 1.85039236105021209777e-01) (13, 4.24024007040720074535e-01) (14, 3.28647971128656235518e-01) (15, 3.36857423161699143233e-01) (16, 2.05027469795553418663e-02) (17, 7.56812537617023856074e-02) (18, -5.98158364228410094343e-02) (19, 1.03927532896901886339e+00) (20, 1.41472288155185688119e+00) (21, 1.27202259105695247854e+00) (22, 1.22175537507412435012e+00) (23, 9.36275310385518588774e-01) (24, 1.08365658104246853632e+00) (25, 4.92475583809085404319e-01) (26, 3.55942561885789543474e-01) (27, 3.64773850758355500101e-01) (28, -1.69637422969447670962e-01) (29, -1.29205215683089791323e-01) (30, -9.89286268805868007625e-01) (31, -8.22121330306852193814e-01) (32, -8.77809203238126611879e-01) (33, -9.14150262206061547943e-01) (34, -2.54429215560826704756e-01) (35, -2.38950217138204079603e-01) (36, -7.72510127371693472442e-02) (37, -1.91208784995571173804e-01) (38, -5.58090941245889468614e-02) (39, 7.99927806355248960379e-02) (40, 6.39222918119902949741e-01) (41, 7.63743260732113071754e-01) (42, 2.64058957744333577811e-01) (43, -5.28622675921251589104e-02) (44, 7.52955425527568111832e-01) (45, 9.76286763361422060825e-01) (46, 7.60309905081230641422e-01) (47, 1.37236855587556094704e+00) (48, 8.29674470862588542275e+00) (49, 1.00237801894704592343e+00) (0, 1.19792485454843511405e+00) (1, 7.03387897777821180512e-01) (2, -4.20405323781232187486e+00) (3, -9.99554687281631615292e+00) (4, -1.02466250341311084782e+01) (5, -1.44045828668408972817e+01) (6, -1.15511346409158193183e+01) (7, -4.01709978341393725287e+00) (8, -1.83792940695526896278e+00) (9, -9.96225439707882687301e-01) (10, 2.03903469831562517145e-01) (11, 1.18400270154931708255e-01) (12, 2.05355750453527136079e-01) (13, 2.45302562815547908759e-01) (14, 2.99924418040386220330e-01) (15, 5.09731387155062276584e-01) (16, 4.56398392758045667872e-01) (17, 9.40587046308632157565e-02) (18, 5.05939260603584739506e-01) (19, 4.78228824648077921466e-01) (20, 6.14086166287510337725e-01) (21, 1.24526016344976464545e+00) (22, 9.23312554006463059864e-01) (23, 8.91766659824733354256e-01) (24, 4.55964716234791123117e-01) (25, 5.91224067372189798775e-01) (26, 6.11301004086366783774e-01) (27, 4.11701422274157624592e-01) (28, -4.05334166526720440782e-02) (29, -3.17856900370303119274e-01) (30, -4.03790052463677662242e-01) (31, -1.45585363058534889014e+00) (32, -1.34917294192281245202e+00) (33, -1.43887295670685411153e+00) (34, -2.74796661158518751300e-01) (35, 1.25323090305544948553e-01) (36, 1.67540387542485804361e-03) (37, 3.59109521490008964939e-01) (38, 1.32619296258944252553e-01) (39, 2.35790040921838139898e-01) (40, 5.83037006181936656724e-01) (41, 5.53933611675075043834e-01) (42, 2.69827614901243184597e-01) (43, 5.07958533686857616196e-01) (44, 7.08249474888098529135e-01) (45, 9.99906300854139673540e-01) (46, 1.20207203203689028115e+00) (47, 1.30410527466576020572e+00) (48, 1.55345922641396150254e+01) (49, 6.44728905771388416390e-01) (0, 1.09346884871173832821e+00) (1, 1.56796776378269053787e-01) (2, 9.82290948672921993001e-02) (3, -1.28067876252849521812e+00) (4, -1.00945327372176318903e+00) (5, -1.16255583688639108075e+00) (6, -1.24392601668712932117e+00) (7, -7.90160998398261482656e-01) (8, -4.23915422337297509436e-01) (9, -6.28861533190055332909e-01) (10, -6.09338750511644766661e-01) (11, -1.47236180966398039205e-01) (12, -3.73184055391217149589e-03) (13, 1.36260466302775024028e-01) (14, 1.21631194505307418940e-01) (15, 1.01200935098740799067e-01) (16, -3.44527319334722234578e-02) (17, -8.96024726638673489620e-03) (18, 8.36966682002887180092e-02) (19, 1.78163657898085359133e-01) (20, 9.57746048848012954124e-01) (21, 2.60641880409738302404e+00) (22, 2.35832794536278544939e+00) (23, 2.28835109082247978307e+00) (24, 3.13805223951784451053e-01) (25, 3.06879207155260624873e-01) (26, 6.12347553789101134436e-02) (27, 7.02899787233651901497e-02) (28, -4.43830499930278676857e-01) (29, -3.55090760063993593487e-01) (30, -7.43226750515978973333e-01) (31, -2.93479802099211406485e+00) (32, -2.88870112778172005719e+00) (33, -2.94296977104172219342e+00) (34, -9.51151449508505275610e-01) (35, -1.01626208872231460489e+00) (36, -3.50044071344478346930e-01) (37, -5.31343831080452688731e-01) (38, -5.13305157835879377615e-01) (39, -1.07936099243975375250e-01) (40, -3.71037794426044773011e-02) (41, 2.79104030513938339286e-02) (42, -3.18911407811449443273e-01) (43, -4.52292753385075019246e-01) (44, 2.64160832568950443289e+00) (45, 3.23915320601923806265e+00) (46, 4.03643364348480471193e-01) (47, 2.20138320629058537037e+00) (48, 1.15375992953531092411e+01) (49, 6.20108645668914326698e-01) (0, 1.33799573587406483988e+00) (1, 3.35534201842134949256e-01) (2, -5.59024654103562745888e+00) (3, -1.36912222259173912420e+01) (4, -1.38799153160373869298e+01) (5, -1.46676877165006835924e+01) (6, -1.40150433527647155785e+01) (7, -2.16328555830006585836e+00) (8, -1.64219614963655224926e+00) (9, -9.24838732826973153323e-01) (10, -3.87656716003147883143e-01) (11, -6.05224163571774012582e-02) (12, 3.93306994272680954250e-01) (13, 3.15216556061866215455e-01) (14, 3.80312146393022465496e-01) (15, 1.10737685030297711153e-01) (16, 1.69529233425699116244e-02) (17, -1.27509234197715870529e-01) (18, -1.26620916374305891861e-01) (19, 6.06865113063523420323e-01) (20, 9.10689988875173606075e-01) (21, 1.34549181117634009119e+00) (22, 1.28921371601334788792e+00) (23, 1.30066913400047967642e+00) (24, 6.71776512926304469886e-01) (25, 4.76451649813342648088e-01) (26, 3.37687496676809639773e-01) (27, -1.63368689049203985597e-01) (28, -9.93189310321407892168e-02) (29, -1.12910117885007557637e-01) (30, -8.41895828889706931975e-01) (31, -9.57951419507335089065e-01) (32, -1.03867703615453610411e+00) (33, -1.04068148075368771543e+00) (34, -1.64593816696470524041e-01) (35, -1.63049799351757312982e-01) (36, -9.85244302700642587967e-02) (37, -1.15433021310367547874e-01) (38, -1.64809500913376566489e-01) (39, 2.50083151233507824246e-03) (40, 4.42918530001438284782e-02) (41, 4.02377536787784720329e-02) (42, 1.70705206285787447484e-01) (43, -5.15130252697105182891e-03) (44, 2.13847550500127908668e-01) (45, 2.61306340201629905273e-01) (46, 2.36140431463141187152e+00) (47, 1.15593635790331927815e+00) (48, 3.80382807249171506214e+00) (49, 6.69677530540968568573e-01) (0, 1.28687223887267609967e+00) (1, 4.36050265364109512767e-01) (2, -3.85104207873776216431e+00) (3, -9.12012031785720189703e+00) (4, -9.22415197469764258642e+00) (5, -1.46666761905319500414e+01) (6, -9.44292180203854236709e+00) (7, -1.73714594263635202509e+00) (8, -9.40603315582506427361e-01) (9, -5.01089184029929968212e-01) (10, -3.69199325247637433201e-01) (11, 1.39659684283043206143e-01) (12, 2.21312569149796745105e-01) (13, 3.05608215942824723577e-01) (14, 3.88475815317971429064e-01) (15, 4.40609758143019780707e-01) (16, 5.40759996554506169875e-02) (17, -2.49210917784030844269e-01) (18, 1.98668927642042022347e-03) (19, 5.75320290535992096004e-01) (20, 1.20937452043392679180e+00) (21, 1.18583253943219912863e+00) (22, 1.18864127420678866720e+00) (23, 1.19572589720911870437e+00) (24, 6.42290951237743046320e-01) (25, 5.09898326173719329546e-01) (26, 5.11016795238099730270e-01) (27, 4.05699308161081517721e-01) (28, -2.45071239417045172448e-01) (29, -3.42096268623564181421e-01) (30, -1.00892767509472824905e+00) (31, -1.14247836842127337142e+00) (32, -1.07864459718722449644e+00) (33, -1.07585742967337716358e+00) (34, -3.39379843490465238354e-01) (35, -3.91940012885236943596e-01) (36, -1.62215350598289398398e-01) (37, -7.80433039445146831126e-02) (38, -4.59174454946349314133e-02) (39, 8.01816977678821568576e-02) (40, 3.56901389722985530259e-03) (41, 1.38026284438280993916e-01) (42, 1.14041882412180869966e-01) (43, -8.66665588450191287651e-02) (44, 7.92030956110420292227e-01) (45, 1.51190576074935667528e+00) (46, 7.61867133024560105881e-01) (47, 1.23421705372995371697e+00) (48, 1.83921780733276705178e+01) (49, 5.83523888050883399181e-01) (0, 1.28771787076531518679e+00) (1, 6.15021953148160438474e-01) (2, -9.57453638041555876725e+00) (3, -8.23457909134347332269e+00) (4, -9.24655433855527064679e+00) (5, -1.46782993141682478466e+01) (6, -9.51310967904261595152e+00) (7, -3.81888256300365824814e+00) (8, -1.29005202170781307913e+00) (9, -4.82977083369128590284e-01) (10, -5.11559370213779507353e-01) (11, -3.15771867260706662339e-01) (12, 1.88571248046528167075e-01) (13, 2.44486374357665209311e-01) (14, 2.61084079168783567138e-01) (15, 4.69967499159949952947e-01) (16, -8.16018065741425935311e-02) (17, -1.09717370958971743855e-01) (18, 2.27846714570869093852e-02) (19, 4.39688057194424497531e-01) (20, 1.31351746418371928549e+00) (21, 1.18831629478231204367e+00) (22, 1.15447746207479129410e+00) (23, 1.24882258946683544210e+00) (24, 7.22243804872972128273e-01) (25, 4.47754520465675653895e-01) (26, 3.62054443024646066540e-01) (27, 5.21747043394099385694e-01) (28, -1.14807360927034168840e-01) (29, -1.84630169907990943079e-01) (30, -8.33924914383805560014e-01) (31, -1.04290823758505801777e+00) (32, -8.82064721932475648281e-01) (33, -9.78963288863962222131e-01) (34, -1.98336134935371583010e-01) (35, -3.28703339482299794483e-01) (36, -2.72663678306803436424e-02) (37, -6.31806344844932331328e-03) (38, 1.20284399285114276118e-02) (39, 8.11685101380805497373e-03) (40, 2.62358194745332673481e-01) (41, 2.55862525261194184711e-01) (42, 2.21710702932626707584e-01) (43, 2.77227899587900061817e-01) (44, 8.96982515586822959364e-01) (45, 1.52357198644107372232e+00) (46, 7.86952758980806077460e-01) (47, 1.20737007428948439625e+00) (48, 1.55546937579148973896e+01) (49, 6.55216938147282879079e-01) (0, 1.01595032563387821511e+00) (1, 4.19117403898711993193e-01) (2, -2.25499715769323288983e-01) (3, 4.63619120459914157983e-01) (4, 3.57089426483058414163e-01) (5, 4.39156719752244253940e-02) (6, -8.81667310358768552270e-01) (7, -3.00422522570383432328e-01) (8, -3.58183454121839883744e-01) (9, -1.38527278557904531819e-01) (10, -1.42561507774110501900e-01) (11, -1.59313554891844594286e-01) (12, -1.83291473857755092547e-02) (13, -7.96645362972259463152e-02) (14, 3.83643431922596547801e-02) (15, -3.84221749046641317116e-02) (16, -7.08279454346972953127e-02) (17, -1.74826600786525190867e-02) (18, -3.54794627728790626375e-02) (19, 1.21573510174328949796e-01) (20, 1.00161772043397889753e+00) (21, 1.06356505009428059516e+00) (22, 1.06240785818383787209e+00) (23, 9.00659377338163591453e-01) (24, 1.02633919811415008638e+00) (25, 2.98919752716774289603e-01) (26, 2.19860592031861590279e-01) (27, 3.64462318704527332702e-02) (28, -3.82907323988635583945e-01) (29, -1.55107138021624318958e-01) (30, -1.62287993647132178232e+00) (31, -2.83703439011746949561e+00) (32, -2.87518707170110765503e+00) (33, -3.06477770916321690109e+00) (34, -9.97181712064727165945e-01) (35, -9.74925378282166854582e-01) (36, -4.20830980652540209697e-01) (37, -4.30992751640382754097e-01) (38, -3.52108301805112822169e-01) (39, -3.61377387216313905594e-01) (40, -2.96978697600218055630e-01) (41, -3.47746160713210628046e-01) (42, -4.99076670094164731584e-01) (43, -4.87417430582565258668e-01) (44, 2.81390436814579203428e-02) (45, 3.38421473645122672380e+00) (46, 1.49011159009134697140e-01) (47, 9.80414772206184670367e-01) (48, 5.47328554441616716986e+01) (49, 5.68006647747901882717e-01) (0, 1.11245205282217529685e+00) (1, 2.01533001167935960085e-01) (2, -6.83477733438393353360e-01) (3, -5.55600226614169567796e+00) (4, -5.56541945862347109397e+00) (5, -2.72718828137921143195e+00) (6, -2.38405833605128503194e+00) (7, -9.50941794032438836304e-01) (8, -1.01154177677093382037e+00) (9, -1.01867074505173915711e+00) (10, -3.07187329084275539959e-01) (11, -2.44522241648888805088e-01) (12, -1.12753074286002785698e-01) (13, 4.56912254794890823617e-02) (14, 1.47212972476551181428e-02) (15, -2.35340366527965368093e-02) (16, -3.33681352344459003501e-02) (17, -4.09559205745164273127e-02) (18, 8.77028893558405714392e-02) (19, 2.49068126324946376160e-01) (20, 1.12274006783014801414e+00) (21, 1.05284606694227722556e+00) (22, 1.04770213956352331586e+00) (23, 1.14722907719725020215e+00) (24, 7.49992913594988985793e-01) (25, 1.11631419736386169883e-01) (26, 9.06159702641229497511e-02) (27, 3.55241793647904716136e-02) (28, -1.64278735604750786292e-01) (29, -4.00035711841507657383e-01) (30, -1.61185685511496501476e+00) (31, -2.82208100398132311071e+00) (32, -2.98832236756277103140e+00) (33, -2.86002054591369647696e+00) (34, -5.89004736840707421308e-01) (35, -4.53868104507541336723e-01) (36, -1.52075036249691541990e-01) (37, -1.91931224587026882933e-01) (38, -3.25340732375859809089e-01) (39, -1.63375099111873117730e-01) (40, -1.59353460577753541783e-01) (41, -2.79052808571049693054e-01) (42, -2.77625351792357033531e-01) (43, -1.01692483962527821517e-01) (44, 2.55130784363806073500e+00) (45, 1.49361661622647456937e+01) (46, 1.36859734888368378414e+00) (47, 7.03915888948339674158e-01) (48, 3.61618184787692769078e+01) (49, 8.29975247810774030555e-01) (0, 1.26467071812308318179e+00) (1, 6.44379731939119015927e-01) (2, -3.84184696092313071603e+00) (3, -9.16816832179722140950e+00) (4, -9.24504184032377551716e+00) (5, -1.54885819102712716244e+01) (6, -1.02847645408512242682e+01) (7, -4.21849139012189677800e+00) (8, -1.75969380041657430525e+00) (9, -1.03221986200695847735e+00) (10, 1.26755712282763000065e-01) (11, 2.57380579159552480562e-01) (12, 3.38452381069891561349e-01) (13, 2.63709488489042853665e-01) (14, 3.83038239571205141321e-01) (15, 5.15133579222341597692e-01) (16, 5.29056418819069174120e-01) (17, 3.99866555439392021287e-02) (18, 4.27667551311463112196e-01) (19, 7.02994170291871500744e-01) (20, 6.48156981593621228654e-01) (21, 1.06652275083342407136e+00) (22, 1.05870826667336226379e+00) (23, 1.10042734606087999616e+00) (24, 7.35964731797706828154e-01) (25, 5.76911423388775546073e-01) (26, 3.41760222665758006677e-01) (27, 5.23518334704959231729e-01) (28, 9.23322411937828324557e-02) (29, -2.25150257386731444953e-01) (30, -4.20773726758233435064e-01) (31, -1.42813581748327966814e+00) (32, -1.16338894619779975592e+00) (33, -1.17244560375051887213e+00) (34, -1.84268740836891126156e-01) (35, -3.37622923676284436567e-01) (36, 6.70203017654596167052e-02) (37, 8.62479331555544154186e-02) (38, 1.01265266953653912396e-01) (39, -3.28854813735764278659e-02) (40, 5.46239970398901042437e-01) (41, 6.99712688012623429401e-01) (42, 2.49660654381069740948e-01) (43, 7.09108887387273956193e-01) (44, 5.52720537556169566606e-01) (45, 1.32359468679757452669e+00) (46, 1.17576897582621930916e+00) (47, 1.42612313021483894104e+00) (48, 1.55194309507517367308e+01) (49, 4.32347967200131966248e-01) (0, 8.74691667030811137451e-01) (1, 3.55368545615616648892e-01) (2, -5.26876565230790655514e-02) (3, -9.86940041631589048965e-02) (4, 7.29745585295322879427e-02) (5, -1.36266501401844686292e+00) (6, -1.24875242063140423632e+00) (7, -4.11802739943331830297e-01) (8, -4.85750488247281564380e-01) (9, -3.67538961132593489101e-01) (10, -3.16227792666810281208e-02) (11, 4.14271524562844148387e-02) (12, 8.00045197742482172565e-02) (13, 6.89855150350463519615e-02) (14, 3.60293434818153360255e-02) (15, 6.86044123370447983534e-02) (16, -3.55547729800608502959e-02) (17, -2.03915419458094382410e-01) (18, -1.51692056785668293040e-02) (19, 1.64246451996798548123e-01) (20, 9.10582243664991852761e-01) (21, 9.71881510625471456422e-01) (22, 9.32344904489479708865e-01) (23, 1.08393437595187647204e+00) (24, 9.36051012143676475219e-01) (25, 1.76221691464720803255e-01) (26, 1.23628758333612490117e-01) (27, -5.34173698467558036307e-02) (28, -4.02921044560453522898e-01) (29, -6.81666293814743307067e-01) (30, -1.58809732415918714032e+00) (31, -2.00302897953755110194e+00) (32, -2.98276857864526823150e+00) (33, -2.82959928688243023132e+00) (34, -1.08802544183941884981e+00) (35, -8.87425998236221702520e-01) (36, -4.22083563498399094716e-01) (37, -4.05659174132399658053e-01) (38, -3.59751433667087505697e-01) (39, -3.37766043318662279038e-01) (40, -3.14854739975310049527e-01) (41, -2.32829308604673990146e-01) (42, -3.35070411165810932985e-01) (43, -3.18474960247904004262e-01) (44, 4.02420983278056143551e-01) (45, 9.86368972671676580433e+00) (46, 6.57723883375479823066e-01) (47, 1.14914772731449676968e+00) (48, 8.51298133023125132013e+01) (49, 5.11222399172438057846e-01) (0, 1.32138344334451063311e+00) (1, 6.54543954552098683486e-01) (2, -1.55814881804025429091e+00) (3, -1.93143806108811268984e+01) (4, -3.47568348138273748305e+01) (5, -1.47680799204976889172e+01) (6, -9.40657542961255188629e+00) (7, -1.74430110887764033833e+00) (8, -1.81515219655717463532e+00) (9, -5.90170978723285055700e-01) (10, -1.14358581256873148568e-01) (11, 2.39820751097198303636e-01) (12, 1.94031469425356484226e-01) (13, 4.22610858947256640139e-01) (14, 4.02629453880216370276e-01) (15, 4.53704073677317964997e-01) (16, -9.35040105480498956458e-02) (17, -1.02474690004356147610e-01) (18, -8.49052823273660495218e-02) (19, 6.55468217644785577924e-01) (20, 1.33590103939458249016e+00) (21, 1.30351097627498435649e+00) (22, 1.16119637831069755229e+00) (23, 1.19284423612848056173e+00) (24, 9.29904701553873835884e-01) (25, 6.31836230456597536254e-01) (26, 3.89654617333375252741e-01) (27, 3.13903386376564175198e-01) (28, -2.39452008539506239204e-01) (29, -2.39175410485221923151e-01) (30, -6.58003226442293920329e-01) (31, -1.04428223615888171594e+00) (32, -9.18040397148198294985e-01) (33, -8.99745101624463861079e-01) (34, -1.42925728136957447267e-01) (35, -1.74811722068392266793e-01) (36, -4.20827673739556998300e-02) (37, -5.48612963360158023551e-02) (38, 2.50794042049068965916e-01) (39, 3.24399694790471482264e-01) (40, 7.54604090838935204211e-01) (41, 8.97194214998986550036e-01) (42, 7.84650860521245552270e-01) (43, 6.30230055680820022701e-01) (44, 8.84237461625840492907e-01) (45, 1.06755803218372968821e+00) (46, 8.19165813386637964300e-01) (47, 1.40932575413297422884e+00) (48, 7.54021407743578198080e+00) (49, 1.06875634949444120458e+00) (0, 6.18821628477826513048e-01) (1, 4.64989138214203567845e-01) (2, -1.57590745016749322893e+00) (3, -1.14434564550729565013e+01) (4, -1.14729555894026429286e+01) (5, -6.12821252137709837626e+00) (6, -5.39764908966458989426e+00) (7, -2.28654677637062375695e+00) (8, -2.11417833931885068566e+00) (9, -1.02779106438576919857e-01) (10, 1.76054743986183009907e-01) (11, 2.32204629031731640820e-01) (12, 1.87184220698954989492e-01) (13, 3.98889492117346255995e-01) (14, 3.41029765603228007809e-01) (15, 4.97155665581221040128e-01) (16, 2.77103365377056487517e-01) (17, 1.62826236748820907252e-01) (18, 4.40378917469286312869e-01) (19, 4.11042212704717691008e-01) (20, 6.46155843373328875323e-01) (21, 9.93983439755010356187e-01) (22, 7.54423932543352271374e-01) (23, 7.20437838045113077001e-01) (24, 4.10392886785824473339e-01) (25, 3.96161479269131922010e-01) (26, 4.29839691517984456848e-01) (27, 4.04124305375618331215e-01) (28, 4.13488450412176078430e-02) (29, -3.44902291800796456656e-01) (30, -8.09362627154375902094e-01) (31, -2.46786869371244677041e+00) (32, -2.72339865783138268540e+00) (33, -2.74641274133605950425e+00) (34, -3.46481586276420228110e-01) (35, -2.96411084412463776694e-01) (36, -8.43056633879204625481e-02) (37, 3.21263773840117644598e-02) (38, -2.39362315732788918932e-02) (39, -1.16365873656057577934e-01) (40, 1.69663079236300662345e+00) (41, 1.72385074524881365399e+00) (42, 2.79632441424721434053e-01) (43, 4.37806476845924774643e-01) (44, 1.76451216137545308094e+00) (45, 4.75210046694844923110e+00) (46, 4.82580454335032271729e-01) (47, 2.39190228903954604789e+00) (48, 1.43668198575891672419e+01) (49, 4.92118721500554689996e-01) (0, 5.95475206264358680741e-01) (1, 3.12612318093893504223e-01) (2, -1.46154047865395608774e+00) (3, -2.90376770405990125568e+00) (4, -2.90497087068250348096e+00) (5, -6.35352013428344797319e+00) (6, -6.08791773871634411819e+00) (7, -3.15046764984517402297e+00) (8, -3.25204747989564291188e+00) (9, -1.36430941785072357142e+00) (10, -1.17350289369402016604e+00) (11, -9.05311303635857766992e-01) (12, -5.84723051628333712060e-01) (13, 1.29082806046439940023e-02) (14, -1.25426795692404335902e-01) (15, -8.03123753380380472899e-02) (16, -5.50982294532718963609e-01) (17, -5.43834002016272965996e-01) (18, -1.78192858164519074560e-01) (19, 6.63755119549717664817e-02) (20, 7.88872333155287597251e-01) (21, 6.68719042789629569690e-01) (22, 6.58800218001092674491e-01) (23, 5.75646282662860442336e-01) (24, 2.27427633607689666517e-01) (25, 2.06214176028517687245e-01) (26, 1.39517921276009149167e-01) (27, -1.44845757911900935300e-01) (28, -1.82191013552306313450e+00) (29, -3.62688623147114963530e+00) (30, -3.08287071785831123805e+00) (31, -2.84098718512527481650e+00) (32, -3.01472845352386586981e+00) (33, -2.86209283733590824639e+00) (34, -3.12368493951057546454e+00) (35, -2.73269697615727169548e+00) (36, -7.90215434205611799712e-01) (37, -5.97721171790472016738e-01) (38, -5.82043093854299642409e-01) (39, -4.54379189113661485777e-01) (40, -7.87689754674038566939e-02) (41, -1.51221446127613484700e-01) (42, -4.23404596587707071631e-01) (43, -3.35829876099403235035e-01) (44, -1.11065418035849794443e-01) (45, 9.97318680010950836534e-02) (46, 1.00155795959045376686e-01) (47, 1.37272013279886917481e+00) (48, 1.17009948039569255940e+00) (49, 3.05643057279444352314e-01) (0, 1.37378405468846387372e+00) (1, 4.02910891398654880113e-01) (2, -9.48016629040336411549e+00) (3, -9.30948466324481138656e+00) (4, -9.50313279131591492899e+00) (5, -1.07050538299283015675e+01) (6, -9.41815859329632942831e+00) (7, -3.90354451373393906977e+00) (8, -1.81663359209700425723e+00) (9, -4.30275217516446262245e-01) (10, -4.21670600789490923610e-01) (11, -2.96117777695168560292e-01) (12, 2.94835142996429100393e-01) (13, 3.56485570738059309726e-01) (14, 4.78448199349572000916e-01) (15, 1.82171542020840210307e-01) (16, -8.43333431758462037653e-02) (17, -1.30109166470962683837e-01) (18, 6.96128491027728224516e-02) (19, 4.59824278765092242516e-01) (20, 1.32900316812887919760e+00) (21, 1.13834878601923716879e+00) (22, 1.18620386428131574519e+00) (23, 1.10885558466417766255e+00) (24, 7.02815063611548107581e-01) (25, 4.73482043603834168444e-01) (26, 5.81464591521742568681e-01) (27, 1.46079178498543960085e-01) (28, -1.11514462610129178044e-01) (29, -2.84424925242484027965e-01) (30, -9.19567508368273833774e-01) (31, -9.89370406069355112777e-01) (32, -9.75527420094078001611e-01) (33, -9.66752413114374209435e-01) (34, -3.97574858209249260010e-01) (35, -1.58098693276397889163e-01) (36, 2.18762207582356357771e-02) (37, -1.88229242072307165201e-02) (38, 1.09038938150261954102e-02) (39, -1.86095256590936204179e-03) (40, 2.67522732238075267031e-01) (41, 1.14517236570617700342e-01) (42, 2.71219084481498784456e-01) (43, 1.90362910250923222932e-01) (44, 2.56990738263581264267e-01) (45, 9.14466598777671668685e-01) (46, 2.33989883926248332102e+00) (47, 1.10823543262674495402e+00) (48, 8.32187877932021891070e+00) (49, 7.11012466141915600026e-01) (50, 1.01638609421416905576e+01) (51, -2.02037150794748265881e+00) (52, -1.16600927833079612839e+01) (53, -7.78441807708991451165e+00) (54, -1.92219807958057953279e+00) (55, -1.62659326512985225044e+00) (56, -4.38497911866275469350e+00) (57, -7.93301502506602362885e-01) (58, -8.51464306677483739882e-01) (59, -9.00663135315083684951e-01) (60, -7.54791537841392656816e+00) (61, -4.77233915653112106270e+00) (62, -1.71174173744982871526e+00) (63, -4.62889180045543024988e+00) (64, -3.56703466077940145595e+00) (65, -2.35289484351491440250e+00) (66, 1.13612198921394735862e+02) (67, -6.68347090815789135476e-01) (68, 6.03674213217818333987e+00) 
