FANN_FLO_2.1
num_layers=3
learning_rate=0.700000
connection_rate=1.000000
network_type=0
learning_momentum=0.000000
training_algorithm=2
train_error_function=1
train_stop_function=0
cascade_output_change_fraction=0.010000
quickprop_decay=-0.000100
quickprop_mu=1.750000
rprop_increase_factor=1.200000
rprop_decrease_factor=0.500000
rprop_delta_min=0.000000
rprop_delta_max=50.000000
rprop_delta_zero=0.100000
cascade_output_stagnation_epochs=12
cascade_candidate_change_fraction=0.010000
cascade_candidate_stagnation_epochs=12
cascade_max_out_epochs=150
cascade_max_cand_epochs=150
cascade_num_candidate_groups=2
bit_fail_limit=3.49999999999999977796e-01
cascade_candidate_limit=1.00000000000000000000e+03
cascade_weight_multiplier=4.00000000000000022204e-01
cascade_activation_functions_count=10
cascade_activation_functions=3 5 7 8 10 11 14 15 16 17 
cascade_activation_steepnesses_count=4
cascade_activation_steepnesses=2.50000000000000000000e-01 5.00000000000000000000e-01 7.50000000000000000000e-01 1.00000000000000000000e+00 
layer_sizes=9 10 2 
scale_included=0
neurons (num_inputs, activation_function, activation_steepness)=(0, 0, 0.00000000000000000000e+00) (0, 0, 0.00000000000000000000e+00) (0, 0, 0.00000000000000000000e+00) (0, 0, 0.00000000000000000000e+00) (0, 0, 0.00000000000000000000e+00) (0, 0, 0.00000000000000000000e+00) (0, 0, 0.00000000000000000000e+00) (0, 0, 0.00000000000000000000e+00) (0, 0, 0.00000000000000000000e+00) (9, 4, 5.00000000000000000000e-01) (9, 4, 5.00000000000000000000e-01) (9, 4, 5.00000000000000000000e-01) (9, 4, 5.00000000000000000000e-01) (9, 4, 5.00000000000000000000e-01) (9, 4, 5.00000000000000000000e-01) (9, 4, 5.00000000000000000000e-01) (9, 4, 5.00000000000000000000e-01) (9, 4, 5.00000000000000000000e-01) (0, 0, 0.00000000000000000000e+00) (10, 6, 5.00000000000000000000e-01) (0, 6, 0.00000000000000000000e+00) 
connections (connected_to_neuron, weight)=(0, 1.48974700473171317583e+01) (1, -3.74557575241640183794e-01) (2, 6.46144305446633149259e-01) (3, 2.21081207811135938002e+00) (4, -4.83507846537690344491e+00) (5, -5.03473461957237411468e+00) (6, -1.92973753170893829179e+01) (7, -3.03540399318676861640e+02) (8, 3.82983877845573639220e+00) (0, 1.66361017550004504528e+02) (1, 7.11477299878583568926e+00) (2, 1.79525323055702634711e+00) (3, 1.00789774882662275246e+01) (4, 1.50000000000000000000e+03) (5, 3.74937726470906511622e+01) (6, -8.23432708992012408089e+02) (7, -1.28828531093334981961e+03) (8, 1.33711511645024625494e+01) (0, 1.62170149211036886072e+02) (1, 2.04749729491365961564e+00) (2, 9.90156807184568221736e-01) (3, 4.42031656955709095769e+00) (4, 1.49994850964986517283e+03) (5, 3.48517341625685617146e+01) (6, -1.00046852600056854499e+03) (7, 2.95872443428167652968e+00) (8, 3.42079352548147941349e+00) (0, -1.88577093598502565364e+00) (1, -5.29035344575139787615e-01) (2, 1.80425375227573137060e+00) (3, 2.13501383568821712089e+00) (4, -1.05600705252650950428e+01) (5, -4.28842954983846780248e-01) (6, 9.62795073198869033604e+00) (7, -1.31894443176700395526e+01) (8, 9.13213980768481481398e-01) (0, 3.96265291297372016288e+02) (1, 1.05603956039817905577e+01) (2, 5.58116049124101554213e+00) (3, 1.40112452044385982219e+01) (4, 1.50000000000000000000e+03) (5, 3.82664429605203437745e+01) (6, -9.04302361454772722027e+02) (7, -1.28828531093334981961e+03) (8, 1.43391046481328636730e+01) (0, 3.96223867650457634682e+02) (1, 1.12173845179426869834e+01) (2, 5.65368289082165542681e+00) (3, 2.85353652921805647225e+01) (4, 1.50000000000000000000e+03) (5, 3.77863967501991524500e+01) (6, -9.80068319646818281399e+02) (7, -1.28828531093334981961e+03) (8, 3.13763698732437568140e+01) (0, -5.16239950032745831265e+00) (1, -5.17718176090038673109e-01) (2, 1.57095092711999906321e+00) (3, 2.00611071736524948506e+00) (4, -5.94531828397310935230e+00) (5, 4.77781233801487625890e-01) (6, 5.26523011170368171463e+00) (7, -2.77907452786235296571e+02) (8, 9.95496659447777654250e-01) (0, -1.07054455328292206673e+02) (1, 2.29268838678828901223e+00) (2, 1.51694189147111320182e+01) (3, 1.13554098668791407789e+01) (4, -3.68445355201756363783e+00) (5, 1.82156643982684141037e+00) (6, -9.83784045760579206608e-01) (7, -1.51963228804531702565e+01) (8, 1.29364130357817974648e+00) (0, 3.97432432397808781843e+02) (1, 1.14853764541982599212e+01) (2, 5.80794525257775617888e+00) (3, 2.52158429188875388149e+01) (4, 1.50000000000000000000e+03) (5, 3.88507362951863512990e+01) (6, -9.81075207508939797663e+02) (7, -1.31973516908028568650e+03) (8, 3.14621404960765822523e+01) (9, -3.20379537585838392033e+01) (10, 1.22458155165373216988e+00) (11, -2.34515005627218675599e+00) (12, -1.54122236241327748019e+01) (13, 2.51842519538894782372e+00) (14, 2.55433977640662446262e+00) (15, 1.66129771438136728534e+01) (16, -1.51994727931188577941e+01) (17, 2.57314488537106766941e+00) (18, 2.24143130728039352562e+00) 
