FANN_FLO_2.1
num_layers=3
learning_rate=0.700000
connection_rate=1.000000
network_type=0
learning_momentum=0.000000
training_algorithm=2
train_error_function=1
train_stop_function=0
cascade_output_change_fraction=0.010000
quickprop_decay=-0.000100
quickprop_mu=1.750000
rprop_increase_factor=1.200000
rprop_decrease_factor=0.500000
rprop_delta_min=0.000000
rprop_delta_max=50.000000
rprop_delta_zero=0.100000
cascade_output_stagnation_epochs=12
cascade_candidate_change_fraction=0.010000
cascade_candidate_stagnation_epochs=12
cascade_max_out_epochs=150
cascade_max_cand_epochs=150
cascade_num_candidate_groups=2
bit_fail_limit=3.49999999999999977796e-01
cascade_candidate_limit=1.00000000000000000000e+03
cascade_weight_multiplier=4.00000000000000022204e-01
cascade_activation_functions_count=10
cascade_activation_functions=3 5 7 8 10 11 14 15 16 17 
cascade_activation_steepnesses_count=4
cascade_activation_steepnesses=2.50000000000000000000e-01 5.00000000000000000000e-01 7.50000000000000000000e-01 1.00000000000000000000e+00 
layer_sizes=32 5 2 
scale_included=0
neurons (num_inputs, activation_function, activation_steepness)=(0, 0, 0.00000000000000000000e+00) (0, 0, 0.00000000000000000000e+00) (0, 0, 0.00000000000000000000e+00) (0, 0, 0.00000000000000000000e+00) (0, 0, 0.00000000000000000000e+00) (0, 0, 0.00000000000000000000e+00) (0, 0, 0.00000000000000000000e+00) (0, 0, 0.00000000000000000000e+00) (0, 0, 0.00000000000000000000e+00) (0, 0, 0.00000000000000000000e+00) (0, 0, 0.00000000000000000000e+00) (0, 0, 0.00000000000000000000e+00) (0, 0, 0.00000000000000000000e+00) (0, 0, 0.00000000000000000000e+00) (0, 0, 0.00000000000000000000e+00) (0, 0, 0.00000000000000000000e+00) (0, 0, 0.00000000000000000000e+00) (0, 0, 0.00000000000000000000e+00) (0, 0, 0.00000000000000000000e+00) (0, 0, 0.00000000000000000000e+00) (0, 0, 0.00000000000000000000e+00) (0, 0, 0.00000000000000000000e+00) (0, 0, 0.00000000000000000000e+00) (0, 0, 0.00000000000000000000e+00) (0, 0, 0.00000000000000000000e+00) (0, 0, 0.00000000000000000000e+00) (0, 0, 0.00000000000000000000e+00) (0, 0, 0.00000000000000000000e+00) (0, 0, 0.00000000000000000000e+00) (0, 0, 0.00000000000000000000e+00) (0, 0, 0.00000000000000000000e+00) (0, 0, 0.00000000000000000000e+00) (32, 4, 5.00000000000000000000e-01) (32, 4, 5.00000000000000000000e-01) (32, 4, 5.00000000000000000000e-01) (32, 4, 5.00000000000000000000e-01) (0, 0, 0.00000000000000000000e+00) (5, 6, 5.00000000000000000000e-01) (0, 6, 0.00000000000000000000e+00) 
connections (connected_to_neuron, weight)=(0, 1.10584046703122140798e+01) (1, -3.15488796215925848543e+00) (2, -7.39783000747826680055e+00) (3, -2.52197258208575583183e+01) (4, -4.11814089682129491621e+00) (5, -5.56575281456432535698e-01) (6, -3.09242011260787041937e-01) (7, -8.83911291275159705094e+00) (8, -1.76799877113116676863e-01) (9, 2.13311285518298865416e-01) (10, 1.69804899971784828416e-01) (11, 3.20006004695699675100e-01) (12, 1.17029605739313224966e+00) (13, 1.99424395833455037064e+00) (14, 3.15938084317282485980e-01) (15, 3.92117014659725038328e-01) (16, 6.88277679593868457752e-02) (17, -2.01551261861934033481e-01) (18, 6.77644766955818855791e+00) (19, -1.84788597237086360536e+00) (20, -1.90307459224926689423e+00) (21, -1.37064573999383720881e+00) (22, -6.21956497183009160423e-01) (23, 1.69993231852844928209e-01) (24, -9.43937308476046399441e-01) (25, 4.57518231658885221602e-01) (26, -7.14991530867503222169e-01) (27, -1.08081287956305138742e+00) (28, 4.01814123816483181884e-01) (29, 1.79923947311095595580e+01) (30, 6.71306042243205780551e+00) (31, 1.33216294989137296056e+00) (0, 1.84330586654547978753e+01) (1, 4.94880875400519060214e-01) (2, -2.91746568318153087773e+00) (3, -6.57018443347659686360e-01) (4, -6.91676734082711686113e-01) (5, -4.12708796787650891713e-02) (6, -1.38871486082258188688e+00) (7, -2.27450636524976967934e+00) (8, -1.26338103425744519015e+00) (9, 7.60665655049911126895e-01) (10, 6.93113034714748277310e-01) (11, 4.75278259975221328837e-01) (12, 3.99378453969019109326e-01) (13, 2.55787093600789461334e+00) (14, 3.05566836943864572618e+00) (15, -6.53749991076739367379e-01) (16, 2.84916579909937439652e+00) (17, 2.45576709161192408004e+00) (18, -2.92788884655423464753e-01) (19, -4.58259646326963920870e+00) (20, -1.08653854409299999162e+01) (21, -4.72320686656514165946e+00) (22, -1.56826219736119654158e+00) (23, -1.56174912069129434578e+00) (24, -2.30255495060298365217e+00) (25, 1.00052228155182754143e+00) (26, 3.22986885690586700282e-01) (27, 1.33878068774313019329e-01) (28, 1.37630503373592603111e+01) (29, 2.88778219467324337444e+00) (30, 3.11093962439108935314e+01) (31, 3.13835076241896082649e+00) (0, 1.62940949504938648040e+00) (1, -1.10723229333837669408e+00) (2, -7.29408123803248287231e+00) (3, -1.15936156408466501944e+01) (4, -3.35640139291634298502e+00) (5, -4.30949113813512030280e-01) (6, -5.20118525394359321190e-01) (7, -1.32946355464568952698e+01) (8, 2.45158914363179346318e-02) (9, 2.01354992605965038566e-01) (10, 1.77691187357205127029e-01) (11, 3.48341938859918986982e-01) (12, 1.40004339700133284552e+00) (13, 2.22692885110972627061e+00) (14, 6.60357825056225977711e-01) (15, -1.19197313431796278471e-01) (16, 7.81934320523816839277e-01) (17, 5.96474711325990503141e-01) (18, 4.04237348500440740739e-01) (19, -1.98371042427608657022e+00) (20, -1.19294375140649555611e+00) (21, -1.41474438253077527960e+00) (22, -2.06236090056460298625e-02) (23, 1.81059010352533622523e+00) (24, -2.45856558922619289342e-01) (25, 1.03458345119793704292e+00) (26, -1.56328033846484720781e-01) (27, -2.20567337963331722150e-01) (28, 4.22328951754195047741e-01) (29, -7.82940671341674554462e-01) (30, 2.77498663984898783497e+01) (31, 1.25689356216520531362e+00) (0, 2.32662200250644257693e+00) (1, -2.54517688028830013636e+00) (2, -6.43452790243036343298e+00) (3, -5.88697783695473653154e+00) (4, -3.40596371223270377726e+00) (5, -3.28628103174469388126e-01) (6, -4.69357538821087161285e-01) (7, -7.27374681011530688224e-01) (8, -2.01019799137433508029e-02) (9, 9.44152198666930453363e-01) (10, 2.41230635118783842685e-01) (11, 1.56276096907487754839e-01) (12, 1.39539000480678265781e+00) (13, 2.14747130122497420501e+00) (14, 6.07220863311206171531e-01) (15, -1.49484287254596642791e-01) (16, 3.44775685529096875825e-01) (17, -1.58906920066341800224e-01) (18, -1.09346719184198803987e+00) (19, -1.82032002983537721796e+00) (20, -6.53609163845550167338e+00) (21, -1.58430593814643527750e+00) (22, 1.28570957337398483755e-01) (23, 1.82105987096830235217e+00) (24, -5.16575015316479091432e-01) (25, 9.99374616174959040649e-01) (26, -2.29355904151575334948e-01) (27, -1.32715803738593429717e-01) (28, 1.36885899592425114291e-01) (29, -5.16954054611903843219e-02) (30, 2.39658403457113564627e+01) (31, 1.34237777568230187697e+00) (32, -8.74874667337721056981e+00) (33, -1.34231821652634337738e+01) (34, -7.72990272049739157723e+00) (35, -5.41367899204014957348e+00) (36, 7.65125434543983740099e+00) 
