FANN_FLO_2.1
num_layers=3
learning_rate=0.700000
connection_rate=1.000000
network_type=0
learning_momentum=0.000000
training_algorithm=2
train_error_function=1
train_stop_function=0
cascade_output_change_fraction=0.010000
quickprop_decay=-0.000100
quickprop_mu=1.750000
rprop_increase_factor=1.200000
rprop_decrease_factor=0.500000
rprop_delta_min=0.000000
rprop_delta_max=50.000000
rprop_delta_zero=0.100000
cascade_output_stagnation_epochs=12
cascade_candidate_change_fraction=0.010000
cascade_candidate_stagnation_epochs=12
cascade_max_out_epochs=150
cascade_max_cand_epochs=150
cascade_num_candidate_groups=2
bit_fail_limit=3.49999999999999977796e-01
cascade_candidate_limit=1.00000000000000000000e+03
cascade_weight_multiplier=4.00000000000000022204e-01
cascade_activation_functions_count=10
cascade_activation_functions=3 5 7 8 10 11 14 15 16 17 
cascade_activation_steepnesses_count=4
cascade_activation_steepnesses=2.50000000000000000000e-01 5.00000000000000000000e-01 7.50000000000000000000e-01 1.00000000000000000000e+00 
layer_sizes=36 18 2 
scale_included=0
neurons (num_inputs, activation_function, activation_steepness)=(0, 0, 0.00000000000000000000e+00) (0, 0, 0.00000000000000000000e+00) (0, 0, 0.00000000000000000000e+00) (0, 0, 0.00000000000000000000e+00) (0, 0, 0.00000000000000000000e+00) (0, 0, 0.00000000000000000000e+00) (0, 0, 0.00000000000000000000e+00) (0, 0, 0.00000000000000000000e+00) (0, 0, 0.00000000000000000000e+00) (0, 0, 0.00000000000000000000e+00) (0, 0, 0.00000000000000000000e+00) (0, 0, 0.00000000000000000000e+00) (0, 0, 0.00000000000000000000e+00) (0, 0, 0.00000000000000000000e+00) (0, 0, 0.00000000000000000000e+00) (0, 0, 0.00000000000000000000e+00) (0, 0, 0.00000000000000000000e+00) (0, 0, 0.00000000000000000000e+00) (0, 0, 0.00000000000000000000e+00) (0, 0, 0.00000000000000000000e+00) (0, 0, 0.00000000000000000000e+00) (0, 0, 0.00000000000000000000e+00) (0, 0, 0.00000000000000000000e+00) (0, 0, 0.00000000000000000000e+00) (0, 0, 0.00000000000000000000e+00) (0, 0, 0.00000000000000000000e+00) (0, 0, 0.00000000000000000000e+00) (0, 0, 0.00000000000000000000e+00) (0, 0, 0.00000000000000000000e+00) (0, 0, 0.00000000000000000000e+00) (0, 0, 0.00000000000000000000e+00) (0, 0, 0.00000000000000000000e+00) (0, 0, 0.00000000000000000000e+00) (0, 0, 0.00000000000000000000e+00) (0, 0, 0.00000000000000000000e+00) (0, 0, 0.00000000000000000000e+00) (36, 4, 5.00000000000000000000e-01) (36, 4, 5.00000000000000000000e-01) (36, 4, 5.00000000000000000000e-01) (36, 4, 5.00000000000000000000e-01) (36, 4, 5.00000000000000000000e-01) (36, 4, 5.00000000000000000000e-01) (36, 4, 5.00000000000000000000e-01) (36, 4, 5.00000000000000000000e-01) (36, 4, 5.00000000000000000000e-01) (36, 4, 5.00000000000000000000e-01) (36, 4, 5.00000000000000000000e-01) (36, 4, 5.00000000000000000000e-01) (36, 4, 5.00000000000000000000e-01) (36, 4, 5.00000000000000000000e-01) (36, 4, 5.00000000000000000000e-01) (36, 4, 5.00000000000000000000e-01) (36, 4, 5.00000000000000000000e-01) (0, 0, 0.00000000000000000000e+00) (18, 6, 5.00000000000000000000e-01) (0, 6, 0.00000000000000000000e+00) 
connections (connected_to_neuron, weight)=(0, 1.69736947632883827808e-01) (1, 2.35055168410348097607e-01) (2, 3.33578314104586670652e+00) (3, -1.09764627202313932997e-01) (4, -3.17753863584093187988e-01) (5, -4.59487783086439602331e-02) (6, -6.78719278467609515859e-02) (7, -9.35139930561973836687e-02) (8, -1.94267691266805264672e-01) (9, -2.45601442005323397644e-02) (10, -1.74451172207980148565e-01) (11, -9.38747781215695104029e-02) (12, -1.28807846250780871911e-01) (13, -4.18292656332252890672e-02) (14, 1.57292288700073418228e-01) (15, 2.68429892091587385394e+00) (16, 6.24588474631720957930e-01) (17, 5.05879953770725809825e-01) (18, 1.24369649548775520337e-02) (19, -1.41186663318779770382e-01) (20, -1.17784329218171335274e-01) (21, 1.75721649229153142890e+00) (22, 3.85104614089411712019e-01) (23, -6.11101774706908074108e+00) (24, -2.15710547937888863501e+00) (25, -1.72535823458301673661e+00) (26, -1.47844857302866961035e+00) (27, -1.72470857772106578309e-01) (28, -1.87339720645166130097e-01) (29, -2.90945138598682873088e-01) (30, -1.71355466138614381810e-01) (31, -1.53482779239549588235e-01) (32, -2.07284231768514945471e-02) (33, -4.90674344945413662411e-02) (34, 1.19791768215602960623e+01) (35, 3.84839560031838834320e-01) (0, -2.58738866369355273445e-03) (1, -2.38626349792991215848e-01) (2, 4.62489367628280767519e+00) (3, 2.77871590356041586745e+00) (4, -1.43723465476360123816e+00) (5, -2.89060524464332446737e-01) (6, -1.09611207116176181953e-01) (7, -1.33736945915838650878e-01) (8, -1.15397700923829796271e-01) (9, -1.43840649848161944435e-01) (10, -7.57062798665930625219e-03) (11, -1.98446655040685863980e-02) (12, -7.60170587664548286222e-02) (13, 6.63976581112935421158e-02) (14, 2.79710982438794497629e-01) (15, 1.39496228682656542297e+00) (16, 4.20426656940210030644e-01) (17, -1.27733812766426757523e-01) (18, -2.71561554591146425350e-03) (19, -1.15246400601920206963e-02) (20, -1.39924765373433790394e-01) (21, -7.98741323633660371684e+00) (22, -1.98561659925252449455e+01) (23, -2.43894753919368696415e+01) (24, -2.70645129935047279446e+00) (25, -2.49286184540384647690e+00) (26, -2.08548181552153577556e+00) (27, -3.66917771092364175534e-01) (28, -4.36674510965915418925e-01) (29, -3.14800079440476832104e-01) (30, -2.52891678560641541829e-01) (31, -8.39899060234020056193e-02) (32, -6.48249907993470597667e-02) (33, 3.60196498975674170295e-02) (34, 5.80260895536426790642e+00) (35, 4.61745877300464679927e-01) (0, 6.49402882748510101862e-01) (1, -1.61729813914961662036e+00) (2, -2.11216345235313092132e+01) (3, -2.14442331871020499534e+01) (4, -1.53796920810749444541e+01) (5, -1.07373438062817780358e-01) (6, 4.79905847826965978320e-02) (7, 2.60416328725860790616e-01) (8, 3.06459085968437350278e-01) (9, 3.87788261695954650232e-01) (10, 3.21675486582406744418e-01) (11, 5.15645856011735848057e-01) (12, 4.92988572408171288330e-01) (13, 5.14055472239634103637e-01) (14, 1.47202490515162365270e+00) (15, 3.03459369957787483685e+00) (16, 2.79143485073135400043e+00) (17, 7.63628343079711613406e-01) (18, 6.07665455075085847447e-01) (19, 3.22647137087255175825e-01) (20, 2.84072938916000938825e-01) (21, -1.09417941802803286855e+00) (22, -1.96175530982458945495e+00) (23, -2.17563579254598415957e+00) (24, -1.15026030867003936642e+00) (25, 1.25293590898230416952e-01) (26, -9.78587366217416265712e-01) (27, -1.15589594238930653408e-02) (28, 3.31497657474143572753e-02) (29, 2.88270761543969578078e-01) (30, 6.00704787256353470171e-02) (31, 3.67969271436833333944e-01) (32, 1.26483715147054942562e+00) (33, 2.78269436402679737341e+00) (34, 1.26543925681358160773e+02) (35, 9.83785132169673004476e-01) (0, 5.84320020917101556890e-01) (1, -4.40530596769041660199e-01) (2, -2.16297856834121198233e+01) (3, -9.86461484381627151663e+00) (4, -1.03595794465044477306e+01) (5, -3.64507477062799734036e-01) (6, -4.77221859815680271577e-01) (7, -4.74820400366541439663e-01) (8, 3.48727868730713763679e-01) (9, 4.10179698871261488868e-01) (10, 3.96373288037229987157e-01) (11, 4.86795574271539355227e-01) (12, 3.47889970643498747105e-01) (13, 5.41149610157239058239e-01) (14, 5.65729889990642886843e-01) (15, 3.18757292059719610222e+00) (16, 1.65524219076895229286e+00) (17, 1.15225143137921959280e+00) (18, 4.18174378501036780875e-01) (19, 3.55306897891999040606e-01) (20, 4.36247069850579871630e-01) (21, -1.15479630415085754436e+00) (22, -2.38454662741656120417e+00) (23, -2.45443276891161232811e+00) (24, -1.12032204912071398084e+00) (25, -4.48951850659685014477e-01) (26, -5.01634792766330828151e-01) (27, 9.67737120972225750570e-02) (28, 8.44587313239461706660e-02) (29, 1.15040378240373206142e-01) (30, 1.33830221353659933881e-01) (31, 4.26112703264099279554e-01) (32, 1.35311306539223941137e+00) (33, 6.59097505839517761039e-01) (34, 7.17453012262831748558e+01) (35, 6.16643696431840471206e-01) (0, 5.89422794336267430459e-01) (1, -2.58469031073974520041e+00) (2, -2.11554551131470276459e+01) (3, -2.15812842339889598975e+01) (4, -1.57409355665840990923e+01) (5, -2.73461144092484476076e+00) (6, -1.07911723494800271261e-01) (7, 2.25915847673382269578e-01) (8, 2.95888991512524568428e-01) (9, 3.15055769676829688919e-01) (10, 3.45293245033673590338e-01) (11, 3.19599749624663143077e-01) (12, 3.12256039775369198530e-01) (13, 5.62575121913409303964e-01) (14, 1.47764172587081321630e+00) (15, 5.33886288363262107026e+00) (16, 1.81996987856761593960e+00) (17, 5.07462868304387360041e-01) (18, 4.67033631881904442995e-01) (19, 4.31823057420934131034e-01) (20, 2.64205747423760017867e-01) (21, -1.18746413838860687129e+00) (22, -2.00828829441495226860e+00) (23, -1.95741979544356969889e+00) (24, -1.08551304973601792092e+00) (25, -5.86372143923249211639e-01) (26, -5.16264692845522565889e-01) (27, 1.31174326559841625262e-01) (28, 1.57916351894162004799e-01) (29, 3.71754988986745665835e-02) (30, -2.62760997731239925868e-02) (31, 3.25620344315860954509e-01) (32, 3.14681193358071187305e+00) (33, 3.05976042925885094448e+00) (34, 1.39927895783692093801e+02) (35, 1.15580568287724050336e+00) (0, 6.65118133850000736729e-01) (1, -5.18101221418566404431e-01) (2, -2.16082006470908147833e+01) (3, -9.89077305394762262836e+00) (4, -1.03264180294342153843e+01) (5, -4.59756183335785273414e-01) (6, -3.91136576641174626978e-01) (7, 7.96231280113881556559e-02) (8, 2.96648569229881697851e-01) (9, 2.77524990681384475799e-01) (10, 3.32084961701126557543e-01) (11, 4.55294145552919082842e-01) (12, 3.51460695144917900645e-01) (13, 6.08022572331037514104e-01) (14, 9.46819268130342561740e-01) (15, 3.23786645116037474779e+00) (16, 1.88566202813501004876e+00) (17, 4.99526276036376726264e-01) (18, 4.86309275599536183776e-01) (19, 4.00842234570318423081e-01) (20, 3.54400037642597032228e-01) (21, -7.42951737086309904612e-01) (22, -2.45105764495578659634e+00) (23, -2.60500241018710987362e+00) (24, -1.00777346535628953283e+00) (25, -5.25533231796813438130e-01) (26, -4.95521236503427331410e-01) (27, -5.60583999868858526283e-02) (28, 1.75897658724502692351e-01) (29, 1.26276635311801162936e-02) (30, 2.14131185605069662703e-01) (31, 4.43194727389280340724e-01) (32, 1.16607933981532463363e+00) (33, 4.90921054822221203384e-01) (34, 1.03113827203950435774e+02) (35, 6.36359709822278074576e-01) (0, 1.49287990662236391692e+00) (1, -2.68942715874184568037e+00) (2, -2.52513211112570878925e+01) (3, -2.55260078660317475396e+01) (4, -1.44286587354850297515e+01) (5, -2.60156196925151794730e+00) (6, -1.20850691316008562737e-01) (7, 2.27782074140363499648e-01) (8, 3.16240071913817644145e-01) (9, 3.98598440205033988093e-01) (10, 3.09810916264362634642e-01) (11, 3.05533186287795244240e-01) (12, 2.64642633597758192288e-01) (13, 5.99320783162105574782e-01) (14, 1.46235589987019842795e+00) (15, 5.43266330208321779338e+00) (16, 1.77594874651590761694e+00) (17, 7.10550878974797739396e-01) (18, 5.28589301750254869638e-01) (19, 3.19381608607778200160e-01) (20, 3.30294443301270168600e-01) (21, -1.12708666173513449849e+00) (22, -2.05963956717289820020e+00) (23, -2.04537181735492579193e+00) (24, -1.15594635124032563134e+00) (25, -4.07521288088642352765e-01) (26, -5.76367608853985524675e-01) (27, 1.06489612527547287957e-02) (28, 1.56974228275923805009e-01) (29, 1.87972198314255267704e-01) (30, 7.43894285586952086486e-02) (31, 4.31205505010257339471e-01) (32, 2.37422171084528033091e+00) (33, 3.01928000314586597597e+00) (34, 1.12471450737313134027e+02) (35, 1.58034357134985103954e+00) (0, 5.50429982102954795664e-01) (1, 3.11835019901034959933e-01) (2, -7.04864299126223281533e-02) (3, -8.27699674494818682380e-02) (4, -2.27423219283189936846e+00) (5, -3.91886799312321731925e-01) (6, -1.26774244122250523414e-01) (7, -1.19198408279441420143e-01) (8, 4.03836076297138871216e-03) (9, 3.50531560133074737706e-01) (10, 4.33874604103583749737e-01) (11, 4.86286085947988444556e-01) (12, 3.26798315842566522438e-01) (13, 1.10413625733998177481e+00) (14, 1.08365931027235373740e+00) (15, 1.60714219711917172262e+00) (16, 9.66598737866528834317e-01) (17, 8.65217484806471315295e-01) (18, 4.24791705978830591572e-01) (19, 5.41145202384357149050e-01) (20, 4.73641838762538458507e-01) (21, -1.92936786958828365712e+00) (22, -5.57993150858356123933e+00) (23, -5.87697594827325886513e+00) (24, -2.02232697254896587324e+00) (25, -5.63156824527147534254e-02) (26, 3.05682424487706341787e-02) (27, 7.19687471301139525259e-01) (28, 5.45315949540844835397e-01) (29, 1.25932490622319082085e+00) (30, 2.25548549306003298653e+00) (31, 2.06325399390347063999e+00) (32, 4.08951649438093767230e+00) (33, 1.95913327499989531333e+00) (34, 1.05985973553641326106e+01) (35, 1.15862898464891483918e+00) (0, 5.73737378588085600306e-01) (1, -3.53004791142662477377e-01) (2, -3.89844496717965727228e+00) (3, -4.00669899457364131479e+00) (4, -4.87058409031961225821e+00) (5, -2.26512008466398379047e-01) (6, -1.11174605898602452125e-01) (7, -1.12051323168023075905e-01) (8, -8.15268309042291028366e-02) (9, 4.40175108653767965805e-01) (10, 5.42590438619276360654e-01) (11, 5.79908420249459988227e-01) (12, 4.65546754106520077610e-01) (13, 9.84607101997140188310e-01) (14, 7.85662845594500280910e-01) (15, 2.72495606002238632826e+00) (16, 1.55450483612912426779e+00) (17, 8.26970150291524985775e-01) (18, 4.66438093406875864400e-01) (19, 6.16373962822920895555e-01) (20, 4.50250706151740509586e-01) (21, -1.68553914590374342986e+00) (22, -5.55426354317142134676e+00) (23, -4.64999711126204573475e+00) (24, -1.51287519486798238688e+00) (25, 6.65588661606753978495e-02) (26, -3.06889951174973540232e-03) (27, 1.08349763309012159240e+00) (28, 6.27348654686325613028e-01) (29, 1.14494268337388138690e+00) (30, 2.47530639141082087207e+00) (31, 1.27635069745709706091e+00) (32, 2.07852732136883089353e+00) (33, 1.53683371964759896144e+00) (34, 2.56573477001826475430e+01) (35, 1.11347126482454283902e+00) (0, 1.81810554686316599993e-01) (1, -8.71283999550052923322e-03) (2, -1.29595743923165098721e+01) (3, -1.21844530151224326175e+01) (4, 1.81719313851330390719e+01) (5, 1.12470266997516232799e+00) (6, 3.11628805106477990705e+00) (7, 3.18205430219332097153e+00) (8, 1.21477870363988027513e+00) (9, -1.61104028112749153578e-01) (10, -7.09270185383015089320e-02) (11, -5.53170582590073109386e-02) (12, -7.56514427939929817724e-02) (13, -1.21552553058826950938e-01) (14, 1.25123578630982640325e-01) (15, 5.09349997307293689275e-01) (16, 7.99912244241640202347e-01) (17, 4.49322973668580871731e+00) (18, 2.16192082768644038004e-02) (19, -1.90477215447789144376e-01) (20, -1.75422115854831833781e-01) (21, -1.63987566273191776034e+00) (22, 1.48024145620537472823e+00) (23, 3.34713165442925930648e+00) (24, -1.10119506935548239213e+00) (25, -1.56410554885947483683e+00) (26, -2.65671146252721035452e+00) (27, -1.96352860813069240997e-01) (28, 1.91422260130352128726e-01) (29, -2.86402706469693013602e-01) (30, -6.80276435740334695090e-01) (31, -5.06383510374368794871e-01) (32, -9.38116949741379713146e+00) (33, -7.73938841001120869656e-01) (34, -2.86933046279566639214e+01) (35, 1.14639727317270428975e-01) (0, 1.93984752427302797884e+00) (1, -3.13792912168694204667e+00) (2, -1.07024180066492169416e+00) (3, -4.75564720537204532747e+00) (4, -8.24271341461876083656e+00) (5, -3.25410324948718798765e+00) (6, 8.35299976113687975277e-02) (7, 1.44875712157939179336e-01) (8, 6.94370562450629530415e-02) (9, 2.38348284294619378043e-01) (10, 3.01939782217216790006e-01) (11, 2.44956960187084960001e-01) (12, 3.44133700896389338464e-01) (13, 6.15227862309093986859e-01) (14, 1.91560379568409810958e+00) (15, 1.96274350015636200872e+00) (16, 9.88038522368187899225e-01) (17, 8.77287841538994195290e-01) (18, 1.02743908457039445636e+00) (19, 5.55830286050331690006e-01) (20, -2.13873889330379735041e-02) (21, -1.59136471001640233958e+00) (22, -1.75082970640964830089e+00) (23, -3.09221834893872271621e+00) (24, -1.56574826607221906372e+00) (25, -7.50548115413799399320e-01) (26, -7.39605306130066031400e-01) (27, 3.15715058643279589123e-01) (28, 4.71581410882378898597e-02) (29, 8.16115236070753646835e-01) (30, 2.23199467132953266457e+00) (31, 8.81382604061602736856e-01) (32, 2.97792918139907580866e+00) (33, 8.07616120570922579880e-01) (34, 2.48427776082058038298e+01) (35, 1.55524774732301795943e+00) (0, -7.35771193208522994444e-02) (1, -3.96895992952216281058e-01) (2, -7.76223163200907162462e+00) (3, -5.94234876610765017091e+00) (4, -6.68964913764547564057e+00) (5, -1.27400635860406175048e+00) (6, -1.69887853125034093971e+00) (7, -1.85012725591992688301e+00) (8, -9.26969197765258212662e-01) (9, -1.96236570941516391686e-01) (10, -3.64462055068611623376e-01) (11, -3.10120737827480452697e-01) (12, -4.35251973592887086983e-01) (13, -7.25792068361557490830e-02) (14, 1.75445643492336648961e-02) (15, 1.44062117712183046514e+00) (16, 1.05089125257636117894e+00) (17, -8.29161585046130578114e-01) (18, -7.28233905203947845530e-02) (19, -1.32216351336244430925e-01) (20, -4.46538901778089636352e-01) (21, -3.46022785686573186581e+00) (22, -8.70327321336340276048e+00) (23, -1.06581125268181615695e+01) (24, -3.65595114260027287401e+00) (25, -7.62671799455129417744e-01) (26, -6.57014632151754818246e-01) (27, -3.54481843105265481686e-01) (28, -2.93471703211637235942e-01) (29, -2.78115521644952234936e-01) (30, -2.38144003052380787144e-01) (31, -1.82891894622562362072e-01) (32, -1.14740423840077751527e-01) (33, -4.99663812899907647247e-02) (34, 5.89679099218134172844e+00) (35, -1.56739660072937013469e-02) (0, -2.04975795087449334797e-02) (1, -4.83157251112562247108e-01) (2, -1.31272590036456602292e+01) (3, -1.30785465633640534122e+01) (4, -1.76311510108830060695e+00) (5, -8.28591789034006875880e-01) (6, -6.93753748747346743464e-01) (7, -3.84647274930980775931e-01) (8, -1.22452750125238721268e-01) (9, -3.98632972120252560000e-01) (10, -3.46710208266289898749e-01) (11, -3.43042327089001342078e-01) (12, -3.99693067807514790246e-01) (13, -5.58532757060759346701e-02) (14, 9.39331231588700910073e-02) (15, 1.38145454779429122105e+00) (16, 4.76308786434683384403e-01) (17, 5.14194055441742570167e-01) (18, -5.16289765142542503296e-02) (19, -1.98305908722048174209e-01) (20, -2.86490897885358475339e-01) (21, -3.35765879807023415182e+00) (22, -5.71520517259613658467e+00) (23, -4.77746241006016614250e+00) (24, -3.41542771426892732833e+00) (25, -1.18427969059100335336e+00) (26, -8.70052293567824874820e-01) (27, -2.76838718151039830939e-01) (28, -2.80870317488488563384e-01) (29, -1.55263128503905334377e-01) (30, -7.45578908359178504917e-02) (31, -2.23970358641115835363e-01) (32, 3.80580925925002380716e-02) (33, -6.37372563856005488331e-04) (34, 7.48803310544085221068e-01) (35, -4.13350932471930263001e-02) (0, 2.95646378365456256876e-02) (1, 7.91800025001525020762e-01) (2, -1.46758021128585935955e+00) (3, -9.15559665933395994131e-01) (4, 8.35201263346717182046e-01) (5, 1.20189625642610459222e-01) (6, 1.44934593722948590333e-01) (7, 1.46553133991741441067e-01) (8, -2.34746843290360690526e-01) (9, -5.85486397857421583812e-02) (10, -1.46640449394598443300e-01) (11, -2.67318212561330446897e-02) (12, -8.36048615001605543995e-02) (13, 3.08493935661122153924e-02) (14, 3.24824234945487511084e-01) (15, 2.25936592304849259705e+00) (16, 7.59442676213824108267e-01) (17, 2.20821838754728938525e+00) (18, -2.18489456932636320896e-02) (19, -4.56314067119335045608e-02) (20, -1.40576362472669025294e-01) (21, -9.70811856575219600529e+00) (22, 1.06245701502625888857e+00) (23, 1.59786689596389841483e+01) (24, -4.46651269633071201781e+00) (25, -2.48629355190086576144e+00) (26, -2.71091808644408249762e+00) (27, -2.14251426255170379642e-01) (28, -1.61325221754208519842e-01) (29, -2.50023116156859737114e-01) (30, -3.33010092989694306276e-01) (31, -8.55850779431600594549e-02) (32, -2.68832431390101378454e-01) (33, -1.13599544408164512821e-01) (34, 3.34337173256308517466e-01) (35, 1.03960831442589482498e-01) (0, 5.08766132690877781464e-01) (1, -2.65265324632132371008e+00) (2, -2.06363348256358314359e+01) (3, -2.12372474366361885245e+01) (4, -1.33132362585420587209e+01) (5, -2.37369032604079466253e+00) (6, -4.83832156245853975407e-02) (7, 9.07791667516893302503e-02) (8, 2.95622243200809542429e-01) (9, 4.17950366872977874255e-01) (10, 3.99825790791676849434e-01) (11, 3.87267184037782541406e-01) (12, 3.52342017152233510924e-01) (13, 6.71527219959007770633e-01) (14, 1.37755124539235240810e+00) (15, 3.17459785887737622190e+00) (16, 2.64326725773228954353e+00) (17, 4.69486104880230237235e-01) (18, 5.92277977480071604610e-01) (19, 4.52371682470438629675e-01) (20, 2.92970597251264064376e-01) (21, -1.11994588140808182253e+00) (22, -1.96187978101811233422e+00) (23, -2.13045288826692802431e+00) (24, -1.06167109118564972903e+00) (25, -3.55224478399839060927e-01) (26, -5.03864246831116191494e-01) (27, 1.20957224813341951419e-01) (28, 1.12197102738722645499e-01) (29, 1.75072956980455510245e-02) (30, 3.07070498593728480330e-01) (31, 4.70035223510238187039e-01) (32, 3.44480468768419401115e+00) (33, 2.87378863426681752102e+00) (34, 8.02721076170052896259e+01) (35, 1.78923751005879982934e+00) (0, 3.97987408347880988746e-02) (1, -2.50624250696215966627e-01) (2, 4.71589282506887563784e+00) (3, 1.80890150455434661758e+00) (4, -1.46159230146732133093e+00) (5, -2.47305973304767834353e-01) (6, -2.21242496240665054152e-01) (7, -1.80996842909475624817e-01) (8, -2.76339026540705690049e-01) (9, -3.79234717537748830529e-02) (10, -4.43552797960211978023e-03) (11, -1.44119846946567820023e-01) (12, -1.10065213716596804749e-01) (13, -3.44997062070772422815e-02) (14, 1.36875797507039487222e-01) (15, 1.48060565653105036255e+00) (16, 5.27077791729199995885e-01) (17, -9.69806100300490275812e-02) (18, 1.04849090320624435679e-01) (19, -1.14087714361218686698e-01) (20, -2.21454304451907835194e-01) (21, -7.80889762325753089556e+00) (22, -1.99995869011253368797e+01) (23, -2.43127570466524076664e+01) (24, -2.52941123650571864090e+00) (25, -2.60467617294186037924e+00) (26, -2.11115378934603636907e+00) (27, -3.51816688469359262204e-01) (28, -4.61627336124749987345e-01) (29, -1.11187798442586957548e-01) (30, -2.10132558096316451879e-01) (31, -6.65566277607868017618e-02) (32, -6.08857318089640713044e-03) (33, -3.02220801069816788487e-02) (34, 5.86261020944599398064e+00) (35, 3.97071797882282306880e-01) (0, 2.58552616934380266600e-02) (1, 2.35510472783519581030e-01) (2, 6.18261915699889019749e+00) (3, 3.63344859302797029699e+00) (4, 7.03997682649512013242e-01) (5, -1.74567303540141216533e-01) (6, -1.96360111438156320629e-01) (7, -2.06013327019485339986e-02) (8, -9.01850757692347765326e-02) (9, -1.59891649913493916202e-01) (10, -1.15851291003949669056e-01) (11, -1.71165844076209244795e-01) (12, -1.33273608518039765602e-01) (13, -1.52281708969124619096e-02) (14, 6.13557378686135579393e-01) (15, 3.29388648834835473522e+00) (16, 1.59077784416882050955e+00) (17, 1.89953330901465239355e-01) (18, 1.89366369624607254474e-02) (19, -9.87553305415420218383e-02) (20, 6.77172469515319952471e-01) (21, 1.02910194146780709090e+00) (22, -3.99657303741708602729e+00) (23, -7.75659405121953859918e+00) (24, -1.21258143285007102818e+00) (25, -6.04496800542407064505e-01) (26, -5.46965467540438510241e-01) (27, -2.01734182783973203801e-01) (28, -2.20305476056076310343e-01) (29, -2.63348421891743400547e-01) (30, -1.90909837652262937002e-01) (31, -1.26504825316311880767e-02) (32, 6.77562875731799740819e-02) (33, -6.70702565690330237969e-02) (34, 1.35091211376309274783e+02) (35, 2.69810835047310404455e-01) (36, -1.97582631426040116196e+01) (37, 1.50000000000000000000e+03) (38, -3.09838203265471623382e+00) (39, -1.38133066952484906409e+00) (40, -3.39893559634657016488e+00) (41, -1.38404438704508603308e+00) (42, -3.72514170385957843479e+00) (43, -2.43173750099283259019e+00) (44, -2.43104029056173365220e+00) (45, 3.33833912171747781983e+00) (46, -2.57767730695209040803e+00) (47, 3.87347542110717768082e+02) (48, 1.91632881136764979146e+02) (49, 8.04473358668614402234e+00) (50, -4.51986163428642839790e+00) (51, 1.50000000000000000000e+03) (52, -6.72026872962082677532e+00) (53, 4.91653561652034287732e+00) 
