FANN_FLO_2.1
num_layers=3
learning_rate=0.700000
connection_rate=1.000000
network_type=0
learning_momentum=0.000000
training_algorithm=2
train_error_function=1
train_stop_function=0
cascade_output_change_fraction=0.010000
quickprop_decay=-0.000100
quickprop_mu=1.750000
rprop_increase_factor=1.200000
rprop_decrease_factor=0.500000
rprop_delta_min=0.000000
rprop_delta_max=50.000000
rprop_delta_zero=0.100000
cascade_output_stagnation_epochs=12
cascade_candidate_change_fraction=0.010000
cascade_candidate_stagnation_epochs=12
cascade_max_out_epochs=150
cascade_max_cand_epochs=150
cascade_num_candidate_groups=2
bit_fail_limit=3.49999999999999977796e-01
cascade_candidate_limit=1.00000000000000000000e+03
cascade_weight_multiplier=4.00000000000000022204e-01
cascade_activation_functions_count=10
cascade_activation_functions=3 5 7 8 10 11 14 15 16 17 
cascade_activation_steepnesses_count=4
cascade_activation_steepnesses=2.50000000000000000000e-01 5.00000000000000000000e-01 7.50000000000000000000e-01 1.00000000000000000000e+00 
layer_sizes=19 19 2 
scale_included=0
neurons (num_inputs, activation_function, activation_steepness)=(0, 0, 0.00000000000000000000e+00) (0, 0, 0.00000000000000000000e+00) (0, 0, 0.00000000000000000000e+00) (0, 0, 0.00000000000000000000e+00) (0, 0, 0.00000000000000000000e+00) (0, 0, 0.00000000000000000000e+00) (0, 0, 0.00000000000000000000e+00) (0, 0, 0.00000000000000000000e+00) (0, 0, 0.00000000000000000000e+00) (0, 0, 0.00000000000000000000e+00) (0, 0, 0.00000000000000000000e+00) (0, 0, 0.00000000000000000000e+00) (0, 0, 0.00000000000000000000e+00) (0, 0, 0.00000000000000000000e+00) (0, 0, 0.00000000000000000000e+00) (0, 0, 0.00000000000000000000e+00) (0, 0, 0.00000000000000000000e+00) (0, 0, 0.00000000000000000000e+00) (0, 0, 0.00000000000000000000e+00) (19, 4, 5.00000000000000000000e-01) (19, 4, 5.00000000000000000000e-01) (19, 4, 5.00000000000000000000e-01) (19, 4, 5.00000000000000000000e-01) (19, 4, 5.00000000000000000000e-01) (19, 4, 5.00000000000000000000e-01) (19, 4, 5.00000000000000000000e-01) (19, 4, 5.00000000000000000000e-01) (19, 4, 5.00000000000000000000e-01) (19, 4, 5.00000000000000000000e-01) (19, 4, 5.00000000000000000000e-01) (19, 4, 5.00000000000000000000e-01) (19, 4, 5.00000000000000000000e-01) (19, 4, 5.00000000000000000000e-01) (19, 4, 5.00000000000000000000e-01) (19, 4, 5.00000000000000000000e-01) (19, 4, 5.00000000000000000000e-01) (19, 4, 5.00000000000000000000e-01) (0, 0, 0.00000000000000000000e+00) (19, 6, 5.00000000000000000000e-01) (0, 6, 0.00000000000000000000e+00) 
connections (connected_to_neuron, weight)=(0, 9.74090330104793511445e-01) (1, 1.97681102245142170659e+01) (2, 1.93543296379380009853e+01) (3, 2.81391135369035927383e-01) (4, 4.91590595980219313699e-01) (5, -1.23935957997670120889e+00) (6, -1.04690171223890038377e+00) (7, -1.00669862019306211032e+00) (8, 2.09816641337447984395e-01) (9, -2.55030894964151211290e-01) (10, -3.30593403677821839892e+00) (11, -2.83572434834026942951e+00) (12, -1.70332259515272066430e+00) (13, -1.07966438942390574596e+00) (14, 2.93683524860397904277e+00) (15, 8.41255703979221003408e+00) (16, 2.51243887053141712329e+00) (17, -6.20737313931288350877e-02) (18, 1.38020592936184155475e-01) (0, -2.71509311179596313224e-01) (1, -9.40955100357278872991e+00) (2, -1.75655821243961396405e+00) (3, -6.47278173766864250993e-01) (4, 1.30276371289208603432e-01) (5, 2.40895028183235576646e-01) (6, 7.28197010929392041234e-01) (7, 1.12520967158281215426e+00) (8, 6.90825704807348395242e-01) (9, 5.34901038130177086671e-01) (10, -4.02119650398116701417e-01) (11, -3.30976153263857142406e+00) (12, -1.30274530137754473991e+00) (13, -5.44238061397513184225e-01) (14, 4.36326148658134460590e-01) (15, 1.45185946411222732699e-01) (16, 2.75049587869025380371e+00) (17, 4.51307005039708712957e+01) (18, 5.04027220520081642441e-01) (0, -1.06647958304820744679e+00) (1, -3.08748401489477011239e+01) (2, -1.01029968919194015342e+01) (3, -3.92354578051587188359e-01) (4, 7.76351459485583178521e-02) (5, 1.85760877110059619000e-01) (6, 1.69872355207116765285e+00) (7, 1.90867404816247843158e+00) (8, 7.31106132457018498272e-01) (9, 1.89993306323271826663e+00) (10, -3.36116326475782878358e-01) (11, -2.83345402718396099928e+00) (12, -1.44413452225044580679e+00) (13, -3.62723755431271152605e-02) (14, 1.55903120328370858871e+00) (15, 2.04092467472851923915e-01) (16, 3.66851537284300333042e+00) (17, 5.79997733626615925573e+01) (18, 7.62386399082616073031e-01) (0, 7.63383734213478826192e-01) (1, 1.35904584113913706744e+01) (2, 1.31070298847985746704e+01) (3, 2.52170596226597831802e+00) (4, 6.24102423718621901472e-01) (5, -5.20757327169699468783e-01) (6, -9.36294637899784176760e-01) (7, -1.45011263906353837783e+00) (8, 3.24877643239249336293e-01) (9, -2.12746576297028727742e-01) (10, -7.20464099294326398848e+00) (11, 1.74131492901269169238e-01) (12, -1.42951296885824574723e+00) (13, -1.06430662082917582012e+00) (14, 3.03541095862547205542e+00) (15, 3.75142757380659874755e+00) (16, 1.82681218063531547458e+00) (17, -1.91941441668730572445e+00) (18, 3.21248491852253070800e-01) (0, -6.43057578371255278427e+00) (1, -3.62837358863288486077e+01) (2, 1.62467621851562882274e-01) (3, 1.80717730776835150408e+00) (4, 3.61287088141838963473e-01) (5, -8.17944054156795830046e-01) (6, -7.99312688264705473173e-01) (7, -4.23311519307054351380e-01) (8, -7.37388882538522333343e-02) (9, -3.31241273322485652031e+00) (10, -3.29111404052555833744e+00) (11, 6.75649497160988765643e+00) (12, 6.33710624913691011884e-01) (13, 4.51815916121018568141e-01) (14, 7.79706432774089019944e+00) (15, 1.43990808708929964865e+01) (16, 2.14512706051840007504e+00) (17, -1.22833831304795437767e+00) (18, -2.06495392458253740342e-01) (0, -3.36212178875462619487e-01) (1, -9.47579473927526549915e+00) (2, -1.89315767741425733384e+00) (3, -4.72746206205114871679e-01) (4, 5.40764797050846887649e-02) (5, 1.06229310046069738704e-01) (6, 6.42656752295451605406e-01) (7, 1.16096233587286334910e+00) (8, 5.97895834917135271525e-01) (9, 6.49584468934537473395e-01) (10, -5.09213330927510199331e-01) (11, -3.24137965688516871410e+00) (12, -1.51945171638699316752e+00) (13, -5.29019309298390916219e-01) (14, 1.01770327484706402110e+00) (15, 6.01740506652301207491e-02) (16, 2.77914869570113332031e+00) (17, 4.51975485659496882818e+01) (18, 6.29083805716171062805e-01) (0, 7.38847353013692975665e-01) (1, -3.36204429357580458770e+00) (2, -8.75983842393228573364e-01) (3, -6.44047823901058413831e-01) (4, 2.08651733041078507602e-01) (5, 2.92073167746146777901e-01) (6, 8.91069683009546920083e-01) (7, 1.00699481010049662899e+00) (8, 6.50920708900027622512e-01) (9, 9.38511074069110495799e-01) (10, -4.54661038647598325646e-01) (11, -8.08120305332592714365e+00) (12, -1.38798835744749782251e+00) (13, -6.46434613433387816883e-01) (14, 6.73551158022036022821e-01) (15, 1.39769444494576622340e-01) (16, 7.67824221842822041140e+00) (17, 3.05324080801426056553e+01) (18, 7.59758246473365761453e-01) (0, -3.93453243206221214834e-01) (1, -9.46546392291530835905e+00) (2, -1.88156646064398880291e+00) (3, -3.27965592723116428076e-01) (4, 1.02495109030753452778e-02) (5, 1.43379423607989719969e-01) (6, 7.60714662648396822142e-01) (7, 1.13901710244619258638e+00) (8, 6.38674139522287576121e-01) (9, 6.51984848400009697755e-01) (10, -2.58436207386018634846e-01) (11, -3.25725525716354624706e+00) (12, -1.55593223180784545612e+00) (13, -4.66941604912206931211e-01) (14, 4.65243163142569082780e-01) (15, 1.91243150150653129504e-01) (16, 2.78779025160647497827e+00) (17, 4.51249953783409694097e+01) (18, 5.09396115172138230776e-01) (0, -2.75441757645462246273e+01) (1, -3.27886027245905182781e+01) (2, -1.99773569285846974708e+01) (3, -3.14218504398890807749e+00) (4, 5.55254345892840284193e-01) (5, -3.35433926728274212081e-01) (6, 3.20433525250872819345e-01) (7, 3.45622965976273177624e-01) (8, 3.41255179670381714185e-01) (9, 3.54710187632159335003e-01) (10, -6.19355038718955655530e-02) (11, 6.80226865928830726205e+00) (12, 7.82191725572271567835e-01) (13, 1.30432239204695861190e+01) (14, 5.83702010524620895637e+00) (15, 1.04471477334485847166e+01) (16, 1.19373173140977573148e+00) (17, -1.80644867370850052690e-02) (18, -9.04124187359041431300e-01) (0, -3.05357015709358359246e-01) (1, -9.41984535157426883245e+00) (2, -1.72482710651038284588e+00) (3, -3.96966395657286197363e-01) (4, 3.87774575465470242031e-02) (5, 9.65481510655130659160e-02) (6, 6.78845365918832266416e-01) (7, 1.16364575656854518648e+00) (8, 7.09357067488405435007e-01) (9, 5.78757118751657917421e-01) (10, -3.06975894176583719020e-01) (11, -3.30714321235229746776e+00) (12, -1.51152712907804764875e+00) (13, -3.75137264430448813535e-01) (14, 4.74151561925153675059e-01) (15, 1.38118707454081779407e-01) (16, 2.68195397564149962122e+00) (17, 4.50753928921477893255e+01) (18, 5.40434414375057348146e-01) (0, -1.36034490244773014211e+01) (1, -1.76876487492482858954e+01) (2, 5.98463606058975639002e+00) (3, -1.11125173153695455674e+00) (4, 7.98130272673357343827e-01) (5, -4.68600428322066664411e-01) (6, -3.02117235774591486042e-01) (7, -3.19975937362245443918e-01) (8, 4.07955284202977441765e-01) (9, 2.23413441213704516697e-01) (10, -6.56023192397759391525e+00) (11, 2.12480849496513179986e+00) (12, -4.52760405108666441620e-01) (13, 2.18349752430696320005e-01) (14, 3.94185978829214134223e+00) (15, 1.28821820331831595752e+01) (16, 1.20953581588541059233e+01) (17, 4.04508063604476941766e-01) (18, 2.49815580084704058628e-02) (0, -3.16279981374452461296e+01) (1, -3.19515633221155370691e+00) (2, 4.83682074333423139834e-01) (3, 5.62301636943348670528e-01) (4, 2.14905781912364396424e-01) (5, -8.97160488566465241789e-01) (6, -1.32189888088943585664e+00) (7, -4.60129985705552801978e-01) (8, 2.41888466305443181059e-02) (9, -4.90500743014367579509e-01) (10, -8.12051690906861090014e+00) (11, 4.73056355043393672588e+00) (12, -4.10971910799058592900e-01) (13, 6.15095416316161180958e+00) (14, 4.04604263387830265231e+00) (15, 4.77006191501172693847e+00) (16, -5.22179634045223939331e-01) (17, -1.57839881785719082785e+00) (18, 8.14515915592311373628e-02) (0, 5.58344223863928457163e-01) (1, -8.01622339621857360470e-01) (2, -2.96587251036058430209e-01) (3, -2.70069275672645048303e-01) (4, 2.33719359038522034311e-01) (5, -1.46577650604893874875e-02) (6, 7.06073187823291620324e-02) (7, 3.08110687592028176240e+00) (8, 1.17211682562887542502e+00) (9, 1.49891494845485223619e-01) (10, -3.69629040481167125964e-01) (11, -4.45818213635366600300e+00) (12, -1.29584661035126424977e+00) (13, -5.28839441918002028942e-01) (14, -2.16550994832644894128e-01) (15, -2.60699496040652178852e-01) (16, 2.10221489750480106107e-01) (17, 1.05420256059056836051e+01) (18, 2.25162848653109176622e-01) (0, -4.41397993843036684503e-01) (1, -9.51633689701303708830e+00) (2, -1.91338337490995469281e+00) (3, -4.45382443945631534277e-01) (4, 1.12641949702218108209e-01) (5, 1.47410515536471775633e-01) (6, 6.89575759149747335996e-01) (7, 1.02415204900109158004e+00) (8, 5.24086989008161641124e-01) (9, 6.46883681734455651124e-01) (10, -2.78982212552429387209e-01) (11, -3.17925494262983576732e+00) (12, -1.51212520953430451520e+00) (13, -4.09261263444635481346e-01) (14, 3.76790980432398447952e-01) (15, 1.61950790202494837589e-01) (16, 2.78834904515124426538e+00) (17, 4.50546125150578120611e+01) (18, 5.59403175266281249556e-01) (0, -4.25674377958256355825e-01) (1, -9.47254714518532026091e+00) (2, -1.85965457132933731366e+00) (3, -4.16521677505001575170e-01) (4, 7.62722212785034020532e-02) (5, 2.27099682976409367186e-01) (6, 6.55461703814225637998e-01) (7, 1.14000245939514499582e+00) (8, 5.75334749661657429698e-01) (9, 6.30700029750717594546e-01) (10, -2.03892562693187950895e-01) (11, -3.15633301866501314592e+00) (12, -1.46059478875412263044e+00) (13, -4.26190287559170100096e-01) (14, 5.81203386407794453383e-01) (15, 1.57958754217501856632e-01) (16, 2.80201054894305379150e+00) (17, 4.52235850370781520269e+01) (18, 4.73430735844602601503e-01) (0, -4.06355872878651069868e+01) (1, 6.84017890568855091438e-01) (2, 5.65016756920082130478e+00) (3, 5.69765448036744892590e-01) (4, 4.67155463423244043941e-01) (5, -1.01434164108049551523e+00) (6, -1.03310101838123502560e+00) (7, -8.46741969807999761422e-01) (8, 3.69587935064240646899e-01) (9, 5.34724982387102323877e-02) (10, -7.65309545401274426979e+00) (11, 1.37720771594290325446e+00) (12, -4.59567809815131067541e-01) (13, 1.34687514251359186090e+00) (14, 4.12158932756798179753e+00) (15, 1.14062167665108908921e+01) (16, 2.48822292260873156877e+00) (17, -4.90136037378112385254e-02) (18, 2.72197299616201704442e-01) (0, 1.03261169309496714241e+00) (1, 2.78319587732436311001e+01) (2, 1.31355423398137585167e+01) (3, 2.56422831818009422378e+00) (4, 7.16789021203928511383e-01) (5, -5.86192451630949462604e-01) (6, -1.57356059739973175304e+00) (7, -1.68352052267024099308e+00) (8, 3.30308708175584886391e-01) (9, -2.33396866956424517414e-02) (10, -5.75460394347882520094e+00) (11, 1.75314985096032993628e-01) (12, -1.97200111979957437569e+00) (13, -1.19549484060652377870e+00) (14, 2.87747778701407019852e+00) (15, 3.80116368611172017467e+00) (16, 1.77122688303250952480e+00) (17, -2.23554571491058151622e+00) (18, 3.16925314555643822256e-01) (0, 1.01746618866141891324e+00) (1, 2.10770032371896078871e+01) (2, 1.38691853456666258637e+01) (3, 2.47935208660955286319e+00) (4, 6.82576697548791022641e-01) (5, -5.66920082163944849540e-01) (6, -9.81214958488990318664e-01) (7, -1.25400652316824290367e+00) (8, 4.43870895755042071951e-01) (9, -1.64778317292134990346e-01) (10, -6.69969744221207186285e+00) (11, 2.74390544603896391340e-01) (12, -1.81937737801317922504e+00) (13, -1.09882381590492617107e+00) (14, 2.95617389673363017977e+00) (15, 3.83330041152238809588e+00) (16, 1.84223075678265257871e+00) (17, -3.53867283423751899374e-01) (18, 3.45097027082828355926e-01) (19, 1.18960293473410372300e+00) (20, -2.77362458840963288509e+00) (21, -1.04069236129227302712e+01) (22, 1.19167834611344103379e+00) (23, 6.84213557168609320946e-01) (24, -2.81527402757841382908e+00) (25, -1.32354982265853315937e+01) (26, -2.79443843199311503511e+00) (27, 3.78722442576093554223e+00) (28, -2.80749635669512409564e+00) (29, 1.57216464868657812559e+00) (30, 1.34868917938762267195e-01) (31, -5.88240859216035971713e+00) (32, -2.82339407785235652071e+00) (33, -2.77114038440508503314e+00) (34, 1.86217629418819563547e+00) (35, 1.17848485799240854099e+00) (36, 1.19143509955811266465e+00) (37, 2.20706786719393077689e+00) 
