FANN_FLO_2.1
num_layers=3
learning_rate=0.700000
connection_rate=1.000000
network_type=0
learning_momentum=0.000000
training_algorithm=2
train_error_function=1
train_stop_function=0
cascade_output_change_fraction=0.010000
quickprop_decay=-0.000100
quickprop_mu=1.750000
rprop_increase_factor=1.200000
rprop_decrease_factor=0.500000
rprop_delta_min=0.000000
rprop_delta_max=50.000000
rprop_delta_zero=0.100000
cascade_output_stagnation_epochs=12
cascade_candidate_change_fraction=0.010000
cascade_candidate_stagnation_epochs=12
cascade_max_out_epochs=150
cascade_max_cand_epochs=150
cascade_num_candidate_groups=2
bit_fail_limit=3.49999999999999977796e-01
cascade_candidate_limit=1.00000000000000000000e+03
cascade_weight_multiplier=4.00000000000000022204e-01
cascade_activation_functions_count=10
cascade_activation_functions=3 5 7 8 10 11 14 15 16 17 
cascade_activation_steepnesses_count=4
cascade_activation_steepnesses=2.50000000000000000000e-01 5.00000000000000000000e-01 7.50000000000000000000e-01 1.00000000000000000000e+00 
layer_sizes=42 12 2 
scale_included=0
neurons (num_inputs, activation_function, activation_steepness)=(0, 0, 0.00000000000000000000e+00) (0, 0, 0.00000000000000000000e+00) (0, 0, 0.00000000000000000000e+00) (0, 0, 0.00000000000000000000e+00) (0, 0, 0.00000000000000000000e+00) (0, 0, 0.00000000000000000000e+00) (0, 0, 0.00000000000000000000e+00) (0, 0, 0.00000000000000000000e+00) (0, 0, 0.00000000000000000000e+00) (0, 0, 0.00000000000000000000e+00) (0, 0, 0.00000000000000000000e+00) (0, 0, 0.00000000000000000000e+00) (0, 0, 0.00000000000000000000e+00) (0, 0, 0.00000000000000000000e+00) (0, 0, 0.00000000000000000000e+00) (0, 0, 0.00000000000000000000e+00) (0, 0, 0.00000000000000000000e+00) (0, 0, 0.00000000000000000000e+00) (0, 0, 0.00000000000000000000e+00) (0, 0, 0.00000000000000000000e+00) (0, 0, 0.00000000000000000000e+00) (0, 0, 0.00000000000000000000e+00) (0, 0, 0.00000000000000000000e+00) (0, 0, 0.00000000000000000000e+00) (0, 0, 0.00000000000000000000e+00) (0, 0, 0.00000000000000000000e+00) (0, 0, 0.00000000000000000000e+00) (0, 0, 0.00000000000000000000e+00) (0, 0, 0.00000000000000000000e+00) (0, 0, 0.00000000000000000000e+00) (0, 0, 0.00000000000000000000e+00) (0, 0, 0.00000000000000000000e+00) (0, 0, 0.00000000000000000000e+00) (0, 0, 0.00000000000000000000e+00) (0, 0, 0.00000000000000000000e+00) (0, 0, 0.00000000000000000000e+00) (0, 0, 0.00000000000000000000e+00) (0, 0, 0.00000000000000000000e+00) (0, 0, 0.00000000000000000000e+00) (0, 0, 0.00000000000000000000e+00) (0, 0, 0.00000000000000000000e+00) (0, 0, 0.00000000000000000000e+00) (42, 4, 5.00000000000000000000e-01) (42, 4, 5.00000000000000000000e-01) (42, 4, 5.00000000000000000000e-01) (42, 4, 5.00000000000000000000e-01) (42, 4, 5.00000000000000000000e-01) (42, 4, 5.00000000000000000000e-01) (42, 4, 5.00000000000000000000e-01) (42, 4, 5.00000000000000000000e-01) (42, 4, 5.00000000000000000000e-01) (42, 4, 5.00000000000000000000e-01) (42, 4, 5.00000000000000000000e-01) (0, 0, 0.00000000000000000000e+00) (12, 6, 5.00000000000000000000e-01) (0, 6, 0.00000000000000000000e+00) 
connections (connected_to_neuron, weight)=(0, 3.14081185101254892200e-03) (1, 2.63910581785490494511e+00) (2, -1.35012267430288734893e+00) (3, 4.66162321747653873860e-01) (4, -1.30649157787252367946e+00) (5, -3.08825573301310551955e+00) (6, -1.21915324578584005621e+00) (7, -4.02045405035321934406e-01) (8, -2.62429087993875265195e-01) (9, -2.72808393158515793964e-01) (10, -6.00109033035090139174e-02) (11, 9.30207862947176056245e-02) (12, 1.65231255687239814156e-01) (13, 6.67230290203240511415e-02) (14, 8.95704389074020723704e-02) (15, 6.36139703040225379382e-01) (16, 3.84787059032291822724e-01) (17, 7.08243927230038150533e-01) (18, 1.01638987244381184816e+00) (19, 6.39567688678171153427e-01) (20, 4.25086661436189894303e-01) (21, 3.97534779930314385865e-01) (22, 2.83757861237394160003e-01) (23, 6.03508086387834263853e-01) (24, 2.01613233998394453250e-01) (25, -1.34351867844917038930e+00) (26, -1.54574077326461933879e+00) (27, -1.83758668189384066771e+00) (28, -8.36955137831644879753e-01) (29, -6.59967084353236477234e-01) (30, -4.92641167897336640369e-01) (31, -5.79863467084552941522e-01) (32, -2.20705892279692861280e+00) (33, -2.96054229684910374942e+00) (34, -1.42305590582009117151e-01) (35, -4.13672289920310520817e-01) (36, -4.87984381781293458796e-03) (37, 4.09320437964572070300e-01) (38, 7.12066822217102601833e-01) (39, 1.34509230093673726181e+00) (40, 1.88189337583449622926e+00) (41, 5.63552047613031015239e-01) (0, -2.15983989600857073654e-01) (1, 2.54401660338045232379e+00) (2, -1.40409597742816250054e-01) (3, 1.01254693699576598931e+01) (4, -7.22874878620429650589e-01) (5, -1.97797648264453407307e+00) (6, -8.84350554166833280334e-01) (7, -2.41643254687851943840e-01) (8, -2.12654263975830620792e-01) (9, -2.38739278374740654387e-01) (10, -1.49255942978699113893e-02) (11, 1.42668631258438233234e-01) (12, 2.83560882515139500715e-01) (13, 2.55340296768316987741e-01) (14, 1.98179735468269169196e-01) (15, 3.67983795132387492277e-01) (16, 8.11502120664159609653e-01) (17, 1.25821127450625103172e+00) (18, 1.21112436392130207174e+00) (19, 8.19156655181902615404e-01) (20, 2.01070049724189098272e-01) (21, 3.61992459810929756436e-01) (22, 6.00675849093918801103e-01) (23, 5.35724926991378747054e-01) (24, -4.47512052810589255891e-01) (25, -1.31139679987965163122e+00) (26, -2.32915030664991373754e+00) (27, -2.98311917986707308970e+00) (28, -1.06704568966259993879e+00) (29, -1.14286964379501632116e+00) (30, -3.22591206480820957836e-01) (31, -7.74104803721867740229e-01) (32, -4.36422595672701751912e-01) (33, -1.52616171373879705442e+00) (34, 4.57435937658257837923e-02) (35, -4.20018567401366088587e-02) (36, -1.17118462173603721244e-01) (37, 2.09646765728721629074e+00) (38, 5.55032149763266202669e-01) (39, 9.15086547748688583503e-01) (40, 3.89027879965360412484e+00) (41, 6.11019677879788725150e-01) (0, 2.87486905682410809337e-01) (1, 2.71467506244196910004e+00) (2, -1.41290672788993076914e+00) (3, 8.43168725454998435609e-01) (4, -1.15741965998182849695e+00) (5, -3.01216312572563049699e+00) (6, -9.08208116326507108873e-01) (7, -3.16905853283409866261e-01) (8, -4.28501193210456210458e-01) (9, -1.51830949158622968698e-01) (10, -1.08266377284481525589e-03) (11, 3.03515814165339792297e-01) (12, 2.97533283899801770378e-01) (13, 3.66599113009395682905e-03) (14, -2.04178130428421568399e-02) (15, 2.99297612963985104617e-01) (16, 4.14426522350139991957e-01) (17, 8.74713570299224696392e-01) (18, 7.55814202672978052711e-01) (19, 5.05642073515855217103e-01) (20, 5.43365336217512262529e-01) (21, 3.67454702273886490982e-01) (22, 4.68389160948777139026e-01) (23, 5.95185556893071954221e-01) (24, 1.81700588777637922488e-01) (25, -1.09522194131873495948e+00) (26, -1.52785478056006152059e+00) (27, -1.97686105856349447762e+00) (28, -6.61458142135852300569e-01) (29, -6.39098458925621226712e-01) (30, -3.30655838995798700974e-01) (31, -5.68971805619200798887e-01) (32, -3.11169936789273604560e+00) (33, -1.58283012189024963057e+00) (34, -8.55548381239631117179e-02) (35, -5.01624261714678221225e-01) (36, -1.11499662851153411025e-01) (37, 4.24314858914023429470e-01) (38, 2.66498927701124987966e-01) (39, 1.33628867640954429596e+00) (40, 1.83933837004472366949e+00) (41, 3.92537582696074582866e-01) (0, 1.49986225471145733223e+01) (1, -4.09147341344346882064e-01) (2, 1.47389428824857589007e+01) (3, 6.00573657582424758061e+00) (4, 1.43817020461589777369e+01) (5, 3.03626332468873627590e+01) (6, 4.02819962386117893516e+01) (7, 2.09307838652234714516e+01) (8, 2.60085819641982958217e+01) (9, 4.39623304283014491034e+01) (10, 5.13559351231086367306e+01) (11, 7.46219017186315447532e+00) (12, 3.43894737641743963863e+00) (13, 3.49806514065198248531e+00) (14, 6.51611161754028689330e+00) (15, 3.51078202538395478527e+00) (16, 1.60834074138097538054e+00) (17, 3.82753526186890402627e+00) (18, 5.65671668927000670379e+00) (19, 5.40553431023083685858e+00) (20, 2.44769123174590781389e+01) (21, 4.42519060015457554869e+00) (22, 2.01152437278402151932e+00) (23, -5.84998925641323808122e+00) (24, 2.46078878791277126936e+01) (25, 1.43090870396137344045e+01) (26, 4.42359541071708122217e+01) (27, 2.01372788168242777829e+02) (28, 1.11453305300408587186e+01) (29, 1.29396341091702460346e+01) (30, 1.83883048175527763490e+00) (31, 2.46038310979572338866e+00) (32, 4.05007477692527562141e+00) (33, 1.19014076876104528679e+01) (34, 1.56517414165482215971e+00) (35, 8.63619338918829027030e-01) (36, 1.25493907517142089247e+00) (37, 1.29681442639099087089e+00) (38, 8.44913468813345502895e+00) (39, 4.76939599243788592275e+00) (40, 2.66297604006784016661e+00) (41, 4.44507212253578298800e+00) (0, 5.62615915422803175572e-02) (1, 1.54060789894892247176e+00) (2, 6.90432415742574662199e-02) (3, 1.15110533458624786363e+00) (4, -6.96096299862189904495e-01) (5, -1.23605710657221434801e+00) (6, -5.23910771143072273581e-01) (7, -2.47373823956002714120e-01) (8, -4.25125737768222766721e-01) (9, 5.40197835990812100238e-02) (10, 1.99641763304683750313e-02) (11, 3.32075257836318471494e-01) (12, 3.09576515682468800250e-01) (13, 2.90081597086982889699e-01) (14, 2.60756611911551972049e-01) (15, 1.19907258922600123974e+00) (16, 4.09227190520752015512e-01) (17, 9.76804781378051267815e-01) (18, 1.72362144500300784600e+00) (19, 8.51882062327028788395e-01) (20, 3.57211066225647244643e-01) (21, 4.07081066096777577368e-01) (22, 6.35200049856445403407e-01) (23, 8.39365087135817367070e-01) (24, -3.56869139525200607110e-01) (25, -1.26409261916560189398e+00) (26, -2.23145842797349924780e+00) (27, -7.08634757856497277118e+00) (28, -1.29336624493715768303e+00) (29, -1.10762691108789113059e+00) (30, -2.48012012304504092519e-01) (31, -3.50280002912373267243e-01) (32, -5.78348984051190312394e-02) (33, -5.66271898064453438337e-01) (34, 2.39525575194163264925e+00) (35, 4.43168838327045899739e-01) (36, 2.62304970626176192638e-01) (37, 7.90176075424586521478e+00) (38, 6.11221537806384440650e-01) (39, 1.19854764872747643345e+00) (40, 3.78166062963063920321e+00) (41, 4.49233751789535395993e-01) (0, 3.27119097459227847757e-01) (1, 2.88400237226455580242e+00) (2, -1.50804194491196263961e+00) (3, 4.30950873803522815919e-01) (4, -1.26436627667215151227e+00) (5, -3.00523080289333499593e+00) (6, -1.33581053301918317722e+00) (7, -3.63729672795895797588e-01) (8, -2.14913109196277984925e-01) (9, -2.52782018327768254196e-01) (10, -1.41288859811643848635e-02) (11, 7.45973996206815148646e-02) (12, 2.69185163114370573645e-01) (13, 1.08570705755013680038e-01) (14, -7.02234603176803418023e-02) (15, 6.29686854526163020118e-01) (16, 5.09567592684606274211e-01) (17, 7.57796947704293732961e-01) (18, 8.65645409173508295630e-01) (19, 6.42153515999164703487e-01) (20, 4.84937120147437783491e-01) (21, 4.84566400891749904378e-01) (22, 3.45706154182701175248e-01) (23, 9.34104109894639433875e-01) (24, 4.49129405341408327601e-01) (25, -1.24541831448281614669e+00) (26, -1.60395976880516655250e+00) (27, -1.76863787061523569655e+00) (28, -7.39833109847308989515e-01) (29, -8.83365552812478527223e-01) (30, -4.65743971207746687568e-01) (31, -7.80204913941770827890e-01) (32, -3.07081153017209107503e+00) (33, -1.47192011125380872727e+00) (34, -1.25654532727311446516e-01) (35, -3.79632503072044547032e-01) (36, 9.31937540463828595350e-03) (37, 2.95388263929053984658e-01) (38, 6.02079866447458367240e-01) (39, 1.40496812898733103303e+00) (40, 1.11556306662686721687e+00) (41, 4.93820799929145404228e-01) (0, 1.54978884762566533340e+01) (1, -1.20441995261892309532e-01) (2, 1.52718013710250595238e+01) (3, 6.34653660495781046791e+00) (4, 6.45293960334276128776e+00) (5, 3.07960562905054118232e+01) (6, 4.08154418254515434228e+01) (7, 2.11561706979721293465e+01) (8, 2.60896866422080471182e+01) (9, 4.41262763610819632731e+01) (10, 5.14948606278872631492e+01) (11, 3.65496985675463648136e+00) (12, 1.98994092063378968938e+00) (13, 1.95254854278039613469e+00) (14, 1.96092254092837503521e+00) (15, 2.01895237496761748019e+00) (16, 1.85392888464503569068e+00) (17, 4.88802929662517460230e+00) (18, 9.63315565162407061450e+00) (19, 9.90869759361099156081e+00) (20, 5.71481884980678387365e+01) (21, 4.66217336008208960152e+00) (22, 2.19862353611243621643e+00) (23, -2.02153905436067882206e+00) (24, 1.06424101982073899819e+01) (25, 1.45140412958252600362e+01) (26, 4.45586160703701992247e+01) (27, 2.01619463053192731650e+02) (28, 4.79044757555419753459e+00) (29, 5.53776163063110082874e+00) (30, 1.98615944796040255760e+00) (31, 1.32912005638766883564e+00) (32, 2.03336672678206475950e+00) (33, 1.22552973065186261437e+01) (34, 1.00660013176815654745e+00) (35, 1.09221696957340719258e+00) (36, 1.51595391378231303392e+00) (37, 1.77046411205143661149e+00) (38, 8.99083545866996125540e+00) (39, 5.19923186089528677201e+00) (40, 5.41107588093096225634e+00) (41, 5.10640765175334898629e+00) (0, -1.28010789092623333829e+00) (1, -9.84073654313990786591e+00) (2, 4.78270364876274900467e+00) (3, 9.02456625742391516098e+00) (4, 9.84531953157697259371e+00) (5, 2.52519364419333989247e+01) (6, 1.58992372104898773699e+01) (7, 7.37595046703734791294e+00) (8, 1.41518996315295542132e+00) (9, 1.71194989706168798627e+00) (10, 1.47749762171637799568e+00) (11, 7.02308726200044697308e-01) (12, 5.37529358996399531101e-01) (13, 2.58071402250586945382e-01) (14, -5.87161592429103373902e-01) (15, 1.10395432000665608130e-01) (16, -4.28908269128048746932e-01) (17, -9.49384082146922242407e-02) (18, 1.51018864737679336940e+00) (19, -1.57592739770586770520e-01) (20, 1.10194565306353364775e+00) (21, 1.75224252210854691825e-01) (22, 2.93305219760370494697e-01) (23, -1.19265357579272857080e+00) (24, -2.12815374887043473606e+00) (25, 1.79201353693235976294e-01) (26, 2.29751693399220802139e-01) (27, 1.11975963321999757993e-01) (28, -2.62999469081108827595e-01) (29, -3.35052138151105571851e-01) (30, -9.24802909037034881479e-01) (31, -5.86622921720461154571e-01) (32, -7.55081981538526653130e-03) (33, 6.07364738667266368388e-01) (34, -9.80841553112221653521e-01) (35, -3.74156070248424899027e-01) (36, -7.51610545925635809006e-01) (37, -2.56473371287474760649e+00) (38, -3.04122121949720503054e+00) (39, -7.01589295357993592006e+00) (40, -1.05602485276156542682e+02) (41, -2.68240714521267209491e+00) (0, 5.91432700348854312189e-01) (1, -1.75886699423448734925e-02) (2, -9.26173226003480465351e+00) (3, -5.97830969983805626811e+00) (4, -1.14913090599645570933e+01) (5, -2.62286728935889854597e+01) (6, -2.30236510637311653227e+00) (7, -1.87252890423962692346e+00) (8, -5.51367618714386553691e-01) (9, -3.92291765252786694962e-01) (10, -1.47125810767856551875e-01) (11, -7.46746793170176281773e-02) (12, 2.67408651477817893571e-02) (13, 1.77365133225324184130e-01) (14, -1.77671003788160780656e-01) (15, 2.64745041238514632054e-02) (16, 1.99900751925794506469e+00) (17, 4.94212016556651478894e-01) (18, 2.49627583088122939614e+00) (19, 4.56296736782458522974e-01) (20, 3.72239308900722820628e-01) (21, 7.01789811920508155296e-01) (22, 1.32390935436209666864e-01) (23, 1.64762217772497776558e-01) (24, -1.45964496859942671758e-01) (25, 2.87415679168215287831e+00) (26, -1.46173556525118053528e+00) (27, -5.35579847178608958735e-01) (28, -3.88031643993699049133e-01) (29, -2.56398997030211239778e-01) (30, -1.69930261029323542710e-01) (31, -3.17471586997050803092e-01) (32, -1.59660106990027611529e-01) (33, -2.38643134258837597006e-01) (34, -1.71734794217566849595e-01) (35, -2.35215279173968339066e-01) (36, -2.12286140709892351408e-01) (37, -2.61142356740263099912e-02) (38, 4.18623868754717687324e-01) (39, 5.63542263173364532669e-01) (40, 5.61103436092748211195e+01) (41, 6.42758834789191935144e-01) (0, 1.56505110439175171289e-01) (1, 3.04637908656155476095e-01) (2, -2.58707589711315266712e+00) (3, -6.12788922638730948478e+00) (4, -8.42069832828191522367e+00) (5, -3.43851036489142813934e+00) (6, -1.46886245554534400348e+00) (7, -7.00349954199644963992e-01) (8, -8.92189971893778244194e-01) (9, -7.93422252428359842114e-01) (10, -1.48153631760033710485e-01) (11, 5.46775112698099224895e-02) (12, 6.00510208016124258368e-02) (13, -8.42387334062658643674e-02) (14, -8.23464537269653074070e-02) (15, 2.96654688565183566329e-01) (16, 7.77484910555843011792e-01) (17, 7.58011064720562566244e-01) (18, 1.21753844490923968102e+00) (19, 5.02741230884787726474e-01) (20, -1.94163049816260702141e-01) (21, 4.26164883953333628597e-01) (22, 5.18197433328713485956e-01) (23, -4.17433584488155345893e-02) (24, 3.19908262962146291986e-02) (25, -7.18500681259165663306e-01) (26, -2.25184032678210410694e+00) (27, -1.51639540725342603089e+00) (28, -5.35551717282703121370e-01) (29, -3.66731073217105629780e-01) (30, -2.70332595627538085914e-01) (31, -3.77912415964047987416e+00) (32, -6.66768915062206923849e-01) (33, -7.65098074101390634993e-01) (34, -2.34071468098555030002e-01) (35, -2.86610875228677730586e-01) (36, -1.94382933494630760762e-01) (37, -1.09954088160446415007e-02) (38, 1.86265329490826248016e-01) (39, 1.56394092094145542582e+00) (40, 1.07131840923596026727e+01) (41, 8.30090827670831310492e-01) (0, 6.50286904563181522576e+00) (1, -4.53164730761041301133e-01) (2, 1.48352156416252967119e+01) (3, 6.06046736369751570805e+00) (4, 1.44666822136074983973e+01) (5, 3.03058177940136559414e+01) (6, 4.04265615452156978904e+01) (7, 2.09245003733735721596e+01) (8, 2.58425621370708391566e+01) (9, 4.38848898535362437201e+01) (10, 5.12076591889488810239e+01) (11, 7.54515459218175799094e+00) (12, 3.55316038112572973873e+00) (13, 6.60626400150405945766e+00) (14, 6.48464021236197840636e+00) (15, 3.43427223675156190197e+00) (16, 1.63929753123216404020e+00) (17, 3.84781294828600683999e+00) (18, 5.57782106454299597686e+00) (19, 5.36984108571134566290e+00) (20, 5.62156548472036163844e+01) (21, 4.35564045101183161535e+00) (22, 1.96788508543145956864e+00) (23, -5.77320847526337388445e+00) (24, 2.46018557847683148054e+01) (25, 1.41858213336110203784e+01) (26, 4.42348029105122009241e+01) (27, 2.01273124970248545651e+02) (28, 1.11433941688472017972e+01) (29, 1.29625072723935126362e+01) (30, 1.83969033836080742006e+00) (31, 1.12411562796640485118e+00) (32, 4.02893053955597579829e+00) (33, 1.19985403182566816582e+01) (34, 1.45288608757600479215e+00) (35, 9.27455272723341050956e-01) (36, 1.29525625294394286513e+00) (37, 1.12909166475997890799e+00) (38, 8.50668710773632597011e+00) (39, 4.84369336096434466299e+00) (40, 5.30826293232787449483e+00) (41, 4.55434862213500135653e+00) (42, -5.01810186328968654834e+00) (43, -3.59596718559502948054e+00) (44, -2.10734999087845009669e+00) (45, 1.63514695206104954117e+00) (46, -1.39267752504833932647e+01) (47, -5.09299425739710187599e+00) (48, 1.70061170199333866471e+00) (49, 2.93674018265413261375e+00) (50, -1.68112512486248277810e+01) (51, -3.77845982773064070770e+00) (52, 1.66455226281105717057e+00) (53, 1.70380063244520862931e+00) 
