FANN_FLO_2.1
num_layers=3
learning_rate=0.700000
connection_rate=1.000000
network_type=0
learning_momentum=0.000000
training_algorithm=2
train_error_function=1
train_stop_function=0
cascade_output_change_fraction=0.010000
quickprop_decay=-0.000100
quickprop_mu=1.750000
rprop_increase_factor=1.200000
rprop_decrease_factor=0.500000
rprop_delta_min=0.000000
rprop_delta_max=50.000000
rprop_delta_zero=0.100000
cascade_output_stagnation_epochs=12
cascade_candidate_change_fraction=0.010000
cascade_candidate_stagnation_epochs=12
cascade_max_out_epochs=150
cascade_max_cand_epochs=150
cascade_num_candidate_groups=2
bit_fail_limit=3.49999999999999977796e-01
cascade_candidate_limit=1.00000000000000000000e+03
cascade_weight_multiplier=4.00000000000000022204e-01
cascade_activation_functions_count=10
cascade_activation_functions=3 5 7 8 10 11 14 15 16 17 
cascade_activation_steepnesses_count=4
cascade_activation_steepnesses=2.50000000000000000000e-01 5.00000000000000000000e-01 7.50000000000000000000e-01 1.00000000000000000000e+00 
layer_sizes=33 16 2 
scale_included=0
neurons (num_inputs, activation_function, activation_steepness)=(0, 0, 0.00000000000000000000e+00) (0, 0, 0.00000000000000000000e+00) (0, 0, 0.00000000000000000000e+00) (0, 0, 0.00000000000000000000e+00) (0, 0, 0.00000000000000000000e+00) (0, 0, 0.00000000000000000000e+00) (0, 0, 0.00000000000000000000e+00) (0, 0, 0.00000000000000000000e+00) (0, 0, 0.00000000000000000000e+00) (0, 0, 0.00000000000000000000e+00) (0, 0, 0.00000000000000000000e+00) (0, 0, 0.00000000000000000000e+00) (0, 0, 0.00000000000000000000e+00) (0, 0, 0.00000000000000000000e+00) (0, 0, 0.00000000000000000000e+00) (0, 0, 0.00000000000000000000e+00) (0, 0, 0.00000000000000000000e+00) (0, 0, 0.00000000000000000000e+00) (0, 0, 0.00000000000000000000e+00) (0, 0, 0.00000000000000000000e+00) (0, 0, 0.00000000000000000000e+00) (0, 0, 0.00000000000000000000e+00) (0, 0, 0.00000000000000000000e+00) (0, 0, 0.00000000000000000000e+00) (0, 0, 0.00000000000000000000e+00) (0, 0, 0.00000000000000000000e+00) (0, 0, 0.00000000000000000000e+00) (0, 0, 0.00000000000000000000e+00) (0, 0, 0.00000000000000000000e+00) (0, 0, 0.00000000000000000000e+00) (0, 0, 0.00000000000000000000e+00) (0, 0, 0.00000000000000000000e+00) (0, 0, 0.00000000000000000000e+00) (33, 4, 5.00000000000000000000e-01) (33, 4, 5.00000000000000000000e-01) (33, 4, 5.00000000000000000000e-01) (33, 4, 5.00000000000000000000e-01) (33, 4, 5.00000000000000000000e-01) (33, 4, 5.00000000000000000000e-01) (33, 4, 5.00000000000000000000e-01) (33, 4, 5.00000000000000000000e-01) (33, 4, 5.00000000000000000000e-01) (33, 4, 5.00000000000000000000e-01) (33, 4, 5.00000000000000000000e-01) (33, 4, 5.00000000000000000000e-01) (33, 4, 5.00000000000000000000e-01) (33, 4, 5.00000000000000000000e-01) (33, 4, 5.00000000000000000000e-01) (0, 0, 0.00000000000000000000e+00) (16, 6, 5.00000000000000000000e-01) (0, 6, 0.00000000000000000000e+00) 
connections (connected_to_neuron, weight)=(0, 2.47783909574791216812e+00) (1, 1.06315425608515323752e+00) (2, 6.09131563126630193317e-01) (3, 1.60264118902849883597e+00) (4, 1.28136090374738631503e+00) (5, 1.22667599352174239158e+00) (6, 6.08178222093683551464e+00) (7, 6.21624457322422152572e+00) (8, 6.08338287386995624217e+00) (9, 2.64838666686208412671e+00) (10, 1.11397614640068298719e+00) (11, 1.25018743708038626572e+00) (12, 2.84438198930978103363e+00) (13, 6.31228939282669099242e+00) (14, 2.71327614858811294596e+01) (15, 2.70685264989798461954e+01) (16, 1.60186936096255507778e+01) (17, 5.46312284484608046142e+00) (18, 2.46501267912938493154e+00) (19, 5.74137118488197550903e+00) (20, 3.11972270605617190142e+01) (21, 3.72551768255970785049e+02) (22, 1.40313871970503818432e+01) (23, 1.04679407710860195024e+00) (24, 3.30184502282300185172e+00) (25, 3.40359587585434963941e+00) (26, 4.86502697023491803563e-01) (27, 1.75140912482324928590e+00) (28, 7.31706145997059520525e-01) (29, -1.62497068342893014048e-01) (30, 1.14637264817795903049e+00) (31, -1.36874782286610354731e+01) (32, 8.15393228629780075778e+00) (0, 3.02036980686008105224e+00) (1, -3.40117821060770986197e-01) (2, -2.85928393088759236207e+00) (3, -1.40061396485200506667e+00) (4, -9.07598620193796001843e-01) (5, -2.92701362221393424079e-01) (6, -1.62349207980941323548e-01) (7, -1.84636867719638830820e-01) (8, 3.74830705880405679054e-02) (9, -9.48506065094309319674e-02) (10, 8.78067092716593340651e-03) (11, 8.14027896684276081052e-02) (12, 4.15508774558894566908e-01) (13, 5.73977115000991577887e-01) (14, 4.50575772852649991673e-01) (15, 1.55847010721019640922e-01) (16, 5.32129289261910942699e-01) (17, 1.30406215219479620915e-01) (18, -3.30304920261242362933e-02) (19, -3.90039580824720955032e-01) (20, -3.47018366191826510558e+00) (21, -3.91403947306889232749e+00) (22, -3.25973420241681688392e-01) (23, -1.54996187376481991960e-01) (24, -2.44086229531639303802e-01) (25, -2.05531162045718196474e-01) (26, 2.94487683376861042461e-01) (27, -1.18621827746142841087e-01) (28, -1.05180534152929119895e-01) (29, 2.76309194807957236861e+00) (30, 6.15210339921771987015e-01) (31, 1.89457333662649460848e+01) (32, 9.54930835152730361770e-01) (0, 2.00580544281331762946e+00) (1, 1.09757499221920551413e+00) (2, 6.55579019009656538408e-01) (3, 1.59107472144531936209e+00) (4, 1.22852310723812063742e+00) (5, 1.31327462079101042747e+00) (6, 2.53497784393401648373e+00) (7, 6.11544087760511523300e+00) (8, 6.00004489634138415965e+00) (9, 2.48672761612923309826e+00) (10, 1.22447356891702918702e+00) (11, 1.21355144216919241806e+00) (12, 2.92078468329667373382e+00) (13, 6.45964530694259675414e+00) (14, 2.70191480852728282969e+01) (15, 2.70044953823154365580e+01) (16, 1.65093553157643064822e+01) (17, 5.53243567064506880371e+00) (18, 2.45324472549512284658e+00) (19, 5.72209161549453959594e+00) (20, 3.12999192399435663958e+01) (21, 3.72574200043074199584e+02) (22, 1.41301972514122020641e+01) (23, 9.26886548946599719834e-01) (24, 3.44426145532288785489e+00) (25, 3.28586537008986478980e+00) (26, 4.89044462594132367528e-01) (27, 9.21837099037417173619e-01) (28, 5.74692629123938703017e-01) (29, -5.80050143577739651946e-01) (30, 1.16280019491753749961e+00) (31, -1.38689070634569873164e+01) (32, 8.57459623476329113601e+00) (0, 1.10447552789233061077e+00) (1, -1.02168206667697480938e+00) (2, -8.35288489035954029305e+00) (3, -1.62646859960778478182e+00) (4, -1.83248632916461029474e+00) (5, -3.62418295988810756914e-01) (6, -2.07445517076988966698e-01) (7, -3.75378007726674123301e-02) (8, -5.67693132152870677531e-02) (9, -4.50445936372103061807e-02) (10, -4.55529463853113492089e-02) (11, -1.98282616296916402998e-01) (12, 3.85965199454476881602e-02) (13, 1.38491633225439780830e+00) (14, -1.44393285663345413011e-02) (15, 7.17678698161196670924e-01) (16, 2.90949568430317939693e-01) (17, -2.51759076701228955153e-02) (18, -1.59858041774650183608e-01) (19, -2.68208808147195887361e-01) (20, -2.54722539395500069404e+00) (21, -5.65487266260408727447e+00) (22, -2.04724546338325652517e-01) (23, -1.89165294298359876191e-01) (24, -2.36328249731624112639e-01) (25, -3.40071297150302431778e-01) (26, -7.40792656340974742246e-02) (27, -1.45437070575385352100e-01) (28, -2.25138168371243480026e-01) (29, 4.02430641489133833488e+00) (30, 4.16520162788428849332e-01) (31, 2.68949884982988045579e+01) (32, 1.23529343126360569016e+00) (0, 3.15863704215789731222e+00) (1, -9.17172895765010626201e-02) (2, -2.45112973012719548294e+00) (3, -1.14068179875030395465e+00) (4, -1.60342143143223786472e-01) (5, -1.50413106360452492050e-01) (6, -4.57085946215751784405e-02) (7, -2.14280724122780430463e-01) (8, 3.98332809169967758112e-02) (9, 3.87628423729573179379e-01) (10, 3.85134405275161961768e-01) (11, 2.44436424055287815360e-01) (12, 9.05876735602805127634e-01) (13, 1.17930115927859979763e+00) (14, 1.12292776342483802132e+00) (15, -1.63888042353938695461e-01) (16, 1.17645886214844375139e+00) (17, 5.45845037980103642283e-01) (18, 4.43612099777412449697e-01) (19, -1.02658093428086405474e+00) (20, -6.00586298155633357965e+00) (21, -6.66878191234294259715e+00) (22, -1.02674365672901468649e+00) (23, 4.90869985835095112847e-02) (24, -6.46338270887034882506e-01) (25, -6.56204004813432106857e-01) (26, 7.16762256181309953540e-01) (27, 3.83407974101845488990e-02) (28, 3.57885954743080214602e-01) (29, 1.10307329728186935824e+01) (30, 4.96297068529868989906e-01) (31, 6.36825319062110839496e+00) (32, 1.19991463844292067797e+00) (0, 1.31749292667946593660e+00) (1, 1.90143881634499622990e+00) (2, 2.36864821121353458233e-01) (3, 8.08698272627182745964e-01) (4, 2.64857539551568477165e+00) (5, 2.64217076313117171793e+00) (6, 1.30386625612126696439e+01) (7, 1.33035589777495921737e+01) (8, 1.29856815682696211667e+01) (9, 4.63745342523681269853e+00) (10, 2.40990476478170689845e+00) (11, 2.61536801116452233273e+00) (12, 5.44307172521726823078e+00) (13, 2.88846495576168260655e+00) (14, 1.15397963978103597071e+01) (15, 1.15278128839782691983e+01) (16, 1.54759112949863926190e+01) (17, 1.19418184123837800570e+01) (18, 5.36322256888293313892e+00) (19, 2.57372797305092282372e+00) (20, 3.12559082440612172604e+01) (21, 1.55307242922968981702e+02) (22, 5.98733498861125568169e+00) (23, 1.84302947883373957616e+00) (24, 1.51344620289135933788e+00) (25, 1.60121747385765367255e+00) (26, 5.83006350615639545865e-01) (27, 8.69544146556516128754e-01) (28, 9.17210809678706828763e-01) (29, -6.94256545375857903046e-01) (30, 2.22172731930915690057e+00) (31, -5.47081912447793961007e+00) (32, 7.59784403937524377426e+00) (0, 1.12213946734932834559e+00) (1, -8.91667593368269062459e-01) (2, -8.22359790855159289436e+00) (3, -1.55448175298197988070e+00) (4, -1.82648321060182139419e+00) (5, -3.60116543421519497148e-01) (6, -3.45783053316797484023e-01) (7, -3.64076184031617566816e-02) (8, -5.49778807154014809155e-02) (9, 7.78158603856740627158e-02) (10, -4.88770317138821977498e-02) (11, -1.07360774735122330159e-01) (12, -8.48425807173070986068e-04) (13, 1.24434084136246436714e+00) (14, -1.21116518035671763553e-01) (15, 5.48714234333222417028e-01) (16, 3.22491894367012088551e-01) (17, -7.45990285860126528528e-02) (18, -1.56991731102865933467e-01) (19, -3.03753317333613215290e-01) (20, -2.36088094333567655170e+00) (21, -5.64085158292793398260e+00) (22, -3.35081343909646722778e-01) (23, -1.90795578190514569794e-01) (24, -2.58597308704221318099e-01) (25, -2.28416628192615739357e-01) (26, -4.21949828067202103998e-02) (27, -1.87178926017909308399e-01) (28, -1.46314698792023717422e-01) (29, 4.62290546007529545847e+00) (30, 4.38614601256707925536e-01) (31, 2.68741725446864769822e+01) (32, 1.28069667710010204331e+00) (0, 2.95332115001348594063e+00) (1, 4.16074190509197472387e-01) (2, 1.71645328247336603766e+00) (3, -2.45278648764965662155e-01) (4, 4.92621975554458566005e-02) (5, -1.04457284710450324511e-02) (6, 1.44608285452195645115e-01) (7, 2.80339307819288008350e-01) (8, 5.10770146366658850390e-01) (9, 6.34686468224668898230e-01) (10, 4.24921883244409159808e-01) (11, -4.26898394918960422117e-01) (12, 9.62759855384079488161e-01) (13, 1.28875784858121167353e+00) (14, 9.74070820564840511580e-01) (15, -1.79236467877501914892e+00) (16, 1.49420168900194938466e+00) (17, 1.31207611833874110419e-01) (18, -2.56779056382443637840e-01) (19, -1.58832690736409554155e+00) (20, -3.84650260201080618216e+00) (21, -6.36526194778909193417e+00) (22, -2.29681709065782824197e+00) (23, -3.85175454027102515120e-01) (24, -1.45706915753695942506e+00) (25, -1.69099130606114234077e+00) (26, 1.17716564518226962655e+00) (27, 8.63270501572693360615e-01) (28, 1.03226007696125554602e+00) (29, 8.42741127919732235796e+00) (30, 4.08887619287734566109e-02) (31, 1.81640267519051477052e+01) (32, 1.42496327621999618884e+00) (0, 1.94420792419044174970e+00) (1, 2.32291518842564048697e+00) (2, 4.48123826879508690979e-01) (3, 8.30172699406322656124e-01) (4, 2.71710288591059523355e+00) (5, 2.82083954574047579555e+00) (6, 6.03328344885212253246e+00) (7, 1.40283644003942740142e+01) (8, 1.36779930978571950817e+01) (9, 5.29878882699125952627e+00) (10, 2.64770097502858803296e+00) (11, 2.83047706938331966597e+00) (12, 5.85705814040564742839e+00) (13, 3.20175290994827888014e+00) (14, 1.18907415234847633201e+01) (15, 2.65384166805917196541e+01) (16, 1.58702381313745686242e+01) (17, 1.24700074387205148696e+01) (18, 5.55852018311722151367e+00) (19, 2.57184549648566962432e+00) (20, 3.15960812282615357560e+01) (21, 1.55397965253377861927e+02) (22, 6.07205952494373235595e+00) (23, 1.93912249847119388946e+00) (24, 1.64578966479527788458e+00) (25, 1.69530101230347285401e+00) (26, 5.84997456979759355988e-01) (27, 9.55319855503090620275e-01) (28, 1.06605660725023532187e+00) (29, -5.43409454800769742278e-01) (30, 2.44473323300147216131e+00) (31, -5.21467782382432698540e+00) (32, 8.19373888323259613742e+00) (0, 2.00095831859437689459e+00) (1, 1.02401082042812907602e+00) (2, 6.76822323023862471025e-01) (3, 8.42723165168937748959e-01) (4, 1.35372861660272536533e+00) (5, 1.30996765079074339866e+00) (6, 5.97152534041506122264e+00) (7, 6.23141645126405840927e+00) (8, 6.08866582725149463329e+00) (9, 2.60038090714605019116e+00) (10, 1.22244134855341224366e+00) (11, 1.33662076576853117160e+00) (12, 5.87934549427890029705e+00) (13, 6.34667549493683846862e+00) (14, 2.71606391146843826334e+01) (15, 2.69808590784733688395e+01) (16, 1.60170752094094481777e+01) (17, 5.50587001830441824524e+00) (18, 2.29154200318410339321e+00) (19, 5.63612924545650706420e+00) (20, 3.13106527102642679949e+01) (21, 1.55484684960032410572e+02) (22, 6.10614860593309316528e+00) (23, 1.00141158486435877251e+00) (24, 1.59189104344475107489e+00) (25, 3.23244864111647611793e+00) (26, 3.83397980305977714721e-01) (27, 1.06947186230803348295e+00) (28, 6.93735185856831249041e-01) (29, -6.16086634971782731718e-01) (30, 1.10614332765183553953e+00) (31, -1.37547116197671641658e+01) (32, 8.66499556710782314894e+00) (0, 1.25786668112638966299e+00) (1, -2.55206085068720056608e-01) (2, -2.81479583003114974815e+00) (3, -1.48986089726915915676e+00) (4, -7.25580533879594868907e-01) (5, -3.84277819245013918525e-01) (6, -2.02643153425626332265e-01) (7, -5.06245411214713836312e-02) (8, 5.43718231677295660287e-02) (9, -9.23812456810312737643e-02) (10, -9.05398972171556765121e-02) (11, -6.33861428696345791112e-02) (12, 4.45855764190547398940e-01) (13, 5.86989129330425019049e-01) (14, 7.77795450873395077807e-01) (15, 2.89411820066488648107e-02) (16, 3.71670627646062345928e-01) (17, 5.09550035962976835546e-02) (18, 3.85706724104321330149e-02) (19, -2.94248658370515836502e-01) (20, -3.47897558544121432433e+00) (21, -3.97290217412728008384e+00) (22, -3.82691537454631747206e-01) (23, -1.34935335206491452409e-01) (24, -1.90490761129730512558e-01) (25, -2.84795893110030007289e-01) (26, 2.76577567956042713604e-01) (27, -4.99899842809633458002e-03) (28, -3.70186218904893088455e-02) (29, 2.96255135368693167663e+00) (30, 5.49717106419860823685e-01) (31, 1.88413566851159401949e+01) (32, 9.62062277580365554641e-01) (0, 2.64417396839023277622e+00) (1, -8.09171973623684787080e-02) (2, 1.43768141505619206910e+00) (3, -1.87476606633377596012e+00) (4, -1.56984441558958742746e-01) (5, -1.07706839950880886581e-01) (6, 9.12650992201776839474e-02) (7, 3.76540326818205761672e-02) (8, 3.97486594119658767643e-02) (9, 1.04125838672290971232e-01) (10, 2.04226158583910910593e-01) (11, 1.33243987453533441201e-01) (12, 3.26034776762398448291e-01) (13, 8.98256077439473887836e-01) (14, 7.44966692879667213845e-01) (15, 1.92252970827139352261e-02) (16, 5.00088627557216502950e-01) (17, 1.49423036979692613890e-01) (18, 9.20813916522700559586e-02) (19, -2.04392466602369510253e-01) (20, -8.32357697325435741398e-01) (21, -1.01905977063052457510e+01) (22, -6.41078238174812298222e-02) (23, -7.46708461988858235303e-02) (24, -5.74609544987397663496e-02) (25, -3.68077985320517872547e-02) (26, 6.11392653199213792492e-02) (27, -4.21327729859064317730e-02) (28, -9.44534752757393153422e-02) (29, 6.27017879840503056244e+00) (30, 5.67438922510270837840e-01) (31, 3.32362577539839136875e+01) (32, 9.22520775200456499832e-01) (0, 1.13849377062776246916e+00) (1, 8.52688800243344813268e-01) (2, 6.18228007471093160552e-02) (3, 7.24918307783988802306e-01) (4, 1.08575171935132885892e+00) (5, 2.24864596337651967417e+00) (6, 5.45037178906697672431e+00) (7, 5.72181522629718042339e+00) (8, 5.58801714542407435005e+00) (9, 2.06622319438048274165e+00) (10, 9.90644664395773588694e-01) (11, 1.07463604266569423551e+00) (12, 2.28562605059301837684e+00) (13, 5.29714414282627465980e+00) (14, 2.58703844320462792439e+01) (15, 2.59101718809889405293e+01) (16, 1.48201817182228889891e+01) (17, 5.11122842445273928291e+00) (18, 2.14597506805037951949e+00) (19, 5.15153978346627550167e+00) (20, 3.08116922256919849588e+01) (21, 1.54846375312881548325e+02) (22, 5.96148526231300213141e+00) (23, 1.57453404256462770050e+00) (24, 1.44849842242249748914e+00) (25, 2.86915480260751820651e+00) (26, 1.61817396840405358649e-01) (27, 7.62846665183761984963e-01) (28, 4.94314957274860966585e-01) (29, -7.93795762230827484096e-01) (30, 7.69980646477767094460e-01) (31, -1.49773756112560381126e+01) (32, 7.53232783900377000919e+00) (0, 2.41564162222006251213e+00) (1, -1.89645486223275760995e-01) (2, -3.00728383261859244513e+00) (3, -1.44582386118326233770e+00) (4, -2.85334486585012148119e-01) (5, -1.85007803681246835170e-01) (6, -8.40922389272586029429e-02) (7, -4.05118671467165347710e-03) (8, 8.11185098928251940853e-02) (9, 2.38805652829817749438e-01) (10, 2.51656092525176400265e-01) (11, 1.89743186298980487381e-01) (12, 3.55352272509893818420e-01) (13, 8.40280168927764803399e-01) (14, 9.75891967237711543959e-01) (15, 3.94236059072548550297e-01) (16, 3.20039465621163088382e-01) (17, 1.95062926536814756906e-01) (18, 8.69460846135362702691e-02) (19, -2.44612992221355574074e-01) (20, -5.34225833204065247983e-01) (21, -7.79705278456588679603e+00) (22, -1.13422786498828878643e-01) (23, -1.55028577808904666213e-01) (24, -1.48825194420257489458e-01) (25, -1.91695626558700482622e-01) (26, 3.36454756996327764007e-01) (27, -3.26641773658700867999e-02) (28, -1.55193137555066890121e-01) (29, 6.78384939953779664279e+00) (30, 6.47167463719173219339e-01) (31, 1.66695726945690587684e+01) (32, 8.52658883258009758777e-01) (0, 1.88824569837429279140e+00) (1, -1.05721950877295767235e+00) (2, -2.68735745195372643934e+01) (3, -3.03815928921113211914e+01) (4, -2.35193062200186853161e+00) (5, -6.27272894784881018815e-01) (6, -1.35100427781289361695e-01) (7, 2.23911500542340160050e-03) (8, -6.07043082377035150832e-02) (9, 7.80623634595093096600e-01) (10, 1.61734530382214025668e-01) (11, 2.46595504452049724131e-01) (12, 7.88719680880174300874e-01) (13, 1.54820515904176625455e+00) (14, 1.47374850804302770513e+00) (15, 8.46554880164420819888e-01) (16, 6.40766411534184454624e-01) (17, 3.07109688878401287937e-01) (18, 1.88404624647654950209e-01) (19, -8.84653092018738290703e-02) (20, -1.90259422076035811244e+00) (21, -1.90726288099159302369e+00) (22, -1.19791231670300521439e-01) (23, 1.75135335186244800454e-01) (24, 4.92892411360607130000e-01) (25, -9.74898242080739912963e-02) (26, 1.57637837380197182169e-01) (27, 1.79803142320922662578e-02) (28, 6.04703305661941567517e-02) (29, 2.09291484988288667424e+00) (30, 5.10275842605461349422e+00) (31, 7.24775272193748776317e+01) (32, 9.01853646196611680175e-01) (33, 1.35916378779607516236e+00) (34, -1.91724716853270660266e+00) (35, 1.35262473358112078614e+00) (36, -2.96459197486049408354e+00) (37, -1.48455018897166812764e+00) (38, 1.32152330933409434266e+00) (39, -3.59531810823787756348e+00) (40, -3.26736609742500805353e+00) (41, 1.35327264352040987916e+00) (42, 1.34515535516935091920e+00) (43, -1.97682283800015667907e+00) (44, -1.12879671888318107165e+01) (45, 1.29933248890834551759e+00) (46, -3.80226135191062430962e+00) (47, -1.72692026657016413083e+01) (48, 1.46768406464057665772e+00) 
