FANN_FLO_2.1
num_layers=3
learning_rate=0.700000
connection_rate=1.000000
network_type=0
learning_momentum=0.000000
training_algorithm=2
train_error_function=1
train_stop_function=0
cascade_output_change_fraction=0.010000
quickprop_decay=-0.000100
quickprop_mu=1.750000
rprop_increase_factor=1.200000
rprop_decrease_factor=0.500000
rprop_delta_min=0.000000
rprop_delta_max=50.000000
rprop_delta_zero=0.100000
cascade_output_stagnation_epochs=12
cascade_candidate_change_fraction=0.010000
cascade_candidate_stagnation_epochs=12
cascade_max_out_epochs=150
cascade_max_cand_epochs=150
cascade_num_candidate_groups=2
bit_fail_limit=3.49999999999999977796e-01
cascade_candidate_limit=1.00000000000000000000e+03
cascade_weight_multiplier=4.00000000000000022204e-01
cascade_activation_functions_count=10
cascade_activation_functions=3 5 7 8 10 11 14 15 16 17 
cascade_activation_steepnesses_count=4
cascade_activation_steepnesses=2.50000000000000000000e-01 5.00000000000000000000e-01 7.50000000000000000000e-01 1.00000000000000000000e+00 
layer_sizes=16 21 2 
scale_included=0
neurons (num_inputs, activation_function, activation_steepness)=(0, 0, 0.00000000000000000000e+00) (0, 0, 0.00000000000000000000e+00) (0, 0, 0.00000000000000000000e+00) (0, 0, 0.00000000000000000000e+00) (0, 0, 0.00000000000000000000e+00) (0, 0, 0.00000000000000000000e+00) (0, 0, 0.00000000000000000000e+00) (0, 0, 0.00000000000000000000e+00) (0, 0, 0.00000000000000000000e+00) (0, 0, 0.00000000000000000000e+00) (0, 0, 0.00000000000000000000e+00) (0, 0, 0.00000000000000000000e+00) (0, 0, 0.00000000000000000000e+00) (0, 0, 0.00000000000000000000e+00) (0, 0, 0.00000000000000000000e+00) (0, 0, 0.00000000000000000000e+00) (16, 4, 5.00000000000000000000e-01) (16, 4, 5.00000000000000000000e-01) (16, 4, 5.00000000000000000000e-01) (16, 4, 5.00000000000000000000e-01) (16, 4, 5.00000000000000000000e-01) (16, 4, 5.00000000000000000000e-01) (16, 4, 5.00000000000000000000e-01) (16, 4, 5.00000000000000000000e-01) (16, 4, 5.00000000000000000000e-01) (16, 4, 5.00000000000000000000e-01) (16, 4, 5.00000000000000000000e-01) (16, 4, 5.00000000000000000000e-01) (16, 4, 5.00000000000000000000e-01) (16, 4, 5.00000000000000000000e-01) (16, 4, 5.00000000000000000000e-01) (16, 4, 5.00000000000000000000e-01) (16, 4, 5.00000000000000000000e-01) (16, 4, 5.00000000000000000000e-01) (16, 4, 5.00000000000000000000e-01) (16, 4, 5.00000000000000000000e-01) (0, 0, 0.00000000000000000000e+00) (21, 6, 5.00000000000000000000e-01) (0, 6, 0.00000000000000000000e+00) 
connections (connected_to_neuron, weight)=(0, -2.56579017667783020329e+01) (1, -3.33819874192582375372e+01) (2, -1.06153153946228617777e+00) (3, 2.05496692321091578570e-02) (4, 1.16342633701932163248e+00) (5, 3.49067107851410818320e-01) (6, 4.72464055147117711897e+00) (7, 5.44481941882432485258e-01) (8, 2.23171164670531801955e-01) (9, -3.37472950694906925762e+00) (10, -1.79120685595394957268e+00) (11, -4.69573809336739367293e-01) (12, 5.58792903548816152770e-02) (13, 8.78313253421689976719e-01) (14, 6.50937295916126572592e+01) (15, 1.17277523073498679551e+00) (0, 7.22030309358357713645e-02) (1, -4.96368863026975315478e+00) (2, -2.27849124032855204769e-01) (3, -4.60202073029587349628e-02) (4, -1.17906351975096398976e-01) (5, 1.06462312519935009547e+00) (6, 5.90067074776474020936e-01) (7, 1.27063307776810696659e+00) (8, 3.96258274637731500167e-01) (9, -8.98745451471610934391e+00) (10, -1.67948307348891345825e+00) (11, -1.68337589597579628808e+00) (12, 1.95117036907641105969e+00) (13, 8.29970476016951863585e+00) (14, 4.67543548890203375379e+00) (15, 9.49255955074124413429e-01) (0, -4.61741270562324412907e+00) (1, -4.37697309405253918158e+01) (2, -3.52059725432516135157e+00) (3, -1.59209478170524137974e-01) (4, -3.84563968735068206772e-01) (5, 6.00278314174533922376e-01) (6, 7.43220665737323149536e-01) (7, 5.99461186468478457456e-01) (8, -1.79964893738320896865e+00) (9, -7.70658244984207385642e+00) (10, -4.19403761224265725360e+00) (11, -8.47136359475007760800e-01) (12, 2.08427144005029552076e+00) (13, 1.31289066759374906113e+00) (14, 1.63261597033147665137e+00) (15, 6.30851696845612597286e-01) (0, -2.99775001729067831491e+01) (1, -2.93621926695584072320e+01) (2, -5.61168038723280804270e-01) (3, -1.41775509007094707714e-01) (4, 3.47084008922983466849e-01) (5, 6.78845801146887528610e-01) (6, 5.04639666986912072133e+00) (7, 5.05294681584893656812e-01) (8, 3.73514578431207444620e-01) (9, -3.24693870471952239498e+00) (10, -1.98817007699450787328e+00) (11, -2.41776476302896031756e-01) (12, -2.69246116848257943666e-01) (13, 6.26543698197715936971e-01) (14, 3.71539520586327327578e+01) (15, 1.09242477159777573448e+00) (0, -6.87617662872887969172e+00) (1, -3.48612013006903538326e+01) (2, -4.81286284815022225025e-01) (3, -6.27183688763376795405e-02) (4, -3.17543071533142734486e-02) (5, 1.52300272556536608892e-01) (6, 4.82534059353688604688e+00) (7, 4.32757011126477575402e-01) (8, 2.31032357463668874820e-01) (9, -5.08042159079674426891e+00) (10, -1.74030342839990015413e+00) (11, -1.94876994863402486224e-01) (12, -7.18533642272887879132e-02) (13, 1.48237385938566745835e+00) (14, 6.77828176781706162046e+01) (15, 1.10773523786467320562e+00) (0, 1.20710282995188800115e+00) (1, -3.14650691904521995212e+00) (2, -6.32889774030435808827e-02) (3, 7.33172598943611780742e-02) (4, -2.30968637302478463358e-01) (5, 1.07289301634219524928e+00) (6, 4.22779157865360355473e-01) (7, 1.36405932022804399217e+00) (8, 3.44293087111091578034e-01) (9, -9.07228598428937793585e+00) (10, -1.89554885427968922151e+00) (11, -2.12817557739217200208e+00) (12, 1.88044289408889819804e+00) (13, 8.39134886358459830547e+00) (14, 4.49696505350300945736e+00) (15, 9.00672440085702019630e-01) (0, 5.16163796228233606733e-01) (1, -3.70361218650218191328e+01) (2, -4.37328986939617359031e-01) (3, 1.72199003784747811663e-01) (4, -3.14765541822481564882e-01) (5, 1.18786021002311481531e+00) (6, 4.18247464073273955698e-01) (7, 1.06460442134248411961e+00) (8, 4.18847898610972357858e+00) (9, -7.87720834412158144033e+00) (10, -5.71206472775125018160e+00) (11, -1.71665663731740836262e+00) (12, 5.08909751634649154539e+00) (13, 1.53191348047929807308e+01) (14, 2.67188277434179610736e+01) (15, 9.11919609184331569907e-01) (0, -9.98082525260745256901e+00) (1, -3.11889475112941951807e+01) (2, -4.55625189899433735707e-01) (3, -1.64652466956837426060e-02) (4, 1.80431547151013414731e-02) (5, 7.82557480760380785867e-02) (6, 4.67201103385165783521e+00) (7, 4.45560144376406952471e-01) (8, -3.81599617905259869133e-01) (9, -4.71978423726059492793e+00) (10, -1.84260011029212500411e+00) (11, -2.01795933366224033989e-01) (12, -2.20367690977006480679e-01) (13, 1.18990749587163979761e+00) (14, 6.75225479123667611248e+01) (15, 1.00584354192058000876e+00) (0, -6.17217661619796142958e+00) (1, -4.98646632154946658488e+01) (2, -4.06614998010586248256e+00) (3, -3.54354452503006234210e-01) (4, -4.12644491771587906825e-01) (5, 7.52273313703369139738e-01) (6, 7.96988282586705842903e-01) (7, 8.18945959539408518957e-01) (8, -1.58262444153591563811e+00) (9, -1.68691461579606354348e+01) (10, -4.93593507591694002912e+00) (11, -7.50340173965881485074e-01) (12, 1.35015394022481993730e+00) (13, 1.62146396636373779643e+00) (14, 1.61738889269890351308e+00) (15, 7.45108998512914899592e-01) (0, -5.58576489589895988641e-02) (1, -5.61754612477329917652e+00) (2, -6.38852236228706571453e-01) (3, -1.45676574790301577300e-01) (4, -6.15597601646171388445e-01) (5, -1.15070912491999965965e-01) (6, 1.84663269438419330726e+00) (7, 7.14164895412550820852e-03) (8, -2.20451415537331918415e+00) (9, -2.45237159136803910542e+01) (10, -1.04131770705618382777e+01) (11, -4.68005316733071108359e+00) (12, 1.61284943291438231938e+01) (13, -1.72035191516993624106e+00) (14, 2.47585094002806371805e+00) (15, 5.66203186084412168899e-02) (0, -9.33352206835372122384e-01) (1, -2.42773203543327369403e+01) (2, -7.08735278748066965804e-01) (3, 1.02556655674217594987e-02) (4, 2.24897283343599929673e-01) (5, 1.00066233290212558416e+00) (6, 8.78057366728705490644e-01) (7, 1.70381477045204143828e+00) (8, 7.34006313986016767359e+00) (9, -1.67695390819114464875e+01) (10, -2.27847253186727494167e+00) (11, 3.67449716875477339073e-01) (12, 6.61556729300736279242e+00) (13, 1.01614174631878615429e+01) (14, 2.15785796027348339976e+01) (15, 8.26354403616609611838e-01) (0, 8.90781042495489283617e-02) (1, -4.82196644625785797444e+00) (2, -2.04624581823715789852e-01) (3, -4.36871108305879503331e-03) (4, -1.91920945471887538503e-01) (5, 1.13626892894891118324e+00) (6, 5.32202975035491743228e-01) (7, 1.38839316667264012217e+00) (8, 4.62763244830640185778e-01) (9, -9.02248144498868853702e+00) (10, -1.73352277530833331909e+00) (11, -1.69257427847263008935e+00) (12, 1.86457285194366217951e+00) (13, 8.37260203049136464415e+00) (14, 4.07954505076600870694e+00) (15, 9.61165865510525740945e-01) (0, -4.75808428201979261019e+00) (1, -4.53566913155626849630e+01) (2, -3.53022645024727443896e+00) (3, 2.59005318558512762084e-02) (4, -4.02419671569603398797e-01) (5, 9.68379575107098045095e-01) (6, 7.30633704657945526328e-01) (7, 8.45977403188511556387e-01) (8, -1.49770319324916711956e+00) (9, -8.46666601210202607319e+00) (10, -2.25149043179414798388e+00) (11, -1.41766396505003400286e+00) (12, 2.27385224916603023715e+00) (13, 1.89016267363886059094e+00) (14, 1.07615107852585123460e+00) (15, 7.47755004061965933282e-01) (0, 1.81959553322835310141e-01) (1, -9.38111665833696939387e+00) (2, -2.82553130240154742880e-02) (3, 2.83664567800592459790e-01) (4, 7.41426990218994497184e-01) (5, 1.03065330771869767545e+00) (6, 8.20268681483162342971e-01) (7, 9.90759022433664982010e-01) (8, 4.68699497571731882317e+00) (9, -1.11664668074141175680e+01) (10, -2.57929524394858367131e+00) (11, -9.55877349597431757999e-01) (12, 3.89470894635651099236e+00) (13, 2.88535282763545630758e+00) (14, 3.51601823152661774330e+00) (15, 8.99570935725481968248e-01) (0, 1.63375299542386609453e+00) (1, 1.40676523668230757380e+00) (2, 1.19795127255207201067e+00) (3, 5.12242082964034395332e-01) (4, -1.64672822214623898462e-03) (5, 1.04607094848990067604e+00) (6, 8.58003126970647955751e-01) (7, 1.06955504863792372205e+00) (8, 2.61512881242574879437e+00) (9, -8.78245559031570266484e+00) (10, -2.34624221740449323548e+00) (11, -1.30428230239596354423e+00) (12, -7.73880181499476682561e-01) (13, 1.93219664799185575355e+00) (14, 1.55611815754423865599e+00) (15, 9.44152007196831677405e-01) (0, 6.03623867738661723514e-01) (1, -2.20248329121018882049e-01) (2, 2.22793327422268372384e-01) (3, -1.69315378955753492729e-01) (4, -2.76293305062422500651e-01) (5, -7.17508453283155905877e-02) (6, 1.81760626319798523909e+00) (7, 1.50482798561894326461e+00) (8, 2.42933162832343008120e-01) (9, -1.38694600143614490406e+01) (10, -1.62913584010931811186e+00) (11, -1.29334499374538380856e+00) (12, -6.95225292571347908144e-01) (13, -3.39323891729404192308e-01) (14, 6.71418797715597293063e+00) (15, 2.55277554801070083457e+00) (0, 1.80052210471402518444e+00) (1, 1.56050508367754092731e+00) (2, 1.04122094833930645130e+00) (3, 4.80576203624997644326e-01) (4, 3.79107439678246505022e-02) (5, 1.24548483007389965138e+00) (6, 8.43614039014617622669e-01) (7, 1.13547295549320836905e+00) (8, 1.08669118237301787211e+00) (9, -8.72101934443282189591e+00) (10, -2.23551457542771947473e+00) (11, -1.39008261387851450586e+00) (12, -8.64847635960578675629e-01) (13, 2.18250898944482241149e+00) (14, 1.45776765934401209002e+00) (15, 1.11967437639679356920e+00) (0, -2.99442356431173450915e+01) (1, -2.95688158510058549666e+01) (2, -6.32159061786669140837e-01) (3, 1.72541341984800977727e-02) (4, 3.70332249274660518790e-01) (5, 1.99486433776322413802e-01) (6, 5.16807926476624945877e+00) (7, 5.03347414853129837553e-01) (8, 7.29488118285712805466e-01) (9, -3.54994278398147455889e+00) (10, -1.91828494246975278514e+00) (11, -2.89134970190249640520e-01) (12, -3.81527559111742464726e-01) (13, 6.77693243911998033369e-01) (14, 3.71690594807452754367e+01) (15, 1.14581441100530745381e+00) (0, -9.94780635854205785851e-02) (1, -4.90897837785952120271e+01) (2, -5.69846220434630290619e-01) (3, -2.29734678179001089449e-01) (4, -5.70315094329308380772e-01) (5, -2.36174690772720102805e-01) (6, 1.84644365539998434045e+00) (7, 1.45737210820621916618e-02) (8, -2.34583145497598311024e+00) (9, -2.43186842767388213815e+01) (10, -1.03751979058475445328e+01) (11, 1.00064346135331661003e+01) (12, 1.46514187650453564515e+01) (13, -1.53453004449909613527e+00) (14, 2.30545143648401218428e+00) (15, 4.40240269104985454396e-02) (0, 2.94434198526357215897e-01) (1, -1.40961837994589807010e+01) (2, -5.73189792583868817921e-01) (3, -4.65825388791083760953e-02) (4, -1.43231705407525083951e-01) (5, 9.98063158678202611007e-01) (6, 7.07872582461632537942e-01) (7, 1.33264890660269319511e+00) (8, 1.15697691205865083042e+00) (9, -6.85410739163836613130e+00) (10, -5.93497283309569745313e+00) (11, -4.31470491351193086160e+00) (12, 4.99602944573724094823e+00) (13, 8.59724520645905876393e+00) (14, 9.86274918178289716764e+00) (15, 9.04483218931386723227e-01) (16, -5.71272681637165291590e+00) (17, -4.86522562652718149057e-01) (18, 5.06571154709883558098e+02) (19, -6.11684548195022248507e+00) (20, -3.69947532623237451688e+00) (21, -1.29636441786579093005e+00) (22, -3.57703326899986917553e+00) (23, -4.06690622670318280285e+00) (24, 1.50000000000000000000e+03) (25, -3.61391243317207681685e+02) (26, -1.34100956147184255940e+01) (27, -6.70733370515868898565e-01) (28, -6.64926320798979077153e+02) (29, -3.98258642910023608064e-01) (30, -5.86558973914532266747e-01) (31, -9.91931086476128065499e+00) (32, -5.21089725658680169573e-01) (33, -4.38144278056423974732e+00) (34, 2.58210720908501798476e+02) (35, -2.17244233808753595127e+00) (36, 5.69376628946514529162e+00) 
