FANN_FLO_2.1
num_layers=3
learning_rate=0.700000
connection_rate=1.000000
network_type=0
learning_momentum=0.000000
training_algorithm=2
train_error_function=1
train_stop_function=0
cascade_output_change_fraction=0.010000
quickprop_decay=-0.000100
quickprop_mu=1.750000
rprop_increase_factor=1.200000
rprop_decrease_factor=0.500000
rprop_delta_min=0.000000
rprop_delta_max=50.000000
rprop_delta_zero=0.100000
cascade_output_stagnation_epochs=12
cascade_candidate_change_fraction=0.010000
cascade_candidate_stagnation_epochs=12
cascade_max_out_epochs=150
cascade_max_cand_epochs=150
cascade_num_candidate_groups=2
bit_fail_limit=3.49999999999999977796e-01
cascade_candidate_limit=1.00000000000000000000e+03
cascade_weight_multiplier=4.00000000000000022204e-01
cascade_activation_functions_count=10
cascade_activation_functions=3 5 7 8 10 11 14 15 16 17 
cascade_activation_steepnesses_count=4
cascade_activation_steepnesses=2.50000000000000000000e-01 5.00000000000000000000e-01 7.50000000000000000000e-01 1.00000000000000000000e+00 
layer_sizes=6 9 2 
scale_included=0
neurons (num_inputs, activation_function, activation_steepness)=(0, 0, 0.00000000000000000000e+00) (0, 0, 0.00000000000000000000e+00) (0, 0, 0.00000000000000000000e+00) (0, 0, 0.00000000000000000000e+00) (0, 0, 0.00000000000000000000e+00) (0, 0, 0.00000000000000000000e+00) (6, 4, 5.00000000000000000000e-01) (6, 4, 5.00000000000000000000e-01) (6, 4, 5.00000000000000000000e-01) (6, 4, 5.00000000000000000000e-01) (6, 4, 5.00000000000000000000e-01) (6, 4, 5.00000000000000000000e-01) (6, 4, 5.00000000000000000000e-01) (6, 4, 5.00000000000000000000e-01) (0, 0, 0.00000000000000000000e+00) (9, 6, 5.00000000000000000000e-01) (0, 6, 0.00000000000000000000e+00) 
connections (connected_to_neuron, weight)=(0, -2.50085978408946481011e+01) (1, 5.58411556914940643281e+00) (2, -1.10565259676722824622e+01) (3, 2.32991384497735332104e+01) (4, -1.63349164748513430823e+02) (5, 1.53403859389863295171e+00) (0, -7.39602230129343638509e+01) (1, -4.10939272022710699872e+00) (2, -1.76371049564206998639e+01) (3, -2.41687974070425415363e+00) (4, 4.01307540866567023841e+02) (5, 7.86454490441487141794e+00) (0, -2.57951953302715466521e+01) (1, 1.28719465298835569200e+01) (2, 2.83336832124100546082e+00) (3, -2.85145811003776650239e+00) (4, -3.76923322577583974180e+02) (5, 1.31720878723833068058e+00) (0, -3.80332850996052371784e+01) (1, 1.26692553853573244282e+01) (2, 3.21654198815588721061e+00) (3, -1.14011879840538887798e+00) (4, -2.30816366786447133563e+02) (5, 1.19995517125649286960e+00) (0, -1.01213011517685291807e+01) (1, 5.99766393695016941656e-01) (2, -1.95369729762528576700e+00) (3, -4.51184670971524237615e+00) (4, -2.41684234346685713035e+02) (5, 2.80451490501765476893e+00) (0, -8.56547079828319368744e+00) (1, 6.22311619508065483330e+00) (2, -3.32569591417628762642e+00) (3, 1.65491231558811513480e+01) (4, -6.38611292104500080313e+02) (5, 1.70425300805167023732e+00) (0, -3.53897148431706654037e+01) (1, 6.77741231070250815804e+00) (2, -1.40503167403981987782e+00) (3, -2.22654047606248717273e+00) (4, -9.19992098661819710514e+01) (5, 1.51738629983462081086e+00) (0, 9.70359937826829721530e+00) (1, 6.21077212393625011089e+00) (2, -7.49122448449549960259e+00) (3, -2.86561635905972700300e+01) (4, -2.73935279993520566677e+02) (5, 6.45763101795438476671e+00) (6, -3.48416055580027048677e+01) (7, -2.65967543775065884404e+01) (8, -2.68969548921713936807e+01) (9, -1.31993299428133941120e+01) (10, 7.36141103573852149111e+01) (11, 2.87847685684166911813e+01) (12, -4.81029015454000496987e+00) (13, -7.38873680809725783547e+01) (14, 1.16501357101437879038e+01) 
